{ "networks":
[
{
"fitness":1.727577,
"weights":[
[
[1.41081,-0.1914478,0.830655,-3.925001,-2.475312,0.04443336,-0.2415558,0.5055773,-2.900738,-3.232126,1.858714,3.238522,-1.79802,-2.456613,-2.253623,-0.370042,-0.8322488,-1.3168,1.339151,1.260741,-3.291612,3.264544,-0.9669247,-3.452098,-0.1351076],
[0.2251415,2.120878,2.024655,3.733938,3.66262,-1.460689,-2.717306,-2.352281,-1.483019,-3.771356,0.92506,-1.198088,3.963513,2.804695,-2.331075,-1.086654,-3.559401,1.164538,-2.566529,2.206117,-0.613611,2.857321,2.828755,-2.495429,-3.101229],
[1.447715,1.250873,3.81037,0.7571815,2.985714,2.283101,-0.05301809,-0.262221,-2.358061,0.3943159,-2.746529,3.733403,-3.413843,-2.998953,-2.243156,3.460879,3.366824,-3.303883,-0.6468371,1.525361,0.8865805,-1.143822,-2.68891,2.572674,0.1995721],
[-3.192004,-3.761077,1.600644,1.709243,-1.180906,2.974756,-0.5441073,1.238063,2.68059,-2.616416,1.81006,2.462128,0.3556624,1.899608,-2.502596,-3.106718,-3.008277,1.189641,-0.3060819,0.7901773,-3.201606,-3.054114,3.474154,0.6834574,-1.906782],
[-0.423762,1.942118,1.084579,2.494468,-3.753959,0.2332916,1.456548,2.646582,1.454294,2.053169,-3.35925,-1.372928,2.522371,-2.286832,1.271974,3.223689,-2.64857,3.383862,0.5040891,-0.6761752,-0.9238326,-2.522138,3.83947,-2.641326,-2.212035],
[3.179336,-1.711828,-3.156863,-3.756546,-1.633226,-1.776737,-1.383503,2.511798,0.5498211,-3.936493,2.69767,-2.643259,3.870534,2.778225,-1.225643,1.163263,-2.244963,-1.442641,0.2379315,1.743748,3.931905,-1.509697,-3.042342,2.8706,2.60324],
[-3.863586,1.424655,-2.724602,0.1932079,1.921926,-1.509063,-3.386167,-1.160372,-2.258386,2.87553,2.575274,3.381721,3.077513,0.16407,-0.6045208,-3.29852,-0.2233573,-3.565177,-0.685794,2.738435,1.103233,-2.535708,-3.559529,3.842782,-2.326662],
[2.460361,-3.011374,-0.9434456,1.936208,-1.810177,2.596165,-1.315927,3.345262,1.880301,-0.6877995,-1.576159,-2.131072,1.975862,3.482864,-2.429942,-1.053373,-3.681013,3.90737,3.508245,-3.431323,1.933653,-0.09043734,-1.623432,3.065063,0.2379271],
[-0.9393098,2.418932,2.452044,-0.2154203,3.955653,-0.02015173,1.206095,3.556007,-0.3543565,-3.145995,3.675854,-2.82511,-3.499517,-0.9175555,1.244543,-3.123861,1.098606,-3.97564,1.450317,-2.172548,3.300817,1.637377,-0.08528125,-2.100414,0.687506],
[-2.116146,-1.254698,-1.385081,-1.981782,3.146915,-1.0384,-0.07049281,-0.8966169,2.682748,3.618104,-2.89454,-3.490684,-0.125912,-3.211104,1.808695,3.275401,-0.9459621,-3.787063,1.531456,2.551617,3.572298,3.035963,1.353412,-3.836542,-2.880398],
[-1.778297,-1.486151,-2.77916,-1.495945,2.216331,1.034364,-2.170064,3.713711,1.712117,-1.292619,0.165311,-3.985509,-3.186178,1.85746,-1.53425,2.976445,-2.441661,1.315678,-2.422149,1.621105,-2.838548,1.866064,0.802818,-1.307635,-2.022584],
[3.526497,-2.172858,2.766235,2.094073,-1.99636,-3.569657,3.967086,1.013852,-0.2477593,2.43504,-3.833328,-3.992242,2.901981,-2.892873,1.647472,-3.640451,-2.52548,-0.840299,-0.5159795,1.429343,-2.039654,3.229878,-2.645233,-3.634984,2.016203],
[-2.223494,-1.320153,1.326046,-1.855102,-3.30357,2.146031,-0.5422136,0.7621807,-1.772339,1.375606,1.771519,3.430847,-1.537219,-3.915542,1.516485,3.873563,0.4093513,-1.310889,-3.169773,2.251677,-0.3209819,3.72725,2.787034,-3.751167,-0.5046752],
[0.8163311,3.834033,-3.611879,0.8116714,-3.989474,1.585519,2.286861,-1.769188,0.426547,-0.5818709,-1.277695,2.528795,1.067958,-0.8860435,-1.231262,1.883892,-2.673264,-1.570228,-2.139245,-0.00723326,-1.111921,0.2480756,-1.775985,-1.845178,2.114963],
[3.100536,-0.1488588,3.305568,1.62235,-0.6350171,2.963855,-0.3922345,-1.15011,-3.246482,-1.84509,2.649733,-1.03406,-0.2325507,2.795619,2.306997,-0.5777532,-2.099678,0.1903723,-3.927197,-3.369498,0.6158258,-0.3762284,3.277106,-1.839409,-2.464217],
[-0.0071707,-2.512918,-3.912023,-1.572309,2.597161,-2.538587,1.004347,2.834336,1.615903,-0.9807429,-1.565435,3.899831,1.360931,3.190549,-1.72603,2.299745,2.582044,3.785983,1.164633,-1.465854,3.591123,-0.9198431,-2.731486,-1.721608,1.415585],
[-2.65602,-2.464316,-3.184394,2.872321,-3.25231,-3.95759,-1.34699,3.317837,-3.4341,2.315722,-0.5485382,-3.580132,-3.408216,-3.800839,0.3870023,0.8414658,3.450084,3.657045,1.995809,2.751761,2.316895,3.543295,2.953346,-1.023944,-0.7499896],
[0.373505,-0.9663318,-2.660454,3.873839,-3.191925,2.926967,0.0459563,3.881545,1.207463,-1.979631,3.374527,1.568883,-3.284318,1.78848,-3.552109,-3.888985,0.8965169,1.853433,-0.3922052,2.618605,0.09214234,-1.51828,2.446766,2.685778,-3.828229],
[-0.6564603,3.026991,-0.2010542,-1.259027,-1.51818,-0.3472085,-3.082727,3.850265,-0.502696,-3.877206,0.4560642,2.392022,-1.257553,-1.212973,0.860886,-1.045143,0.2661311,-0.8674178,1.085296,-0.3003208,-0.6338903,-1.065198,1.270868,-3.323934,-1.328561],
[-2.450253,-3.415365,0.2475234,-3.850724,2.427299,1.132267,-2.236431,-3.470165,-2.011317,1.749302,-1.677213,-1.293539,-2.849828,-1.61015,-3.34301,1.610692,1.736608,-2.405495,3.28045,0.3821181,-0.4284245,0.9200172,-1.115339,0.4424529,0.1896057],
[-0.6844805,0.2643625,-0.3610703,-3.831225,-3.58614,-1.863803,-1.130954,-1.849005,1.885566,-3.76271,1.266612,0.7574811,-0.8373956,-0.3602097,-0.6520183,2.766443,-0.6512195,-1.826713,-2.704048,3.735126,-3.787282,-1.09055,-0.3966041,1.872391,-0.828698],
[-0.1378532,-1.025986,-3.368313,-0.9226953,1.130773,-2.041541,0.9750318,0.09245104,2.568273,-0.4459073,1.984413,0.4842812,3.73589,-3.663448,2.492567,1.811376,-1.884793,1.87399,3.017686,0.7601829,2.541191,3.877181,3.445933,-3.913357,-2.01905],
[-0.325728,-0.001452234,3.602315,-1.680948,-2.739798,-0.7412413,-2.125695,-1.661738,-2.324229,-3.412993,0.01188447,-3.029922,0.3470081,-0.4298382,-3.99454,-3.12991,-3.327392,1.111177,3.518569,1.14771,-3.719821,3.10855,2.168281,3.536001,-1.374286],
[3.753431,3.4488,-2.516699,2.490842,1.236005,1.571465,3.717654,-1.11503,-3.442797,-0.2085671,-3.467429,-0.3497494,-3.979268,-1.572322,1.109221,-1.524042,1.389101,3.592282,3.130817,1.071792,1.419293,1.164839,1.513286,0.9662159,-0.2209724],
[2.010432,-1.819455,-0.6493247,1.193929,3.256718,-3.476314,-3.322085,2.28428,-1.919248,-2.005006,-3.046906,-3.26148,1.415566,-2.252331,3.021759,-3.941501,1.900952,0.0182009,-1.454752,-3.349414,-1.587373,-0.5373988,0.761968,-1.782636,3.973931]
],
[
[-3.634254,2.920251,2.142957,0.7177846,-2.130385,0.7191319,-0.8941179,3.953323,0.426649,1.826896,3.885874,1.776704,-3.229219,-1.616599,2.324214,2.557783,3.912824,-0.9366629,3.604818,1.612928,-2.061417,-2.839791,1.584346,3.920927,0.5946681],
[1.352551,-2.109031,-3.57827,1.789606,-3.613272,3.84957,1.175721,-0.4489948,-2.979504,3.388847,0.9317099,-2.390136,2.936457,-2.787294,0.9498099,-1.978126,3.639319,0.3300345,-0.6574607,-3.926508,-0.05475433,1.490132,1.553617,-2.128646,-0.5263485]
]
],
"biases":[
[
-0.2828042,2.197773,2.064215,1.849922,1.556033,0.8340955,1.782659,-0.597872,2.788561,-2.990513,1.084255,-3.956759,3.587165,-0.03986262,-2.537134,3.784156,0.2367717,-0.6601546,-1.486038,-2.387154,-3.990832,-1.89514,-1.279438,-3.971107,2.363888
],
[
-0.07893185,3.769915
]
]},
{
"fitness":1.708365,
"weights":[
[
[3.647496,-0.1914478,1.91897,-3.925001,-2.475312,-0.03672383,-0.2415558,0.5055773,-2.900738,-3.232126,1.858714,3.238522,-1.79802,-2.456613,-2.253623,-0.370042,-0.8322488,-1.3168,0.2331571,1.260741,-3.291612,3.264544,-0.9669247,-3.452098,-0.1351076],
[3.231225,2.120878,2.024655,2.350786,-2.928808,-1.460689,-2.717306,-2.352281,-1.483019,-3.771356,0.92506,-1.198088,3.963513,2.804695,-2.331075,-1.086654,-3.559401,-2.348264,3.004342,-1.648499,-0.613611,2.857321,2.828755,-1.823948,-0.002596876],
[1.447715,1.250873,3.81037,0.5115204,2.985714,2.283101,-0.05301809,-0.262221,-2.358061,0.3943159,-2.746529,3.733403,1.162993,0.8862296,-2.243156,3.460879,3.366824,-0.750748,-0.6468371,2.150425,0.8865805,-1.143822,-2.68891,-2.353815,0.1995721],
[-3.192004,-3.761077,1.600644,1.709243,-1.180906,2.974756,-0.5441073,-3.638389,2.68059,1.459668,1.875627,2.462128,0.3556624,1.899608,-2.502596,-3.106718,-0.5895687,3.211958,-0.3060819,0.7901773,1.445511,3.101148,3.474154,0.6834574,-1.906782],
[-2.7656,1.942118,1.084579,2.494468,3.712027,0.2332916,-1.864426,2.646582,1.454294,2.053169,1.506565,-1.372928,2.522371,-2.286832,1.271974,3.223689,-2.64857,3.383862,0.5040891,-0.6761752,-0.9238326,-2.522138,3.83947,-2.641326,-2.212035],
[0.6147645,-3.857505,-3.156863,-3.756546,-1.633226,-1.776737,-1.383503,2.511798,0.5498211,-3.936493,1.686481,-2.643259,3.870534,-1.587874,-1.225643,1.163263,-2.244963,-1.442641,0.2379315,1.743748,3.931905,-3.467244,1.375726,2.8706,2.60324],
[-3.863586,1.424655,-2.724602,0.1932079,0.5779725,1.955445,-3.386167,-1.160372,-2.258386,2.87553,2.405309,3.381721,3.077513,0.16407,1.215717,-3.29852,-0.2233573,-3.565177,-0.685794,-0.9825349,1.103233,-0.5313387,-3.559529,3.842782,-2.326662],
[2.460361,-3.011374,-0.9434456,1.936208,-1.810177,2.596165,-1.315927,3.345262,1.880301,-0.6877995,-1.576159,-2.131072,1.975862,3.482864,-2.429942,-1.376346,-3.681013,3.90737,3.508245,-3.431323,1.933653,-0.09043734,-1.623432,3.571887,0.2379271],
[-0.9393098,2.418932,2.159632,-0.2154203,3.955653,1.639574,1.12068,3.556007,-0.2933868,-3.145995,3.675854,-2.82511,-3.499517,-0.9175555,1.244543,-3.123861,1.098606,-3.97564,1.450317,-2.172548,3.300817,1.637377,0.2180406,-2.100414,0.687506],
[-2.116146,-1.254698,0.5482217,-1.981782,3.146915,-1.0384,-0.3759975,-0.8966169,2.682748,3.618104,1.166532,-3.490684,-0.125912,-3.211104,1.808695,3.275401,-0.9459621,-3.787063,1.531456,0.6583862,3.572298,3.035963,1.353412,-3.836542,-2.880398],
[-1.778297,-1.486151,-2.77916,-1.255661,3.886112,1.034364,-3.292768,3.713711,1.178182,-1.292619,0.165311,-3.985509,1.894692,1.85746,3.007101,2.976445,-2.441661,1.315678,-2.592458,1.621105,-2.838548,0.3267199,3.862158,-1.307635,-2.022584],
[3.526497,-2.172858,2.766235,-0.3310708,-1.99636,-1.155775,3.967086,1.013852,-0.7274816,3.418636,-3.833328,-3.992242,-2.851212,3.54683,1.647472,-2.663181,-2.52548,-0.840299,-0.5159795,1.429343,-2.039654,3.106044,-2.645233,-3.634984,2.016203],
[-2.223494,-1.320153,1.326046,-1.855102,-3.30357,2.146031,-0.5422136,0.7621807,-1.772339,1.375606,1.771519,3.430847,-1.537219,3.060416,1.516485,3.873563,0.4093513,-1.310889,-3.169773,2.251677,-0.3209819,3.72725,2.787034,-3.751167,-0.5046752],
[0.8163311,3.834033,-3.611879,0.8116714,-3.989474,1.585519,-3.317191,-1.769188,0.426547,-0.5818709,-1.277695,2.528795,1.067958,-0.8860435,2.400463,1.538199,-2.673264,-1.570228,-2.139245,-0.00723326,-1.111921,-3.931175,-1.775985,-1.845178,2.114963],
[3.100536,-0.1488588,3.305568,-1.59691,2.646957,2.963855,-0.3922345,-0.05679575,-3.318114,-1.84509,2.649733,-1.03406,-0.2325507,2.795619,2.306997,-0.5777532,-2.099678,0.1903723,-3.927197,-3.369498,0.6158258,3.512315,3.277106,-1.839409,-2.464217],
[-3.311619,-2.512918,-3.912023,-0.6352797,-0.6164587,-2.538587,1.004347,2.834336,1.615903,-0.9807429,-1.565435,3.899831,1.360931,3.190549,3.920095,2.299745,2.582044,3.785983,1.36528,-1.465854,3.591123,-0.9198431,-2.731486,1.380996,1.415585],
[-2.65602,-2.464316,-3.184394,2.872321,-3.25231,-3.95759,-1.34699,3.317837,-3.4341,2.315722,-2.641016,-3.580132,-3.408216,-3.800839,0.3870023,0.8414658,3.450084,2.849639,1.995809,2.751761,2.316895,3.543295,2.953346,-1.023944,-0.7499896],
[0.373505,3.460992,-2.660454,3.873839,-3.191925,2.926967,0.0459563,3.881545,1.207463,-1.979631,-2.756578,1.568883,-3.284318,1.78848,-3.552109,-3.888985,0.8965169,1.853433,-1.384906,2.618605,0.09214234,-1.51828,2.446766,2.685778,-2.111984],
[0.2325364,3.026991,2.101905,-1.259027,-1.51818,-2.053911,2.426562,3.850265,0.06684205,3.140168,0.4560642,2.392022,-1.257553,-3.609144,0.860886,-1.045143,0.2661311,-0.8674178,0.4161884,-0.3003208,-0.6338903,-1.065198,-0.1401893,-3.323934,0.6658024],
[-2.450253,-3.415365,0.2475234,-3.850724,2.427299,1.132267,-2.236431,-3.470165,-2.949959,1.749302,-1.677213,-1.293539,-1.314668,-1.61015,-3.34301,1.610692,1.736608,-2.405495,3.28045,0.3821181,-0.4284245,1.219597,-1.115339,0.4424529,0.1896057],
[-0.6844805,3.429194,-0.3610703,-3.831225,-3.58614,2.467286,-1.130954,-3.535187,1.885566,-3.76271,-2.195162,-2.101608,-0.8373956,-0.3602097,-0.6520183,2.766443,-0.6512195,-1.826713,-2.704048,3.735126,-3.787282,-1.09055,-0.3966041,3.531799,-0.828698],
[-0.1378532,-1.025986,-3.368313,-0.9226953,-3.896592,-2.041541,-2.184389,0.09245104,2.568273,-2.47551,1.984413,-1.642969,3.73589,-3.663448,2.492567,1.811376,-1.884793,1.87399,3.017686,-1.358247,2.541191,3.877181,3.445933,-3.313205,-2.01905],
[-0.325728,-0.001452234,-1.375578,-1.680948,-2.739798,-0.7412413,-2.278365,-1.661738,0.1448582,1.84556,0.01188447,-3.029922,0.3470081,-0.4298382,-3.99454,-3.12991,3.806751,1.111177,3.518569,1.14771,-3.719821,-3.302443,2.168281,3.536001,-3.213533],
[3.753431,3.4488,-2.516699,2.32894,1.236005,3.851981,3.717654,-1.11503,-3.442797,-0.2085671,-3.467429,-0.7824044,-3.979268,-1.572322,1.109221,-1.524042,1.389101,3.592282,3.130817,1.071792,1.419293,1.164839,1.513286,0.9662159,-0.2209724],
[-1.490088,-1.819455,-0.6493247,1.193929,3.256718,-3.160635,-3.140039,2.28428,-1.919248,-2.005006,-3.046906,-2.142653,1.415566,-2.252331,3.021759,0.7930743,1.900952,0.0182009,-1.454752,-3.349414,-1.587373,-0.5373988,2.542164,-1.782636,3.973931]
],
[
[-3.634254,2.920251,2.142957,0.7177846,-2.130385,0.7191319,-0.8941179,3.953323,0.426649,1.826896,3.885874,1.776704,-3.229219,-1.616599,2.324214,2.557783,3.912824,-0.9366629,1.804483,1.612928,1.920027,-2.839791,1.584346,3.920927,0.5946681],
[1.352551,-2.109031,-3.57827,1.789606,-2.819362,3.84957,2.345411,-0.4489948,-2.979504,3.388847,0.9317099,-2.155378,1.649693,-2.787294,0.9498099,-1.978126,3.639319,0.3300345,-0.6574607,-3.926508,-0.05475433,1.490132,1.553617,-0.3003477,-0.5263485]
]
],
"biases":[
[
-0.2828042,2.197773,2.064215,1.849922,1.556033,0.8340955,1.782659,-0.597872,2.788561,1.81875,1.084255,2.288215,3.587165,-0.03986262,-2.537134,3.784156,0.2367717,-0.6601546,-1.486038,-2.387154,-3.990832,-1.476416,-1.279438,-3.971107,2.363888
],
[
-0.9988078,3.769915
]
]},
{
"fitness":1.68516,
"weights":[
[
[3.647496,-0.1914478,1.91897,-3.925001,-2.475312,0.04443336,-0.2415558,0.5055773,-2.900738,-3.232126,1.858714,3.238522,-1.79802,-2.456613,-2.253623,-0.370042,-0.8322488,-1.3168,0.2331571,1.260741,-3.291612,3.264544,-0.9669247,-3.452098,-0.1351076],
[3.231225,2.120878,2.024655,3.733938,3.66262,-1.460689,-2.717306,-2.352281,-1.483019,-3.771356,0.92506,-1.198088,3.963513,2.804695,-2.331075,-1.086654,-3.559401,1.164538,-2.566529,-1.648499,-0.613611,-0.2182767,2.828755,-1.823948,-3.101229],
[1.447715,1.250873,3.81037,0.7571815,2.985714,2.283101,-0.05301809,-0.262221,2.392023,0.3943159,-2.746529,3.733403,1.162993,-2.998953,-2.243156,3.460879,3.366824,-3.303883,-0.6468371,1.525361,0.8865805,-1.143822,-2.68891,2.572674,0.1995721],
[-3.192004,-2.281964,1.600644,1.709243,-1.180906,2.974756,-0.5441073,-3.638389,2.68059,1.459668,1.81006,2.462128,0.3556624,1.899608,-2.502596,-3.106718,-3.008277,3.211958,-0.3060819,0.7901773,1.445511,1.440115,3.474154,0.6834574,-1.906782],
[-0.423762,1.942118,1.084579,2.494468,-3.753959,0.2332916,1.456548,2.646582,1.454294,2.053169,-3.35925,-1.372928,2.522371,-2.286832,1.271974,2.734002,-2.64857,3.383862,0.5040891,-0.6761752,-0.9238326,-2.522138,3.83947,-2.641326,-2.212035],
[3.179336,-2.306171,-3.156863,-3.756546,-1.633226,-1.776737,-1.383503,2.511798,0.5498211,-3.936493,3.646489,-2.643259,3.870534,-1.587874,-1.225643,1.163263,-2.244963,-1.442641,0.2379315,1.743748,3.931905,-1.509697,-3.042342,2.8706,2.60324],
[-3.863586,1.424655,-2.724602,0.1932079,1.921926,1.955445,-3.386167,-1.160372,-2.258386,2.87553,2.405309,3.381721,3.077513,0.16407,-0.6045208,-3.29852,-0.2233573,-3.565177,1.194231,-0.9825349,1.103233,-2.535708,-3.559529,3.842782,-2.326662],
[2.460361,-3.011374,-0.9434456,1.936208,-1.810177,2.596165,0.2561558,3.345262,1.880301,-0.6877995,-1.576159,-1.023648,1.975862,3.482864,-2.429942,-1.376346,-3.681013,3.90737,3.508245,-3.431323,1.933653,-0.09043734,-1.623432,-0.4463829,0.2379271],
[-0.9393098,2.418932,2.452044,-0.2154203,3.955653,-0.02015173,1.12068,3.556007,-0.2933868,-3.145995,3.675854,-2.82511,-3.499517,-0.9175555,1.244543,-3.123861,1.098606,-3.97564,1.450317,-2.172548,3.300817,1.637377,0.2180406,-2.100414,0.687506],
[-2.116146,-2.280942,0.5482217,-1.981782,3.146915,-1.0384,-0.07049281,-0.8966169,2.682748,3.618104,-2.099915,-3.490684,-0.125912,-3.211104,1.808695,3.275401,-0.9459621,-3.787063,1.531456,2.551617,3.572298,3.035963,1.353412,0.3952109,-2.880398],
[-1.778297,-1.486151,-2.77916,-1.495945,3.886112,1.034364,-2.170064,3.713711,1.712117,-1.292619,0.165311,-3.985509,-3.186178,1.85746,3.007101,2.976445,-2.441661,1.315678,-2.592458,1.621105,-2.838548,1.866064,0.802818,-1.307635,-2.022584],
[3.526497,-2.172858,2.766235,2.094073,-1.99636,-3.569657,3.967086,1.013852,-0.7274816,2.43504,-3.833328,-3.992242,-2.851212,3.54683,1.647472,-3.640451,-2.52548,-0.840299,-0.5159795,1.429343,-2.039654,3.229878,-2.645233,-3.634984,0.9315635],
[-2.223494,-1.320153,1.326046,-1.855102,-3.30357,2.146031,-0.5422136,0.7621807,-1.772339,1.375606,1.771519,3.430847,3.610602,3.060416,1.516485,0.4521676,0.4093513,-1.310889,-3.169773,2.251677,-0.3209819,3.72725,2.787034,-3.751167,-0.5046752],
[0.8163311,3.834033,-3.611879,0.8116714,-3.989474,1.585519,2.286861,-1.769188,0.426547,-0.5818709,-1.277695,2.528795,1.067958,-0.8860435,-1.231262,1.883892,-2.673264,-1.570228,-2.139245,-2.863943,-1.111921,-3.618937,-1.775985,-1.845178,2.114963],
[3.100536,-0.1488588,2.422683,1.62235,2.646957,-2.913772,-0.3922345,-0.05679575,-3.246482,-1.84509,2.649733,-1.03406,-0.2325507,2.795619,2.306997,-0.5777532,-2.099678,0.1903723,-3.927197,-3.369498,0.6158258,3.512315,3.277106,-1.839409,-2.464217],
[-3.832236,-2.512918,-3.912023,-0.6352797,-0.6164587,-2.538587,1.004347,2.834336,1.615903,-0.9807429,-1.565435,3.899831,1.360931,3.190549,3.920095,2.299745,2.582044,3.785983,1.164633,-1.465854,3.591123,-0.9198431,-2.731486,-1.721608,1.415585],
[-2.65602,-0.9438691,-3.184394,2.872321,-3.25231,-3.95759,1.80971,3.317837,-3.4341,2.315722,-2.641016,-0.8545366,-3.408216,-3.800839,1.187809,0.8414658,3.450084,3.657045,1.995809,2.751761,2.316895,3.543295,2.953346,-1.023944,-0.7499896],
[0.373505,3.460992,-2.660454,3.873839,-3.191925,2.926967,0.0459563,3.881545,1.207463,-1.979631,3.374527,1.568883,-3.284318,1.78848,-3.552109,3.534317,0.8965169,1.853433,-0.3922052,2.618605,0.09214234,-1.51828,2.889822,2.685778,-2.111984],
[-0.6564603,3.026991,2.101905,-1.259027,-1.51818,-2.053911,-3.082727,3.850265,-0.502696,-3.877206,0.4560642,2.392022,-1.257553,-1.212973,0.860886,-1.045143,0.2661311,-0.8674178,1.085296,-0.3003208,-0.6338903,-1.065198,1.270868,-3.323934,-1.328561],
[-2.450253,-3.415365,0.2475234,-3.850724,2.427299,1.132267,-2.236431,-3.470165,-2.011317,1.749302,-1.677213,-1.293539,-1.314668,-1.61015,-3.34301,1.610692,1.736608,-2.405495,3.28045,0.3821181,-0.4284245,0.9200172,-1.115339,0.4424529,0.1896057],
[-0.6844805,0.2643625,-0.3610703,-3.831225,-3.58614,-1.863803,-1.130954,-1.849005,1.885566,-3.76271,1.266612,0.7574811,-0.8373956,-0.3602097,-0.6520183,2.766443,-0.6512195,-1.826713,-2.704048,3.735126,-3.787282,-1.09055,-0.3966041,1.872391,-0.828698],
[-1.795763,-1.025986,-3.368313,-0.9226953,1.130773,-2.041541,3.15702,0.09245104,2.568273,-0.4459073,1.984413,-1.642969,3.73589,-3.663448,2.492567,1.811376,-1.884793,-0.7513495,3.017686,0.7601829,2.541191,3.877181,3.445933,-3.913357,-2.01905],
[-0.325728,-0.001452234,3.602315,-1.680948,-2.739798,-0.7412413,-2.278365,-1.661738,-2.324229,-3.412993,0.01188447,-3.029922,0.3470081,-0.4298382,-3.99454,-3.12991,-3.327392,1.111177,3.518569,1.14771,-3.719821,3.10855,2.168281,3.536001,1.424994],
[3.753431,3.4488,-2.516699,2.490842,1.236005,3.851981,3.717654,-1.11503,-3.442797,-0.2085671,-3.467429,-0.3497494,-3.979268,-1.572322,1.109221,-1.524042,1.389101,3.592282,3.130817,1.071792,1.419293,1.164839,1.513286,-2.943136,-0.2209724],
[2.010432,-1.819455,-0.6493247,1.193929,3.256718,-3.160635,-3.322085,2.28428,-1.919248,-2.005006,-3.046906,-2.142653,1.415566,-2.252331,3.021759,-3.941501,1.900952,0.0182009,-1.454752,-3.349414,-1.587373,-0.5373988,2.542164,-1.782636,3.973931]
],
[
[-3.634254,2.920251,2.142957,0.7177846,-2.130385,0.7191319,-0.8941179,3.953323,0.426649,1.826896,3.885874,1.776704,-3.229219,-1.616599,-0.5280426,2.557783,3.912824,-0.9366629,3.604818,1.612928,1.920027,-2.839791,1.584346,3.920927,0.5946681],
[1.352551,-2.109031,-3.57827,1.789606,-3.613272,3.84957,1.175721,-0.4489948,-2.979504,3.388847,-3.256419,-2.390136,2.936457,-2.787294,0.9498099,-1.978126,3.639319,0.3300345,1.48356,-3.926508,-0.05475433,1.490132,1.553617,-2.128646,-0.5263485]
]
],
"biases":[
[
-0.2828042,2.197773,2.064215,1.849922,1.556033,0.8340955,1.782659,-0.597872,2.788561,-2.038156,1.084255,-3.956759,3.587165,-0.03986262,-2.537134,3.784156,0.2367717,-0.6601546,-1.486038,-2.387154,-3.990832,-1.476416,-1.279438,-3.971107,2.363888
],
[
-0.07893185,3.769915
]
]},
{
"fitness":1.67917,
"weights":[
[
[0.1539624,-0.4709241,1.848835,-3.925001,3.409466,0.04443336,-2.474307,0.3861239,-2.900738,-0.3125085,2.866699,3.238522,-1.028041,0.4869163,-2.253623,3.213742,-0.8322488,2.749049,-2.555261,2.862903,3.420517,-2.819267,-0.9669247,1.340423,-2.152552],
[2.731238,2.120878,2.024655,-2.423741,-3.439987,-3.484651,2.12534,-3.116671,3.127143,2.558851,0.2966731,1.330636,-3.33765,-3.372097,-0.5505122,0.6221498,3.135864,-2.081846,-2.23382,-1.648499,-2.08507,-2.758888,2.828755,1.085955,-3.101229],
[3.62839,1.250873,3.81037,0.9784681,2.985714,-3.286698,2.499142,-2.528748,-3.774898,-2.798706,-2.690844,-3.485491,1.162993,3.443773,-1.347819,-0.8390108,3.366824,-3.303883,-0.6468371,-3.9275,0.8865805,2.198217,1.497752,0.9436218,0.1995721],
[1.462958,-2.538326,-1.264976,1.709243,-1.078917,2.974756,-0.5441073,1.580157,-0.4264079,-1.202513,1.81006,3.391615,-2.651024,-0.4286721,-0.09677494,-2.390754,3.151654,3.211958,-1.015924,0.09717354,-3.386353,2.225705,3.474154,0.6834574,3.058211],
[-0.423762,-3.815269,2.513731,-0.9492915,2.203892,0.2332916,1.456548,-2.419971,-1.692512,2.053169,-0.1409511,-1.372928,1.556132,-2.26551,1.271974,-2.452219,-2.64857,0.3496211,-1.723216,-1.827529,-0.9238326,-3.520245,-0.5562024,0.2772261,-2.212035],
[3.682129,-3.857505,2.661711,-3.885357,-1.633226,-1.776737,-1.383503,2.511798,1.005798,-3.936493,-2.158174,-2.643259,3.870534,-1.587874,-1.651563,-1.09901,-2.244963,2.540808,-2.806213,-2.289973,1.87358,1.809788,2.623112,2.8706,-3.053975],
[-3.863586,3.946185,-2.724602,0.1932079,0.9141454,2.154958,-2.42797,1.010566,2.89197,-1.520435,-0.9984885,0.8224086,3.565357,2.182988,2.482205,-3.29852,-0.2233573,-0.1671111,0.9117406,-1.107887,1.093272,3.591257,0.6754996,-1.787594,1.527418],
[2.460361,-1.891109,-1.393175,1.144349,-2.831686,1.511191,2.167134,-0.5284948,-0.1059346,-0.6877995,-0.7916618,3.060572,-0.5467908,3.482864,-2.429942,3.190455,-3.681013,-0.5753796,3.508245,-3.431323,1.933653,2.008649,2.588968,3.677525,0.2379271],
[-0.9393098,2.418932,2.452044,-0.2154203,2.707701,0.1049437,1.12068,-1.474852,-0.2933868,1.062628,3.675854,-2.82511,3.556873,2.88556,3.186524,0.2028868,0.7841184,1.126244,0.1751063,-1.058228,-3.234489,1.637377,-1.1911,3.499545,-3.178017],
[-3.879526,-1.254698,0.5482217,-1.981782,3.146915,0.7223042,-0.3759975,-0.8966169,2.682748,3.618104,-2.829892,-3.751651,-0.125912,1.150561,2.937648,2.856017,-0.9459621,2.805476,1.531456,-1.87691,3.572298,3.272643,3.487806,-3.836542,-0.6717389],
[3.786291,1.411193,1.239018,1.657968,3.886112,-2.542962,1.753038,3.713711,1.712117,-1.292619,0.165311,-3.985509,1.894692,1.85746,-3.483847,-0.6845804,-2.441661,1.315678,-0.2000688,3.73587,-2.309801,0.3267199,-3.324365,-1.307635,-2.022584],
[3.526497,-2.172858,2.766235,-0.3696389,-1.99636,1.361149,-3.179514,1.013852,0.7557246,0.8048967,2.656987,-3.992242,-0.4894858,-0.5032842,3.541345,-3.640451,-2.52548,3.109565,-0.5159795,1.429343,-2.039654,-2.832203,-2.645233,-2.538568,2.152446],
[-2.243133,1.794801,1.326046,0.4699926,-3.30357,-3.667605,0.2244818,0.7621807,-1.325617,1.375606,3.175868,3.324495,3.792895,1.313869,-1.554943,-3.810017,-1.602476,2.045047,-3.169773,0.8369108,-0.3209819,0.3683107,3.899018,-3.751167,-0.5046752],
[0.8163311,1.526545,1.661362,-0.6761062,3.215518,1.585519,-3.317191,-1.769188,0.426547,-0.08353823,-1.655624,-1.084379,2.121588,1.234009,-1.231262,3.931135,-2.673264,-1.570228,-2.139245,3.563914,1.767737,-3.931175,-3.00573,-1.845178,2.114963],
[-2.22138,-2.931253,-1.278154,3.10968,2.646957,-2.759207,-1.703114,1.667667,-2.457726,0.5223926,-3.579707,-0.3870247,0.7515241,0.1471297,-1.416751,-2.699045,-2.099678,0.1903723,-3.927197,-0.4696169,3.559337,-2.5459,-2.408573,-1.839409,2.821308],
[2.073577,-2.512918,-2.986447,-0.6352797,-0.2996673,-2.538587,1.004347,0.826273,1.884654,3.438737,-3.221673,3.597149,1.360931,2.108929,2.402921,1.861112,0.3712322,1.052858,0.7797621,0.3351416,3.591123,-0.9198431,3.308476,-0.2840746,1.415585],
[2.6224,-2.464316,-3.184394,-3.942171,-3.25231,-3.358547,-1.34699,2.423121,-3.4341,2.315722,-2.641016,-2.719217,3.501025,1.627539,0.3870023,-1.439546,-1.889135,0.4155903,-2.148881,1.13246,2.316895,3.543295,2.115362,2.998921,-0.7499896],
[3.099421,-0.3109063,-2.660454,-1.507115,-2.951153,2.926967,-3.462735,3.881545,1.207463,-1.979631,2.487212,-2.013792,1.427922,1.78848,-3.552109,-3.158532,1.598089,-3.673278,-0.3922052,-3.748503,0.09214234,0.9496267,2.446766,-1.341556,2.70243],
[-0.6564603,3.026991,2.101905,3.074858,-2.962342,-2.053911,-0.9693351,-3.845513,-1.04656,0.4105602,-0.5289487,-1.960775,-0.4881529,-1.212973,-1.141346,-1.045143,-0.2501395,-0.8674178,-2.252085,3.145298,2.235158,-1.511159,-0.1401893,-2.941324,2.005661],
[-2.450253,-3.415365,-1.514809,-1.730423,2.427299,-0.9798312,1.683389,3.172343,-1.17773,1.749302,-3.361261,1.238591,0.3734246,-3.859767,-3.34301,1.610692,1.736608,-0.5161011,3.28045,0.3821181,2.540904,0.2282618,-1.115339,-1.817042,0.1896057],
[-0.6844805,3.429194,-0.3610703,0.9232282,-3.58614,0.5284389,-1.130954,-1.374673,1.910174,-3.76271,-3.951276,-0.4689044,2.951101,-0.3602097,-0.6520183,-3.227965,-2.741555,3.669768,-2.704048,3.735126,-3.787282,-1.09055,1.775674,-1.986474,0.3784662],
[2.169235,-1.025986,-3.368313,-0.9226953,-2.473331,-2.041541,-2.184389,-1.1941,2.568273,3.827191,-1.408647,-1.377875,-3.503723,-3.663448,2.699584,-3.628737,3.272522,0.5572657,3.98649,2.987498,-3.504864,-0.3517734,1.792911,-0.7372467,-2.841712],
[-2.8664,-0.001452234,3.602315,3.228951,-0.2442097,-1.056864,3.394977,-3.7643,-2.324229,1.84556,-2.024629,-3.029922,-1.906022,2.293754,-3.481491,1.494935,3.806751,1.111575,-3.040873,2.066261,0.04354128,-0.2854715,1.172995,3.536001,-2.445194],
[0.6058171,3.4488,-1.503736,1.811231,1.236005,-1.31079,2.593985,-1.11503,-1.436885,-0.2085671,-3.467429,-0.3497494,-3.979268,3.752492,1.109221,0.324773,-3.091745,3.592282,-3.99129,1.071792,1.447598,1.164839,1.513286,0.9662159,2.279454],
[-1.490088,2.817672,-3.977212,1.18365,-3.219472,-0.5268936,-3.805173,2.28428,-0.402989,0.1784794,-0.1663557,3.301273,-0.2609114,-2.252331,0.4762106,0.9251132,-3.687862,3.050899,0.9514287,2.061634,-1.587373,1.811571,2.542164,-0.9489233,1.149797]
],
[
[0.1766118,2.920251,2.142957,0.7177846,-3.676277,-1.006554,0.07473984,3.953323,-0.9878851,1.826896,3.885874,-2.650736,-0.177644,-3.657035,2.324214,2.557783,1.846712,-0.9366629,-1.15431,1.612928,2.546989,2.550795,1.584346,3.920927,2.399596],
[1.352551,-2.109031,-3.57827,2.593522,-2.329088,2.546576,0.1046844,-3.181258,-2.979504,2.09194,-1.401117,-2.155378,1.304965,-2.787294,0.5979372,-0.1504878,3.639319,0.3300345,-0.6574607,2.136874,-0.05475433,1.490132,-0.2511635,-3.26378,-0.5680085]
]
],
"biases":[
[
-0.2828042,0.7992602,-0.1377277,-0.1666303,-1.608665,0.8340955,1.782659,2.884652,-0.02214469,1.655956,1.084255,-3.956759,3.994818,-0.03986262,3.423358,3.784156,2.461077,2.945623,-2.943319,0.1592058,-3.068389,3.581761,1.028026,-0.6120213,2.363888
],
[
2.115255,3.769915
]
]},
{
"fitness":1.663649,
"weights":[
[
[0.1539624,-0.4709241,1.848835,3.363681,-0.3716304,0.04443336,-2.474307,0.3861239,-2.900738,-0.3125085,2.866699,3.238522,-0.8380183,0.4869163,-2.253623,3.213742,-0.8322488,2.749049,0.8856296,2.862903,3.420517,-2.819267,-0.9669247,-3.452098,-2.152552],
[2.731238,2.184044,2.024655,-2.423741,-3.439987,-1.460689,2.12534,-3.116671,3.127143,1.858596,0.92506,1.330636,-3.33765,-3.372097,-0.5505122,0.6221498,3.135864,-2.081846,-2.23382,-1.648499,-2.08507,-2.758888,2.828755,1.085955,-3.101229],
[3.62839,1.250873,3.81037,0.6234024,2.985714,3.668507,2.499142,-2.528748,-3.774898,0.3943159,-2.690844,-3.485491,1.162993,3.443773,-1.347819,-0.8390108,3.366824,-3.303883,-0.6468371,-3.9275,0.8865805,2.198217,1.497752,0.9436218,0.1995721],
[-2.410597,-2.538326,-1.264976,1.709243,-1.078917,2.974756,-0.5441073,1.580157,-0.4264079,-1.202513,1.81006,3.391615,-2.651024,-0.4286721,-0.09677494,-2.390754,3.151654,3.211958,-1.015924,0.09717354,-3.386353,2.225705,3.474154,0.6834574,3.058211],
[-0.423762,-3.815269,2.513731,-0.9492915,2.203892,0.2332916,1.456548,-2.419971,-1.692512,2.053169,-0.1409511,-1.372928,1.556132,-2.26551,1.271974,-2.452219,-2.64857,0.3496211,-1.723216,-1.827529,-0.9238326,-3.520245,-0.5562024,0.2772261,-2.212035],
[3.682129,-3.857505,2.661711,-3.885357,-1.633226,-1.776737,-1.383503,2.511798,1.079836,-3.936493,-1.345252,-2.643259,3.870534,-1.587874,-1.651563,2.574252,-2.244963,2.540808,-2.806213,-2.289973,1.87358,1.809788,2.623112,2.8706,-3.053975],
[-3.863586,3.946185,-2.724602,-2.179605,0.9141454,2.154958,-2.42797,1.010566,2.89197,-1.520435,-0.9984885,0.8224086,3.565357,-1.52248,2.482205,-3.29852,-0.2233573,-0.1671111,0.9117406,-1.107887,1.093272,3.591257,0.6754996,-1.787594,1.527418],
[2.460361,1.506133,-1.393175,1.144349,-2.831686,1.487821,2.167134,3.563471,-0.1059346,-0.6877995,-0.7916618,3.060572,1.975862,3.482864,-2.429942,3.190455,-3.681013,-0.5753796,3.508245,-3.431323,1.933653,2.008649,2.588968,3.677525,0.2379271],
[-0.9393098,2.418932,2.452044,-0.2154203,2.707701,0.1049437,1.12068,0.1929184,-0.2933868,1.062628,3.675854,-2.82511,-3.20815,-0.02319167,3.186524,-3.123861,1.690296,1.126244,0.1751063,0.43129,-3.234489,1.637377,-1.1911,3.499545,-2.204103],
[-3.879526,-1.254698,0.5482217,-1.981782,3.146915,0.7223042,-0.3759975,-0.8966169,2.682748,3.618104,-2.829892,-3.751651,-0.125912,1.150561,2.937648,2.856017,-0.9459621,2.805476,1.531456,-1.87691,3.572298,3.272643,3.487806,-3.836542,-0.6717389],
[3.786291,1.411193,1.239018,1.657968,3.886112,-2.542962,1.753038,3.713711,1.712117,-1.292619,0.165311,-3.985509,1.894692,0.8255292,-3.483847,-0.6845804,-2.441661,1.315678,-0.2000688,3.73587,-2.309801,0.3267199,-3.324365,-1.307635,-2.022584],
[3.526497,-2.172858,2.766235,-0.3696389,-1.99636,0.09890383,-3.179514,1.013852,0.7557246,-1.258158,2.656987,-3.992242,-0.4894858,-0.5032842,3.541345,-3.640451,-2.52548,3.109565,-0.5159795,1.429343,-2.039654,-2.832203,-2.645233,-2.538568,2.152446],
[-2.243133,1.794801,1.326046,-2.982317,-3.30357,-3.667605,0.2244818,0.3571143,-1.325617,1.375606,3.175868,3.324495,3.792895,1.313869,-1.554943,-3.810017,-1.602476,2.045047,-3.169773,0.8369108,-0.3209819,0.3683107,3.899018,-3.751167,-0.5046752],
[0.8163311,1.526545,1.661362,-1.433622,3.215518,1.585519,-3.317191,-1.769188,0.426547,3.520117,-1.655624,-1.084379,2.121588,1.234009,-1.231262,3.931135,0.2361923,-1.570228,-2.139245,3.563914,-2.398687,-3.931175,-3.00573,-1.845178,2.114963],
[-2.22138,-2.931253,-1.278154,3.10968,2.646957,-2.759207,-1.703114,1.667667,-2.457726,0.5223926,-3.579707,-0.3870247,0.7515241,0.1471297,-1.416751,-0.5777532,-2.099678,0.1903723,-3.927197,-0.4696169,3.559337,-2.5459,-2.408573,-1.839409,2.821308],
[2.073577,-2.512918,-3.912023,-0.6352797,-0.2996673,-2.153154,1.004347,2.834336,1.585491,3.438737,-3.221673,3.597149,1.360931,0.3942687,2.402921,1.861112,0.3712322,1.052858,0.7797621,0.3351416,1.695837,-0.9198431,3.308476,-0.2840746,1.415585],
[2.6224,-2.464316,-3.184394,-3.942171,-3.25231,-3.358547,-1.34699,2.423121,-3.4341,2.315722,-2.641016,-2.719217,-3.408216,-0.40092,0.3870023,-1.439546,-1.889135,0.4155903,-2.148881,1.13246,2.316895,0.736133,2.115362,2.998921,-0.7499896],
[3.099421,-1.910437,-2.660454,-1.507115,-2.951153,2.926967,-3.462735,3.881545,1.207463,-1.979631,2.487212,-2.013792,1.427922,1.78848,-3.552109,-3.158532,1.598089,-3.673278,-0.3922052,-3.748503,0.09214234,0.9496267,0.8411152,-1.341556,2.70243],
[-0.6564603,3.026991,2.101905,3.074858,-2.962342,-2.053911,-0.9693351,-3.845513,-1.04656,0.4105602,-0.5289487,0.0721546,-0.4881529,-1.212973,-1.141346,-2.993073,2.937635,-0.8674178,-2.252085,3.145298,1.347854,-1.511159,-0.1401893,-2.941324,2.005661],
[-2.450253,-3.415365,-1.514809,-1.730423,2.427299,-0.9798312,1.683389,3.172343,-1.17773,1.749302,-3.361261,1.238591,0.3734246,-3.859767,-3.34301,1.610692,1.736608,-0.5161011,3.28045,0.3821181,2.540904,-2.334603,-1.115339,-1.817042,0.1896057],
[-0.6844805,3.056431,-0.3610703,0.9232282,-3.58614,0.5284389,-1.130954,-1.374673,1.910174,-3.76271,-3.951276,-0.4689044,2.951101,-0.3602097,-0.6520183,-3.227965,-2.741555,3.669768,-2.704048,3.735126,-3.787282,-1.09055,1.775674,-1.986474,1.866133],
[2.169235,-1.025986,-3.368313,-0.9226953,-2.473331,-2.041541,-2.184389,-1.1941,2.568273,3.827191,-1.408647,-1.377875,-3.503723,-3.663448,2.699584,-3.628737,3.272522,0.5572657,3.98649,-1.655626,-3.504864,-0.3517734,-1.346259,-0.7372467,-2.841712],
[-2.8664,-0.001452234,3.602315,3.228951,-0.2442097,-1.056864,3.394977,-3.7643,-2.324229,-3.955243,-2.024629,-3.029922,-1.906022,2.293754,-3.481491,1.494935,3.806751,1.111575,-3.040873,2.066261,0.04354128,-0.2854715,1.172995,3.536001,-2.445194],
[3.753431,3.4488,-1.503736,0.2134134,1.236005,-1.31079,2.593985,-1.11503,-1.436885,-0.2085671,-3.467429,-0.3497494,-3.979268,3.752492,1.109221,3.441525,-3.091745,3.592282,-3.99129,1.071792,1.447598,1.164839,1.513286,0.9662159,2.279454],
[-1.490088,2.817672,-3.977212,1.18365,-3.219472,-0.5268936,-3.805173,2.28428,-0.402989,0.1784794,-0.1663557,3.301273,-0.2609114,-2.252331,0.4762106,0.9251132,-3.687862,3.050899,0.9514287,2.061634,-1.587373,1.811571,2.542164,-0.9489233,1.149797]
],
[
[0.1766118,2.920251,2.142957,0.7177846,-3.676277,-1.006554,0.07473984,3.953323,-0.9878851,1.826896,3.885874,-2.472309,-0.177644,-3.657035,2.324214,2.557783,1.846712,-0.9366629,-1.15431,1.612928,2.546989,2.550795,1.584346,3.920927,2.399596],
[1.352551,-2.109031,-3.57827,2.593522,-2.329088,2.546576,0.1046844,-3.181258,-2.979504,2.09194,-1.401117,-2.155378,1.304965,-2.787294,0.5979372,-0.1504878,3.639319,0.3300345,-0.6574607,2.136874,-0.05475433,1.490132,-0.2511635,-3.26378,-0.5680085]
]
],
"biases":[
[
-0.2828042,0.7992602,-0.1377277,-0.1666303,-1.608665,0.8340955,1.782659,2.884652,-0.02214469,1.655956,1.084255,-3.956759,3.994818,-0.03986262,3.423358,3.784156,2.461077,2.945623,-2.943319,0.1592058,2.568481,3.581761,1.028026,-0.6120213,2.363888
],
[
3.241615,3.769915
]
]},
{
"fitness":1.650024,
"weights":[
[
[3.647496,-0.1914478,1.91897,-3.925001,-2.475312,2.446681,-0.2415558,3.172539,-2.900738,-3.232126,1.858714,3.238522,-1.79802,-2.456613,-2.253623,-0.370042,-0.8322488,-1.3168,0.2331571,1.260741,-3.291612,3.264544,-0.9669247,-3.452098,-0.1351076],
[3.231225,2.120878,2.024655,3.733938,3.66262,-1.460689,-2.717306,0.3190307,-1.483019,-3.771356,0.92506,-1.198088,3.963513,2.804695,-2.331075,-1.086654,-3.559401,1.164538,-2.566529,1.63505,-0.613611,2.857321,2.828755,-1.823948,-3.101229],
[1.447715,1.250873,3.81037,0.7571815,2.985714,2.283101,-0.05301809,-0.262221,-2.358061,0.3943159,-2.746529,3.733403,1.162993,-2.998953,-2.243156,3.460879,3.366824,-3.303883,-0.6468371,1.525361,-3.551785,-1.143822,-2.68891,2.572674,0.1995721],
[-3.192004,-2.281964,1.600644,1.709243,-1.180906,2.974756,-0.5441073,-3.638389,2.604361,1.459668,1.81006,2.462128,0.3556624,1.899608,-2.246723,-3.106718,-3.008277,3.211958,-0.3060819,0.7901773,1.445511,1.440115,3.474154,0.6834574,-1.906782],
[-0.423762,1.942118,1.286546,2.494468,-3.753959,0.2332916,1.456548,2.646582,1.454294,2.053169,-3.35925,-1.372928,3.501572,-2.286832,1.271974,3.223689,-2.64857,3.383862,0.5040891,-0.6761752,-0.9238326,-2.522138,3.83947,-2.641326,-2.212035],
[3.179336,-3.857505,-3.156863,-3.756546,-1.633226,-1.776737,-1.383503,2.511798,0.5498211,-3.936493,3.646489,-2.643259,3.870534,-1.587874,-1.225643,1.163263,-2.244963,-1.442641,0.2379315,1.743748,3.931905,-1.509697,-3.042342,2.8706,2.60324],
[-3.863586,1.424655,-2.724602,0.1932079,1.921926,1.955445,-3.386167,-1.160372,-2.258386,2.87553,2.405309,3.381721,3.077513,0.16407,-0.6045208,-3.29852,-0.2233573,-3.565177,-0.685794,-0.9825349,1.103233,-2.535708,-3.559529,3.842782,-2.326662],
[2.460361,-3.011374,-0.9434456,1.936208,-1.810177,2.596165,0.2561558,3.345262,1.880301,-0.6877995,-1.576159,-3.594995,1.975862,3.482864,-2.429942,-1.376346,-3.681013,3.90737,3.508245,-3.431323,1.933653,-0.09043734,-1.623432,-1.723267,0.2379271],
[-0.9393098,2.418932,2.452044,-0.2154203,3.955653,-0.02015173,1.12068,3.556007,-0.2933868,-3.145995,3.675854,-2.82511,-3.499517,-0.9175555,1.244543,-3.123861,1.098606,-3.97564,1.450317,-2.172548,3.300817,1.637377,0.2180406,-2.100414,0.687506],
[-2.116146,-1.254698,0.5482217,-1.981782,3.146915,-1.0384,-0.07049281,-0.8966169,2.682748,3.618104,-2.89454,-3.490684,-0.125912,-3.211104,1.808695,3.275401,-0.9459621,-3.787063,1.342839,2.551617,3.572298,3.035963,1.353412,0.3952109,-2.880398],
[-1.778297,0.7893548,-2.77916,-1.495945,3.886112,1.034364,-2.170064,3.713711,1.712117,-1.292619,0.165311,-3.985509,-3.186178,1.85746,3.007101,2.976445,-2.441661,1.315678,-2.592458,1.621105,-2.838548,1.866064,0.802818,-1.307635,-2.022584],
[3.526497,-2.172858,2.766235,2.094073,-1.99636,-3.569657,3.967086,1.013852,-0.7274816,2.43504,-3.833328,-3.992242,-2.851212,3.54683,1.647472,-3.640451,-2.52548,-0.840299,-0.5159795,1.429343,-2.039654,3.229878,-2.645233,-3.634984,2.016203],
[-2.223494,-1.320153,1.326046,-1.855102,-3.30357,2.146031,-0.5422136,0.7621807,-1.772339,1.375606,1.771519,3.430847,3.610602,3.060416,1.516485,3.873563,0.4093513,-1.310889,-2.73575,2.251677,-0.3209819,3.72725,2.787034,-3.751167,-0.5046752],
[0.8163311,3.834033,-3.611879,0.8116714,-3.989474,1.585519,2.286861,-1.769188,0.426547,-0.5818709,-1.277695,2.528795,1.067958,-0.8860435,-1.231262,1.883892,-2.673264,-1.570228,-2.139245,-0.00723326,3.510278,0.2480756,-1.775985,-1.845178,2.114963],
[3.100536,-0.1488588,2.422683,1.62235,2.646957,2.963855,-0.3922345,-0.05679575,-3.246482,-1.84509,2.649733,-1.03406,-0.2325507,2.795619,2.306997,-0.5777532,-2.099678,0.1903723,-3.927197,-3.369498,0.6158258,3.512315,3.277106,-1.839409,-2.464217],
[-0.0071707,-2.512918,-3.912023,-0.6352797,-0.6164587,-2.538587,-2.668619,2.834336,1.615903,-0.9807429,-1.565435,3.899831,1.360931,3.190549,3.920095,2.299745,2.582044,3.785983,1.164633,-1.465854,3.591123,-0.9198431,-2.731486,-1.721608,1.415585],
[-2.65602,-2.464316,-3.184394,2.872321,-3.25231,-3.95759,-1.34699,3.317837,-3.4341,2.315722,-2.641016,-3.580132,-3.408216,-3.800839,1.187809,0.8414658,3.450084,3.657045,2.95206,2.751761,2.316895,3.543295,2.953346,-1.023944,-0.7499896],
[0.373505,3.460992,-2.660454,3.873839,-3.191925,2.926967,0.0459563,3.881545,1.207463,-1.979631,3.374527,1.568883,-3.284318,1.78848,-3.552109,3.534317,0.8965169,1.853433,-0.3922052,2.618605,0.09214234,2.436542,2.446766,2.685778,-3.334084],
[-0.6564603,3.026991,2.101905,3.660232,-1.51818,-2.053911,-3.082727,3.850265,-0.502696,-3.877206,0.4560642,2.392022,-1.257553,-1.212973,0.860886,-1.045143,0.2661311,-0.8674178,1.085296,-0.3003208,-0.6338903,-1.065198,1.270868,-3.323934,-1.328561],
[-2.450253,-3.415365,0.2475234,-3.850724,2.427299,1.132267,-2.236431,-3.470165,-2.011317,1.749302,-1.677213,-1.293539,-1.314668,-1.61015,-3.34301,1.610692,1.736608,-2.405495,3.28045,0.3821181,-0.4284245,-2.314699,-1.115339,0.4424529,0.1896057],
[-0.6844805,0.2643625,-0.3610703,-3.831225,-3.58614,-1.863803,-1.130954,-1.849005,1.885566,-3.76271,1.266612,0.7574811,-0.8373956,-0.3602097,-0.6520183,2.766443,-0.6512195,-1.826713,-2.704048,3.735126,-3.787282,-1.09055,-0.3966041,1.872391,-0.828698],
[-0.1378532,-1.025986,-3.368313,-0.9226953,1.130773,-2.041541,3.15702,0.09245104,2.568273,-0.4459073,1.984413,-1.642969,3.73589,-3.663448,2.492567,1.811376,-1.884793,-0.7513495,3.017686,0.7601829,2.541191,3.877181,3.445933,-0.1558061,-2.01905],
[-0.325728,-0.001452234,3.602315,-1.680948,-2.739798,-0.7412413,-2.278365,-1.661738,-2.324229,-3.412993,0.01188447,-3.029922,0.3470081,-0.4298382,-1.467324,-1.561075,-3.327392,1.111177,3.518569,1.14771,-3.719821,3.10855,2.168281,3.536001,-1.374286],
[3.753431,3.4488,-2.516699,2.490842,1.236005,3.851981,3.717654,-1.11503,-3.442797,-0.2085671,-3.154096,-0.3497494,-3.979268,-1.572322,1.109221,-1.524042,2.231257,3.592282,3.130817,1.071792,1.419293,1.164839,1.513286,1.283119,-0.2209724],
[2.010432,-1.819455,-0.6493247,1.193929,3.256718,-3.160635,-3.322085,2.28428,-1.919248,-2.005006,-3.046906,-2.142653,1.415566,-2.252331,3.021759,-3.941501,1.900952,0.0182009,-1.454752,-3.349414,-1.587373,-0.5373988,2.542164,-1.782636,3.973931]
],
[
[-3.634254,2.920251,2.142957,0.7177846,-2.130385,0.7191319,-0.8941179,3.953323,0.426649,1.826896,3.885874,1.776704,-3.229219,-1.616599,-0.5280426,2.557783,3.912824,-0.9366629,3.604818,1.612928,1.920027,-2.839791,1.584346,3.920927,0.5946681],
[1.352551,-2.109031,-3.57827,1.789606,-3.613272,3.84957,1.175721,-0.4489948,-2.979504,3.388847,0.9317099,-2.390136,2.936457,-2.787294,0.9498099,-1.978126,3.639319,0.3300345,-0.6574607,-3.926508,-0.05475433,1.490132,1.553617,-2.128646,-0.5263485]
]
],
"biases":[
[
-0.2828042,2.197773,2.064215,1.849922,1.556033,0.8340955,1.782659,-0.597872,2.788561,-2.990513,1.084255,-3.956759,3.587165,-0.03986262,-2.537134,3.784156,0.2367717,-0.6601546,-1.486038,-2.387154,-3.990832,-1.476416,-1.279438,-3.971107,-0.6823966
],
[
-0.07893185,3.769915
]
]},
{
"fitness":1.649914,
"weights":[
[
[3.647496,-0.1914478,1.91897,-3.925001,-2.475312,0.04443336,-0.2415558,0.5055773,-2.900738,-3.232126,1.858714,3.238522,-1.79802,-2.456613,-2.253623,-0.370042,-0.8322488,-1.3168,0.2331571,1.260741,-3.291612,3.264544,-0.9669247,-3.452098,-0.1351076],
[3.231225,2.120878,2.024655,3.733938,3.66262,-1.460689,-2.717306,-2.352281,-2.27228,-3.771356,0.92506,-1.198088,3.963513,2.804695,-2.331075,-1.086654,-3.559401,1.164538,-2.566529,-1.648499,-0.613611,-0.2182767,2.828755,-1.823948,-3.101229],
[1.447715,1.250873,3.81037,0.7571815,2.985714,2.283101,-0.05301809,-0.262221,2.392023,0.3943159,-2.746529,3.733403,1.162993,-2.998953,-2.243156,3.460879,3.366824,-3.303883,-0.6468371,1.525361,0.8865805,-1.143822,-2.68891,2.572674,0.1995721],
[-3.192004,-2.281964,1.600644,1.709243,-1.180906,2.974756,-0.5441073,-3.638389,2.68059,1.459668,1.81006,2.462128,0.3556624,1.899608,-2.502596,-3.106718,-3.008277,3.211958,-0.3060819,0.7901773,1.445511,1.440115,3.474154,0.6834574,-1.906782],
[-0.423762,1.942118,1.084579,2.494468,-3.753959,0.2332916,1.456548,2.646582,1.454294,2.053169,-3.35925,-1.372928,2.522371,-2.286832,1.271974,2.734002,-2.64857,3.383862,0.5040891,-0.6761752,-0.9238326,-2.522138,3.83947,-2.641326,-2.212035],
[3.179336,-2.306171,-3.156863,-3.756546,-1.633226,-1.776737,-1.383503,2.511798,0.5498211,-3.936493,3.646489,-2.643259,3.870534,-1.587874,-1.225643,1.163263,-2.244963,-1.442641,0.2379315,1.743748,3.931905,-1.509697,-3.042342,2.8706,2.60324],
[-3.863586,1.424655,-2.724602,0.1932079,1.921926,1.955445,-3.386167,-1.160372,-2.258386,2.87553,2.405309,3.381721,3.077513,0.16407,-0.6045208,-3.29852,-0.2233573,-3.565177,1.194231,-0.9825349,1.103233,-2.535708,-3.559529,3.842782,-2.326662],
[2.460361,-3.011374,-0.9434456,1.936208,-1.810177,2.596165,0.2561558,3.345262,1.880301,-0.6877995,-1.576159,-1.023648,1.975862,3.482864,-2.429942,-1.376346,-3.681013,3.90737,3.508245,-3.431323,1.933653,-0.09043734,-1.623432,-0.4463829,0.2379271],
[-0.9393098,2.418932,2.452044,-0.2154203,3.955653,-0.02015173,1.12068,3.556007,-0.2933868,-3.145995,3.675854,-2.82511,-3.499517,-0.9175555,1.244543,-3.123861,1.098606,-3.97564,1.450317,-2.172548,3.300817,1.637377,0.2180406,-2.100414,0.687506],
[-2.116146,-2.280942,0.5482217,-1.981782,3.146915,-1.0384,-0.07049281,-0.8966169,2.682748,3.618104,-2.099915,-3.490684,-0.125912,-3.211104,1.808695,3.275401,-0.9459621,-3.787063,1.531456,2.551617,3.572298,3.035963,1.353412,0.3952109,-2.880398],
[-1.778297,-1.486151,-2.77916,-1.495945,3.886112,1.034364,-2.170064,3.713711,1.712117,-1.292619,0.165311,-3.985509,-3.186178,1.85746,3.007101,2.976445,-2.441661,1.315678,-2.592458,1.621105,-2.838548,1.866064,0.802818,-1.307635,-2.022584],
[3.526497,-2.172858,2.766235,2.094073,-1.99636,-3.569657,3.967086,1.013852,-0.7274816,2.43504,-3.833328,-3.992242,-2.851212,3.54683,1.647472,-3.640451,-2.52548,-0.840299,-0.5159795,1.429343,-2.039654,3.229878,-2.645233,-3.634984,0.9315635],
[-2.223494,-1.320153,1.326046,-1.855102,-3.30357,2.146031,-0.5422136,0.7621807,-1.772339,1.375606,1.771519,3.430847,3.610602,3.060416,1.516485,0.4521676,0.4093513,-1.310889,-3.169773,2.251677,-0.3209819,3.72725,2.787034,-3.751167,-0.5046752],
[0.8163311,3.834033,-3.611879,0.8116714,-3.989474,1.585519,2.286861,-1.769188,0.426547,-0.5818709,-1.277695,2.528795,1.067958,-0.8860435,-1.231262,1.883892,-2.673264,-1.570228,-2.139245,-2.863943,-1.111921,-3.618937,-1.775985,-1.845178,2.114963],
[3.100536,-0.1488588,2.422683,1.62235,2.646957,-2.913772,-0.3922345,-0.05679575,-3.246482,-1.84509,2.649733,-1.03406,-0.2325507,2.795619,2.306997,-0.5777532,-2.099678,0.1903723,-3.927197,-3.369498,0.6158258,3.512315,3.277106,-1.839409,-2.464217],
[-3.832236,-2.512918,-3.912023,-0.6352797,-0.6164587,-2.538587,1.004347,2.834336,1.615903,-0.9807429,-1.565435,3.899831,1.360931,3.190549,3.920095,2.299745,2.582044,3.785983,1.164633,-1.465854,3.591123,-0.9198431,-2.731486,-1.721608,1.415585],
[-2.65602,-0.9438691,-3.184394,2.872321,-3.25231,-3.95759,1.80971,3.317837,-3.4341,2.315722,-2.641016,-0.8545366,-3.408216,-3.800839,1.187809,0.8414658,3.450084,3.657045,1.995809,2.751761,2.316895,3.543295,2.953346,-1.023944,-0.7499896],
[0.373505,3.460992,-2.660454,3.873839,-3.191925,2.926967,0.0459563,3.881545,1.207463,-1.979631,3.374527,1.568883,-3.284318,1.78848,-3.552109,3.534317,0.8965169,1.853433,-0.3922052,2.618605,0.09214234,-1.51828,2.889822,2.685778,-2.111984],
[-0.6564603,3.026991,2.101905,-1.259027,-1.51818,-2.053911,-3.082727,3.850265,-0.502696,-3.877206,0.4560642,2.392022,-1.257553,-1.212973,0.860886,-1.045143,0.2661311,-0.8674178,1.085296,-0.3003208,-0.6338903,-1.065198,1.270868,-3.323934,-1.328561],
[-2.450253,-3.415365,0.2475234,-3.850724,2.427299,1.132267,-2.236431,-3.470165,-2.011317,1.749302,-1.677213,-1.293539,-1.314668,-1.61015,-3.34301,1.610692,1.736608,-2.405495,3.28045,0.3821181,-0.4284245,0.9200172,-1.115339,0.4424529,0.1896057],
[-0.6844805,0.2643625,-0.3610703,-3.831225,-3.58614,-1.863803,-1.130954,-1.849005,1.885566,-3.76271,1.266612,0.7574811,-0.8373956,-0.3602097,-0.6520183,2.766443,-0.6512195,-1.826713,-2.704048,3.735126,-3.787282,-1.09055,-0.3966041,1.872391,-0.828698],
[-1.795763,-1.025986,-3.368313,-0.9226953,1.130773,-2.041541,3.15702,0.09245104,2.568273,-0.4459073,1.984413,-1.642969,3.73589,-3.663448,2.492567,1.811376,-1.884793,-0.7513495,3.017686,0.7601829,1.897399,3.877181,3.445933,-3.913357,-2.01905],
[-0.325728,-0.001452234,3.602315,-1.680948,-2.739798,-0.7412413,-2.278365,-1.661738,-2.324229,-3.412993,0.01188447,-3.029922,0.3470081,-0.4298382,-3.99454,-3.12991,-3.327392,1.111177,3.518569,1.14771,-3.719821,3.10855,2.168281,3.536001,1.424994],
[3.753431,3.4488,-2.516699,2.490842,1.236005,3.851981,3.717654,-1.11503,-3.442797,-0.2085671,-3.566565,-1.538827,-3.979268,-1.572322,1.109221,-1.524042,1.389101,3.592282,3.130817,1.071792,1.419293,1.164839,1.513286,-2.943136,-0.2209724],
[2.010432,-1.819455,-0.6493247,1.193929,3.256718,-3.160635,-3.322085,2.28428,-1.919248,-2.005006,-3.046906,-2.142653,1.415566,-2.252331,3.021759,-3.941501,1.900952,0.0182009,-1.454752,-3.349414,-1.587373,-0.5373988,2.542164,-1.782636,3.973931]
],
[
[-3.634254,2.920251,2.142957,0.7177846,-2.130385,0.7191319,-0.8941179,3.953323,0.426649,1.826896,3.885874,1.776704,-3.229219,-1.616599,-0.5280426,2.557783,3.912824,-0.9366629,3.604818,1.612928,1.920027,-2.839791,1.584346,3.920927,0.5946681],
[1.352551,-2.109031,-3.57827,1.789606,-3.613272,3.84957,1.175721,-0.4489948,-2.979504,3.388847,-3.256419,-2.390136,2.936457,-2.787294,0.9498099,-1.978126,3.639319,0.3300345,1.48356,-3.926508,-0.05475433,1.490132,1.553617,-2.128646,-0.5263485]
]
],
"biases":[
[
-0.2828042,2.197773,2.064215,1.849922,1.556033,0.8340955,1.782659,-0.597872,2.788561,-2.038156,1.084255,-3.956759,3.587165,-0.03986262,-2.537134,3.784156,0.2367717,-0.6601546,-1.486038,-2.387154,-3.990832,-1.476416,-1.279438,-3.971107,2.363888
],
[
-0.07893185,3.769915
]
]},
{
"fitness":1.649477,
"weights":[
[
[3.647496,-0.1914478,1.91897,-3.925001,-2.475312,0.04443336,-0.2415558,0.5055773,-2.900738,-3.232126,1.858714,3.238522,0.08822342,-2.456613,-2.253623,-0.370042,-0.8322488,-1.3168,0.2331571,1.260741,-3.291612,3.264544,-0.9669247,-3.452098,-0.1351076],
[-1.002538,2.120878,2.024655,2.350786,-2.928808,-1.460689,-3.552183,-2.352281,-1.483019,-3.771356,0.92506,-1.198088,3.963513,2.804695,0.4380719,-1.086654,-3.559401,1.164538,-2.566529,-1.648499,2.030036,2.857321,2.828755,-1.823948,-3.101229],
[1.447715,1.250873,3.81037,0.5115204,2.985714,2.283101,-0.05301809,-0.262221,-2.358061,0.3943159,-2.746529,3.733403,1.162993,0.8862296,-3.839444,3.460879,3.366824,-0.750748,-0.6468371,2.150425,0.8865805,-1.143822,-2.68891,-2.353815,0.1995721],
[-3.192004,-1.541055,1.600644,1.709243,-1.180906,2.974756,-0.5441073,-3.638389,2.68059,1.459668,1.81006,2.462128,0.3556624,1.899608,-2.502596,-3.106718,-3.684602,3.211958,-0.3060819,0.7901773,1.445511,3.101148,-3.263007,0.6834574,-1.906782],
[1.290493,-1.206453,1.084579,2.494468,3.712027,0.2332916,1.456548,2.646582,1.454294,2.053169,1.506565,-1.372928,2.522371,-2.286832,1.271974,3.223689,-2.64857,3.383862,0.5040891,-0.6761752,-0.9238326,-2.522138,3.83947,-1.340665,-2.212035],
[0.6147645,-3.857505,-3.156863,-0.6782233,-1.633226,-1.776737,-1.383503,2.511798,0.5498211,-3.936493,1.686481,-2.643259,3.870534,-1.587874,-1.225643,1.163263,-2.244963,-1.442641,0.2379315,1.743748,3.931905,-1.509697,1.375726,2.8706,2.60324],
[-3.863586,1.424655,-2.724602,3.380093,1.921926,1.955445,-3.386167,-1.160372,-2.258386,2.87553,2.405309,3.381721,3.077513,0.16407,1.215717,-3.29852,-0.2233573,-3.565177,-0.685794,-0.9825349,1.103233,-0.2307985,-3.559529,0.5323629,-2.326662],
[2.460361,-3.011374,-2.759,1.936208,-1.810177,2.596165,-1.315927,3.345262,1.880301,-0.6877995,-1.576159,-2.131072,1.975862,3.482864,-2.429942,-1.376346,-3.681013,3.90737,3.508245,-3.431323,1.933653,-0.09043734,-1.623432,-1.723267,0.2379271],
[-0.9393098,2.418932,-1.036859,-0.2154203,3.955653,1.639574,1.12068,3.556007,-0.2933868,-3.145995,3.675854,-2.82511,-3.499517,-0.9175555,1.244543,3.361476,1.098606,-3.97564,1.450317,-2.172548,3.300817,1.637377,0.2180406,2.368292,0.687506],
[-2.116146,-1.254698,0.5495607,-1.981782,3.146915,-1.0384,-0.3759975,-0.8966169,2.682748,3.618104,1.166532,-3.490684,-0.125912,-3.211104,1.808695,3.275401,-1.013231,-3.787063,1.531456,0.6583862,3.572298,3.035963,1.353412,-3.836542,-2.880398],
[-1.778297,-1.486151,-2.77916,-1.495945,3.886112,1.034364,-2.170064,3.713711,1.712117,-1.292619,0.165311,-3.985509,1.894692,1.85746,-1.700656,2.976445,-2.441661,1.315678,-2.592458,1.621105,-2.838548,0.3267199,3.862158,-1.307635,-2.022584],
[3.526497,-2.172858,2.766235,-3.865679,-1.99636,-1.155775,3.967086,1.013852,-0.7274816,3.418636,-3.833328,-3.992242,-2.851212,0.7329235,1.647472,-2.663181,-2.52548,-0.840299,-0.5159795,1.429343,-2.039654,3.229878,-2.645233,-3.634984,2.016203],
[-2.223494,-1.320153,1.326046,-1.855102,-3.30357,2.146031,-0.5422136,0.7621807,3.206347,1.375606,1.771519,3.430847,-1.537219,3.060416,1.516485,3.873563,0.4093513,-1.310889,-3.169773,2.251677,-0.3209819,3.72725,2.787034,-3.751167,-0.5046752],
[0.8163311,3.834033,-3.611879,0.8116714,-3.989474,1.585519,-3.317191,-1.769188,0.426547,-0.5818709,-1.277695,2.528795,1.067958,-0.8860435,-1.231262,1.538199,-2.673264,-1.570228,-2.139245,-0.00723326,-1.111921,-3.931175,-1.775985,-1.845178,2.114963],
[3.100536,-0.1488588,3.305568,-1.59691,2.646957,2.963855,-0.3922345,-0.05679575,-3.318114,-1.84509,2.649733,-1.03406,-0.2325507,-0.854907,2.306997,-0.5777532,-2.099678,0.1903723,-3.927197,-3.369498,0.6158258,3.512315,3.771319,-1.839409,-2.464217],
[-0.0071707,-2.512918,-3.912023,-0.6352797,-0.6164587,-2.538587,1.004347,2.834336,1.615903,-0.9807429,-1.565435,3.899831,1.360931,3.190549,3.920095,2.299745,2.582044,3.785983,1.36528,-1.465854,3.591123,-0.9198431,-2.731486,1.380996,1.415585],
[-2.65602,-2.464316,-3.184394,2.872321,-3.25231,-3.95759,-1.34699,3.317837,-3.4341,2.315722,-2.641016,-3.580132,-3.408216,-3.800839,0.9822531,0.8414658,3.450084,2.849639,1.995809,2.751761,2.316895,3.543295,2.953346,-3.890109,-0.7499896],
[0.373505,3.460992,-2.660454,3.873839,-3.191925,2.926967,-0.9787975,3.881545,1.207463,2.730042,-2.756578,1.568883,-3.284318,1.78848,-3.552109,-3.888985,0.8965169,1.853433,-1.384906,2.618605,0.09214234,-1.51828,2.446766,2.685778,-2.111984],
[-0.6564603,3.026991,2.101905,-1.259027,-1.51818,-2.053911,2.426562,3.850265,0.06684205,-3.877206,0.4560642,2.392022,-1.257553,-3.609144,0.860886,-1.045143,0.2661311,-0.8674178,1.085296,-0.3003208,-0.6338903,-1.065198,-0.1401893,-3.323934,-1.328561],
[-2.450253,-3.415365,0.2475234,-3.850724,2.427299,1.132267,-2.236431,-3.470165,-2.011317,1.749302,-1.677213,-1.293539,-1.314668,-1.61015,-3.34301,1.108325,1.736608,-2.405495,3.28045,0.3821181,3.89858,0.9200172,-1.115339,0.4424529,0.1896057],
[-0.6844805,3.429194,-0.3610703,-3.831225,2.190321,2.467286,-1.130954,-3.519107,1.885566,-3.76271,-2.195162,0.7574811,-0.8373956,-0.3602097,-0.6520183,2.766443,-0.6512195,-1.826713,-2.704048,3.735126,3.537255,-1.09055,-0.3966041,3.531799,1.549103],
[-0.1378532,-1.025986,-3.368313,-0.9226953,-3.896592,-2.041541,-2.184389,0.09245104,2.568273,-2.47551,1.984413,-1.642969,3.73589,-3.663448,2.492567,1.811376,-1.884793,1.87399,3.017686,-1.358247,2.541191,3.877181,3.445933,-3.313205,-2.01905],
[-0.325728,-0.001452234,1.506154,-1.680948,-2.739798,-0.7412413,-2.278365,-1.661738,-2.324229,1.84556,0.01188447,-3.029922,0.3470081,-0.4298382,-3.99454,-3.12991,3.806751,1.111177,3.518569,1.14771,-3.719821,-3.302443,2.168281,3.536001,-3.213533],
[3.753431,3.4488,-2.516699,2.32894,1.236005,3.851981,3.717654,-1.11503,-3.442797,-0.2085671,-3.467429,-0.7824044,-1.97364,-1.572322,1.109221,-1.524042,1.389101,3.592282,3.130817,1.071792,1.419293,1.164839,1.513286,0.9662159,-0.2209724],
[-1.490088,-1.819455,-0.6493247,1.193929,3.256718,-3.160635,-3.140039,2.28428,-1.919248,-2.005006,-3.046906,-2.142653,1.415566,-2.252331,3.021759,0.7930743,1.900952,3.647154,-1.454752,-3.349414,-1.587373,-0.5373988,2.542164,-1.782636,3.973931]
],
[
[-3.634254,2.920251,2.142957,0.7177846,-2.130385,0.7191319,-0.8941179,3.953323,0.426649,1.826896,3.885874,0.1165137,-3.229219,-1.616599,2.324214,2.557783,3.912824,-0.9366629,3.604818,1.612928,1.920027,-2.839791,1.584346,3.920927,0.5946681],
[1.352551,-2.109031,-3.57827,1.789606,-2.819362,3.84957,1.175721,-0.4489948,-2.979504,3.388847,0.9317099,-2.155378,1.649693,-2.787294,0.9498099,-1.978126,3.639319,1.254751,1.6052,-3.926508,-0.05475433,1.490132,1.553617,-0.3003477,-0.9304004]
]
],
"biases":[
[
-0.2828042,2.197773,2.064215,1.849922,1.556033,0.8340955,1.782659,-0.597872,2.788561,1.81875,1.084255,-3.956759,3.587165,-0.03986262,-2.537134,3.784156,0.2367717,-0.6601546,-1.486038,-2.387154,-3.990832,-1.476416,-0.4537337,-3.971107,2.363888
],
[
-0.9988078,3.769915
]
]},
{
"fitness":1.628662,
"weights":[
[
[0.1539624,-0.4709241,1.848835,-3.925001,3.409466,0.04443336,-2.474307,0.3861239,-2.900738,-0.3125085,2.866699,3.238522,-1.028041,0.4869163,2.895332,3.213742,-0.8322488,2.749049,-2.555261,2.862903,3.420517,-2.819267,-0.9669247,-3.452098,0.2014979],
[2.731238,2.120878,2.024655,-2.423741,-3.439987,-1.460689,2.12534,-3.116671,3.127143,2.558851,0.92506,1.330636,-3.33765,-3.372097,-0.5505122,0.6221498,3.135864,-2.081846,-2.23382,-1.648499,-2.08507,-2.758888,2.828755,1.085955,-3.101229],
[3.62839,1.250873,3.81037,-1.283551,2.985714,3.668507,3.831689,-2.528748,-3.774898,0.3943159,-2.690844,-3.485491,-0.1741909,3.443773,2.564418,-0.8390108,3.366824,-3.303883,-0.6468371,-3.9275,0.8865805,2.198217,1.497752,0.9436218,0.1995721],
[1.462958,-2.538326,-1.264976,1.709243,-1.078917,2.974756,-0.5441073,1.580157,-0.4264079,1.595223,1.81006,3.391615,-2.651024,-0.4286721,-0.09677494,-2.390754,3.151654,3.211958,-1.015924,0.09717354,-3.386353,2.225705,3.474154,0.6834574,3.058211],
[-0.423762,-3.815269,2.513731,-0.9492915,2.203892,0.2332916,1.456548,-2.419971,-1.692512,2.053169,-0.1409511,-1.372928,-2.099707,0.5700933,0.3718718,3.352058,-2.64857,0.3496211,-1.723216,-1.827529,-0.9238326,-3.520245,3.345157,0.2772261,-2.499677],
[3.682129,-3.857505,2.661711,-3.885357,-1.633226,-1.776737,-1.383503,2.511798,1.005798,-3.936493,-1.345252,-2.643259,1.886591,-1.587874,-1.651563,2.574252,-2.244963,2.540808,-2.806213,-2.289973,1.87358,1.809788,2.623112,2.8706,-3.053975],
[-3.863586,3.946185,-2.724602,0.1932079,-3.665526,2.154958,-2.42797,1.010566,2.89197,-1.520435,-0.9984885,0.8224086,3.565357,-1.52248,2.482205,-3.29852,-0.2233573,-0.1671111,0.9117406,-1.107887,0.9099926,3.591257,0.6754996,-1.787594,1.527418],
[2.460361,-1.891109,-1.393175,1.144349,-2.831686,1.511191,2.167134,-0.5284948,-0.1059346,-0.6877995,-0.7916618,3.060572,1.975862,3.482864,3.615326,3.190455,-3.681013,-0.5753796,3.508245,-3.431323,-2.709162,1.773955,2.588968,3.677525,0.2379271],
[-0.9393098,2.418932,2.452044,-0.2154203,2.707701,0.1049437,1.12068,-1.474852,-0.2933868,1.062628,3.675854,-2.82511,-3.20815,2.88556,3.186524,-3.123861,2.648331,1.126244,0.1751063,0.43129,-3.234489,1.637377,-1.1911,3.499545,-3.178017],
[-3.879526,-1.254698,0.5482217,-1.981782,3.146915,0.7223042,-0.3759975,-0.8966169,2.682748,3.618104,-2.829892,-3.751651,-2.26034,1.150561,2.937648,2.856017,-0.9459621,2.805476,1.531456,-1.87691,3.572298,3.272643,3.487806,-3.836542,-0.6717389],
[3.786291,1.411193,1.239018,1.657968,3.886112,-2.542962,1.753038,3.713711,1.712117,-1.292619,0.165311,-3.985509,1.894692,1.85746,-3.483847,-0.6845804,-2.441661,1.315678,-0.2000688,3.73587,-2.309801,0.3267199,-3.324365,-1.307635,-2.022584],
[3.526497,-2.172858,2.766235,1.057845,-1.99636,0.09890383,-3.179514,1.013852,0.7557246,-1.258158,2.656987,-3.992242,-0.4894858,-3.891119,3.541345,-3.640451,-2.52548,3.109565,-0.5159795,1.429343,-2.039654,-2.832203,-2.645233,-2.538568,2.152446],
[-2.243133,1.794801,1.326046,0.4699926,-3.30357,-3.667605,0.2244818,0.7621807,-1.325617,1.375606,3.175868,3.324495,3.792895,1.313869,-1.554943,-3.810017,-1.602476,2.045047,-3.169773,0.8369108,-0.3209819,0.3683107,3.899018,-3.751167,-0.5046752],
[0.8163311,1.526545,1.661362,-0.6761062,3.215518,1.585519,-3.317191,-1.769188,0.426547,-0.08353823,-1.655624,-1.084379,2.121588,1.234009,-1.231262,3.931135,-2.673264,-1.570228,-2.139245,3.563914,1.767737,-3.931175,-3.00573,-1.845178,2.114963],
[-2.22138,-2.931253,-1.278154,3.10968,2.646957,-2.759207,-1.703114,1.667667,-2.457726,0.4596815,-3.579707,-0.3870247,0.7515241,0.1471297,-1.416751,-2.580878,-2.099678,0.1903723,-3.927197,-0.4696169,3.559337,-2.5459,-2.408573,-1.839409,2.821308],
[2.073577,-2.512918,-3.912023,-0.6352797,-0.2996673,-2.538587,1.004347,2.834336,3.299212,3.438737,-2.217295,3.597149,1.360931,2.858742,2.402921,1.861112,0.3712322,1.052858,0.7797621,0.3351416,3.591123,-0.9198431,3.308476,-0.2840746,1.415585],
[2.6224,-2.464316,-3.184394,-3.942171,-3.25231,-3.358547,-1.34699,2.423121,-3.4341,2.315722,-2.641016,-2.719217,-3.408216,1.627539,0.3870023,0.7780884,-1.889135,0.4155903,-2.148881,1.13246,2.316895,3.543295,2.115362,2.998921,-0.7499896],
[3.099421,-1.910437,-2.660454,-1.507115,-2.951153,2.926967,-3.462735,3.881545,1.207463,-1.979631,2.487212,-2.013792,-2.431902,1.78848,-3.552109,-3.158532,1.598089,-3.156194,-0.3922052,-3.748503,0.09214234,0.9496267,2.446766,-1.341556,2.70243],
[-0.6564603,3.026991,2.101905,3.074858,-2.962342,-2.053911,-0.9693351,-3.845513,-1.04656,0.4105602,-0.5289487,-1.960775,-0.4881529,-1.212973,-1.141346,-1.045143,-0.2501395,-0.8674178,-2.252085,3.145298,1.347854,-1.511159,-0.1401893,-2.941324,2.005661],
[-2.450253,-3.415365,-1.514809,-1.730423,2.427299,-0.9798312,1.683389,-0.5926807,-1.17773,1.749302,-3.361261,1.238591,0.3734246,-3.859767,-3.34301,1.610692,1.736608,-0.5161011,3.28045,0.3821181,2.540904,0.2282618,-1.115339,-1.817042,0.1896057],
[-0.6844805,3.429194,-0.3610703,0.9232282,-3.58614,0.5284389,-1.130954,-1.374673,1.910174,-3.76271,-3.951276,-0.4689044,2.951101,-0.3602097,-0.6520183,-3.227965,2.253728,3.669768,-2.704048,3.735126,-3.787282,-1.09055,1.775674,-1.986474,1.866133],
[2.169235,-1.025986,-3.368313,-0.9226953,-2.473331,-2.041541,-2.184389,-1.1941,2.568273,3.827191,-1.408647,-1.377875,-3.503723,-3.663448,2.699584,-3.628737,3.272522,0.5572657,3.98649,-1.655626,-3.504864,-0.3517734,1.792911,-0.7372467,-2.841712],
[-2.8664,-0.001452234,3.602315,3.228951,-0.2442097,-1.056864,3.394977,-3.7643,-2.324229,-3.49669,-2.024629,-1.693626,-1.906022,2.293754,-3.481491,1.494935,3.561773,1.111575,-3.040873,2.066261,0.04354128,-0.2854715,1.172995,3.536001,-2.445194],
[3.753431,3.4488,-1.503736,1.811231,1.236005,-1.31079,2.593985,-1.11503,-1.436885,-0.2085671,-3.467429,-0.3497494,-3.979268,3.752492,1.109221,3.441525,-3.091745,3.592282,-3.99129,1.071792,1.447598,1.164839,1.513286,0.9662159,2.279454],
[-1.490088,2.817672,-3.977212,1.18365,-3.219472,-0.5268936,-3.805173,2.28428,-0.402989,0.1784794,-0.1663557,3.301273,-0.2609114,-2.252331,0.4762106,0.9251132,-3.687862,3.050899,0.9514287,2.061634,-1.587373,1.811571,2.542164,-0.9489233,1.149797]
],
[
[0.1766118,2.920251,2.142957,0.7177846,-3.676277,-1.006554,0.07473984,3.953323,-0.9878851,1.826896,3.885874,-2.472309,-0.177644,-3.657035,2.324214,3.296108,1.846712,-0.9366629,-1.15431,1.612928,2.546989,2.550795,1.584346,3.920927,2.399596],
[1.352551,-2.109031,-3.57827,2.593522,-2.329088,2.546576,0.1046844,-3.181258,-2.979504,2.09194,-1.401117,-2.155378,1.304965,-2.787294,0.5979372,-0.1504878,3.639319,0.3300345,-0.6574607,2.136874,-0.05475433,1.490132,-0.2511635,-3.26378,-0.5680085]
]
],
"biases":[
[
-0.2828042,0.7992602,-0.1377277,0.6857991,-1.608665,0.8340955,-0.478856,2.884652,-0.02214469,1.655956,1.084255,1.684384,3.994818,-0.03986262,3.423358,3.784156,2.461077,2.945623,-2.943319,0.1592058,-3.068389,3.581761,1.028026,-0.6120213,2.363888
],
[
3.241615,3.769915
]
]},
{
"fitness":1.623492,
"weights":[
[
[3.647496,-0.1914478,1.91897,-3.925001,-2.475312,0.04443336,-0.2415558,0.5055773,-2.900738,-3.232126,1.858714,3.238522,0.08822342,-2.456613,-2.253623,-0.370042,-0.8322488,-1.3168,0.2331571,1.260741,-3.291612,3.264544,-0.9669247,-3.452098,-0.1351076],
[3.231225,2.120878,2.024655,2.350786,-2.928808,-1.460689,-2.717306,-2.352281,-1.483019,-3.771356,0.92506,-1.198088,3.963513,2.804695,0.4380719,-1.086654,-3.559401,1.164538,-2.566529,-1.648499,-0.613611,2.857321,2.828755,-1.823948,-3.101229],
[1.447715,1.250873,3.81037,0.5115204,2.985714,2.283101,-0.05301809,-0.262221,-2.358061,0.3943159,-2.746529,3.733403,1.162993,0.8862296,-3.839444,3.460879,3.366824,-0.750748,-0.6468371,2.150425,0.8865805,-1.143822,-2.68891,-2.353815,0.1995721],
[-2.820126,-1.541055,1.600644,1.709243,-1.180906,2.974756,-0.5441073,-3.638389,2.68059,1.459668,1.81006,2.462128,0.3556624,1.899608,-2.502596,-3.106718,-3.684602,3.211958,-0.3060819,0.7901773,1.445511,3.101148,-3.263007,0.6834574,-1.906782],
[1.290493,-1.206453,1.084579,2.494468,3.712027,0.2332916,1.456548,2.646582,1.454294,2.053169,1.506565,-1.372928,2.522371,-2.286832,1.271974,3.223689,-2.64857,3.383862,0.5040891,-0.6761752,-0.9238326,-2.522138,3.83947,-1.340665,-2.212035],
[0.6147645,-3.857505,-3.156863,-3.756546,-1.633226,-1.776737,-1.383503,2.511798,0.5498211,-3.936493,1.686481,-2.643259,3.870534,-1.587874,-1.225643,1.163263,-2.244963,-1.442641,0.2379315,1.743748,3.931905,-1.509697,1.375726,2.8706,2.60324],
[-3.863586,1.424655,-2.724602,3.380093,1.921926,1.955445,-3.386167,-1.160372,-2.258386,2.87553,2.405309,3.381721,3.077513,0.16407,1.215717,-3.29852,-0.2233573,-3.565177,-0.685794,-0.9825349,1.103233,-0.2307985,-3.559529,0.5323629,-2.326662],
[2.460361,-3.011374,-2.759,1.936208,-1.810177,2.596165,-1.315927,3.345262,1.880301,-0.6877995,-1.576159,-2.131072,1.975862,3.482864,-2.429942,-1.376346,-3.681013,3.90737,3.508245,-3.431323,1.933653,-0.09043734,-1.623432,-1.723267,0.2379271],
[-0.9393098,2.418932,-1.036859,-0.2154203,3.955653,1.639574,1.12068,3.556007,-0.2933868,-3.145995,3.675854,-2.82511,-3.499517,-0.9175555,1.244543,-3.123861,1.098606,-3.97564,1.450317,-2.172548,3.300817,1.637377,0.2180406,-2.100414,0.687506],
[-2.116146,-1.254698,0.5495607,-1.981782,3.146915,-1.0384,-0.3759975,-0.8966169,2.682748,3.618104,1.166532,1.290406,-0.125912,-3.211104,1.808695,3.275401,-1.013231,-3.787063,1.531456,0.6583862,3.572298,3.035963,1.353412,-3.836542,-2.880398],
[-1.778297,-1.486151,-2.77916,-1.495945,3.886112,1.034364,-2.170064,3.713711,1.712117,-1.292619,0.165311,-3.985509,1.894692,1.85746,-1.700656,2.976445,-2.441661,1.315678,-2.592458,1.621105,-2.838548,0.3267199,3.862158,-1.307635,-2.022584],
[-0.4718007,-2.172858,2.766235,-0.3310708,-1.99636,-1.155775,3.967086,1.013852,-0.7274816,3.418636,-3.833328,-3.992242,-2.851212,0.7329235,1.647472,-2.663181,-2.52548,-0.840299,-0.5159795,1.429343,-2.039654,3.229878,-2.645233,-3.634984,2.016203],
[-2.223494,-1.320153,1.326046,-1.855102,-3.30357,2.146031,-0.5422136,0.7621807,3.206347,1.375606,1.771519,3.430847,-1.537219,3.060416,1.516485,3.873563,0.4093513,-1.310889,-3.169773,2.251677,-0.3209819,3.72725,2.787034,-3.751167,-0.5046752],
[0.8163311,3.834033,-3.611879,0.8116714,-3.989474,1.585519,-3.317191,-1.769188,0.426547,-0.5818709,-1.277695,2.528795,1.067958,-0.8860435,-1.231262,1.538199,-2.673264,-1.570228,-2.139245,-0.00723326,-0.4351587,-3.931175,-1.775985,-1.845178,2.114963],
[3.100536,-0.1488588,3.305568,-1.59691,2.646957,2.963855,-0.3922345,-0.05679575,-3.318114,-1.84509,2.649733,-1.03406,-0.2325507,-0.854907,2.306997,-0.5777532,-2.099678,0.1903723,-3.927197,-3.369498,0.6158258,3.512315,3.277106,-1.839409,-2.464217],
[-0.0071707,-2.512918,-3.912023,-0.6352797,-0.6164587,-2.538587,1.004347,2.834336,1.615903,-0.9807429,-1.565435,3.899831,1.360931,3.190549,3.920095,2.299745,2.582044,3.785983,1.36528,-1.465854,3.591123,-0.9198431,-2.731486,1.380996,1.415585],
[-2.65602,1.108325,-3.184394,2.872321,-3.25231,-3.95759,-1.34699,3.317837,-3.4341,2.315722,-2.641016,-3.580132,-3.408216,-3.800839,0.9822531,0.8414658,3.450084,2.849639,1.995809,2.751761,2.316895,3.543295,2.953346,-3.890109,-0.7499896],
[0.373505,3.460992,-2.660454,3.873839,-3.191925,2.926967,0.0459563,3.881545,1.207463,2.730042,-2.756578,1.568883,-3.284318,1.78848,-3.552109,-3.888985,0.2571403,1.853433,-1.384906,2.618605,0.09214234,-1.51828,2.446766,2.685778,-2.111984],
[-0.6564603,3.026991,2.101905,-1.259027,-1.51818,-2.053911,2.426562,3.850265,0.06684205,-3.877206,0.4560642,2.392022,-1.257553,-3.609144,0.860886,-1.045143,0.2661311,-0.8674178,1.085296,-0.3003208,-0.6338903,-1.065198,-0.1401893,-3.323934,-1.328561],
[-2.450253,-3.415365,0.2475234,-3.850724,2.427299,1.132267,-2.236431,-3.470165,-2.011317,1.749302,-1.677213,-1.293539,-1.314668,-1.61015,-3.34301,1.108325,1.736608,-2.405495,3.28045,0.3821181,3.249395,0.9200172,-1.115339,0.4424529,0.1896057],
[-0.6844805,3.429194,-0.3610703,-3.831225,2.190321,2.467286,-1.130954,-3.519107,1.885566,-3.76271,-2.195162,0.7574811,-0.8373956,-0.3602097,-0.6520183,2.766443,-0.6512195,-1.826713,-2.704048,3.735126,3.537255,-1.09055,-0.3966041,3.531799,1.549103],
[-0.1378532,-1.025986,-3.368313,-0.9226953,-3.896592,-2.041541,-2.184389,0.09245104,2.568273,-2.47551,1.984413,-1.642969,3.73589,-3.663448,2.492567,1.811376,-1.884793,1.87399,3.017686,-1.358247,2.541191,3.877181,3.445933,-3.313205,-2.01905],
[-0.325728,-0.001452234,3.602315,-1.680948,-2.739798,-0.7412413,-2.278365,-1.661738,-2.324229,1.84556,0.01188447,-3.029922,0.3470081,-0.4298382,-3.99454,-3.12991,3.806751,1.111177,3.518569,1.14771,-3.719821,-3.302443,2.168281,3.536001,-3.213533],
[3.753431,3.4488,-2.516699,2.32894,1.236005,3.851981,3.717654,-1.11503,-3.442797,-0.2085671,-3.467429,-0.7824044,-1.97364,-1.572322,1.109221,-1.524042,1.389101,3.592282,3.130817,1.071792,1.419293,1.164839,1.513286,0.9662159,-0.2209724],
[-1.490088,-1.819455,-0.6493247,1.193929,3.256718,-3.160635,-3.140039,2.28428,-1.919248,-2.005006,-3.046906,-2.142653,1.415566,-2.252331,3.021759,0.7930743,1.900952,3.647154,-1.454752,-3.349414,-1.587373,-0.5373988,2.542164,-1.782636,3.973931]
],
[
[-3.634254,2.920251,2.142957,0.7177846,-2.130385,0.7191319,-0.8941179,3.953323,0.426649,1.826896,3.885874,0.1165137,-3.229219,-1.616599,2.324214,2.557783,3.912824,-0.9366629,3.604818,1.612928,1.920027,-2.839791,1.584346,3.920927,0.5946681],
[1.352551,-2.109031,-3.57827,1.789606,-2.819362,3.84957,1.175721,-0.4489948,-2.979504,3.388847,0.9317099,-2.155378,1.649693,-2.787294,0.9498099,-1.978126,3.639319,0.3300345,1.6052,-3.926508,-0.05475433,1.490132,1.553617,-0.3003477,-0.9304004]
]
],
"biases":[
[
-0.2828042,2.197773,2.064215,1.881764,1.556033,0.8340955,3.892372,-0.597872,2.788561,1.81875,1.084255,-3.956759,3.587165,-0.03986262,-2.537134,3.784156,0.2367717,-0.6601546,-1.486038,-2.387154,-3.990832,-1.476416,-0.4537337,-3.971107,2.363888
],
[
-0.9988078,3.769915
]
]},
{
"fitness":1.613348,
"weights":[
[
[1.41081,-0.1914478,0.830655,-3.925001,-2.475312,0.04443336,-0.2415558,0.5055773,-2.900738,-3.232126,1.858714,3.238522,-1.79802,-2.456613,-2.253623,-0.370042,-0.8322488,-1.3168,1.339151,1.260741,-3.291612,3.264544,-0.9669247,-3.452098,-0.1351076],
[0.2251415,2.120878,2.024655,3.733938,3.66262,-1.460689,-2.717306,-2.352281,-1.483019,-3.771356,0.92506,-1.198088,3.963513,2.804695,-2.331075,-1.086654,-3.559401,1.164538,-2.566529,2.206117,-0.613611,2.857321,2.828755,-2.495429,-3.101229],
[1.447715,1.250873,3.81037,0.7571815,2.985714,2.283101,-0.05301809,-0.262221,-2.358061,0.3943159,-2.746529,3.733403,-3.413843,-2.998953,-2.243156,3.460879,3.366824,-3.303883,-0.6468371,1.525361,0.8865805,-1.143822,-2.68891,2.572674,0.1995721],
[-3.192004,-3.761077,1.600644,1.709243,-1.180906,2.974756,-0.5441073,1.238063,2.68059,-2.616416,1.81006,2.462128,0.3556624,1.899608,-2.502596,-3.106718,-3.008277,1.189641,-0.3060819,0.1984061,-3.201606,-3.054114,3.474154,0.6834574,-1.906782],
[-0.423762,1.942118,1.084579,2.494468,-3.753959,0.2332916,1.456548,2.646582,1.454294,2.053169,-3.35925,-1.372928,2.522371,-2.286832,1.271974,3.223689,-2.64857,3.383862,0.5040891,-0.6761752,-0.9238326,-2.522138,3.83947,-2.641326,-2.212035],
[3.179336,-1.711828,-3.156863,-3.756546,-1.633226,-1.776737,-1.383503,2.511798,0.5498211,-3.936493,2.69767,-2.643259,3.870534,-1.587874,-1.917138,1.163263,-2.244963,-1.442641,0.2379315,1.743748,3.931905,-1.509697,-3.042342,2.8706,2.60324],
[-3.863586,1.424655,-2.724602,0.1932079,1.921926,-1.509063,-3.386167,-1.160372,-2.258386,2.87553,2.405309,3.381721,3.077513,0.16407,-0.6045208,-3.29852,-0.2233573,-3.565177,-0.685794,2.738435,1.103233,-2.535708,-3.559529,3.842782,-2.326662],
[2.460361,-3.011374,-0.9434456,1.936208,-1.810177,2.596165,-1.315927,3.345262,1.880301,-0.6877995,-1.576159,-2.131072,1.975862,3.482864,-2.429942,-1.053373,-3.681013,3.90737,3.508245,-3.431323,1.933653,-0.09043734,-1.623432,3.065063,0.2379271],
[-0.9393098,2.418932,2.452044,-0.2154203,3.955653,-0.02015173,1.206095,3.556007,-0.3543565,-3.145995,3.675854,-2.82511,-3.499517,-0.9175555,1.244543,-3.123861,1.098606,-3.97564,1.450317,-2.172548,3.300817,1.637377,-0.08528125,-2.100414,0.687506],
[-2.116146,-1.254698,0.5482217,-1.981782,3.146915,-1.0384,-0.07049281,-0.8966169,2.682748,3.618104,-2.89454,-3.490684,-0.125912,-3.211104,1.808695,3.275401,-0.9459621,-3.787063,1.531456,2.551617,3.572298,3.035963,1.353412,-3.836542,-2.404408],
[-1.778297,-1.486151,-2.77916,-1.495945,2.216331,1.034364,-2.170064,3.713711,1.712117,-1.292619,0.165311,-3.985509,-3.186178,1.85746,3.007101,2.976445,-2.441661,1.315678,-2.422149,1.621105,-2.838548,1.866064,0.802818,-1.307635,-2.022584],
[3.526497,-2.172858,2.766235,2.094073,-1.99636,-3.569657,3.967086,1.013852,-0.2477593,2.43504,-3.833328,-3.992242,2.901981,-2.892873,1.647472,-3.640451,-2.52548,-0.840299,-0.5159795,1.429343,-2.039654,3.229878,-2.645233,-3.634984,2.016203],
[-2.223494,-1.320153,1.326046,-1.855102,-3.30357,2.146031,-0.5422136,0.7621807,-1.772339,1.375606,1.771519,3.430847,-1.537219,-3.915542,1.516485,3.873563,0.4093513,-1.310889,-3.169773,2.251677,-0.3209819,3.72725,2.787034,-3.751167,-0.5046752],
[0.8163311,3.834033,-3.611879,0.8116714,-3.989474,1.585519,2.286861,-1.769188,0.426547,-0.5818709,-1.277695,2.528795,1.067958,-0.8860435,-1.231262,1.883892,-2.673264,-1.570228,-2.139245,-0.00723326,-1.111921,0.2480756,-1.775985,-1.845178,2.114963],
[3.100536,-0.1488588,3.305568,1.62235,-0.6350171,2.963855,-0.3922345,-1.15011,-3.246482,-1.84509,2.649733,-1.03406,-0.2325507,2.795619,2.306997,-0.5777532,-2.099678,0.1903723,-3.927197,-3.369498,0.6158258,3.512315,3.277106,-1.839409,-2.464217],
[-0.0071707,-2.512918,-3.912023,-0.6352797,-0.6164587,-2.538587,1.004347,2.834336,1.615903,-0.9807429,-1.565435,3.899831,1.360931,3.190549,-1.72603,2.299745,2.582044,3.785983,1.164633,-1.465854,3.591123,-0.9198431,-2.731486,-1.721608,1.415585],
[-2.65602,-2.464316,-3.184394,2.872321,-3.25231,-3.95759,-1.34699,3.317837,-3.4341,2.315722,-0.5485382,-3.580132,-3.408216,-3.800839,0.3870023,0.8414658,3.450084,3.657045,1.995809,2.751761,2.316895,3.543295,2.953346,-1.023944,-0.7499896],
[0.373505,-0.9663318,-2.660454,3.873839,-3.191925,2.926967,0.0459563,3.881545,1.207463,-1.979631,3.374527,1.568883,-3.284318,1.78848,-3.552109,-3.888985,0.8965169,0.4757989,-0.3922052,2.618605,0.09214234,-1.51828,2.446766,2.685778,-3.828229],
[-0.6564603,3.026991,-0.2010542,-1.259027,-1.51818,-0.3472085,-3.082727,3.850265,-0.502696,-3.877206,0.4560642,2.392022,-1.257553,-1.212973,0.860886,-1.045143,0.2661311,-0.8674178,1.085296,-0.3003208,-0.6338903,-1.065198,1.270868,-3.323934,-1.328561],
[-2.450253,-3.415365,0.2475234,-3.850724,2.427299,1.132267,-2.236431,-3.470165,-2.011317,1.749302,-1.677213,-1.293539,-2.849828,-1.61015,-3.34301,1.610692,1.736608,-2.405495,3.28045,0.3821181,-0.4284245,0.9200172,-1.115339,0.4424529,0.1896057],
[-0.6844805,0.2643625,-0.3610703,-3.831225,-3.58614,-1.863803,-1.130954,-1.849005,1.885566,-3.76271,1.266612,0.7574811,-0.8373956,-0.3602097,-0.6520183,2.766443,-0.6512195,-1.826713,-2.704048,3.735126,-3.787282,0.4911206,-0.3966041,1.872391,-0.828698],
[-0.1378532,-1.025986,-3.368313,-0.9226953,1.130773,-2.041541,0.9750318,0.09245104,2.568273,-0.4459073,1.984413,0.4842812,3.73589,-3.663448,2.492567,1.811376,-1.884793,1.87399,3.017686,0.7601829,2.541191,3.877181,3.445933,-3.913357,-2.01905],
[-0.325728,-0.001452234,3.602315,-1.680948,-2.739798,-0.7412413,-2.125695,-1.661738,-2.324229,-3.412993,0.01188447,-3.029922,0.3470081,-0.4298382,-3.99454,-3.12991,-3.327392,1.111177,3.518569,1.14771,-3.719821,3.10855,2.168281,3.536001,-1.374286],
[3.753431,3.4488,-2.516699,2.490842,1.236005,1.571465,3.717654,-1.11503,-3.442797,-0.2085671,-3.467429,-0.3497494,-3.979268,-1.572322,1.109221,-1.524042,1.389101,3.592282,3.130817,1.071792,1.419293,1.164839,1.513286,0.9662159,-0.2209724],
[2.010432,-1.819455,-0.6493247,1.193929,3.256718,-3.476314,-3.322085,2.28428,-1.919248,-2.005006,-3.046906,-3.26148,1.415566,-2.252331,3.021759,-3.941501,2.104814,0.0182009,-1.454752,-3.349414,-1.587373,-0.5373988,0.761968,-1.782636,3.973931]
],
[
[-3.634254,2.920251,2.142957,0.7177846,-2.130385,0.7191319,-0.8941179,3.953323,0.426649,1.826896,3.885874,1.776704,-3.229219,-1.616599,2.324214,2.557783,3.912824,-0.9366629,3.604818,1.612928,-2.061417,-2.839791,1.584346,3.920927,0.5946681],
[1.352551,-2.109031,-3.57827,1.789606,-3.613272,3.84957,1.175721,-0.4489948,-2.979504,3.388847,0.9317099,-2.390136,2.936457,-2.787294,0.9498099,-1.978126,3.639319,0.3300345,-0.6574607,-3.926508,-0.05475433,1.490132,1.553617,-2.128646,-0.5263485]
]
],
"biases":[
[
-0.2828042,2.197773,2.064215,1.849922,1.556033,0.8340955,1.782659,-0.597872,2.788561,-2.990513,1.084255,-3.956759,3.587165,-0.03986262,-2.537134,3.784156,0.2367717,-0.6601546,-1.486038,-2.387154,-3.990832,-1.89514,-1.279438,-3.971107,2.363888
],
[
-0.07893185,3.769915
]
]},
{
"fitness":1.610781,
"weights":[
[
[0.1539624,-0.4709241,1.848835,3.363681,-0.3716304,0.04443336,-2.474307,0.3861239,-2.900738,-0.3125085,2.866699,3.238522,-0.8380183,0.4869163,-2.253623,3.213742,-0.8322488,2.749049,0.8856296,2.862903,3.420517,-2.819267,-0.9669247,-3.452098,-2.152552],
[2.731238,2.184044,2.024655,-2.423741,-3.439987,-1.460689,2.12534,-3.116671,3.127143,2.558851,0.92506,1.330636,-3.33765,-3.372097,-0.5505122,0.6221498,3.135864,-2.081846,-2.23382,-1.648499,-2.08507,-2.758888,2.828755,1.085955,-3.101229],
[3.62839,1.250873,3.81037,0.6234024,2.985714,3.668507,2.499142,-2.528748,-3.774898,0.3943159,-2.690844,-3.485491,1.162993,3.443773,-1.347819,-0.8390108,3.366824,-3.303883,-0.6468371,-3.9275,0.8865805,2.198217,1.497752,0.9436218,0.1995721],
[-2.410597,-2.538326,-1.264976,1.709243,-1.078917,2.974756,-0.5441073,1.580157,-0.4264079,-1.202513,1.81006,3.391615,-2.651024,-0.4286721,-0.09677494,-2.390754,3.151654,3.211958,-1.015924,0.09717354,-3.386353,2.225705,3.474154,0.6834574,3.058211],
[-0.423762,-3.815269,2.513731,-0.9492915,2.203892,0.2332916,1.456548,-2.419971,-1.692512,2.053169,-0.1409511,-1.372928,1.556132,-2.26551,1.271974,-2.452219,-2.64857,0.3496211,-1.723216,-1.827529,-0.9238326,-3.520245,-0.5562024,0.2772261,-2.212035],
[3.682129,-3.857505,2.661711,-3.885357,-1.633226,-1.776737,-1.383503,2.511798,1.005798,-3.936493,-1.345252,-2.643259,3.870534,-1.587874,-1.651563,2.574252,-2.244963,2.540808,-2.806213,-2.289973,1.87358,1.809788,2.623112,2.8706,-3.053975],
[-3.863586,3.946185,-2.724602,-2.179605,0.9141454,2.154958,-2.42797,1.010566,2.89197,-1.520435,-0.9984885,0.8224086,3.565357,-1.52248,2.482205,-3.29852,-0.2233573,-0.1671111,0.9117406,-1.107887,1.093272,3.591257,0.6754996,-1.787594,1.527418],
[2.460361,1.506133,-1.393175,1.144349,-2.831686,1.487821,2.167134,3.563471,-0.1059346,-0.6877995,-0.7916618,3.060572,1.975862,3.482864,-2.429942,3.190455,-3.681013,-0.5753796,3.508245,-3.431323,1.933653,2.008649,2.588968,3.677525,0.2379271],
[-0.9393098,2.418932,2.452044,-0.2154203,2.707701,0.1049437,1.12068,0.1929184,-0.2933868,1.062628,3.675854,-2.82511,-3.20815,-0.02319167,3.186524,-3.123861,1.690296,1.126244,0.1751063,0.43129,-3.234489,1.637377,-1.1911,3.499545,-2.204103],
[-3.879526,-1.254698,0.5482217,-1.981782,3.146915,0.7223042,-0.3759975,-0.8966169,2.682748,3.618104,-2.829892,-3.751651,-0.125912,1.150561,2.937648,2.856017,-0.9459621,2.805476,1.531456,-1.87691,3.572298,3.272643,3.487806,-3.836542,-0.6717389],
[3.786291,1.411193,1.239018,1.657968,3.886112,-2.542962,1.753038,3.713711,1.712117,-1.292619,0.165311,-3.985509,1.894692,0.8255292,-3.483847,-0.6845804,-2.441661,1.315678,-0.2000688,3.73587,-2.309801,0.3267199,-3.324365,-1.307635,-2.022584],
[3.526497,-2.172858,2.766235,-0.3696389,-1.99636,0.09890383,-3.179514,1.013852,0.7557246,-1.258158,2.656987,-3.992242,-0.4894858,-0.5032842,3.541345,-3.640451,-2.52548,3.109565,-0.5159795,1.429343,-2.039654,-2.832203,-2.645233,-2.538568,2.152446],
[-2.243133,1.794801,1.326046,-2.982317,-3.30357,-3.667605,0.2244818,0.3571143,-1.325617,1.375606,3.175868,3.324495,3.792895,1.313869,-1.554943,-3.810017,-1.602476,2.045047,-3.169773,0.8369108,-0.3209819,0.3683107,3.899018,-3.751167,-0.5046752],
[0.8163311,1.526545,1.661362,-1.433622,3.215518,1.585519,-3.317191,-1.769188,0.426547,3.520117,-1.655624,-1.084379,2.121588,1.234009,-1.231262,3.931135,0.2361923,-1.570228,-2.139245,3.563914,-2.398687,-3.931175,-3.00573,-1.845178,2.114963],
[-2.22138,-2.931253,-1.278154,3.10968,2.646957,-2.759207,-1.703114,1.667667,-2.457726,0.5223926,-3.579707,-0.3870247,0.7515241,0.1471297,-1.416751,-0.5777532,-2.099678,0.1903723,-3.927197,-0.4696169,3.559337,-2.5459,-2.408573,-1.839409,2.821308],
[2.073577,-2.512918,-3.912023,-0.6352797,-0.2996673,-2.153154,1.004347,2.834336,1.585491,3.438737,-3.221673,3.597149,1.360931,0.3942687,2.402921,1.861112,0.3712322,1.052858,0.7797621,0.3351416,1.695837,-0.9198431,3.308476,-0.2840746,1.415585],
[2.6224,-2.464316,-3.184394,-3.942171,-3.25231,-3.358547,-1.34699,2.423121,-3.4341,2.315722,-2.641016,-2.719217,-3.408216,-0.40092,0.3870023,-1.439546,-1.889135,0.4155903,-2.148881,1.13246,2.316895,0.736133,2.115362,2.998921,-0.7499896],
[3.099421,-1.910437,-2.660454,-1.507115,-2.951153,2.926967,-3.462735,3.881545,1.207463,-1.979631,2.487212,-2.013792,1.427922,1.78848,-3.552109,-3.158532,1.598089,-3.673278,-0.3922052,-3.748503,0.09214234,0.9496267,0.8411152,-1.341556,2.70243],
[-0.6564603,3.026991,2.101905,3.074858,-2.962342,-2.053911,-0.9693351,-3.845513,-1.04656,0.4105602,-0.5289487,0.0721546,-0.4881529,-1.212973,-1.141346,-2.993073,2.937635,-0.8674178,-2.252085,3.145298,1.347854,-1.511159,-0.1401893,-2.941324,2.005661],
[-2.450253,-3.415365,-1.514809,-1.730423,2.427299,-0.9798312,1.683389,3.172343,-1.17773,1.749302,-3.361261,1.238591,0.3734246,-3.859767,-3.34301,1.610692,1.736608,-0.5161011,3.28045,0.3821181,2.540904,-2.334603,-1.115339,-1.817042,0.1896057],
[-0.6844805,3.056431,-0.3610703,0.9232282,-3.58614,0.5284389,-1.130954,-1.374673,1.910174,-3.76271,-3.951276,-0.4689044,2.951101,-0.3602097,-0.6520183,-3.227965,-2.741555,3.669768,-2.704048,3.735126,-3.787282,-1.09055,1.775674,-1.986474,1.866133],
[2.169235,-1.025986,-3.368313,-0.9226953,-2.473331,-2.041541,-2.184389,-1.1941,2.568273,3.827191,-1.408647,-1.377875,-3.503723,-3.663448,2.699584,-3.628737,3.272522,0.5572657,3.98649,-1.655626,-3.504864,-0.3517734,-1.346259,-0.7372467,-2.841712],
[-2.8664,-0.001452234,3.602315,3.228951,-0.2442097,-1.056864,3.394977,-3.7643,-2.324229,-3.955243,-2.024629,-3.029922,-1.906022,2.293754,-3.481491,1.494935,3.806751,1.111575,-3.040873,2.066261,0.04354128,-0.2854715,1.172995,3.536001,-2.445194],
[3.753431,3.4488,-1.503736,0.2134134,1.236005,-1.31079,2.593985,-1.11503,-1.436885,-0.2085671,-3.467429,-0.3497494,-3.979268,3.752492,1.109221,3.441525,-3.091745,3.592282,-3.99129,1.071792,1.447598,1.164839,1.513286,0.9662159,2.279454],
[-1.490088,2.817672,-3.977212,1.18365,-3.219472,-0.5268936,-3.805173,2.28428,-0.402989,0.1784794,-0.1663557,3.301273,-0.2609114,-2.252331,0.4762106,0.9251132,-3.687862,3.050899,0.9514287,2.061634,-1.587373,1.811571,2.542164,-0.9489233,1.149797]
],
[
[0.1766118,2.920251,2.142957,0.7177846,-3.676277,-1.006554,0.07473984,3.953323,-0.9878851,1.826896,3.885874,-2.472309,-0.177644,-3.657035,2.324214,2.557783,1.846712,-0.9366629,-1.15431,1.612928,2.546989,2.550795,1.584346,3.920927,2.399596],
[1.352551,-2.109031,-3.57827,2.593522,-2.329088,2.546576,0.1046844,-3.181258,-2.979504,2.09194,-1.401117,-2.155378,1.304965,-2.787294,0.5979372,-0.1504878,3.639319,0.3300345,-0.6574607,2.136874,-0.05475433,1.490132,-0.2511635,-3.26378,-0.5680085]
]
],
"biases":[
[
-0.2828042,0.7992602,-0.1377277,-0.1666303,-1.608665,0.8340955,1.782659,2.884652,-0.02214469,1.655956,1.084255,-3.956759,3.994818,-0.03986262,3.423358,3.784156,2.461077,2.945623,-2.943319,0.1592058,2.568481,3.581761,1.028026,-0.6120213,2.363888
],
[
3.241615,3.769915
]
]},
{
"fitness":1.593821,
"weights":[
[
[3.647496,-0.1914478,1.91897,-3.925001,-3.393434,0.04443336,-0.2415558,0.5055773,-2.900738,-3.232126,1.858714,3.238522,-1.79802,-2.456613,-2.253623,-0.370042,-0.8322488,-1.3168,1.339151,1.260741,-3.291612,3.264544,-0.9669247,-3.452098,-0.1351076],
[3.231225,2.120878,2.024655,3.733938,3.66262,-1.460689,-2.717306,-2.352281,-1.483019,-3.771356,0.92506,-1.198088,3.963513,2.804695,-2.331075,-1.086654,-3.559401,1.164538,-2.566529,-1.648499,-0.613611,2.857321,2.828755,-1.823948,-3.101229],
[1.447715,1.250873,3.81037,0.7571815,2.985714,2.283101,-0.05301809,-0.262221,-2.358061,0.3943159,-2.746529,3.733403,0.7495204,-2.998953,-2.243156,3.460879,3.366824,-3.303883,-0.6468371,1.525361,0.8865805,-1.143822,-2.68891,2.572674,0.1995721],
[-3.192004,-3.761077,1.600644,1.709243,-1.180906,-1.202386,-0.5441073,1.238063,2.68059,-2.616416,1.81006,2.462128,0.3556624,1.899608,-2.502596,-3.106718,-3.008277,1.189641,-0.3060819,0.7901773,-3.201606,-3.054114,3.474154,0.6834574,-1.906782],
[-0.423762,1.942118,1.084579,2.494468,-1.698584,0.2332916,1.456548,2.646582,1.454294,2.053169,-3.35925,-1.372928,-1.416468,-2.286832,1.271974,3.223689,-2.64857,3.383862,0.5040891,-0.6761752,-0.9238326,-2.522138,3.83947,-2.641326,-2.212035],
[3.179336,-3.857505,-2.953856,-3.756546,-1.633226,-1.776737,-1.383503,2.511798,0.5498211,-3.936493,2.69767,-3.548055,3.870534,-1.587874,-1.225643,1.163263,-2.244963,-1.442641,0.2379315,1.743748,3.931905,-1.509697,-3.042342,2.8706,2.60324],
[-3.863586,1.424655,-2.791143,0.1932079,1.921926,-1.509063,-3.386167,-1.160372,-2.258386,2.87553,2.405309,3.381721,3.077513,0.16407,-0.6045208,-3.29852,-0.2233573,-3.565177,-0.685794,-0.9825349,1.103233,-2.535708,-3.559529,3.842782,-2.326662],
[2.460361,-3.011374,-0.9434456,1.936208,-1.810177,2.596165,-1.315927,3.345262,1.880301,-0.6877995,-1.576159,-2.131072,1.975862,3.482864,-2.429942,-1.376346,-3.681013,3.90737,0.4643404,-3.431323,1.933653,-0.09043734,-1.623432,-1.723267,0.2379271],
[-0.9393098,2.418932,2.452044,-0.2154203,3.955653,-0.02015173,1.12068,3.556007,-0.3543565,-3.145995,3.675854,-2.82511,-3.499517,-0.9175555,1.244543,-3.123861,1.098606,-3.97564,1.450317,-1.386463,3.300817,1.637377,-0.08528125,-2.100414,0.687506],
[-2.116146,-1.254698,0.5482217,-1.981782,3.146915,-1.0384,-0.07049281,-0.8966169,2.682748,3.618104,-2.89454,-3.490684,-0.125912,-3.211104,1.808695,3.275401,-0.9459621,-3.787063,1.531456,2.551617,3.572298,3.035963,1.353412,-3.836542,-2.880398],
[-1.778297,-1.486151,-2.77916,-1.495945,2.216331,1.034364,-2.170064,3.713711,1.712117,-1.292619,0.165311,-3.985509,-3.186178,1.85746,3.007101,2.976445,-2.441661,1.315678,-2.592458,1.621105,-2.838548,1.866064,0.802818,-1.307635,-2.022584],
[3.526497,-2.172858,2.766235,2.094073,-1.99636,-3.569657,3.967086,1.013852,-0.7274816,2.43504,-3.833328,-3.992242,-2.851212,-2.892873,1.647472,-3.640451,-2.52548,-0.840299,-0.5159795,1.429343,-2.039654,3.229878,-2.645233,-3.634984,2.016203],
[-2.223494,-1.320153,1.326046,-1.855102,-3.30357,2.146031,-0.5422136,0.7621807,-1.772339,1.375606,1.771519,3.430847,-1.537219,3.060416,1.516485,3.873563,0.4093513,-1.310889,-3.169773,2.251677,-0.3209819,3.72725,2.787034,-3.751167,-0.5046752],
[0.8163311,3.834033,-3.611879,0.8116714,-3.989474,1.585519,2.286861,-1.769188,0.426547,-0.5818709,-1.277695,2.528795,1.067958,-0.8860435,-1.231262,1.883892,-2.673264,-1.570228,-2.139245,-0.00723326,-1.111921,0.2480756,-1.775985,-1.845178,2.114963],
[3.100536,-0.1488588,3.305568,1.62235,-0.6350171,2.963855,-0.3922345,3.651397,-3.246482,-1.84509,2.649733,-1.03406,-0.2325507,2.795619,2.306997,-0.5777532,-2.099678,0.1903723,-3.927197,-3.369498,0.6158258,3.452197,3.277106,-1.839409,-2.464217],
[-0.0071707,-2.512918,-3.912023,-0.6352797,-0.6164587,-2.538587,1.004347,2.834336,2.126795,-0.9807429,-1.565435,3.899831,1.360931,3.190549,-1.72603,2.299745,2.582044,3.785983,1.164633,-1.465854,3.591123,-0.9198431,-2.731486,-1.721608,1.415585],
[-2.65602,-2.464316,-3.184394,2.872321,-3.25231,-3.95759,-1.34699,3.317837,-3.4341,2.315722,-0.5485382,-3.580132,-3.408216,-3.800839,0.3870023,0.8414658,3.450084,3.657045,1.995809,2.751761,2.316895,3.543295,2.953346,-1.023944,-0.7499896],
[0.373505,3.460992,-2.660454,3.873839,-3.191925,2.926967,0.0459563,3.881545,1.207463,-1.979631,3.374527,1.568883,-3.284318,1.78848,-3.552109,-3.888985,0.8965169,1.853433,-0.3922052,2.618605,0.09214234,-1.51828,2.446766,2.685778,-2.111984],
[-0.6564603,3.026991,2.101905,-1.259027,-1.51818,-2.053911,-3.082727,3.850265,-0.502696,-3.877206,0.4560642,2.392022,-0.07437409,-1.212973,0.860886,-1.045143,0.2661311,-0.8674178,1.085296,-0.3003208,-0.6338903,-1.065198,1.270868,-3.323934,-1.328561],
[-2.450253,-3.415365,0.2475234,-3.850724,2.427299,1.132267,-2.236431,-3.470165,-2.011317,1.749302,-1.677213,-1.293539,-1.314668,-1.61015,2.076599,1.610692,1.736608,-2.405495,3.28045,0.3821181,-0.4284245,0.9200172,-1.115339,0.4424529,0.1896057],
[-0.6844805,0.2643625,-0.3610703,-3.831225,-3.58614,-1.863803,-1.130954,-1.849005,1.885566,-3.76271,1.266612,0.7574811,-0.8373956,-0.3602097,-0.6520183,2.766443,-0.6512195,-1.826713,-2.704048,3.735126,-3.787282,-1.09055,-0.3966041,1.872391,-0.828698],
[-0.1378532,-1.025986,-3.368313,-0.9226953,1.130773,-2.041541,0.9750318,0.09245104,2.568273,-0.4459073,1.984413,0.4842812,3.73589,-3.663448,2.492567,1.811376,-1.884793,1.87399,3.017686,0.7601829,2.541191,3.877181,3.445933,-3.913357,-2.01905],
[-0.325728,-0.001452234,3.602315,-1.680948,-2.739798,-0.7412413,-2.278365,-1.661738,-2.324229,-3.412993,0.01188447,-3.029922,0.3470081,-0.4298382,-3.99454,-3.12991,-3.327392,-1.384568,3.518569,1.14771,-3.719821,3.10855,2.168281,3.536001,-1.374286],
[3.753431,3.4488,-2.516699,2.490842,1.236005,1.571465,3.717654,-1.11503,-3.442797,-0.2085671,-3.467429,-0.3497494,-3.979268,-1.572322,1.109221,-1.524042,1.389101,3.592282,3.130817,1.071792,1.419293,1.164839,1.513286,0.9662159,-0.2209724],
[2.010432,-1.819455,-0.6493247,1.193929,3.256718,-3.476314,-3.322085,2.28428,-1.919248,-2.005006,-3.046906,-2.142653,1.415566,-2.252331,3.021759,-3.941501,1.900952,0.0182009,1.640983,-3.349414,-1.587373,-0.5373988,0.761968,-1.782636,3.732402]
],
[
[-3.634254,2.920251,2.142957,0.7177846,-2.130385,0.7191319,-0.8941179,3.953323,0.426649,1.826896,3.885874,1.776704,-3.229219,-1.616599,2.324214,2.557783,3.912824,-0.9366629,3.604818,1.612928,-2.061417,-2.839791,1.584346,3.920927,0.5946681],
[1.352551,-2.109031,-3.474729,1.789606,-3.613272,3.84957,1.175721,-0.4489948,-2.979504,3.388847,0.9317099,-2.390136,2.936457,-2.787294,0.9498099,-1.978126,3.639319,0.3300345,1.838459,-3.926508,-0.05475433,1.490132,1.553617,-2.128646,-0.5263485]
]
],
"biases":[
[
-0.2828042,2.197773,2.064215,1.849922,1.556033,0.8340955,1.782659,-0.597872,2.788561,-2.990513,1.084255,-3.956759,3.587165,-0.03986262,-2.537134,3.784156,0.2922449,-0.6601546,2.223557,-2.387154,-3.990832,-1.89514,-1.279438,-3.971107,2.363888
],
[
-0.07893185,3.769915
]
]},
{
"fitness":1.58841,
"weights":[
[
[1.41081,-0.1914478,0.830655,-3.925001,-2.475312,0.04443336,-0.2415558,0.5055773,-2.900738,-3.232126,1.858714,3.238522,-1.79802,-2.456613,-2.253623,-0.370042,-0.8322488,-1.3168,1.339151,1.260741,-3.291612,3.264544,-0.9669247,-3.452098,-0.1351076],
[0.2251415,2.120878,2.024655,3.733938,3.66262,-1.460689,-2.717306,-2.352281,-1.483019,-3.771356,0.92506,-1.198088,3.963513,2.804695,-2.331075,-1.086654,-3.559401,1.164538,-2.566529,2.206117,-0.613611,2.857321,2.828755,-2.495429,-3.101229],
[1.447715,1.250873,3.81037,0.7571815,2.985714,2.283101,-0.05301809,-0.262221,-2.358061,0.3943159,-2.746529,3.733403,-3.413843,-2.998953,-2.243156,3.460879,3.366824,-3.303883,-0.6468371,1.525361,0.8865805,-1.143822,-2.68891,2.572674,0.1995721],
[-3.192004,-3.761077,1.600644,1.709243,-1.180906,2.974756,-0.5441073,1.238063,2.68059,-2.616416,1.81006,2.462128,0.3556624,1.899608,-2.502596,-3.106718,-3.008277,1.189641,-0.3060819,0.7901773,-3.201606,-3.054114,3.474154,0.6834574,-1.906782],
[-0.423762,1.942118,1.084579,2.494468,-3.753959,0.2332916,1.456548,2.646582,1.454294,2.053169,-3.35925,-1.372928,2.522371,-2.286832,1.271974,3.223689,-2.64857,3.383862,0.5040891,-0.6761752,-0.9238326,-2.522138,3.83947,-2.641326,-2.212035],
[3.179336,-1.711828,-3.156863,-3.756546,-1.633226,-1.776737,-1.383503,2.511798,0.5498211,-3.936493,2.69767,-2.643259,3.870534,-1.587874,-1.225643,1.163263,-2.244963,-1.442641,0.2379315,1.743748,3.931905,-1.509697,-3.042342,2.8706,2.60324],
[-3.863586,1.424655,-2.724602,0.1932079,1.921926,-1.509063,-3.386167,-1.160372,-2.258386,2.87553,2.405309,3.381721,3.077513,0.16407,-0.6045208,-3.29852,-0.2233573,-3.565177,-0.685794,2.738435,1.103233,-2.535708,-3.559529,3.842782,-2.326662],
[2.460361,-3.011374,-0.9434456,1.936208,-1.810177,2.596165,-1.315927,3.345262,1.880301,-0.6877995,-1.576159,-2.131072,1.975862,3.482864,-2.429942,-1.053373,-3.681013,3.90737,3.508245,-3.431323,1.933653,-0.09043734,-1.623432,3.065063,0.2379271],
[-0.9393098,2.418932,2.452044,-0.2154203,3.955653,-0.02015173,1.206095,3.556007,-0.3543565,-3.145995,3.675854,-2.82511,-3.499517,-0.9175555,1.244543,-3.123861,1.098606,-3.97564,1.450317,-2.172548,3.300817,1.637377,-0.08528125,-2.100414,0.687506],
[-2.116146,-1.254698,0.5482217,-1.981782,3.146915,-1.0384,-0.07049281,-0.8966169,2.682748,3.618104,-2.89454,-3.490684,-0.125912,-3.211104,1.808695,3.275401,-0.9459621,-3.787063,1.531456,2.551617,3.572298,3.035963,1.353412,-3.836542,-2.880398],
[-1.778297,-1.486151,-2.77916,-1.495945,2.216331,1.034364,-2.170064,3.713711,1.712117,-1.292619,0.165311,-3.985509,-3.186178,1.85746,3.007101,2.976445,-2.441661,1.315678,-2.422149,1.621105,-2.838548,1.866064,0.802818,-1.307635,-2.022584],
[3.526497,-2.172858,2.766235,2.094073,-1.99636,-3.569657,3.967086,1.013852,-0.2477593,2.43504,-3.833328,-3.992242,2.901981,-2.892873,1.647472,-3.640451,-2.52548,-0.840299,-0.5159795,1.429343,-2.039654,3.229878,-2.645233,-3.634984,2.016203],
[-2.223494,-1.320153,1.326046,-1.855102,-3.30357,2.146031,-0.5422136,0.7621807,-1.772339,1.375606,1.771519,3.430847,-1.537219,-3.915542,1.516485,3.873563,0.4093513,-1.310889,-3.169773,2.251677,-0.3209819,3.72725,2.787034,-3.751167,-0.5046752],
[0.8163311,3.834033,-3.611879,0.8116714,-3.989474,1.585519,2.286861,-1.769188,0.426547,-0.5818709,-1.277695,2.528795,1.067958,-0.8860435,-1.231262,1.883892,-2.673264,-1.570228,-2.139245,-0.00723326,-1.111921,0.2480756,-1.775985,-1.845178,2.114963],
[3.100536,-0.1488588,3.305568,1.62235,-0.6350171,2.963855,-0.3922345,-1.15011,-3.246482,-1.84509,2.649733,-1.03406,-0.2325507,2.795619,2.306997,-0.5777532,-2.099678,0.1903723,-3.927197,-3.369498,0.6158258,3.512315,3.277106,-1.839409,-2.464217],
[-0.0071707,-2.512918,-3.912023,-0.6352797,-0.6164587,-2.538587,1.004347,2.834336,1.615903,-0.9807429,-1.565435,3.899831,1.360931,3.190549,-1.72603,2.299745,2.582044,3.785983,1.164633,-1.465854,3.591123,-0.9198431,-2.731486,-1.721608,1.415585],
[-2.65602,-2.464316,-3.184394,2.872321,-3.25231,-3.95759,-1.34699,3.317837,-3.4341,2.315722,-0.5485382,-3.580132,-3.408216,-3.800839,0.3870023,0.8414658,3.450084,3.657045,1.995809,2.751761,2.316895,3.543295,2.953346,-1.023944,-0.7499896],
[0.373505,-0.9663318,-2.660454,3.873839,-3.191925,2.926967,0.0459563,3.881545,1.207463,-1.979631,3.374527,1.568883,-3.284318,1.78848,-3.552109,-3.888985,0.8965169,1.853433,-0.3922052,2.618605,0.09214234,-1.51828,2.446766,2.685778,-3.828229],
[-0.6564603,3.026991,-0.2010542,-1.259027,-1.51818,-0.3472085,-3.082727,3.850265,-0.502696,-3.877206,0.4560642,2.392022,-1.257553,-1.212973,0.860886,-1.045143,0.2661311,-0.8674178,1.085296,-0.3003208,-0.6338903,-1.065198,1.270868,-3.323934,-1.328561],
[-2.450253,-3.415365,0.2475234,-3.850724,2.427299,1.132267,-2.236431,-3.470165,-2.011317,1.749302,-1.677213,-1.293539,-2.849828,-1.61015,-3.34301,1.610692,1.736608,-2.405495,3.28045,0.3821181,-0.4284245,0.9200172,-1.115339,0.4424529,0.1896057],
[-0.6844805,0.2643625,-0.3610703,-3.831225,-3.58614,-1.863803,-1.130954,-1.849005,1.885566,-3.76271,1.266612,0.7574811,-0.8373956,-0.3602097,-0.6520183,2.766443,-0.6512195,-1.826713,-2.704048,3.735126,-3.787282,-1.09055,-0.3966041,1.872391,-0.828698],
[-0.1378532,-1.025986,-3.368313,-0.9226953,1.130773,-2.041541,0.9750318,0.09245104,2.568273,-0.4459073,1.984413,0.4842812,3.73589,-3.663448,2.492567,1.811376,-1.884793,1.87399,3.017686,0.7601829,2.541191,3.877181,3.445933,-3.913357,-2.01905],
[-0.325728,-0.001452234,3.602315,-1.680948,-2.739798,-0.7412413,-2.125695,-1.661738,-2.324229,-3.412993,0.01188447,-3.029922,0.3470081,-0.4298382,-3.99454,-3.12991,-3.327392,1.111177,3.518569,1.14771,-3.719821,3.10855,2.168281,3.536001,-1.374286],
[3.753431,3.4488,-2.516699,2.490842,1.236005,1.571465,3.717654,-1.11503,-3.442797,-0.2085671,-3.467429,-0.3497494,-3.979268,-1.572322,1.109221,-1.524042,1.389101,3.592282,3.130817,1.071792,1.419293,1.164839,1.513286,0.9662159,-0.2209724],
[2.010432,-1.819455,-0.6493247,1.193929,3.256718,-3.476314,-3.322085,2.28428,-1.919248,-2.005006,-3.046906,-3.26148,1.415566,-2.252331,3.021759,-3.941501,1.900952,0.0182009,-1.454752,-3.349414,-1.587373,-0.5373988,0.761968,-1.782636,3.973931]
],
[
[-3.634254,2.920251,2.142957,0.7177846,-2.130385,0.7191319,-0.8941179,3.953323,0.426649,1.826896,3.885874,1.776704,-3.229219,-1.616599,2.324214,2.557783,3.912824,-0.9366629,3.604818,1.612928,-2.061417,-2.839791,1.584346,3.920927,0.5946681],
[1.352551,-2.109031,-3.57827,1.789606,-3.613272,3.84957,1.175721,-0.4489948,-2.979504,3.388847,0.9317099,-2.390136,2.936457,-2.787294,0.9498099,-1.978126,3.639319,0.3300345,-0.6574607,-3.926508,-0.05475433,1.490132,1.553617,-2.128646,-0.5263485]
]
],
"biases":[
[
-0.2828042,2.197773,2.064215,1.849922,1.556033,0.8340955,1.782659,-0.597872,2.788561,-2.990513,1.084255,-3.956759,3.587165,-0.03986262,-2.537134,3.784156,0.2367717,-0.6601546,-1.486038,-2.387154,-3.990832,-1.89514,-1.279438,-3.971107,2.363888
],
[
-0.07893185,3.769915
]
]},
{
"fitness":1.559058,
"weights":[
[
[3.647496,-0.1914478,1.91897,-3.925001,-2.475312,0.04443336,-0.2415558,0.5055773,-2.900738,-3.232126,1.858714,3.238522,-2.946525,-2.456613,-2.253623,-0.370042,-0.8322488,-1.3168,0.2331571,1.260741,-3.291612,3.264544,-0.9669247,-3.452098,-0.4380105],
[3.231225,2.120878,2.024655,3.733938,3.66262,-1.460689,-2.717306,-2.352281,-1.483019,-3.771356,0.92506,-1.198088,3.963513,2.804695,-2.331075,-1.086654,-3.559401,1.164538,-2.566529,-1.648499,-0.613611,2.857321,2.828755,-1.823948,-3.101229],
[1.447715,1.250873,3.582526,0.7571815,2.985714,2.283101,0.3444229,-0.262221,-2.358061,0.3943159,-2.746529,3.733403,1.162993,-2.998953,-2.243156,3.659225,3.366824,-3.303883,-0.6468371,1.525361,0.8865805,-1.143822,-2.68891,2.572674,0.1995721],
[-3.192004,-3.761077,1.600644,1.709243,-1.180906,-2.827837,-0.5441073,1.238063,2.68059,-2.616416,1.81006,2.462128,0.3556624,1.899608,-2.502596,-3.106718,-3.008277,1.189641,-0.3060819,0.7901773,1.445511,-3.054114,3.474154,0.6834574,-1.906782],
[-0.423762,1.942118,1.084579,2.494468,-3.753959,0.2332916,1.456548,2.646582,1.454294,2.053169,-3.35925,-1.372928,2.522371,-2.286832,1.271974,3.223689,-2.64857,3.383862,0.5040891,-0.6761752,-0.9238326,-2.522138,3.83947,-2.641326,-2.212035],
[3.179336,-3.857505,-3.156863,-3.271111,-1.633226,-1.776737,-1.383503,2.511798,0.5498211,-3.936493,3.646489,-2.643259,3.870534,-1.587874,-1.225643,1.163263,-2.244963,-1.442641,0.2379315,1.743748,3.931905,-1.509697,-3.042342,2.8706,2.60324],
[-3.863586,1.424655,-0.6355046,0.1932079,1.921926,1.955445,-3.386167,-1.160372,-2.258386,2.87553,2.405309,3.381721,3.077513,0.16407,-0.6045208,-3.29852,-0.2233573,-3.565177,-0.685794,-0.9825349,1.103233,-2.535708,-3.559529,3.842782,-2.326662],
[2.460361,-3.011374,-0.9434456,1.936208,-1.810177,2.596165,-1.315927,3.345262,1.880301,-0.6877995,-1.576159,-2.131072,1.975862,3.482864,-2.429942,-1.376346,-3.681013,3.90737,0.7283037,-3.431323,1.933653,-0.09043734,-1.623432,-1.723267,0.2379271],
[-0.9393098,2.418932,2.452044,-0.2154203,3.955653,-0.02015173,1.12068,3.556007,-0.2933868,-3.145995,3.675854,-2.82511,-3.499517,-0.9175555,1.244543,-3.123861,1.098606,-3.97564,1.450317,-2.172548,3.300817,1.637377,-0.08528125,-2.100414,0.687506],
[-2.116146,-1.254698,0.5482217,-1.981782,-3.198595,-1.0384,-0.07049281,-0.8966169,2.682748,3.618104,-2.89454,-3.490684,-0.125912,1.161274,1.808695,3.275401,-0.9459621,-3.787063,-0.2756093,2.551617,3.572298,3.035963,1.353412,-3.836542,-2.880398],
[-1.778297,-1.486151,-2.77916,-1.495945,3.886112,1.034364,-2.170064,-1.467959,1.712117,-1.292619,0.165311,-3.985509,-3.186178,1.85746,3.007101,2.976445,-2.441661,2.228304,-2.592458,1.621105,-2.838548,1.866064,0.802818,-1.307635,-2.022584],
[3.526497,-2.172858,2.766235,2.094073,-1.99636,-3.569657,3.967086,1.013852,-0.7274816,2.43504,-3.833328,-3.992242,-2.851212,3.54683,1.647472,-3.640451,-2.52548,-0.840299,1.447979,1.429343,-2.039654,3.229878,-2.645233,-3.634984,2.016203],
