{ "networks":
[
{
"fitness":1.675941,
"weights":[
[
[-3.918405,-0.9131234,1.848835,-0.6767324,-0.3716304,0.04443336,-3.668835,0.3861239,2.602194,1.767467,-1.556655,-3.264822,1.307081,-1.138104,0.915611,-0.389276,-0.03257703,2.824455,0.8856296,-1.251767,-2.254969,-2.819267,2.499728,-0.5033413,-1.764358],
[2.731238,2.184044,2.024655,-0.5807576,-3.51733,-1.460689,2.12534,-3.116671,3.127143,1.858596,-0.04107016,1.680467,2.63488,3.189817,0.2728869,2.181584,2.411212,-1.003041,-2.23382,-1.648499,0.966683,2.592522,1.078971,-1.524999,-3.101229],
[3.62839,1.250873,3.81037,2.537549,3.963932,0.2093233,0.8281275,-1.000507,1.442591,3.277353,-2.370559,-0.860395,-0.1904963,-2.594583,-1.347819,-1.250169,1.535775,-3.303883,3.948113,-2.986815,0.8865805,2.198217,1.497752,1.41604,-0.9347053],
[-0.6131486,-2.689198,-1.264976,-1.059124,-1.078917,3.183939,-0.5441073,0.500115,-0.9762166,3.081867,1.81006,3.391615,-2.651024,-0.4286721,2.98609,0.8340616,3.151654,3.533199,3.179331,0.09717354,-3.386353,1.60223,3.128549,1.802899,-1.808822],
[-0.06167286,2.164317,-3.077304,2.732357,3.48261,1.279106,-2.271251,-0.1843411,-1.692512,2.053169,-0.1409511,-1.372928,-2.566006,-3.637755,-0.8906233,3.546729,-2.64857,-2.007011,-1.950475,-0.0177537,-0.9238326,-0.2797041,0.3994184,0.2772261,3.826395],
[0.6832377,-3.857505,2.661711,-3.119395,-1.633226,-1.776737,-1.383503,-0.1568426,-2.007231,-1.220834,3.793433,2.830392,1.575343,1.446187,2.742743,2.496536,2.721888,3.555032,-2.45915,3.839081,-3.865416,1.809788,2.623112,0.8207858,1.65111],
[1.054709,-2.908442,-2.855644,-2.179605,0.5096679,-0.470055,-1.942811,-1.251791,2.89197,-1.682865,-3.453681,2.920673,1.911539,0.9714074,-2.932632,-3.29852,-3.459008,-3.180646,0.9117406,-1.143223,1.04565,3.5937,-1.687521,1.803297,2.028693],
[1.876184,1.506133,0.8648575,3.260206,0.08094499,1.487821,-2.469607,1.847188,1.813765,3.310983,-2.336294,3.005442,1.975862,-3.385344,-2.429942,3.06675,-0.5810478,-0.5753796,3.508245,-3.431323,1.933653,2.099791,-2.946186,-3.913987,0.2379271],
[3.065014,2.753481,2.452044,-2.247993,0.7751467,0.1049437,1.12068,-3.019971,-0.2933868,-0.1341426,1.635809,1.475114,-1.531378,-0.6622986,3.047549,-3.123861,-2.976216,0.774076,2.710067,1.259817,-3.234489,0.4673975,-0.8218955,-1.397444,-1.963199],
[-3.879526,1.168636,-0.8027945,-3.537837,1.557333,2.740567,-3.677463,-1.161919,2.682748,-2.304242,-1.64751,0.8606127,-0.125912,0.1573226,-0.1064858,-3.734414,1.246231,2.236706,2.971829,-2.844822,3.299186,3.272643,-0.4355205,-3.836542,-0.6717389],
[-1.578137,-1.564082,1.239018,0.0496979,-0.622781,-1.705032,-2.356574,0.05967613,1.712117,-1.292619,0.165311,-3.624359,1.648786,-2.990029,-3.483847,-2.621753,-2.441661,1.74354,-3.226523,2.041864,1.125842,0.3267199,-3.324365,0.1219189,0.9634879],
[3.526497,3.136028,0.7966839,-1.619099,3.763918,0.09890383,-1.478982,1.013852,0.7557246,-0.5328418,2.656987,-0.6235037,-2.125986,-0.5032842,-0.7096133,-3.640451,2.756322,2.876575,3.755344,-0.8954827,-0.2970063,1.351199,-2.002087,3.272245,2.152446],
[0.4327688,-3.890731,2.970145,0.5223086,-1.542786,-0.9479874,1.675699,0.3571143,-0.2096897,3.3088,-0.5068402,3.324495,3.792895,-1.655004,-1.554943,3.033586,0.4198271,1.090212,0.7078368,-1.600641,0.9733878,0.3683107,-2.48684,1.366812,-2.172313],
[2.007416,3.497719,1.661362,-1.433622,3.730272,0.663749,-3.170605,-2.150347,-3.576701,-0.1668666,0.153197,-1.084379,2.121588,3.494034,2.658327,-1.412814,0.2361923,-3.693322,-2.139245,-0.6571326,-2.398687,-3.931175,-3.00573,0.2811841,2.114963],
[1.060904,2.092016,1.715404,3.10968,-3.943747,-1.887567,2.346394,2.230268,-0.6750186,0.5223926,-3.579707,3.045974,-1.529948,2.185763,-3.88981,-0.5777532,-3.555208,0.6560282,3.122252,2.914561,0.3888768,-2.5459,-1.257638,-0.09488028,-2.218473],
[1.377185,3.457872,-1.503323,1.54664,-0.2996673,-2.115551,-3.301776,2.834336,-3.769788,3.438737,-1.754475,1.106118,1.210517,0.3942687,-0.7744355,-0.2793347,1.575138,1.052858,0.1033525,2.618355,1.695837,-0.9198431,-2.333428,-1.828889,-2.83992],
[2.6224,-2.464316,-3.184394,-2.838085,3.847762,-0.4046324,1.631852,0.9324867,-3.4341,0.2195989,0.01906213,-0.9661769,-3.408216,-0.40092,0.7870387,1.524796,2.303281,0.4155903,-2.148881,-2.012008,2.316895,-0.9428799,-2.713428,-1.566612,-0.5221156],
[3.099421,-1.910437,0.4177189,0.5900823,-2.951153,-2.262872,-2.879587,-3.163415,1.207463,-2.45356,0.3929585,3.373855,1.427922,1.78848,2.113584,-3.158532,1.598089,0.4759485,3.171053,-2.71087,2.175353,-3.547178,3.485936,-1.341556,3.864751],
[-0.6564603,3.026991,1.329635,0.06607434,-2.129713,-1.399334,-0.9693351,-3.845513,-1.04656,3.726774,-0.5289487,1.409213,-2.236737,-1.212973,-1.141346,2.433163,2.953524,-1.603421,0.1635711,1.563372,1.347854,3.705301,-0.1401893,3.349785,3.183997],
[1.182457,-1.043462,-3.893616,-1.53126,-0.1887746,-0.9798312,1.712535,3.791794,-2.13796,1.749302,-1.37641,0.9979374,-0.9418749,0.1939192,1.384963,1.610692,0.6331189,-0.5161011,3.28045,2.084892,2.540904,-2.334603,1.548185,-3.527969,-2.195055],
[2.765241,0.3390743,0.6959315,1.524909,-3.58614,-1.849515,-1.130954,0.3580244,0.3176878,2.634019,-3.951276,-0.4689044,-2.660263,0.8063327,0.7364859,-2.495183,-2.741555,3.590267,1.654945,1.902056,-2.46389,-3.506681,-2.479965,-2.348926,2.28396],
[-1.532676,-2.329755,0.388476,3.393105,-2.473331,0.0484954,-3.694559,-1.1941,-0.8502203,3.827191,3.623794,-1.377875,-0.8211189,-3.663448,-0.2957175,2.204699,3.423651,-0.9174175,3.98649,-1.655626,-3.504864,2.899185,1.471696,-0.7372467,0.994782],
[3.760221,-2.567332,-0.3414347,0.6192045,3.981085,1.969854,0.7428787,2.259042,-2.324229,-3.955243,2.252897,-1.713114,-1.906022,-1.814095,-3.351669,1.354354,-2.145299,-0.5763199,-0.005089311,2.066261,-3.96099,-0.2854715,-2.296681,-2.499068,-2.445194],
[3.753431,3.812415,2.116357,3.585332,1.236005,-1.621392,2.593985,3.23277,-1.436885,-2.337867,-3.467429,-0.3497494,-0.6764414,-2.24961,-0.8067793,2.104225,-0.9615436,3.592282,-3.99129,-2.999597,-3.303706,1.164839,1.513286,3.912304,1.63459],
[-1.490088,-0.3723729,-2.951419,3.726047,0.7666559,0.6149142,-3.550837,3.519811,-3.716404,-1.938939,0.4594615,-3.961317,-3.921109,-1.394807,0.5836882,-0.9681919,-1.175043,3.050899,-3.034732,-2.791654,1.002618,1.811571,2.938211,2.489071,-0.7836469]
],
[
[-3.309747,-0.0249344,2.142957,-3.439741,2.389605,-0.9263506,2.299239,-2.943788,0.006146193,2.598064,-2.395439,1.589856,-0.177644,-1.685721,2.324214,2.557783,-1.289751,3.376971,0.01095542,-1.336918,-3.890614,3.974983,0.2808323,-3.870636,2.757661],
[0.8507107,-0.6756492,-3.57827,2.593522,-1.598309,1.144186,3.884007,-3.181258,-3.998619,2.09194,-1.401117,-2.155378,3.029264,-2.787294,-2.8385,-0.1504878,3.639319,0.3300345,2.288618,-0.02087051,-1.205536,1.953636,-0.2511635,-3.26378,-0.4578984]
]
],
"biases":[
[
1.889672,0.7992602,-0.1377277,-1.164239,0.1252684,-0.2049069,1.782659,1.310374,1.096607,1.655956,-0.644348,2.804367,3.994818,-1.187227,3.423358,-0.3154958,3.191943,2.945623,-3.736365,-2.6491,2.568481,3.028468,1.028026,-0.6120213,-3.961882
],
[
3.241615,3.704916
]
]},
{
"fitness":1.674938,
"weights":[
[
[-3.918405,-0.9131234,1.848835,-0.6767324,-0.3716304,0.04443336,-3.668835,0.3861239,2.602194,1.767467,-1.556655,-3.264822,1.307081,-1.138104,0.915611,-0.389276,-0.03257703,2.824455,0.8856296,-1.251767,-2.254969,-2.819267,2.499728,-0.5033413,-1.764358],
[2.731238,-2.398265,2.024655,-0.5807576,-3.51733,-1.460689,2.12534,-3.116671,3.127143,1.858596,1.906041,1.680467,-2.162894,3.189817,0.2728869,2.181584,3.898978,-1.003041,-2.23382,-1.648499,0.966683,2.592522,1.078971,-1.524999,-3.101229],
[3.62839,1.250873,3.81037,2.537549,3.963932,0.2093233,0.8281275,-1.000507,1.442591,3.277353,-2.370559,-0.860395,-0.1904963,-2.594583,-1.347819,-1.250169,1.535775,-3.303883,3.948113,0.6760125,3.83314,3.874756,1.497752,-3.631317,-0.9347053],
[-0.6131486,-2.689198,-1.264976,-1.059124,-1.078917,-2.328711,-0.5441073,0.500115,-0.9762166,3.081867,1.154811,3.391615,-2.651024,-0.4286721,3.845526,0.8340616,3.151654,3.533199,3.179331,0.09717354,-3.386353,1.60223,3.128549,1.802899,-1.808822],
[-0.06167286,2.164317,-3.077304,2.732357,3.48261,1.279106,-2.271251,-0.1843411,-1.692512,2.053169,-0.1409511,-1.372928,-2.566006,2.955805,-0.8906233,-0.3900694,-2.64857,-2.007011,-1.950475,-0.0177537,-0.9238326,-1.396264,0.3994184,0.2772261,3.826395],
[0.6832377,-3.857505,2.661711,-3.119395,-0.7793984,-1.776737,3.199944,-0.1568426,-2.007231,-1.220834,3.793433,2.830392,-3.197415,1.446187,2.742743,2.496536,2.721888,3.555032,-2.45915,-2.208824,-3.865416,1.809788,2.623112,0.8207858,1.65111],
[1.054709,1.772935,-2.855644,-2.179605,-3.125322,-0.470055,1.179939,-1.251791,2.89197,-1.682865,-3.453681,2.920673,1.911539,0.9714074,-2.932632,-3.29852,-3.459008,-3.180646,0.9117406,-1.107887,1.04565,3.5937,-1.687521,1.803297,2.028693],
[1.876184,1.506133,0.8648575,3.260206,0.08094499,1.487821,-2.469607,1.847188,1.813765,3.310983,-2.336294,3.005442,1.975862,-3.385344,-2.429942,3.06675,-0.5810478,-0.5753796,3.508245,-3.431323,1.933653,2.099791,-2.946186,-3.913987,0.2379271],
[3.065014,-1.794075,2.452044,-2.247993,-3.319827,0.1049437,1.12068,-3.019971,-0.2933868,-0.1341426,1.635809,1.475114,-1.531378,-0.6622986,3.047549,-3.123861,-2.662595,0.774076,2.710067,1.259817,-3.234489,0.4673975,0.9598077,-1.397444,-1.963199],
[-3.879526,1.168636,0.5482217,-3.537837,1.557333,2.740567,-3.677463,-1.161919,2.682748,-2.304242,-1.64751,0.8606127,-0.125912,0.1573226,-0.1064858,-3.734414,1.246231,2.236706,2.971829,-2.844822,3.299186,3.272643,-0.4355205,-3.836542,-0.6717389],
[-1.578137,0.5260066,-0.1407781,0.0496979,-0.622781,-1.705032,-2.356574,0.05967613,1.712117,-1.292619,0.165311,-3.624359,1.648786,-2.990029,-3.483847,-2.621753,-2.441661,1.74354,-3.226523,2.041864,-2.309801,0.3267199,-3.324365,0.1219189,0.9634879],
[3.526497,3.136028,0.7966839,3.876861,3.763918,0.09890383,-1.478982,1.013852,0.7557246,-1.258158,2.656987,-3.992242,-2.125986,-0.5032842,-0.7096133,-3.640451,2.756322,2.876575,3.755344,-0.8954827,-2.039654,1.351199,-2.002087,3.272245,2.152446],
[0.4327688,-3.890731,1.70757,0.5223086,-1.238783,-0.9479874,1.675699,0.3571143,1.559712,3.3088,-0.5068402,3.324495,3.792895,-1.655004,-1.554943,3.033586,0.4198271,1.090212,0.7078368,-1.600641,0.9733878,0.3683107,-2.48684,1.366812,-2.172313],
[2.007416,3.497719,1.661362,-1.433622,3.730272,0.663749,-3.170605,-2.150347,-3.576701,-0.1668666,-2.630246,-1.084379,2.121588,3.019225,2.658327,-1.412814,-0.1684031,2.479831,-2.139245,-2.91966,-2.785837,-3.931175,-3.00573,0.2811841,2.114963],
[1.060904,2.092016,1.715404,3.10968,-3.943747,-1.887567,-3.55117,2.230268,-0.6750186,0.2586162,-3.579707,3.045974,-1.529948,2.185763,-3.88981,-0.5777532,-3.555208,0.6560282,3.122252,2.914561,0.3888768,-0.3467021,-1.257638,-0.09488028,-2.218473],
[1.377185,3.457872,-1.503323,1.54664,0.7724607,-2.115551,-3.301776,2.834336,-3.769788,3.438737,-1.754475,1.106118,1.210517,0.3942687,2.663628,-0.2793347,1.575138,1.052858,0.1033525,2.618355,1.695837,-0.9198431,-2.333428,-0.2840746,-2.83992],
[2.6224,-2.464316,-3.184394,-2.838085,3.847762,-0.4046324,1.631852,0.9324867,-3.4341,2.557114,0.01906213,-0.9661769,-3.408216,-0.40092,0.7870387,1.524796,-1.54749,0.4155903,-2.148881,-2.012008,2.316895,-0.9428799,-1.820061,2.972224,-0.5221156],
[3.099421,-1.910437,-2.660454,0.5900823,-2.951153,-2.262872,1.144471,-3.163415,1.207463,-2.45356,0.3929585,3.373855,1.427922,1.78848,2.113584,-3.158532,1.598089,0.4759485,3.171053,-2.71087,-1.942121,-3.547178,3.485936,-0.3747945,3.864751],
[-0.6564603,3.026991,1.329635,0.06607434,-2.129713,-1.399334,-0.9693351,-3.845513,-1.04656,3.726774,-0.5289487,1.409213,-2.236737,-1.212973,-1.141346,2.433163,2.953524,-1.603421,0.1635711,1.563372,1.347854,3.705301,-0.1401893,1.035203,3.183997],
[1.182457,-1.043462,-3.479763,-1.53126,-0.1887746,-2.465067,1.712535,3.791794,-2.13796,1.749302,-1.37641,0.9979374,-0.9418749,0.1939192,1.384963,1.610692,0.6331189,-0.5161011,3.28045,0.4987966,-3.437027,-2.334603,1.548185,-3.527969,-2.195055],
[0.7048986,0.3390743,0.6959315,1.524909,-3.58614,-1.849515,-1.130954,0.3580244,0.3176878,2.634019,-3.951276,-0.4689044,-2.660263,0.8063327,0.7364859,-2.495183,-2.741555,3.590267,1.654945,1.902056,-2.46389,-3.506681,-2.479965,-2.348926,2.28396],
[-1.532676,-2.329755,0.388476,3.393105,-2.473331,0.0484954,-3.694559,-1.1941,-0.8502203,3.827191,1.745645,-1.377875,-0.8211189,-3.663448,-0.2957175,2.204699,3.423651,-0.9174175,3.98649,-1.655626,-3.504864,2.899185,1.471696,-0.7372467,0.994782],
[3.760221,-3.214293,-0.3414347,0.6192045,3.981085,1.969854,0.7428787,2.259042,-2.324229,-3.955243,2.252897,-1.713114,-1.906022,-1.814095,-3.351669,0.5953557,3.0817,-0.5273172,-0.005089311,2.066261,-3.96099,-0.2854715,-2.296681,-2.499068,-2.445194],
[3.753431,3.812415,2.116357,3.585332,1.236005,-1.621392,2.593985,3.23277,-1.436885,-0.5021173,-3.467429,-0.3497494,-0.6764414,-2.24961,-0.8067793,2.104225,-0.9615436,3.592282,-3.99129,-2.999597,-3.303706,1.164839,1.513286,3.912304,1.63459],
[0.1012215,-0.3723729,-2.951419,3.726047,0.7666559,0.6149142,-3.550837,-1.661648,3.709976,-1.938939,0.4594615,-3.961317,-3.921109,-1.394807,0.5836882,-3.191772,-1.175043,3.050899,-3.034732,-2.791654,1.002618,1.811571,-3.317089,2.489071,-0.7836469]
],
[
[1.319209,-0.0249344,2.142957,-3.439741,3.847137,-0.9263506,2.299239,-2.943788,0.006146193,2.598064,-2.395439,1.589856,-0.177644,-1.685721,2.324214,2.557783,3.289652,3.376971,0.01095542,-1.336918,-3.890614,3.974983,3.093263,-3.870636,2.757661],
[0.8507107,0.5452465,-3.57827,2.593522,-1.598309,1.144186,3.884007,-3.181258,-3.998619,2.09194,-1.401117,-2.155378,3.029264,-2.787294,-2.8385,-0.1504878,3.639319,0.3300345,2.288618,-0.02087051,-1.205536,1.953636,-0.2511635,-3.26378,-0.4578984]
]
],
"biases":[
[
1.889672,0.7992602,-0.1377277,-1.164239,0.1252684,-0.2049069,1.782659,1.310374,1.096607,1.655956,-0.644348,-0.9841591,3.994818,0.7093387,3.423358,-0.3154958,3.191943,2.945623,-3.736365,-0.6766984,2.568481,3.028468,1.028026,-0.6120213,-3.961882
],
[
3.241615,3.704916
]
]},
{
"fitness":1.641879,
"weights":[
[
[-3.918405,-0.9131234,1.848835,-0.6767324,-0.3716304,0.04443336,-3.668835,0.3861239,2.602194,1.767467,-1.556655,-3.264822,1.307081,-1.138104,0.915611,-0.389276,-0.03257703,2.824455,0.8856296,-1.251767,-2.254969,-2.819267,2.499728,-0.5033413,-1.764358],
[2.731238,2.184044,2.024655,-0.5807576,-3.51733,-1.460689,2.12534,-3.116671,3.127143,1.858596,-0.04107016,1.680467,-1.375183,3.189817,0.2728869,2.181584,2.411212,-1.003041,-2.23382,-1.648499,0.966683,2.592522,1.078971,-1.524999,-3.101229],
[3.62839,1.250873,3.81037,2.537549,3.963932,0.2093233,0.8281275,-1.000507,1.442591,3.277353,-2.370559,-0.860395,-0.1904963,-2.594583,-1.347819,-1.250169,1.535775,-3.303883,3.948113,-2.986815,0.8865805,2.198217,1.497752,-3.631317,-0.9347053],
[-0.6131486,-2.689198,-1.264976,-1.059124,-1.078917,-2.328711,-0.5441073,0.500115,-0.9762166,3.081867,1.81006,3.391615,-2.651024,-0.4286721,2.98609,0.8340616,3.151654,3.533199,3.179331,0.09717354,-3.386353,1.60223,2.807062,1.802899,-1.808822],
[-0.06167286,2.164317,-3.077304,2.732357,3.48261,1.279106,-2.271251,-0.1843411,-1.692512,2.053169,-0.1409511,-1.372928,-2.566006,-3.637755,-0.8906233,3.546729,-2.64857,-2.007011,-1.950475,-0.0177537,-0.9238326,-1.396264,0.3994184,0.2772261,-1.666259],
[0.6832377,-3.857505,2.661711,-3.119395,-1.633226,-1.776737,-1.383503,-0.1568426,-2.007231,-1.220834,3.793433,3.694362,1.575343,1.446187,2.742743,2.496536,2.721888,3.555032,-2.45915,-2.208824,-3.865416,1.809788,2.623112,0.8207858,1.65111],
[1.054709,-2.908442,-2.855644,-2.179605,0.5096679,-0.470055,1.179939,-1.251791,2.89197,-1.682865,-3.453681,2.349396,1.911539,0.9714074,-2.932632,-3.29852,-3.459008,-3.180646,0.9117406,-1.143223,1.04565,3.5937,-1.687521,1.803297,2.028693],
[1.876184,1.506133,0.8648575,3.260206,0.08094499,1.487821,-2.469607,1.847188,1.813765,3.310983,-2.336294,3.005442,1.975862,-3.385344,-2.429942,-2.005062,-0.5810478,-2.294198,3.508245,-3.431323,1.933653,2.099791,-2.946186,-3.913987,0.2379271],
[3.065014,2.753481,2.452044,-2.247993,-3.319827,0.1049437,1.12068,-3.019971,-0.2933868,-0.1341426,1.635809,1.475114,-1.531378,-0.6622986,3.047549,-3.123861,-2.976216,0.774076,2.710067,1.259817,-3.234489,0.4673975,-0.8218955,-1.397444,-1.963199],
[-3.879526,1.168636,-0.8027945,-3.537837,1.557333,2.740567,-3.677463,-1.161919,2.682748,-2.304242,-1.64751,0.8606127,-0.125912,0.1573226,-0.1064858,-3.734414,1.246231,2.236706,2.971829,-2.844822,3.299186,3.272643,-0.4355205,-3.836542,3.717093],
[-1.578137,-1.564082,1.239018,0.0496979,-0.622781,-1.705032,-2.356574,0.05967613,1.712117,-1.292619,0.165311,-3.624359,1.648786,-2.990029,-3.483847,-2.621753,-2.441661,1.74354,-3.226523,2.041864,1.125842,0.3267199,-3.324365,0.1219189,0.9634879],
[3.526497,3.136028,0.7966839,-1.619099,3.763918,0.09890383,-1.478982,-3.396608,0.7557246,-0.5328418,2.656987,-3.992242,-2.125986,-0.5032842,-0.7096133,-3.640451,2.756322,2.876575,3.755344,-0.8954827,-0.2970063,1.351199,-2.002087,3.272245,2.152446],
[0.4327688,-3.890731,2.970145,0.5223086,-1.542786,-0.9479874,1.675699,0.3571143,-0.2096897,3.3088,-0.5068402,3.324495,3.792895,-1.655004,-1.554943,3.033586,0.4198271,1.090212,0.7078368,-1.600641,0.9733878,0.3683107,-0.919098,1.366812,-2.172313],
[2.007416,3.497719,1.661362,-1.433622,3.730272,0.663749,-3.170605,-2.150347,-3.576701,-0.1668666,0.153197,-1.084379,2.121588,3.019225,2.658327,-1.412814,0.2361923,-3.693322,-2.139245,-1.400871,-0.4856623,-3.931175,-3.00573,0.2811841,2.114963],
[1.060904,2.092016,1.715404,3.10968,-3.943747,-1.887567,2.346394,2.230268,-0.6750186,0.5223926,-3.579707,3.045974,-1.529948,2.185763,-3.88981,-0.5777532,-3.555208,0.6560282,3.122252,2.914561,0.3888768,-2.5459,-1.257638,-0.09488028,-2.218473],
[1.377185,3.457872,-3.163098,1.54664,-0.2996673,-2.115551,-3.301776,2.834336,-3.769788,3.438737,-1.754475,1.106118,1.210517,0.3942687,-0.7744355,-0.2793347,1.575138,1.052858,0.1033525,2.618355,1.695837,-0.9198431,-2.333428,-0.2840746,-2.83992],
[2.6224,-2.464316,-3.184394,-2.838085,3.847762,-0.4046324,1.631852,0.9324867,-3.4341,2.557114,0.01906213,-0.9661769,-3.408216,-0.40092,0.7870387,1.524796,2.303281,0.4155903,-2.148881,-2.012008,2.316895,-0.9428799,-2.713428,2.972224,-0.5221156],
[3.099421,-1.910437,0.4177189,0.5900823,-2.951153,-2.262872,-2.879587,-3.163415,1.207463,-2.45356,0.3929585,3.373855,1.427922,1.78848,2.113584,-3.158532,1.598089,0.4759485,3.171053,-2.71087,2.175353,-3.547178,3.485936,-1.341556,3.864751],
[-0.6564603,3.026991,1.329635,0.06607434,-2.129713,-1.399334,-0.9693351,-3.845513,-1.04656,3.726774,-0.5289487,1.409213,-2.236737,-1.212973,-1.141346,2.433163,2.953524,-1.603421,0.1635711,1.563372,1.347854,3.705301,-0.1401893,3.349785,3.183997],
[1.182457,-1.043462,-3.479763,-1.53126,-0.1887746,-0.9798312,1.712535,3.791794,-2.13796,1.749302,-1.37641,0.9979374,-0.9418749,0.1939192,1.384963,1.610692,0.6331189,-0.5161011,3.28045,2.084892,2.540904,-2.334603,1.548185,-3.527969,-2.195055],
[2.765241,0.3390743,0.6959315,1.524909,-3.58614,-1.849515,-1.130954,0.3580244,0.3176878,2.634019,-3.951276,-0.4689044,-2.660263,0.8063327,0.7364859,-2.495183,-2.741555,3.590267,1.654945,1.902056,-2.46389,3.895777,-2.479965,-2.348926,2.28396],
[-3.688969,-2.329755,0.388476,3.393105,-2.473331,0.0484954,-3.694559,-1.1941,-0.8502203,3.827191,3.623794,-1.377875,-0.8211189,-3.663448,-0.2957175,2.204699,3.423651,-0.9174175,3.98649,-1.655626,-3.504864,2.899185,1.471696,-0.7372467,0.994782],
[3.760221,1.678597,-0.3414347,0.6192045,3.981085,1.969854,0.7428787,2.259042,-2.324229,-3.955243,2.252897,-1.713114,-1.906022,-1.814095,-3.351669,1.354354,-2.145299,-0.5763199,-0.005089311,2.066261,-3.96099,-0.2854715,-2.296681,-2.499068,-2.445194],
[3.753431,3.812415,2.116357,3.585332,1.236005,-1.621392,2.593985,3.23277,-1.436885,-2.337867,-3.467429,-0.3497494,-0.6764414,-2.24961,-0.8067793,2.104225,3.359394,3.592282,-3.99129,-2.999597,-3.303706,1.164839,1.513286,3.912304,1.63459],
[-1.490088,-0.3723729,-2.951419,3.726047,-1.880065,0.6149142,-3.550837,-1.661648,-3.716404,-1.938939,0.4594615,-3.961317,-3.921109,-1.394807,0.5836882,-0.9681919,-1.175043,3.050899,-3.034732,-2.791654,1.002618,1.811571,2.938211,2.489071,-0.7836469]
],
[
[-3.309747,-0.0249344,2.142957,-3.439741,2.389605,-0.9263506,2.299239,-2.943788,-0.1388863,2.598064,-2.395439,1.589856,-0.177644,-1.685721,2.324214,2.557783,3.289652,3.376971,0.01095542,-1.336918,-3.890614,3.974983,0.2808323,-3.870636,2.757661],
[0.8507107,-0.6756492,-3.57827,2.593522,-1.598309,1.144186,3.884007,-3.181258,-3.998619,2.09194,-1.401117,-2.155378,3.029264,-2.787294,-2.8385,-0.1504878,3.639319,0.3300345,2.288618,-0.02087051,-1.205536,1.953636,-0.2511635,-3.26378,-0.4578984]
]
],
"biases":[
[
1.889672,0.7992602,-0.1377277,-1.164239,0.1252684,-0.2049069,1.782659,1.310374,1.096607,1.655956,-0.644348,2.804367,3.994818,-1.187227,3.423358,-0.3154958,3.191943,2.945623,-3.736365,-2.6491,2.568481,3.028468,1.028026,-0.6120213,-3.961882
],
[
3.241615,3.704916
]
]},
{
"fitness":1.6293,
"weights":[
[
[-3.918405,-0.2670445,1.848835,-0.6767324,-0.3716304,0.04443336,-3.668835,0.3861239,2.602194,1.767467,-1.556655,-3.264822,1.307081,-1.138104,0.915611,-0.389276,-0.03257703,2.824455,3.192993,-1.251767,-2.254969,-2.819267,2.499728,3.236063,-1.764358],
[2.731238,-2.398265,2.024655,-0.5807576,-3.51733,3.9655,2.12534,-3.116671,3.127143,1.858596,-0.04107016,1.680467,-2.162894,2.432884,-0.2022814,2.181584,3.898978,-1.003041,-2.23382,-1.648499,0.966683,2.592522,1.078971,-1.524999,-3.101229],
[3.62839,2.827461,3.81037,2.537549,3.963932,0.2093233,0.8281275,-1.000507,1.442591,3.277353,-2.370559,-0.860395,-0.1904963,-2.594583,-1.347819,-1.250169,1.535775,3.590704,3.948113,-2.986815,0.8865805,2.198217,1.497752,-3.631317,-2.773402],
[-0.6131486,-2.689198,-1.264976,-1.059124,-3.254318,0.5507985,-0.5441073,0.500115,-0.9762166,3.081867,-0.3254766,3.391615,-2.651024,-0.4286721,2.98609,0.8340616,3.151654,3.533199,3.179331,0.09717354,-3.386353,1.60223,3.128549,1.802899,-1.808822],
[-0.06167286,2.164317,-3.077304,2.732357,3.48261,1.279106,-2.271251,-0.1843411,-1.692512,2.053169,-0.1409511,-1.372928,-2.566006,2.955805,-0.8906233,3.546729,-2.64857,-1.59969,-1.950475,-0.0177537,-0.9238326,-1.396264,0.3994184,0.2772261,3.826395],
[0.6832377,-3.857505,2.661711,-3.119395,-1.942333,2.150225,-1.383503,-0.1568426,-2.007231,-1.220834,3.793433,3.009659,-3.197415,1.446187,2.742743,2.496536,2.721888,3.555032,-2.45915,-2.208824,-3.865416,1.809788,2.623112,0.8207858,1.65111],
[2.250209,1.772935,0.8494017,-2.179605,-3.24647,-0.470055,1.179939,2.798385,2.89197,2.245357,-3.453681,2.94415,1.911539,1.038654,-2.932632,-3.29852,-3.459008,-3.180646,0.9117406,-1.107887,-1.839476,3.5937,-1.687521,1.803297,2.028693],
[1.876184,1.506133,0.8648575,3.927627,0.08094499,1.487821,-2.469607,1.847188,1.813765,3.310983,-2.336294,3.005442,1.975862,-3.385344,-2.429942,3.06675,-0.5810478,2.033765,3.508245,-3.431323,1.358988,2.099791,-2.946186,-3.913987,0.2379271],
[3.065014,2.753481,3.052747,-2.247993,-3.319827,3.602927,1.12068,-3.019971,-0.2933868,-0.1341426,1.635809,1.475114,-1.531378,-0.6622986,3.047549,-3.123861,-2.662595,0.774076,2.710067,2.024305,-3.234489,0.4673975,-0.8218955,-1.397444,-1.963199],
[-3.879526,1.168636,0.5482217,-1.551785,1.557333,2.740567,-3.677463,-1.161919,2.682748,-2.304242,-1.64751,0.8606127,-0.125912,0.1573226,-0.1064858,-3.734414,1.246231,2.236706,2.971829,-2.844822,3.299186,3.272643,-0.4355205,-3.836542,-0.6717389],
[2.443062,-1.564082,1.239018,-1.687484,-0.622781,-1.705032,3.057583,0.05967613,1.712117,-1.568522,0.165311,0.4976436,1.648786,-2.990029,-3.483847,-2.621753,-2.441661,1.74354,-3.226523,2.041864,1.180996,0.323941,-3.324365,0.1219189,0.9634879],
[1.064655,3.136028,0.7966839,-1.619099,3.197198,0.09890383,-1.478982,-3.019395,0.7557246,-1.258158,2.656987,-0.3285926,-2.125986,-0.5032842,-0.7096133,-3.640451,2.756322,2.876575,3.755344,-0.8954827,-2.039654,1.351199,-2.002087,3.272245,2.152446],
[0.4327688,-3.890731,1.70757,0.5223086,-1.238783,-0.9479874,1.675699,0.3571143,-0.2096897,3.3088,-0.3345568,3.324495,3.792895,-1.655004,-1.554943,3.033586,0.4198271,1.090212,-3.85772,-1.600641,0.9733878,0.3683107,-2.48684,1.366812,-2.172313],
[2.007416,3.497719,1.661362,-1.433622,3.730272,0.663749,-3.170605,-2.150347,-3.576701,-0.1668666,-2.630246,-1.084379,2.121588,3.019225,2.658327,-1.412814,0.2361923,-3.693322,-2.139245,-2.91966,-2.785837,-3.931175,-3.00573,0.2811841,2.114963],
[1.060904,2.092016,1.715404,3.10968,-3.943747,-1.887567,2.346394,2.230268,-0.6750186,0.5223926,-3.579707,3.045974,-1.529948,2.185763,-3.88981,-0.5777532,-3.555208,0.5450703,3.122252,-1.841153,0.3888768,-2.5459,-1.257638,-0.09488028,-2.218473],
[0.04677576,3.457872,-1.503323,1.54664,0.7724607,-2.115551,-3.301776,2.834336,-3.769788,3.438737,-1.754475,-3.987444,1.210517,0.3942687,-0.7744355,-2.842958,1.575138,1.052858,0.1033525,2.618355,1.695837,-2.587322,-2.333428,-0.2840746,-2.83992],
[2.6224,-2.464316,-3.184394,-2.838085,3.847762,-0.4046324,1.631852,0.9324867,-3.84063,2.557114,0.01906213,-0.9661769,-3.408216,-0.598538,0.7870387,1.524796,2.303281,0.4155903,-0.4220811,-2.012008,2.316895,-0.9428799,-2.713428,2.972224,-0.5221156],
[3.099421,-1.910437,-2.660454,0.5900823,-2.951153,-2.262872,-2.879587,-3.163415,1.207463,-2.45356,0.3929585,3.373855,1.427922,1.78848,2.113584,-3.158532,1.598089,0.4759485,3.171053,-2.71087,-1.942121,-3.547178,3.485936,-1.341556,-1.090305],
[-0.133818,3.026991,1.329635,0.06607434,-2.129713,3.591345,-0.9693351,-3.845513,1.717205,3.726774,-0.5289487,1.409213,-2.236737,-1.212973,-1.141346,2.433163,2.953524,-1.603421,0.1635711,1.563372,1.347854,3.705301,1.296575,3.349785,3.183997],
[1.182457,-1.043462,-3.479763,-1.53126,-0.1887746,-0.9798312,1.712535,3.791794,-2.13796,1.749302,-1.37641,0.9979374,-0.9418749,0.1939192,1.384963,1.610692,0.6331189,-0.5161011,3.28045,2.084892,2.540904,-2.334603,1.548185,-3.527969,-2.195055],
[2.844615,0.3390743,0.6959315,-3.354168,-3.58614,-1.849515,-1.130954,0.3580244,0.3176878,-2.397638,-3.951276,-0.4689044,-0.5165843,0.8063327,0.7364859,-2.495183,-2.741555,3.590267,1.654945,1.902056,-2.46389,-3.506681,-2.479965,-2.348926,2.28396],
[-1.532676,-2.329755,0.388476,0.3125249,-2.473331,0.0484954,-3.694559,-1.1941,-0.8502203,0.4472655,3.623794,-1.377875,-0.8211189,-3.663448,-2.526337,2.204699,3.423651,-0.9174175,3.98649,-1.655626,-1.708495,2.899185,1.471696,-0.7372467,0.994782],
[3.760221,-2.567332,-0.3414347,0.6192045,3.981085,1.969854,0.7428787,2.259042,-2.324229,-2.91644,2.252897,-1.713114,-1.906022,-1.814095,-3.351669,1.354354,3.0817,-2.416694,-0.005089311,2.066261,-3.96099,-0.2854715,-2.296681,-2.499068,-2.445194],
[3.753431,3.812415,2.116357,2.951047,1.236005,-1.621392,2.593985,3.23277,-1.436885,-0.5021173,-3.467429,-0.3497494,-0.6764414,-2.24961,-0.8067793,2.104225,-0.9615436,3.592282,-3.99129,-2.999597,-3.303706,1.164839,1.513286,3.912304,1.63459],
[-1.490088,-0.3723729,-2.951419,3.726047,0.7666559,0.6149142,-3.550837,-1.661648,-3.665346,-1.938939,0.4594615,-3.961317,-3.921109,-1.394807,0.5836882,-0.9681919,-1.175043,3.050899,-3.034732,-2.791654,1.002618,1.811571,-3.317089,2.489071,-0.7779945]
],
[
[-3.309747,-0.0249344,2.142957,-3.439741,0.2149344,-0.9263506,2.299239,-0.9339131,0.006146193,2.598064,-2.395439,1.589856,-0.177644,-1.685721,2.324214,1.743688,3.289652,3.376971,0.01095542,-1.336918,-3.890614,3.974983,3.093263,-3.870636,2.757661],
[1.394002,-0.6756492,-3.57827,3.911775,-1.598309,1.144186,3.884007,-3.181258,-3.998619,2.09194,-1.401117,-2.155378,3.029264,-2.787294,-2.8385,-0.1504878,3.639319,-0.6954712,2.288618,-0.02087051,2.684714,1.953636,-0.2511635,-3.26378,-0.4578984]
]
],
"biases":[
[
1.889672,0.7992602,-0.1377277,-1.164239,2.729195,-0.2049069,1.782659,1.310374,1.096607,1.655956,-0.644348,-0.9841591,3.994818,-1.187227,3.423358,-1.393405,3.191943,2.945623,-3.736365,-2.6491,2.568481,3.028468,2.788351,-0.6120213,-3.961882
],
[
3.241615,3.704916
]
]},
{
"fitness":1.629053,
"weights":[
[
[-3.918405,-0.9131234,1.848835,-0.6767324,-0.3716304,0.04443336,-3.668835,0.3861239,2.602194,1.767467,-1.556655,-3.264822,1.307081,-1.138104,0.915611,-0.389276,-0.03257703,2.824455,0.8856296,-1.251767,-2.254969,-1.551444,2.499728,-2.655441,-1.764358],
[2.731238,-2.398265,2.024655,-0.5807576,-3.51733,-1.460689,2.12534,-1.416244,3.127143,1.858596,1.906041,1.680467,-2.162894,3.189817,0.2728869,2.181584,3.898978,-0.4255385,-2.23382,-1.648499,0.966683,2.592522,1.078971,-0.6048529,-3.101229],
[3.62839,1.250873,3.81037,2.537549,3.963932,0.2093233,-1.439019,-1.000507,1.442591,-0.5652845,-2.370559,-0.860395,-0.1904963,-2.594583,-1.347819,-1.250169,1.535775,-3.303883,3.948113,-2.986815,3.83314,2.198217,1.497752,-3.631317,-0.9347053],
[-0.6131486,-2.689198,-1.264976,-1.059124,-1.078917,-2.328711,-0.5441073,0.500115,-0.9762166,3.081867,1.154811,3.391615,-2.651024,-0.4286721,2.98609,0.8340616,3.151654,3.533199,3.179331,0.09717354,-3.386353,1.60223,3.128549,1.802899,-1.808822],
[-0.06167286,2.164317,-3.077304,2.732357,3.48261,1.279106,-2.271251,-0.1843411,-1.692512,2.053169,-0.1409511,-1.372928,-2.566006,2.955805,-0.8906233,-0.3900694,-2.64857,-2.007011,-2.007867,-0.0177537,-0.9238326,-1.396264,0.3994184,0.2772261,3.826395],
[0.6832377,-3.857505,2.661711,-3.119395,-0.7793984,-1.776737,-1.383503,-0.1568426,-2.007231,-1.220834,3.793433,2.830392,-3.197415,1.446187,2.742743,2.496536,2.721888,3.555032,-2.45915,-2.208824,-3.865416,1.809788,2.623112,0.8207858,1.65111],
[1.054709,1.772935,-2.855644,-2.179605,-3.24647,-3.906026,1.179939,-1.251791,2.89197,-1.682865,-3.453681,2.920673,1.911539,0.9714074,-2.932632,-3.29852,-3.459008,-3.180646,0.9117406,-1.107887,1.04565,3.5937,-1.687521,1.803297,2.028693],
[1.876184,1.506133,0.8648575,3.260206,0.08094499,1.487821,-2.469607,1.847188,1.813765,3.310983,-2.336294,3.005442,1.975862,-3.385344,-2.429942,3.06675,-0.5810478,-0.5753796,3.508245,0.8732498,1.933653,2.099791,-2.946186,-3.913987,0.2379271],
[3.128417,2.753481,2.452044,-2.247993,-3.319827,0.1049437,2.391477,-3.019971,-0.2933868,-0.1341426,1.635809,1.475114,-1.289609,-0.6622986,3.047549,-0.4511367,-2.662595,0.774076,2.710067,1.259817,-3.234489,0.4673975,-0.8218955,-1.397444,-1.963199],
[-3.879526,1.168636,0.5482217,-3.537837,1.557333,2.740567,-3.677463,-1.161919,2.682748,-2.304242,-1.64751,0.8606127,-0.125912,0.1699637,-0.1064858,-3.734414,-0.5633348,2.236706,2.971829,-2.844822,3.299186,3.272643,-0.4355205,-3.836542,-0.6717389],
[-1.578137,-1.564082,1.239018,0.0496979,-0.622781,-1.705032,-2.356574,0.05967613,1.712117,-1.292619,0.165311,-3.624359,1.648786,-2.990029,-3.483847,-2.621753,-2.441661,1.74354,-3.226523,2.041864,-2.309801,0.3267199,-3.324365,-2.860351,0.9634879],
[3.526497,3.136028,0.7966839,-1.619099,-2.085968,0.09890383,-1.478982,1.013852,0.7557246,-1.258158,2.656987,-3.992242,0.00716624,-0.5032842,-0.7096133,-3.640451,2.756322,2.876575,-2.263251,-0.8954827,-2.039654,1.351199,-2.002087,3.272245,2.004005],
[0.4327688,-3.890731,1.70757,0.5223086,-1.238783,-0.9479874,1.675699,0.3571143,1.559712,-2.226206,-0.5068402,3.324495,3.792895,0.06470271,-1.554943,3.033586,0.4198271,1.090212,0.7078368,-1.600641,0.9733878,0.3683107,-2.48684,1.366812,1.320102],
[2.007416,3.497719,1.661362,-1.433622,3.730272,0.663749,-3.170605,-2.150347,-3.576701,-0.1668666,-2.630246,-1.084379,2.121588,3.019225,2.658327,-1.412814,0.2361923,-3.693322,-2.139245,-2.91966,-2.785837,-3.931175,-3.00573,0.2811841,2.114963],
[1.060904,2.092016,1.715404,2.033876,-3.943747,-1.887567,2.346394,2.230268,-0.6750186,0.5223926,-3.579707,0.8756335,-1.529948,2.185763,-3.88981,-0.5777532,-3.555208,0.6560282,3.122252,2.914561,0.3888768,-2.5459,-1.257638,-0.09488028,-2.218473],
[1.377185,3.457872,-1.503323,1.54664,-3.22836,-2.115551,-3.301776,2.834336,-3.769788,3.438737,-1.754475,1.106118,1.210517,0.3942687,-0.7744355,-0.2793347,1.575138,1.052858,0.1033525,2.618355,1.695837,-0.9198431,-2.333428,-0.2840746,-2.83992],
[2.6224,-2.464316,-3.184394,-2.838085,3.847762,1.645403,1.631852,0.9324867,-3.4341,2.557114,0.01906213,-0.9661769,-3.408216,-0.40092,0.7870387,1.524796,2.303281,0.4155903,-2.148881,-2.012008,2.316895,1.31934,-1.820061,2.972224,-0.5221156],
[3.099421,-1.910437,-2.660454,0.5900823,-2.951153,-2.262872,-2.879587,-3.163415,1.207463,-2.45356,0.3929585,2.130346,1.427922,1.78848,2.113584,-3.158532,1.598089,0.4759485,3.171053,-2.71087,-1.942121,-3.547178,3.485936,-1.341556,3.864751],
[3.474162,3.026991,1.329635,0.06607434,-2.129713,0.0006638132,-0.9693351,-3.845513,-1.04656,3.726774,-0.5289487,1.409213,-2.236737,-1.212973,-1.141346,2.433163,-3.955833,-1.603421,0.1635711,1.563372,1.347854,1.43003,-0.1401893,3.349785,3.183997],
[1.182457,-1.043462,-3.479763,-1.53126,-0.1887746,-0.9798312,1.712535,3.791794,-2.13796,1.749302,-1.37641,0.9979374,-0.9418749,0.1939192,1.384963,1.610692,0.6331189,-0.5161011,1.247934,2.084892,2.540904,-2.334603,1.548185,-3.527969,-2.195055],
[0.7048986,0.3390743,0.6959315,1.524909,-3.58614,-1.849515,-1.130954,0.3580244,0.3176878,2.634019,-3.282606,-0.4689044,-2.660263,1.215174,0.7364859,-2.495183,-2.741555,3.590267,1.654945,1.902056,-2.46389,-3.506681,-2.479965,-2.348926,2.28396],
[2.437973,-2.329755,0.388476,2.931351,-2.473331,0.0484954,-3.694559,-1.1941,-0.8502203,3.827191,3.623794,-1.377875,-0.8211189,-3.663448,-0.2957175,2.204699,3.423651,0.08253672,3.98649,-1.655626,-3.504864,2.899185,1.471696,-0.7372467,0.994782],
[3.760221,-2.567332,-0.3414347,0.6192045,3.981085,1.969854,0.7428787,2.259042,-2.324229,-3.955243,2.252897,-0.6642479,-1.906022,-1.814095,-3.055349,1.354354,3.0817,-0.5273172,-0.005089311,2.066261,-3.96099,-0.2854715,-2.296681,-2.499068,-2.445194],
[3.753431,3.812415,2.116357,3.585332,1.236005,-1.621392,2.593985,3.23277,-1.436885,-0.5021173,-3.467429,-0.3497494,-0.6764414,-2.24961,-0.8067793,2.104225,-0.9615436,3.592282,-3.99129,2.297967,-3.303706,1.164839,1.513286,3.912304,1.63459],
[-1.490088,-0.3723729,-2.951419,3.726047,0.7666559,0.6149142,-3.550837,-1.661648,3.709976,-1.938939,0.4594615,3.589338,-3.921109,-1.394807,0.5836882,-0.9681919,-1.175043,3.050899,-3.034732,-2.791654,1.002618,3.939234,-3.058451,2.489071,-0.7836469]
],
[
[-3.309747,-0.0249344,2.142957,-0.2712704,2.389605,-0.9263506,2.299239,-2.943788,0.006146193,2.598064,-2.395439,0.8618918,-0.177644,-1.685721,2.324214,2.557783,3.289652,3.376971,0.01095542,-1.336918,-3.890614,3.974983,3.093263,-3.870636,2.757661],
[0.8507107,-0.6756492,-3.57827,2.593522,-1.598309,1.144186,3.884007,-3.181258,-3.998619,2.09194,-1.401117,-2.155378,3.029264,-2.787294,-2.8385,-0.1504878,3.639319,0.3300345,2.288618,3.275684,-1.205536,1.953636,-0.2511635,-3.26378,-0.4578984]
]
],
"biases":[
[
1.889672,0.7992602,-0.1377277,-1.164239,0.1252684,-0.2049069,1.782659,1.310374,1.096607,1.655956,-0.644348,-0.9841591,3.994818,-1.187227,3.423358,-0.1742415,3.191943,1.830591,0.4058895,-3.092804,2.568481,3.028468,1.028026,-0.6120213,-3.961882
],
[
3.241615,3.704916
]
]},
{
"fitness":1.618789,
"weights":[
[
[-3.918405,-0.9131234,1.848835,-0.6767324,-0.3716304,0.04443336,-3.668835,0.3861239,2.602194,1.767467,-1.556655,-3.264822,1.307081,-1.138104,0.915611,-0.389276,-0.03257703,2.824455,0.8856296,-1.251767,-2.254969,-2.819267,2.499728,-0.5033413,-1.764358],
[2.731238,-2.398265,2.024655,-0.5807576,-3.51733,-2.875736,2.12534,-1.416244,3.127143,1.858596,1.906041,1.680467,-2.162894,3.189817,0.2728869,2.181584,3.898978,-0.4255385,-2.23382,-1.648499,0.966683,2.592522,1.078971,-1.524999,-3.101229],
[3.62839,1.250873,3.81037,2.537549,3.963932,0.2093233,2.419659,2.155745,1.442591,3.277353,-2.370559,-0.860395,-0.1904963,-2.594583,-1.347819,-1.250169,1.535775,-3.383086,3.948113,-2.986815,3.83314,2.198217,1.497752,-3.631317,-0.9347053],
[-0.6131486,-2.689198,-1.264976,-1.059124,-1.078917,-2.328711,-0.5441073,0.500115,-0.9762166,3.081867,1.154811,3.391615,-2.651024,-0.4286721,2.98609,0.8340616,3.151654,3.533199,3.179331,0.09717354,-3.386353,-0.05538386,3.128549,1.802899,-1.808822],
[-0.06167286,2.164317,-3.077304,2.732357,3.48261,1.279106,-2.271251,-0.1843411,-1.692512,2.053169,-0.1409511,-1.372928,-2.566006,2.955805,-0.8906233,-0.3900694,-2.64857,-2.007011,-1.950475,-0.0177537,-0.9238326,-1.396264,0.3994184,0.2772261,3.826395],
[0.6832377,-3.857505,2.661711,-3.119395,-0.7793984,-1.776737,-1.383503,-0.1568426,-2.007231,-1.220834,3.793433,2.830392,-3.197415,1.446187,2.742743,1.165917,2.721888,3.555032,-2.45915,-2.208824,-3.865416,1.809788,2.623112,0.8207858,1.65111],
[1.054709,1.772935,-2.855644,-2.179605,-3.24647,-0.470055,1.179939,-1.251791,2.89197,-1.682865,-3.453681,2.920673,1.911539,0.9714074,-2.932632,-3.29852,-3.459008,-3.180646,0.9117406,-1.107887,1.04565,3.5937,-1.687521,1.803297,2.028693],
[1.876184,1.506133,0.8648575,3.260206,0.08094499,1.487821,-2.469607,1.847188,1.813765,3.310983,-2.336294,3.005442,1.975862,-3.385344,-2.429942,3.06675,-0.5810478,-0.5753796,3.508245,-3.431323,1.933653,2.099791,-2.946186,-3.913987,0.2379271],
[3.128417,2.753481,2.452044,-2.247993,-3.319827,0.1049437,1.12068,-3.019971,-0.2933868,-0.1341426,1.635809,1.475114,-1.289609,-0.6622986,3.047549,-0.4511367,-2.662595,0.774076,2.710067,1.259817,-3.234489,0.4673975,-0.8218955,-1.397444,-1.963199],
[-3.879526,1.168636,0.5482217,-3.537837,1.557333,2.740567,-3.677463,-1.161919,2.682748,-2.304242,-1.64751,0.8606127,-0.125912,0.1573226,-0.1064858,-3.734414,-0.5633348,2.236706,2.971829,-2.844822,3.299186,3.272643,-0.4355205,-3.836542,-0.6717389],
[-1.578137,-1.564082,1.239018,0.0496979,-0.622781,-1.705032,-2.356574,0.05967613,1.712117,-1.292619,0.165311,-3.624359,1.648786,-2.990029,-3.483847,-2.621753,-2.441661,1.74354,-3.226523,2.041864,-2.309801,0.3267199,-3.324365,-2.860351,0.9634879],
[3.526497,3.136028,0.7966839,-1.619099,-2.085968,0.09890383,-1.478982,-2.910357,0.7557246,-1.258158,2.656987,-3.992242,-2.125986,-0.5032842,-0.7096133,-3.640451,2.756322,2.876575,3.755344,-0.8954827,-2.039654,1.351199,-2.002087,3.272245,2.152446],
[0.4327688,-3.890731,1.70757,0.5223086,-1.238783,-0.9479874,1.675699,0.3571143,1.559712,3.3088,-0.5068402,3.324495,3.792895,-1.655004,-1.554943,3.033586,0.4198271,1.090212,0.7078368,-1.600641,0.9733878,0.3683107,-2.48684,1.366812,1.320102],
[2.007416,3.497719,1.661362,-1.433622,3.730272,0.663749,-2.531847,-2.150347,-3.576701,-0.1668666,-2.630246,-1.084379,2.121588,3.019225,2.658327,1.836602,0.2361923,-3.693322,-2.139245,-2.91966,-2.785837,-3.931175,-3.00573,0.2811841,2.114963],
[1.060904,2.092016,1.715404,3.10968,-3.943747,-1.887567,2.346394,2.230268,-0.6750186,0.5223926,-3.579707,3.418384,-1.529948,2.185763,-3.88981,-0.5777532,-3.555208,0.6560282,3.122252,2.914561,0.3888768,-2.5459,-1.257638,-0.09488028,-2.218473],
[1.377185,3.457872,3.922959,1.54664,-3.22836,-2.115551,-3.301776,2.834336,-3.769788,3.438737,-1.754475,1.106118,1.210517,0.3942687,3.931809,-0.2793347,1.575138,1.052858,0.1033525,2.618355,1.695837,-0.9198431,-2.333428,-0.2840746,-2.83992],
[2.6224,3.154906,-3.184394,-2.838085,3.847762,-0.4046324,1.631852,0.9324867,-3.4341,2.557114,0.01906213,-0.9661769,-3.408216,-0.40092,0.7870387,1.524796,2.303281,0.4155903,-2.148881,-2.012008,1.054619,1.31934,-1.820061,2.972224,-0.5221156],
[3.099421,-1.910437,1.6333,0.5900823,-2.951153,-2.262872,-2.879587,-3.163415,1.207463,-2.45356,0.3929585,2.130346,1.427922,1.78848,2.113584,-3.158532,1.598089,0.4759485,3.171053,-2.71087,-1.942121,-3.547178,3.485936,-1.341556,3.864751],
[3.474162,3.026991,1.329635,0.06607434,-2.129713,-1.399334,-0.9693351,-3.845513,-1.04656,3.726774,-0.5289487,1.409213,-2.236737,-1.212973,-1.141346,2.433163,-3.955833,-1.603421,0.1635711,1.563372,1.347854,3.705301,-0.1401893,3.349785,3.183997],
[1.182457,-1.043462,-3.479763,-1.53126,-0.1887746,-0.9798312,1.712535,3.791794,-2.13796,1.749302,-1.37641,0.9979374,-0.9418749,0.1939192,1.384963,1.610692,0.6331189,-0.5161011,3.28045,2.084892,-0.09195797,-2.334603,1.548185,-3.527969,-2.195055],
[0.7048986,0.3390743,0.6959315,1.524909,-3.58614,-1.849515,-1.130954,0.3580244,0.3176878,2.634019,-3.282606,-0.4689044,-2.660263,1.215174,0.7364859,-2.495183,-2.741555,3.590267,1.654945,1.902056,-2.46389,-3.506681,-2.479965,-2.348926,2.28396],
[-1.532676,-2.329755,0.388476,3.393105,-2.473331,0.0484954,-3.694559,-1.1941,-0.8502203,3.827191,3.623794,-1.377875,-0.8211189,-3.663448,-0.2957175,2.204699,3.423651,0.08253672,3.98649,-1.655626,-3.504864,2.899185,1.471696,-0.7372467,0.994782],
[3.760221,-2.567332,-0.3414347,0.6192045,3.981085,1.969854,0.7428787,2.259042,-2.324229,-3.955243,2.252897,-1.713114,-1.906022,-1.814095,-3.351669,1.354354,3.0817,-0.5273172,-0.005089311,2.066261,-3.96099,-0.2854715,-2.296681,-2.499068,-2.445194],
[3.753431,3.812415,2.116357,3.585332,1.236005,-1.621392,2.593985,3.23277,-1.436885,-0.5021173,-3.467429,-0.3497494,-0.6764414,-2.24961,-0.8067793,2.104225,-0.9615436,3.592282,-3.99129,-2.999597,-3.303706,1.164839,1.513286,3.912304,1.63459],
[-1.490088,-0.3723729,-2.951419,3.726047,0.7666559,0.6149142,-3.550837,-1.661648,3.709976,-1.938939,0.4594615,-3.961317,-3.921109,-1.394807,0.5836882,-0.9681919,-1.175043,3.050899,-3.034732,-2.791654,1.002618,1.811571,-3.317089,2.489071,-0.7836469]
],
[
[-3.309747,-0.0249344,2.142957,-2.571996,2.389605,-0.9263506,2.299239,-2.943788,0.006146193,2.598064,-2.395439,1.589856,-0.177644,-1.685721,2.324214,2.557783,3.289652,3.376971,0.01095542,-1.336918,-3.890614,2.758161,3.093263,-3.870636,2.757661],
[0.8507107,-0.6756492,-3.57827,2.593522,-1.598309,1.144186,3.884007,-3.181258,-3.998619,2.09194,-1.401117,-2.155378,3.029264,-2.787294,-2.8385,-0.1504878,3.639319,0.3300345,2.288618,-0.02087051,-1.205536,1.953636,3.923447,-3.26378,-0.4578984]
]
],
"biases":[
[
1.889672,0.7992602,-0.1377277,-1.164239,0.1252684,-0.2049069,1.782659,1.310374,1.096607,1.655956,-0.644348,-0.9841591,3.994818,-1.187227,3.423358,-0.1742415,3.191943,2.945623,-3.736365,-2.6491,2.568481,-0.3159415,1.028026,-0.6120213,-3.961882
],
[
3.241615,3.704916
]
]},
{
"fitness":1.611969,
"weights":[
[
[-3.918405,-0.9131234,1.848835,-0.6767324,-0.3716304,0.04443336,-3.668835,0.3861239,2.602194,1.767467,-1.556655,-3.264822,1.307081,-1.138104,0.915611,-0.389276,-0.03257703,2.824455,0.8856296,-1.251767,-2.254969,-2.819267,2.499728,-0.5033413,-1.764358],
[2.731238,-2.398265,2.024655,-0.5807576,-3.51733,-1.460689,2.12534,-3.116671,3.127143,1.858596,1.906041,1.680467,-2.162894,3.189817,0.2728869,2.181584,3.898978,-1.003041,-2.23382,-1.648499,0.966683,2.592522,1.078971,-1.524999,-3.101229],
[3.62839,1.250873,3.81037,2.537549,-0.4211012,0.2093233,0.8281275,-1.000507,1.442591,3.277353,-2.370559,-0.860395,-0.1904963,-2.594583,-1.347819,-1.250169,1.535775,-3.303883,3.948113,-2.986815,3.83314,2.198217,1.497752,-3.631317,1.500908],
[-0.6131486,-2.689198,-1.264976,-1.059124,-1.078917,-2.328711,-0.5441073,0.500115,-0.9762166,2.571503,1.154811,3.391615,-2.651024,-0.4286721,2.98609,0.8340616,3.151654,3.533199,3.179331,0.09717354,-3.386353,1.60223,3.128549,1.802899,-1.808822],
[-0.06167286,2.164317,-3.077304,2.732357,3.48261,1.279106,-2.271251,-0.1843411,-1.692512,2.053169,-0.1409511,-1.372928,-2.566006,2.955805,-0.8906233,-0.3900694,-2.64857,-2.007011,-1.950475,-0.0177537,-0.9238326,-1.396264,0.3994184,0.2865041,3.826395],
[0.6832377,-3.857505,2.661711,-3.119395,-0.7793984,-1.776737,-1.383503,-0.1568426,-2.007231,-1.220834,3.793433,2.830392,-3.197415,1.446187,2.742743,2.496536,2.721888,3.555032,-2.45915,-2.208824,-3.865416,1.809788,2.623112,0.8207858,1.65111],
[1.054709,1.772935,-2.855644,-2.179605,-3.24647,-0.470055,1.179939,-1.251791,2.89197,-1.682865,-3.453681,2.920673,1.911539,0.9714074,-2.932632,-3.29852,-3.459008,-3.180646,0.9117406,-1.107887,1.04565,3.5937,-1.687521,-2.795114,2.028693],
[1.876184,1.506133,0.8648575,3.260206,0.08094499,1.487821,-2.469607,1.847188,1.813765,3.310983,-2.336294,3.005442,1.975862,-3.385344,-2.429942,3.06675,-0.5810478,-0.5753796,3.508245,-3.431323,1.933653,2.099791,-2.946186,-3.913987,0.2379271],
[3.065014,2.753481,2.452044,-2.247993,-3.319827,0.1049437,1.12068,-3.019971,-0.2933868,-0.1341426,1.635809,1.475114,-1.531378,-0.6622986,3.047549,-3.123861,-2.662595,0.774076,2.710067,1.259817,-3.234489,0.4673975,-0.8218955,-1.397444,-1.963199],
[-3.879526,1.168636,0.5482217,-3.537837,1.557333,2.740567,-3.677463,-1.161919,2.682748,-2.304242,-1.64751,0.8606127,-0.125912,3.34169,-0.1064858,-3.734414,1.246231,2.236706,2.971829,-2.844822,3.299186,3.272643,-0.4355205,1.927041,-0.6717389],
[-1.578137,-1.564082,1.239018,0.0496979,-3.234231,-1.705032,-2.356574,0.05967613,1.712117,-1.292619,0.165311,3.195695,1.648786,-2.990029,-3.483847,-2.621753,-2.441661,1.74354,-3.226523,2.041864,-2.309801,3.328158,-3.324365,0.1219189,0.9634879],
[3.526497,3.136028,0.7966839,-1.619099,3.763918,0.09890383,-1.478982,1.013852,0.7557246,-1.258158,2.656987,-3.992242,-2.125986,-0.5032842,-0.7096133,-3.640451,2.756322,2.876575,3.755344,-0.8954827,-2.039654,1.351199,-2.002087,3.272245,2.152446],
[0.4327688,-3.890731,1.70757,0.5223086,-1.238783,-0.9479874,1.675699,0.3571143,1.559712,3.3088,-0.5068402,3.324495,3.792895,-1.655004,-1.554943,-1.149087,0.4198271,-0.5887417,0.7078368,-1.600641,0.9733878,0.3683107,-2.48684,1.366812,-2.172313],
[2.007416,3.497719,1.661362,-1.433622,3.730272,0.663749,-3.170605,-2.150347,-3.576701,-0.1668666,-2.630246,-1.084379,2.121588,3.019225,2.658327,-1.412814,0.2361923,-3.693322,-2.139245,-2.91966,-2.785837,-3.931175,-3.00573,0.2811841,2.114963],
[1.060904,2.092016,1.715404,3.10968,-3.943747,-1.887567,-0.97387,-2.295253,-0.6750186,0.5223926,-3.579707,-1.992963,-1.529948,2.185763,-3.88981,-0.5777532,-3.555208,0.6560282,3.122252,2.914561,0.3888768,-2.5459,-1.257638,0.03655767,-2.218473],
[1.377185,3.457872,-1.503323,1.54664,0.7724607,-2.115551,-3.301776,2.834336,-3.769788,3.438737,-1.754475,1.106118,1.210517,0.3942687,-0.7744355,1.681865,1.575138,1.052858,0.1033525,2.618355,1.695837,-0.9198431,-2.333428,-0.2840746,-2.83992],
[2.6224,-2.464316,-3.184394,-2.838085,3.847762,-0.4046324,1.631852,0.9324867,-3.4341,2.557114,0.01906213,-0.9661769,-3.408216,-0.40092,0.7870387,1.524796,2.303281,0.4155903,-2.148881,-2.012008,2.316895,-0.9428799,-1.820061,2.972224,-0.5221156],
[3.099421,-1.910437,-2.660454,0.5900823,-2.951153,-2.262872,-2.879587,-3.163415,1.207463,-2.45356,0.3929585,3.373855,1.427922,1.78848,2.113584,-3.158532,1.598089,0.4759485,3.171053,-2.71087,-1.942121,-3.547178,3.485936,-1.341556,3.864751],
[-2.766291,3.026991,1.329635,0.06607434,-2.129713,-1.399334,-0.9693351,-3.845513,-1.04656,3.726774,-0.5289487,1.409213,-2.236737,1.129684,-1.141346,2.433163,2.953524,-1.603421,0.1635711,1.563372,1.347854,3.705301,-0.1401893,3.349785,3.183997],
[1.182457,-3.070333,-3.479763,-1.53126,-0.1887746,-0.9798312,1.712535,3.791794,-2.13796,1.749302,-1.37641,0.9979374,-0.9418749,0.1939192,1.384963,1.610692,0.6331189,-0.5161011,3.28045,2.084892,2.540904,-2.334603,1.548185,-3.527969,-2.195055],
[0.7048986,0.3390743,0.6959315,1.524909,-3.58614,-1.849515,-1.130954,0.3580244,0.3176878,2.634019,-3.951276,-0.4689044,-2.660263,0.8063327,0.7364859,-2.495183,-2.741555,3.590267,1.654945,1.902056,-2.46389,-3.506681,-2.479965,-2.348926,2.28396],
[-1.532676,-2.329755,0.388476,3.393105,-2.473331,0.0484954,-3.694559,-1.1941,-0.8502203,3.827191,3.623794,-1.377875,-0.8211189,-3.663448,-0.2957175,2.204699,3.423651,-0.9174175,3.98649,-1.655626,-3.504864,2.899185,1.471696,2.00227,0.994782],
[3.760221,-2.567332,-0.3414347,0.6192045,3.981085,1.969854,0.7428787,2.259042,-2.324229,-3.955243,2.252897,-1.713114,-1.906022,-1.814095,-3.351669,1.354354,3.0817,-2.998065,-0.005089311,2.066261,-3.96099,-0.2854715,-2.296681,-2.499068,-2.445194],
[3.753431,3.812415,2.116357,3.585332,1.236005,-1.621392,2.593985,3.23277,-1.436885,-0.5021173,-3.467429,2.724829,-0.6764414,-2.24961,-0.8067793,2.104225,-0.9615436,3.592282,-3.99129,-2.999597,-3.303706,1.164839,1.513286,3.912304,1.63459],
[-2.480423,-0.3723729,-2.951419,3.726047,0.7666559,0.6149142,-3.550837,-1.661648,3.709976,-1.938939,0.4594615,-3.961317,-3.921109,-1.394807,0.5836882,-0.9681919,-1.175043,3.050899,-3.034732,-2.791654,1.002618,1.811571,-3.317089,2.489071,-0.7836469]
],
[
[-3.309747,-0.0249344,2.142957,-3.439741,2.389605,2.587297,2.299239,-2.943788,0.006146193,2.598064,-2.395439,1.589856,-0.177644,-1.685721,2.324214,2.557783,3.289652,3.376971,0.01095542,-1.336918,-3.890614,3.974983,3.093263,-3.870636,-2.364575],
[0.8507107,-0.6756492,-3.57827,2.593522,-1.598309,1.144186,3.884007,-3.181258,-2.515268,2.09194,-1.401117,-2.155378,3.029264,-2.787294,-2.8385,-0.1504878,3.639319,0.3300345,2.288618,-0.02087051,-1.205536,1.953636,-0.2511635,-3.26378,-0.4578984]
]
],
"biases":[
[
1.889672,0.7992602,-0.1377277,-1.164239,0.1252684,-0.2049069,1.782659,1.310374,1.096607,1.655956,-0.644348,-3.598883,3.994818,-1.187227,3.423358,-0.3154958,3.191943,2.945623,-2.618794,-2.6491,2.568481,3.028468,1.028026,-0.6120213,-3.961882
],
[
3.241615,3.704916
]
]},
{
"fitness":1.571814,
"weights":[
[
[-3.918405,-0.9131234,1.848835,-0.6767324,-0.3716304,0.04443336,-3.668835,0.3861239,2.602194,1.767467,-1.556655,-3.264822,1.307081,-1.138104,0.915611,-0.389276,-0.03257703,2.824455,0.8856296,-1.251767,-2.254969,-2.819267,2.499728,-0.5033413,-1.764358],
[2.731238,-2.398265,2.024655,-0.5807576,-3.51733,-1.460689,2.12534,-1.416244,3.127143,1.858596,1.906041,1.680467,-2.162894,3.189817,0.2728869,2.181584,3.898978,-0.4255385,-2.23382,-1.648499,0.966683,2.592522,1.078971,-1.524999,-3.101229],
[3.62839,1.250873,3.81037,2.537549,3.963932,0.2093233,-1.439019,2.155745,1.442591,3.277353,-2.370559,-0.860395,-0.1904963,-2.594583,-1.347819,-1.250169,1.535775,-3.383086,3.948113,-2.986815,3.83314,2.198217,1.497752,-3.631317,-0.9347053],
[-0.6131486,-2.689198,-1.264976,-1.059124,-1.078917,-2.328711,-0.5441073,0.500115,-0.9762166,3.081867,1.768875,3.391615,-2.651024,-0.4286721,2.98609,0.8340616,3.151654,3.533199,3.179331,0.09717354,-3.386353,1.60223,3.128549,1.802899,-1.808822],
[-0.06167286,2.164317,-3.077304,2.732357,3.48261,1.279106,-2.271251,-0.1843411,-1.692512,2.053169,-0.1409511,-1.372928,0.01287314,2.955805,-0.8906233,-0.3900694,-2.64857,-2.007011,-1.950475,-0.0177537,-0.9238326,-1.396264,0.3994184,0.2772261,3.826395],
[0.6832377,-3.857505,2.661711,-3.119395,-0.7793984,-1.776737,-1.383503,-0.1568426,-2.007231,-1.220834,3.793433,2.830392,-3.197415,1.446187,2.742743,1.165917,2.721888,3.555032,-2.45915,-2.208824,-3.865416,1.809788,2.623112,0.8207858,1.65111],
[1.054709,1.772935,-2.855644,-2.179605,-3.24647,-0.470055,1.179939,-1.251791,2.89197,-1.682865,-3.453681,2.920673,1.911539,0.9714074,-0.0003671255,-3.29852,-3.459008,-3.180646,0.9117406,-1.107887,1.04565,3.5937,-1.687521,1.803297,2.028693],
[1.876184,1.506133,0.8648575,3.260206,0.08094499,1.487821,-2.469607,1.847188,1.813765,3.310983,-2.336294,3.005442,1.975862,-3.385344,-2.429942,3.06675,-0.5810478,-0.5753796,3.508245,-3.431323,1.933653,2.099791,-2.946186,-3.913987,0.2379271],
[3.128417,2.753481,2.452044,-2.247993,-3.319827,0.1049437,0.9123981,-3.019971,-0.2933868,-0.1341426,1.635809,1.475114,-1.289609,-0.6622986,3.047549,-0.4511367,-2.662595,0.774076,2.710067,1.259817,-3.234489,0.4673975,-0.8218955,-1.397444,-1.963199],
[-3.879526,1.168636,0.5482217,-3.537837,1.557333,2.740567,-3.677463,-1.161919,2.682748,-2.304242,-1.64751,0.8606127,-0.125912,0.1573226,-0.1064858,-3.734414,-0.5633348,2.236706,2.971829,-2.844822,3.299186,3.272643,-0.4355205,-3.836542,-0.6717389],
[-1.578137,-1.564082,1.239018,0.0496979,-0.622781,-1.705032,-2.356574,0.05967613,1.712117,-1.292619,0.165311,-3.624359,1.648786,-2.990029,-3.483847,-2.621753,-2.441661,1.74354,-3.226523,2.041864,-2.309801,0.3267199,-3.324365,-2.860351,0.9634879],
[3.526497,3.136028,0.7966839,-1.619099,-2.085968,0.09890383,-1.478982,-2.910357,0.7557246,-1.258158,2.656987,-3.992242,-2.125986,-0.5032842,-0.7096133,-3.640451,2.756322,2.876575,3.755344,-0.8954827,-2.065666,1.351199,-2.002087,3.272245,2.152446],
[0.4327688,-3.890731,1.70757,0.5223086,-1.238783,-0.9479874,1.675699,0.3571143,1.559712,3.3088,-0.5068402,3.324495,3.792895,-1.655004,-1.554943,-1.850103,0.4198271,1.090212,0.7078368,-1.600641,0.9733878,0.3683107,-2.48684,1.366812,1.320102],
[2.007416,3.497719,1.661362,-1.433622,3.730272,0.663749,-3.170605,-2.150347,-3.576701,-0.1668666,-2.630246,-1.084379,2.121588,3.019225,2.658327,1.836602,0.2361923,-3.693322,-2.139245,-2.91966,-2.785837,-3.931175,-3.00573,0.2811841,2.114963],
[1.060904,2.092016,1.715404,3.10968,-3.943747,-1.887567,2.346394,2.230268,-0.6750186,0.5223926,-3.579707,3.418384,-1.529948,2.185763,-3.88981,-0.5777532,-3.555208,0.6560282,3.122252,2.914561,0.3888768,-2.5459,-1.257638,-0.09488028,-2.218473],
[1.377185,3.457872,3.922959,1.54664,-3.22836,-2.115551,-3.301776,2.834336,-3.769788,-3.86788,-1.754475,1.106118,1.210517,0.3942687,-0.7744355,-0.2793347,1.575138,1.052858,0.1033525,2.618355,1.695837,-0.9198431,-2.333428,-0.2840746,-2.83992],
[2.6224,3.154906,-3.184394,-2.838085,3.847762,-3.687928,1.631852,0.9324867,-3.4341,2.557114,0.01906213,-0.9661769,-3.408216,-0.40092,0.7870387,1.524796,2.303281,0.4155903,-2.148881,-2.012008,1.054619,1.31934,-1.820061,2.972224,-0.5221156],
[3.099421,-1.910437,1.6333,0.5900823,-2.951153,-2.262872,-2.879587,-3.163415,1.207463,-2.45356,0.3929585,2.130346,1.427922,1.78848,2.113584,-3.158532,1.598089,0.4759485,3.171053,-2.71087,-1.942121,-3.547178,3.485936,-1.341556,3.864751],
[3.474162,3.026991,1.329635,0.06607434,-2.129713,-1.399334,-0.9693351,-3.845513,-1.04656,3.726774,-0.5289487,1.409213,-2.236737,-1.212973,-1.141346,2.433163,-3.955833,-1.603421,0.1635711,1.563372,1.347854,3.705301,-0.1401893,3.349785,3.183997],
[1.182457,-1.043462,-3.479763,-1.53126,-0.1887746,-0.9798312,1.712535,3.791794,-2.13796,1.749302,-1.37641,0.9979374,-0.9418749,0.1939192,1.384963,1.610692,0.6331189,-0.5161011,3.28045,2.084892,-0.09195797,-2.334603,1.548185,-3.527969,-2.195055],
[0.7048986,0.3390743,0.6959315,1.524909,-3.58614,-1.849515,-1.130954,-2.207356,0.3176878,2.634019,-3.282606,-0.4689044,-2.660263,1.215174,0.7364859,-2.495183,-2.741555,3.590267,1.654945,1.902056,-2.46389,-3.506681,-2.479965,-2.348926,2.28396],
[-1.532676,-2.329755,0.388476,3.393105,-2.473331,0.0484954,-3.694559,-1.1941,-0.8502203,3.827191,3.623794,-1.377875,-0.8211189,-3.663448,-0.2957175,2.204699,3.423651,0.08253672,3.98649,-1.655626,-3.504864,2.899185,1.471696,-0.7372467,0.994782],
[3.760221,-2.567332,-0.3414347,0.6192045,3.981085,1.969854,0.7428787,2.259042,-2.324229,-3.955243,2.252897,-1.713114,-1.906022,-1.814095,-3.351669,1.354354,3.0817,-0.5273172,-0.005089311,2.066261,-3.96099,-0.2854715,-2.296681,-2.499068,-2.445194],
[3.753431,3.812415,2.116357,3.585332,1.236005,-1.621392,2.593985,3.23277,-1.436885,-0.5021173,-3.467429,-0.3497494,-0.6764414,-2.24961,-0.8067793,2.104225,-0.9615436,3.592282,-3.99129,-2.999597,-3.303706,1.164839,1.513286,3.912304,1.63459],
[-1.490088,-0.3723729,-2.951419,3.726047,0.7666559,0.6149142,-3.550837,-1.661648,3.709976,-1.938939,0.4594615,-3.961317,-3.921109,-1.394807,0.5836882,-0.9681919,-1.175043,3.050899,-3.034732,-2.791654,1.002618,1.811571,-3.317089,2.489071,-0.7836469]
],
[
[-3.309747,-0.0249344,2.142957,-2.571996,2.389605,-0.9263506,2.299239,-2.943788,0.006146193,2.598064,-2.395439,1.589856,-0.177644,-1.685721,2.324214,2.557783,3.289652,3.376971,0.01095542,-1.336918,-3.890614,2.758161,3.093263,-3.870636,2.757661],
[0.8507107,-0.6756492,-3.57827,2.593522,-1.598309,1.144186,3.884007,-3.181258,-3.998619,2.09194,-1.401117,-2.155378,3.029264,-2.787294,-2.8385,-0.1504878,3.639319,0.3300345,2.288618,-0.02087051,-1.205536,1.953636,-0.2511635,-3.26378,-0.4578984]
]
],
"biases":[
[
1.889672,0.7992602,-0.1377277,-1.164239,0.1252684,-0.2049069,1.782659,1.310374,1.096607,1.655956,-0.644348,-0.9841591,3.994818,-1.187227,3.423358,-0.1742415,3.191943,2.945623,-3.736365,-2.6491,2.568481,-0.3159415,1.028026,-0.6120213,-3.961882
],
[
3.241615,3.704916
]
]},
{
"fitness":1.566804,
"weights":[
[
[-3.918405,-0.9131234,1.848835,-0.6767324,-0.3716304,0.04443336,-3.668835,0.3861239,2.602194,1.767467,-1.556655,-3.264822,1.307081,-1.138104,0.915611,-0.389276,-0.03257703,2.824455,0.8856296,-1.251767,-2.254969,-1.551444,2.499728,-2.655441,-1.764358],
[2.731238,-2.398265,2.024655,-0.5807576,-3.51733,-1.460689,2.12534,-1.416244,3.127143,1.858596,1.906041,1.680467,-2.162894,3.189817,0.2728869,2.181584,3.898978,-0.4255385,-2.23382,-1.648499,0.966683,2.592522,1.078971,-0.6048529,-3.101229],
[3.62839,1.250873,3.81037,2.537549,3.963932,0.2093233,-1.439019,-1.000507,1.442591,-0.5652845,-2.370559,-0.860395,-0.1904963,-2.594583,-1.347819,-1.250169,1.535775,-3.303883,3.948113,-2.986815,3.83314,2.198217,1.497752,-3.631317,-0.9347053],
[-0.6131486,-2.689198,-1.264976,-1.059124,-1.078917,-2.328711,-0.5441073,0.500115,-0.9762166,3.081867,1.154811,3.391615,-2.651024,-0.4286721,2.98609,0.8340616,3.151654,3.533199,3.179331,0.09717354,-3.386353,1.60223,3.128549,1.802899,-1.808822],
[-0.06167286,2.164317,-3.077304,2.732357,3.48261,1.279106,-2.271251,-0.1843411,-1.692512,2.053169,-0.1409511,-1.372928,-2.566006,2.955805,-0.8906233,-0.3900694,-2.64857,-2.007011,-2.007867,-0.0177537,-0.9238326,-1.396264,0.3994184,0.2772261,3.826395],
[0.6832377,-3.857505,2.661711,-3.119395,-0.7793984,-1.776737,-1.383503,-0.1568426,-2.007231,-1.220834,3.793433,2.830392,-3.197415,1.446187,2.742743,2.496536,2.721888,3.555032,-2.45915,-2.208824,-3.865416,1.809788,2.623112,0.8207858,1.65111],
[1.054709,1.772935,-2.855644,-2.179605,-3.24647,-3.906026,1.179939,-1.251791,2.89197,-1.682865,-3.453681,2.920673,1.911539,0.9714074,-2.932632,-3.29852,-3.459008,-3.180646,0.9117406,-1.107887,1.04565,3.5937,-1.687521,1.803297,2.028693],
[1.876184,1.506133,0.8648575,3.260206,0.08094499,1.487821,-2.469607,1.847188,1.813765,3.310983,-2.336294,3.005442,1.975862,-3.385344,-2.429942,3.06675,-0.5810478,-0.5753796,3.508245,-3.431323,1.933653,2.099791,-2.946186,-3.913987,0.2379271],
[3.128417,2.753481,2.452044,-2.247993,-3.319827,0.1049437,-2.898634,-3.019971,-0.2933868,-0.1341426,1.635809,1.475114,-1.289609,-0.6622986,3.047549,-0.4511367,-2.662595,0.774076,2.710067,1.259817,-3.234489,0.4673975,-0.8218955,-1.397444,-1.963199],
[-3.879526,1.168636,0.5482217,-3.537837,1.557333,2.740567,-3.677463,-1.161919,2.682748,-2.304242,-1.64751,0.8606127,-0.125912,0.1699637,-0.1064858,-3.734414,-0.5633348,2.236706,2.971829,-2.844822,3.299186,3.272643,-0.4355205,-3.836542,-0.6717389],
[-1.578137,-1.564082,1.239018,0.0496979,-0.622781,-1.705032,-2.356574,0.05967613,1.712117,-1.292619,0.165311,-3.624359,1.648786,-2.990029,-3.483847,-2.621753,-2.441661,1.74354,-3.226523,2.041864,-2.309801,0.3267199,-3.324365,-2.860351,0.9634879],
[3.526497,3.136028,0.7966839,-1.619099,-2.085968,0.09890383,-1.478982,1.013852,0.7557246,-1.258158,2.656987,-3.992242,0.00716624,-0.5032842,-0.7096133,-3.640451,2.756322,2.876575,-2.263251,-0.8954827,-2.039654,1.351199,-2.002087,3.272245,2.152446],
[0.4327688,-3.890731,1.70757,0.5223086,-1.238783,-0.9479874,1.675699,0.3571143,1.559712,3.3088,-0.5068402,3.324495,3.792895,0.06470271,-1.554943,3.033586,0.4198271,1.090212,0.7078368,-1.600641,0.9733878,0.3683107,-2.48684,1.366812,1.320102],
[2.007416,3.497719,1.661362,-1.433622,3.730272,0.663749,-3.170605,-2.150347,-3.576701,-0.1668666,-2.630246,-1.084379,2.121588,3.019225,2.658327,-1.412814,0.2361923,-3.693322,-2.139245,-2.91966,-2.785837,-3.931175,-3.00573,0.2811841,2.114963],
[1.060904,2.092016,1.715404,3.10968,-3.943747,-1.887567,2.346394,2.230268,-0.6750186,0.5223926,-3.579707,0.8756335,-1.529948,2.185763,-3.88981,-0.5777532,-3.555208,0.6560282,3.122252,2.914561,0.3888768,-2.5459,-1.257638,-0.09488028,-2.218473],
[1.377185,3.457872,-1.503323,1.54664,-3.22836,-2.115551,-3.301776,2.834336,-3.769788,3.438737,-1.754475,1.106118,1.210517,0.3942687,-0.7744355,-0.2793347,1.575138,1.052858,0.1033525,2.618355,1.695837,-0.9198431,-2.333428,-0.2840746,-2.83992],
[2.6224,-2.464316,-3.184394,-2.838085,3.847762,1.645403,1.631852,0.9324867,-3.4341,2.557114,0.01906213,-0.9661769,-3.408216,-0.40092,0.7870387,1.524796,2.303281,0.4155903,-2.148881,-2.012008,2.316895,1.31934,-1.820061,2.972224,-0.5221156],
[3.099421,-1.910437,-2.660454,0.5900823,-2.951153,-2.262872,-2.879587,-3.163415,1.207463,-2.45356,0.3929585,2.130346,1.427922,1.78848,2.113584,-3.158532,1.598089,0.4759485,3.171053,-2.71087,-1.942121,-3.547178,3.485936,-1.341556,3.864751],
[3.474162,3.026991,1.329635,0.06607434,-2.129713,0.0006638132,-0.9693351,-3.845513,-1.04656,3.726774,-0.5289487,1.409213,-2.236737,-1.212973,-1.141346,2.433163,-3.955833,-1.603421,0.1635711,1.563372,1.347854,1.43003,-0.1401893,3.349785,3.183997],
[1.182457,-1.043462,-3.479763,-1.53126,-0.1887746,-0.9798312,1.712535,3.791794,-2.13796,1.749302,-1.37641,0.9979374,-0.9418749,0.1939192,1.384963,1.610692,0.6331189,-0.5161011,1.247934,2.084892,2.540904,-2.334603,1.548185,-3.527969,-2.195055],
[0.7048986,0.3390743,0.6959315,1.524909,-3.58614,-1.849515,-1.130954,0.3580244,0.3176878,2.634019,-3.282606,-0.4689044,-2.660263,1.215174,0.7364859,-2.495183,-2.741555,3.590267,1.654945,1.902056,-2.46389,-3.506681,-2.479965,-2.348926,2.28396],
[2.437973,-2.329755,0.388476,2.931351,-2.473331,0.0484954,-3.694559,-1.1941,-0.8502203,3.827191,3.623794,-1.377875,-0.8211189,-3.663448,-0.2957175,2.204699,3.423651,0.08253672,3.98649,-1.655626,-3.504864,2.899185,1.471696,-0.7372467,0.994782],
[3.760221,-2.567332,-0.3414347,0.6192045,3.981085,1.969854,0.7428787,2.259042,-2.324229,-3.955243,2.252897,-0.6642479,-1.906022,-1.814095,-3.055349,1.354354,3.0817,-0.5273172,-0.005089311,2.066261,-3.96099,-0.2854715,-2.296681,-2.499068,-2.445194],
[3.753431,3.812415,2.116357,3.585332,1.236005,-1.621392,2.593985,3.23277,-1.436885,-0.5021173,-3.467429,-0.3497494,-0.6764414,-2.24961,-0.8067793,2.104225,-0.9615436,3.592282,-3.99129,2.297967,-3.303706,1.164839,1.513286,3.912304,1.63459],
[-1.490088,-0.3723729,-2.951419,3.726047,0.7666559,0.6149142,-3.550837,-1.661648,3.709976,-1.938939,0.4594615,3.589338,-3.921109,-1.394807,0.5836882,-0.9681919,-1.175043,3.050899,-3.034732,-2.791654,1.002618,3.939234,-3.058451,2.489071,-0.7836469]
],
[
[-3.309747,-0.0249344,2.142957,-0.2712704,2.389605,-0.9263506,2.299239,-2.943788,0.006146193,2.598064,-2.395439,1.589856,-0.177644,-1.685721,2.324214,2.557783,3.289652,3.376971,0.01095542,-1.336918,-3.890614,3.974983,3.093263,-3.870636,2.757661],
[0.8507107,-0.6756492,-3.57827,2.593522,-1.598309,1.144186,3.884007,-3.181258,-3.998619,2.09194,-1.401117,-2.155378,3.029264,-2.787294,-2.8385,-0.1504878,3.639319,0.3300345,2.288618,3.275684,-1.205536,1.953636,-0.2511635,-3.26378,-0.4578984]
]
],
"biases":[
[
1.889672,0.7992602,-0.1377277,-1.164239,0.1252684,-0.2049069,1.782659,1.310374,1.096607,1.655956,-0.644348,-0.9841591,3.994818,-1.187227,3.423358,-0.1742415,3.191943,1.830591,0.4058895,-3.092804,2.568481,3.028468,1.028026,-0.6120213,-3.961882
],
[
3.241615,3.704916
]
]},
{
"fitness":1.566172,
"weights":[
[
[-3.918405,-0.2670445,1.848835,-0.6767324,-0.3716304,0.04443336,-3.668835,0.8193787,2.602194,1.767467,-1.556655,-3.264822,1.307081,1.244501,0.915611,-0.389276,-0.03257703,2.824455,3.192993,-1.251767,-2.254969,-2.819267,2.499728,-0.5033413,-1.764358],
[2.731238,-2.398265,2.024655,-0.5807576,-3.51733,-1.460689,2.12534,-3.116671,3.127143,1.858596,-0.04107016,1.680467,-2.162894,2.432884,0.2728869,2.181584,3.898978,-1.003041,-2.23382,-1.648499,0.966683,2.592522,1.078971,-1.524999,-3.101229],
[3.62839,2.827461,3.81037,2.537549,3.963932,0.2093233,0.8281275,-1.000507,1.442591,3.277353,-2.370559,-0.860395,-0.1904963,-2.594583,-1.347819,-1.250169,1.535775,-3.303883,3.948113,-2.986815,0.8865805,2.198217,1.497752,-0.7955454,-2.773402],
[-0.6131486,-2.689198,-1.264976,-2.757447,-3.254318,-2.328711,-0.5441073,0.500115,-0.9762166,3.081867,-0.3254766,3.391615,-2.651024,-0.4286721,2.98609,0.8340616,3.151654,3.533199,3.179331,0.09717354,-3.386353,-3.508761,3.128549,1.802899,-1.808822],
[-0.06167286,2.164317,-3.077304,-0.6786514,3.48261,1.279106,-2.271251,-0.1843411,-1.692512,2.053169,-0.1409511,-1.372928,-2.566006,2.955805,-0.8906233,3.546729,-2.64857,-2.007011,-1.950475,-0.0177537,-0.9238326,-1.396264,0.3994184,0.2772261,3.826395],
[0.6832377,-3.857505,2.661711,-3.119395,-1.633226,-1.776737,-1.383503,-0.1568426,-2.007231,-1.220834,3.793433,2.830392,-3.197415,1.446187,2.742743,2.496536,2.721888,3.555032,-1.991348,-2.208824,-3.865416,1.809788,2.623112,0.8207858,1.65111],
[1.054709,1.772935,0.8494017,-2.179605,-3.24647,-0.470055,1.179939,2.798385,2.89197,2.245357,-3.453681,2.94415,1.911539,1.038654,-2.932632,-3.29852,-3.459008,-3.180646,0.9117406,-1.107887,-1.839476,3.5937,-1.687521,1.803297,2.028693],
[1.876184,1.506133,0.8648575,3.927627,0.08094499,1.487821,-2.469607,1.847188,1.813765,3.310983,-2.336294,3.005442,1.975862,-3.385344,-2.429942,3.06675,-0.5810478,2.033765,3.508245,-3.431323,1.933653,2.099791,2.279318,-3.913987,0.2379271],
[3.065014,2.753481,3.052747,-2.247993,-3.319827,0.1049437,1.12068,-3.019971,-0.2933868,-0.1341426,1.635809,1.475114,-1.531378,-0.6622986,3.047549,-3.123861,-2.662595,-3.763395,2.710067,2.024305,-3.234489,0.4673975,-0.8218955,-1.397444,-1.963199],
[-3.879526,1.168636,0.5482217,-3.537837,1.557333,2.740567,-3.677463,-1.161919,2.682748,-2.304242,-1.64751,0.8606127,-0.125912,0.1573226,-0.1064858,-3.734414,1.246231,2.236706,2.971829,-2.844822,3.299186,3.272643,-0.4355205,-3.836542,-0.6717389],
[2.443062,-1.564082,1.239018,0.0496979,-0.622781,-1.705032,3.057583,-3.727121,1.712117,-1.292619,0.165311,0.4976436,1.648786,-2.990029,-3.127804,-2.621753,-2.441661,1.74354,-3.226523,2.041864,1.180996,2.904946,-3.324365,0.1219189,0.9634879],
[3.526497,3.136028,0.7966839,-1.619099,1.701228,0.09890383,-1.478982,-3.019395,0.7557246,-1.258158,2.656987,-0.3285926,-2.125986,-0.5032842,-0.7096133,-3.640451,2.756322,2.876575,3.755344,-0.8954827,-2.039654,1.351199,-2.002087,3.272245,2.152446],
[0.4327688,-3.890731,1.70757,0.5223086,-1.238783,-0.9479874,1.675699,0.3571143,-0.2096897,3.3088,-0.3345568,3.324495,3.792895,-1.655004,-1.554943,3.033586,0.4198271,1.090212,-3.85772,-1.600641,0.9733878,0.3683107,-2.48684,1.366812,-2.172313],
[2.007416,3.497719,1.661362,-1.433622,3.730272,0.663749,-3.170605,-2.150347,-3.576701,-0.1668666,-2.630246,-1.084379,2.121588,3.019225,2.658327,-1.412814,0.2361923,-3.693322,-2.139245,-2.91966,-2.785837,-3.931175,-3.00573,0.2811841,2.114963],
[-1.797643,2.092016,1.715404,3.10968,-3.943747,-1.887567,2.346394,2.230268,-0.6750186,0.5223926,-3.579707,3.045974,-1.529948,2.185763,-3.88981,-0.5777532,-3.555208,0.5450703,3.122252,-3.789287,0.3888768,-2.5459,-1.257638,-0.09488028,-2.218473],
[0.04677576,3.457872,-1.503323,1.54664,0.7724607,-2.115551,-3.301776,2.834336,-3.769788,3.438737,-1.754475,-3.987444,1.210517,0.3942687,-0.7744355,-0.2793347,1.575138,1.052858,0.1033525,2.618355,1.695837,-2.587322,-2.333428,-0.2840746,-2.83992],
[2.6224,-2.464316,-3.184394,-2.838085,3.847762,-0.4046324,1.631852,0.9324867,-3.84063,2.557114,0.01906213,-0.9661769,-3.408216,-0.598538,0.7870387,1.524796,2.303281,0.4155903,-0.4220811,-2.012008,2.316895,-0.9428799,-2.713428,2.972224,-0.5221156],
[3.099421,-1.910437,-2.660454,0.5900823,-2.951153,-2.262872,-2.879587,-3.163415,1.207463,-2.45356,0.3929585,3.373855,1.427922,1.78848,2.113584,-3.158532,1.598089,0.4759485,3.171053,-2.71087,-1.942121,-1.423055,3.485936,-1.341556,-1.090305],
[-0.133818,3.026991,0.1320739,0.06607434,-2.129713,3.591345,-0.9693351,-3.845513,1.717205,3.726774,-0.5289487,-1.402808,-2.236737,-1.212973,-1.141346,2.433163,2.953524,-1.603421,0.1635711,1.563372,1.347854,3.705301,1.245883,3.349785,3.183997],
[1.182457,0.8684528,-3.479763,-1.53126,-0.1887746,-0.9798312,1.712535,3.791794,-2.13796,1.749302,-1.37641,0.9979374,-0.9418749,0.1939192,1.384963,1.610692,0.6331189,-0.5161011,3.28045,2.084892,2.540904,-2.334603,1.548185,-3.527969,-2.195055],
[3.584657,0.3390743,0.6959315,-3.354168,-3.58614,-1.849515,-1.130954,0.3580244,0.3176878,-2.397638,-3.951276,-0.4689044,-0.5165843,0.8063327,0.7364859,-2.495183,-2.741555,3.590267,1.654945,1.902056,-2.46389,-3.506681,-2.479965,-2.348926,2.28396],
[-1.532676,-2.329755,0.388476,0.3125249,-2.473331,0.0484954,-3.694559,-1.1941,-0.8502203,0.4472655,3.623794,-1.377875,-0.8211189,-3.663448,-0.2957175,2.204699,3.423651,-0.9174175,3.98649,-1.655626,-1.708495,2.899185,1.471696,-0.7372467,0.994782],
[3.760221,-2.567332,-0.3414347,0.6192045,3.981085,1.969854,0.7428787,2.259042,-2.324229,-3.955243,2.252897,-1.713114,-1.906022,-1.814095,-3.351669,1.354354,3.0817,-2.416694,-0.005089311,2.066261,-3.96099,-0.2854715,-2.296681,-2.499068,-2.445194],
[3.753431,3.812415,2.116357,3.585332,1.236005,-1.621392,2.593985,3.23277,-1.436885,-0.5021173,-3.467429,-0.3497494,-0.6764414,-2.24961,-0.8067793,2.104225,-0.9615436,3.592282,-3.99129,-2.999597,-3.303706,1.164839,1.513286,3.912304,1.63459],
[-1.490088,-0.3723729,-2.951419,3.726047,0.7666559,0.6149142,-3.550837,-1.661648,-3.665346,0.6462162,0.4594615,-3.961317,-3.921109,-1.394807,0.5836882,-0.9681919,-1.175043,3.050899,-3.034732,-2.791654,1.002618,1.811571,-3.317089,2.489071,-0.7779945]
],
[
[-3.309747,-0.0249344,2.142957,-3.439741,2.389605,-0.9263506,2.299239,-0.9339131,0.006146193,2.598064,-2.395439,1.589856,-0.177644,-1.685721,2.324214,2.557783,3.289652,3.376971,0.01095542,-1.336918,-3.890614,3.974983,3.093263,-3.870636,2.757661],
[1.394002,-0.6756492,-3.57827,3.911775,-1.598309,1.144186,3.884007,-3.181258,-3.998619,2.09194,-1.401117,-2.155378,3.029264,-2.787294,-2.8385,-0.1504878,3.639319,-1.104291,2.288618,-0.02087051,-1.205536,1.953636,-0.2511635,-3.26378,-0.4578984]
]
],
"biases":[
[
1.889672,0.7992602,-0.1377277,-1.164239,2.729195,-0.2049069,1.782659,1.310374,1.096607,1.655956,-0.644348,-0.9841591,3.994818,-1.187227,3.423358,-0.3154958,3.191943,2.945623,-3.736365,-2.6491,2.568481,3.028468,1.028026,-0.6120213,-3.961882
],
[
3.241615,3.704916
]
]},
{
"fitness":1.563129,
"weights":[
[
[-3.918405,-0.9131234,1.848835,-0.6767324,-0.3716304,0.04443336,-3.668835,0.3861239,2.602194,1.767467,-1.556655,-3.264822,1.307081,-1.138104,-1.344332,-0.389276,-0.03257703,2.824455,0.8856296,-1.251767,-2.254969,-2.819267,2.499728,-0.5033413,-1.764358],
[-1.834012,-2.398265,2.024655,-0.5807576,-3.51733,-1.460689,2.12534,-3.116671,3.127143,1.858596,1.906041,1.680467,-2.162894,3.189817,0.2728869,2.181584,3.898978,-1.003041,-2.23382,3.51511,0.966683,2.592522,1.078971,-1.524999,-3.101229],
[3.62839,-0.05618456,3.81037,2.537549,3.963932,3.284244,0.8281275,-1.000507,1.442591,3.277353,-2.370559,-0.860395,-0.1904963,-2.594583,-1.347819,-1.250169,1.535775,-3.303883,3.948113,0.6760125,1.803175,2.198217,1.497752,-3.631317,-0.9347053],
[-0.6131486,-2.689198,-1.264976,-1.059124,-3.108065,-2.328711,-0.5441073,0.500115,-0.9762166,3.081867,1.154811,3.391615,-2.651024,-0.4286721,2.98609,3.739116,3.151654,3.533199,3.179331,0.09717354,-3.386353,1.60223,3.128549,1.802899,-1.808822],
[-0.06167286,2.164317,-3.077304,2.732357,3.48261,1.279106,-2.271251,-0.1843411,-1.692512,2.053169,-0.1409511,-1.372928,-2.566006,2.955805,-0.8906233,-0.3900694,-2.64857,-2.007011,0.8523433,-0.0177537,-0.9238326,-1.396264,0.3994184,3.444582,3.826395],
[0.6832377,-3.857505,2.661711,-3.119395,-0.7793984,-1.776737,-1.383503,-0.1568426,-2.007231,-1.220834,3.793433,2.830392,-3.197415,-3.239425,2.742743,2.496536,2.721888,3.555032,-2.45915,-2.208824,-3.865416,1.809788,2.623112,0.8207858,1.65111],
[1.054709,1.246658,-2.855644,-2.179605,-3.24647,-0.470055,1.179939,-1.251791,2.89197,-1.682865,-2.028857,2.920673,3.718337,1.332319,-2.932632,-0.8587535,-3.459008,-3.180646,0.9117406,-1.107887,1.04565,3.5937,-1.687521,-1.707748,2.028693],
[1.876184,1.506133,0.8648575,3.260206,0.08094499,1.487821,-2.469607,1.847188,1.813765,3.310983,-2.336294,3.005442,1.975862,-3.385344,-2.429942,3.06675,-0.5810478,-0.5753796,3.508245,-3.431323,1.933653,2.099791,-2.946186,-3.913987,0.2379271],
[3.065014,2.753481,2.452044,-2.247993,-3.319827,0.1049437,1.12068,-3.019971,-0.2933868,-0.1341426,1.635809,1.475114,-1.531378,-0.6622986,3.047549,-3.123861,-2.662595,0.774076,2.710067,1.259817,-3.234489,0.4673975,-0.8218955,-1.397444,-1.963199],
[-3.879526,1.168636,-1.883911,-3.537837,1.557333,2.740567,0.9132534,-1.161919,2.682748,-2.304242,-1.64751,0.8606127,-0.125912,0.1573226,-0.1064858,-3.734414,1.246231,2.236706,2.971829,-2.844822,3.299186,3.272643,-0.4355205,-3.836542,-0.6717389],
[-1.578137,-1.564082,1.239018,0.0496979,-0.622781,-0.5068985,-2.356574,0.05967613,1.712117,-1.292619,0.165311,-3.624359,1.648786,-2.990029,-3.483847,-2.621753,-2.441661,1.74354,-3.226523,2.041864,-2.309801,0.3267199,-3.324365,0.1219189,0.9634879],
[3.526497,3.136028,0.7966839,3.876861,3.763918,0.09890383,-1.478982,1.013852,0.7557246,-1.258158,2.656987,-3.992242,-2.125986,-0.5032842,-0.7096133,-3.640451,2.756322,2.876575,3.755344,-0.8954827,-2.039654,1.351199,-2.57608,3.272245,2.152446],
[0.4327688,-3.890731,1.70757,0.5223086,-1.238783,-0.9479874,1.675699,0.3571143,1.559712,3.3088,-0.5068402,3.324495,3.792895,-1.655004,-1.554943,3.033586,0.4198271,1.090212,0.7078368,-1.600641,0.9733878,0.3683107,-2.48684,1.366812,-2.172313],
[2.007416,3.497719,1.661362,-1.433622,3.730272,0.663749,-3.170605,-2.150347,-3.576701,-0.1668666,-2.630246,-1.084379,2.121588,3.019225,2.658327,-1.412814,0.2361923,-3.693322,-2.139245,-2.91966,-2.785837,-1.163935,-3.00573,0.2811841,2.114963],
[1.060904,2.092016,1.715404,3.10968,-3.943747,-1.887567,2.346394,2.230268,-0.6750186,0.2586162,-3.579707,3.045974,-1.529948,2.185763,-3.88981,-0.5777532,-3.555208,0.6560282,3.122252,2.914561,0.3888768,-2.5459,-1.257638,-2.62126,-2.218473],
[1.377185,3.457872,-1.503323,1.54664,0.7724607,-2.115551,-3.301776,2.834336,-3.769788,3.438737,-1.754475,1.106118,2.645937,0.3942687,-0.7744355,1.997404,1.575138,1.052858,0.1033525,2.618355,1.695837,-0.9198431,-2.333428,-0.2840746,-2.83992],
[2.6224,-2.464316,-3.184394,-2.838085,3.847762,-0.4046324,1.631852,0.9324867,-3.4341,2.557114,1.726255,-0.9661769,-3.408216,-0.40092,0.7870387,1.524796,-0.4650712,0.4155903,-2.148881,-2.012008,2.316895,-0.9428799,-1.820061,2.972224,-0.5221156],
[3.099421,-1.910437,-2.660454,0.5900823,-2.951153,-2.262872,-2.879587,-3.163415,1.207463,-2.45356,0.3929585,3.373855,1.427922,1.78848,2.113584,-3.158532,1.598089,0.4759485,3.171053,-2.71087,-1.942121,-3.547178,3.485936,-1.341556,3.864751],
[-0.6564603,3.026991,1.329635,0.06607434,-2.129713,-1.399334,-0.9693351,-3.845513,-1.04656,3.726774,1.086876,1.409213,-2.236737,-1.212973,-1.141346,2.433163,3.653519,-1.603421,0.1635711,1.563372,1.347854,3.705301,-0.1401893,3.349785,3.183997],
[1.182457,-1.043462,-3.479763,-1.53126,-0.1887746,-0.9798312,1.712535,3.791794,-2.13796,1.749302,-1.37641,0.9979374,-0.9418749,0.1939192,1.384963,1.610692,0.6331189,-0.5161011,3.28045,0.4987966,2.540904,-2.334603,1.548185,-3.527969,-2.195055],
[0.7048986,0.3390743,0.6959315,1.524909,-0.3321626,-1.849515,-1.130954,0.3580244,0.3176878,2.634019,-3.951276,-0.4689044,-2.660263,0.8063327,0.7364859,-2.495183,-2.741555,3.590267,1.654945,1.902056,-2.46389,-3.506681,-2.479965,-2.348926,2.28396],
[-1.532676,-2.329755,0.388476,3.393105,-2.473331,0.0484954,-3.694559,-1.1941,-0.8502203,3.827191,1.745645,-1.377875,-0.8211189,-3.663448,-0.2957175,2.204699,3.423651,-0.9174175,3.98649,-1.655626,-3.504864,2.899185,-1.573663,-0.7372467,0.994782],
[3.760221,-3.214293,-0.3414347,0.6192045,3.981085,1.969854,1.034103,2.259042,-2.324229,-3.955243,2.252897,-1.713114,-1.906022,-1.814095,-3.351669,0.5953557,3.0817,-0.5273172,-0.005089311,2.066261,-3.96099,-0.2854715,-2.296681,-2.499068,-2.445194],
[3.753431,3.812415,2.116357,3.585332,1.236005,2.371414,2.593985,3.23277,-1.436885,-0.5021173,-3.467429,-0.3497494,-0.6764414,-3.020285,-0.8067793,2.104225,-0.9615436,2.939734,-3.99129,-2.999597,-3.303706,1.164839,1.513286,3.912304,1.63459],
[-3.635253,-0.3723729,-2.951419,-0.06841461,0.7666559,0.6149142,-3.550837,-1.661648,3.709976,-1.938939,-3.997904,-3.961317,-3.921109,-1.394807,0.5836882,-3.191772,-1.175043,3.050899,-3.034732,-2.791654,1.002618,3.273988,-3.317089,2.489071,-0.7836469]
],
[
[-3.309747,-0.0249344,2.142957,-3.439741,2.389605,-0.9263506,2.299239,-2.943788,3.062344,2.598064,-2.395439,1.589856,-0.177644,-1.685721,2.324214,2.557783,3.289652,3.376971,0.01095542,-1.336918,-3.890614,3.974983,3.093263,-3.870636,2.757661],
[0.8507107,-0.6756492,-3.57827,2.593522,-1.598309,1.144186,3.884007,-3.181258,-3.998619,2.09194,-1.401117,-2.155378,3.029264,-2.787294,-2.8385,-0.1504878,3.639319,0.3300345,2.288618,-0.02087051,-1.205536,1.953636,-0.2511635,-3.26378,-0.4578984]
]
],
"biases":[
[
1.889672,0.7992602,-0.1377277,-1.164239,0.1252684,-0.2049069,1.782659,1.310374,1.096607,1.655956,-0.644348,-0.9841591,3.994818,-1.187227,3.423358,-0.3154958,3.191943,2.945623,-3.736365,-2.6491,2.568481,3.028468,1.028026,-0.6120213,-3.961882
],
[
3.241615,3.704916
]
]},
{
"fitness":1.562468,
"weights":[
[
[-3.918405,-0.9131234,1.848835,-0.6767324,-0.3716304,0.04443336,-3.668835,0.3861239,2.602194,1.767467,-1.556655,-3.264822,1.307081,-1.138104,0.915611,-0.389276,-0.03257703,2.824455,0.8856296,-1.251767,-2.254969,-2.819267,2.499728,-0.5033413,-1.764358],
[2.731238,-2.398265,2.024655,-0.5807576,-3.51733,-1.460689,2.12534,-1.416244,3.127143,1.858596,1.906041,1.680467,-2.162894,3.189817,0.2728869,2.181584,3.898978,-0.4255385,-2.23382,-1.648499,0.966683,2.592522,1.078971,-1.524999,-3.101229],
[3.62839,1.250873,3.81037,2.537549,3.963932,0.2093233,-1.439019,2.155745,1.442591,3.277353,-2.370559,-0.860395,-0.1904963,-2.594583,-1.347819,-1.250169,1.535775,-3.383086,3.948113,-2.986815,3.83314,2.198217,1.497752,-3.631317,-0.9347053],
[-0.6131486,-2.689198,-1.264976,-1.059124,-1.078917,-2.328711,-0.5441073,0.500115,-0.9762166,3.081867,1.154811,3.391615,-2.651024,-0.4286721,2.98609,0.8340616,3.151654,3.533199,3.179331,0.09717354,-3.386353,1.60223,3.128549,1.802899,-1.808822],
[-0.06167286,2.164317,-3.077304,2.732357,3.48261,1.279106,-2.271251,-0.1843411,-1.692512,2.053169,-0.1409511,-1.372928,-2.566006,2.955805,-0.8906233,-0.3900694,-2.64857,-2.007011,-1.950475,-0.0177537,-0.9238326,-1.396264,0.3994184,0.2772261,3.826395],
[0.6832377,-3.857505,2.661711,-3.119395,-0.7793984,-1.776737,-1.383503,-0.1568426,-2.007231,-1.220834,3.793433,2.830392,-3.197415,1.446187,2.742743,1.165917,2.721888,3.555032,-2.45915,-2.208824,-3.865416,1.809788,2.623112,0.8207858,1.65111],
[1.054709,1.772935,-2.855644,-2.179605,-3.24647,-0.470055,1.179939,-1.251791,2.89197,-1.682865,-3.453681,2.920673,1.911539,0.9714074,-2.932632,-3.29852,-3.459008,-3.180646,0.9117406,-1.107887,1.04565,3.5937,-1.687521,1.803297,2.028693],
[1.876184,1.506133,0.8648575,3.260206,0.08094499,1.487821,-2.469607,1.847188,1.813765,3.310983,-2.336294,3.005442,1.975862,-3.385344,-2.429942,3.06675,-0.5810478,-0.5753796,3.508245,-3.431323,1.933653,2.099791,-2.946186,-3.913987,0.2379271],
[3.128417,2.753481,2.452044,-2.247993,-3.319827,0.1049437,1.12068,-3.019971,-0.2933868,-0.1341426,1.635809,1.475114,-1.289609,-0.6622986,3.047549,-0.4511367,-2.662595,0.774076,2.710067,1.259817,-3.234489,0.4673975,-0.8218955,-1.397444,-1.963199],
[-3.879526,1.168636,0.5482217,-3.537837,1.557333,2.740567,-3.677463,-1.161919,2.682748,-2.304242,-1.64751,0.8606127,-0.125912,0.1573226,-0.1064858,-3.734414,-0.5633348,2.236706,2.971829,-2.844822,3.299186,3.272643,-0.4355205,-3.836542,-0.6717389],
[-1.578137,-1.564082,1.239018,0.0496979,-0.622781,-1.705032,-2.356574,0.05967613,1.712117,-1.292619,0.165311,-3.624359,1.648786,-2.990029,-3.483847,-2.621753,-2.441661,1.74354,-3.226523,2.041864,-2.309801,0.3267199,-3.324365,-2.860351,0.9634879],
[3.526497,3.136028,0.7966839,-1.619099,-2.085968,0.09890383,-1.478982,-2.910357,0.7557246,-1.258158,2.656987,-3.992242,-2.125986,-0.5032842,-0.7096133,-3.640451,2.756322,2.876575,3.755344,-0.8954827,-2.039654,1.351199,-2.002087,3.272245,2.152446],
[0.4327688,-3.890731,1.70757,0.5223086,-1.238783,-0.9479874,1.675699,0.3571143,1.559712,3.3088,-0.5068402,3.324495,3.792895,-1.655004,-1.554943,3.033586,0.4198271,1.090212,0.7078368,-1.600641,0.9733878,0.3683107,-2.48684,1.366812,1.320102],
[2.007416,3.497719,1.661362,-1.433622,3.730272,0.663749,-3.170605,-2.150347,-3.576701,-0.1668666,-2.630246,-1.084379,2.121588,3.019225,2.658327,1.836602,0.2361923,-3.693322,-2.139245,-2.91966,-2.785837,-3.931175,-3.00573,0.2811841,2.114963],
[1.060904,2.092016,1.715404,3.10968,-3.943747,-1.887567,2.346394,2.230268,-0.6750186,0.5223926,-3.579707,3.418384,-1.529948,2.185763,-3.88981,-0.5777532,-3.555208,0.6560282,3.122252,2.914561,0.3888768,-2.5459,-1.257638,-0.09488028,-2.218473],
[1.377185,3.457872,3.922959,1.54664,-3.22836,-2.115551,-3.301776,2.834336,-3.769788,3.438737,-1.754475,1.106118,1.210517,0.3942687,-0.7744355,-0.2793347,1.575138,1.052858,0.1033525,2.618355,1.695837,-0.9198431,-2.333428,-0.2840746,-2.83992],
[2.6224,3.154906,-3.184394,-2.838085,3.847762,-0.4046324,1.631852,0.9324867,-3.4341,2.557114,0.01906213,-0.9661769,-3.408216,-0.40092,0.7870387,1.524796,2.303281,0.4155903,-2.148881,-2.012008,1.054619,1.31934,-1.820061,2.972224,-0.5221156],
[3.099421,-1.910437,1.6333,0.5900823,-2.951153,-2.262872,-2.879587,-3.163415,1.207463,-2.45356,0.3929585,2.130346,1.427922,1.78848,2.113584,-3.158532,1.598089,0.4759485,3.171053,-2.71087,-1.942121,-3.547178,3.485936,-1.341556,3.864751],
[3.474162,3.026991,1.329635,0.06607434,-2.129713,-1.399334,-0.9693351,-3.845513,-1.04656,3.726774,-0.5289487,1.409213,-2.236737,-1.212973,-1.141346,2.433163,-3.955833,-1.603421,0.1635711,1.563372,1.347854,3.705301,-0.1401893,3.349785,3.183997],
[1.182457,-1.043462,-3.479763,-1.53126,-0.1887746,-0.9798312,1.712535,3.791794,-2.13796,1.749302,-1.37641,0.9979374,-0.9418749,0.1939192,1.384963,1.610692,0.6331189,-0.5161011,3.28045,2.084892,-0.09195797,-2.334603,1.548185,-3.527969,-2.195055],
[0.7048986,0.3390743,0.6959315,1.524909,-3.58614,-1.849515,-1.130954,0.3580244,0.3176878,2.634019,-3.282606,-0.4689044,-2.660263,1.215174,0.7364859,-2.495183,-2.741555,3.590267,1.654945,1.902056,-2.46389,-3.506681,-2.479965,-2.348926,2.28396],
[-1.532676,-2.329755,0.388476,3.393105,-2.473331,0.0484954,-3.694559,-1.1941,-0.8502203,3.827191,3.623794,-1.377875,-0.8211189,-3.663448,-0.2957175,2.204699,3.423651,0.08253672,3.98649,-1.655626,-3.504864,2.899185,1.471696,-0.7372467,0.994782],
[3.760221,-2.567332,-0.3414347,0.6192045,3.981085,1.969854,0.7428787,2.259042,-2.324229,-3.955243,2.252897,-1.713114,-1.906022,-1.814095,-3.351669,1.354354,3.0817,-0.5273172,-0.005089311,2.066261,-3.96099,-0.2854715,-2.296681,-2.499068,-2.445194],
[3.753431,3.812415,2.116357,3.585332,1.236005,-1.621392,2.593985,3.23277,-1.436885,-0.5021173,-3.467429,-0.3497494,-0.6764414,-2.24961,-0.8067793,2.104225,-0.9615436,3.592282,-3.99129,-2.999597,-3.303706,1.164839,1.513286,3.912304,1.63459],
[-1.490088,-0.3723729,-2.951419,3.726047,0.7666559,0.6149142,-3.550837,-1.661648,3.709976,-1.938939,0.4594615,-3.961317,-3.921109,-1.394807,0.5836882,-0.9681919,-1.175043,3.050899,-3.034732,-2.791654,1.002618,1.811571,-3.317089,2.489071,-0.7836469]
],
[
[-3.309747,-0.0249344,2.142957,-2.571996,2.389605,-0.9263506,2.299239,-2.943788,0.006146193,2.598064,-2.395439,1.589856,-0.177644,-1.685721,2.324214,2.557783,3.289652,3.376971,0.01095542,-1.336918,-3.890614,2.758161,3.093263,-3.870636,2.757661],
[0.8507107,-0.6756492,-3.57827,2.593522,-1.598309,1.144186,3.884007,-3.181258,-3.998619,2.09194,-1.401117,-2.155378,3.029264,-2.787294,-2.8385,-0.1504878,3.639319,0.3300345,2.288618,-0.02087051,-1.205536,1.953636,-0.2511635,-3.26378,-0.4578984]
]
],
"biases":[
[
1.889672,0.7992602,-0.1377277,-1.164239,0.1252684,-0.2049069,1.782659,1.310374,1.096607,1.655956,-0.644348,-0.9841591,3.994818,-1.187227,3.423358,-0.1742415,3.191943,2.945623,-3.736365,-2.6491,2.568481,-0.3159415,1.028026,-0.6120213,-3.961882
],
[
3.241615,3.704916
]
]},
{
"fitness":1.543049,
"weights":[
[
[-3.918405,-0.9131234,1.848835,-0.6767324,-0.3716304,0.04443336,-3.668835,0.3861239,2.602194,1.767467,-1.556655,-3.264822,1.307081,-3.393439,0.915611,-0.389276,-0.03257703,2.824455,0.8856296,-1.251767,-2.254969,-2.819267,2.499728,-0.5033413,-1.764358],
[2.731238,-2.398265,2.024655,-0.5807576,-3.51733,-1.460689,2.12534,-3.116671,0.4559838,1.858596,1.906041,1.680467,-2.162894,3.189817,0.2728869,2.181584,3.898978,-1.003041,-2.23382,3.51511,0.966683,2.592522,1.078971,-1.524999,-3.101229],
[3.62839,-0.05618456,3.81037,2.537549,3.963932,3.284244,0.8281275,-1.000507,1.442591,3.277353,-2.370559,-0.860395,-0.1904963,-2.594583,-1.347819,-1.250169,1.535775,-3.303883,3.948113,0.6760125,1.803175,2.198217,1.497752,-3.631317,-0.9347053],
[-0.6131486,-2.689198,-1.264976,-1.059124,-1.078917,-2.328711,-0.5441073,0.500115,-0.9762166,3.081867,1.154811,-0.8334589,-2.651024,-0.4286721,2.98609,0.8340616,3.151654,3.533199,3.179331,0.09717354,-3.386353,1.60223,3.128549,3.693172,-1.808822],
[-0.06167286,2.164317,-3.077304,2.732357,3.48261,1.279106,-2.271251,-0.1843411,-1.692512,2.053169,-0.1409511,-1.372928,-2.566006,2.955805,-0.8906233,-0.3900694,-2.64857,-2.007011,-1.950475,-0.0177537,-0.9238326,-1.396264,0.3994184,3.444582,3.826395],
[0.6832377,-3.857505,2.661711,-3.119395,-0.7793984,-1.776737,-1.383503,-0.1568426,-2.007231,-1.220834,3.793433,2.830392,-3.197415,1.446187,2.742743,2.496536,2.721888,3.555032,-2.45915,-2.208824,-3.865416,1.809788,2.623112,0.8207858,1.65111],
[1.054709,1.772935,-2.855644,-2.179605,-3.24647,-0.470055,1.179939,-1.251791,2.89197,-1.682865,-3.453681,2.920673,1.911539,1.332319,-2.932632,-0.8587535,-3.459008,-3.180646,0.9117406,-1.107887,1.04565,3.5937,-1.687521,-1.707748,2.028693],
[1.876184,1.506133,0.8648575,3.260206,0.08094499,-3.625893,-2.469607,1.847188,1.813765,3.310983,-2.336294,3.005442,1.975862,-3.385344,-2.429942,3.06675,-0.5810478,-0.5753796,3.508245,-3.431323,1.933653,2.099791,-2.946186,-3.913987,0.2379271],
[3.065014,2.753481,2.452044,-2.247993,-3.319827,0.1049437,1.12068,-3.019971,-0.2933868,-0.1341426,1.635809,1.475114,-1.531378,-0.6622986,3.047549,-3.123861,-2.662595,0.774076,0.7375746,1.259817,-3.234489,0.4673975,-0.8218955,-1.397444,-1.963199],
[-3.879526,1.168636,0.5482217,-3.537837,1.557333,2.740567,0.9132534,-1.161919,2.682748,-2.304242,-1.64751,0.8606127,-0.125912,0.1573226,-0.1064858,-3.734414,1.246231,2.236706,2.971829,-2.844822,3.299186,0.1644214,-0.4355205,-3.836542,-0.6717389],
[-1.578137,-1.564082,1.239018,0.0496979,-0.622781,-1.705032,-2.356574,0.05967613,1.712117,-1.292619,0.165311,-3.624359,1.648786,-2.990029,-3.483847,-2.621753,-2.441661,1.74354,-3.226523,2.041864,-2.309801,0.3267199,-3.324365,0.1219189,0.9634879],
[3.526497,3.136028,0.7966839,3.876861,3.763918,0.09890383,-1.478982,1.013852,0.7557246,-1.258158,2.656987,-3.992242,-2.125986,-0.5032842,-0.7096133,-3.640451,2.756322,2.876575,3.755344,-0.8954827,-2.039654,1.351199,-2.57608,3.272245,2.152446],
[0.4327688,-3.890731,1.70757,0.5223086,-1.238783,-0.9479874,1.675699,0.3571143,1.559712,3.3088,-0.5068402,3.324495,3.792895,-1.655004,-1.554943,3.033586,0.4198271,1.090212,0.7078368,-1.600641,0.9733878,0.3683107,-2.48684,1.366812,-2.172313],
[2.007416,3.497719,1.661362,-1.433622,3.730272,0.663749,-3.170605,-2.150347,-3.576701,-0.1668666,-2.630246,-1.084379,2.121588,3.019225,2.658327,-1.412814,0.2361923,-3.693322,-2.139245,-2.91966,-2.785837,-3.931175,-3.00573,0.2811841,2.114963],
[1.060904,2.092016,1.715404,3.10968,-3.943747,-1.887567,2.346394,2.230268,-0.6750186,0.2586162,-3.579707,3.045974,-1.529948,2.185763,-3.88981,-0.5777532,-3.555208,0.6560282,3.122252,2.914561,0.3888768,-2.5459,-3.165236,-0.09488028,-2.218473],
[1.377185,3.457872,-1.503323,1.54664,0.7724607,-2.115551,-3.301776,2.834336,-3.769788,3.438737,-1.754475,1.106118,2.645937,0.3942687,-0.7744355,-0.2793347,1.575138,1.052858,0.1033525,2.618355,1.695837,-0.9198431,-2.333428,-0.2840746,-2.83992],
[2.6224,-2.464316,-3.184394,-2.838085,3.847762,-0.4046324,1.631852,0.9324867,-3.4341,2.557114,0.01906213,-0.9661769,-3.408216,-0.40092,0.7870387,1.524796,-1.54749,0.4155903,-2.148881,-2.012008,2.316895,-0.9428799,-1.820061,2.972224,-0.5221156],
[3.099421,-1.910437,-2.660454,0.5900823,-2.951153,-2.262872,-2.879587,-3.163415,1.207463,-2.45356,0.3929585,3.373855,1.427922,1.78848,2.113584,-3.158532,1.598089,0.4759485,1.729273,-2.71087,-1.942121,-3.547178,3.485936,-1.341556,3.864751],
[-0.6564603,3.026991,1.329635,0.06607434,-2.129713,-1.399334,-0.9693351,-3.845513,-1.04656,3.726774,1.086876,1.409213,-2.236737,-1.212973,-1.141346,2.433163,2.953524,-1.603421,0.1635711,1.563372,-3.721474,3.705301,-0.1401893,3.349785,3.183997],
[1.182457,-1.043462,-3.479763,-1.53126,-0.1887746,-0.9798312,1.712535,3.791794,-2.13796,1.749302,-1.37641,0.9979374,-0.9418749,0.1939192,1.384963,1.610692,0.6331189,-0.5161011,3.28045,0.4987966,2.540904,-2.334603,1.548185,-3.527969,-2.195055],
[0.7048986,0.3390743,0.6959315,1.524909,-0.3321626,-1.849515,-1.130954,0.3580244,0.3176878,2.634019,-3.951276,-0.4689044,-2.660263,0.8063327,0.7364859,-2.495183,-2.741555,3.590267,1.654945,1.902056,-2.46389,-3.506681,-2.479965,-2.348926,2.28396],
[-1.532676,-2.329755,0.388476,3.393105,-2.473331,0.0484954,-3.694559,-1.1941,-0.8502203,3.827191,1.745645,-3.634588,-0.8211189,-3.663448,-0.2957175,2.204699,3.423651,-0.9174175,3.98649,-1.655626,-3.504864,2.899185,3.385464,-0.7372467,-2.604808],
[3.760221,-3.214293,-0.3414347,0.6192045,3.981085,1.969854,0.7428787,2.259042,-2.324229,-3.955243,2.252897,-1.713114,-1.906022,-1.814095,-3.351669,0.5953557,3.0817,-0.5273172,-0.005089311,2.066261,-3.96099,-0.2854715,0.6064291,-2.499068,-2.445194],
[3.753431,3.812415,2.116357,3.585332,1.236005,-1.621392,2.593985,3.23277,-1.436885,-0.5021173,-3.467429,-0.3497494,-0.6764414,-3.020285,-0.8067793,2.104225,-0.9615436,2.939734,-3.99129,-3.516363,-3.303706,1.164839,1.513286,3.912304,1.63459],
[-1.490088,-0.3723729,-2.951419,-0.06841461,0.7666559,0.6149142,-3.550837,-1.661648,3.709976,-1.938939,0.4594615,-3.961317,-3.921109,-1.394807,0.5836882,-3.191772,-1.175043,3.050899,-3.034732,-2.791654,1.002618,1.811571,-3.317089,2.489071,-0.7836469]
],
[
[-3.309747,-0.0249344,2.142957,-3.439741,2.389605,-0.9263506,2.299239,-2.943788,3.062344,2.598064,-2.395439,1.589856,-0.177644,-1.685721,2.324214,2.557783,3.289652,3.376971,0.01095542,-1.336918,-3.890614,3.974983,3.093263,-3.870636,2.757661],
[0.8507107,-0.6756492,-3.57827,2.593522,-1.598309,1.144186,3.884007,-3.181258,-3.998619,2.09194,-1.401117,-2.155378,3.029264,-2.787294,-2.8385,-0.1504878,3.639319,0.3300345,2.288618,-0.02087051,-1.205536,1.953636,-0.2511635,-3.26378,-0.4578984]
]
],
"biases":[
[
1.889672,0.7992602,-0.1377277,2.677836,0.1252684,-0.2049069,1.782659,1.310374,1.096607,1.655956,-0.644348,-0.9841591,3.994818,-1.187227,3.423358,-0.3154958,3.191943,2.945623,-3.736365,-2.6491,2.568481,3.028468,-1.558518,-0.6120213,-3.961882
],
[
3.241615,3.704916
]
]},
{
"fitness":1.542944,
"weights":[
[
[1.588968,-0.9131234,1.848835,-0.6767324,-0.3716304,0.04443336,-3.668835,0.3861239,2.602194,1.767467,-1.556655,-3.264822,1.307081,-3.393439,0.915611,-0.389276,-0.03257703,2.824455,0.8856296,-3.418707,-2.254969,-2.819267,2.499728,-0.5033413,-1.764358],
[2.731238,-2.398265,2.024655,-0.5807576,-3.51733,-1.460689,2.12534,-3.116671,0.4559838,1.858596,1.906041,1.680467,-2.162894,3.189817,0.2728869,2.181584,3.898978,-1.003041,-2.23382,3.51511,0.966683,2.592522,1.078971,-1.524999,-3.101229],
[3.62839,-0.05618456,3.81037,2.537549,3.963932,3.284244,0.8281275,-1.000507,1.442591,3.277353,-2.370559,-0.860395,-0.1904963,-2.594583,-1.347819,-1.250169,1.535775,-3.303883,3.948113,0.6760125,1.803175,2.198217,1.497752,-3.631317,-0.9347053],
[-0.6131486,-2.689198,-1.264976,-1.059124,-1.078917,-2.328711,-0.5441073,0.500115,-0.9762166,3.081867,1.154811,-0.8334589,-2.651024,-0.4286721,2.98609,0.8340616,3.151654,3.533199,3.179331,0.09717354,-3.386353,1.60223,3.128549,3.693172,-1.808822],
[-0.06167286,2.164317,-3.077304,2.732357,3.48261,1.279106,-2.271251,-0.1843411,-1.692512,2.053169,-0.1409511,-1.372928,-2.566006,2.955805,-0.8906233,-0.3900694,-2.64857,-2.007011,-1.950475,-0.0177537,-0.9238326,-1.396264,0.3994184,3.444582,3.826395],
[0.6832377,-3.857505,2.661711,-3.119395,-0.7793984,-1.776737,-1.383503,-0.1568426,-2.007231,-1.220834,3.793433,2.830392,-3.197415,1.446187,2.742743,1.062386,2.721888,3.555032,-2.45915,-2.208824,-3.865416,1.809788,2.623112,0.8207858,1.65111],
[1.054709,1.772935,-2.855644,-2.179605,-3.24647,-0.470055,1.179939,-1.251791,2.89197,-1.682865,-3.453681,2.920673,1.911539,1.332319,-2.932632,-0.8587535,-3.459008,-3.180646,0.9117406,-1.107887,1.04565,3.5937,-1.687521,-1.707748,2.028693],
[1.876184,1.506133,0.8648575,3.260206,0.08094499,-3.625893,-2.469607,1.847188,1.813765,1.323508,-2.336294,3.005442,1.975862,-3.385344,-2.429942,3.06675,-0.5810478,-0.5753796,3.508245,-3.431323,1.933653,2.099791,-2.946186,-3.913987,0.2379271],
[3.065014,2.753481,2.452044,-2.247993,-3.319827,0.1049437,1.12068,-3.019971,-0.2933868,-0.1341426,1.635809,1.475114,-1.531378,-0.6622986,3.047549,-3.123861,-2.662595,0.774076,0.7375746,1.259817,-3.234489,0.4673975,-0.8218955,-1.397444,-1.963199],
[-3.879526,1.168636,0.5482217,-3.537837,1.557333,2.740567,0.9132534,-1.161919,2.682748,-2.304242,-1.64751,0.8606127,-0.125912,0.1573226,-0.1064858,-3.734414,1.246231,2.236706,2.971829,-2.844822,3.299186,0.1644214,-0.4355205,-3.836542,-0.6717389],
[-1.578137,-1.564082,1.239018,0.0496979,-0.622781,-1.705032,-2.356574,0.05967613,1.712117,-1.292619,0.165311,-3.624359,1.648786,-2.990029,-3.483847,-2.621753,-2.441661,1.74354,-3.226523,2.041864,-2.309801,0.3267199,-3.324365,0.1219189,0.9634879],
[3.526497,3.136028,0.7966839,3.876861,3.763918,0.09890383,-1.478982,1.013852,0.7557246,-1.258158,2.656987,-3.992242,-2.125986,-0.5032842,-0.7096133,-3.640451,2.756322,2.876575,3.755344,-0.8954827,-2.039654,1.351199,-2.57608,3.272245,2.152446],
[0.4327688,-3.890731,1.70757,0.5223086,-1.238783,-0.9479874,1.675699,0.3571143,1.559712,3.3088,-0.5068402,3.324495,3.792895,-1.655004,-1.554943,3.033586,0.4198271,1.090212,0.7078368,-1.600641,0.9733878,0.3683107,-2.48684,1.366812,-2.172313],
[2.007416,3.497719,1.661362,-1.433622,3.730272,0.663749,-3.170605,-2.150347,-3.576701,-0.1668666,-2.630246,-1.084379,2.121588,3.019225,2.658327,-1.412814,0.2361923,-3.693322,-0.9903017,-2.91966,-2.785837,-3.931175,-3.00573,0.2811841,2.114963],
[1.060904,3.730067,1.715404,3.10968,-3.943747,-1.887567,2.346394,2.230268,-0.6750186,0.2586162,-3.579707,3.045974,-1.529948,2.185763,-3.88981,-0.5777532,-3.555208,0.6560282,3.122252,2.914561,0.3888768,-2.5459,-3.165236,-0.09488028,-2.218473],
[1.377185,3.457872,-1.503323,1.54664,0.7724607,-2.115551,-3.301776,2.834336,-3.769788,3.438737,-1.754475,1.106118,2.645937,0.3942687,-0.7744355,-0.2793347,1.575138,1.052858,0.1033525,2.618355,1.695837,-0.9198431,-2.333428,-0.2840746,-2.83992],
[2.6224,-2.464316,-3.184394,-2.838085,3.847762,-0.4046324,1.631852,0.9324867,-3.4341,2.557114,0.01906213,-0.9661769,-3.408216,-0.40092,0.7870387,1.524796,-1.54749,0.4155903,-2.148881,-2.012008,2.316895,-0.9428799,-1.820061,2.972224,-0.5221156],
[3.099421,-1.910437,-2.660454,0.5900823,-2.951153,-2.262872,-2.879587,-3.163415,1.207463,-2.45356,0.3929585,3.373855,1.427922,1.78848,2.113584,-3.158532,1.598089,0.4759485,1.729273,-2.71087,-1.942121,-3.547178,3.485936,-1.341556,3.864751],
[-0.6564603,3.026991,1.329635,0.06607434,-2.129713,-1.399334,-0.9693351,-3.845513,-1.04656,3.726774,1.086876,1.409213,-2.236737,-1.212973,-1.141346,2.433163,2.953524,-1.603421,0.1635711,1.563372,-3.721474,3.705301,0.2468476,3.349785,3.183997],
[1.182457,-1.043462,-3.479763,-1.53126,-0.1887746,-0.9798312,1.712535,3.791794,-2.13796,1.749302,-1.37641,0.9979374,-0.9418749,0.1939192,1.384963,1.610692,0.6331189,-0.5161011,3.28045,0.4987966,2.540904,-2.334603,1.548185,-3.527969,-2.195055],
[0.7048986,0.3390743,0.6959315,1.524909,-0.3321626,-1.849515,-1.130954,0.3580244,0.3176878,0.1844472,-3.951276,-0.4689044,-2.660263,0.8063327,0.7364859,-2.495183,-2.741555,3.590267,1.654945,1.902056,-2.46389,-3.506681,-2.479965,-2.348926,2.28396],
[-1.532676,-2.329755,0.388476,3.393105,-2.473331,0.0484954,-3.694559,-1.1941,-0.8502203,3.827191,1.745645,-3.634588,-0.8211189,-3.663448,-0.2957175,2.204699,3.423651,-0.9174175,3.98649,-1.655626,-3.504864,2.899185,3.385464,-0.7372467,-2.604808],
[3.760221,-3.214293,-0.3414347,0.6192045,3.981085,1.969854,0.7428787,2.259042,-2.324229,-3.955243,2.252897,-1.713114,-1.906022,-1.814095,-3.351669,0.5953557,3.0817,-0.5273172,-0.005089311,2.066261,-3.96099,-0.2854715,0.6064291,-2.499068,-2.445194],
[3.753431,3.812415,2.116357,3.585332,1.236005,-1.621392,2.593985,3.23277,-1.436885,-0.5021173,-3.467429,-0.3497494,-0.6764414,-3.020285,-0.8067793,2.104225,-0.9615436,2.939734,-3.99129,-3.516363,-3.303706,1.164839,1.513286,3.912304,1.63459],
[-1.490088,-0.3723729,-2.951419,-0.06841461,0.7666559,0.6149142,-3.550837,-1.661648,3.709976,-1.938939,0.4594615,-3.961317,-3.921109,-1.394807,0.5836882,-3.191772,-1.175043,3.050899,-3.034732,-2.791654,1.162166,1.811571,-3.317089,2.489071,-0.7836469]
],
[
[-3.309747,-0.0249344,2.142957,-3.439741,2.389605,-0.9263506,2.299239,-2.943788,3.062344,2.598064,-2.395439,1.589856,-0.177644,-1.917109,2.324214,2.557783,3.289652,3.376971,0.01095542,-1.336918,-3.890614,3.974983,3.093263,-3.870636,2.757661],
[0.8507107,-0.6756492,-3.57827,2.593522,-1.598309,1.144186,3.884007,-3.181258,-3.998619,2.09194,3.375181,-2.155378,3.029264,-2.787294,-2.8385,-0.1504878,3.639319,0.3300345,2.288618,-0.02087051,-1.205536,1.953636,-0.2511635,-3.26378,-0.4578984]
]
],
"biases":[
[
1.889672,0.7992602,-0.1377277,2.677836,0.1252684,-0.2049069,1.782659,1.141579,1.096607,1.655956,-0.644348,-0.9841591,3.994818,-1.187227,3.423358,-0.3154958,3.191943,2.945623,-3.736365,-2.6491,2.568481,3.028468,-1.558518,-0.6120213,-3.961882
],
[
3.241615,3.704916
]
]},
{
"fitness":1.538936,
"weights":[
[
[-3.918405,-0.9131234,1.848835,-0.6767324,-0.3716304,0.04443336,-3.668835,0.3861239,2.602194,1.767467,-1.556655,-3.264822,1.307081,-1.138104,0.915611,-0.389276,-0.03257703,2.824455,0.8856296,-1.251767,-2.254969,-2.819267,2.499728,-0.5033413,-1.764358],
[2.731238,-2.398265,2.024655,-0.5807576,-3.51733,-1.460689,2.12534,-1.416244,3.127143,1.858596,1.906041,1.680467,-2.162894,3.189817,0.2728869,2.181584,3.898978,-0.4255385,-2.23382,-1.648499,0.966683,2.592522,1.078971,-1.524999,-3.101229],
[3.62839,1.250873,3.81037,2.537549,3.963932,0.2093233,-1.439019,-1.000507,1.442591,3.277353,-2.370559,-0.860395,-0.1904963,-2.594583,-1.347819,-1.250169,1.535775,-3.303883,3.948113,-2.986815,-3.254796,2.198217,1.497752,-3.631317,-0.9347053],
[-0.6131486,-2.689198,-1.264976,-1.059124,-1.078917,-2.328711,-0.5441073,0.500115,-0.9762166,3.081867,1.154811,3.391615,-2.651024,-0.4286721,2.98609,2.459295,3.151654,3.533199,3.179331,-1.712257,-3.386353,1.60223,3.128549,1.802899,-1.808822],
[-0.06167286,2.164317,-3.077304,2.732357,3.48261,1.279106,-2.271251,-0.1843411,-1.692512,2.053169,-0.1409511,-1.372928,-2.566006,2.955805,-0.8906233,-0.3900694,-2.64857,-2.007011,-2.007867,-0.0177537,-0.9238326,-1.396264,0.3994184,0.2772261,3.826395],
[0.6832377,-3.857505,2.661711,-3.119395,-0.7793984,-1.776737,-1.383503,-0.1568426,-2.007231,-1.220834,3.793433,2.830392,-3.197415,1.446187,2.742743,2.496536,2.721888,3.555032,-2.45915,-2.208824,-3.865416,1.809788,2.623112,0.8207858,1.65111],
[1.054709,1.772935,-2.855644,-2.179605,-3.24647,-0.470055,1.179939,-1.251791,2.89197,-1.682865,-3.453681,2.920673,-0.5241927,0.9714074,-2.932632,-3.29852,-3.459008,-3.180646,0.9117406,-1.107887,1.04565,3.5937,-1.687521,1.803297,2.028693],
[1.876184,1.506133,0.8648575,3.260206,0.08094499,1.487821,-2.469607,1.847188,1.813765,-2.44916,-2.336294,3.005442,1.975862,-3.385344,-2.429942,3.06675,-0.5810478,-0.5753796,3.508245,-3.431323,1.933653,2.099791,-2.946186,-3.913987,0.2379271],
[3.128417,2.753481,2.452044,-2.247993,-3.319827,0.1049437,-2.898634,-3.019971,-0.2933868,-0.1341426,1.635809,1.475114,-1.289609,-0.6622986,3.047549,-0.4511367,-2.662595,0.774076,2.710067,1.259817,-3.234489,0.4673975,-0.8218955,-1.397444,-1.963199],
[-3.879526,1.168636,0.5482217,-3.537837,1.557333,2.740567,-3.677463,-1.161919,2.682748,-2.304242,-1.64751,0.8606127,-0.125912,0.1573226,-0.1064858,-3.734414,-0.5633348,2.236706,2.971829,-2.844822,3.299186,3.272643,-0.4355205,-3.836542,-0.6717389],
[-1.578137,-1.564082,1.239018,0.0496979,-0.622781,-1.705032,-2.356574,0.05967613,-3.842437,-1.292619,0.165311,-3.624359,1.648786,-2.990029,-3.483847,-2.621753,-2.441661,1.74354,-3.226523,2.041864,-2.309801,0.3267199,-3.324365,-2.860351,0.9634879],
