{ "networks":
[
{
"fitness":1.867814,
"weights":[
[
[-3.918405,-0.9131234,-0.7209882,-0.6767324,-0.3716304,0.04443336,-3.668835,-0.3581168,2.602194,1.767467,-1.556655,-0.4195951,1.307081,3.933796,0.915611,-0.389276,-0.6797464,2.824455,0.8856296,-1.251767,2.080861,-2.819267,-2.203428,-2.882687,-2.497689],
[2.731238,-2.398265,-3.69163,-0.5807576,-3.51733,-1.460689,2.12534,-3.116671,3.127143,1.858596,1.906041,1.680467,-2.01767,3.189817,0.2728869,2.181584,3.898978,2.048322,1.150835,-1.648499,0.966683,0.01676973,1.078971,2.111185,-1.432635],
[2.425026,-0.3781367,3.81037,-2.42769,3.963932,0.2093233,0.8281275,-0.9003459,1.442591,3.277353,-2.370559,-0.860395,-0.1904963,-2.594583,-1.347819,0.4964347,1.535775,-3.303883,-1.128322,-2.807033,2.705834,2.198217,-2.78584,-3.631317,-0.9347053],
[-0.6131486,-2.689198,-1.264976,-1.059124,-2.809507,-2.328711,1.062544,-1.504596,-0.9762166,-2.697784,1.154811,1.587257,-0.8139986,-0.4286721,2.98609,-2.224382,3.151654,1.085171,3.179331,0.7181488,-3.386353,-1.215526,3.128549,1.802899,1.312082],
[-1.436041,2.164317,1.710795,2.732357,3.48261,1.279106,0.1117107,-0.1843411,-1.692512,2.053169,-0.1409511,-1.372928,-0.1006996,2.955805,-0.8906233,-2.917129,-2.64857,-2.007011,-1.950475,-0.0177537,-0.9238326,-1.396264,0.3994184,1.632744,-2.879828],
[0.6832377,-3.173568,2.661711,-3.656513,-0.7793984,-1.752731,-1.74613,-0.1568426,-2.007231,0.8899747,2.987945,-3.357533,2.456513,-0.3537892,2.742743,2.496536,2.961236,2.566361,-2.838554,-2.208824,1.150694,3.138266,-0.4418356,3.887284,-0.9338523],
[1.054709,1.772935,-2.855644,-2.179605,-3.24647,-0.470055,-0.6958203,-1.251791,2.89197,-1.682865,-3.453681,-2.330694,-1.131971,-1.73649,-1.582856,-0.4755877,-3.459008,2.75324,1.840693,1.09666,1.04565,3.5937,-1.687521,1.803297,2.028693],
[0.8581115,1.506133,-2.349913,3.260206,0.08094499,2.581542,0.4096163,1.847188,0.9174514,3.870343,-2.336294,3.005442,1.975862,-3.385344,-2.429942,-1.201352,0.1587778,-0.5753796,-3.039529,-3.431323,1.933653,2.099791,-2.946186,-3.913987,2.330571],
[3.065014,2.753481,2.452044,3.033624,-3.319827,0.1049437,1.12068,1.717676,-0.1710941,-0.1341426,-1.443168,-1.37699,-0.00237184,-1.154241,3.047549,-3.123861,2.118496,0.774076,2.710067,1.259817,-3.234489,2.00657,-0.8218955,-1.397444,-1.963199],
[-3.879526,1.168636,0.5482217,-2.817678,-2.701019,2.740567,-3.677463,0.83465,-1.748928,-2.304242,-1.914154,1.716798,-0.125912,-1.899931,2.301987,-1.146981,1.246231,-2.800913,2.971829,-1.191796,-2.741151,3.272643,-1.925276,-3.836542,-0.6717389],
[2.639325,-1.564082,-1.993127,0.4371414,-0.622781,-1.91216,-2.356574,3.681029,1.712117,2.173448,2.362276,-3.624359,-2.621202,-2.974711,-3.483847,-0.360161,-2.441661,1.74354,-1.7137,3.874846,-2.309801,0.3267199,-3.324365,0.1219189,1.487128],
[3.526497,3.136028,0.7966839,3.876861,3.763918,2.103045,1.976256,1.013852,0.7557246,-1.258158,0.5370238,-3.992242,-2.125986,3.034846,-0.7096133,-2.721697,2.756322,-0.2013158,1.492204,-0.8954827,-2.039654,1.85852,3.901198,3.272245,2.152446],
[0.4327688,2.239216,1.70757,0.5223086,-1.238783,-0.9479874,1.675699,0.3571143,1.157317,3.3088,-0.5068402,3.324495,3.792895,-1.655004,-1.554943,-2.480672,-2.85485,1.090212,-3.743853,3.556181,0.9733878,0.3683107,-2.48684,1.366812,2.088193],
[-0.7889581,3.497719,1.43402,-3.811474,3.730272,2.396086,-3.170605,1.52694,-3.576701,2.029577,-2.630246,-1.084379,2.121588,3.439754,-2.101204,3.317723,0.2361923,-3.693322,-2.139245,-2.91966,-2.785837,-3.52693,-3.00573,0.2811841,2.550149],
[1.060904,2.092016,3.283633,3.10968,-3.943747,-0.2580202,2.678932,1.46264,2.155477,0.2586162,2.654376,0.02003383,-1.529948,-2.884708,-3.88981,-1.402403,-3.555208,0.6001094,3.122252,2.563976,0.3888768,-2.5459,-1.257638,-0.09488028,2.188319],
[-0.3109766,3.457872,-0.8918363,2.28756,0.7724607,-3.59509,1.661106,2.834336,1.919125,3.438737,-0.2692521,1.106118,1.210517,2.945506,2.113471,-0.2793347,1.575138,1.052858,0.1033525,2.618355,-0.4790984,-0.9198431,-2.333428,-0.2840746,-2.83992],
[-3.452613,-2.464316,-3.184394,-2.838085,3.847762,-0.4046324,1.631852,0.9324867,-3.4341,-3.582255,0.01906213,-0.9661769,-2.948771,-0.40092,0.7870387,-2.216701,-1.54749,1.726838,1.221032,-2.012008,2.51361,-0.9428799,2.342097,2.972224,-0.5221156],
[3.099421,1.479324,-2.660454,0.5900823,-0.122664,-2.262872,1.418362,-3.421324,-1.182963,-2.45356,0.3929585,3.373855,-2.458451,1.78848,-3.866522,-3.158532,-3.150121,0.4759485,3.171053,-1.582284,1.580814,-3.547178,3.485936,-1.341556,3.864751],
[-1.755301,-2.589104,1.165016,0.06607434,-2.129713,-1.399334,-0.9693351,0.1917525,-0.309713,-3.716127,-0.5289487,1.409213,-2.236737,-1.212973,-1.141346,2.433163,-1.850756,-1.603421,-3.185009,1.563372,1.347854,0.5439867,-0.1401893,3.349785,-1.037882],
[1.182457,-1.043462,-3.479763,-1.53126,-0.1887746,-0.9798312,1.712535,-2.994543,-1.357451,1.749302,2.763307,1.883472,-0.9418749,0.1939192,2.85849,1.610692,-1.709167,-0.7223182,3.28045,1.469075,2.540904,3.001267,1.548185,1.334612,-1.952724],
[0.7048986,0.3390743,0.6959315,1.524909,-3.58614,-1.836519,-1.130954,0.3580244,0.3176878,2.634019,-3.951276,-0.4689044,-2.660263,0.8063327,2.937345,-2.495183,-2.741555,3.590267,1.654945,1.902056,-2.46389,-3.506681,-2.479965,3.155924,2.28396],
[3.839003,-0.2520185,0.388476,3.393105,-2.473331,0.0484954,2.323175,-2.3884,-0.8502203,3.827191,1.745645,-1.377875,-0.8211189,-3.663448,-0.2957175,2.204699,-2.619935,-0.9174175,-2.331278,2.891056,-0.09610821,2.899185,-1.649012,2.062205,0.994782],
[-1.271479,1.850718,1.560249,0.6192045,3.981085,-2.812912,0.7428787,2.259042,0.9652746,-3.955243,2.252897,0.009895517,-1.906022,1.689958,-2.463272,0.5953557,-3.350033,-2.701443,-0.005089311,3.140355,-3.96099,3.306706,2.588766,-2.499068,-2.353034],
[3.753431,3.812415,2.116357,3.610447,1.236005,-2.443977,2.322514,3.23277,-1.436885,-0.5021173,2.595773,1.002764,-0.6764414,-2.24961,0.3498648,2.104225,1.315263,3.592282,-3.99129,-2.999597,2.642269,1.164839,1.513286,3.912304,1.63459],
[-1.490088,-0.3723729,-2.951419,-0.726721,0.7666559,2.781217,-3.550837,-1.661648,3.709976,-1.938939,0.4594615,-3.961317,-0.9821802,1.149652,1.28874,-0.06028608,-1.175043,0.488088,-2.394083,-2.791654,1.002618,1.811571,-3.317089,2.489071,-0.1796138]
],
[
[1.335621,-0.0249344,-0.5849254,-3.439741,0.4045439,1.731402,2.299239,-2.943788,0.006146193,2.598064,-2.395439,1.589856,-0.177644,-2.247134,2.324214,-0.6484132,0.1818839,3.376971,0.01095542,-1.978609,-1.132779,3.974983,3.093263,-3.870636,2.757661],
[0.8507107,-0.6756492,-3.57827,2.593522,-2.436512,1.144186,3.884007,-3.181258,-3.998619,2.09194,-1.911493,-2.155378,3.029264,-2.630903,-2.8385,-0.9815428,3.639319,-2.25445,2.3818,3.275145,-1.205536,3.557345,-0.3733222,-3.26378,-0.4578984]
]
],
"biases":[
[
1.889672,2.306852,-3.459875,-1.164239,0.1252684,-0.2049069,0.6201254,1.310374,1.096607,1.655956,-0.644348,-1.744544,3.994818,-1.187227,2.648026,-0.4624114,3.191943,2.945623,1.328902,-2.6491,2.568481,-1.265374,1.028026,1.671499,-2.06622
],
[
3.241615,3.704916
]
]},
{
"fitness":1.866818,
"weights":[
[
[-3.918405,-0.9131234,-0.7209882,-0.6767324,-0.3716304,0.04443336,-3.668835,1.534325,2.602194,1.767467,-1.556655,-0.4195951,1.307081,3.933796,0.915611,-0.389276,-0.6797464,2.824455,0.8856296,-1.251767,1.28528,-2.819267,-2.203428,-2.882687,-2.373819],
[2.731238,-2.398265,-3.69163,-0.5807576,-3.51733,-1.460689,2.12534,-1.651933,3.127143,1.858596,1.906041,1.680467,-2.01767,3.189817,0.2728869,2.181584,3.898978,-1.003041,1.150835,-1.648499,0.966683,0.01676973,1.078971,2.111185,-1.432635],
[3.62839,-0.3781367,3.81037,-2.42769,3.963932,0.2093233,0.8281275,3.679844,1.442591,3.277353,-2.370559,-0.860395,-0.1904963,-2.594583,-1.347819,0.4964347,1.535775,-3.303883,3.948113,-2.807033,2.705834,2.198217,1.497752,-3.631317,-3.160433],
[-0.6131486,-2.689198,-1.05253,-1.059124,-1.078917,-2.328711,1.062544,0.8905877,-3.94767,3.613384,1.154811,1.587257,0.5616991,-0.4286721,-1.607341,0.8340616,3.151654,3.533199,3.179331,-0.1234988,-3.66885,1.60223,3.128549,1.802899,1.312082],
[-1.436041,2.164317,1.710795,2.732357,3.48261,-3.119438,-2.271251,-0.1843411,-1.792757,2.053169,-0.1409511,-1.372928,-0.1006996,2.955805,-1.365879,-0.3900694,-2.64857,-2.007011,-1.950475,-0.0177537,0.273067,-1.396264,0.3994184,1.632744,-1.08117],
[0.6832377,-3.173568,2.661711,-3.119395,-0.7793984,-1.752731,-1.74613,-0.1568426,-2.007231,2.991845,3.793433,-3.357533,2.456513,1.446187,2.742743,2.496536,2.721888,3.555032,-2.838554,-2.208824,-3.865416,0.07203058,-0.4418356,3.887284,1.65111],
[1.054709,1.772935,-2.855644,-2.179605,-3.24647,-0.470055,1.179939,-1.251791,2.89197,-1.682865,-3.453681,-2.330694,-1.131971,-1.73649,-2.932632,-3.29852,0.2642373,-1.481917,1.662173,1.09666,1.267923,3.5937,-1.687521,1.803297,2.028693],
[0.8581115,1.799087,0.8648575,3.260206,-1.492977,2.009001,0.4096163,1.847188,0.9174514,3.870343,-2.336294,3.005442,1.975862,-3.385344,-2.429942,3.06675,-3.186092,-0.5753796,-1.511842,-3.431323,-2.215527,2.099791,-2.946186,-3.913987,1.381042],
[3.065014,2.753481,2.452044,3.820502,-3.319827,0.1049437,1.12068,1.717676,0.04247613,-0.1341426,-1.443168,-1.37699,-0.00237184,-1.154241,3.047549,-3.123861,2.118496,0.774076,2.710067,1.259817,-0.7355414,2.00657,-0.8218955,-1.397444,-1.963199],
[-3.879526,2.393462,0.5482217,1.777203,-2.701019,-1.031245,2.971206,0.04325499,2.682748,-2.304242,2.55411,0.8606127,-0.125912,-1.899931,2.301987,-1.146981,1.246231,2.236706,2.971829,-1.191796,-3.974442,3.272643,-1.925276,-3.836542,3.368272],
[2.639325,-1.564082,1.239018,0.4371414,-0.04268406,-1.705032,-2.356574,3.681029,1.712117,-1.292619,2.362276,-3.401784,-2.621202,-2.990029,-3.483847,-0.360161,-2.441661,1.74354,3.265959,3.874846,3.142876,0.3267199,-3.324365,0.1219189,-3.696193],
[3.526497,3.136028,0.7966839,3.876861,3.763918,0.09890383,1.976256,1.2653,0.7557246,-1.258158,2.966238,1.713497,-2.125986,3.034846,-0.5333229,-3.640451,2.756322,-0.2013158,1.492204,-0.8954827,-2.039654,0.5699096,3.901198,3.272245,2.152446],
[0.4327688,2.239216,-2.951811,0.5223086,-1.238783,-2.416237,1.675699,0.3571143,1.559712,3.3088,-0.5068402,3.324495,3.792895,-1.300853,-1.554943,-2.480672,1.184158,0.8252662,0.7078368,2.393345,0.9733878,0.3683107,-2.48684,1.366812,2.088193],
[3.775214,3.497719,1.43402,-1.433622,3.730272,2.396086,-3.170605,-2.150347,-3.030112,-0.1668666,0.6561255,-1.084379,2.121588,-0.6393518,2.658327,3.317723,0.2361923,-3.693322,-2.139245,-2.91966,-2.785837,-3.931175,-3.00573,0.2811841,2.550149],
[1.060904,2.092016,3.283633,3.10968,-1.400208,-1.887567,2.678932,3.547319,-0.3259979,0.2586162,-3.579707,3.045974,-1.529948,-2.884708,-3.88981,-1.402403,-0.2044076,0.6001094,-3.238402,2.563976,0.3888768,-2.5459,-1.257638,-1.078685,2.188319],
[-0.3109766,3.031402,-3.463683,1.54664,0.7724607,-3.59509,1.661106,3.343118,1.431416,3.438737,-0.2692521,1.106118,1.210517,2.945506,-0.7744355,-0.2793347,-3.362416,1.052858,0.1033525,-3.184421,-0.4790984,-0.9198431,-2.333428,-0.2840746,-2.83992],
[2.6224,-2.464316,-3.184394,-2.838085,3.847762,-0.4046324,1.631852,0.9324867,-3.4341,-1.659735,0.01906213,-0.9661769,-2.948771,-0.40092,0.7870387,-2.216701,-1.54749,0.4155903,1.221032,-2.012008,2.51361,-0.9428799,2.342097,2.972224,-0.5221156],
[-0.7617531,-2.831505,-2.660454,0.5900823,1.250105,-2.262872,-2.879587,-3.421324,-1.182963,-2.45356,0.3929585,3.373855,1.908647,1.78848,-3.210119,-3.604915,-3.150121,0.4759485,3.171053,-1.582284,1.580814,0.06330132,3.485936,-1.341556,3.864751],
[-2.174608,-0.450044,1.351359,0.06607434,-2.129713,-1.399334,-0.9693351,0.1917525,-0.309713,-3.716127,-0.5289487,1.409213,-3.512938,-1.212973,-1.141346,2.433163,-1.850756,-1.603421,-3.185009,1.563372,1.347854,0.5439867,-0.1401893,3.349785,3.183997],
[1.182457,-1.043462,-3.479763,-1.53126,2.499061,-0.9798312,0.5207302,3.791794,-2.13796,1.749302,2.763307,0.4317945,-0.9418749,0.1939192,1.384963,1.610692,-1.709167,-0.7223182,3.28045,0.4987966,2.540904,-1.78866,1.548185,1.966908,-1.952724],
[0.7048986,0.3390743,1.744648,1.524909,-3.58614,-1.836519,-1.130954,0.3580244,0.3176878,2.634019,-3.951276,-0.4689044,-2.660263,0.8063327,3.575483,-2.495183,-2.741555,3.590267,1.654945,2.849374,-2.46389,-3.506681,-2.479965,2.634885,2.28396],
[3.839003,-0.2520185,0.388476,-2.906016,-2.473331,0.0484954,2.323175,-1.1941,-0.8502203,0.08809588,1.745645,-1.377875,-0.8211189,-3.68751,-2.414308,2.204699,-2.619935,-0.9174175,-1.827228,-1.655626,-0.09610821,2.899185,1.471696,2.062205,0.994782],
[-1.271479,-3.214293,1.353508,0.6192045,2.27755,-2.812912,0.7428787,2.259042,-0.03253262,-3.955243,2.252897,0.009895517,-1.906022,1.689958,-2.463272,0.5953557,3.0817,-2.701443,-0.005089311,-2.240999,-3.96099,-0.2854715,-2.296681,-2.499068,-2.353034],
[3.753431,3.812415,2.116357,3.610447,1.236005,-2.443977,2.322514,3.23277,-3.590755,-0.5021173,2.988812,1.002764,-0.6764414,-2.24961,0.3498648,2.104225,-0.9615436,3.592282,-3.99129,-2.999597,-3.303706,1.164839,-3.631909,-0.6414773,1.63459],
[-1.490088,-0.3723729,-2.951419,3.726047,0.7666559,0.1132159,-3.550837,-1.661648,3.709976,-1.938939,0.4594615,-3.961317,-0.3704624,3.389023,1.28874,-0.06028608,-1.175043,0.488088,-2.394083,-2.791654,1.002618,-0.1848266,-3.317089,2.489071,-0.1796138]
],
[
[-3.309747,2.821021,-0.5849254,-3.439741,0.4045439,1.731402,2.299239,1.352446,0.006146193,2.598064,-2.395439,1.692188,-0.177644,-2.247134,2.324214,-3.528036,3.289652,3.376971,0.01095542,-1.978609,0.9090728,3.974983,3.093263,2.0383,1.487324],
[0.8507107,-0.6756492,-3.513279,2.593522,-1.598309,1.144186,0.1823008,-3.181258,-3.998619,3.40203,-2.635962,-2.155378,3.029264,-2.115445,-2.8385,-0.1504878,3.639319,0.3300345,2.3818,-2.4843,-1.205536,1.953636,-0.3733222,-3.26378,1.2026]
]
],
"biases":[
[
1.889672,2.306852,-3.459875,-1.164239,0.1252684,-3.421046,0.6201254,1.310374,1.096607,1.655956,-0.644348,-0.9841591,3.994818,-1.187227,2.648026,-0.3154958,3.191943,2.945623,1.656771,-2.6491,2.568481,-1.265374,1.028026,2.159729,-2.06622
],
[
3.241615,3.704916
]
]},
{
"fitness":1.748923,
"weights":[
[
[-3.918405,-0.9131234,-0.7209882,-0.6767324,-0.3716304,0.04443336,-3.668835,1.534325,2.602194,1.767467,-1.556655,-0.4195951,1.307081,3.933796,0.915611,-0.389276,-0.6797464,2.824455,0.8856296,-1.251767,1.28528,-2.819267,-2.203428,-2.882687,-2.497689],
[2.731238,-2.398265,-3.69163,3.185394,-3.51733,-1.460689,2.12534,-3.116671,2.401038,1.858596,1.906041,1.680467,-2.01767,3.189817,0.2728869,2.181584,3.898978,-1.003041,1.150835,-1.648499,0.966683,0.01676973,1.078971,2.111185,-1.432635],
[3.62839,-0.3781367,3.81037,-2.42769,3.963932,0.2093233,0.8281275,-0.9003459,1.442591,3.277353,-2.370559,-0.860395,-0.1904963,-2.594583,-1.347819,0.4964347,1.535775,-3.303883,3.948113,-2.807033,2.705834,2.198217,-2.78584,-3.631317,-0.9347053],
[-0.6131486,-2.689198,-1.264976,-1.059124,-2.809507,-2.328711,1.062544,-1.504596,-0.9762166,-2.697784,1.154811,1.587257,-0.8139986,-0.4286721,2.98609,-2.224382,3.151654,1.085171,3.179331,0.7181488,-3.386353,-1.215526,3.128549,1.802899,2.79158],
[-1.436041,2.164317,1.710795,2.732357,3.48261,1.279106,0.5653448,-0.1843411,-1.692512,2.053169,1.265977,-1.372928,-0.1006996,2.955805,-0.8906233,-0.3900694,-2.64857,-2.007011,-1.950475,-0.0177537,-0.9238326,-1.396264,0.3994184,1.632744,0.8797654],
[0.6832377,-3.173568,2.661711,-3.119395,-0.7793984,-1.752731,-1.74613,-0.1568426,-2.007231,0.8899747,3.793433,-3.357533,2.456513,1.446187,2.742743,2.496536,2.721888,3.555032,-2.838554,-2.208824,1.150694,3.138266,-0.4418356,3.887284,-0.9338523],
[-1.32405,1.772935,-2.855644,-1.552823,-3.24647,-0.470055,1.179939,-1.251791,2.89197,-1.682865,-3.453681,-2.330694,-1.131971,-1.73649,-2.932632,-0.4755877,-3.459008,2.75324,1.840693,1.09666,-0.1115564,3.5937,-1.687521,1.803297,2.028693],
[0.8581115,1.506133,-2.349913,3.260206,0.08094499,2.581542,0.4096163,1.847188,0.9174514,-3.39094,-2.336294,3.005442,1.975862,3.619591,-2.429942,-1.201352,0.1587778,-0.5753796,-1.511842,-3.431323,1.933653,2.099791,2.148241,-3.913987,2.330571],
[3.065014,2.753481,2.452044,2.574617,-3.319827,0.1049437,1.12068,3.627085,-0.1710941,-0.1341426,-1.443168,-1.37699,-0.00237184,-1.154241,3.047549,-3.123861,2.118496,0.774076,2.710067,1.259817,-3.234489,2.00657,-0.8218955,-1.397444,-1.963199],
[-3.879526,1.168636,0.5482217,1.777203,-2.701019,2.740567,-3.677463,0.83465,0.2288105,-2.304242,1.720234,1.716798,-0.125912,-1.899931,2.301987,-1.146981,1.246231,-2.800913,2.971829,-1.191796,-2.741151,3.272643,-1.925276,-3.836542,-0.6717389],
[2.639325,-1.564082,1.239018,0.4371414,-0.622781,-1.705032,-2.356574,3.681029,1.712117,2.173448,3.802856,-3.624359,-2.621202,-2.974711,-3.483847,-0.360161,-2.441661,1.74354,-1.7137,3.874846,-2.309801,0.3267199,-3.324365,0.1219189,1.487128],
[3.526497,3.136028,0.7966839,3.876861,3.763918,0.09890383,1.976256,1.013852,0.7557246,-1.258158,2.656987,-3.992242,-2.125986,3.034846,-0.7096133,-2.721697,2.756322,-0.2013158,1.492204,-0.8954827,-2.039654,1.85852,3.901198,3.272245,2.152446],
[0.4327688,2.239216,1.70757,0.5223086,-1.238783,-0.9479874,1.675699,0.3571143,1.559712,3.3088,-0.5068402,3.324495,3.792895,-1.655004,-1.554943,-2.480672,-2.85485,1.090212,-3.743853,3.556181,0.9733878,0.3683107,-2.48684,1.366812,2.088193],
[-0.7889581,3.497719,1.43402,-1.433622,3.730272,2.396086,-3.170605,-2.150347,-3.576701,-0.1668666,-2.630246,-1.084379,2.121588,3.439754,-2.101204,3.317723,0.2361923,-3.693322,-2.139245,-2.91966,-2.785837,-3.931175,-3.00573,0.2811841,2.550149],
[1.060904,2.092016,3.283633,3.10968,-3.943747,-0.2580202,2.678932,1.46264,-0.3259979,0.2586162,2.654376,3.045974,-1.529948,-2.884708,-3.88981,-1.402403,-3.555208,0.6001094,3.122252,2.563976,0.3888768,-2.5459,-1.257638,-0.09488028,2.188319],
[-0.3109766,3.457872,-0.8918363,1.54664,0.7724607,-3.59509,1.661106,2.834336,3.313402,3.438737,-0.2692521,1.106118,1.210517,2.945506,2.113471,-0.2793347,1.575138,1.052858,0.1033525,2.618355,-0.4790984,-0.9198431,-2.333428,-0.2840746,-2.83992],
[-3.452613,-2.464316,-3.184394,-2.838085,-1.298367,-0.4046324,1.631852,0.9324867,-3.4341,-3.582255,0.01906213,-0.9661769,-2.948771,-0.40092,0.7870387,-2.216701,-1.54749,1.24885,1.221032,-2.012008,2.51361,-0.9428799,2.342097,2.972224,-0.5221156],
[3.099421,1.479324,-2.660454,0.5900823,-2.951153,-2.262872,1.418362,-3.421324,-1.182963,-2.45356,0.3929585,3.373855,-1.198067,1.78848,-3.866522,-3.158532,1.779949,0.4759485,3.171053,-1.582284,1.580814,-3.547178,3.485936,-1.341556,-1.355233],
[-1.755301,-2.589104,1.165016,0.06607434,-2.129713,-1.399334,-0.9693351,0.1917525,-0.309713,-3.716127,-0.5289487,1.409213,-2.236737,-1.212973,-1.141346,2.433163,-1.850756,-1.603421,-3.185009,1.563372,1.347854,0.5439867,-0.1401893,3.349785,-1.037882],
[1.182457,-1.043462,-3.479763,-1.53126,-0.1887746,-0.9798312,1.712535,3.791794,-1.357451,1.749302,2.763307,2.868974,-0.9418749,0.1939192,-2.209581,1.610692,-2.474098,-2.870391,3.28045,0.4987966,2.540904,3.001267,1.548185,1.334612,-1.952724],
[0.7048986,0.3390743,0.6959315,1.524909,-3.58614,-1.836519,-1.130954,0.3580244,0.3176878,2.634019,-3.951276,-0.4689044,-2.660263,0.8063327,3.575483,-2.495183,-2.741555,3.590267,1.654945,1.902056,-2.46389,-3.506681,-2.479965,-2.101543,2.28396],
[3.839003,-0.2520185,0.388476,3.393105,-2.473331,0.0484954,2.323175,-1.1941,-0.8502203,3.827191,1.745645,-1.377875,-0.8211189,-3.663448,-0.2957175,2.204699,-2.619935,-0.9174175,-2.331278,-1.655626,-0.09610821,2.899185,1.471696,2.062205,0.994782],
[-1.271479,-3.214293,1.560249,0.6192045,3.981085,-2.812912,0.7428787,2.259042,2.846181,-3.955243,2.252897,0.009895517,-1.906022,1.689958,-2.463272,0.5953557,3.0817,-2.701443,-0.005089311,-2.240999,-3.96099,3.306706,2.588766,-2.499068,-2.353034],
[3.753431,3.812415,2.116357,0.2130462,1.236005,-2.443977,2.322514,3.23277,-1.436885,-0.5021173,2.595773,1.002764,-0.6764414,-2.24961,0.3498648,2.104225,-0.9615436,3.592282,-3.328268,-2.999597,-3.303706,1.164839,1.513286,3.912304,1.63459],
[-1.490088,-0.3723729,-2.951419,-0.726721,0.7666559,0.1132159,-3.550837,-1.661648,3.709976,-1.938939,0.4594615,-3.961317,-0.9821802,3.389023,1.28874,-0.06028608,-1.175043,2.959788,-2.394083,-3.363282,1.002618,1.811571,-3.317089,2.489071,-0.1796138]
],
[
[-3.309747,-0.0249344,-0.5849254,-3.439741,0.4045439,1.731402,2.299239,-2.943788,0.006146193,2.598064,-2.395439,1.589856,-0.177644,-2.247134,2.324214,-2.509511,0.1818839,3.376971,0.01095542,-1.978609,0.9090728,3.974983,3.093263,-3.870636,2.757661],
[0.4991694,-0.6756492,-3.57827,2.593522,-2.436512,1.144186,3.884007,-3.181258,-3.998619,2.09194,-1.911493,-2.155378,3.029264,-2.630903,-2.8385,-0.9815428,3.639319,0.3300345,2.3818,3.275145,-1.205536,1.953636,-0.3733222,-3.26378,-0.4578984]
]
],
"biases":[
[
1.889672,2.306852,-3.459875,-1.164239,0.1252684,-0.2049069,0.6201254,1.310374,1.096607,-2.503192,-0.644348,-0.9841591,3.994818,-1.187227,1.902173,-0.3154958,3.191943,2.945623,-3.736365,-2.6491,2.568481,-1.265374,1.028026,-0.6120213,-2.06622
],
[
3.241615,3.704916
]
]},
{
"fitness":1.746674,
"weights":[
[
[-3.918405,-0.9131234,-0.7209882,-1.673261,-0.3716304,0.04443336,-3.668835,1.534325,2.602194,1.767467,-1.556655,-0.4195951,1.451216,3.933796,-1.157221,-0.389276,-0.6797464,2.824455,0.8856296,-1.251767,1.28528,-2.819267,-2.203428,-2.882687,-2.497689],
[2.731238,-2.398265,-3.69163,-0.5807576,-3.51733,-1.460689,2.12534,-3.116671,3.127143,1.858596,1.906041,1.680467,-2.01767,3.189817,0.2728869,-1.53123,3.898978,-1.003041,1.150835,-1.648499,0.966683,0.01676973,1.078971,2.111185,-1.432635],
[3.62839,-0.3781367,3.81037,-2.42769,3.963932,0.8872449,0.8281275,3.679844,-0.8956942,3.277353,-2.370559,-0.860395,-0.1904963,-2.594583,-1.347819,1.056169,-0.8653654,-3.303883,3.948113,-2.807033,2.705834,2.198217,1.497752,-3.631317,-3.160433],
[-0.6131486,-2.689198,-1.264976,-1.059124,-1.078917,-2.328711,1.062544,-1.504596,-3.94767,1.891915,1.154811,1.587257,0.5616991,-0.4286721,-3.714749,0.8340616,3.151654,3.533199,3.179331,-0.1234988,-0.6436778,1.60223,3.128549,1.802899,1.312082],
[-1.436041,2.164317,1.710795,2.732357,-0.04730619,-3.119438,-2.271251,-0.1843411,-1.792757,2.053169,-0.1409511,-1.372928,-0.1006996,2.955805,-1.365879,1.525783,-2.64857,-2.007011,-1.950475,-0.0177537,-0.9238326,-1.396264,0.3994184,1.632744,-0.3943034],
[0.6832377,-3.173568,2.661711,2.17555,-0.7793984,-1.752731,-1.74613,-0.1568426,0.7747623,2.991845,3.793433,-3.357533,2.456513,1.446187,2.742743,2.496536,2.721888,3.555032,-2.838554,-2.208824,-3.865416,3.138266,-0.4418356,3.887284,1.65111],
[1.054709,1.772935,-2.855644,-2.179605,-1.874428,-0.470055,1.179939,-1.251791,2.89197,-1.682865,-3.453681,-2.330694,-1.131971,-1.73649,0.9504899,-3.29852,0.2642373,-1.481917,2.107088,1.09666,1.04565,3.5937,-1.687521,1.803297,-0.7398071],
[0.8581115,1.799087,0.8648575,3.260206,0.08094499,2.009001,0.4096163,1.847188,0.9174514,3.870343,-2.336294,3.005442,1.975862,-3.385344,-2.429942,3.06675,0.1587778,-0.5753796,-1.511842,-3.431323,-2.215527,2.099791,-2.946186,-3.913987,0.9343255],
[3.065014,2.753481,2.452044,3.820502,-3.319827,0.1049437,1.12068,1.177598,-0.1710941,-0.1341426,-1.443168,-1.37699,-0.00237184,-1.154241,3.047549,-3.123861,2.118496,0.774076,2.710067,1.259817,-3.234489,2.00657,-0.8218955,-1.397444,-1.963199],
[-3.879526,1.168636,0.5482217,1.777203,-2.701019,-1.031245,2.971206,-1.161919,2.682748,-2.304242,1.720234,0.8606127,-0.125912,1.856341,2.301987,-1.146981,1.246231,2.236706,2.971829,-1.191796,-3.974442,3.272643,-1.925276,-3.836542,3.368272],
[2.639325,-1.564082,1.916381,0.4371414,0.8389339,-1.705032,-2.356574,3.681029,1.712117,-1.292619,2.362276,-2.200606,-2.621202,-2.990029,-3.483847,-0.360161,-2.441661,1.74354,3.265959,3.874846,-2.309801,0.3267199,-3.324365,0.1219189,-0.02917447],
[3.526497,3.136028,0.7966839,3.876861,3.763918,0.09890383,1.976256,1.013852,0.7557246,3.116471,2.656987,-3.992242,-2.125986,3.034846,-0.7096133,-3.640451,2.756322,-0.2013158,1.492204,-0.8954827,-2.039654,1.85852,3.901198,3.272245,2.152446],
[0.4327688,0.1052208,-1.385532,0.5223086,-1.238783,-0.9479874,1.675699,0.3571143,1.559712,3.3088,-0.5068402,3.324495,3.792895,-1.655004,-1.554943,-2.480672,1.184158,1.090212,0.7078368,2.393345,0.9733878,0.3683107,-2.48684,1.366812,2.088193],
[-0.7889581,3.497719,1.43402,-1.433622,3.730272,2.396086,-3.170605,-2.150347,-3.576701,-0.1668666,-2.630246,-1.084379,-3.115227,-0.6393518,2.658327,1.922449,0.2361923,-3.693322,-2.139245,-2.91966,-2.785837,-3.931175,-3.00573,0.2811841,3.278554],
[1.668499,2.092016,3.283633,3.10968,-3.943747,-1.887567,2.678932,2.230268,-0.3259979,0.2586162,-3.579707,3.045974,-1.529948,-2.884708,-3.88981,-1.402403,-3.555208,0.6001094,3.122252,2.563976,0.3888768,-2.5459,-1.257638,-1.078685,-3.735713],
[-0.3109766,-0.6923864,-0.8918363,1.54664,0.7724607,-2.623806,1.661106,3.343118,1.919125,3.438737,-0.2692521,1.106118,1.210517,2.945506,-0.7744355,-0.2793347,1.575138,-1.300443,0.1033525,-1.97001,-0.4790984,-0.9198431,-2.333428,-0.2840746,-2.83992],
[2.6224,-2.464316,-3.184394,-2.838085,3.847762,-0.4046324,1.933653,0.9324867,-3.4341,-1.659735,0.01906213,3.127873,-2.948771,-0.40092,0.7870387,-2.216701,-1.54749,0.4155903,1.221032,-2.012008,2.51361,-0.9428799,2.342097,1.753633,-0.5221156],
[3.099421,1.479324,-2.660454,0.5900823,-2.64667,-2.262872,-2.879587,-3.421324,-1.182963,-2.45356,0.3929585,3.373855,1.908647,1.78848,-3.210119,-3.158532,-3.150121,0.4759485,3.171053,-1.582284,1.580814,0.06330132,3.485936,-1.341556,3.864751],
[-1.755301,-2.589104,1.351359,0.06607434,-2.129713,-1.399334,-0.9693351,1.940291,-0.309713,-3.716127,-0.5289487,1.409213,-3.512938,-1.212973,-1.141346,2.433163,-1.850756,-1.603421,-3.185009,1.563372,1.347854,2.408341,-0.1401893,3.349785,3.183997],
[1.182457,-1.043462,-3.225649,-1.53126,-0.1887746,-0.9798312,2.352799,3.791794,-2.13796,1.749302,2.763307,0.4317945,-0.9418749,0.1939192,1.384963,1.610692,3.512138,-0.7223182,3.28045,0.4987966,2.540904,-1.78866,-1.96456,1.966908,-1.952724],
[0.7048986,0.3390743,1.744648,1.524909,-1.618173,-1.836519,-1.130954,0.3580244,0.3176878,2.634019,-3.951276,-0.4689044,-2.660263,0.8063327,3.575483,-2.495183,-2.741555,3.590267,1.654945,1.902056,-2.46389,-3.506681,-2.479965,3.284419,1.049973],
[3.839003,-0.2520185,0.388476,0.1958652,-2.473331,0.0484954,2.323175,-1.1941,-0.8502203,3.827191,2.905555,-1.377875,-0.8211189,-3.663448,-0.2957175,2.204699,-2.619935,-0.9174175,-2.331278,-1.655626,-0.09610821,2.899185,1.471696,2.062205,2.735426],
[-1.271479,-1.520257,1.353508,0.6192045,3.981085,-2.812912,0.7428787,2.259042,-0.03253262,-3.955243,2.252897,0.009895517,-1.906022,1.689958,-2.463272,0.5953557,3.0817,-2.701443,-0.005089311,-2.240999,-3.96099,-0.2854715,-2.296681,-2.499068,-2.016519],
[3.753431,3.812415,2.116357,3.610447,1.236005,-2.443977,2.322514,3.23277,-1.436885,-0.5021173,2.988812,1.002764,1.151637,-2.24961,0.3498648,2.104225,-0.9615436,3.592282,-3.99129,-2.999597,-3.303706,1.164839,1.513286,3.912304,1.63459],
[-1.490088,-0.3723729,-2.951419,3.726047,0.7666559,0.1132159,-3.550837,-1.661648,3.709976,-1.938939,0.4594615,-1.05948,-0.9821802,3.389023,1.28874,-0.06028608,-1.175043,0.488088,-2.394083,-2.791654,1.002618,1.811571,-3.317089,2.489071,-0.1796138]
],
[
[-3.309747,-3.450541,-0.5849254,-3.439741,1.724419,1.731402,2.299239,-2.943788,-2.695827,2.598064,-2.395439,1.589856,-0.177644,-2.247134,2.324214,-3.528036,3.289652,3.376971,0.01095542,-1.978609,0.9090728,3.974983,3.093263,-3.870636,1.487324],
[0.8507107,-0.6756492,-3.57827,2.593522,-1.598309,1.144186,3.884007,-3.181258,-3.998619,2.09194,-1.911493,-2.155378,3.029264,-3.331691,-2.8385,-0.1504878,3.639319,0.3300345,2.3818,-2.4843,-1.205536,1.953636,-0.3733222,-3.26378,-0.4578984]
]
],
"biases":[
[
1.889672,2.306852,-3.459875,-1.164239,0.1252684,3.559243,0.6201254,1.310374,1.096607,1.655956,-0.644348,-0.9841591,3.994818,-1.187227,2.648026,-0.3154958,3.191943,2.945623,-3.736365,-2.6491,2.568481,-1.265374,1.028026,-0.7082072,-2.06622
],
[
3.241615,3.704916
]
]},
{
"fitness":1.743155,
"weights":[
[
[-3.918405,-0.9131234,-2.695458,-0.6767324,-0.3716304,0.04443336,-3.668835,1.534325,2.602194,1.767467,-1.556655,-0.4195951,-0.8048707,3.933796,0.915611,-1.611477,2.930552,2.824455,3.619966,-1.251767,1.28528,-2.819267,-2.203428,-2.882687,-2.497689],
[2.731238,-2.398265,-3.69163,-0.5807576,1.27008,-1.460689,2.12534,-3.116671,3.127143,-2.75731,1.906041,1.680467,-2.01767,3.189817,0.2728869,2.181584,3.898978,3.869013,1.150835,-1.648499,0.966683,0.01676973,1.078971,2.111185,-1.432635],
[3.62839,-0.3781367,3.81037,-2.42769,3.963932,0.2093233,0.8281275,3.679844,-1.996082,3.277353,-2.370559,-0.860395,-0.1904963,-2.594583,-1.347819,0.4964347,1.535775,-3.303883,3.948113,-2.807033,2.910746,2.198217,1.497752,2.66483,-3.160433],
[-0.6131486,-2.689198,-1.264976,-1.470241,-1.078917,2.814058,1.062544,-1.504596,-3.94767,-2.697784,1.154811,1.587257,0.5616991,-0.4286721,0.7475831,0.8340616,3.151654,3.533199,3.179331,0.7181488,-3.386353,1.60223,3.128549,1.802899,1.312082],
[-1.436041,2.164317,1.710795,2.732357,-3.026259,-3.119438,-2.271251,3.809075,-1.692512,3.372704,-0.1409511,-1.372928,-0.1006996,2.955805,-1.365879,-0.3900694,-2.64857,-2.007011,-1.950475,-0.01264639,-0.9238326,2.746399,0.3994184,1.632744,-1.08117],
[-1.631329,-3.173568,2.661711,-3.119395,-0.7793984,-1.752731,1.728764,-0.1568426,3.49713,2.991845,3.793433,-3.357533,2.456513,1.446187,2.742743,2.496536,2.765265,3.555032,-2.838554,-2.208824,-3.865416,3.138266,-0.4418356,3.887284,1.65111],
[1.054709,1.772935,-2.855644,-2.179605,-3.24647,-0.470055,1.179939,-1.251791,2.89197,-1.682865,-3.453681,-3.365691,-1.131971,-1.73649,-2.932632,1.550807,0.2642373,-1.481917,1.840693,1.09666,1.04565,3.5937,-1.687521,1.803297,-3.464977],
[2.874508,1.799087,-2.718486,3.260206,0.08094499,2.581542,0.4096163,-0.5612042,-1.371437,3.870343,-2.336294,3.005442,1.975862,-3.385344,1.35429,3.06675,0.1587778,-0.5753796,-1.511842,-3.431323,-2.215527,2.099791,-2.946186,-3.913987,0.9343255],
[3.065014,2.753481,2.452044,3.820502,-0.5990639,1.126242,1.12068,1.717676,-0.1710941,-1.699886,-2.702503,-1.37699,-0.00237184,-1.154241,3.047549,-3.123861,1.40946,0.774076,2.710067,1.259817,-3.234489,-1.561575,-0.8218955,-1.397444,-1.963199],
[-3.879526,1.168636,0.5482217,1.777203,-2.701019,-1.031245,2.971206,-1.161919,2.682748,-2.304242,3.271792,-3.029985,-0.125912,-1.899931,2.301987,3.021388,1.246231,2.236706,2.971829,-3.460142,-3.974442,3.272643,-1.925276,-3.836542,-0.3173004],
[2.639325,2.580108,1.239018,0.4371414,0.8389339,-1.705032,-2.356574,3.681029,1.712117,-1.292619,2.362276,-1.01295,-2.621202,-2.990029,-3.483847,-0.3052569,-2.441661,1.74354,3.265959,3.874846,-2.309801,0.3267199,1.574907,0.1219189,-0.02917447],
[2.867215,3.136028,0.7966839,3.876861,3.763918,0.09890383,-2.234848,1.013852,0.7557246,-1.258158,0.9445412,-3.992242,-1.817054,3.034846,-0.7096133,-3.640451,2.756322,-0.2013158,1.492204,-0.8954827,0.3293706,1.85852,3.901198,3.272245,2.152446],
[0.4327688,2.239216,-2.951811,-0.3539301,-1.238783,-0.9479874,1.675699,0.3571143,1.559712,3.3088,-0.5068402,0.4719062,2.334626,-1.655004,-1.554943,-2.480672,1.184158,1.090212,-2.217273,3.556181,3.473184,3.012221,-2.48684,-0.6276857,2.088193],
[-0.7889581,3.497719,-0.8388608,0.574327,3.730272,2.396086,-3.170605,-2.150347,-3.576701,-0.1668666,-2.630246,3.479588,2.121588,-0.6393518,2.658327,-2.949576,0.2361923,-3.693322,-2.139245,-2.91966,-2.785837,-3.931175,-3.00573,-2.931086,2.550149],
[1.060904,2.092016,-3.489779,3.10968,-1.690188,-1.887567,2.678932,-0.6942507,-0.3259979,0.2586162,-3.579707,3.045974,-1.529948,-2.884708,-3.88981,-1.402403,0.5307357,0.6001094,3.122252,2.563976,0.3888768,-2.5459,-1.257638,2.936825,2.188319],
[-0.3109766,3.457872,-0.8918363,1.54664,0.7724607,-1.398891,1.661106,3.343118,1.919125,3.438737,-0.2692521,1.106118,1.210517,2.945506,-0.7744355,-0.2793347,1.575138,1.052858,0.1033525,-1.97001,-0.6516829,-0.9198431,-2.333428,-0.2840746,-2.83992],
[2.6224,-2.464316,-3.184394,-2.838085,3.847762,-0.4046324,-1.973784,0.9324867,-3.4341,0.7664142,0.01906213,-0.9661769,-2.948771,-0.7151943,0.7870387,-2.216701,-1.54749,0.4155903,1.221032,-2.012008,2.51361,-0.9428799,2.342097,2.972224,-0.5221156],
[3.099421,1.479324,-2.474978,0.5900823,1.250105,-2.262872,-2.879587,-3.421324,-1.182963,-2.434433,0.3929585,3.373855,1.908647,1.78848,1.254274,-3.158532,-3.150121,0.4759485,-1.905231,-1.582284,1.580814,0.06330132,3.485936,-1.341556,3.864751],
[-1.755301,-2.589104,1.351359,3.720619,-2.129713,-1.399334,-3.214818,0.1917525,-0.309713,-3.716127,-0.5289487,1.409213,-3.512938,-1.212973,-1.141346,2.433163,-1.850756,-1.603421,-3.185009,1.563372,1.347854,0.5439867,2.929036,3.349785,-1.029867],
[1.182457,-1.043462,1.269853,-1.53126,-0.1887746,-0.9798312,2.352799,3.791794,-2.13796,1.749302,2.763307,0.4317945,-0.9418749,-2.124984,1.384963,1.610692,-1.709167,-3.138134,3.28045,0.247689,2.540904,-1.78866,-3.693176,1.966908,-1.952724],
[-1.124298,0.3390743,1.744648,-3.485857,-3.58614,-1.836519,-2.616344,0.3580244,0.3176878,2.634019,-3.951276,-0.4689044,0.2621455,0.8063327,3.575483,-2.948345,-2.741555,3.590267,1.654945,1.902056,-2.46389,-3.506681,0.4660929,-2.101543,-0.7581153],
[3.839003,-0.2520185,-0.314568,3.393105,-3.269766,0.0484954,2.323175,-1.1941,-0.8502203,-2.722518,1.745645,-1.377875,-0.8211189,-3.663448,-3.930517,2.204699,-2.619935,-0.9174175,-2.331278,-1.655626,-0.09610821,2.899185,1.471696,-3.556239,1.043775],
[2.906662,-3.214293,1.353508,0.6192045,3.981085,-2.637844,0.7428787,-3.79802,-0.03253262,1.46569,2.252897,0.009895517,-1.906022,1.689958,-2.463272,0.5953557,1.44872,-2.701443,-0.005089311,-2.240999,-3.96099,-0.7577999,-2.296681,-2.499068,-1.107167],
[3.753431,3.812415,2.116357,3.610447,-2.604387,-2.443977,-3.050644,3.23277,-1.436885,0.7483516,2.988812,-0.9334341,-0.6764414,-2.24961,0.3498648,2.104225,-0.9615436,3.592282,-3.99129,-2.999597,-3.303706,1.306268,1.513286,3.912304,1.63459],
[3.65998,-0.3723729,-2.951419,3.726047,0.7666559,3.779369,1.306853,-1.661648,3.709976,-1.938939,0.4594615,-3.961317,-0.9821802,3.389023,1.28874,-0.06028608,-1.175043,0.488088,-2.394083,-2.791654,1.002618,3.786209,-3.317089,2.489071,-0.1796138]
],
[
[-3.309747,2.821021,-0.5849254,1.504169,-3.746889,1.731402,2.299239,-2.943788,0.006146193,2.598064,-0.08750089,1.589856,-0.177644,-2.247134,2.324214,-3.528036,3.289652,3.376971,0.01095542,-1.978609,0.9090728,3.974983,3.093263,-2.83809,2.757661],
[0.8507107,-0.6756492,-3.57827,2.593522,-1.598309,3.224866,3.884007,-3.181258,-3.998619,2.828469,-1.911493,-2.155378,3.029264,-2.630903,-2.8385,-0.1504878,3.639319,0.3300345,2.54841,-2.4843,-0.7657508,1.953636,-0.3733222,-3.26378,-0.4578984]
]
],
"biases":[
[
1.889672,1.926405,-3.459875,-1.164239,0.1252684,-3.421046,0.6201254,1.310374,1.096607,1.655956,-0.644348,-0.9841591,3.994818,-1.187227,2.648026,-0.3154958,3.191943,2.945623,-3.736365,-2.762985,2.568481,-1.265374,1.028026,-0.6120213,1.278247
],
[
3.241615,3.704916
]
]},
{
"fitness":1.730061,
"weights":[
[
[-3.918405,-0.9131234,-0.7209882,-0.6767324,-0.3716304,0.04443336,-3.668835,1.534325,2.602194,1.767467,-1.556655,-0.4195951,1.307081,3.933796,0.915611,-0.389276,-0.6797464,2.824455,0.8856296,-3.691942,1.28528,-2.819267,-2.203428,-3.144644,-2.497689],
[2.731238,-2.398265,1.035019,-0.5807576,-3.51733,-1.460689,2.12534,-3.116671,3.127143,1.858596,1.906041,0.869724,-2.01767,3.189817,0.2728869,2.181584,3.898978,-1.003041,1.150835,-1.648499,0.966683,0.01676973,1.078971,2.111185,-1.432635],
[3.62839,-0.3781367,3.226645,-2.42769,3.963932,0.2093233,0.8281275,-0.9003459,2.825657,3.277353,-2.474146,-0.860395,-0.1904963,-2.594583,-1.347819,0.4964347,1.535775,-3.303883,-2.785171,-2.807033,2.705834,2.198217,-1.290921,-3.631317,-0.9347053],
[-0.6131486,-2.387188,-1.264976,-1.059124,-1.078917,-2.328711,1.062544,-1.504596,-0.9762166,-2.697784,1.154811,1.587257,0.5616991,-0.4286721,2.98609,0.8340616,3.151654,3.533199,3.179331,0.7181488,-3.386353,1.60223,3.128549,1.802899,1.312082],
[-1.436041,2.164317,1.710795,2.732357,3.48261,-2.327608,-2.271251,-0.1843411,3.384658,2.053169,-0.1409511,-1.372928,-0.1006996,2.955805,-0.8906233,2.79518,-2.64857,-2.007011,-1.950475,-0.0177537,-2.392094,-1.857748,2.034085,1.632744,-1.08117],
[3.187668,-3.173568,2.661711,-3.119395,-0.7793984,-1.752731,-1.74613,-0.1568426,3.740665,0.8899747,3.793433,-3.357533,2.456513,1.446187,2.742743,2.496536,2.721888,3.555032,-2.838554,-2.208824,-3.865416,3.138266,-0.4418356,3.887284,1.65111],
[1.054709,1.772935,-2.855644,-2.179605,-3.24647,-0.470055,-0.01738864,-1.251791,2.89197,-1.682865,-3.186352,-2.330694,-1.131971,2.716323,-2.932632,-3.29852,-3.459008,2.75324,1.840693,1.09666,1.04565,3.605959,-1.687521,1.803297,2.028693],
[0.8581115,1.506133,0.8648575,1.656601,0.08094499,2.581542,0.4096163,1.847188,0.9174514,3.870343,-2.336294,3.005442,1.975862,2.434591,-2.429942,3.06675,0.1587778,-0.5753796,-1.511842,-3.431323,1.933653,2.099791,-2.946186,-3.913987,0.9343255],
[3.065014,2.753481,2.452044,3.820502,-3.319827,0.1049437,1.12068,1.717676,-0.1710941,-0.1341426,-1.443168,-1.37699,-0.00237184,1.757818,3.047549,-3.123861,2.118496,0.774076,2.710067,1.259817,-3.234489,2.00657,-0.8218955,-1.397444,-1.963199],
[-3.879526,1.168636,0.5482217,1.777203,-2.701019,0.267665,-3.677463,-0.3869942,2.682748,-2.304242,1.720234,0.8606127,-0.125912,-1.899931,2.301987,-1.146981,-2.770567,2.236706,2.971829,-1.191796,-3.974442,3.272643,0.1076548,-3.836542,-0.6717389],
[2.639325,-1.564082,1.239018,0.4371414,-0.622781,-1.705032,-2.356574,3.681029,1.712117,-1.292619,2.362276,-3.624359,-2.621202,-2.974711,-3.483847,-0.360161,-2.441661,1.74354,-3.226523,3.874846,-2.309801,0.3267199,-3.324365,0.1219189,-0.6424714],
[3.526497,3.136028,-2.595377,3.876861,3.763918,0.09890383,1.976256,1.013852,0.7557246,-1.258158,2.656987,-3.992242,-2.125986,3.034846,-0.7096133,-2.721697,2.756322,-0.2013158,1.492204,-0.8954827,-2.039654,1.85852,3.901198,-2.722194,2.152446],
[0.4327688,2.239216,1.70757,0.5223086,-1.238783,-0.9479874,1.675699,0.3571143,1.559712,3.645736,-0.5068402,3.324495,3.792895,-1.655004,-1.554943,-2.480672,0.4198271,1.090212,0.7078368,3.556181,0.9733878,0.4148367,-2.48684,1.366812,2.088193],
[-0.7889581,3.497719,1.43402,-1.433622,3.730272,2.396086,-3.170605,-2.150347,-3.576701,0.4796789,-2.630246,-2.888375,2.121588,3.439754,2.658327,3.317723,0.2361923,-3.693322,-2.139245,-0.9893766,-2.785837,-3.931175,-3.00573,0.2811841,-0.4706669],
[1.060904,2.092016,3.283633,3.10968,-3.943747,-1.887567,-2.231572,2.230268,-0.3259979,0.2586162,2.654376,3.269182,-1.529948,-2.884708,-3.88981,0.07780182,1.24338,0.6001094,3.122252,2.563976,0.3888768,-2.5459,-1.257638,-0.09488028,2.188319],
[2.356955,3.457872,-1.442595,1.54664,0.7724607,-3.59509,1.661106,2.834336,1.919125,3.438737,2.76498,1.106118,1.210517,2.945506,-0.7744355,-0.2793347,1.575138,1.052858,0.1033525,2.618355,-0.4790984,-0.9198431,-2.333428,2.889965,-2.83992],
[2.6224,-2.464316,-3.184394,-2.838085,-2.10712,-0.4046324,1.631852,-3.194912,-3.4341,3.672686,0.01906213,-0.9661769,-2.948771,-0.40092,0.7870387,-2.216701,-1.54749,0.4155903,1.221032,-2.012008,2.51361,-0.9428799,2.342097,2.972224,-0.5221156],
[3.099421,1.479324,-2.660454,-1.144494,-2.951153,-2.262872,1.418362,-3.421324,-1.182963,-2.45356,0.3929585,3.373855,1.908647,1.78848,-3.210119,-3.158532,-2.349582,0.4759485,-1.6522,-1.582284,1.580814,-3.547178,3.485936,-1.341556,3.864751],
[-1.755301,-2.589104,1.351359,0.06607434,-2.129713,-2.700912,-1.561712,0.1917525,-0.309713,-3.716127,-0.5289487,1.409213,-1.201227,-1.212973,-1.141346,2.433163,-1.850756,-1.603421,-3.185009,1.563372,1.347854,-2.708803,-0.546683,3.349785,3.183997],
[1.182457,-1.043462,-3.479763,-1.53126,-2.581902,2.102916,1.712535,3.791794,-2.13796,1.749302,2.763307,2.868974,-0.9418749,-3.174985,1.384963,1.610692,-1.709167,-0.7223182,-0.3810404,0.4987966,2.540904,3.001267,1.548185,1.966908,-1.952724],
[0.7048986,0.3390743,0.6959315,1.524909,-3.58614,-1.836519,-1.130954,0.3580244,0.3176878,2.634019,-3.951276,-0.4689044,-2.660263,0.8063327,3.575483,-2.495183,-2.741555,3.590267,1.654945,1.902056,-2.46389,-3.506681,-2.479965,-2.101543,2.28396],
[3.839003,-0.2520185,0.388476,3.393105,-2.473331,3.861728,2.323175,-1.1941,-0.8502203,3.827191,1.745645,-1.377875,-0.8211189,-3.663448,-0.2957175,2.204699,-2.619935,-0.9174175,-2.331278,-1.655626,-0.09610821,2.51015,1.471696,2.062205,0.994782],
[-1.271479,-3.214293,1.353508,-0.7939811,3.981085,-2.812912,0.7428787,2.259042,2.846181,-3.955243,2.252897,0.009895517,-1.906022,1.689958,-2.463272,0.5953557,3.0817,-2.701443,-0.005089311,-2.240999,-3.96099,3.306706,-2.296681,-2.499068,-2.353034],
[3.835494,3.812415,0.09412374,3.610447,1.236005,-2.443977,2.322514,3.23277,-1.436885,-0.5021173,2.988812,1.002764,-1.183483,-2.24961,0.3498648,2.104225,-0.9615436,3.592282,-1.926166,-2.999597,-3.303706,1.164839,1.513286,3.912304,1.63459],
[-1.490088,-0.3723729,-2.951419,3.726047,0.7666559,0.1132159,-3.550837,-1.661648,3.709976,-1.938939,0.4594615,-3.961317,-0.9821802,3.389023,1.28874,-0.06028608,-1.175043,0.488088,-2.394083,3.970162,1.002618,1.811571,-3.317089,2.489071,-0.1796138]
],
[
[-3.309747,-0.0249344,-0.5849254,-3.439741,0.4045439,1.731402,2.299239,-2.943788,0.006146193,-2.507017,-2.395439,0.5732992,-0.177644,-2.247134,2.324214,-2.770778,0.1818839,3.376971,0.01095542,-1.978609,0.9090728,3.974983,3.093263,-3.870636,2.757661],
[0.8507107,-0.6756492,-3.57827,2.593522,-1.598309,1.144186,3.884007,-3.181258,-3.998619,2.09194,-1.911493,-2.155378,3.029264,-2.630903,-2.8385,-0.1504878,3.639319,0.3300345,-2.03402,0.4263518,-1.205536,1.953636,-0.3733222,-3.26378,-0.4578984]
]
],
"biases":[
[
1.889672,3.817871,-3.459875,-1.164239,0.1252684,-0.2049069,0.6201254,1.310374,1.096607,1.655956,-3.690558,-0.9841591,3.994818,-1.187227,2.648026,-0.3154958,3.191943,2.945623,-3.736365,-2.6491,2.568481,-1.265374,1.028026,-0.6120213,-2.06622
],
[
3.241615,3.704916
]
]},
{
"fitness":1.727136,
"weights":[
[
[-3.918405,-0.9131234,-2.695458,-0.6767324,-0.3716304,0.04443336,-3.668835,1.534325,2.602194,1.767467,-1.556655,-0.4195951,-0.8048707,3.933796,0.915611,-1.611477,2.930552,2.824455,0.8856296,-1.251767,1.28528,-2.819267,-2.203428,-2.882687,-2.497689],
[2.731238,-2.398265,-3.69163,-0.5807576,0.2214159,-1.460689,2.12534,-3.116671,3.127143,-2.75731,1.906041,1.680467,-2.01767,3.189817,0.2728869,2.181584,3.898978,3.869013,1.150835,-1.648499,0.966683,0.01676973,1.078971,2.111185,-1.432635],
[3.62839,-0.3781367,3.81037,-2.42769,3.963932,0.2093233,0.8281275,3.679844,-1.996082,3.277353,-2.370559,-0.860395,-0.1904963,-2.594583,-1.347819,0.4964347,1.535775,-3.303883,3.948113,-2.807033,2.910746,2.198217,1.497752,2.66483,-3.160433],
[-0.6131486,-2.689198,-1.264976,-1.470241,-1.078917,2.814058,1.062544,-1.504596,-3.94767,-2.697784,1.154811,1.587257,0.5616991,-0.4286721,0.7475831,0.8340616,3.151654,3.533199,3.179331,0.7181488,-3.386353,1.60223,3.128549,1.802899,1.312082],
[-1.436041,2.164317,1.710795,2.732357,-3.026259,-3.119438,-2.271251,3.809075,-1.692512,0.8730461,-0.1409511,-1.372928,-0.1006996,2.955805,-1.365879,-0.3900694,-2.64857,-2.007011,-1.950475,-0.01264639,-0.9238326,2.746399,0.3994184,1.632744,-1.08117],
[0.6832377,-3.173568,2.661711,-3.119395,-0.7793984,-1.752731,1.728764,-0.1568426,-2.007231,2.991845,3.793433,-3.357533,2.456513,1.446187,2.742743,2.496536,2.765265,3.555032,-2.838554,-2.208824,-3.865416,3.138266,-0.4418356,3.887284,1.65111],
[1.054709,1.772935,-2.855644,-2.179605,-3.24647,-0.470055,1.179939,-2.316912,2.89197,-1.682865,-3.453681,-3.365691,-1.131971,-1.73649,-2.932632,3.443539,0.2642373,-1.481917,1.840693,1.09666,1.04565,3.5937,-1.687521,1.803297,-3.464977],
[2.874508,1.799087,-2.718486,3.260206,0.08094499,2.581542,0.4096163,-0.5612042,-1.371437,3.870343,-2.336294,3.005442,1.975862,-3.385344,1.35429,3.06675,0.1587778,-0.5753796,-1.511842,-3.431323,-2.215527,2.099791,-2.946186,-3.913987,0.9343255],
[3.065014,2.753481,2.452044,3.820502,-0.5990639,1.126242,1.12068,1.717676,-0.1710941,-1.699886,-2.702503,-1.37699,-0.00237184,-1.154241,3.047549,-3.123861,1.40946,0.774076,2.710067,1.259817,-3.234489,-1.561575,-0.8218955,-1.397444,-1.963199],
[-3.879526,1.168636,0.5482217,1.777203,-2.701019,-1.031245,2.971206,-1.161919,2.682748,-2.304242,3.271792,-1.576976,-0.125912,-1.899931,2.301987,3.021388,1.246231,2.236706,2.971829,-3.460142,-3.974442,3.272643,-1.925276,-3.836542,-0.3173004],
[2.639325,2.580108,1.239018,0.4371414,0.8389339,-1.705032,-2.356574,3.681029,1.712117,-1.292619,2.362276,-1.01295,-2.621202,-2.990029,-3.483847,-0.3052569,-2.441661,1.74354,3.265959,3.874846,-2.309801,0.3267199,1.574907,0.1219189,-0.02917447],
[2.867215,3.136028,0.7966839,3.876861,3.763918,0.09890383,-2.234848,1.013852,0.7557246,1.018717,0.9445412,-2.395681,-1.817054,3.034846,-0.7096133,-3.640451,2.756322,-0.2013158,1.492204,-0.8954827,0.3293706,1.85852,3.901198,3.272245,2.152446],
[0.4327688,2.239216,-2.951811,-0.3539301,-1.238783,-0.9479874,1.675699,0.3571143,1.559712,3.3088,-0.5068402,0.4719062,2.334626,-1.655004,-1.554943,-2.480672,1.184158,1.090212,-2.217273,3.556181,3.473184,3.012221,-2.48684,-0.6276857,2.088193],
[-0.7889581,3.497719,-0.8388608,0.574327,3.730272,-3.27117,-2.589984,-2.150347,-3.576701,-0.1668666,-2.630246,3.479588,2.121588,-0.6393518,2.658327,-2.949576,0.2361923,-3.693322,-2.139245,-2.91966,-2.785837,-3.931175,-3.00573,3.815072,2.550149],
[1.060904,2.092016,-3.489779,3.10968,-1.690188,-1.887567,2.678932,2.230268,-0.3259979,0.2586162,-3.579707,3.045974,-1.529948,-2.884708,-3.88981,-1.402403,0.5307357,0.6001094,3.122252,2.563976,0.3888768,-2.5459,-1.257638,-0.09488028,2.188319],
[-0.3109766,3.457872,-0.8918363,1.54664,0.7724607,-1.398891,1.661106,3.343118,1.919125,3.438737,-0.2692521,1.106118,1.210517,2.945506,-0.7744355,-0.2793347,1.575138,1.052858,0.1033525,-1.97001,-3.242619,-0.9198431,-2.333428,-0.2840746,0.2185064],
[2.6224,-2.464316,-3.184394,-2.838085,3.847762,-0.4046324,-1.973784,0.9324867,-3.4341,0.7664142,0.01906213,-0.9661769,-2.948771,-0.7151943,0.7870387,-2.216701,1.397126,0.4155903,1.221032,-2.012008,2.51361,-0.9428799,2.342097,2.972224,-0.5221156],
[3.099421,1.479324,-2.474978,0.5900823,1.250105,-2.262872,-2.879587,-3.421324,-1.182963,-2.434433,0.3929585,3.373855,1.908647,1.78848,1.254274,-3.158532,-3.150121,0.4759485,-1.905231,-1.582284,1.580814,0.06330132,3.485936,-1.341556,3.864751],
[-1.755301,-2.589104,1.351359,1.895244,-2.129713,-1.399334,-3.214818,0.1917525,-0.309713,-3.716127,-0.5289487,1.409213,-3.512938,-1.212973,-1.141346,2.433163,-1.850756,-1.603421,-3.185009,1.563372,1.347854,0.5439867,2.734368,3.349785,-1.029867],
[1.182457,-1.043462,1.269853,-1.53126,-0.1887746,-0.9798312,2.352799,3.791794,-2.13796,1.749302,2.763307,0.4317945,-0.9418749,-2.124984,1.384963,1.610692,-1.709167,-3.138134,3.28045,0.247689,2.540904,-1.78866,-3.693176,-2.751601,-1.952724],
[-1.124298,0.3390743,1.744648,1.524909,-3.58614,-1.836519,-2.616344,0.3580244,0.3176878,2.634019,-3.951276,-0.4689044,0.2621455,-2.327344,3.575483,-2.948345,-2.741555,3.590267,1.654945,1.902056,-2.46389,-3.506681,0.4660929,-2.101543,-0.7581153],
[3.839003,-0.2520185,-0.314568,3.393105,-3.269766,0.0484954,2.323175,-1.1941,-0.8502203,-2.722518,1.745645,-1.377875,-0.8211189,-3.663448,-3.930517,-3.993513,-2.619935,-0.9174175,-2.331278,-1.655626,-0.09610821,-1.414306,1.471696,2.062205,1.043775],
[2.906662,-3.214293,1.353508,0.6192045,3.981085,-2.637844,0.7428787,-3.79802,-0.03253262,1.46569,2.252897,0.009895517,-1.906022,1.689958,-2.463272,0.5953557,3.0817,-2.701443,-0.005089311,-2.240999,-3.96099,-0.7577999,-2.296681,-2.499068,-1.107167],
[3.753431,3.812415,2.116357,3.610447,-2.604387,-2.443977,2.322514,3.23277,-1.436885,0.7483516,2.988812,-0.9334341,-0.6764414,-2.24961,0.3498648,2.104225,-0.9615436,3.592282,-3.99129,-2.999597,-3.303706,1.306268,1.513286,3.912304,1.63459],
[1.30527,-0.3723729,-2.951419,3.726047,0.7666559,-0.5684705,1.306853,-1.661648,3.709976,-1.938939,0.4594615,-3.961317,-0.9821802,3.389023,1.28874,-0.06028608,-1.175043,0.488088,-2.394083,-2.791654,1.002618,3.786209,-3.317089,2.489071,-0.1796138]
],
[
[-3.309747,2.821021,-0.5849254,1.504169,-3.746889,1.731402,2.299239,-2.943788,0.006146193,2.598064,-0.08750089,1.589856,-0.177644,-2.247134,2.324214,-3.528036,3.289652,3.376971,0.01095542,-1.978609,0.9090728,3.974983,3.093263,-2.83809,2.757661],
[0.8507107,-0.6756492,-3.57827,2.593522,-1.598309,3.224866,3.884007,-3.181258,-3.998619,2.828469,-1.911493,-2.155378,3.029264,-2.630903,-2.8385,-0.1504878,3.639319,0.3300345,1.037491,-2.4843,-0.7657508,1.953636,-0.3733222,-3.26378,-0.4578984]
]
],
"biases":[
[
1.889672,1.926405,-3.459875,-1.164239,0.1252684,-0.6311674,0.6201254,1.310374,1.096607,1.655956,-0.644348,-0.9841591,3.994818,-1.187227,2.648026,-0.3154958,3.191943,2.945623,-3.736365,-2.762985,2.568481,-1.265374,1.028026,-0.6120213,1.278247
],
[
3.241615,3.704916
]
]},
{
"fitness":1.701524,
"weights":[
[
[1.954823,-0.2337667,-0.7209882,-0.6767324,-0.3716304,0.04443336,-3.668835,1.534325,2.602194,1.767467,-1.556655,-1.735788,1.307081,3.933796,0.915611,-0.389276,-0.6797464,2.824455,0.8856296,-1.251767,-2.048475,-2.819267,-2.203428,-2.882687,-2.497689],
[2.731238,-2.398265,-3.69163,-0.5807576,-3.51733,-1.460689,2.12534,-3.116671,3.127143,1.858596,1.906041,1.680467,-2.01767,3.189817,0.2728869,2.181584,3.898978,-1.003041,3.469692,-1.648499,0.966683,0.01676973,1.078971,2.111185,-1.432635],
[3.62839,-0.3781367,3.81037,-2.42769,3.963932,0.2093233,0.8281275,3.679844,1.442591,3.277353,-2.370559,-0.8047395,-0.1904963,-2.594583,-1.347819,0.4964347,1.535775,-3.303883,3.948113,-2.807033,2.705834,2.198217,1.497752,-3.631317,1.717823],
[-0.763419,-2.689198,-1.264976,-1.059124,-1.078917,-2.328711,1.062544,-1.504596,-3.94767,-2.697784,1.154811,1.587257,0.5616991,-0.4286721,-1.607341,0.8340616,3.151654,3.533199,3.179331,-0.1234988,-3.386353,1.60223,3.128549,0.9530247,1.312082],
[-1.436041,2.164317,1.710795,2.732357,3.48261,-3.119438,-2.271251,-0.1843411,-1.792757,2.053169,-0.1409511,-1.372928,-0.1006996,2.955805,-1.365879,-0.3900694,-2.64857,-2.007011,-1.950475,-0.0177537,-0.9238326,-1.396264,0.3994184,1.632744,-1.08117],
[0.6832377,-3.173568,2.661711,-1.922234,-0.7793984,-1.752731,-1.74613,-0.1568426,-2.007231,2.991845,3.793433,-3.357533,2.456513,1.446187,2.742743,2.496536,2.721888,3.555032,-2.838554,-2.208824,1.853405,3.138266,-0.4418356,3.887284,1.65111],
[1.054709,1.772935,-2.855644,-2.179605,-3.24647,-0.470055,1.179939,-1.251791,2.89197,-1.682865,-3.453681,-2.330694,-1.131971,-1.73649,-2.932632,-3.29852,0.2642373,-1.481917,2.107088,1.09666,1.04565,3.5937,-1.687521,1.803297,2.028693],
[0.8581115,1.799087,0.8648575,3.260206,0.08094499,2.009001,0.4096163,1.847188,0.9174514,3.870343,-2.336294,3.005442,1.975862,-3.385344,-2.429942,3.06675,0.1587778,-0.5753796,-1.511842,-3.431323,-2.215527,2.099791,-2.946186,-3.913987,0.9343255],
[3.065014,2.402549,2.452044,3.820502,-3.319827,0.1049437,1.12068,1.717676,-0.1710941,-0.1341426,-1.443168,-1.37699,-0.00237184,-1.154241,3.047549,-3.123861,2.118496,0.774076,2.710067,1.259817,-3.234489,2.00657,-0.8218955,-1.397444,-1.963199],
[-3.879526,1.168636,0.5482217,1.777203,-2.701019,-1.031245,2.971206,-1.161919,2.682748,-2.304242,2.55411,0.8606127,-0.125912,-1.899931,2.301987,-1.146981,1.246231,2.236706,2.971829,-1.191796,-3.974442,3.272643,-1.925276,-3.836542,3.368272],
[2.639325,-1.564082,1.239018,0.4371414,0.8389339,-1.705032,-2.356574,3.681029,1.712117,-1.292619,2.362276,-2.200606,-2.621202,-2.990029,-3.483847,-0.360161,-2.441661,1.74354,3.265959,3.874846,3.142876,0.3267199,-3.324365,0.1219189,-0.02917447],
[3.526497,3.136028,0.7966839,3.876861,3.763918,0.09890383,1.976256,1.013852,0.7557246,-1.258158,2.656987,-3.992242,-2.125986,3.034846,-0.1343481,-3.640451,2.756322,-0.2013158,1.492204,-0.8954827,-2.039654,1.85852,3.901198,3.272245,2.152446],
[0.4327688,2.239216,-2.951811,0.5223086,-1.238783,-0.9479874,1.675699,0.3571143,1.559712,3.3088,-0.5068402,2.833815,3.792895,-1.655004,-1.554943,-2.480672,1.184158,1.090212,0.7078368,2.393345,0.9733878,0.3683107,-2.48684,1.366812,2.088193],
[-0.7889581,3.497719,1.43402,-1.433622,3.730272,2.396086,-3.170605,-2.150347,-3.030112,-0.1668666,0.6561255,-1.084379,2.121588,-0.6393518,2.658327,3.317723,0.2361923,-3.693322,-2.139245,-2.91966,-2.785837,-3.931175,-3.00573,0.2811841,2.550149],
[1.060904,2.092016,3.283633,3.10968,-3.943747,-1.887567,2.678932,2.230268,-0.3259979,0.2586162,-3.579707,2.811095,-1.529948,-2.884708,-3.88981,-1.402403,-3.555208,0.6001094,3.122252,2.563976,0.3888768,-2.5459,-1.257638,-1.078685,2.188319],
[-0.3109766,3.031402,-0.8918363,1.54664,0.7724607,-3.59509,1.661106,3.343118,1.919125,3.438737,-0.2692521,1.106118,1.210517,2.945506,-0.7744355,-0.2793347,1.575138,1.052858,0.1033525,-1.97001,-0.4790984,-0.9198431,-2.333428,-0.2840746,-2.83992],
[2.6224,-2.464316,-3.184394,-2.838085,3.847762,-0.4046324,-1.84898,0.9324867,-3.4341,-1.659735,-0.2062845,-0.9661769,-2.948771,-0.40092,0.7870387,-2.216701,-1.54749,0.4155903,1.221032,-2.012008,2.51361,-0.9428799,2.342097,2.972224,-0.5221156],
[-0.7617531,1.479324,-2.660454,0.5900823,1.250105,-2.262872,-2.879587,-3.421324,-1.182963,-2.45356,0.3929585,3.373855,1.908647,1.78848,-3.210119,-3.158532,-3.150121,0.4759485,3.171053,-1.582284,1.580814,0.06330132,3.485936,-1.341556,3.864751],
[-1.755301,-2.589104,1.351359,0.06607434,-2.129713,-1.399334,-0.9693351,0.1917525,-0.309713,-3.716127,-0.5289487,1.409213,-3.512938,-1.212973,-1.141346,2.433163,-1.850756,-1.603421,-3.185009,1.563372,1.347854,0.5439867,-0.1401893,3.349785,3.183997],
[1.182457,-1.043462,-3.479763,-1.53126,2.499061,-0.9798312,2.352799,3.791794,-2.13796,1.749302,2.763307,0.4317945,-0.9418749,0.1939192,1.384963,1.610692,-1.709167,-0.7223182,3.28045,0.4987966,2.540904,-1.78866,1.548185,1.966908,-1.952724],
[0.7048986,0.3390743,1.744648,1.524909,-3.58614,-1.836519,-1.130954,0.3580244,0.3176878,2.634019,-3.951276,-0.4689044,-2.660263,0.8063327,3.575483,-2.495183,1.921134,3.590267,1.654945,2.849374,-2.46389,-3.506681,-2.479965,-2.101543,2.28396],
[3.839003,-0.2520185,0.388476,-0.1867915,-2.473331,0.0484954,2.323175,-1.1941,-0.8502203,3.827191,1.745645,-1.377875,-0.8211189,-3.663448,-0.2957175,3.034016,-2.619935,-0.9174175,-2.331278,-1.655626,-0.09610821,2.899185,1.471696,2.062205,0.994782],
[1.655111,-3.214293,1.353508,0.6192045,3.981085,-2.812912,0.7428787,2.259042,-0.03253262,-3.955243,2.252897,0.009895517,-1.906022,1.689958,-2.463272,0.5953557,3.0817,-2.701443,-0.005089311,-2.240999,-3.96099,-0.2854715,-2.296681,-2.499068,-2.353034],
[3.753431,3.812415,2.116357,3.610447,1.236005,-2.443977,2.322514,3.23277,-1.436885,-0.5021173,2.988812,1.002764,-0.6764414,-2.24961,0.3498648,2.104225,-0.9615436,3.592282,-3.99129,-2.999597,-3.303706,1.164839,-3.631909,3.912304,1.63459],
[-1.490088,-0.3723729,-2.951419,3.726047,0.7666559,0.1132159,-3.550837,-1.661648,3.709976,-1.938939,0.4594615,-3.961317,-0.9821802,3.389023,1.28874,-0.06028608,-1.175043,0.488088,2.284161,-2.791654,1.002618,-0.1848266,-3.317089,2.489071,-0.1796138]
],
[
[-3.309747,2.821021,-0.5849254,-3.439741,0.4045439,1.731402,2.299239,-2.943788,0.006146193,2.598064,-2.395439,1.589856,-0.177644,-2.247134,2.324214,-3.528036,3.289652,-0.3545001,0.01095542,-1.978609,0.9090728,3.974983,3.093263,2.739924,1.487324],
[0.8507107,-0.6756492,-3.57827,2.593522,-1.598309,1.144186,3.884007,-3.181258,-3.998619,2.09194,-2.635962,-2.155378,3.029264,-2.630903,-2.8385,-0.1504878,3.639319,0.3300345,2.3818,-2.4843,-1.205536,1.953636,-0.3733222,-3.26378,-0.4578984]
]
],
"biases":[
[
1.889672,2.306852,-3.459875,-1.164239,0.1252684,-3.421046,0.6201254,1.310374,1.096607,1.655956,-0.644348,-0.9841591,3.994818,-1.187227,2.648026,-0.3154958,3.191943,2.945623,-3.736365,-2.6491,2.568481,-1.265374,1.028026,-0.6120213,-2.06622
],
[
3.241615,3.704916
]
]},
{
"fitness":1.6903,
"weights":[
[
[-3.918405,-0.9131234,-0.7209882,-1.673261,-0.3716304,0.04443336,-3.668835,1.534325,2.602194,1.767467,-1.556655,-0.4195951,1.451216,3.933796,-1.157221,-0.389276,-0.6797464,2.824455,0.8856296,-1.251767,1.28528,-2.819267,-2.203428,-2.882687,-2.497689],
[2.731238,-2.398265,-3.69163,-0.5807576,-3.51733,-1.460689,2.12534,-3.116671,3.127143,1.858596,1.906041,1.680467,-2.01767,3.189817,0.2728869,-1.53123,3.898978,-1.003041,1.150835,-1.648499,0.966683,0.01676973,1.078971,2.111185,-1.432635],
[3.62839,-0.3781367,3.81037,-2.42769,3.963932,0.8872449,0.8281275,3.679844,-0.8956942,3.277353,-2.370559,-0.860395,-0.1904963,-2.594583,-1.347819,0.4964347,-0.8653654,-3.303883,3.948113,-2.807033,2.705834,2.198217,1.497752,-3.631317,-3.160433],
[-0.6131486,-2.689198,-1.264976,-1.059124,-1.078917,-2.328711,1.062544,-1.504596,-3.94767,1.891915,1.154811,1.587257,0.5616991,-0.4286721,-1.607341,0.8340616,3.151654,3.533199,3.179331,-0.1234988,-0.6436778,1.60223,3.128549,1.802899,1.312082],
[-1.436041,2.164317,1.710795,2.732357,3.48261,-3.119438,-2.271251,-0.1843411,-1.792757,2.053169,-0.1409511,-1.372928,-0.1006996,2.955805,-1.365879,1.525783,-3.113373,-2.007011,-1.950475,-0.0177537,-0.9238326,-1.396264,0.3994184,1.632744,-0.3943034],
[0.6832377,-3.173568,2.661711,2.17555,-0.7793984,-1.752731,-1.74613,-0.1568426,-2.007231,2.991845,3.793433,-3.357533,2.456513,1.446187,2.742743,2.496536,2.721888,3.555032,-2.838554,-2.208824,-3.865416,3.138266,-0.4418356,3.887284,1.65111],
[1.054709,1.772935,-2.855644,-2.179605,-1.874428,-0.470055,1.179939,-1.251791,2.89197,-1.682865,-3.453681,-2.330694,-1.131971,1.963614,0.9504899,-3.29852,0.2642373,-1.481917,2.107088,1.09666,1.04565,3.5937,-1.687521,1.803297,-0.7398071],
[0.8581115,1.799087,0.8648575,3.260206,0.08094499,2.009001,0.4096163,1.847188,0.9174514,3.870343,-2.336294,3.005442,1.975862,-3.385344,-2.429942,3.06675,0.1587778,-0.5753796,-1.511842,-3.431323,-2.215527,2.099791,-2.946186,-3.913987,0.9343255],
[3.065014,2.753481,2.452044,3.820502,-3.319827,0.1049437,1.12068,1.717676,-0.1710941,-0.1341426,-1.443168,-1.37699,-0.00237184,-1.154241,3.047549,-3.123861,2.118496,0.774076,2.710067,1.259817,-3.234489,2.00657,-0.8218955,-1.397444,-1.963199],
[-3.879526,1.168636,0.5482217,1.777203,-2.701019,-1.031245,2.971206,-1.161919,2.682748,-2.304242,1.720234,0.8606127,-0.125912,1.856341,2.301987,-1.146981,1.246231,2.236706,2.971829,-1.191796,-3.974442,3.272643,-1.925276,-3.836542,3.368272],
[2.639325,-1.564082,1.916381,0.4371414,0.8389339,-1.705032,3.825046,3.681029,1.712117,-1.292619,2.362276,-2.200606,-2.621202,-2.990029,-3.483847,-0.360161,-2.441661,1.74354,3.265959,3.874846,-2.309801,0.3267199,-3.324365,0.1219189,-0.02917447],
[3.526497,3.136028,0.7966839,3.876861,3.763918,0.09890383,1.976256,1.013852,0.7557246,3.116471,0.3448416,-3.992242,-2.125986,3.034846,-0.7096133,-3.640451,2.756322,-0.2013158,1.492204,-0.8954827,-2.039654,1.85852,3.901198,3.272245,2.152446],
[0.4327688,0.1052208,-1.385532,0.5223086,-1.238783,-0.9479874,1.675699,0.3571143,1.559712,3.3088,-0.5068402,3.324495,3.792895,-1.655004,-1.554943,-2.480672,1.184158,1.090212,0.7078368,2.393345,0.9733878,0.3683107,-2.48684,-0.9768225,2.088193],
[-0.7889581,3.497719,1.43402,-1.433622,3.730272,2.396086,-3.170605,-2.150347,-3.576701,-0.1668666,-2.630246,-1.084379,-3.115227,-0.6393518,2.658327,1.922449,0.2361923,-3.693322,-2.139245,-2.91966,-2.785837,-3.931175,-3.00573,0.2811841,3.278554],
[1.668499,2.092016,3.283633,3.10968,-3.943747,-1.887567,2.678932,2.230268,-0.3259979,0.2586162,-3.579707,3.045974,-1.529948,-2.884708,-3.88981,-1.402403,-3.555208,0.6001094,3.122252,2.563976,0.3888768,-2.5459,-1.257638,-1.078685,2.188319],
[-0.3109766,-0.6923864,-0.8918363,1.54664,0.7724607,-2.623806,1.661106,3.343118,1.919125,3.438737,-0.2692521,1.106118,1.210517,2.945506,-0.7744355,-0.2793347,1.575138,-1.300443,0.1033525,-1.97001,-0.4790984,-0.9198431,-2.333428,-0.2840746,-2.83992],
[2.6224,-2.464316,-3.184394,-2.838085,3.847762,-0.4046324,1.933653,0.9324867,-3.4341,-1.659735,0.01906213,3.127873,-2.948771,-0.40092,0.7870387,-2.216701,-1.54749,0.4155903,1.221032,-2.012008,2.51361,-0.9428799,2.342097,1.753633,-0.5221156],
[3.099421,1.479324,-2.660454,0.5900823,-2.64667,-2.262872,-2.879587,-3.421324,-1.182963,-2.45356,0.3929585,3.373855,1.908647,1.78848,-3.210119,-3.158532,-3.150121,0.4759485,3.171053,-3.024862,1.580814,0.06330132,3.485936,0.9369639,3.864751],
[-1.755301,-2.589104,1.351359,0.06607434,-2.129713,-1.399334,3.077305,1.940291,-0.309713,-3.716127,-0.5289487,1.409213,-3.512938,-1.212973,-1.141346,2.433163,-1.850756,-1.603421,-3.185009,1.563372,1.347854,2.408341,-0.1401893,3.349785,3.183997],
[1.182457,-1.043462,-3.225649,-1.53126,-0.1887746,-0.9798312,2.352799,3.791794,-2.13796,1.749302,2.763307,0.4317945,-0.9418749,0.1939192,1.384963,1.610692,3.512138,-0.7223182,3.28045,0.4987966,2.540904,-1.78866,-1.96456,1.966908,-1.952724],
[0.7048986,0.3390743,1.744648,1.524909,-1.618173,-1.836519,-1.130954,0.3580244,0.3176878,2.634019,-3.951276,-0.4689044,-2.660263,0.8063327,3.575483,-2.495183,-2.741555,3.590267,1.654945,1.902056,-2.46389,-3.506681,-2.479965,3.284419,1.049973],
[3.839003,-0.2520185,0.388476,3.393105,-2.473331,0.0484954,2.323175,-1.1941,-0.8502203,3.827191,2.905555,-1.377875,-0.8211189,-3.663448,-0.2957175,2.204699,-2.619935,-0.9174175,-2.331278,-1.655626,-0.09610821,2.899185,1.471696,2.062205,2.735426],
[-1.271479,-1.520257,1.353508,0.6192045,3.981085,-2.812912,-2.305395,2.259042,-0.03253262,-3.955243,2.252897,0.009895517,-1.906022,1.689958,-2.463272,0.5953557,3.0817,-2.701443,-0.005089311,-2.240999,-3.96099,-0.2854715,-2.296681,-2.499068,-2.016519],
[3.753431,3.812415,2.116357,3.610447,1.236005,-2.443977,2.322514,3.23277,-1.436885,-0.5021173,2.988812,1.002764,1.151637,-2.24961,0.3498648,2.104225,-0.9615436,3.592282,-3.99129,-2.999597,-3.303706,1.164839,1.513286,3.912304,1.63459],
[-1.490088,-0.3723729,-2.951419,3.726047,0.7666559,0.1132159,-3.550837,-1.661648,3.709976,-1.938939,0.4594615,-1.05948,-0.9821802,3.389023,1.28874,-0.06028608,-1.175043,0.488088,-2.394083,-2.791654,1.002618,1.811571,-3.317089,2.489071,-0.1796138]
],
[
[-3.309747,-3.450541,-0.5849254,-3.439741,1.724419,1.731402,2.299239,-2.943788,-2.695827,2.598064,-2.395439,1.589856,-0.177644,-2.247134,2.324214,-3.528036,3.289652,3.376971,0.01095542,-1.978609,0.9090728,3.974983,3.093263,-3.870636,1.487324],
[3.834892,-0.6756492,-3.57827,2.593522,-1.598309,1.144186,3.884007,-3.181258,-3.998619,2.09194,-1.911493,-2.155378,3.029264,-2.630903,-2.8385,-0.1504878,3.639319,0.3300345,2.3818,-2.4843,-1.205536,1.953636,-0.3733222,-3.26378,-0.4578984]
]
],
"biases":[
[
1.889672,2.306852,-3.459875,-1.164239,0.1252684,-3.421046,0.6201254,1.310374,1.096607,1.655956,-0.644348,-0.9841591,3.994818,-1.187227,2.648026,-0.3154958,3.191943,2.945623,-3.736365,0.6507977,2.568481,-1.265374,1.028026,-0.7082072,-2.06622
],
[
3.241615,3.704916
]
]},
{
"fitness":1.689179,
"weights":[
[
[-3.918405,-0.9131234,-0.7209882,-0.6767324,-0.3716304,0.04443336,-3.668835,1.534325,2.602194,1.767467,-1.556655,-0.4195951,1.451216,3.933796,-1.157221,-0.389276,-0.6797464,2.824455,0.8856296,-1.251767,1.28528,-2.819267,-2.203428,-2.882687,3.642906],
[2.731238,-2.398265,-3.69163,-0.5807576,-3.51733,-1.460689,2.12534,-3.116671,3.127143,1.858596,1.906041,1.680467,-2.01767,3.189817,0.2728869,-1.53123,3.898978,-1.003041,1.150835,-1.648499,0.966683,0.01676973,1.078971,2.111185,-1.432635],
[1.840899,-0.3781367,3.81037,-2.42769,3.963932,0.8872449,0.8281275,3.679844,-0.8956942,3.277353,-2.370559,-0.860395,-0.1904963,-2.594583,-1.347819,0.4964347,1.535775,-3.303883,3.948113,-2.807033,2.705834,2.198217,1.497752,-3.631317,-3.160433],
[-0.6131486,-2.689198,-1.264976,-1.059124,-1.078917,-2.328711,1.062544,-1.504596,-3.94767,-2.697784,1.154811,1.587257,0.5616991,-0.4286721,-1.607341,0.8340616,3.151654,3.533199,3.179331,-0.1234988,-3.386353,1.60223,3.128549,1.802899,1.312082],
[-1.436041,2.164317,1.710795,2.732357,3.48261,-3.119438,-2.271251,-0.1843411,-1.792757,2.053169,-0.1409511,-1.372928,-0.1006996,2.955805,-1.365879,1.525783,-2.64857,-2.007011,-1.950475,-0.0177537,-0.9238326,2.933321,0.3994184,1.632744,-0.3943034],
[0.6832377,-3.173568,2.661711,2.17555,-0.7793984,-1.752731,-1.74613,-0.1568426,-2.007231,2.991845,3.793433,-3.357533,2.456513,1.446187,2.742743,2.496536,2.721888,3.555032,-2.838554,-2.208824,-3.865416,3.138266,-0.4418356,3.887284,1.65111],
[1.054709,1.772935,-2.855644,-2.179605,-1.874428,-0.470055,1.179939,-1.251791,2.89197,-1.682865,-3.453681,-2.330694,-1.131971,-1.73649,0.9504899,-3.29852,0.2642373,-1.481917,2.107088,1.09666,1.04565,3.5937,-1.687521,1.803297,2.028693],
[0.8581115,1.799087,0.8648575,3.260206,0.08094499,2.009001,-0.8669122,1.847188,0.9174514,3.870343,-2.336294,3.005442,1.975862,-3.385344,-2.429942,3.06675,0.1587778,-0.5753796,-1.511842,-3.431323,-2.215527,2.099791,-2.946186,-3.913987,0.9343255],
[3.065014,2.753481,2.452044,3.820502,-3.319827,0.1049437,1.12068,1.717676,-0.1710941,-0.1341426,-1.443168,-1.37699,3.497899,-1.154241,3.047549,-3.123861,2.118496,0.774076,2.710067,1.259817,-3.234489,2.00657,-0.8218955,-1.397444,-1.963199],
[-3.879526,1.168636,0.5482217,1.777203,-2.701019,-1.031245,2.971206,-1.161919,2.682748,-2.304242,1.720234,0.8606127,-0.125912,-1.899931,2.301987,-1.146981,1.246231,2.236706,2.971829,-1.191796,-3.974442,3.272643,-1.925276,-3.836542,3.368272],
[2.639325,-1.564082,1.239018,0.4371414,0.8389339,-1.705032,-2.356574,3.681029,1.712117,-1.292619,2.362276,-2.200606,-2.621202,-2.990029,-3.483847,-0.360161,-2.441661,1.74354,3.265959,3.874846,-2.309801,0.3267199,-3.324365,0.1219189,-0.02917447],
[3.526497,3.136028,0.7966839,3.876861,3.763918,0.09890383,1.976256,1.013852,0.7557246,-1.258158,2.656987,-3.992242,-2.125986,3.034846,-0.7096133,-3.640451,2.756322,-0.2013158,1.492204,-0.8954827,-2.039654,1.85852,3.901198,3.272245,2.152446],
[0.4327688,0.1052208,-1.385532,0.5223086,-1.238783,-0.9479874,1.675699,0.3571143,1.559712,3.3088,-0.5068402,3.324495,3.792895,3.21169,-1.554943,-2.480672,1.184158,1.090212,0.7078368,2.393345,0.9733878,0.3683107,-2.48684,1.366812,2.088193],
[-0.7889581,3.497719,1.43402,-1.433622,3.730272,2.396086,-3.170605,-2.150347,-3.576701,-0.1668666,-2.630246,3.703504,-3.115227,-0.6393518,2.658327,1.922449,0.2361923,-3.693322,-2.139245,-2.91966,-2.785837,-3.931175,-3.00573,0.2811841,2.550149],
[1.668499,2.092016,3.283633,3.10968,-3.943747,-1.887567,2.678932,2.230268,-0.3259979,0.2586162,-3.579707,3.045974,-1.529948,-2.884708,-3.88981,-1.402403,-3.555208,0.6001094,3.122252,2.563976,0.3888768,-2.5459,-1.257638,-1.078685,2.188319],
[-0.3109766,-0.6923864,-0.8918363,1.54664,0.7724607,-2.623806,1.661106,3.343118,1.919125,3.438737,-0.2692521,1.106118,1.210517,2.945506,-0.7744355,-0.2793347,1.575138,-1.300443,0.1033525,-1.97001,-0.4790984,-0.9198431,0.3653643,-0.2840746,-2.83992],
[2.6224,-2.464316,-3.184394,-2.838085,3.847762,-0.4046324,1.933653,0.9324867,-3.4341,-1.659735,0.01906213,3.127873,-2.948771,-0.40092,0.7870387,-2.216701,-1.54749,0.4155903,1.221032,-2.012008,2.51361,-0.9428799,2.342097,1.753633,-0.5221156],
[3.099421,1.479324,-2.660454,0.5900823,-2.64667,-2.262872,-2.879587,-3.421324,-1.182963,-2.45356,0.3929585,3.373855,1.908647,1.78848,-3.210119,-3.158532,0.03052418,0.4759485,3.171053,-1.582284,1.580814,0.06330132,3.485936,-1.341556,3.864751],
[-1.755301,-2.589104,1.351359,0.06607434,-2.129713,-1.399334,-0.9693351,1.940291,-0.309713,-3.716127,-0.5289487,1.409213,-3.512938,-1.212973,-1.141346,2.433163,2.607133,-1.603421,-3.185009,1.563372,1.347854,2.408341,-0.1401893,3.349785,3.183997],
[1.182457,-1.043462,-3.225649,-1.53126,-0.1887746,-0.9798312,2.352799,3.791794,-2.13796,1.749302,2.763307,0.4317945,-0.9418749,0.1939192,1.384963,1.610692,3.512138,-0.7223182,3.28045,0.4987966,2.540904,-1.78866,-1.96456,1.966908,-1.952724],
[0.7048986,0.3390743,1.744648,1.524909,-1.618173,-1.836519,-1.130954,0.3580244,0.3176878,2.634019,-3.951276,-0.4689044,-2.660263,0.8063327,3.505954,-2.495183,-2.741555,3.590267,1.654945,1.902056,-2.46389,-3.506681,-2.479965,3.284419,2.28396],
[3.839003,-0.2520185,0.388476,3.393105,-2.473331,0.0484954,2.323175,-1.1941,-0.8502203,3.827191,2.905555,-1.377875,-0.8211189,-3.663448,-0.2957175,2.204699,-2.619935,-0.9174175,-2.331278,-1.655626,-0.09610821,2.899185,1.471696,2.062205,2.735426],
[-1.271479,-1.520257,1.353508,0.6192045,3.981085,-2.812912,0.7428787,2.259042,-0.03253262,-3.955243,2.252897,0.009895517,-1.906022,1.689958,-2.463272,0.5953557,3.0817,-2.701443,-0.005089311,-2.240999,-3.96099,-0.2854715,-2.296681,-2.499068,-2.353034],
[3.753431,3.812415,2.116357,3.610447,1.236005,-2.443977,2.322514,3.23277,-1.436885,-0.5021173,2.988812,1.002764,1.151637,-2.24961,0.3498648,2.104225,-0.9615436,3.592282,-3.99129,-2.999597,-3.303706,1.164839,1.513286,3.912304,1.63459],
[3.636959,-0.3723729,-2.951419,3.726047,0.7666559,0.1132159,-3.550837,-1.661648,3.709976,-1.938939,0.4594615,-1.05948,-0.9821802,3.389023,-2.645608,-0.06028608,-1.175043,-1.770784,-2.394083,-2.791654,1.002618,1.811571,-3.317089,-1.23388,-0.1796138]
],
[
[-3.309747,2.821021,-0.5849254,-3.439741,1.724419,1.731402,2.299239,-2.943788,-2.695827,2.598064,-2.395439,1.589856,-0.177644,-2.247134,2.324214,-3.528036,3.289652,3.376971,0.01095542,-1.978609,0.9090728,3.974983,3.093263,-3.870636,1.487324],
[0.8507107,-0.6756492,-3.57827,2.593522,-1.598309,1.144186,3.884007,-3.181258,-3.998619,2.09194,-1.911493,-2.155378,3.029264,-2.630903,-2.8385,-0.1504878,3.639319,0.3300345,2.3818,-2.4843,-1.205536,1.953636,-0.3733222,-3.26378,-0.4578984]
]
],
"biases":[
[
1.889672,2.306852,-3.459875,-1.164239,0.1252684,-3.421046,0.6201254,1.310374,1.096607,1.655956,-0.644348,-0.9841591,3.994818,-1.187227,2.648026,-0.3154958,3.191943,2.945623,-3.736365,-2.6491,2.568481,-1.265374,1.028026,-0.6120213,-2.06622
],
[
3.241615,3.704916
]
]},
{
"fitness":1.68347,
"weights":[
[
[-3.918405,-0.9131234,-0.7209882,-0.6767324,-0.3716304,0.04443336,-3.668835,1.534325,2.602194,1.767467,-1.556655,-0.4195951,1.307081,3.933796,0.915611,-0.389276,-0.6797464,2.824455,0.8856296,-2.192938,1.28528,-2.819267,-2.203428,-2.882687,-2.497689],
[2.731238,-2.398265,-3.69163,-0.5807576,-3.51733,-1.460689,2.12534,-3.116671,3.127143,1.858596,1.906041,1.680467,-2.01767,3.189817,0.2728869,2.181584,3.898978,-1.003041,1.150835,-1.648499,0.966683,0.01676973,1.078971,2.111185,-1.432635],
[3.62839,2.778591,2.967684,-2.42769,3.963932,0.2093233,0.8281275,-0.9003459,1.442591,3.277353,-2.370559,1.379852,-0.1904963,-2.594583,-1.347819,0.4964347,1.535775,-3.303883,3.948113,-2.807033,2.705834,2.198217,-2.78584,-3.631317,-0.9347053],
[-0.6131486,-2.689198,-1.264976,-1.059124,-2.809507,0.6845491,1.062544,-1.504596,-0.9762166,-2.697784,1.154811,1.587257,-0.8139986,1.052256,2.98609,-2.224382,3.151654,1.085171,3.179331,0.7181488,-3.386353,-1.215526,3.128549,1.802899,1.312082],
[-1.436041,2.164317,2.574479,2.732357,3.48261,1.279106,-2.271251,-0.1843411,2.833574,2.053169,-0.1409511,-1.372928,-0.1006996,2.955805,-0.8906233,-0.3900694,-2.64857,-2.007011,-1.950475,-0.0177537,-3.833107,-1.396264,0.3994184,1.632744,-2.879828],
[0.6832377,-3.173568,2.661711,-3.119395,-0.7793984,-1.752731,-1.74613,-0.1568426,-2.007231,0.8899747,3.793433,-3.357533,2.456513,1.446187,2.742743,2.496536,2.721888,3.555032,-3.909756,-2.208824,1.150694,3.138266,-0.4418356,3.887284,-0.9338523],
[1.054709,0.5691385,-2.855644,-2.179605,-3.24647,-0.470055,1.179939,-1.251791,2.89197,-2.949997,-3.453681,-2.330694,-1.131971,-1.73649,-2.473881,-0.4755877,-3.459008,2.75324,1.840693,1.09666,1.04565,3.5937,-1.687521,1.803297,2.028693],
[0.8581115,1.506133,-2.349913,3.260206,0.08094499,2.581542,0.4096163,1.847188,0.9174514,3.870343,-2.336294,3.005442,1.975862,-3.385344,-2.429942,-2.694073,0.1587778,-0.5753796,-1.511842,-3.431323,1.933653,2.099791,-2.946186,-3.913987,2.330571],
[3.065014,2.753481,2.452044,2.574617,-3.319827,0.1049437,1.12068,1.717676,-0.1710941,-0.1341426,-1.443168,-1.37699,-0.00237184,-1.154241,3.047549,-2.753852,2.118496,0.774076,2.710067,1.259817,-3.234489,2.00657,-0.8218955,-1.397444,-1.963199],
[-3.879526,1.168636,0.5482217,1.777203,-2.701019,2.740567,-3.677463,0.83465,0.2288105,-2.304242,1.720234,1.716798,-0.125912,-1.899931,2.301987,-1.146981,1.246231,-2.800913,2.971829,-1.191796,-2.741151,3.272643,-1.925276,-3.836542,-0.6717389],
[0.4942864,-1.564082,1.239018,0.4371414,-0.622781,-1.705032,-2.356574,3.681029,1.712117,2.173448,2.362276,-3.624359,-2.621202,-2.974711,-3.483847,-0.360161,-2.441661,1.74354,-1.7137,3.874846,1.876047,0.3267199,-3.324365,0.1219189,1.487128],
[-3.291133,3.136028,0.7966839,3.876861,3.763918,-3.708702,1.976256,1.013852,0.7557246,-1.258158,2.656987,-3.992242,-2.125986,3.034846,-0.7096133,-2.721697,2.756322,-0.2013158,1.492204,-0.8954827,-2.039654,1.85852,3.901198,3.272245,2.152446],
[0.4327688,2.239216,1.70757,0.5223086,-1.238783,-0.9479874,1.675699,0.3571143,1.559712,3.3088,-0.2279097,3.324495,3.792895,-1.655004,-1.554943,-2.480672,-2.85485,1.090212,-3.743853,3.556181,0.9733878,0.3683107,-2.48684,1.366812,2.088193],
[-0.7889581,3.497719,1.43402,-1.433622,3.730272,2.396086,-3.170605,-2.150347,-3.576701,3.394762,-2.630246,-1.084379,2.121588,3.439754,-2.101204,3.317723,0.2361923,-3.693322,-2.139245,-2.91966,-2.785837,-3.931175,-3.00573,0.2811841,2.550149],
[-2.660246,2.092016,3.283633,3.10968,-3.943747,-0.2580202,2.678932,1.46264,-0.3259979,0.2586162,2.654376,3.045974,-1.529948,-2.884708,1.121174,-1.402403,-3.555208,0.6001094,3.122252,2.563976,-0.03402954,-2.5459,-1.257638,-0.09488028,2.188319],
[-0.3109766,3.457872,-0.8918363,1.54664,0.7724607,-3.59509,1.661106,2.834336,1.919125,3.438737,-0.2692521,1.106118,1.210517,2.945506,2.113471,-0.2793347,1.575138,1.052858,0.1033525,2.618355,-0.4790984,-0.9198431,-2.333428,-0.2840746,-2.83992],
[-3.452613,-2.464316,-3.184394,-2.838085,3.847762,-0.4046324,1.631852,0.9324867,-3.4341,-3.582255,0.01906213,-0.9661769,-2.948771,-0.40092,0.7870387,-2.216701,-1.54749,1.24885,1.221032,-2.012008,2.51361,-0.9428799,2.342097,2.972224,-0.5221156],
[-3.225163,1.479324,-2.660454,0.5900823,-2.951153,-2.262872,1.418362,-3.421324,-1.182963,-3.683837,0.3929585,3.373855,-2.458451,1.78848,-3.866522,-3.158532,-3.150121,0.4759485,3.171053,-1.582284,1.580814,-3.547178,3.485936,-1.341556,3.864751],
[-1.755301,-2.589104,1.165016,0.06607434,-2.129713,-1.399334,-0.9693351,0.1917525,-0.309713,-3.716127,-0.5289487,1.409213,-2.236737,-1.212973,-1.141346,2.433163,-1.850756,-1.603421,-3.185009,1.563372,1.347854,0.5439867,-0.1401893,3.349785,-1.037882],
[1.182457,-1.043462,-3.479763,-1.53126,-0.1887746,-0.9798312,1.712535,3.791794,-1.357451,1.749302,2.763307,2.868974,-0.9418749,0.1939192,-2.209581,-0.6936201,-1.709167,-0.7223182,3.28045,0.4987966,2.708993,3.001267,1.548185,1.334612,-1.952724],
[0.7048986,0.3390743,0.6959315,1.524909,-3.58614,-1.836519,-1.130954,0.3580244,0.3176878,-1.37371,-3.951276,-2.515092,-2.660263,0.8063327,3.575483,-2.495183,-2.741555,3.590267,1.654945,1.902056,-2.46389,-3.506681,-2.479965,-2.101543,2.28396],
[3.839003,-0.2520185,0.388476,3.393105,-2.473331,0.0484954,2.323175,-1.1941,-0.8502203,3.827191,1.745645,-1.377875,-0.8211189,-3.663448,-0.2957175,-2.416719,-2.619935,-0.9174175,-2.331278,-1.655626,-0.09610821,2.899185,1.471696,2.062205,0.994782],
[-1.271479,-3.214293,1.560249,0.6192045,3.583364,-2.812912,0.7428787,2.259042,2.846181,-3.955243,2.252897,0.009895517,-1.906022,3.209496,-2.463272,0.5953557,3.0817,-2.701443,-0.005089311,-2.240999,-3.96099,3.306706,2.588766,-2.499068,-2.353034],
[3.753431,3.812415,2.116357,3.610447,1.236005,-2.443977,2.322514,3.23277,-1.436885,-0.5021173,2.595773,1.002764,-0.6764414,-2.24961,0.3498648,2.104225,-0.9615436,3.592282,-3.67879,-2.999597,-3.303706,1.164839,1.513286,3.912304,-0.191606],
[-1.490088,-0.3723729,-2.951419,-0.726721,0.7666559,0.1132159,-3.550837,-1.661648,2.759161,-1.938939,0.4594615,-3.961317,-0.9821802,3.389023,1.28874,-0.06028608,-1.175043,0.488088,-2.394083,-2.791654,1.002618,1.811571,-3.317089,2.489071,-0.1796138]
],
[
[-3.309747,3.278713,-0.5849254,-3.439741,0.4045439,1.731402,2.299239,-2.943788,0.006146193,2.598064,-2.395439,1.589856,-0.177644,-2.247134,2.324214,-0.6484132,0.1818839,3.376971,0.01095542,-1.978609,0.9090728,3.974983,3.093263,-3.870636,2.757661],
[0.8507107,-0.6756492,-3.57827,2.593522,-2.436512,1.144186,3.884007,-3.181258,-3.998619,2.09194,-1.911493,-2.155378,3.029264,-2.630903,-2.8385,-0.9815428,3.639319,0.3300345,2.3818,3.275145,-1.205536,1.953636,-0.3733222,-3.26378,-0.4578984]
]
],
"biases":[
[
1.889672,2.306852,-3.459875,-1.164239,0.1252684,-0.2049069,0.6201254,1.310374,1.096607,1.655956,-0.644348,-0.9841591,3.994818,-1.187227,2.648026,-0.3154958,3.191943,2.945623,-3.736365,-2.6491,2.568481,-1.265374,1.028026,-0.6120213,-2.06622
],
[
3.241615,3.704916
]
]},
{
"fitness":1.674079,
"weights":[
[
[-3.918405,-0.9131234,-0.7209882,-0.6767324,-0.3716304,0.04443336,-3.668835,-0.3581168,2.602194,1.767467,-1.556655,-0.4195951,1.307081,3.933796,0.915611,-0.389276,-0.6797464,2.824455,0.8856296,-1.251767,1.28528,-2.819267,-2.203428,-2.882687,-2.497689],
[2.731238,-2.398265,-3.69163,-0.5807576,-3.51733,-1.460689,0.9150375,-3.116671,3.127143,1.858596,1.906041,1.680467,-2.01767,3.189817,0.2728869,2.181584,3.898978,2.048322,1.150835,-1.648499,0.966683,0.01676973,1.078971,2.111185,-1.432635],
[2.425026,-0.3781367,3.81037,-2.42769,3.963932,0.2093233,0.8281275,-0.9003459,1.442591,3.277353,-2.370559,-0.860395,-0.1904963,-2.594583,-1.347819,0.4964347,1.535775,-3.303883,3.948113,-2.807033,2.705834,2.198217,-2.78584,-3.631317,-0.9347053],
[-0.6131486,-2.689198,-1.264976,-1.059124,-2.809507,-2.328711,1.062544,-1.504596,-0.9762166,-2.697784,1.154811,1.587257,-0.8139986,-0.4286721,2.98609,-2.224382,3.151654,1.085171,3.179331,0.7181488,-3.386353,-1.215526,3.128549,1.802899,1.312082],
[-1.436041,2.164317,1.710795,2.732357,3.48261,1.279106,-2.271251,-0.1843411,-1.692512,2.053169,-0.1409511,-1.372928,-0.1006996,2.955805,-0.8906233,-2.917129,-2.64857,-2.007011,-1.950475,-0.0177537,-0.9238326,-1.396264,0.3994184,1.632744,-2.879828],
[0.6832377,-3.173568,2.661711,-3.119395,-0.7793984,-1.752731,-1.74613,-0.1568426,-2.007231,0.8899747,3.793433,-3.357533,2.456513,1.446187,2.742743,2.496536,2.721888,3.555032,-2.838554,-2.208824,1.150694,3.138266,-0.4418356,3.887284,-0.9338523],
[1.054709,1.772935,-2.855644,-2.179605,-3.24647,-0.470055,1.179939,-1.251791,2.89197,-1.682865,-3.453681,-2.330694,-1.131971,-1.73649,-2.932632,-0.4755877,-3.459008,2.75324,1.840693,1.09666,1.04565,3.5937,-1.687521,1.803297,2.028693],
[0.8581115,1.506133,-2.349913,3.260206,0.08094499,2.581542,0.4096163,1.847188,0.9174514,3.870343,-2.336294,3.005442,1.975862,-3.385344,-2.429942,-1.201352,0.1587778,-0.5753796,-1.511842,-3.431323,1.933653,2.099791,-2.946186,-3.913987,2.330571],
[3.065014,2.753481,2.452044,3.528661,-3.319827,0.1049437,1.12068,1.717676,-0.1710941,-0.1341426,-1.443168,-1.37699,-0.00237184,-1.154241,3.047549,-3.123861,2.118496,0.774076,2.710067,1.259817,-3.234489,2.00657,-0.8218955,-1.397444,-1.963199],
[-3.879526,1.168636,0.5482217,1.777203,-2.701019,2.740567,-3.677463,0.83465,0.2288105,-2.304242,-1.914154,1.716798,-0.125912,-1.899931,2.301987,-1.146981,1.246231,-2.800913,2.971829,-1.191796,-2.741151,3.272643,-1.925276,-3.836542,-0.6717389],
[2.639325,-1.564082,1.239018,0.4371414,-0.622781,-1.705032,-2.356574,3.681029,1.712117,2.173448,2.362276,-3.624359,-2.621202,-2.974711,-3.483847,-0.360161,-2.441661,1.74354,-1.7137,3.874846,-2.309801,0.3267199,-3.324365,0.1219189,1.487128],
[3.526497,3.136028,0.7966839,3.876861,3.763918,2.103045,1.976256,1.013852,0.7557246,-1.258158,2.656987,-3.992242,-2.125986,3.034846,-0.7096133,-2.721697,2.756322,-0.2013158,1.492204,-0.8954827,-2.039654,1.85852,3.901198,3.272245,2.152446],
[0.4327688,2.239216,1.70757,0.5223086,-1.238783,-0.9479874,1.675699,0.3571143,1.559712,3.3088,-0.5068402,3.324495,3.792895,-1.655004,-1.554943,-2.480672,-2.85485,1.090212,-3.743853,3.556181,0.9733878,0.3683107,-2.48684,1.366812,2.088193],
[-0.7889581,3.497719,1.43402,-1.433622,3.730272,2.396086,-3.170605,-2.150347,-3.576701,-0.1668666,-2.630246,-1.084379,2.121588,3.439754,-2.101204,3.317723,0.2361923,-3.693322,-2.139245,-2.91966,-2.785837,-3.931175,2.204614,0.2811841,2.550149],
[1.060904,2.092016,3.283633,3.10968,-3.943747,-0.2580202,2.678932,1.46264,2.155477,0.2586162,2.654376,1.008153,-1.529948,-2.884708,-3.88981,-1.402403,-3.555208,0.6001094,3.122252,2.563976,0.3888768,-2.5459,-1.257638,-0.09488028,2.188319],
[-0.3109766,3.457872,-0.8918363,2.28756,0.7724607,-3.59509,1.661106,2.834336,1.919125,3.438737,-0.2692521,1.106118,1.210517,2.945506,2.113471,-0.2793347,1.575138,1.052858,0.1033525,2.618355,-0.4790984,-0.9198431,-2.333428,-0.2840746,-2.83992],
[-3.452613,-2.464316,-3.184394,-2.838085,3.847762,-1.291471,1.631852,0.9324867,-3.4341,-3.582255,0.01906213,-0.9661769,-2.948771,-0.40092,0.7870387,-2.216701,-1.54749,1.726838,1.221032,-2.012008,2.51361,-0.9428799,2.644595,2.972224,-0.5221156],
[3.099421,1.479324,-2.660454,0.5900823,-0.122664,-2.262872,1.418362,-3.421324,3.759556,-2.45356,0.3929585,3.373855,-2.458451,1.78848,-3.866522,0.4993342,-3.150121,0.4759485,3.171053,-1.582284,1.580814,-3.547178,3.485936,-1.341556,3.864751],
[-1.755301,-2.589104,1.165016,0.06607434,-2.129713,-1.399334,-0.9693351,0.1917525,-0.309713,-3.716127,-0.5289487,1.409213,-2.236737,-1.212973,-1.141346,2.433163,-1.850756,-1.603421,-3.185009,1.563372,1.347854,0.5439867,-0.1401893,3.349785,-1.037882],
[1.182457,-1.043462,-3.479763,-1.53126,-0.1887746,-0.9798312,1.712535,-2.994543,-1.357451,1.749302,2.763307,1.883472,-0.9418749,0.1939192,2.85849,1.610692,-1.709167,-0.7223182,3.28045,1.469075,2.540904,3.001267,1.548185,1.334612,-1.952724],
[0.7048986,0.3390743,0.6959315,1.524909,-3.58614,-1.836519,-1.130954,0.3580244,0.3176878,2.634019,-3.951276,-0.4689044,-2.660263,0.8063327,3.575483,-2.495183,-2.741555,3.590267,1.654945,1.902056,-2.46389,-3.506681,-2.479965,-2.101543,2.28396],
[3.839003,-0.2520185,0.388476,3.393105,-2.473331,0.0484954,2.323175,-1.1941,-0.8502203,3.827191,1.745645,-1.377875,-0.8211189,-3.663448,-0.2957175,2.204699,-2.619935,-0.9174175,-2.331278,-1.655626,-0.09610821,2.899185,-1.649012,2.062205,0.994782],
[-1.271479,-3.214293,-2.081991,0.6192045,3.981085,-2.812912,0.7428787,2.259042,-2.064029,-3.955243,2.252897,0.009895517,-1.906022,1.689958,-2.463272,0.5953557,-3.350033,-2.701443,-0.005089311,-1.889241,-3.96099,3.306706,2.588766,-2.499068,-2.353034],
[3.753431,3.812415,2.116357,3.610447,1.236005,-2.443977,2.322514,3.23277,-1.436885,-0.5021173,2.595773,1.002764,-0.6764414,-2.24961,0.3498648,2.104225,1.315263,3.592282,-3.99129,-2.999597,-3.303706,1.164839,1.513286,3.912304,1.63459],
[-1.490088,-0.3723729,-2.951419,-0.726721,0.7666559,2.781217,-3.550837,-1.661648,3.709976,-1.938939,0.4594615,-3.961317,-0.9821802,3.389023,1.28874,-0.06028608,-1.175043,0.488088,-2.394083,-2.791654,1.002618,1.811571,-3.317089,2.489071,-0.1796138]
],
[
[-3.309747,-0.0249344,-0.5849254,-3.439741,0.4045439,1.731402,2.299239,-2.943788,0.006146193,2.598064,-2.395439,1.589856,-0.177644,-2.247134,2.324214,-0.6484132,0.1818839,3.376971,0.01095542,-1.978609,0.9090728,3.974983,3.093263,-3.870636,2.757661],
[0.8507107,-0.6756492,-3.57827,2.593522,-2.436512,1.144186,3.884007,-3.181258,-3.998619,2.09194,-1.911493,-2.155378,3.029264,-3.386695,1.699907,-0.9815428,3.639319,0.3300345,2.3818,3.275145,-1.205536,1.953636,-0.3733222,-3.26378,-0.4578984]
]
],
"biases":[
[
1.889672,2.306852,-3.459875,-1.164239,0.1252684,-0.2049069,0.6201254,1.310374,1.096607,1.655956,-0.644348,-1.744544,3.994818,-1.187227,2.648026,-0.3154958,3.191943,-3.929497,1.328902,-2.6491,2.568481,-1.265374,1.028026,-0.6120213,-2.06622
],
[
3.241615,3.704916
]
]},
{
"fitness":1.669079,
"weights":[
[
[-3.918405,-0.9131234,-0.7209882,-0.6767324,-0.3716304,0.04443336,-3.668835,1.534325,2.602194,1.767467,-1.556655,-0.4195951,1.307081,3.933796,0.915611,-0.389276,-0.6797464,2.824455,0.8856296,-2.192938,1.28528,-2.819267,-2.203428,-2.882687,-2.497689],
[2.731238,-2.398265,-3.69163,-0.5807576,-3.51733,-1.460689,2.12534,-3.116671,3.127143,1.858596,1.906041,1.680467,-2.01767,3.189817,0.2728869,2.181584,3.898978,-1.003041,1.150835,-1.648499,0.966683,0.01676973,1.078971,2.111185,-1.432635],
[3.62839,-0.3781367,2.967684,-2.42769,3.963932,0.2093233,0.8281275,-0.9003459,1.442591,3.277353,-2.370559,1.379852,-0.1904963,-2.594583,-1.347819,0.4964347,1.535775,-3.303883,3.948113,-2.807033,2.705834,2.198217,-2.78584,-3.631317,-0.9347053],
[-0.6131486,-2.689198,-1.264976,-1.059124,-2.809507,0.6845491,1.062544,-1.504596,-0.9762166,-2.697784,1.154811,1.587257,-0.8139986,-0.4286721,2.98609,-2.224382,3.151654,1.085171,3.179331,0.7181488,-3.386353,-1.215526,3.128549,1.802899,1.312082],
[-1.436041,2.164317,1.710795,2.732357,3.48261,1.279106,-2.271251,-0.1843411,-1.692512,2.053169,-0.1409511,-1.372928,-0.1006996,2.955805,-0.8906233,-0.3900694,-2.64857,-2.007011,-1.950475,-0.0177537,-0.9238326,-1.396264,0.3994184,1.632744,-2.879828],
[0.6832377,-3.173568,2.661711,-3.119395,-0.7793984,-1.752731,-1.74613,-0.1568426,-2.007231,0.8899747,3.793433,-3.357533,2.456513,1.446187,2.742743,2.496536,2.721888,3.555032,-3.909756,-2.208824,1.150694,3.138266,-0.4418356,3.887284,-0.9338523],
[1.054709,1.772935,-2.855644,-2.179605,-3.24647,-0.470055,1.179939,-1.251791,2.89197,-2.949997,-3.453681,-2.330694,-1.131971,-1.73649,-2.473881,-0.4755877,-3.459008,2.75324,1.840693,1.09666,1.04565,3.5937,-1.687521,1.803297,2.028693],
[0.8581115,1.506133,-2.349913,3.260206,0.08094499,2.581542,0.4096163,1.847188,0.9174514,3.870343,-2.336294,3.005442,1.975862,-3.385344,-2.429942,-2.694073,0.1587778,-0.5753796,-1.511842,-3.431323,1.933653,2.099791,-2.946186,-3.913987,2.330571],
[3.065014,2.753481,2.452044,2.574617,-3.319827,0.1049437,1.12068,1.717676,-0.1710941,-0.1341426,-1.443168,-1.37699,-0.00237184,-1.154241,3.047549,-2.753852,2.118496,0.774076,2.710067,1.259817,-3.234489,2.00657,-0.8218955,-1.397444,-1.963199],
[-3.879526,1.168636,0.5482217,1.777203,-2.701019,2.740567,-3.677463,0.83465,0.2288105,-2.304242,1.720234,1.716798,-0.125912,-1.899931,2.301987,-1.146981,1.246231,-2.800913,2.971829,-1.191796,-2.741151,3.272643,-1.925276,-3.836542,-0.6717389],
[2.639325,-1.564082,1.239018,0.4371414,-0.622781,-1.705032,-2.356574,3.681029,1.712117,2.173448,2.362276,-3.624359,-2.621202,-2.974711,-3.483847,-0.360161,-2.441661,1.74354,-1.7137,3.874846,1.876047,0.3267199,-3.324365,0.1219189,1.487128],
[3.526497,3.136028,0.7966839,3.876861,3.763918,-3.708702,1.976256,1.013852,0.7557246,-1.258158,2.656987,-3.992242,-2.125986,3.034846,-0.7096133,-2.721697,2.756322,-0.2013158,1.492204,-0.8954827,-2.039654,1.85852,3.901198,3.272245,2.152446],
[0.4327688,2.239216,1.70757,0.5223086,-1.238783,-0.9479874,1.675699,0.3571143,1.559712,3.3088,-0.2279097,3.324495,3.792895,-1.655004,-1.554943,-2.480672,-2.85485,1.090212,-3.743853,3.556181,0.9733878,0.3683107,-2.48684,1.366812,2.088193],
[-0.7889581,3.497719,1.43402,-1.433622,3.730272,2.396086,-3.170605,-2.150347,-3.576701,-0.1668666,-2.630246,-1.084379,2.121588,3.439754,-2.101204,3.317723,0.2361923,-3.693322,-2.139245,-2.91966,-2.785837,-3.931175,-3.00573,0.2811841,2.550149],
[-2.660246,2.092016,3.283633,3.10968,-3.943747,-0.2580202,2.678932,1.46264,-0.3259979,0.2586162,2.654376,3.045974,-1.529948,-2.884708,-3.88981,-1.402403,-3.555208,0.6001094,3.122252,2.563976,-0.03402954,-2.5459,-1.257638,-0.09488028,2.188319],
[-0.3109766,3.457872,-0.8918363,1.54664,0.7724607,-3.59509,1.661106,2.834336,1.919125,3.438737,-0.2692521,1.106118,1.210517,2.945506,2.113471,-0.2793347,1.575138,1.052858,0.1033525,2.618355,-0.4790984,-0.9198431,-2.333428,-0.2840746,-2.83992],
[-3.452613,-2.464316,-3.184394,-2.838085,3.847762,-0.4046324,1.631852,0.9324867,-3.4341,-3.582255,0.01906213,-0.9661769,-2.948771,-0.40092,0.7870387,-2.216701,-1.54749,1.24885,1.221032,-2.012008,2.51361,-0.9428799,2.342097,2.972224,-0.5221156],
[3.099421,1.479324,-2.660454,0.5900823,-2.951153,-2.262872,1.418362,-3.421324,-1.182963,-2.45356,0.3929585,3.373855,-2.458451,1.78848,-3.866522,-3.158532,-3.150121,0.4759485,3.171053,-1.582284,1.580814,-3.547178,3.485936,-1.341556,3.864751],
[-1.755301,-2.589104,1.165016,0.06607434,-2.129713,-1.399334,-0.9693351,0.1917525,-0.309713,-3.716127,-0.5289487,1.409213,-2.236737,-1.212973,-1.141346,2.433163,-1.850756,-1.603421,-3.185009,1.563372,1.347854,0.5439867,-0.1401893,3.349785,-1.037882],
[1.182457,-1.043462,-3.479763,-1.53126,-0.1887746,-0.9798312,1.712535,3.791794,-1.357451,1.749302,2.763307,2.868974,-0.9418749,0.1939192,-2.209581,1.610692,-1.709167,-0.7223182,3.28045,0.4987966,2.708993,3.001267,1.548185,1.334612,-1.952724],
[0.7048986,0.3390743,0.6959315,1.524909,-3.58614,-1.836519,-1.130954,0.3580244,0.3176878,-1.37371,-3.951276,-0.4689044,-2.660263,0.8063327,3.575483,-2.495183,-2.741555,3.590267,1.654945,1.902056,-2.46389,-3.506681,-2.479965,-2.101543,2.28396],
[3.839003,-0.2520185,0.388476,3.393105,-2.473331,0.0484954,2.323175,-1.1941,-0.8502203,3.827191,1.745645,-1.377875,-0.8211189,-3.663448,-0.2957175,2.204699,-2.619935,-0.9174175,-2.331278,-1.655626,-0.09610821,2.899185,1.471696,2.062205,0.994782],
[-1.271479,-3.214293,1.560249,0.6192045,3.583364,-2.812912,0.7428787,2.259042,2.846181,-3.955243,2.252897,0.009895517,-1.906022,1.689958,-2.463272,0.5953557,3.0817,-2.701443,-0.005089311,-2.240999,-3.96099,3.306706,2.588766,-2.499068,-2.353034],
[3.753431,3.812415,2.116357,3.610447,1.236005,-2.443977,2.322514,3.23277,-1.436885,-0.5021173,2.595773,1.002764,-0.6764414,-2.24961,0.3498648,2.104225,-0.9615436,3.592282,-3.67879,-2.999597,-3.303706,1.164839,1.513286,3.912304,-0.191606],
[-1.490088,-0.3723729,-2.951419,-0.726721,0.7666559,0.1132159,-3.550837,-1.661648,3.709976,-1.938939,0.4594615,-3.961317,-0.9821802,3.389023,1.28874,-0.06028608,-1.175043,0.488088,-2.394083,-2.791654,1.002618,1.811571,-3.317089,2.489071,-0.1796138]
],
[
[-3.309747,-0.0249344,-0.5849254,-3.439741,0.4045439,1.731402,2.299239,-2.943788,0.006146193,2.598064,-2.395439,1.589856,-0.177644,-2.247134,2.324214,-0.6484132,0.1818839,3.376971,0.01095542,-1.978609,0.9090728,3.974983,3.093263,-3.870636,2.757661],
[0.8507107,-0.6756492,-3.57827,2.593522,-2.436512,1.144186,3.884007,-3.181258,-3.998619,2.09194,-1.911493,-2.155378,3.029264,-2.630903,-2.8385,-0.9815428,3.639319,0.3300345,2.3818,3.275145,-1.205536,1.953636,-0.3733222,-3.26378,-0.4578984]
]
],
"biases":[
[
1.889672,2.306852,-3.459875,-1.164239,0.1252684,-0.2049069,0.6201254,1.310374,1.096607,1.655956,-0.644348,-0.9841591,3.994818,-1.187227,2.648026,-0.3154958,3.191943,2.945623,-3.736365,-2.6491,2.568481,-1.265374,1.028026,-0.6120213,-2.06622
],
[
3.241615,3.704916
]
]},
{
"fitness":1.667382,
"weights":[
[
[-3.918405,-0.9131234,-2.695458,-0.6767324,-0.3716304,0.04443336,-3.668835,1.534325,2.602194,1.767467,-1.556655,-0.4195951,-0.8048707,3.933796,0.915611,-1.611477,2.930552,2.824455,0.8856296,-1.251767,1.28528,-2.819267,-2.203428,-2.882687,-2.497689],
[2.731238,-2.398265,-3.69163,-0.5807576,0.2214159,-1.460689,2.12534,-3.116671,3.127143,-2.75731,1.906041,1.680467,-2.01767,3.189817,0.2728869,2.181584,3.898978,3.869013,1.150835,-1.648499,0.966683,0.01676973,1.078971,2.111185,-1.432635],
[3.62839,-0.3781367,3.81037,-2.42769,3.963932,0.2093233,0.8281275,3.679844,-1.996082,3.277353,-2.370559,-0.860395,-0.1904963,-2.594583,-1.347819,0.4964347,1.535775,-3.303883,3.948113,-2.807033,2.910746,2.198217,1.497752,2.66483,-3.160433],
[-0.6131486,-2.689198,-1.264976,-1.470241,-1.078917,2.814058,1.062544,-1.504596,-3.94767,-2.697784,3.181204,1.587257,0.5616991,-0.4286721,0.7475831,0.8340616,3.151654,3.533199,3.179331,0.7181488,-3.386353,1.60223,3.128549,1.802899,1.312082],
[0.6026857,2.164317,1.710795,2.732357,-3.026259,-3.119438,-2.271251,3.809075,-1.692512,0.8730461,-0.1409511,-1.372928,-0.1006996,2.955805,-1.365879,-0.3900694,-2.64857,-2.209733,-1.950475,-0.01264639,-0.9238326,2.746399,0.3994184,1.632744,-1.08117],
[0.6832377,-3.173568,2.661711,-3.119395,-0.7793984,-1.752731,1.728764,-0.1568426,-2.007231,2.991845,3.793433,-3.357533,2.456513,1.446187,2.742743,2.496536,2.765265,3.555032,-2.838554,-2.208824,-3.865416,3.138266,-0.4418356,3.887284,1.65111],
[1.054709,1.772935,-2.855644,-2.179605,2.918323,-0.470055,1.179939,-1.251791,2.89197,-1.682865,-3.453681,-3.365691,-1.131971,-1.73649,-2.932632,3.443539,0.2642373,-1.481917,1.840693,1.09666,1.04565,3.5937,-1.687521,1.803297,-3.464977],
[2.874508,1.799087,-2.718486,3.260206,0.08094499,2.581542,0.4096163,-0.5612042,-1.371437,3.870343,-2.336294,3.005442,1.975862,-3.385344,1.35429,3.06675,0.1587778,-0.5753796,-1.511842,-3.431323,-2.215527,2.099791,-2.946186,-2.426541,0.9343255],
[3.065014,2.753481,2.452044,3.820502,-0.5990639,1.126242,1.12068,1.717676,-0.1710941,-1.699886,-2.702503,-1.37699,-0.00237184,-1.154241,3.047549,-3.123861,1.40946,0.774076,2.710067,1.259817,-3.234489,-1.561575,-0.8218955,-1.397444,-1.963199],
[-3.879526,1.168636,0.5482217,1.777203,-2.701019,-1.031245,2.971206,-1.161919,2.682748,-2.304242,3.271792,-1.576976,-0.125912,-1.899931,2.301987,3.021388,1.246231,2.236706,-1.787807,-3.460142,-3.974442,3.272643,-1.925276,-3.836542,-0.3173004],
[2.639325,2.580108,1.239018,0.4371414,0.8389339,-1.705032,-2.356574,3.681029,1.712117,-1.292619,2.362276,-1.01295,-2.621202,-2.990029,-3.483847,-0.3052569,-2.441661,1.74354,3.265959,3.874846,-2.309801,0.3267199,1.574907,0.1219189,-0.02917447],
[2.867215,3.136028,0.7966839,3.876861,3.763918,0.09890383,-2.234848,1.013852,0.7557246,-1.258158,0.9445412,-3.992242,-1.817054,3.034846,-0.7096133,-3.640451,2.756322,-0.2013158,1.492204,-0.8954827,0.3293706,1.85852,3.901198,3.272245,2.152446],
[0.4327688,2.239216,-2.951811,-0.3539301,-1.238783,-0.9479874,1.675699,0.3571143,1.559712,3.3088,-0.5068402,0.4719062,2.334626,-1.655004,-1.554943,-2.480672,1.184158,1.090212,-2.217273,3.556181,3.473184,3.012221,-2.48684,-0.6276857,2.088193],
[-0.7889581,3.497719,-0.8388608,0.574327,3.730272,2.396086,-3.170605,-2.150347,-3.576701,-0.1668666,-2.630246,3.479588,2.121588,-2.445371,2.658327,-2.949576,0.2361923,-3.693322,-2.139245,-2.91966,-2.785837,-3.931175,-3.00573,-2.931086,2.550149],
[1.060904,2.092016,-3.489779,3.10968,-1.690188,-1.887567,2.678932,2.230268,-0.3259979,0.2586162,-3.579707,3.045974,-1.529948,-2.884708,-3.88981,-1.402403,0.5307357,0.6001094,3.122252,2.563976,0.3888768,-2.5459,-1.257638,-0.09488028,2.188319],
[-0.3109766,3.457872,-0.8918363,1.54664,0.7724607,-1.398891,1.661106,3.343118,1.919125,3.438737,-0.2692521,1.106118,1.210517,2.945506,-0.7744355,-0.2793347,1.575138,2.155325,0.1033525,-1.97001,-0.6516829,-0.9198431,-2.333428,-0.2840746,-2.83992],
[2.6224,-2.464316,-3.184394,-2.838085,3.847762,-0.4046324,-1.973784,0.9324867,-3.4341,0.7664142,0.01906213,-0.9661769,-2.948771,-0.7151943,0.7870387,-2.216701,-1.54749,0.4155903,1.221032,-2.012008,2.51361,-0.9428799,2.342097,2.972224,-0.5221156],
[3.099421,1.479324,-2.474978,0.5900823,1.250105,-2.262872,-2.879587,-3.421324,-1.182963,-2.434433,0.3929585,3.373855,1.908647,1.78848,1.254274,-3.158532,-3.150121,0.4759485,-1.905231,-1.582284,1.580814,0.06330132,3.485936,-1.341556,3.864751],
[-1.755301,-2.589104,1.351359,3.720619,-2.129713,-1.399334,-3.214818,0.1917525,-0.309713,-3.716127,-0.5289487,1.409213,-3.512938,-1.212973,-1.141346,2.433163,-1.850756,-1.603421,-3.185009,1.563372,1.347854,0.5439867,2.929036,3.349785,-1.029867],
[1.182457,-1.043462,1.269853,-1.53126,-0.1887746,-0.9798312,2.352799,3.791794,-2.13796,1.749302,2.763307,0.4317945,-0.9418749,-2.124984,1.384963,1.610692,-1.709167,-3.138134,3.28045,0.247689,2.540904,-1.78866,-3.693176,1.966908,-1.952724],
[-1.124298,0.3390743,1.744648,1.524909,-3.58614,-1.836519,-2.616344,0.3580244,0.3176878,2.634019,-3.951276,-0.4689044,0.2621455,0.8063327,3.575483,-2.948345,-2.741555,3.590267,1.654945,1.902056,-2.46389,-3.506681,0.4660929,0.6596499,-0.7581153],
[3.839003,-0.2520185,-0.314568,3.393105,-3.269766,0.0484954,2.323175,-1.1941,-0.8502203,-2.722518,1.745645,-1.377875,-0.8211189,-3.663448,-3.930517,2.204699,-2.619935,-0.9174175,-2.331278,-1.655626,-0.09610821,2.899185,1.471696,2.062205,1.043775],
[2.906662,-3.214293,1.353508,0.6192045,3.981085,-2.637844,0.7428787,-3.79802,-0.03253262,1.46569,2.252897,0.009895517,-1.906022,1.689958,-2.463272,0.5953557,3.0817,-2.701443,-0.005089311,-2.240999,-3.96099,-0.7577999,-2.296681,-2.499068,-1.107167],
[3.753431,3.812415,2.116357,3.610447,-2.604387,-2.443977,2.322514,3.23277,-1.436885,0.7483516,2.988812,-0.9334341,-0.6764414,-2.24961,0.3498648,2.104225,-0.9615436,3.592282,-3.99129,-2.999597,-3.303706,1.306268,1.513286,3.912304,1.63459],
[1.30527,-0.3723729,-2.951419,3.726047,0.7666559,-0.5684705,1.306853,-1.661648,3.709976,-1.938939,0.4594615,-3.961317,-0.9821802,3.389023,1.28874,-0.06028608,-1.175043,0.488088,-2.394083,-2.791654,1.002618,3.786209,-3.317089,2.489071,-0.1796138]
],
[
[-3.309747,2.821021,-0.5849254,1.504169,3.847694,1.731402,2.299239,-2.943788,0.006146193,2.598064,-0.08750089,1.589856,-0.177644,-2.247134,2.324214,-3.528036,3.289652,3.376971,0.01095542,-1.978609,0.9090728,3.974983,3.093263,-2.83809,2.757661],
[0.8507107,-0.6756492,-3.57827,2.593522,-1.598309,3.224866,3.884007,-3.181258,-3.998619,2.828469,-1.911493,-2.155378,3.029264,-2.630903,-2.8385,-0.1504878,3.639319,0.3300345,1.037491,-2.4843,-0.7657508,1.953636,-0.3733222,-3.26378,-0.4578984]
]
],
"biases":[
[
1.889672,1.926405,-3.459875,-1.164239,0.1252684,-3.421046,0.6201254,1.310374,1.096607,1.655956,-0.644348,-0.9841591,3.994818,-1.187227,2.648026,-0.3154958,3.191943,2.945623,-3.736365,-2.762985,2.568481,-1.265374,1.028026,-0.6120213,1.278247
],
[
3.241615,3.704916
]
]},
{
"fitness":1.660886,
"weights":[
[
[-3.918405,-0.9131234,-0.7209882,-0.6767324,-0.3716304,0.04443336,-3.668835,1.534325,2.602194,1.767467,-1.556655,-0.4195951,1.307081,3.933796,0.915611,-0.389276,-0.6797464,2.824455,0.8856296,-2.192938,1.28528,-2.819267,-2.203428,-2.882687,-2.497689],
[2.731238,-2.398265,-3.69163,-0.5807576,-3.51733,-1.460689,2.12534,-3.116671,3.127143,1.858596,1.906041,1.680467,-2.01767,3.189817,0.2728869,2.181584,3.898978,-1.003041,1.150835,-1.648499,0.966683,0.01676973,1.078971,2.111185,-1.432635],
[3.62839,2.778591,2.967684,-2.42769,3.963932,0.2093233,0.8281275,-0.9003459,1.442591,3.277353,-2.370559,1.379852,-0.1904963,-2.594583,-1.347819,0.4964347,1.535775,-3.303883,3.948113,-2.807033,2.705834,2.198217,-2.78584,-3.631317,-0.9347053],
[-0.6131486,-2.689198,-1.264976,-1.059124,-2.809507,0.6845491,1.062544,-1.504596,-0.9762166,-2.697784,1.154811,1.587257,-0.8139986,1.052256,2.98609,-2.224382,3.151654,1.085171,3.179331,0.7181488,-3.386353,-1.215526,3.128549,1.802899,1.312082],
[-1.436041,2.164317,2.574479,2.732357,3.48261,1.279106,-2.271251,-0.1843411,2.833574,2.053169,-0.1409511,-1.372928,-0.1006996,2.955805,-0.8906233,-0.3900694,-2.64857,-2.007011,-1.950475,-0.0177537,-3.833107,-1.396264,0.3994184,1.632744,-2.879828],
[0.6832377,-3.173568,2.661711,-3.119395,-0.7793984,-1.752731,-1.74613,-0.1568426,-2.007231,0.8899747,3.793433,-3.357533,2.456513,1.446187,2.742743,2.496536,2.721888,3.555032,-3.909756,-2.208824,1.150694,3.138266,-0.4418356,3.887284,-0.9338523],
[1.054709,0.5691385,-2.855644,-2.179605,-3.24647,-0.470055,1.179939,-1.251791,2.89197,-2.949997,-3.453681,-2.330694,-1.131971,-1.73649,-2.473881,-0.4755877,-3.459008,2.75324,1.840693,1.09666,1.04565,3.5937,-1.687521,1.803297,2.028693],
[0.8581115,1.506133,-2.349913,3.260206,0.08094499,2.581542,0.4096163,1.847188,0.9174514,3.870343,-2.336294,3.005442,1.975862,-3.385344,-2.429942,-2.694073,0.1587778,-0.5753796,-1.511842,-3.431323,1.933653,2.099791,-2.946186,-3.913987,2.330571],
[3.065014,2.753481,2.452044,2.574617,-3.319827,0.1049437,1.12068,1.717676,-0.1710941,-0.1341426,-1.443168,-1.37699,-0.00237184,-1.154241,3.047549,-2.753852,2.118496,0.774076,2.710067,1.259817,-3.234489,2.00657,-0.8218955,-1.397444,-1.963199],
[-3.879526,1.168636,0.5482217,1.777203,-2.701019,2.740567,-3.677463,0.83465,0.2288105,-2.304242,1.720234,1.716798,-0.125912,-1.899931,2.301987,-1.146981,1.246231,-2.800913,2.971829,-1.191796,-2.741151,3.272643,-1.925276,-3.836542,-0.6717389],
[0.4942864,-1.564082,1.239018,0.4371414,-0.622781,-1.705032,-2.356574,3.681029,1.712117,2.173448,2.362276,-3.624359,-2.621202,-2.974711,-3.483847,-0.360161,-2.441661,1.74354,-1.7137,3.874846,1.876047,0.3267199,-3.324365,0.1219189,1.487128],
[3.526497,3.136028,0.7966839,3.876861,3.763918,-3.708702,1.976256,1.013852,0.7557246,-1.258158,2.656987,-3.992242,-2.125986,3.034846,-0.7096133,-2.721697,2.756322,-0.2013158,1.492204,-0.8954827,-2.039654,1.85852,3.901198,3.272245,2.152446],
[0.4327688,2.239216,1.70757,0.5223086,-1.238783,-0.9479874,1.675699,0.3571143,1.559712,3.3088,-0.2279097,3.324495,3.792895,-1.655004,-1.554943,-2.480672,-2.85485,1.090212,-3.743853,3.556181,0.9733878,0.3683107,-2.48684,1.366812,2.088193],
