{ "networks":
[
{
"fitness":12.71779,
"weights":[
[
[3.24803,2.708545,1.663928,3.858215,-3.531452,2.339176,-0.4815862,-2.787132,2.663903,-2.132184,1.823753,-2.038416,-0.1875394,-2.181117,1.53249,-0.5480042,-1.824405],
[-2.567895,3.271781,-2.392037,1.366544,3.170547,-1.094745,3.617585,3.297536,-2.501822,2.306106,-3.744271,0.9987922,-2.474778,0.4948174,3.664716,-0.5843433,1.583941],
[1.1298,-2.284391,-2.346531,-3.870621,-2.386049,-2.842344,1.323797,2.97242,1.665663,0.2930844,2.294796,-1.340973,2.835942,-1.419574,-0.972999,-2.094736,3.533007],
[3.794855,3.530483,-1.219125,2.906555,-1.000376,-2.516217,2.162822,1.155173,-0.4554144,-3.672343,-2.662888,-2.251363,-0.6267154,-2.110855,-3.878001,0.1839322,3.336167],
[0.1616143,-2.073514,2.112323,-3.255041,-2.924401,0.4581022,-0.9846869,-2.682219,3.876854,-1.47088,3.897781,-0.9252915,-1.335629,1.572468,-3.624734,3.645061,-1.022346],
[-0.2473144,3.869207,1.340742,-3.065522,-0.3659642,1.681308,2.495319,-0.03844295,2.843305,3.486408,1.47058,0.4653406,-1.950124,3.247595,-0.1031348,-2.896762,3.150652],
[0.1354745,-1.779722,0.3288937,1.6536,-0.3948871,0.2887558,-2.445196,-0.8224762,-3.537862,1.689707,-3.100444,-1.710556,2.002325,2.997027,2.899925,3.806513,-3.832786],
[3.474251,2.514455,-0.1433807,-3.509146,1.730224,-1.635852,1.494634,-0.8500494,0.1150999,-1.74719,3.916987,1.087527,-1.210505,1.168635,0.9032021,-0.3920521,-2.416854],
[0.2948416,3.314508,1.124563,-2.275837,2.42608,-1.564979,0.4853283,0.2350503,-1.859116,1.990582,0.1563052,1.996861,-3.523647,-3.387861,-1.916903,-3.344774,-0.1724423],
[3.828558,-1.447297,0.4563478,-3.375689,-3.582152,0.09481105,2.212962,2.33837,-1.204152,2.867902,-0.0009320714,2.209335,-2.825465,0.2275539,0.4447354,3.58534,3.93259],
[-2.549054,1.032145,0.4300992,1.814716,-0.4172803,3.089239,2.114044,2.107505,-3.18645,-2.831027,1.497022,-0.6497475,2.296876,1.925255,0.1924343,-1.081406,3.533276],
[3.640062,3.304057,-0.6954455,3.714486,2.832908,-2.250092,3.806774,-0.5635036,-3.714814,0.1944159,0.6849468,-3.84125,1.734987,2.7822,-3.611112,-3.783585,-0.7675126],
[3.251901,-1.237565,-3.354716,3.16937,2.768959,1.080925,-2.046764,-2.610777,0.786135,2.143542,2.309769,3.268299,0.6923273,3.583465,3.785151,-0.03552095,3.047223],
[-2.910228,-2.930367,0.6526668,3.029331,-1.729225,2.507226,3.706773,-1.008067,2.115057,0.5369731,1.037696,1.053959,-3.090846,-3.366372,-3.607398,-3.573606,-3.890617],
[-1.089045,-1.178307,-0.2353946,-0.07828258,-0.4066478,-1.736882,0.5462321,-1.864778,0.04520259,-3.893452,-1.666803,1.921113,1.078716,3.578076,3.404165,-0.8152142,-2.664099],
[-1.134491,2.48498,-2.167568,2.373187,-2.810689,2.344276,2.577108,-3.12264,-0.4062538,2.9681,-2.512966,-1.588866,-2.841234,-0.9949059,0.8979692,-1.299761,0.5695466],
[-1.588092,-3.250004,-0.5669615,-3.654773,0.5859395,1.81347,3.797286,1.81206,0.08281331,3.628879,3.958802,-2.13469,-0.08212105,2.202049,-0.1492395,3.982167,0.9026272]
],
[
[-0.05453576,0.5800989,3.225916,2.558258,-1.582579,-0.07112061,-0.5287084,1.497599,2.941636,-3.225518,1.884483,-3.534507,3.696463,0.9958471,3.932407,1.61407,2.30416],
[0.3725308,-3.013077,-0.6284181,-1.982151,3.607431,-0.0291241,2.950009,2.850823,-3.011115,1.216255,1.099715,-0.2672286,1.275552,-2.313301,2.590378,2.850268,0.3668167]
]
],
"biases":[
[
2.470169,3.823466,3.613033,-1.6196,-2.877169,-3.047684,3.859089,0.2661587,1.82399,-2.823125,1.138627,-3.363356,-3.301929,2.946497,1.5809,3.42364,0.8961695
],
[
-2.983344,-0.3252213
]
]},
{
"fitness":12.61966,
"weights":[
[
[3.24803,2.708545,-1.049594,-2.004224,-3.531452,2.339176,-0.4815862,-2.787132,2.663903,-2.132184,1.823753,-2.038416,-0.1875394,1.751959,1.53249,-0.5480042,-1.824405],
[-2.567895,3.271781,-2.392037,1.366544,3.170547,-1.094745,3.617585,3.297536,-2.501822,2.306106,-3.744271,0.9987922,-2.474778,0.4948174,3.664716,-1.321817,1.583941],
[1.1298,-2.284391,-2.346531,-3.870621,-2.386049,-2.842344,3.985373,2.97242,-3.067462,0.2930844,-0.2151672,-1.340973,2.835942,-1.419574,-0.972999,-2.094736,1.854254],
[3.794855,3.530483,-1.219125,2.906555,-1.000376,-2.516217,2.162822,1.155173,-0.4554144,-3.672343,-2.662888,-2.251363,-0.6267154,-2.110855,-3.878001,0.1839322,3.336167],
[0.1616143,-2.073514,2.112323,-3.255041,-2.924401,0.4581022,-0.9846869,-2.682219,-3.884537,-1.47088,3.897781,-0.9252915,-1.335629,1.572468,-3.624734,3.645061,-1.022346],
[-0.2473144,3.869207,1.340742,-3.065522,-0.3659642,1.681308,2.495319,-0.03844295,2.843305,3.486408,1.47058,0.4653406,-1.950124,3.247595,-0.1031348,-2.896762,3.150652],
[0.1354745,-3.037548,0.3288937,1.6536,-0.3948871,0.2887558,-2.445196,-0.8224762,-3.537862,1.689707,-3.100444,-1.710556,2.002325,2.997027,2.899925,3.806513,-3.832786],
[3.474251,2.514455,-0.1433807,-2.91835,-0.0924944,-1.635852,1.494634,-0.8500494,0.1150999,-1.74719,3.916987,1.087527,-1.210505,1.168635,0.9032021,-0.3920521,-2.416854],
[0.2948416,3.314508,1.124563,-2.275837,2.42608,-1.564979,0.4853283,0.2350503,-1.859116,1.990582,0.1563052,1.996861,-3.523647,-3.387861,-0.9284453,-3.344774,-0.1724423],
[3.828558,-1.447297,0.4563478,-3.375689,-3.582152,0.09481105,2.212962,2.33837,-1.204152,2.867902,-0.0009320714,2.209335,-2.825465,0.2275539,-3.118487,3.58534,3.93259],
[-2.549054,1.032145,0.4300992,1.814716,-0.4172803,3.089239,2.114044,2.107505,-3.18645,-2.831027,1.497022,-0.6497475,2.296876,1.925255,0.1924343,-1.081406,3.533276],
[3.640062,3.304057,-0.6954455,3.714486,2.832908,-2.250092,3.806774,-0.5635036,-3.714814,0.1944159,0.6849468,-3.84125,1.734987,2.7822,-3.611112,-3.783585,-0.7675126],
[-1.6073,-1.237565,-3.354716,3.16937,2.768959,1.080925,-2.046764,-2.610777,0.786135,2.143542,2.309769,3.268299,0.6923273,3.583465,-1.008327,-0.03552095,3.047223],
[-2.910228,-2.930367,0.6526668,3.029331,-1.729225,2.507226,3.706773,-1.008067,2.115057,0.5369731,1.037696,1.053959,-3.090846,-3.366372,-3.607398,-3.573606,-3.890617],
[-1.089045,-1.178307,-0.2353946,-0.07828258,-0.4066478,-1.736882,0.5462321,-1.864778,0.04520259,-3.893452,-1.666803,1.921113,1.078716,3.578076,3.404165,-0.8152142,-2.664099],
[-1.134491,2.48498,0.3435397,2.373187,-2.810689,2.344276,2.577108,-3.12264,-0.4062538,2.9681,-2.512966,-1.588866,-2.841234,-0.9949059,0.8979692,-1.299761,0.5695466],
[-1.588092,-3.250004,-0.5669615,-3.654773,0.5859395,1.81347,3.797286,1.81206,0.08281331,3.628879,3.958802,2.914481,-0.08212105,2.202049,-0.1492395,3.982167,0.9026272]
],
[
[-0.05453576,0.5800989,3.225916,2.558258,-1.582579,-0.07112061,-0.5287084,1.497599,2.941636,-3.092405,1.884483,-3.534507,3.966396,0.9958471,3.932407,1.61407,2.30416],
[0.3725308,-3.013077,-0.6284181,-1.982151,3.607431,-0.0291241,2.950009,2.850823,-3.011115,1.216255,1.099715,-0.2672286,1.275552,-2.313301,2.590378,2.850268,0.3668167]
]
],
"biases":[
[
2.470169,3.823466,3.613033,-1.6196,-2.877169,-3.047684,3.859089,0.2661587,1.82399,-2.823125,1.138627,-0.1344823,-3.301929,2.946497,1.5809,3.42364,0.8961695
],
[
-2.983344,-0.3252213
]
]},
{
"fitness":12.61637,
"weights":[
[
[2.31415,2.708545,-3.82391,-2.004224,-3.531452,2.339176,0.3615426,-2.787132,2.663903,-2.132184,1.823753,-2.038416,0.7806699,-0.7078259,1.53249,-0.5480042,-1.824405],
[-2.567895,3.271781,-1.823177,1.366544,-2.000853,1.303047,-3.861282,3.297536,2.724361,2.306106,3.624719,2.282548,-2.474778,0.4948174,3.664716,-1.321817,1.82302],
[1.1298,-2.284391,-2.346531,-3.870621,-2.386049,-2.842344,1.323797,3.420148,1.665663,0.2930844,3.662296,-1.340973,2.835942,-1.419574,-3.928335,3.149204,3.533007],
[-1.858198,3.530483,-1.219125,-1.633724,-1.000376,-2.516217,2.162822,1.155173,-0.4554144,-3.672343,-2.662888,-2.251363,-0.6267154,-2.110855,-3.878001,2.427644,3.336167],
[0.1616143,-2.073514,-0.3550031,2.645075,-2.924401,-1.810771,-0.9846869,-2.682219,-3.884537,-1.47088,-0.5325475,-0.9252915,-1.335629,1.572468,-3.624734,3.645061,-1.281004],
[-0.2473144,0.8960702,1.770399,-3.065522,-3.629807,-0.9203271,2.495319,2.993583,0.5498099,3.486408,-0.6572111,0.4653406,-1.950124,3.247595,-0.1031348,-2.896762,3.150652],
[0.1354745,-3.037548,0.3288937,1.984168,-0.3948871,0.2887558,-2.445196,-0.6120586,-3.537862,1.689707,-3.100444,-1.710556,2.002325,2.997027,2.899925,3.806513,-3.832786],
[3.474251,2.514455,-0.1433807,-3.509146,1.730224,-1.635852,-0.4537629,0.1464654,0.1150999,-1.74719,3.916987,1.087527,-1.210505,1.168635,0.9032021,-0.3920521,-2.316436],
[0.2948416,3.314508,1.124563,-2.275837,2.42608,2.811858,0.4853283,0.2350503,-1.859116,1.990582,-3.025706,1.996861,-3.523647,-3.387861,-0.9284453,-3.344774,-0.1724423],
[-1.641203,0.5355383,0.4563478,-3.407129,-3.582152,0.09481105,2.212962,3.682247,-1.204152,2.087419,-0.0009320714,2.209335,-2.825465,0.2275539,3.556978,3.58534,3.93259],
[-2.549054,2.362683,0.4300992,1.814716,-0.407076,3.089239,2.114044,1.161228,-3.18645,-2.826539,1.497022,-0.2077323,2.296876,1.925255,0.1924343,-3.118437,3.340011],
[0.6995234,1.294639,-0.6954455,3.714486,2.832908,-2.287122,3.806774,-0.5635036,-3.947401,0.1944159,-0.2047269,2.449684,1.734987,-2.990749,-3.611112,0.4715983,-0.7675126],
[-1.855377,-1.237565,-3.354716,3.16937,2.768959,2.108402,-2.046764,-2.610777,-3.904578,2.143542,2.309769,3.268299,0.6923273,3.583465,-0.410257,-0.03552095,2.860299],
[-2.910228,-2.930367,0.6526668,3.029331,-1.729225,2.756477,-0.6832041,0.2230969,2.115057,0.5369731,1.037696,1.053959,-3.090846,-3.366372,-3.607398,-3.573606,-3.890617],
[-1.089045,-1.178307,-0.2353946,-0.07828258,-0.4066478,-1.428052,0.5462321,-1.864778,-0.6722158,-3.893452,-1.666803,1.921113,1.078716,3.578076,3.404165,-0.8152142,-3.302837],
[-1.134491,2.48498,-2.167568,2.373187,-2.810689,2.344276,0.5504561,-3.12264,-0.4062538,2.9681,0.311522,2.373828,-2.841234,-3.616524,0.8979692,3.693526,3.463604],
[2.995226,-1.491541,-0.9863119,1.953476,0.5859395,1.81347,3.797286,1.81206,0.08281331,3.628879,3.958802,2.914481,-0.08212105,2.202049,0.616192,0.7890193,0.3371691]
],
[
[-0.05453576,0.5800989,0.3302245,2.558258,-1.582579,-0.07112061,-0.5287084,-3.42319,2.941636,0.1577225,2.991735,-3.534507,3.966396,0.9958471,3.932407,1.61407,2.30416],
[0.3725308,-3.013077,-0.6284181,-1.982151,3.607431,-0.0291241,2.950009,2.850823,-3.011115,1.216255,1.099715,-0.2672286,1.275552,-2.313301,1.14805,2.850268,0.3668167]
]
],
"biases":[
[
2.470169,3.823466,3.613033,-1.6196,-2.877169,-3.047684,3.859089,0.2661587,1.82399,-2.823125,1.138627,-3.363356,-3.301929,2.946497,1.5809,3.42364,-1.898093
],
[
3.379158,-0.3252213
]
]},
{
"fitness":12.61591,
"weights":[
[
[0.6961712,2.708545,-1.049594,-2.004224,-3.531452,2.692724,0.3615426,-2.787132,2.663903,-2.132184,1.823753,-2.038416,-0.1875394,-0.7078259,1.53249,-0.5480042,-1.824405],
[-2.567895,3.271781,-2.392037,1.366544,-2.000853,1.303047,2.263692,3.297536,2.724361,2.306106,-3.744271,-2.879799,-2.474778,-0.5069201,3.664716,-1.321817,1.583941],
[1.1298,-2.284391,-2.346531,-3.870621,-2.386049,-2.842344,1.323797,-3.656746,1.665663,0.2930844,3.662296,-1.340973,2.835942,-1.419574,-2.40593,-2.094736,3.533007],
[3.794855,3.530483,-1.219125,2.906555,-1.000376,-2.516217,2.162822,1.155173,-0.4554144,0.3182034,-2.662888,-2.251363,-0.6267154,-2.110855,-3.878001,0.1839322,3.336167],
[0.1616143,-2.073514,2.112323,-3.255041,-2.924401,0.4581022,-0.9846869,-2.682219,-3.884537,-1.47088,-0.5325475,-0.9252915,-1.335629,1.572468,-3.624734,3.645061,-1.022346],
[-0.2473144,0.8960702,1.340742,-3.065522,-3.442243,-2.001358,2.495319,-0.01189332,3.519037,3.486408,1.47058,0.4653406,-1.950124,3.247595,-0.1031348,0.004703993,3.150652],
[0.1354745,-3.037548,0.3288937,1.6536,-0.3948871,0.2887558,-2.445196,-0.8224762,-3.537862,1.689707,-3.100444,-1.710556,-1.153412,2.997027,2.899925,3.806513,-3.832786],
[3.474251,2.514455,-0.1433807,-3.509146,1.730224,-1.635852,1.494634,-0.8500494,0.4751873,-1.74719,3.916987,-0.0839342,-1.210505,1.168635,0.9032021,-0.3920521,-2.416854],
[0.2948416,3.314508,1.124563,-2.275837,2.42608,2.811858,0.4853283,0.2350503,-1.859116,1.990582,-3.025706,1.996861,-3.523647,-3.387861,-0.9284453,-3.344774,-0.1724423],
[3.828558,-1.447297,1.582192,-3.375689,-3.582152,0.09481105,2.212962,2.33837,-1.204152,2.867902,-0.0009320714,2.209335,-2.825465,0.2275539,0.4447354,3.58534,3.93259],
[-2.549054,1.032145,0.4300992,1.814716,-0.4172803,3.089239,2.114044,2.107505,-3.18645,-2.831027,1.497022,-0.2077323,2.296876,1.925255,0.1924343,-1.081406,3.137094],
[0.6995234,1.294639,-0.6954455,3.714486,2.832908,-2.250092,-3.97808,-0.5635036,2.693172,0.1944159,-0.2047269,2.486621,1.734987,-2.990749,-3.611112,-2.329344,-0.7675126],
[-1.6073,-1.237565,-3.354716,3.16937,2.768959,2.108402,-2.046764,-2.610777,-0.6667143,2.143542,2.309769,3.268299,0.6923273,3.583465,3.785151,-0.03552095,-3.200066],
[-2.910228,-2.930367,0.6526668,3.029331,-1.729225,2.507226,3.706773,0.2230969,2.115057,1.015136,1.037696,1.053959,-3.090846,-3.366372,-3.607398,-3.573606,-3.890617],
[-1.089045,-1.178307,-0.2353946,-0.07828258,-0.4066478,-1.736882,-1.565488,-1.864778,-0.6722158,-3.893452,-1.666803,1.921113,1.078716,3.578076,3.404165,-0.8152142,-2.664099],
[-1.134491,2.48498,-3.146928,2.373187,-2.810689,2.344276,0.5504561,-3.12264,-0.4062538,2.9681,-2.512966,-1.588866,-2.841234,-3.616524,0.8979692,3.693526,0.5695466],
[-1.588092,-3.250004,-0.5669615,-3.317969,0.5859395,1.81347,3.797286,1.81206,0.08281331,3.628879,3.958802,2.914481,1.606871,2.202049,0.616192,3.982167,0.9026272]
],
[
[-0.05453576,0.5800989,0.3302245,2.558258,-1.582579,-0.07112061,-0.5287084,1.497599,2.941636,-3.225518,1.884483,2.673518,3.966396,0.9958471,-1.277635,1.61407,2.30416],
[0.3725308,-3.013077,-0.6284181,-1.982151,3.607431,-0.0291241,2.950009,2.850823,-3.011115,1.216255,1.099715,-0.2672286,1.275552,-2.313301,2.590378,2.850268,0.3668167]
]
],
"biases":[
[
2.470169,3.823466,3.613033,-1.6196,-2.877169,3.448362,3.859089,0.2661587,1.82399,-2.823125,1.138627,-3.363356,-3.301929,-0.07985142,1.5809,3.42364,0.8961695
],
[
-2.983344,-0.3252213
]
]},
{
"fitness":12.61587,
"weights":[
[
[3.24803,2.708545,-1.049594,-2.004224,-3.531452,2.339176,0.3615426,-2.787132,2.663903,-2.132184,1.823753,-2.038416,-0.1875394,-2.181117,1.53249,-0.2202973,-1.824405],
[-2.567895,3.271781,-2.392037,1.366544,-2.000853,-1.094745,3.617585,3.297536,2.724361,2.306106,-3.744271,0.9987922,-2.474778,0.4948174,3.664716,-1.321817,1.583941],
[1.1298,-2.284391,-1.882893,-3.870621,-2.386049,-2.842344,1.323797,-3.656746,1.665663,0.2930844,3.662296,-1.340973,2.835942,-1.419574,-0.972999,-2.094736,3.533007],
[3.794855,3.530483,-1.219125,2.906555,-1.000376,-2.516217,2.162822,-2.563787,-0.4554144,-3.672343,-2.662888,-2.251363,-0.6267154,-2.110855,-3.878001,0.1839322,3.336167],
[0.1616143,-1.872379,2.112323,-3.039566,-3.768458,0.4581022,-0.9846869,-2.682219,-3.884537,-1.47088,3.897781,0.4465471,-1.335629,1.572468,-3.624734,3.645061,-1.022346],
[-0.2473144,0.8960702,1.340742,-3.065522,-0.3659642,-2.121669,2.495319,-0.03844295,2.843305,3.486408,1.47058,0.4653406,-1.950124,3.247595,-0.1031348,-2.896762,3.150652],
[0.1354745,-3.037548,0.3288937,1.6536,-0.3948871,0.2887558,-2.445196,-0.8224762,-3.537862,1.689707,-0.8646327,-1.710556,2.002325,2.997027,2.899925,3.806513,-3.832786],
[3.474251,2.514455,-0.1433807,-3.509146,1.730224,-1.635852,1.494634,-0.8500494,0.1150999,-1.74719,3.916987,1.087527,-1.210505,1.168635,0.9032021,-0.3920521,-2.416854],
[0.2948416,3.314508,1.124563,-2.275837,2.42608,3.31777,0.4853283,0.2350503,-1.859116,1.990582,-3.025706,1.996861,-3.523647,-3.387861,-0.9284453,-3.344774,-0.1724423],
[3.828558,-1.447297,0.4563478,-3.375689,-3.582152,0.09481105,2.212962,2.33837,-1.204152,2.867902,-0.0009320714,-2.53779,0.05826518,0.2275539,0.4447354,3.58534,3.93259],
[-2.549054,1.032145,0.4300992,1.814716,-0.4172803,3.089239,2.114044,2.107505,-3.18645,-2.831027,1.497022,-0.6497475,2.296876,0.01509201,2.041825,-1.081406,3.533276],
[3.640062,3.304057,-0.6954455,3.714486,2.832908,-2.250092,3.806774,-0.5635036,-3.714814,0.1944159,0.6849468,-3.84125,1.734987,2.7822,-3.611112,-3.783585,-0.7675126],
[-1.6073,-2.443661,-3.354716,3.16937,2.768959,1.080925,-2.046764,-2.610777,-0.6667143,2.143542,2.309769,3.268299,0.6923273,2.907024,3.785151,-0.03552095,3.047223],
[-2.910228,-2.930367,0.6526668,3.029331,-1.729225,2.507226,3.706773,-1.008067,2.115057,0.5369731,1.037696,1.053959,-3.090846,-3.366372,-3.607398,-3.573606,-3.890617],
[-1.089045,-1.178307,-0.2353946,-0.07828258,-0.4066478,-1.736882,0.5462321,-1.864778,0.04520259,-3.893452,-0.5305085,1.921113,1.078716,3.578076,3.404165,-0.8152142,-2.664099],
[-1.134491,2.48498,-2.167568,2.373187,-2.810689,2.344276,3.882752,-3.12264,-0.4062538,2.9681,-2.512966,-1.588866,-2.841234,-1.874237,0.8979692,-1.299761,0.5695466],
[-1.588092,-3.250004,-0.5669615,-3.654773,0.5859395,1.81347,3.797286,1.81206,0.08281331,3.628879,3.958802,2.914481,-0.08212105,2.202049,0.616192,3.982167,0.9026272]
],
[
[-0.05453576,0.5800989,0.3302245,2.558258,-1.582579,-0.07112061,-0.5287084,1.497599,2.941636,1.704596,1.884483,-3.534507,3.966396,0.9958471,1.528835,1.61407,2.30416],
[0.3725308,-3.013077,-0.6284181,-1.982151,3.607431,-0.0291241,2.916481,2.850823,-3.011115,1.216255,1.099715,-0.2672286,1.275552,-2.313301,2.590378,2.850268,0.3668167]
]
],
"biases":[
[
2.470169,3.823466,3.613033,-1.6196,-2.877169,-3.047684,3.859089,0.2661587,1.82399,-2.823125,1.138627,-3.363356,-3.301929,2.946497,1.5809,3.42364,0.8961695
],
[
-2.983344,-0.3252213
]
]},
{
"fitness":12.51828,
"weights":[
[
[2.31415,2.708545,-3.82391,-2.004224,-3.531452,2.339176,0.3615426,-2.787132,2.663903,-2.132184,1.823753,-2.038416,-0.1875394,-0.7078259,1.53249,-0.5480042,-1.824405],
[-2.567895,3.271781,-1.823177,1.366544,-2.000853,1.303047,-3.861282,3.297536,2.724361,2.306106,3.624719,2.282548,-2.474778,0.4948174,3.664716,-1.321817,1.82302],
[1.1298,-2.284391,-2.346531,-3.870621,-2.386049,-2.842344,1.323797,3.420148,1.665663,0.2930844,3.662296,-1.340973,2.835942,-1.419574,-3.928335,3.149204,3.533007],
[-1.858198,3.530483,-1.219125,-1.633724,-1.000376,-2.516217,2.162822,1.155173,-0.4554144,-3.672343,-2.662888,-2.251363,-0.6267154,-2.110855,-3.878001,2.427644,3.336167],
[0.1616143,-2.073514,-0.3550031,2.645075,-2.924401,-1.810771,-0.9846869,-2.682219,-3.884537,-1.47088,-0.5325475,-0.9252915,-1.335629,1.572468,-3.624734,3.645061,-1.281004],
[-0.2473144,0.8960702,1.770399,-3.065522,-3.629807,-0.9203271,2.495319,2.993583,0.5498099,3.486408,-0.6572111,0.4653406,-1.950124,3.247595,-0.1031348,-2.896762,3.150652],
[0.1354745,-3.037548,0.3288937,1.984168,-0.3948871,0.2887558,-2.445196,-0.6120586,-3.537862,1.689707,-3.100444,-1.710556,2.002325,2.997027,2.899925,3.806513,-3.832786],
[3.474251,2.514455,-0.1433807,-3.509146,1.730224,-1.635852,-0.4537629,0.1464654,0.1150999,1.19012,3.916987,1.087527,0.5326802,1.168635,0.9032021,-0.3920521,-2.316436],
[0.2948416,3.314508,1.124563,-2.275837,2.42608,2.811858,0.4853283,0.2350503,-1.859116,1.990582,-3.025706,1.996861,-3.523647,-3.387861,-0.9284453,-3.344774,-0.1724423],
[-1.641203,0.5355383,0.4563478,-3.407129,-3.582152,0.09481105,2.212962,3.682247,-1.204152,2.087419,-0.0009320714,2.209335,-2.825465,0.2275539,3.556978,3.58534,3.93259],
[-2.549054,2.362683,0.4300992,1.814716,-0.407076,3.089239,2.114044,1.161228,-3.18645,-2.826539,1.497022,-0.2077323,2.296876,1.925255,0.1924343,-3.118437,3.340011],
[0.6995234,1.294639,-0.6954455,3.714486,1.223035,-2.287122,3.806774,-0.5635036,-3.947401,0.1944159,-0.2047269,2.449684,1.734987,-2.990749,-3.611112,0.4715983,-0.7675126],
[-1.855377,-1.237565,0.8493115,3.16937,2.768959,2.108402,-2.046764,-2.610777,-3.904578,2.143542,2.309769,3.268299,0.6923273,3.583465,-0.410257,-0.03552095,2.860299],
[-2.910228,-2.930367,0.6526668,3.029331,-1.729225,2.756477,-0.6832041,0.2230969,2.115057,0.5369731,1.037696,1.053959,-3.090846,-3.366372,-3.607398,-3.573606,-3.890617],
[-3.154253,-3.333107,-0.2353946,-0.07828258,-0.4066478,-1.428052,0.5462321,-1.864778,-0.6722158,-3.893452,-1.666803,1.921113,1.078716,3.578076,3.404165,-0.8152142,-3.302837],
[-1.134491,2.48498,-2.167568,2.373187,-2.810689,2.344276,0.5504561,-3.12264,-0.4062538,2.9681,0.311522,2.373828,-2.841234,-3.616524,0.8979692,3.693526,3.463604],
[2.995226,-1.491541,-0.9863119,1.953476,0.5859395,1.81347,3.797286,1.81206,0.08281331,3.628879,3.958802,2.914481,-0.08212105,2.202049,0.616192,0.7890193,0.9026272]
],
[
[-0.05453576,0.5800989,0.3302245,2.558258,-1.582579,-0.07112061,-0.5287084,-3.42319,2.941636,0.1577225,2.991735,-3.534507,3.966396,0.9958471,3.932407,1.61407,2.30416],
[0.3725308,-3.013077,-0.6284181,-1.982151,3.607431,-0.0291241,2.950009,2.850823,-3.011115,1.216255,1.099715,-0.2672286,1.275552,-2.313301,1.14805,2.850268,0.3668167]
]
],
"biases":[
[
2.470169,3.823466,3.613033,-1.6196,-2.877169,-3.047684,3.859089,0.2661587,1.82399,-2.823125,1.138627,-3.363356,-3.301929,2.946497,1.5809,3.42364,-1.898093
],
[
3.379158,-0.3252213
]
]},
{
"fitness":12.518,
"weights":[
[
[3.24803,2.708545,-1.049594,-2.004224,-3.531452,2.339176,-0.4815862,-2.787132,2.663903,-0.09715262,1.823753,-2.038416,-0.1875394,-2.181117,1.53249,-0.5480042,-1.824405],
[-2.567895,3.271781,-2.392037,1.366544,3.170547,-1.094745,3.617585,3.297536,-2.501822,2.306106,-3.744271,0.9987922,-2.474778,0.4948174,3.664716,-1.321817,1.583941],
[1.1298,-2.284391,-1.760554,-3.870621,-0.1000371,-2.842344,1.323797,2.97242,1.665663,0.2930844,2.294796,-1.340973,2.835942,-1.419574,-0.972999,-2.094736,3.533007],
[2.934438,3.530483,-1.219125,2.906555,-1.000376,-2.516217,2.162822,1.155173,-0.4554144,-3.672343,-2.662888,-2.251363,-0.6267154,-2.110855,-3.878001,0.1839322,3.336167],
[0.1616143,-2.073514,2.112323,-3.255041,-2.924401,0.4581022,-0.9846869,-2.682219,-3.884537,-1.47088,3.897781,-0.9252915,-1.335629,1.572468,-3.624734,3.645061,-1.022346],
[-0.2473144,3.869207,1.340742,-3.065522,2.138518,1.681308,2.495319,-0.03844295,2.843305,3.857581,1.47058,0.4653406,-1.950124,3.247595,-0.1031348,-2.896762,3.150652],
[3.675261,-3.037548,0.3288937,1.6536,-0.3948871,0.2887558,-2.445196,-0.8224762,-3.537862,1.689707,-3.100444,-1.710556,2.002325,2.997027,2.899925,3.806513,-3.832786],
[3.474251,2.514455,-0.1433807,-3.509146,-2.440219,-1.635852,1.494634,-0.8500494,0.1150999,-1.74719,3.916987,1.087527,-1.210505,1.168635,0.9032021,-0.3920521,-2.416854],
[0.2948416,3.314508,1.124563,-2.275837,2.42608,1.989984,0.4853283,0.2350503,-1.859116,1.990582,0.1563052,1.996861,-3.523647,-3.387861,-0.9284453,-3.344774,-0.1724423],
[3.828558,-1.447297,0.4563478,-3.375689,-3.582152,0.09481105,2.212962,2.33837,-1.204152,2.867902,-0.0009320714,2.209335,-2.825465,0.2275539,-3.118487,3.58534,3.93259],
[-2.549054,1.032145,0.4300992,1.814716,-0.4172803,3.089239,2.114044,2.107505,-3.18645,-2.831027,1.497022,-0.6497475,2.296876,1.925255,0.1924343,-1.081406,3.533276],
[3.640062,3.304057,-0.6954455,-1.459453,2.832908,-2.250092,3.806774,-0.5635036,-3.714814,0.1944159,0.6849468,-3.84125,-2.629688,2.7822,-3.611112,-3.783585,-0.7675126],
[-1.6073,-1.237565,-3.354716,3.16937,2.768959,1.080925,-2.046764,-2.610777,0.786135,2.143542,2.309769,3.268299,0.6923273,3.583465,3.785151,-0.03552095,3.047223],
[-2.910228,-2.930367,0.6526668,3.029331,-1.729225,2.507226,3.706773,-1.008067,2.115057,0.5369731,1.037696,1.053959,-3.090846,-3.366372,-3.607398,-3.573606,-3.890617],
[-1.089045,-1.178307,-0.2353946,-0.07828258,-0.4066478,-1.736882,0.5462321,-1.864778,0.04520259,-3.893452,-1.666803,1.921113,1.078716,3.578076,3.404165,-0.8152142,-2.664099],
[-1.134491,2.48498,-2.167568,2.373187,-2.810689,2.344276,2.577108,-3.12264,-0.4062538,2.9681,-2.512966,-1.588866,-2.841234,-0.9949059,0.8979692,-1.299761,0.5695466],
[-1.588092,-3.250004,-0.5669615,-3.654773,0.5859395,1.81347,3.797286,1.81206,0.08281331,3.628879,3.958802,2.914481,-0.08212105,2.202049,-0.1492395,3.982167,0.9026272]
],
[
[-0.05453576,0.5800989,3.225916,2.558258,-1.582579,-0.07112061,-0.5287084,1.497599,2.941636,-3.225518,1.884483,-3.534507,3.966396,0.9958471,3.932407,1.61407,2.30416],
[0.3725308,-3.013077,-0.6284181,-1.982151,3.607431,-0.0291241,2.950009,2.850823,-3.011115,1.216255,1.099715,-0.2672286,1.275552,-2.313301,2.590378,2.850268,0.3668167]
]
],
"biases":[
[
2.470169,3.823466,3.613033,-1.6196,0.01885968,-3.047684,3.859089,0.2661587,1.82399,-2.823125,1.138627,-3.363356,-3.301929,2.946497,1.5809,3.42364,0.8961695
],
[
-2.983344,-0.3252213
]
]},
{
"fitness":12.51716,
"weights":[
[
[3.24803,2.708545,-1.049594,-2.004224,-3.531452,2.339176,-0.4815862,-2.787132,2.663903,-0.09715262,1.823753,-2.038416,-0.1875394,-2.181117,2.662271,-0.5480042,-1.824405],
[-2.567895,3.271781,-2.392037,1.366544,-3.934776,-1.094745,3.617585,3.297536,-2.501822,2.306106,-3.744271,0.9987922,-2.474778,0.4948174,3.664716,-1.321817,1.583941],
[1.1298,-2.284391,-1.760554,-3.870621,-0.1000371,-2.842344,1.323797,2.97242,1.665663,0.2930844,2.294796,-1.340973,2.835942,-1.419574,-0.972999,-2.094736,3.533007],
[2.934438,3.530483,3.951924,2.906555,-1.000376,-2.516217,2.162822,1.155173,-0.4554144,-3.672343,-2.662888,-2.251363,-0.6267154,-2.110855,-3.878001,0.1839322,3.336167],
[0.1616143,-2.073514,2.112323,-3.255041,-2.924401,0.4581022,-0.9846869,-2.682219,-3.884537,-1.47088,3.897781,-0.9252915,-1.335629,1.572468,-3.624734,3.645061,-1.022346],
[-0.2473144,3.869207,1.340742,-3.065522,2.138518,1.681308,2.495319,-0.03844295,2.843305,3.857581,1.47058,0.4653406,-1.950124,3.247595,-0.1031348,-2.896762,3.150652],
[0.1354745,-3.037548,0.3288937,1.6536,-0.3948871,0.2887558,-2.445196,-0.8224762,-3.537862,1.689707,-3.100444,-1.710556,2.002325,2.997027,2.899925,3.806513,-3.832786],
[3.474251,2.514455,-0.1433807,-3.509146,-2.440219,-1.635852,1.494634,-0.8500494,0.1150999,-1.74719,3.916987,1.087527,-1.210505,1.168635,0.9032021,-0.3920521,-2.416854],
[0.2948416,3.314508,1.124563,-2.275837,2.42608,-1.564979,0.4853283,0.2350503,-1.859116,1.990582,0.1563052,1.996861,-3.523647,-3.387861,-0.9284453,-3.344774,-0.1724423],
[3.828558,-1.447297,0.4563478,-3.375689,-3.582152,0.09481105,2.212962,2.33837,-1.204152,2.867902,-0.0009320714,2.209335,-2.825465,0.2275539,-3.118487,3.58534,3.93259],
[-2.549054,1.032145,0.4300992,1.814716,-0.4172803,3.089239,2.114044,2.107505,-3.18645,-2.831027,1.497022,-0.6497475,2.296876,1.925255,0.1924343,-1.081406,3.533276],
[3.640062,3.304057,-0.6954455,3.714486,2.832908,-2.250092,3.806774,-0.5635036,-3.714814,0.1944159,0.6849468,-3.84125,-2.629688,2.7822,-3.611112,-3.783585,-0.7675126],
[-1.6073,-1.237565,-3.354716,3.16937,2.768959,1.080925,-2.046764,-2.610777,0.786135,2.143542,2.309769,3.268299,0.6923273,3.583465,3.785151,-0.03552095,3.047223],
[-2.910228,-2.930367,0.6526668,3.029331,-1.729225,2.507226,3.706773,-1.008067,2.115057,0.5369731,1.037696,1.053959,-3.090846,-3.366372,-3.607398,-3.573606,-3.890617],
[-1.089045,-1.178307,-0.2353946,-0.07828258,-0.4066478,-1.736882,0.5462321,-1.864778,0.04520259,-3.893452,-1.666803,1.921113,1.078716,3.578076,3.404165,-0.8152142,-2.664099],
[-1.134491,2.48498,-2.167568,2.373187,-2.810689,2.344276,1.524297,-3.12264,-0.4062538,2.9681,-2.512966,-1.588866,-2.841234,-0.9949059,0.8979692,-1.299761,0.5695466],
[-1.588092,-3.250004,-0.5669615,-3.654773,0.5859395,1.81347,3.797286,1.81206,0.08281331,3.628879,3.958802,2.914481,-0.08212105,2.202049,-0.1492395,3.982167,0.9026272]
],
[
[-0.05453576,0.5800989,3.225916,2.558258,-1.582579,-0.07112061,-0.5287084,1.497599,2.941636,-3.225518,1.884483,-3.534507,2.33716,0.9958471,3.932407,1.61407,2.30416],
[0.3725308,-3.013077,-0.6284181,-1.982151,3.607431,-0.0291241,2.950009,2.850823,-3.011115,1.216255,1.099715,-0.2672286,1.275552,-2.313301,2.590378,2.850268,0.3668167]
]
],
"biases":[
[
2.470169,3.823466,3.613033,-1.6196,-2.877169,-3.047684,3.859089,0.2661587,1.82399,-2.823125,1.138627,-3.363356,-3.301929,2.946497,1.5809,3.42364,0.8961695
],
[
-2.983344,-0.3252213
]
]},
{
"fitness":12.51625,
"weights":[
[
[2.31415,2.708545,-3.82391,-2.004224,-3.531452,2.339176,0.3615426,-2.787132,2.663903,-2.132184,1.823753,-2.038416,-0.1875394,-0.7078259,1.53249,-0.5480042,-1.824405],
[-2.567895,3.271781,-1.823177,1.366544,-2.000853,1.303047,-3.861282,3.297536,2.724361,2.306106,3.624719,2.282548,-2.474778,0.4948174,3.664716,-1.321817,1.82302],
[1.1298,-2.284391,-2.346531,-3.870621,-2.386049,-2.842344,1.323797,3.420148,1.665663,0.2930844,3.662296,-1.340973,2.835942,-1.419574,-3.928335,3.149204,3.533007],
[-1.858198,3.530483,-1.219125,-1.633724,-1.000376,-2.516217,2.162822,1.155173,-0.4554144,-3.672343,-2.662888,-2.251363,-0.6267154,-2.110855,-3.878001,2.427644,3.336167],
[0.1616143,-2.073514,-0.3550031,2.645075,-2.924401,-1.810771,-0.9846869,-2.682219,-3.884537,-1.47088,-0.5325475,-0.9252915,-1.335629,1.572468,-3.624734,3.645061,-1.281004],
[-0.2473144,0.8960702,1.770399,-3.065522,-3.629807,-0.9203271,2.495319,2.993583,0.5498099,3.486408,-0.6572111,0.4653406,-1.950124,3.247595,-0.1031348,-2.896762,3.150652],
[0.1354745,-3.037548,0.3288937,1.984168,-0.3948871,0.2887558,-2.445196,-0.6120586,-3.537862,1.689707,-3.100444,-1.710556,2.002325,2.997027,2.899925,3.806513,-3.832786],
[3.474251,2.514455,-0.1433807,-3.509146,1.730224,-1.635852,-0.4537629,0.1464654,0.1150999,-1.74719,3.916987,1.087527,-1.210505,1.168635,0.9032021,-0.3920521,-2.316436],
[0.2948416,3.314508,1.124563,-2.275837,2.42608,2.811858,0.4853283,0.2350503,-1.859116,1.990582,-3.025706,1.996861,-3.523647,-3.387861,-0.9284453,-3.344774,-0.1724423],
[-1.641203,0.5355383,0.4563478,-3.407129,-3.582152,0.09481105,2.212962,3.682247,-1.204152,2.087419,-0.0009320714,2.209335,-2.825465,0.2275539,3.556978,3.58534,3.93259],
[-2.549054,2.362683,0.4300992,1.814716,-0.407076,3.089239,2.114044,1.161228,-3.18645,-2.826539,1.497022,-0.2077323,2.296876,1.925255,0.1924343,-3.118437,3.340011],
[0.6995234,1.294639,-0.6954455,3.714486,2.832908,-2.287122,3.806774,-0.5635036,-3.947401,0.1944159,-0.2047269,2.449684,1.734987,-2.990749,-3.611112,0.4715983,-0.7675126],
[-1.855377,-1.237565,-3.354716,3.16937,2.768959,2.108402,-2.046764,-2.610777,-3.904578,2.143542,2.309769,3.268299,0.6923273,3.583465,-0.410257,-0.03552095,2.860299],
[-2.910228,-2.930367,0.6526668,3.029331,-1.729225,2.756477,-0.6832041,0.2230969,2.115057,0.5369731,1.037696,1.053959,-3.090846,-3.366372,-3.607398,-3.573606,-3.890617],
[-1.089045,-1.178307,-0.2353946,-0.07828258,-0.4066478,-1.428052,0.5462321,-1.864778,-0.6722158,-3.893452,-1.666803,1.921113,1.078716,3.578076,3.404165,-0.8152142,-3.302837],
[-1.134491,2.48498,-2.167568,2.373187,-2.810689,2.344276,0.5504561,-3.12264,-0.4062538,2.9681,0.311522,2.373828,-2.841234,-3.616524,0.8979692,3.693526,3.463604],
[2.995226,-1.491541,-0.9863119,1.953476,0.5859395,1.81347,3.797286,1.81206,0.08281331,3.628879,3.958802,2.914481,-0.08212105,2.202049,0.616192,0.7890193,0.9026272]
],
[
[-0.05453576,0.5800989,0.3302245,2.558258,-1.582579,-0.07112061,-0.5287084,-3.42319,2.941636,0.1577225,2.991735,-3.534507,3.966396,0.9958471,3.932407,1.61407,2.30416],
[0.3725308,-3.013077,-0.6284181,-1.982151,3.607431,-0.0291241,2.950009,2.850823,-3.011115,1.216255,1.099715,-0.2672286,1.275552,-2.313301,1.14805,2.850268,0.3668167]
]
],
"biases":[
[
2.470169,3.823466,3.613033,-1.6196,-2.877169,-3.047684,3.859089,0.2661587,1.82399,-2.823125,1.138627,-3.363356,-3.301929,2.946497,1.5809,3.42364,-1.898093
],
[
3.379158,-0.3252213
]
]},
{
"fitness":12.41286,
"weights":[
[
[2.31415,2.708545,-3.82391,-2.004224,-3.531452,2.339176,0.3615426,-2.787132,2.663903,-2.132184,-2.585817,-2.038416,-0.1875394,-0.7078259,1.53249,-0.5480042,-1.824405],
[-2.567895,3.271781,-1.823177,1.366544,-2.000853,1.303047,-3.861282,3.297536,2.724361,2.306106,3.624719,2.282548,-2.474778,0.4948174,3.664716,-1.321817,1.82302],
[1.1298,-2.284391,-2.346531,-3.870621,-2.386049,-2.842344,1.323797,3.420148,1.665663,0.2930844,3.662296,-1.340973,2.835942,-1.419574,-3.928335,3.149204,3.533007],
[-1.858198,3.530483,-1.219125,-1.633724,-1.000376,-2.516217,2.162822,1.155173,-0.4554144,-3.672343,-2.662888,-2.251363,-0.6267154,-2.110855,-3.878001,2.427644,3.336167],
[0.1616143,-2.073514,-0.3550031,2.645075,-2.924401,-1.810771,-0.9846869,-2.682219,-3.884537,-1.47088,-0.5325475,-0.9252915,-1.335629,1.572468,-3.624734,3.645061,-1.022346],
[-0.2473144,0.8960702,1.770399,-3.065522,-3.080258,-0.9203271,2.495319,2.993583,0.5498099,3.486408,-0.6572111,0.4653406,-1.950124,3.247595,-0.1031348,-2.896762,3.150652],
[0.1354745,-3.037548,0.3288937,1.984168,-0.3948871,0.2887558,-2.445196,-0.6120586,-3.537862,1.689707,-3.100444,-1.710556,2.002325,2.997027,2.899925,3.806513,-3.832786],
[3.474251,2.514455,-0.1433807,-3.509146,1.730224,-1.635852,-0.4537629,-0.8500494,0.1150999,-1.74719,3.916987,1.087527,-1.210505,1.168635,0.9032021,-0.3920521,-2.316436],
[0.2948416,3.314508,1.124563,-2.275837,2.42608,2.811858,0.4853283,0.2350503,-1.859116,1.990582,-3.025706,1.996861,-3.523647,-3.387861,-0.9284453,-3.344774,-0.1724423],
[-1.641203,0.5355383,0.4563478,-3.375689,-3.582152,0.09481105,2.212962,3.682247,-1.204152,2.087419,-0.0009320714,2.209335,-2.825465,0.2275539,3.556978,3.58534,3.93259],
[-2.549054,2.362683,0.4300992,1.814716,-0.407076,3.089239,2.114044,1.161228,-3.18645,-2.826539,1.497022,-0.2077323,2.296876,1.925255,0.1924343,-3.118437,3.533276],
[0.6995234,1.294639,-0.6954455,3.714486,2.832908,-2.287122,3.806774,-0.5635036,-3.947401,0.1944159,-0.2047269,2.449684,1.734987,-2.990749,-3.611112,0.4715983,-0.7675126],
[-1.855377,-1.237565,-3.354716,3.16937,2.768959,2.108402,-2.046764,-2.610777,-3.904578,2.143542,2.309769,3.268299,0.6923273,3.583465,-0.410257,-0.03552095,2.860299],
[-2.910228,-2.930367,0.6526668,3.029331,-1.729225,2.756477,-0.6832041,0.2230969,2.115057,0.5369731,1.037696,1.053959,-3.090846,-3.366372,-3.607398,-3.573606,-3.890617],
[-1.089045,-1.178307,-0.2353946,-0.07828258,-0.4066478,-1.428052,0.5462321,-1.864778,-0.6722158,-3.893452,-1.666803,1.921113,1.078716,3.578076,3.404165,-0.8152142,-3.302837],
[-1.134491,2.48498,-2.167568,2.373187,-2.810689,2.344276,0.5504561,-3.12264,-0.4062538,2.9681,-2.512966,2.373828,-2.841234,-3.616524,0.8979692,3.693526,3.463604],
[2.995226,-1.491541,-0.9863119,1.953476,0.5859395,1.81347,3.797286,1.81206,0.08281331,3.628879,3.958802,2.914481,-0.08212105,2.202049,0.616192,0.7890193,0.9026272]
],
[
[-0.05453576,0.5800989,0.3302245,2.558258,-1.582579,-0.07112061,-0.5287084,-3.42319,2.941636,0.1577225,2.991735,2.837192,3.966396,0.9958471,3.932407,1.61407,2.30416],
[0.3725308,-3.013077,-0.6284181,-1.982151,3.607431,-0.0291241,2.950009,2.850823,-3.011115,1.216255,1.099715,-0.2672286,1.275552,-2.313301,1.14805,2.850268,0.3668167]
]
],
"biases":[
[
2.470169,3.823466,3.613033,-1.6196,-2.877169,-3.047684,3.859089,0.2661587,1.82399,-2.823125,1.138627,-3.363356,-3.301929,2.946497,1.5809,3.42364,-1.898093
],
[
3.379158,-0.3252213
]
]},
{
"fitness":12.32064,
"weights":[
[
[3.24803,2.708545,1.663928,3.858215,-3.531452,2.339176,-0.4815862,-2.787132,2.663903,-2.132184,1.823753,-2.038416,-0.1875394,-2.181117,1.53249,-0.5480042,-1.824405],
[-2.567895,3.271781,-2.392037,1.366544,3.170547,-1.094745,3.617585,3.297536,-2.501822,2.306106,-3.744271,0.9987922,-2.474778,0.4948174,3.664716,-0.5843433,1.583941],
[1.1298,-2.284391,-2.346531,-3.870621,-2.386049,-2.842344,1.323797,2.97242,1.665663,0.2930844,-2.73476,-1.340973,2.835942,-1.419574,-0.972999,-2.094736,3.533007],
[3.794855,3.530483,-1.219125,2.906555,-1.000376,-2.516217,2.162822,1.155173,-0.4554144,-3.672343,-2.662888,-2.251363,-0.6267154,-2.110855,-3.878001,0.1839322,3.336167],
[0.1616143,-2.073514,2.112323,-3.255041,-2.924401,0.4581022,-0.9846869,-2.682219,3.876854,-1.47088,3.897781,-0.9252915,-2.778876,1.572468,-3.624734,3.645061,-1.022346],
[-0.2473144,3.869207,1.340742,-3.065522,-0.3659642,1.681308,2.495319,-0.03844295,2.843305,3.486408,1.47058,0.4653406,-1.950124,3.247595,-0.1031348,-2.896762,3.150652],
[0.1354745,-1.779722,0.3288937,1.6536,-0.3948871,0.2887558,-2.445196,-0.8224762,-3.537862,1.689707,-3.100444,-1.710556,2.002325,2.997027,2.899925,3.806513,-3.832786],
[3.474251,2.514455,-0.1433807,-3.509146,1.730224,-1.635852,1.494634,-0.8500494,0.1150999,-1.74719,3.916987,1.087527,-1.210505,1.168635,0.9032021,-0.3920521,-2.416854],
[0.2948416,3.314508,1.124563,-2.275837,2.42608,-1.564979,0.4853283,0.2350503,-1.859116,1.990582,0.1563052,1.996861,-3.523647,-3.387861,-1.916903,-3.344774,-0.1724423],
[3.828558,-1.447297,0.4563478,-3.375689,-3.582152,0.09481105,2.212962,2.33837,-1.204152,2.867902,-0.0009320714,2.209335,-2.825465,0.2275539,0.4447354,3.58534,3.93259],
[-2.549054,1.032145,0.4300992,1.814716,-0.4172803,3.089239,2.114044,2.107505,-3.18645,-2.831027,1.497022,-0.6497475,2.296876,1.925255,0.1924343,-1.081406,3.533276],
[3.640062,3.304057,-0.6954455,3.714486,2.832908,-2.250092,3.806774,-0.5635036,-3.714814,0.1944159,0.6849468,-3.84125,1.734987,-1.422143,-3.611112,-3.783585,-0.7675126],
[0.9190641,-1.237565,-3.354716,3.16937,2.768959,1.080925,-2.046764,-2.610777,0.786135,2.143542,2.309769,3.268299,0.6923273,3.583465,3.785151,-0.03552095,3.047223],
[-2.910228,-2.930367,0.6526668,3.029331,-1.729225,2.507226,3.706773,-1.008067,2.115057,0.5369731,1.037696,1.053959,-3.090846,-3.366372,-3.607398,-3.573606,-3.890617],
[-1.089045,-1.178307,-0.2353946,-0.07828258,-0.4066478,-1.736882,0.5462321,-1.864778,0.04520259,-3.893452,-1.666803,1.921113,1.078716,3.578076,3.404165,-0.8152142,-2.664099],
[-1.134491,2.48498,-2.167568,2.373187,-2.810689,2.344276,2.577108,-3.12264,-0.4062538,2.9681,-2.512966,-1.588866,-2.841234,-0.9949059,0.8979692,-1.299761,0.5695466],
[-1.588092,-3.250004,-0.5669615,-3.654773,0.5859395,1.81347,3.797286,1.81206,0.08281331,3.628879,3.958802,-2.13469,-0.08212105,2.202049,-0.1492395,3.982167,0.9026272]
],
[
[-0.05453576,0.5800989,3.225916,2.558258,-1.582579,-0.07112061,-0.5287084,1.497599,2.941636,-3.225518,1.884483,-3.534507,3.696463,0.9958471,3.932407,1.61407,2.30416],
[0.3725308,-3.013077,-0.6284181,-1.982151,3.607431,-0.0291241,2.950009,2.850823,-3.011115,1.216255,1.099715,-0.2672286,1.275552,-2.313301,2.590378,2.850268,0.3668167]
]
],
"biases":[
[
2.470169,3.823466,3.613033,-1.6196,-2.877169,-1.478924,3.859089,0.2661587,1.82399,-2.823125,1.138627,-3.363356,-3.301929,2.946497,1.5809,3.42364,0.8961695
],
[
-2.983344,-0.3252213
]
]},
{
"fitness":12.31782,
"weights":[
[
[3.24803,2.708545,-1.049594,-2.004224,-3.531452,2.339176,0.3615426,-2.787132,2.663903,-2.132184,1.823753,-2.038416,-0.1875394,-2.181117,1.53249,-0.2202973,-1.824405],
[-2.567895,3.271781,-2.392037,1.366544,-2.000853,-1.094745,3.617585,3.297536,2.724361,2.306106,-3.744271,0.9987922,-2.474778,0.4948174,3.664716,-1.321817,1.583941],
[1.1298,-2.284391,-1.882893,-3.870621,-2.386049,-2.842344,1.323797,-3.656746,1.665663,0.2930844,3.662296,-1.340973,2.835942,-1.419574,-0.972999,-2.094736,3.533007],
[3.794855,3.530483,-1.219125,3.009833,-1.000376,-2.516217,2.162822,-2.563787,-0.4554144,-3.672343,-2.662888,-2.251363,-0.6267154,-2.110855,-3.878001,0.1839322,3.336167],
[0.1616143,-1.872379,2.112323,-3.039566,-3.768458,0.4581022,-0.9846869,-2.682219,-3.884537,-1.47088,3.897781,0.4465471,-1.335629,1.572468,-3.624734,3.645061,-1.022346],
[-0.2473144,0.8960702,1.340742,-3.065522,-0.3659642,-2.121669,2.495319,-0.03844295,2.843305,3.486408,1.47058,0.4653406,-1.950124,3.247595,-0.1031348,-2.896762,3.150652],
[0.1354745,-3.037548,0.3288937,1.6536,-0.3948871,0.2887558,-2.445196,-0.8224762,-3.537862,1.689707,-0.8646327,-1.710556,2.002325,2.997027,2.899925,3.806513,-3.832786],
[3.474251,2.514455,-0.1433807,-3.509146,1.730224,-1.635852,1.494634,-0.8500494,0.1150999,-1.74719,3.916987,1.087527,-1.210505,1.168635,0.9032021,-0.3920521,-2.416854],
[0.2948416,3.314508,1.124563,-2.275837,2.42608,3.31777,0.4853283,0.2350503,-1.859116,1.990582,-3.025706,1.996861,-3.523647,-3.387861,-0.9284453,-3.344774,-0.1724423],
[3.828558,-1.447297,0.4563478,-3.375689,-3.582152,0.09481105,2.212962,2.33837,-1.204152,2.867902,-0.0009320714,-2.53779,0.05826518,0.2275539,0.4447354,3.58534,3.93259],
[-2.549054,1.032145,0.4300992,1.814716,-0.4172803,3.089239,2.114044,2.107505,-3.18645,-2.831027,1.497022,-0.6497475,2.296876,0.01509201,2.041825,-1.081406,3.533276],
[3.640062,3.304057,-0.6954455,3.714486,2.832908,-2.250092,3.806774,-0.5635036,-3.714814,0.1944159,0.6849468,-3.84125,1.734987,2.7822,-3.611112,-3.783585,-0.7675126],
[-1.6073,-2.443661,-3.354716,3.16937,2.768959,1.080925,-2.046764,-2.610777,-0.6667143,2.143542,2.309769,3.268299,0.6923273,2.907024,3.785151,-0.03552095,3.047223],
[-2.910228,-2.930367,0.6526668,3.029331,-1.729225,2.507226,3.706773,-1.008067,2.115057,0.5369731,1.037696,1.053959,-3.090846,-3.366372,-3.607398,-3.573606,-3.890617],
[-1.875899,-1.178307,-0.2353946,-0.07828258,-0.4066478,-1.736882,0.5462321,-1.864778,0.04520259,-3.893452,-0.5305085,1.921113,1.078716,3.578076,3.404165,-0.8152142,-2.664099],
[-1.134491,2.48498,-2.167568,2.373187,-2.810689,2.344276,3.882752,-3.12264,-0.4062538,2.9681,-2.512966,-1.588866,-2.841234,-1.874237,0.8979692,-1.299761,0.5695466],
[-1.588092,-3.250004,-0.5669615,-3.654773,0.5859395,1.81347,3.797286,1.81206,0.08281331,3.628879,3.958802,2.914481,-0.08212105,2.202049,0.616192,3.982167,0.9026272]
],
[
[-0.05453576,0.5800989,0.3302245,2.558258,-1.582579,2.567259,-0.5287084,1.497599,2.941636,1.704596,1.884483,-3.534507,3.966396,0.9958471,1.528835,1.61407,2.30416],
[0.3725308,-3.013077,-0.6284181,-1.982151,3.607431,-0.0291241,2.916481,2.850823,-3.011115,1.216255,1.099715,-0.2672286,1.275552,-2.313301,2.590378,2.850268,0.3668167]
]
],
"biases":[
[
2.470169,3.823466,3.613033,-1.6196,-2.877169,-3.047684,3.859089,0.2661587,1.82399,-2.823125,1.138627,-3.363356,-3.301929,2.946497,1.5809,3.42364,0.8961695
],
[
-2.983344,-0.3252213
]
]},
{
"fitness":12.21953,
"weights":[
[
[3.24803,2.708545,-1.049594,-2.004224,-3.531452,2.339176,-0.4815862,-2.787132,2.663903,-0.09715262,1.823753,-2.038416,-0.1875394,-2.181117,1.53249,-0.5480042,-1.824405],
[-2.567895,3.271781,-2.392037,1.366544,3.170547,-1.094745,3.617585,3.297536,-2.501822,2.306106,-3.744271,0.9987922,-2.474778,0.4948174,3.664716,-1.321817,1.583941],
[1.1298,-2.284391,-1.760554,-3.870621,-0.1000371,-2.842344,1.323797,2.97242,1.665663,0.2930844,2.294796,-1.340973,2.835942,-1.419574,-0.972999,-2.094736,3.533007],
[2.934438,3.530483,-1.219125,2.906555,-1.000376,-2.516217,2.162822,1.155173,-0.4554144,-3.672343,-2.662888,-2.251363,-0.6267154,-2.110855,-3.878001,0.1839322,3.336167],
[0.1616143,-2.073514,2.112323,-3.255041,-2.924401,0.4581022,-0.9846869,-2.682219,-3.884537,-1.47088,3.897781,-0.9252915,-1.335629,1.572468,-3.624734,3.645061,-1.022346],
[-0.2473144,3.869207,1.340742,-3.065522,2.138518,1.681308,2.495319,-0.03844295,2.843305,3.857581,1.47058,0.4653406,-1.950124,3.247595,-0.1031348,-2.896762,3.150652],
[0.1354745,-3.037548,0.3288937,1.6536,-0.3948871,0.2887558,-2.445196,-0.8224762,-3.537862,1.689707,-3.100444,-1.710556,2.002325,2.997027,2.899925,3.806513,-3.832786],
[3.474251,2.514455,-0.1433807,-3.509146,-2.440219,-1.635852,1.494634,-0.8500494,0.1150999,-1.74719,3.916987,1.087527,-1.210505,1.168635,0.9032021,-0.3920521,-2.416854],
[0.2948416,3.314508,1.124563,-2.275837,2.42608,-1.564979,0.4853283,0.2350503,-1.859116,1.990582,0.1563052,1.996861,-3.523647,-3.387861,-0.9284453,-3.344774,-0.1724423],
[3.828558,-1.447297,0.4563478,-3.375689,-3.582152,0.09481105,2.212962,2.33837,-1.204152,2.867902,-0.0009320714,2.209335,-2.825465,0.2275539,-3.118487,3.58534,3.93259],
[-2.549054,1.032145,0.4300992,1.814716,-0.4172803,3.089239,2.114044,2.107505,-3.18645,-2.831027,1.497022,-0.6497475,2.296876,1.925255,0.1924343,-1.081406,3.533276],
[3.640062,3.304057,-0.6954455,3.714486,2.832908,-2.250092,3.806774,-0.5635036,-3.714814,0.1944159,0.6849468,-3.84125,-2.629688,2.7822,-3.611112,-3.783585,-0.7675126],
[-1.6073,-1.237565,-3.354716,3.16937,2.768959,1.080925,-2.046764,-2.610777,0.786135,2.143542,2.309769,3.268299,0.6923273,3.583465,3.785151,-0.03552095,3.047223],
[-2.910228,-2.930367,0.6526668,3.029331,-1.729225,2.507226,3.706773,-1.008067,2.115057,0.5369731,1.037696,1.053959,-3.090846,-3.366372,-3.607398,-3.573606,-3.890617],
[-1.089045,-1.178307,-0.2353946,-0.07828258,-0.4066478,-1.736882,0.5462321,-1.864778,0.04520259,-3.893452,-1.666803,1.921113,1.078716,3.578076,3.404165,-0.8152142,-2.664099],
[-1.134491,2.48498,-2.167568,2.373187,-2.810689,2.344276,2.577108,-3.12264,-0.4062538,2.9681,-2.512966,-1.588866,-2.841234,-0.9949059,0.8979692,-1.299761,0.5695466],
[-1.588092,-3.250004,-0.5669615,-3.654773,0.5859395,1.81347,3.797286,1.81206,0.08281331,3.628879,3.958802,2.914481,-0.08212105,2.202049,-0.1492395,3.982167,0.9026272]
],
[
[-0.05453576,0.5800989,3.225916,2.558258,-1.582579,-0.07112061,-0.5287084,1.497599,2.941636,-3.225518,1.884483,-3.534507,3.966396,0.9958471,3.932407,1.61407,2.30416],
[0.3725308,-3.013077,-0.6284181,-1.982151,3.607431,-0.0291241,2.950009,2.850823,-3.011115,1.216255,1.099715,-0.2672286,1.275552,-2.313301,2.590378,2.850268,0.3668167]
]
],
"biases":[
[
2.470169,3.823466,3.613033,-1.6196,-2.877169,-3.047684,3.859089,0.2661587,1.82399,-2.823125,1.138627,-3.363356,-3.301929,2.946497,1.5809,3.42364,0.8961695
],
[
-2.983344,-0.3252213
]
]},
{
"fitness":12.21772,
"weights":[
[
[3.24803,2.708545,-1.049594,-2.004224,-3.531452,3.107811,0.3615426,-2.787132,2.663903,-2.132184,1.823753,-2.038416,-0.1875394,-2.181117,1.53249,-0.2202973,-1.824405],
[-2.567895,3.271781,-2.392037,1.366544,-2.000853,-1.094745,3.617585,3.297536,2.724361,2.306106,-3.744271,0.9987922,-2.474778,0.4948174,3.664716,-1.321817,1.583941],
[1.1298,-2.284391,-1.882893,-3.870621,-2.386049,-2.842344,1.323797,-3.656746,1.665663,0.2930844,3.662296,-1.340973,2.835942,-1.419574,-0.972999,-2.094736,3.533007],
[3.794855,3.530483,-1.219125,2.906555,2.434804,-2.516217,2.162822,-2.563787,-0.4554144,-3.672343,-2.662888,-2.251363,-0.6267154,-2.110855,-3.878001,0.1839322,3.336167],
[0.1616143,-1.872379,2.112323,-3.039566,-3.768458,0.4581022,-0.9846869,-2.682219,-3.884537,-1.47088,3.897781,0.4465471,-1.335629,1.572468,-3.624734,3.645061,-1.022346],
[-0.2473144,0.8960702,1.340742,-3.065522,-0.3659642,-2.121669,2.495319,-0.03844295,2.843305,3.486408,1.47058,0.4653406,-1.950124,3.247595,-0.1031348,-2.896762,3.150652],
[0.1354745,-3.037548,0.3288937,1.6536,-0.3948871,0.2887558,-2.445196,-0.8224762,-3.537862,1.689707,-0.8646327,-1.710556,2.002325,2.997027,2.899925,3.806513,-3.832786],
[3.474251,2.514455,-0.1433807,-3.509146,1.730224,-1.635852,1.494634,-0.8500494,0.1150999,-1.74719,3.916987,1.087527,-1.210505,1.168635,0.9032021,-0.3920521,-2.416854],
[0.2948416,3.314508,1.124563,-2.275837,2.42608,3.31777,-2.266286,0.2350503,-1.859116,1.990582,-3.025706,1.996861,-3.523647,-3.387861,-0.9284453,-3.344774,-0.1724423],
[3.828558,-1.447297,0.4563478,-3.375689,1.588055,0.09481105,2.212962,2.33837,-1.204152,2.867902,-0.0009320714,-2.53779,0.05826518,0.2275539,0.4447354,3.58534,3.93259],
[-2.549054,1.032145,0.4300992,1.814716,-0.4172803,3.089239,2.114044,2.107505,-3.18645,-2.831027,1.497022,-0.6497475,2.296876,0.01509201,2.041825,-1.081406,3.533276],
[3.640062,3.304057,-0.6954455,3.714486,2.832908,-2.250092,3.806774,-0.5635036,-3.714814,0.1944159,0.6849468,-3.84125,1.734987,2.7822,-3.611112,-3.783585,-0.7675126],
[-1.6073,-2.443661,-3.354716,3.16937,2.768959,1.080925,-2.046764,-2.610777,-0.6667143,2.143542,2.309769,3.268299,0.6923273,2.907024,3.785151,-0.03552095,3.047223],
[-2.910228,-2.930367,0.6526668,3.029331,-1.729225,2.572916,3.706773,-1.008067,2.115057,0.5369731,1.037696,1.053959,-3.090846,-3.366372,-3.607398,-3.573606,-3.890617],
[-1.089045,-1.178307,-0.2353946,-0.07828258,-0.4066478,-1.736882,0.5462321,-1.864778,0.04520259,-3.893452,-0.5305085,1.921113,1.078716,3.578076,3.404165,-0.8152142,-2.664099],
[-1.134491,2.48498,-2.167568,2.373187,-2.810689,2.344276,3.882752,-3.12264,-0.4062538,2.9681,-2.512966,-1.588866,-2.841234,-1.874237,0.8979692,-1.299761,0.5695466],
[-1.588092,-3.250004,-0.5669615,-3.654773,0.5859395,1.81347,3.797286,1.81206,0.08281331,3.628879,3.958802,2.914481,-0.08212105,2.202049,0.616192,3.982167,0.9026272]
],
[
[-0.05453576,0.5800989,0.1391236,2.558258,-1.582579,-0.07112061,-0.5287084,1.497599,2.941636,1.704596,1.884483,-3.534507,3.966396,0.9958471,1.528835,1.61407,2.30416],
[0.3725308,-3.013077,-0.6284181,-1.982151,3.607431,-0.0291241,2.916481,2.850823,-3.011115,1.216255,1.099715,-0.2672286,1.275552,-2.313301,2.590378,2.850268,0.3668167]
]
],
"biases":[
[
2.470169,3.823466,3.613033,-1.6196,-2.877169,-3.047684,3.859089,0.2661587,1.82399,-2.823125,1.138627,-3.363356,-3.301929,2.946497,1.5809,3.42364,0.8961695
],
[
-2.983344,-0.3252213
]
]},
{
"fitness":12.2153,
"weights":[
[
[3.24803,2.708545,-1.049594,-2.004224,-3.531452,2.339176,0.3615426,-2.787132,2.663903,-2.132184,1.823753,-2.038416,-0.1875394,-2.181117,1.53249,-0.2202973,-1.824405],
[-2.567895,3.271781,-2.392037,1.366544,-2.000853,-1.094745,3.617585,3.297536,2.724361,-3.764286,-3.744271,0.9987922,-2.474778,0.4948174,3.664716,-1.321817,1.583941],
[1.1298,-2.284391,-1.882893,-3.870621,-2.386049,-2.842344,1.323797,-3.656746,1.665663,0.2930844,3.662296,-1.340973,2.835942,-1.419574,-0.972999,-2.094736,3.533007],
[3.794855,3.530483,-1.219125,2.906555,-1.000376,-2.516217,2.162822,-2.563787,0.6930642,-3.672343,-2.662888,-2.251363,-0.6267154,-2.110855,-3.878001,0.1839322,3.336167],
[0.1616143,-2.073514,2.112323,-0.08237478,-2.924401,0.4581022,-0.9846869,-2.682219,-3.884537,-1.47088,1.262478,-0.9252915,-1.335629,1.572468,-3.624734,3.645061,1.18747],
[-0.2473144,0.8960702,3.12314,-3.065522,-0.3659642,-2.121669,2.495319,-0.03844295,2.843305,3.486408,1.47058,0.4653406,-1.950124,3.247595,-0.1031348,-2.896762,3.150652],
[0.1354745,-3.037548,0.3288937,1.6536,-0.3948871,0.2887558,-2.445196,-0.8224762,-3.537862,1.689707,-3.100444,-1.710556,2.002325,2.997027,2.899925,3.806513,-3.832786],
[3.474251,2.514455,-0.1433807,-3.509146,1.730224,-1.635852,1.494634,-0.8500494,0.1150999,-1.74719,3.916987,1.087527,-1.210505,1.168635,0.9032021,-0.3920521,-2.416854],
[0.2948416,3.314508,1.124563,-2.275837,2.42608,3.31777,0.4853283,0.2350503,-1.859116,1.990582,-3.025706,1.996861,-3.523647,-3.387861,-0.9284453,-3.344774,2.009181],
[3.828558,-1.447297,0.4563478,-3.375689,-3.582152,0.09481105,2.212962,2.33837,-1.204152,2.867902,-0.0009320714,-1.370072,-2.825465,0.2275539,0.4447354,3.58534,3.93259],
[-2.549054,1.032145,0.4300992,1.814716,-0.4172803,3.089239,2.114044,1.918229,1.642056,-2.831027,1.497022,-0.6497475,2.296876,0.01509201,2.041825,-1.081406,3.533276],
[3.640062,3.304057,-0.6954455,3.714486,2.832908,-2.250092,3.806774,-0.5635036,-3.714814,0.1944159,0.6849468,-3.84125,1.734987,2.7822,-3.611112,-3.783585,-0.7675126],
[-1.6073,-1.237565,-3.354716,3.16937,2.768959,1.080925,-2.046764,-2.610777,-0.6667143,2.143542,2.309769,3.268299,0.6923273,2.907024,3.785151,-0.03552095,2.028867],
[-2.910228,-2.930367,0.6526668,3.029331,-1.729225,2.507226,3.706773,-1.008067,2.115057,0.5369731,1.037696,1.053959,-3.090846,-3.366372,-3.607398,-3.573606,-3.890617],
[-1.089045,-1.178307,-0.2353946,-0.07828258,-0.4066478,-1.736882,0.5462321,-1.864778,0.04520259,-3.893452,-1.666803,1.921113,1.078716,3.578076,3.404165,-0.8152142,-2.664099],
[-1.134491,2.48498,-2.167568,2.373187,0.2985825,2.344276,2.577108,-3.12264,-0.4062538,2.9681,-2.512966,-1.588866,-2.841234,-1.874237,0.8979692,-1.299761,0.5695466],
[-2.641539,-3.250004,-0.5669615,0.2751086,0.5859395,1.81347,3.797286,1.81206,0.08281331,3.628879,3.958802,2.914481,-0.08212105,2.202049,0.616192,0.3273269,0.9026272]
],
[
[-0.05453576,0.5800989,0.3302245,2.558258,-1.582579,-0.07112061,-0.5287084,1.497599,2.941636,1.704596,1.884483,-3.534507,3.966396,0.9958471,3.932407,1.61407,2.30416],
[0.3725308,-3.013077,-0.6284181,-1.982151,3.607431,-0.0291241,2.950009,2.850823,-3.011115,1.216255,1.099715,-0.2672286,1.275552,-2.730775,2.590378,2.850268,0.3668167]
]
],
"biases":[
[
2.470169,3.823466,3.613033,-1.6196,-2.877169,-3.047684,3.859089,0.2661587,1.82399,-2.823125,1.138627,-3.363356,-3.301929,2.946497,1.5809,3.42364,0.8961695
],
[
-2.983344,-0.3252213
]
]},
{
"fitness":12.21374,
"weights":[
[
[2.31415,2.708545,-0.9829519,-2.004224,-3.531452,2.339176,0.3615426,-2.787132,2.663903,-2.132184,1.823753,-2.038416,-0.1875394,-0.7078259,1.787947,-0.5480042,-1.824405],
[-2.567895,3.271781,3.265062,1.366544,-0.19343,1.303047,-3.861282,3.297536,2.724361,2.306106,3.624719,2.282548,-2.474778,0.4948174,3.664716,-1.321817,1.82302],
[1.1298,-2.284391,2.379379,-3.870621,-2.386049,-2.842344,1.323797,3.420148,1.665663,0.2930844,3.662296,-1.340973,2.835942,-1.419574,-3.928335,3.149204,3.533007],
[-1.858198,3.530483,-1.219125,-1.633724,-1.000376,-2.516217,2.162822,1.155173,-0.4554144,-3.672343,-2.662888,-2.251363,-0.6267154,-1.692558,-3.878001,2.427644,3.336167],
[0.1616143,-2.073514,-0.3550031,2.645075,-2.924401,-1.810771,-3.556089,-0.1905264,-3.884537,-1.47088,-0.5325475,-0.9252915,-1.335629,1.572468,-3.624734,3.645061,-1.022346],
[-0.2473144,0.8960702,1.770399,-3.065522,-3.629807,-0.9203271,-3.06757,2.993583,0.5498099,3.486408,-0.6572111,0.4653406,-1.950124,3.247595,-0.1031348,-0.8492373,3.150652],
[0.1354745,-3.037548,0.3288937,1.984168,-0.3948871,0.2887558,-2.445196,-0.6120586,-3.537862,1.689707,-3.100444,-1.710556,2.002325,2.997027,2.899925,3.806513,-3.832786],
[3.474251,2.514455,-0.1433807,-3.509146,1.730224,-1.635852,-0.4537629,-0.8500494,0.1150999,-1.74719,3.916987,1.087527,-1.210505,1.168635,0.9032021,-0.3920521,-2.316436],
[0.2948416,3.314508,1.124563,-2.275837,2.42608,2.811858,3.504551,1.79981,-1.859116,1.990582,-3.025706,1.996861,-3.523647,-3.387861,-0.9284453,-3.344774,-0.1724423],
[-1.641203,0.5355383,0.4563478,-2.823522,-3.582152,0.09481105,2.212962,3.682247,-1.204152,2.867902,-0.0009320714,2.209335,-2.825465,-3.351548,3.556978,3.58534,3.93259],
[-2.549054,2.362683,0.4300992,1.814716,-0.407076,3.089239,2.842543,3.935988,-3.18645,-2.826539,1.497022,-0.2077323,2.296876,1.925255,0.1924343,-3.118437,3.589417],
[0.6995234,-0.2725763,-0.6954455,3.714486,2.832908,-2.250092,3.806774,-0.5635036,-3.947401,0.1944159,-0.2047269,2.449684,1.734987,-0.8574365,-3.611112,0.4715983,-0.7675126],
[-1.6073,-1.237565,-3.354716,3.16937,2.768959,2.108402,-2.046764,-2.610777,-3.904578,2.143542,2.309769,3.268299,0.6923273,3.583465,-0.410257,-0.03552095,2.860299],
[-2.910228,-2.930367,0.6526668,3.029331,-1.729225,2.756477,-0.6832041,0.2230969,3.899057,0.5369731,1.037696,1.053959,-3.090846,-3.366372,-3.607398,-3.573606,-3.890617],
[-1.089045,-1.178307,-0.2353946,-0.07828258,-0.4066478,-1.428052,0.5462321,-1.864778,-0.6722158,-3.893452,-3.370556,1.921113,1.078716,3.578076,3.404165,-0.8152142,-3.302837],
[-1.134491,2.48498,3.573848,2.373187,-2.810689,2.344276,0.5504561,-3.12264,-0.4062538,1.799471,-3.352272,2.373828,-2.841234,-3.616524,0.8979692,3.693526,3.463604],
[2.995226,-1.491541,-0.9863119,1.953476,0.5859395,1.81347,3.797286,1.81206,0.08281331,3.628879,3.958802,2.914481,-0.08212105,2.202049,0.616192,0.7890193,0.9026272]
],
[
[-0.05453576,0.5800989,0.3302245,2.558258,-1.582579,-0.07112061,-0.5287084,-3.42319,2.941636,0.1577225,2.991735,2.190409,3.966396,0.9958471,3.932407,1.61407,2.30416],
[0.3725308,-3.013077,-0.6284181,-1.982151,3.607431,-0.0291241,2.950009,2.850823,-3.011115,1.216255,1.099715,-0.2672286,1.275552,-2.313301,1.14805,2.850268,0.3668167]
]
],
"biases":[
[
2.470169,3.823466,3.613033,-1.6196,-2.877169,-3.047684,3.859089,0.2661587,1.82399,-2.823125,1.138627,-3.363356,-3.301929,2.946497,1.5809,3.42364,-1.898093
],
[
3.379158,-0.3252213
]
]},
{
"fitness":12.21333,
"weights":[
[
[3.24803,2.708545,-1.049594,-2.004224,-3.531452,2.339176,0.3615426,-2.787132,3.966102,-2.132184,1.823753,-2.038416,-0.1875394,-2.181117,1.53249,2.873476,-1.824405],
[-2.567895,3.271781,-2.392037,1.366544,-2.000853,-1.094745,3.617585,3.297536,2.724361,2.306106,-3.744271,0.9987922,-2.474778,0.4948174,3.664716,-1.321817,1.583941],
[1.1298,-2.284391,-1.882893,-3.870621,-0.2865626,-2.842344,1.323797,-3.656746,1.665663,0.2930844,3.662296,-1.340973,2.835942,-1.419574,-0.972999,-2.094736,3.533007],
[1.575452,3.530483,-1.219125,2.906555,-1.000376,-2.516217,-1.576948,-2.563787,-0.971772,-3.672343,-2.662888,-2.251363,-0.6267154,-2.110855,-3.878001,0.1839322,3.336167],
[0.1616143,-2.073514,-0.5588185,-0.08237478,-2.924401,0.4581022,-0.9846869,-2.682219,-3.884537,-3.221731,2.121444,-0.9252915,-1.335629,1.572468,-3.624734,-2.151417,-1.022346],
[-0.2473144,0.2493292,3.12314,-3.065522,-0.3659642,-2.121669,2.495319,-0.03844295,2.843305,-1.889309,1.47058,0.4653406,-1.950124,3.247595,-0.1031348,-2.896762,3.150652],
[0.1354745,-3.037548,0.3288937,1.6536,-0.3948871,0.2887558,-2.445196,-0.8224762,-3.537862,1.689707,-3.100444,-1.710556,2.002325,2.997027,2.899925,3.806513,-3.832786],
[1.42444,2.514455,-0.1433807,-3.509146,1.730224,-1.635852,1.494634,-0.8500494,0.1150999,-1.74719,3.916987,1.087527,-1.210505,1.168635,0.9032021,0.2388485,-2.416854],
[0.2948416,3.314508,1.124563,-1.793474,2.42608,3.31777,0.4853283,0.2350503,-1.859116,1.844728,-3.025706,0.5186799,-3.523647,-3.387861,-0.9284453,-3.344774,-0.1724423],
[3.828558,-1.447297,0.4563478,-3.375689,-3.582152,0.09481105,2.212962,2.33837,-1.204152,2.867902,-0.0009320714,-0.03495781,-2.825465,3.935495,0.4447354,-3.746976,3.93259],
[-2.549054,1.032145,-1.442085,1.814716,-0.4172803,3.089239,2.114044,2.107505,-3.18645,-2.831027,1.497022,-0.6497475,2.296876,0.01509201,2.041825,-1.081406,3.533276],
[3.640062,3.304057,-0.6954455,3.714486,2.832908,-2.250092,3.806774,-0.5635036,-3.714814,0.1944159,0.6849468,-3.84125,1.734987,2.7822,-3.611112,-3.783585,-0.7675126],
[-1.6073,-1.237565,-3.354716,3.16937,2.768959,1.080925,-2.046764,-2.610777,-0.6667143,2.143542,2.309769,3.268299,0.6923273,2.907024,3.785151,-0.03552095,3.047223],
[-2.910228,-2.930367,0.6526668,3.029331,-1.729225,2.507226,3.706773,-1.008067,2.115057,0.5369731,1.037696,1.053959,-3.090846,-3.366372,-3.607398,-3.573606,-3.890617],
[-1.089045,-1.178307,-0.2353946,-0.07828258,-0.4066478,-1.736882,0.5462321,-1.864778,0.04520259,-3.893452,-1.666803,1.921113,1.078716,3.578076,3.404165,-0.8152142,-2.664099],
[-1.134491,2.48498,-2.167568,2.373187,0.2985825,2.344276,2.577108,-3.12264,-0.4062538,2.9681,-2.512966,-1.588866,1.359905,-1.874237,0.8979692,-1.299761,0.5695466],
[-1.588092,-3.250004,-0.5669615,-2.819725,0.5859395,1.81347,3.797286,1.81206,0.08281331,3.628879,3.958802,2.914481,-0.08212105,2.202049,0.616192,3.982167,0.9026272]
],
[
[-0.05453576,0.5800989,0.3302245,2.558258,-1.582579,-0.07112061,-0.5287084,1.497599,2.941636,1.704596,0.8693905,-3.534507,3.966396,0.9958471,3.932407,1.61407,2.30416],
[0.3725308,-3.013077,-0.6284181,-1.982151,3.607431,-0.0291241,2.950009,2.850823,-3.011115,1.216255,1.099715,-0.2672286,1.275552,-2.730775,2.590378,2.850268,0.3668167]
]
],
"biases":[
[
2.470169,3.823466,3.613033,-1.6196,-2.877169,-3.047684,3.859089,0.2661587,1.82399,-2.823125,1.138627,-3.363356,-3.301929,2.946497,1.5809,3.42364,0.8961695
],
[
-2.094133,-0.3252213
]
]},
{
"fitness":12.11539,
"weights":[
[
[3.24803,2.708545,-1.049594,-2.004224,-3.531452,2.339176,0.3615426,-2.787132,2.663903,-2.132184,1.823753,-2.038416,-0.1875394,-2.181117,1.53249,-0.2202973,-1.824405],
[-2.567895,3.271781,-2.392037,1.366544,-2.000853,-1.094745,3.617585,3.297536,2.724361,2.306106,-3.744271,0.9987922,-2.474778,0.4948174,3.664716,-1.321817,1.583941],
[1.1298,-2.284391,-1.882893,-3.870621,-2.386049,-2.842344,1.323797,-3.656746,1.665663,0.2930844,3.662296,-1.340973,2.835942,-1.419574,-0.972999,-2.094736,3.533007],
[3.794855,3.530483,-1.219125,2.906555,-0.5974618,-2.516217,2.162822,-2.563787,-0.4554144,-3.672343,-2.662888,-2.251363,-0.6267154,-2.110855,-3.878001,0.1839322,3.336167],
[0.1616143,-2.073514,2.112323,-3.255041,-2.924401,0.4581022,-0.9846869,-2.682219,-3.884537,-1.47088,3.897781,-0.9252915,-1.335629,1.572468,-3.624734,3.645061,-1.022346],
[-0.2473144,-3.996658,1.340742,-1.299103,-0.3659642,-2.121669,2.495319,-0.03844295,2.843305,3.486408,1.47058,0.4653406,-1.950124,3.247595,0.759954,-2.896762,3.150652],
[0.1354745,-3.037548,0.3288937,1.6536,-0.3948871,0.2887558,-2.445196,-0.8224762,-3.537862,1.689707,-3.100444,-1.710556,2.002325,2.997027,2.899925,3.806513,-3.832786],
[3.474251,2.514455,-0.1433807,-3.509146,1.730224,-1.635852,1.494634,-0.8500494,0.1150999,-1.74719,3.916987,1.087527,-1.210505,1.168635,0.9032021,-0.3920521,-2.416854],
[0.2948416,3.314508,1.124563,-2.275837,2.42608,3.31777,0.4853283,0.2350503,-1.859116,1.990582,-3.025706,1.996861,-3.523647,-3.387861,-0.9284453,-3.344774,-0.1724423],
[3.828558,-1.447297,0.4563478,-3.375689,-3.582152,0.09481105,2.212962,2.33837,-1.204152,2.867902,-0.0009320714,2.209335,-2.825465,0.2275539,0.4447354,3.58534,3.93259],
[-2.549054,-0.5585191,0.4300992,1.814716,-0.4172803,3.089239,2.114044,2.107505,-3.18645,-2.831027,1.497022,-0.6497475,2.296876,0.01509201,2.041825,-1.081406,3.533276],
[3.640062,3.304057,-0.6954455,3.714486,2.832908,-3.301273,3.806774,-0.5635036,-3.714814,0.1944159,0.6849468,-3.84125,1.734987,2.7822,-3.611112,-3.783585,-0.7675126],
[-1.6073,-1.237565,-3.354716,3.16937,2.768959,1.080925,-2.046764,-2.610777,-0.6667143,2.143542,2.309769,3.268299,0.6923273,2.907024,3.785151,-0.03552095,3.047223],
[-2.910228,-2.930367,0.6526668,3.029331,-1.729225,2.507226,3.706773,-1.008067,2.115057,0.5369731,1.037696,1.053959,-3.090846,-3.366372,-3.607398,-3.573606,-3.890617],
[-1.089045,-1.178307,-0.2353946,-0.07828258,-0.4066478,-1.736882,0.5462321,-1.864778,0.04520259,-3.893452,-1.666803,1.921113,1.078716,3.578076,3.404165,-0.8152142,-2.664099],
[-1.134491,2.48498,-2.167568,2.373187,-2.810689,2.344276,2.577108,-3.12264,-0.4062538,2.9681,-2.512966,-1.588866,-2.841234,-1.874237,0.8979692,-1.299761,0.5695466],
[-1.588092,-3.250004,-0.5669615,-3.654773,0.5859395,1.81347,3.797286,1.81206,0.08281331,3.628879,3.958802,2.914481,-0.08212105,2.202049,0.616192,3.982167,0.9026272]
],
[
[-0.05453576,0.5800989,0.3302245,2.558258,-1.582579,-0.07112061,-0.5287084,1.497599,2.941636,1.704596,1.884483,-3.534507,3.966396,0.9958471,3.932407,1.61407,2.30416],
[0.3725308,-3.013077,-0.6284181,-1.982151,3.607431,-0.0291241,2.950009,2.850823,-3.011115,1.216255,1.099715,-0.2672286,1.275552,-2.313301,2.590378,2.850268,0.3668167]
]
],
"biases":[
[
2.470169,3.823466,3.613033,-1.6196,-2.877169,-3.047684,3.859089,0.2661587,1.82399,-2.823125,1.138627,-3.363356,-3.301929,2.946497,1.5809,3.42364,0.8961695
],
[
-2.983344,-0.3252213
]
]},
{
"fitness":11.82284,
"weights":[
[
[3.24803,2.708545,-1.049594,-2.004224,-3.531452,2.339176,-0.4815862,-2.787132,2.663903,-0.09715262,1.823753,-2.038416,-0.1875394,-2.181117,1.53249,-0.5480042,-1.824405],
[-2.567895,3.271781,-2.392037,1.366544,3.170547,-1.094745,-0.1552968,3.297536,-2.501822,2.306106,-3.744271,0.9987922,-2.474778,0.4948174,3.664716,-1.321817,1.583941],
[1.1298,-2.284391,-1.760554,-3.870621,-2.386049,-2.842344,1.323797,2.97242,1.665663,0.2930844,2.294796,-1.340973,2.835942,-1.419574,-0.972999,-2.094736,3.533007],
[2.934438,3.530483,-1.219125,2.906555,-1.000376,-2.516217,2.162822,1.155173,-0.4554144,-3.672343,-2.662888,-2.251363,-0.6267154,-2.110855,-3.878001,0.1839322,3.336167],
[0.1616143,-2.073514,2.112323,-3.255041,-2.924401,0.4581022,-0.9846869,-2.682219,-3.884537,-1.47088,3.897781,-0.9252915,-1.335629,1.572468,-3.624734,3.645061,-1.022346],
[-0.2473144,3.869207,1.340742,-3.065522,2.138518,1.681308,2.495319,-0.03844295,2.843305,3.857581,1.47058,0.4653406,-1.950124,3.247595,-0.1031348,-2.896762,3.150652],
[0.1354745,-3.037548,0.3288937,1.6536,-0.3948871,0.2887558,-2.445196,-0.8224762,-3.537862,1.689707,-3.100444,-1.710556,2.002325,2.997027,2.899925,3.806513,-3.832786],
[3.474251,2.514455,-0.1433807,-3.509146,1.730224,-1.635852,1.494634,-0.8500494,0.1150999,-1.74719,3.916987,1.087527,-1.210505,1.168635,0.9032021,-0.3920521,-2.416854],
[0.2948416,3.314508,1.124563,-2.275837,2.42608,-1.564979,0.4853283,0.2350503,-1.859116,1.990582,0.1563052,1.996861,-3.523647,-3.387861,-0.9284453,-3.344774,-0.1724423],
[3.828558,-1.447297,0.4563478,-3.375689,-3.582152,0.09481105,2.212962,2.33837,-1.204152,2.867902,-0.0009320714,2.209335,-2.825465,0.2275539,-3.118487,3.58534,3.93259],
[-2.549054,1.032145,0.4300992,1.814716,-0.4172803,3.089239,2.114044,2.107505,-3.18645,-2.831027,1.497022,-0.6497475,2.296876,1.925255,0.1924343,-1.081406,3.533276],
[3.640062,3.304057,-0.6954455,3.714486,2.832908,-2.250092,3.806774,-0.5635036,-3.714814,0.1944159,0.6849468,-3.84125,-2.629688,2.7822,-3.611112,-3.783585,-0.7675126],
[-1.6073,-1.237565,-3.354716,3.16937,2.768959,1.080925,-2.046764,-2.610777,0.786135,2.143542,2.309769,3.268299,0.6923273,3.583465,3.785151,-0.03552095,3.047223],
[-2.910228,-2.930367,0.6526668,3.029331,-1.729225,2.507226,3.706773,-1.008067,2.115057,0.5369731,1.037696,1.053959,-3.090846,-3.366372,-3.607398,-3.573606,-3.890617],
[-1.089045,-1.178307,-0.2353946,-0.07828258,-0.4066478,-1.736882,0.5462321,-1.864778,0.04520259,-3.893452,-1.666803,1.921113,1.078716,3.578076,3.404165,-0.8152142,-2.664099],
[-1.134491,2.48498,-2.167568,2.373187,-2.810689,2.344276,2.577108,-3.12264,-0.4062538,2.9681,-2.512966,-1.588866,-2.841234,-0.9949059,0.8979692,-1.299761,0.5695466],
[-1.588092,-3.250004,-0.5669615,-3.654773,0.5859395,1.81347,3.797286,1.81206,0.08281331,3.628879,3.958802,2.914481,-0.08212105,2.202049,-0.1492395,3.982167,0.9026272]
],
[
[-0.05453576,0.5800989,3.225916,2.558258,-1.582579,-0.07112061,-0.5287084,1.497599,2.941636,-3.225518,1.884483,-3.534507,3.966396,0.9958471,3.932407,1.61407,2.30416],
[0.3725308,-3.013077,-0.6284181,-1.982151,3.607431,-0.0291241,2.950009,2.850823,-3.011115,1.216255,1.099715,-0.2672286,1.275552,-2.313301,2.590378,2.850268,0.3668167]
]
],
"biases":[
[
2.470169,3.823466,3.613033,-1.6196,-2.877169,-3.047684,3.859089,0.2661587,1.82399,-2.823125,1.138627,-3.363356,-3.301929,2.946497,1.5809,3.42364,0.8961695
],
[
-2.983344,-0.3252213
]
]},
{
"fitness":11.82267,
"weights":[
[
[3.24803,2.708545,-1.049594,-2.004224,-3.531452,2.339176,-0.4815862,-2.787132,2.663903,-0.09715262,1.823753,-2.038416,-0.1875394,-2.181117,1.53249,-0.5480042,-1.824405],
[-2.567895,3.271781,-2.392037,1.366544,3.170547,-1.094745,3.617585,3.297536,-2.501822,2.306106,-3.744271,0.9987922,-2.474778,0.4948174,3.664716,-1.321817,1.583941],
[1.1298,-2.284391,-1.760554,-3.870621,-2.386049,-2.842344,1.323797,2.97242,1.665663,0.2930844,2.294796,-1.340973,2.835942,-1.419574,-0.972999,-2.094736,3.533007],
[2.934438,3.530483,-1.219125,2.906555,-1.000376,-2.516217,2.162822,1.155173,-0.4554144,-3.672343,-2.662888,-2.251363,-0.6267154,-2.110855,-3.878001,0.1839322,3.336167],
[0.1616143,-2.073514,2.112323,-3.255041,-2.924401,0.4581022,-0.9846869,-2.682219,-3.884537,-1.47088,3.897781,-0.9252915,-1.335629,1.572468,-3.624734,3.645061,-1.022346],
[-0.2473144,3.869207,1.340742,-3.065522,2.138518,1.681308,2.495319,-0.03844295,2.843305,3.857581,1.47058,0.4653406,-1.950124,3.247595,-0.1031348,-2.896762,3.150652],
[0.1354745,-3.037548,0.3288937,1.6536,-0.3948871,0.2887558,-2.445196,-0.8224762,-3.537862,1.689707,-3.100444,-1.710556,2.002325,2.997027,2.899925,3.806513,-3.832786],
[3.474251,2.514455,-0.1433807,-3.509146,1.730224,-1.635852,1.494634,-0.8500494,0.1150999,-1.74719,3.916987,1.087527,-1.210505,1.168635,0.9032021,-0.3920521,-2.416854],
[0.2948416,3.314508,1.124563,-2.275837,2.42608,-1.564979,0.4853283,0.2350503,-1.859116,1.990582,0.1563052,1.996861,-3.523647,-3.387861,-0.9284453,-3.344774,-0.1724423],
[3.828558,-1.447297,0.4563478,-3.375689,-3.582152,0.09481105,2.212962,2.33837,-1.204152,2.867902,-0.0009320714,2.209335,-2.825465,0.2275539,-3.118487,3.58534,3.93259],
[-2.549054,1.032145,0.4300992,1.814716,-0.4172803,3.089239,2.114044,2.107505,-3.18645,-2.831027,1.497022,-0.6497475,2.296876,1.925255,0.1924343,-1.081406,3.533276],
[3.640062,3.304057,-0.6954455,3.714486,2.832908,-2.250092,3.806774,-0.5635036,-3.714814,0.1944159,0.6849468,-3.84125,-2.629688,2.7822,-3.611112,-3.783585,-0.7675126],
[-1.6073,-1.237565,-3.354716,3.16937,2.768959,1.080925,-2.046764,-2.610777,0.786135,2.143542,2.309769,3.268299,0.6923273,3.583465,3.785151,-0.03552095,3.047223],
[-2.910228,-2.930367,0.6526668,3.029331,-1.729225,2.507226,3.706773,-1.008067,2.115057,0.5369731,1.037696,1.053959,-3.090846,-3.366372,-3.607398,-3.573606,-3.890617],
[-1.089045,-1.178307,-0.2353946,-0.07828258,-0.4066478,-1.736882,0.5462321,-1.864778,0.04520259,-3.893452,-1.666803,1.921113,1.078716,3.578076,3.404165,-0.8152142,-2.664099],
[-1.134491,2.48498,-2.167568,2.373187,-2.810689,2.344276,2.577108,-3.12264,-0.4062538,2.9681,-2.512966,-1.588866,-2.841234,-0.9949059,0.8979692,-1.299761,0.5695466],
[-1.588092,-3.250004,-0.5669615,-3.654773,0.5859395,1.81347,3.797286,1.81206,0.08281331,3.628879,3.958802,2.914481,-0.08212105,2.202049,-0.1492395,3.982167,0.9026272]
],
[
[-0.05453576,0.5800989,3.225916,2.558258,-1.582579,-0.07112061,-0.5287084,1.497599,2.941636,-3.225518,1.884483,-3.534507,3.966396,0.9958471,3.932407,1.61407,2.30416],
[0.3725308,-3.013077,-0.6284181,-1.982151,3.607431,-0.0291241,2.950009,2.850823,-3.011115,1.216255,1.099715,-0.2672286,1.275552,-2.313301,2.590378,2.850268,0.3668167]
]
],
"biases":[
[
2.470169,3.823466,3.613033,-1.6196,-2.877169,-3.047684,3.859089,0.2661587,1.82399,-2.823125,1.138627,-3.363356,-3.301929,2.946497,1.5809,3.42364,0.8961695
],
[
-2.983344,-0.3252213
]
]},
{
"fitness":11.81538,
"weights":[
[
[3.81608,2.708545,1.746078,-2.004224,-3.531452,2.339176,0.3615426,-2.787132,2.663903,-2.132184,1.823753,-2.038416,-0.1875394,-2.181117,1.53249,-0.2202973,-1.824405],
[-2.567895,3.271781,-2.392037,1.366544,-2.000853,-1.094745,3.617585,3.297536,2.724361,2.306106,-3.744271,0.9987922,-2.474778,0.4948174,3.664716,-1.321817,1.583941],
[1.1298,-2.284391,-1.882893,0.1268997,-2.386049,-2.842344,1.323797,-3.656746,1.665663,0.2930844,3.662296,-1.340973,2.835942,-1.419574,-0.972999,-2.094736,3.533007],
[3.794855,3.530483,-1.219125,2.906555,-1.000376,-2.516217,-2.586231,-2.563787,-0.4554144,-3.672343,-2.662888,-2.251363,-0.6267154,-2.110855,-3.878001,0.1839322,3.336167],
[0.1616143,-3.779572,2.112323,-3.255041,-2.924401,0.4581022,-0.9846869,-2.682219,-3.884537,-1.47088,3.897781,-0.9252915,-1.335629,1.572468,-3.624734,3.645061,-1.022346],
[-0.2473144,0.8960702,1.340742,-3.065522,-0.3659642,-2.121669,2.495319,-0.03844295,2.843305,2.694322,1.47058,0.4653406,-1.950124,3.247595,-0.1031348,-2.896762,1.731422],
[0.1354745,-3.037548,0.3288937,1.6536,-0.3948871,0.2887558,-2.445196,-0.8224762,2.218937,1.689707,-3.100444,-1.710556,2.002325,2.997027,2.899925,3.806513,-3.832786],
[3.474251,2.514455,-0.1433807,-3.509146,1.730224,-1.635852,1.494634,-0.8500494,0.1150999,-1.74719,3.916987,1.087527,-1.210505,1.168635,0.9032021,-0.3920521,-2.416854],
[0.2948416,3.314508,1.124563,-2.275837,2.42608,3.31777,0.4853283,0.2350503,-1.859116,1.990582,-3.025706,1.996861,-3.523647,-3.387861,-0.9284453,-3.344774,-0.1724423],
[3.828558,-1.447297,0.4563478,-3.375689,-1.408193,0.09481105,2.212962,2.33837,-1.204152,2.867902,1.20062,2.209335,-2.825465,0.2275539,0.4447354,3.58534,3.93259],
[-2.549054,1.032145,0.4300992,1.814716,-0.4172803,3.089239,2.114044,2.107505,-3.18645,-2.831027,1.497022,-0.6497475,2.296876,0.01509201,2.041825,-1.081406,3.533276],
[3.640062,3.304057,-0.6954455,3.714486,2.832908,-2.250092,3.806774,-0.5635036,-3.714814,0.1944159,0.6849468,-3.84125,1.734987,2.7822,-3.611112,-3.783585,-0.7675126],
[-1.6073,-1.237565,-3.354716,3.16937,2.768959,1.080925,-2.046764,-2.610777,-0.6667143,2.143542,2.309769,3.268299,0.6923273,2.907024,3.785151,-0.03552095,3.047223],
[-2.910228,-2.930367,0.6526668,3.029331,-1.729225,2.507226,3.706773,-1.008067,2.115057,0.5369731,1.037696,1.053959,-3.090846,-3.366372,-3.607398,-3.573606,-3.890617],
[-1.089045,-1.178307,-0.2353946,-0.07828258,-0.4066478,-1.736882,0.5462321,-1.864778,0.04520259,-3.893452,-1.666803,1.921113,1.078716,3.578076,3.404165,-0.8152142,-2.664099],
[-1.134491,2.48498,-2.167568,2.373187,-2.810689,2.344276,2.577108,-3.12264,-0.4062538,2.9681,-2.512966,-1.588866,-2.841234,-1.874237,0.8979692,-1.299761,0.5695466],
[-1.588092,-3.250004,-0.5669615,-3.654773,0.5859395,1.81347,3.797286,1.81206,0.08281331,3.628879,3.958802,2.914481,-0.08212105,2.202049,0.616192,3.982167,0.9026272]
],
[
[-0.05453576,0.5800989,0.3302245,2.558258,-1.582579,-0.07112061,-1.141492,1.497599,2.941636,1.704596,1.884483,-3.534507,3.966396,0.9958471,3.932407,1.61407,2.30416],
[0.3725308,-3.013077,-0.6284181,-1.982151,3.607431,-0.0291241,2.950009,2.850823,-3.011115,1.216255,1.099715,-0.2672286,1.275552,-2.313301,2.590378,2.850268,0.3668167]
]
],
"biases":[
[
2.470169,3.823466,3.613033,-1.6196,-2.877169,-3.047684,3.859089,0.2661587,1.82399,-2.823125,1.138627,-3.363356,-3.301929,2.946497,1.5809,3.42364,0.8961695
],
[
-2.983344,-0.3252213
]
]},
{
"fitness":11.81382,
"weights":[
[
[3.24803,2.708545,-1.049594,-2.004224,-3.531452,2.339176,0.3615426,-2.787132,2.663903,-2.132184,1.823753,-2.038416,-0.1875394,-2.181117,1.53249,-0.5480042,-1.824405],
[-2.567895,3.271781,-2.392037,1.366544,-2.000853,-1.094745,3.617585,3.297536,2.724361,2.306106,-3.744271,0.9987922,-2.474778,0.4948174,3.664716,-1.321817,1.583941],
[1.1298,-2.284391,-2.346531,-3.870621,-2.386049,-2.842344,1.323797,-0.9720006,1.665663,0.2930844,3.662296,-1.340973,2.835942,-1.419574,-0.972999,-2.094736,3.533007],
[3.794855,3.530483,-1.219125,2.906555,-1.000376,-2.516217,2.162822,1.155173,-0.4554144,-3.672343,-2.662888,-2.251363,-0.6267154,-2.110855,-3.878001,0.1839322,3.336167],
[0.1616143,-2.073514,2.112323,-3.255041,-2.924401,0.4581022,-0.9846869,-2.682219,-3.884537,-1.47088,3.897781,-0.9252915,-0.4923606,-0.2408315,-3.624734,3.645061,-1.022346],
[-0.2473144,0.8960702,1.340742,-3.065522,-0.3659642,-2.121669,2.495319,-0.03844295,2.843305,3.486408,1.47058,0.4653406,-1.950124,3.247595,-0.1031348,3.178792,3.150652],
[-2.910676,-3.037548,0.3288937,0.2871712,-0.3948871,0.2887558,-2.445196,-0.8224762,-3.537862,1.689707,-3.100444,-1.710556,2.002325,2.997027,2.899925,3.806513,-3.832786],
[3.474251,2.514455,-0.1433807,-3.509146,1.730224,-1.635852,1.494634,-0.8500494,3.47839,-1.74719,3.916987,-0.39239,-1.210505,1.168635,0.9032021,1.031462,-2.416854],
[0.2948416,3.314508,3.11522,-2.275837,2.42608,3.31777,0.2444004,0.2350503,-1.859116,1.990582,-3.025706,1.996861,-3.523647,-3.387861,-0.9284453,-3.344774,-0.1724423],
[-0.689585,-1.447297,0.4563478,-3.375689,-3.582152,0.09481105,2.212962,2.33837,-1.204152,2.867902,-0.0009320714,2.209335,-2.825465,0.2275539,0.4447354,3.58534,3.93259],
[-2.549054,1.032145,0.4300992,1.814716,-0.4172803,3.089239,2.114044,2.107505,-3.18645,-2.831027,1.497022,-0.6497475,2.296876,1.925255,0.1924343,-3.220388,3.533276],
[3.640062,3.304057,-0.6954455,3.714486,2.832908,-2.250092,3.806774,-0.5635036,-3.714814,0.1944159,0.6849468,-3.84125,1.734987,2.7822,-0.4876487,-3.783585,1.217487],
[-1.6073,-1.237565,-3.354716,3.16937,2.768959,1.080925,-2.046764,-2.610777,-0.6667143,2.143542,1.204184,3.268299,0.6923273,3.583465,3.785151,-0.03552095,3.047223],
[-2.910228,-2.930367,0.6526668,3.029331,-1.729225,2.507226,3.706773,-1.008067,2.115057,0.5369731,1.037696,1.053959,-3.090846,-3.366372,-3.607398,-3.573606,-3.890617],
[1.472067,-1.178307,-0.2353946,-0.07828258,-0.4066478,-1.736882,1.89636,-1.864778,0.04520259,-3.893452,-1.666803,1.921113,1.078716,3.578076,3.404165,-0.8152142,-2.664099],
[-1.134491,2.48498,-2.167568,2.373187,-2.810689,2.344276,2.577108,-3.12264,-0.4062538,2.9681,-2.512966,-1.588866,-2.841234,-1.874237,0.8979692,-1.299761,0.5695466],
[-1.588092,-3.250004,-0.5669615,-3.654773,0.5859395,1.81347,3.797286,1.81206,-3.182858,3.628879,3.958802,2.914481,-0.08212105,2.202049,0.616192,3.982167,0.9026272]
],
[
[-0.05453576,0.4612167,3.225916,2.558258,-1.582579,-0.07112061,-0.5287084,1.497599,2.941636,-3.225518,1.884483,-3.534507,3.966396,0.9958471,3.932407,1.61407,2.30416],
[0.3725308,-3.013077,-0.6284181,-1.982151,3.607431,-0.0291241,2.950009,2.850823,-3.011115,1.216255,1.099715,-0.2672286,1.275552,-2.313301,2.590378,2.850268,0.3668167]
]
],
"biases":[
[
2.470169,3.823466,3.613033,-1.6196,-2.877169,-3.047684,3.859089,-0.04100572,1.82399,-2.823125,1.138627,-3.363356,-3.301929,2.946497,1.5809,3.42364,0.8961695
],
[
-2.983344,-0.3252213
]
]},
{
"fitness":11.81249,
"weights":[
[
[2.31415,2.708545,-3.82391,-2.004224,-3.531452,2.339176,0.3615426,-2.787132,2.663903,-2.132184,1.823753,-2.038416,-0.1875394,-0.7078259,1.53249,-0.5480042,-1.824405],
[-2.567895,3.271781,-1.823177,1.366544,-2.000853,1.303047,-3.861282,-1.009028,2.724361,2.306106,3.624719,2.282548,-2.474778,0.4948174,3.664716,-1.321817,1.82302],
[1.1298,-2.284391,-2.346531,-3.870621,-2.386049,-2.842344,1.323797,3.420148,1.665663,0.2930844,3.662296,-1.340973,2.835942,-1.419574,-3.928335,3.149204,3.533007],
[-1.858198,3.530483,-1.219125,-1.633724,-1.000376,-2.516217,2.162822,1.155173,-0.4554144,-3.672343,-2.662888,-2.251363,-0.6267154,-2.110855,-3.878001,2.427644,3.336167],
[0.2783033,-2.073514,-0.3550031,2.645075,-2.924401,-1.810771,-0.9846869,-2.682219,-3.884537,-1.47088,-0.5325475,-0.9252915,-1.335629,1.572468,-3.624734,3.645061,-1.281004],
[-0.2473144,0.8960702,1.770399,-3.065522,-3.629807,-0.9203271,2.495319,2.993583,0.5498099,3.486408,-0.6572111,0.4653406,-1.950124,3.247595,-0.1031348,-2.896762,3.150652],
[0.1354745,-3.037548,0.3288937,1.984168,-0.3948871,0.2887558,-2.445196,-0.6120586,-3.537862,1.689707,-3.100444,-1.710556,2.002325,2.997027,2.899925,3.806513,-3.832786],
[3.474251,2.514455,-0.1433807,-3.509146,1.730224,-1.635852,-0.4537629,0.1464654,0.1150999,-1.74719,1.547321,1.087527,-1.210505,1.168635,0.9032021,0.4813966,-2.316436],
[0.2948416,3.314508,1.124563,0.5377568,2.42608,2.811858,0.4853283,0.2350503,-1.859116,1.990582,-3.025706,1.996861,-3.523647,-3.387861,-0.9284453,-3.344774,-0.1724423],
[-1.641203,0.5355383,0.4563478,-3.407129,-3.582152,0.09481105,2.212962,3.682247,-1.204152,2.087419,-0.0009320714,2.209335,-2.825465,0.2275539,3.556978,3.58534,3.93259],
[-2.549054,2.362683,0.4300992,1.814716,-0.407076,3.089239,2.114044,1.161228,-3.18645,-2.826539,1.497022,-0.2077323,2.296876,1.925255,0.1924343,-2.2957,3.340011],
[0.6995234,1.294639,-0.6954455,3.714486,2.832908,-2.287122,3.806774,-0.5635036,-3.947401,0.1944159,-0.2047269,2.449684,1.734987,-2.990749,-3.611112,0.4715983,-0.7675126],
[-1.855377,-1.237565,-3.354716,-3.072037,2.768959,2.108402,-2.046764,-2.610777,-3.904578,2.143542,2.309769,3.268299,0.6923273,3.583465,-0.410257,-0.03552095,2.860299],
[-2.910228,-2.930367,0.6526668,3.029331,-1.729225,2.756477,-0.6832041,0.2230969,2.115057,0.5369731,1.037696,1.053959,-3.090846,-3.366372,-3.607398,-3.573606,-3.890617],
[-1.089045,-1.178307,-0.2353946,-0.07828258,-0.4066478,-1.428052,0.5462321,-1.864778,-0.6722158,-3.893452,-1.666803,1.921113,1.078716,3.578076,3.404165,-0.8152142,-3.302837],
[-1.134491,2.48498,-2.167568,2.373187,-2.810689,2.344276,0.5504561,-2.311439,-0.4062538,2.9681,0.311522,2.373828,-2.841234,-3.616524,0.8979692,3.693526,3.463604],
[2.995226,-1.491541,-0.9863119,1.953476,0.5859395,1.81347,3.797286,1.81206,0.08281331,3.628879,3.958802,2.914481,-0.08212105,2.202049,0.616192,0.7890193,0.9026272]
],
[
[-0.05453576,0.5800989,0.3302245,2.558258,-1.582579,-0.07112061,-0.5287084,-3.42319,2.941636,0.1577225,2.991735,-3.534507,3.966396,0.9958471,3.932407,1.61407,2.30416],
[0.3725308,-3.013077,-0.6284181,-1.982151,3.607431,-0.0291241,2.950009,2.850823,-3.011115,1.216255,1.099715,-0.2672286,1.275552,-2.08669,1.14805,2.850268,0.3668167]
]
],
"biases":[
[
2.470169,3.823466,3.613033,-1.6196,-2.877169,-3.047684,3.859089,0.2661587,1.82399,-2.823125,1.138627,-3.363356,-3.301929,2.946497,1.5809,3.42364,-1.898093
],
[
3.379158,-0.3252213
]
]},
{
"fitness":11.80931,
"weights":[
[
[2.31415,2.708545,-3.82391,-2.004224,-3.531452,2.339176,0.3615426,-2.787132,2.663903,-2.132184,1.823753,-2.038416,-0.1875394,-0.7078259,1.53249,-0.5480042,-1.824405],
[-2.567895,3.271781,-1.823177,1.366544,-2.000853,1.303047,-3.861282,3.297536,2.724361,2.306106,3.624719,2.282548,-2.474778,0.4948174,3.664716,-1.321817,1.82302],
[1.1298,-2.284391,-2.346531,-3.870621,-2.386049,-2.842344,1.323797,3.420148,1.665663,0.2930844,3.662296,-1.340973,2.835942,-1.419574,-3.928335,3.149204,3.533007],
[-1.858198,3.530483,-1.219125,-1.633724,-1.000376,-2.516217,2.162822,1.155173,-0.4554144,-3.672343,-2.662888,-2.251363,-0.6267154,-2.110855,-3.878001,2.427644,3.336167],
[0.1616143,-2.073514,-0.3550031,2.645075,-2.924401,-1.810771,-0.9846869,-2.682219,-3.884537,-1.47088,-0.5325475,-0.9252915,-1.335629,1.572468,-3.624734,3.645061,-1.281004],
[-0.2473144,0.8960702,1.770399,-3.065522,-3.629807,-0.9203271,2.495319,2.993583,0.5498099,3.486408,-0.6572111,0.4653406,-1.950124,3.247595,-0.1031348,-2.896762,3.150652],
[0.1354745,-3.037548,0.3288937,1.984168,-0.3948871,0.2887558,-2.445196,-0.6120586,-3.537862,1.689707,-3.100444,-1.710556,2.002325,2.997027,2.899925,3.806513,-3.832786],
[3.474251,2.514455,-0.1433807,-3.509146,1.730224,-1.635852,-0.4537629,0.1464654,0.1150999,-1.74719,3.916987,1.087527,-1.210505,1.168635,0.9032021,0.4813966,-2.316436],
[0.2948416,3.314508,1.124563,-2.275837,2.42608,2.811858,0.4853283,0.2350503,-1.859116,1.990582,-3.025706,1.996861,-3.523647,-3.387861,-0.9284453,-3.344774,-0.1724423],
[-1.641203,0.5355383,0.4563478,-3.407129,-3.582152,0.09481105,2.212962,3.682247,-1.204152,2.087419,-0.0009320714,2.209335,-2.825465,0.2275539,3.556978,3.58534,3.93259],
[-2.549054,2.362683,0.4300992,1.814716,-0.407076,3.089239,2.114044,1.161228,-3.18645,-2.826539,1.497022,-0.2077323,2.296876,1.925255,0.1924343,-2.2957,3.340011],
[0.6995234,1.294639,-0.6954455,3.714486,2.832908,-2.287122,3.806774,-0.5635036,-3.947401,0.1944159,-0.2047269,2.449684,1.734987,-2.990749,-3.611112,0.4715983,-0.7675126],
[-1.855377,-1.237565,-3.354716,-3.072037,2.768959,2.108402,-2.046764,-2.610777,-3.904578,2.143542,2.309769,3.268299,0.6923273,3.583465,-0.410257,-0.03552095,2.860299],
[-2.910228,-2.930367,0.6526668,3.029331,-1.729225,2.756477,-0.6832041,0.2230969,2.115057,0.5369731,1.037696,1.053959,-3.090846,-3.366372,-3.607398,-3.573606,-3.890617],
[-1.089045,-1.178307,-0.2353946,-0.07828258,-0.4066478,-1.428052,0.5462321,-1.864778,-0.6722158,-3.893452,-1.666803,1.921113,1.078716,3.578076,3.404165,-0.8152142,-3.302837],
[-1.134491,2.48498,-2.167568,2.373187,-2.810689,2.344276,0.5504561,-2.311439,-0.4062538,2.9681,0.311522,2.373828,-2.841234,-3.616524,0.8979692,3.693526,3.463604],
[2.995226,-1.491541,-0.9863119,1.953476,0.5859395,1.81347,3.797286,1.81206,0.08281331,3.628879,3.958802,2.914481,-0.08212105,2.202049,0.616192,0.7890193,0.9026272]
],
[
[-0.05453576,0.5800989,0.3302245,2.558258,-1.582579,-0.07112061,-0.5287084,-3.42319,2.941636,0.1577225,2.991735,-3.534507,3.966396,0.9958471,3.932407,1.61407,2.30416],
[0.3725308,-3.013077,-0.6284181,-1.982151,3.607431,-0.0291241,2.950009,2.850823,-3.011115,1.216255,1.099715,-0.2672286,1.275552,-2.08669,1.14805,2.850268,0.3668167]
]
],
"biases":[
[
2.470169,3.823466,3.613033,-1.6196,-2.877169,-3.047684,3.859089,0.2661587,1.82399,-2.823125,1.138627,-3.363356,-3.301929,2.946497,1.5809,3.42364,-1.898093
],
[
3.379158,-0.3252213
]
]},
{
"fitness":11.71803,
"weights":[
[
[3.24803,2.708545,1.663928,3.858215,-3.531452,2.339176,-0.4815862,-2.787132,2.663903,-2.132184,1.823753,-2.038416,-0.1875394,-2.181117,1.53249,-0.5480042,-1.824405],
[-2.567895,3.271781,-2.392037,1.366544,3.170547,-1.094745,3.617585,3.297536,-2.501822,2.306106,-3.744271,0.9987922,-2.474778,0.4948174,3.664716,-0.5843433,1.583941],
[1.1298,-2.284391,-2.346531,-3.870621,-2.386049,-2.842344,1.323797,1.940858,1.665663,0.2930844,2.294796,-1.340973,2.835942,-1.419574,-0.972999,-2.094736,3.533007],
[3.794855,3.530483,-1.219125,2.906555,-1.000376,-2.516217,2.162822,1.155173,-0.4554144,-3.672343,-2.662888,-2.251363,-0.6267154,-2.110855,-3.878001,0.1839322,3.336167],
[0.1616143,-2.073514,2.112323,-3.255041,-2.924401,0.4581022,-0.9846869,-2.682219,3.876854,-1.47088,3.897781,-0.9252915,-1.335629,1.572468,-3.624734,3.645061,-1.022346],
[-0.2473144,3.869207,1.340742,-3.065522,-0.3659642,1.681308,2.495319,-0.03844295,2.843305,3.486408,1.47058,0.4653406,-1.950124,3.247595,-0.1031348,-2.896762,3.150652],
[0.1354745,-1.779722,0.3288937,1.6536,-0.3948871,0.2887558,-2.445196,-0.8224762,-2.012364,1.689707,-3.100444,-1.710556,2.002325,0.2678587,2.899925,3.806513,-3.832786],
[3.474251,2.514455,-0.1433807,-3.509146,1.730224,-1.635852,1.494634,-0.8500494,0.1150999,-1.74719,3.916987,1.087527,-1.210505,1.168635,0.9032021,-0.3920521,-2.416854],
[0.2948416,3.314508,1.124563,-2.275837,2.42608,-1.564979,0.4853283,0.2350503,-1.859116,1.990582,0.1563052,1.996861,-3.523647,-3.387861,-1.916903,-3.344774,-0.1724423],
[3.828558,-1.447297,0.4563478,-3.375689,-3.582152,0.09481105,2.212962,2.33837,-1.204152,2.867902,-0.0009320714,2.209335,-2.825465,0.2275539,0.4447354,3.58534,3.93259],
[-2.549054,1.032145,0.4300992,1.814716,-0.4172803,3.089239,2.114044,2.107505,-3.18645,-2.831027,1.497022,-0.6497475,2.296876,1.925255,0.1924343,-1.081406,3.533276],
[3.640062,3.304057,-0.6954455,3.714486,2.832908,-2.250092,3.806774,-0.5635036,-3.714814,0.1944159,0.6849468,-3.84125,1.734987,2.7822,-3.611112,-3.783585,-0.7675126],
[3.251901,-1.237565,-3.354716,3.16937,2.768959,1.080925,-2.046764,-2.610777,0.786135,2.143542,2.309769,-0.7220292,-0.9543245,3.583465,3.785151,-0.03552095,3.047223],
[-2.910228,-2.930367,0.6526668,3.029331,-1.729225,2.507226,3.706773,-1.008067,2.115057,0.5369731,1.037696,1.053959,-3.090846,-3.366372,-3.607398,-3.573606,-3.890617],
[-1.089045,-1.178307,-0.2353946,-0.07828258,-0.4066478,-1.736882,0.5462321,-1.864778,0.04520259,-3.893452,-1.666803,1.921113,1.078716,3.578076,3.404165,-0.8152142,-2.664099],
[-1.134491,2.48498,-2.167568,2.373187,-2.810689,2.344276,2.577108,-3.12264,-0.4062538,2.9681,-2.512966,-1.588866,-2.841234,-0.9949059,0.8979692,-1.299761,0.5695466],
[-1.588092,-3.250004,-0.5669615,-3.654773,0.5859395,1.81347,3.797286,1.81206,0.08281331,3.628879,3.958802,-2.13469,-0.08212105,2.202049,-0.1492395,3.982167,0.9026272]
],
[
[-0.05453576,0.5800989,3.225916,2.558258,-1.582579,-0.07112061,-0.5287084,1.497599,2.941636,-3.225518,1.884483,-3.534507,3.696463,0.9958471,3.932407,1.61407,2.30416],
[0.3725308,-3.013077,-0.6284181,-1.982151,3.607431,-0.0291241,2.950009,2.850823,-3.011115,1.216255,1.099715,-0.2672286,1.275552,-2.313301,2.590378,2.850268,0.3668167]
]
],
"biases":[
[
2.470169,3.823466,3.613033,-1.6196,-2.877169,-3.047684,3.859089,0.2661587,1.82399,-2.823125,1.138627,-3.363356,-3.301929,2.946497,1.5809,3.42364,0.8961695
],
[
-2.983344,-0.3252213
]
]},
{
"fitness":11.71748,
"weights":[
[
[3.24803,2.708545,-1.049594,-2.004224,-3.531452,2.339176,0.3615426,-2.787132,2.663903,-2.132184,1.823753,-2.038416,-0.1875394,-2.181117,1.53249,-0.2202973,-1.824405],
[-2.567895,3.271781,-2.392037,1.366544,-2.000853,-1.094745,3.617585,3.297536,2.724361,2.306106,-3.744271,0.9987922,-2.474778,0.4948174,3.664716,-1.321817,1.583941],
[1.1298,-2.284391,-1.882893,-3.870621,-2.386049,-2.842344,1.323797,-3.656746,1.665663,0.2930844,3.662296,-1.340973,2.835942,-1.419574,-0.972999,-2.094736,3.533007],
[3.794855,3.530483,-1.219125,2.906555,-1.000376,-2.516217,2.162822,-2.563787,0.6930642,-3.672343,-2.662888,-2.251363,-0.6267154,-2.110855,-3.878001,0.1839322,3.336167],
[0.1616143,-2.073514,2.112323,-0.08237478,-2.924401,0.4581022,-0.9846869,-2.682219,-3.884537,-1.47088,1.262478,-0.9252915,-1.335629,1.572468,-3.624734,3.645061,-1.022346],
[-0.2473144,0.8960702,3.12314,-3.065522,-0.3659642,-2.121669,2.495319,-0.03844295,2.843305,3.486408,1.47058,0.4653406,-1.950124,3.247595,-0.1031348,-2.896762,3.150652],
[0.1354745,-3.037548,0.3288937,1.6536,-0.3948871,0.2887558,-2.445196,-0.8224762,-3.537862,1.689707,-3.100444,-1.710556,2.002325,2.997027,2.899925,3.806513,-3.832786],
[3.474251,2.514455,-0.1433807,-3.509146,1.730224,-1.635852,1.494634,-0.8500494,0.1150999,-1.74719,3.916987,1.087527,-1.210505,1.168635,0.9032021,-0.3920521,-2.416854],
[0.2948416,3.314508,1.124563,-2.275837,2.42608,3.31777,0.4853283,0.2350503,-1.859116,1.990582,-3.025706,1.996861,-3.523647,-3.387861,-0.9284453,-3.344774,-0.1724423],
[3.828558,-1.447297,0.4563478,-3.375689,-3.582152,0.09481105,2.212962,2.33837,-1.204152,2.867902,-0.0009320714,-1.370072,-2.825465,0.2275539,0.4447354,3.58534,3.93259],
[-2.549054,1.032145,0.4300992,1.814716,-0.4172803,3.089239,2.114044,2.107505,-3.18645,-2.831027,1.497022,-0.6497475,2.296876,0.01509201,2.041825,-1.081406,3.533276],
[3.640062,3.304057,-0.6954455,3.714486,2.832908,-2.250092,3.806774,-0.5635036,-3.714814,0.1944159,0.6849468,-3.84125,1.734987,2.7822,-3.611112,-3.783585,-0.7675126],
[-1.6073,-1.237565,-3.354716,3.16937,2.768959,1.080925,-2.046764,-2.610777,-0.6667143,2.143542,2.309769,3.268299,0.6923273,2.907024,3.785151,-0.03552095,3.047223],
[-2.910228,-2.930367,0.6526668,3.029331,-1.729225,2.507226,3.706773,-1.008067,2.115057,0.5369731,1.037696,1.053959,-3.090846,-3.366372,-3.607398,-3.573606,-3.890617],
[-1.089045,-1.178307,-0.2353946,-0.07828258,-0.4066478,-1.736882,0.5462321,-1.864778,0.04520259,-3.893452,-1.666803,1.921113,1.078716,3.578076,3.404165,-0.8152142,-2.664099],
[-1.134491,2.48498,-2.167568,2.373187,0.2985825,2.344276,2.577108,-3.12264,-0.4062538,2.9681,-2.512966,-1.588866,-2.841234,-1.874237,0.8979692,-1.299761,0.5695466],
[-1.588092,-3.250004,-0.5669615,-3.654773,0.5859395,1.81347,3.797286,1.81206,0.08281331,3.628879,3.958802,2.914481,-0.08212105,2.202049,0.616192,3.982167,0.9026272]
],
[
[-0.05453576,0.5800989,0.3302245,2.558258,-1.582579,-0.07112061,-0.5287084,1.497599,2.941636,1.704596,1.884483,-3.534507,3.966396,0.9958471,3.932407,1.61407,2.30416],
[0.3725308,-3.013077,-0.6284181,-1.982151,3.607431,-0.0291241,2.950009,2.850823,-3.011115,1.216255,1.099715,-0.2672286,1.275552,-2.730775,2.590378,2.850268,0.3668167]
]
],
"biases":[
[
2.470169,3.823466,3.613033,-1.6196,-2.877169,-3.047684,3.859089,0.2661587,1.82399,-2.823125,1.138627,-3.363356,-3.301929,2.946497,1.5809,3.42364,0.8961695
],
[
-2.983344,-0.3252213
]
]},
{
"fitness":11.71592,
"weights":[
[
[3.24803,2.708545,-1.049594,-2.004224,-3.531452,2.339176,0.3615426,-2.787132,2.663903,-2.132184,1.823753,-2.038416,-0.1875394,-2.181117,1.53249,-0.5480042,-1.824405],
[-2.567895,3.271781,-2.392037,1.366544,-2.000853,-1.094745,3.617585,3.297536,2.724361,2.306106,-3.744271,0.9987922,-2.474778,0.4948174,3.664716,-1.321817,1.583941],
[1.1298,-2.284391,-2.346531,-3.870621,-2.386049,-2.842344,1.323797,-0.9720006,1.665663,0.2930844,3.662296,-1.340973,2.835942,-1.419574,-0.972999,-2.094736,3.533007],
[3.794855,3.530483,-1.219125,2.906555,-1.000376,-2.516217,2.162822,1.155173,-0.4554144,-3.672343,-2.662888,-2.251363,-0.6267154,-2.110855,-3.878001,0.1839322,3.336167],
[0.1616143,-2.073514,2.112323,-3.255041,-2.924401,0.4581022,-0.9846869,-2.682219,-3.884537,-1.47088,3.897781,-0.9252915,-0.4923606,-0.2408315,-3.624734,3.645061,-1.022346],
[-0.2473144,0.8960702,1.340742,-3.065522,-0.3659642,-2.121669,2.495319,-0.03844295,2.843305,3.486408,1.47058,0.4653406,-1.950124,3.247595,-0.1031348,3.178792,3.150652],
[-2.910676,-3.037548,0.3288937,0.2871712,-0.3948871,0.2887558,-2.445196,-0.8224762,-3.537862,1.689707,-3.100444,-1.710556,2.002325,2.997027,2.899925,3.806513,-3.832786],
[3.474251,2.514455,-0.1433807,-3.509146,1.730224,-1.635852,1.494634,-0.8500494,3.47839,-1.74719,3.916987,1.087527,-1.210505,1.168635,0.9032021,1.031462,-2.416854],
[0.2948416,3.314508,3.11522,-2.275837,2.42608,3.31777,0.2444004,0.2350503,-1.859116,1.990582,-3.025706,1.996861,-3.523647,-3.387861,-0.9284453,-3.344774,-0.1724423],
[-0.689585,-1.447297,0.4563478,-3.375689,-3.582152,0.09481105,2.212962,2.33837,-1.204152,2.867902,-0.0009320714,2.209335,-2.825465,0.2275539,0.4447354,3.58534,3.93259],
[-2.549054,1.032145,0.4300992,1.814716,-0.4172803,3.089239,2.114044,2.107505,-3.18645,-2.831027,1.497022,-0.6497475,2.296876,1.925255,0.1924343,-3.220388,3.533276],
[3.640062,3.304057,-0.6954455,3.714486,2.832908,-2.250092,3.806774,-0.5635036,-3.714814,0.1944159,0.6849468,-3.84125,1.734987,2.7822,-0.4876487,-3.783585,1.217487],
[-1.6073,-1.237565,-3.354716,3.16937,2.768959,1.080925,-2.046764,-2.610777,-0.6667143,2.143542,1.204184,3.268299,0.6923273,3.583465,3.785151,-0.03552095,3.047223],
[-2.910228,-2.930367,0.6526668,3.029331,-1.729225,2.507226,3.706773,-1.008067,2.115057,0.5369731,1.037696,1.053959,-3.090846,-3.366372,-3.607398,-3.573606,-3.890617],
[1.472067,-1.178307,-0.2353946,-0.07828258,-0.4066478,-1.736882,1.89636,-1.864778,0.04520259,-3.893452,-1.666803,1.921113,1.078716,3.578076,3.404165,-0.8152142,-2.664099],
[-1.134491,2.48498,-2.167568,2.373187,-2.810689,2.344276,2.577108,-3.12264,-0.4062538,2.9681,-2.512966,-1.588866,-2.841234,-1.874237,0.8979692,-1.299761,0.5695466],
[-1.588092,-3.250004,-0.5669615,-3.654773,0.5859395,1.81347,3.797286,1.81206,-3.182858,3.628879,3.958802,2.914481,-0.08212105,2.202049,0.616192,3.982167,0.9026272]
],
[
[-0.05453576,0.4612167,3.225916,2.558258,-1.582579,-0.07112061,-0.5287084,1.497599,2.941636,-3.225518,1.884483,-3.534507,3.966396,0.9958471,3.932407,1.61407,2.30416],
[0.3725308,-3.013077,-0.6284181,-1.982151,3.607431,-0.0291241,2.950009,2.850823,-3.011115,1.216255,1.099715,-0.2672286,1.275552,-2.313301,2.590378,2.850268,0.3668167]
]
],
"biases":[
[
2.470169,3.823466,3.613033,-1.6196,-2.877169,-3.047684,3.859089,-0.04100572,1.82399,-2.823125,1.138627,-3.363356,-3.301929,2.946497,1.5809,3.42364,0.8961695
],
[
-2.983344,-0.3252213
]
]},
{
"fitness":11.71472,
"weights":[
[
[2.31415,2.708545,-3.82391,-2.004224,-3.531452,2.339176,0.3615426,-2.787132,2.663903,-2.132184,1.823753,-2.038416,-0.1875394,-0.7078259,1.53249,-0.5480042,-1.824405],
[-2.567895,3.271781,-1.823177,1.366544,-2.000853,1.303047,-3.861282,3.297536,2.724361,2.306106,3.624719,2.282548,-2.474778,0.4948174,3.664716,-1.321817,1.82302],
[1.1298,-2.284391,-2.346531,-3.870621,-2.386049,-2.842344,1.323797,3.420148,1.665663,0.2930844,3.662296,-1.340973,2.835942,-1.419574,-3.928335,3.149204,3.533007],
[-1.858198,3.530483,-1.219125,-1.633724,-1.000376,-2.516217,2.162822,1.155173,-0.4554144,-3.672343,-2.662888,-2.251363,-0.6267154,-2.110855,-3.878001,2.427644,3.336167],
[0.1616143,-2.073514,-0.3550031,2.645075,-2.924401,-1.810771,-0.9846869,-2.682219,-3.884537,-1.47088,-0.5325475,-0.9252915,-1.335629,1.572468,-3.624734,3.645061,-1.022346],
[-0.2473144,0.8960702,1.770399,-3.065522,-3.629807,-0.9203271,2.495319,2.993583,0.5498099,3.486408,-0.6572111,0.4653406,-1.950124,3.247595,-0.1031348,-2.896762,3.150652],
[0.1354745,-3.037548,0.3288937,1.984168,-0.3948871,0.2887558,-2.445196,-0.6120586,-3.537862,1.689707,-3.100444,-1.710556,2.002325,2.997027,2.899925,3.806513,-3.832786],
[3.474251,2.514455,-0.1433807,-3.509146,1.730224,-1.635852,-0.4537629,-0.8500494,0.1150999,-1.74719,3.916987,1.087527,-1.210505,1.168635,0.9032021,-0.3920521,-2.316436],
[0.2948416,3.314508,1.124563,-2.275837,2.42608,2.811858,0.4853283,0.2350503,-1.859116,1.990582,-3.025706,1.996861,-3.523647,-3.387861,-0.9284453,-3.344774,-0.1724423],
[-1.641203,0.5355383,0.4563478,-3.375689,-3.582152,0.09481105,2.212962,3.682247,-1.204152,2.087419,-0.0009320714,2.209335,-2.825465,0.2275539,3.556978,3.58534,3.93259],
[-2.549054,2.362683,0.4300992,1.814716,-0.407076,3.089239,2.114044,1.161228,-3.18645,-2.826539,1.497022,-0.2077323,2.296876,1.925255,0.1924343,-3.118437,3.533276],
[0.6995234,1.294639,-0.6954455,3.714486,2.832908,-2.287122,3.806774,-0.5635036,-3.947401,0.1944159,-0.2047269,2.449684,1.734987,-2.990749,-3.611112,0.4715983,-0.7675126],
[-1.855377,-1.237565,-3.354716,3.16937,2.768959,2.108402,-2.046764,-2.610777,-3.904578,2.143542,2.309769,3.268299,0.6923273,3.583465,-0.410257,-0.03552095,2.860299],
[-2.910228,-2.930367,0.6526668,3.029331,-1.729225,2.756477,-0.6832041,0.2230969,2.115057,0.5369731,1.037696,1.053959,-3.090846,-3.366372,-3.607398,-3.573606,-3.890617],
[-1.089045,-1.178307,-0.2353946,-0.07828258,-0.4066478,-1.428052,0.5462321,-1.864778,-0.6722158,-3.893452,-1.666803,1.921113,1.078716,3.578076,3.404165,-0.8152142,-3.302837],
[-1.134491,2.48498,-2.167568,2.373187,-2.810689,2.344276,0.5504561,-3.12264,-0.4062538,2.9681,-2.512966,2.373828,-2.841234,-3.616524,0.8979692,3.693526,3.463604],
[2.995226,-1.491541,-0.9863119,1.953476,0.5859395,1.81347,3.797286,1.81206,0.08281331,3.628879,3.958802,2.914481,-0.08212105,2.202049,0.616192,0.7890193,0.9026272]
],
[
[-0.05453576,0.5800989,0.3302245,2.558258,-1.582579,-0.07112061,-0.5287084,-3.42319,2.941636,0.1577225,2.991735,-3.534507,3.966396,0.9958471,3.932407,1.61407,2.30416],
[0.3725308,-3.013077,-0.6284181,-1.982151,3.607431,-0.0291241,2.950009,2.850823,-3.011115,1.216255,1.099715,-0.2672286,1.275552,-2.313301,1.14805,2.850268,0.3668167]
]
],
"biases":[
[
2.470169,3.823466,3.613033,-1.6196,-2.877169,-3.047684,3.859089,0.2661587,1.82399,-2.823125,1.138627,-3.363356,-3.301929,2.946497,1.5809,3.42364,-1.898093
],
[
3.379158,-0.3252213
]
]},
{
"fitness":11.71299,
"weights":[
[
[2.31415,2.708545,-3.82391,-2.004224,-3.531452,2.339176,0.3615426,-2.787132,2.663903,-2.132184,1.823753,-2.038416,-0.1875394,-0.7078259,1.787947,-0.5480042,-1.824405],
[-2.567895,3.271781,3.265062,1.366544,-0.19343,1.303047,-3.861282,3.297536,2.724361,2.306106,3.624719,2.282548,-2.474778,0.4948174,3.664716,-1.321817,1.82302],
[1.1298,-2.284391,-2.346531,-3.870621,-2.386049,-2.842344,1.323797,3.420148,1.665663,0.2930844,3.662296,-1.340973,2.835942,-1.419574,-3.928335,3.149204,3.533007],
[-1.858198,3.530483,-1.219125,-1.633724,-1.000376,-2.516217,2.162822,1.155173,-0.4554144,-3.672343,-2.662888,-2.251363,-0.6267154,-1.692558,-3.878001,2.427644,3.336167],
[0.1616143,-2.073514,-0.3550031,2.645075,-2.924401,-1.810771,-0.9846869,-0.1905264,-3.884537,-1.47088,-0.5325475,-0.9252915,-1.335629,1.572468,-3.624734,3.645061,-1.022346],
[-0.2473144,0.8960702,1.770399,-3.065522,-3.629807,-0.9203271,-3.06757,2.993583,0.5498099,3.486408,-0.6572111,0.4653406,-1.950124,3.247595,-0.1031348,-0.8492373,3.150652],
[0.1354745,-3.037548,0.3288937,1.984168,-0.3948871,0.2887558,-2.445196,-0.6120586,-3.537862,1.689707,-3.100444,-1.710556,2.002325,2.997027,2.899925,3.806513,-3.832786],
[3.474251,2.514455,-0.1433807,-3.509146,1.730224,-1.635852,-0.4537629,-0.8500494,0.1150999,-1.74719,3.916987,1.087527,-1.210505,1.168635,0.9032021,-0.3920521,-2.316436],
[0.2948416,3.314508,1.124563,-2.275837,2.42608,2.811858,3.504551,1.79981,-1.859116,1.990582,-3.025706,1.996861,-3.523647,-3.387861,-0.9284453,-3.344774,-0.1724423],
[-1.641203,0.5355383,0.4563478,-2.823522,-3.582152,0.09481105,2.212962,3.682247,-1.204152,2.867902,-0.0009320714,2.209335,-2.825465,0.2275539,3.556978,3.58534,3.93259],
[-2.549054,2.362683,0.4300992,1.814716,-0.407076,3.089239,2.114044,3.935988,-3.18645,-2.826539,1.497022,-0.2077323,2.296876,1.925255,0.1924343,-3.118437,3.533276],
[0.6995234,-0.2725763,-0.6954455,3.714486,2.832908,-2.250092,3.806774,-0.5635036,-3.947401,0.1944159,-0.2047269,2.449684,1.734987,-0.8574365,-3.611112,0.4715983,-0.7675126],
[-1.6073,-1.237565,-3.354716,3.16937,2.768959,2.108402,-2.046764,-2.610777,-3.904578,2.143542,2.309769,3.268299,0.6923273,3.583465,-0.410257,-0.03552095,2.860299],
[-2.910228,-2.930367,0.6526668,3.029331,-1.729225,2.756477,-0.6832041,0.2230969,2.115057,0.5369731,1.037696,1.053959,-3.090846,-3.366372,-3.607398,-3.573606,-3.890617],
[-1.089045,-1.178307,-0.2353946,-0.07828258,-0.4066478,-1.428052,0.5462321,-1.864778,-0.6722158,-3.893452,-3.370556,1.921113,1.078716,3.578076,3.404165,-0.8152142,-3.302837],
[-1.134491,2.48498,3.573848,2.373187,-2.810689,2.344276,0.5504561,-3.12264,-0.4062538,2.9681,-3.352272,2.373828,-2.841234,-3.616524,0.8979692,3.693526,3.463604],
[2.995226,-1.491541,-0.9863119,1.953476,0.5859395,1.81347,3.797286,1.81206,0.08281331,3.628879,3.958802,2.914481,-0.08212105,2.202049,0.616192,0.7890193,0.9026272]
],
[
[-0.05453576,0.5800989,0.3302245,2.558258,-1.582579,-0.07112061,-0.5287084,-3.42319,2.941636,0.1577225,2.991735,2.190409,3.966396,0.9958471,3.932407,1.61407,2.30416],
[0.3725308,-3.013077,-0.6284181,-1.982151,3.607431,-0.0291241,2.950009,2.850823,-3.011115,1.216255,1.099715,-0.2672286,1.275552,-2.313301,1.14805,2.850268,0.3668167]
]
],
"biases":[
[
2.470169,3.823466,3.613033,-1.6196,-2.877169,-3.047684,3.859089,0.2661587,1.82399,-2.823125,1.138627,-3.363356,-3.301929,2.946497,1.5809,3.42364,-1.898093
],
[
3.379158,-0.3252213
]
]},
{
"fitness":11.61614,
"weights":[
[
[2.31415,2.708545,-3.82391,-2.004224,-3.531452,2.339176,0.3615426,-2.787132,2.663903,-2.132184,1.823753,-2.038416,-0.1875394,-0.7078259,1.53249,-0.5480042,-1.824405],
[-2.567895,3.271781,-1.823177,1.366544,-2.000853,1.303047,-3.861282,3.297536,2.724361,2.306106,3.624719,2.282548,-2.474778,0.4948174,3.664716,-1.321817,1.82302],
[1.1298,-2.284391,-2.346531,-3.870621,-2.386049,-2.842344,1.323797,3.420148,1.665663,0.2930844,3.662296,-1.340973,2.835942,-1.419574,-3.928335,3.149204,3.533007],
