{ "networks":
[
{
"fitness":1.859571,
"weights":[
[
[-1.738366,3.819804,3.285106,-0.5334287,2.16976,-2.219444,-2.171606,-2.805437,-2.722683,-0.4528193,-0.3212766,0.3733838,1.299233,3.716795,-0.4751117,-2.126449,1.869496,-2.011982,1.815285,-0.119169,0.2059107,0.721224,0.8373896,-3.339451,2.123839,-1.884469,0.1923655,-0.2030959,1.124954,3.504394,0.3402409,-3.511792,-2.037601],
[-2.270746,-3.774572,0.1782294,-0.8812811,0.3386625,0.2599749,-3.031281,-0.5627699,0.1855156,-1.709838,2.215887,-2.995996,1.582495,-2.63526,3.910561,-2.499237,-0.5184563,-1.038052,0.2403591,-2.400764,3.407774,0.7006202,2.740021,0.7828817,2.80179,3.388392,3.600829,-2.300288,1.439267,0.5171697,0.05064868,3.9484,-0.9962655],
[2.053475,2.446915,3.137414,-1.323981,-0.07732848,-3.471081,-1.532545,0.3836698,3.634437,2.168025,-1.968568,2.433658,2.862535,-1.171199,-0.4789518,-1.763112,1.937287,0.8556123,-1.425394,3.53592,2.161,-1.898956,0.2155975,-3.12202,-2.507725,2.044082,-1.259969,-1.805383,-1.527384,1.938712,-3.168648,-1.219187,-0.4001763],
[-1.040039,-2.826697,-3.628891,-2.031054,1.356295,3.104415,1.652174,-3.797608,-2.58565,2.030447,2.750207,-2.985308,0.6113159,-2.316465,-3.021868,-1.934847,-2.303859,1.423569,0.680749,2.888135,-2.356476,1.163972,-2.958614,0.4802887,2.544358,-2.488531,-2.616094,-0.6467667,-0.5570176,3.771673,1.019239,3.41435,1.37968],
[3.404859,3.786089,2.625753,2.966964,-0.6254709,2.864174,3.300988,-0.009155829,-3.098905,-2.72319,1.783417,3.403874,-2.186289,-3.036649,-3.173312,2.742987,-1.137171,-3.788287,-1.947802,0.39792,1.170146,-3.072521,1.883149,-1.663125,2.917283,3.558909,-1.197183,0.1540618,-2.080996,-2.604183,3.571762,2.241042,3.089721],
[-0.5848234,0.7017098,0.4197648,-2.484798,-0.4448828,0.2606332,-3.837015,-1.369274,2.695986,-1.879225,-0.6029953,-0.1125827,-0.5177264,-0.1187943,1.977268,1.528685,3.675449,3.778118,-1.485115,-0.4161558,-0.6186507,-3.495362,2.660879,-2.71636,-2.342139,2.176441,1.139201,1.483309,-0.2534047,0.5380393,2.827566,3.802817,-3.274355],
[3.983661,2.691208,1.630445,2.93698,0.5130063,-0.5683371,0.6476523,-1.951377,-1.086691,-0.3141516,-2.135903,-3.27669,-3.825585,1.912637,-3.340873,2.716424,-0.6629943,-3.864414,2.017935,-0.6817138,-2.655061,3.557955,-3.978371,2.724906,3.584677,-0.8055856,3.329669,-3.857003,-1.31095,-1.475122,-0.1151675,3.211086,-2.976798],
[2.269442,0.8081962,-3.489065,1.404224,2.374693,3.763873,0.2442918,-0.1979763,0.7621124,1.920747,3.41822,-0.723138,2.540336,-2.684888,2.374706,-0.1714881,3.50755,-3.536516,0.604831,3.061956,1.199164,-2.092746,2.342235,0.3421259,0.2483134,-3.755268,-0.3317404,1.596734,-1.81405,2.155525,1.030475,-2.47663,0.4987918],
[2.369496,1.361841,-1.333998,-1.093007,-1.227469,-1.044016,1.890071,-1.361477,-0.1685423,-0.2424104,-2.997208,2.406476,1.717999,-2.53267,2.180727,2.443218,-1.92321,0.8866167,-1.527214,-3.438123,-3.885447,0.7645865,0.6303332,2.739554,2.948904,0.6041061,-2.222553,3.837189,-1.069548,1.107489,0.2271533,-1.388581,-3.817779],
[-0.5645497,-3.226096,-2.387723,-3.670453,0.4492052,-1.015615,2.804933,2.207456,1.126675,-2.969037,3.032909,-1.367568,3.423477,-1.518897,2.614612,-2.785887,3.946593,-3.297298,2.131312,1.277543,0.1395561,3.602268,-2.95711,-1.479635,3.415815,1.11771,3.544462,-3.083767,0.5672885,3.878757,1.302058,2.646088,-3.001604],
[1.482685,-3.243419,-0.1362076,-2.45708,0.9875514,-0.7129256,-1.306896,0.9700591,3.438262,1.758193,-3.536685,0.6324179,2.535851,2.046671,-0.5733193,0.3297225,-2.557091,2.096747,2.609241,0.8294951,2.703964,0.6607786,1.295809,3.095789,0.3334689,-2.028659,1.248085,-3.398453,-3.778445,3.726527,-3.584209,2.611726,-3.401438],
[0.07691795,1.694463,-3.540473,-0.6179311,-1.841636,-3.006003,3.10848,-1.107487,-1.385527,1.831158,-0.7414904,3.814768,0.6922259,1.576913,-3.452996,0.1592237,-1.746514,-3.353621,-3.618651,3.599002,2.718521,2.795925,3.772091,-0.1446122,-3.566179,-0.7575631,0.01239882,-2.098221,-0.5398598,-2.707947,1.409565,-2.255361,-3.887474],
[2.95783,-3.521459,0.7436203,1.740826,-1.62879,0.4705274,-2.065366,1.149078,-2.845741,3.840357,0.1235809,-1.556729,1.43965,3.060068,2.949005,-0.6438184,-3.447403,-1.248543,-3.84614,1.450896,-0.4644914,1.720735,3.783935,-2.98675,3.237022,-0.1969345,0.7572578,1.201345,-3.49572,-3.949106,0.378076,-3.216752,0.7259336],
[3.835363,1.899692,-3.246678,-2.475508,1.698765,3.387868,-1.054477,-3.174239,1.427572,-3.690099,3.235678,0.7179456,2.303363,-2.519894,-2.111806,0.3627873,-1.739717,-0.5147653,-2.252723,-1.078916,1.399124,-0.9141207,-3.342458,-0.5396163,2.623768,-0.926008,-2.125462,2.454417,-0.613211,-3.785142,-0.3079413,-3.456635,-1.389332],
[0.7560702,-3.630198,-1.10386,-2.515955,3.209603,-2.070492,-2.539168,-0.3618236,2.505853,-3.038446,3.077127,0.8307839,0.03204479,0.6896687,-3.221944,-2.629635,3.249609,-2.578723,3.442154,0.6429093,0.7643404,-1.851546,2.246618,-3.965475,0.8687612,-0.75462,-1.118602,0.6783471,-2.588985,-2.427237,-1.634954,2.795231,1.418958],
[3.60563,-0.4678347,-2.787975,2.176858,-0.6082024,-3.272611,2.755567,-3.344831,2.949712,0.9662235,-1.998301,-1.980636,1.568709,-3.13827,-2.282116,-3.021616,3.190598,2.430707,-2.797933,0.02704825,3.977868,-1.981066,2.442196,-2.593915,1.125422,-0.8559467,0.5689613,3.723249,-0.8675179,1.897247,-2.03115,2.578176,0.8698025],
[2.673241,-2.544172,-0.8965689,-0.2992399,-1.933928,-3.925367,0.2764583,3.970693,-3.83983,-3.382018,3.906765,-3.77947,1.301029,-2.260486,0.08093055,-3.185572,-0.6589816,1.316167,3.999689,-0.7886294,-0.513536,-0.6068151,-0.5537373,2.423891,3.452479,1.881335,-2.678508,-1.606739,-0.6761737,2.889332,1.933679,-2.871661,-1.056752],
[-0.1441527,-1.247223,3.608027,1.360287,0.6221454,1.74292,-1.488554,3.551857,1.159892,-1.650634,-0.611539,-0.5258684,0.9837443,1.830562,1.596643,2.403094,0.7666287,3.703279,3.209724,-3.877259,-2.270764,-0.7942486,3.153466,-1.136713,1.296631,1.554766,3.739874,-2.889918,-3.496372,-1.273824,0.8522272,-3.937226,1.00208],
[3.406942,3.999842,3.167921,-3.113387,0.4805135,3.086119,0.8328041,-3.126513,-0.8407778,3.288849,0.3554956,-1.662589,-2.381725,-2.555152,-3.342562,2.6775,1.488328,-2.091738,1.753221,0.199733,3.59132,2.29919,-1.876936,2.674411,-3.058276,3.461476,-2.108666,1.403444,-0.3855239,-0.5913118,0.3401649,-0.1670678,3.046516],
[-3.22345,-3.91253,0.4341013,-1.971841,-3.643565,3.097713,-1.189161,1.504815,-0.198104,0.3280964,2.739265,2.297523,1.078951,2.041258,-2.970503,2.992098,-2.706824,3.061006,3.143158,2.609043,-0.2764317,2.199133,-1.495515,0.7045317,3.25832,-0.3004901,-3.667426,1.173242,-0.2236401,-0.08471705,-1.354166,0.8121843,-1.11886],
[-1.230498,3.052023,0.6667312,-2.102265,2.331933,-2.742204,2.264374,0.8216252,-0.2318522,-1.505009,-2.597406,0.7017106,-1.465509,3.83345,-2.840117,-0.2486823,3.522866,1.602528,-3.914741,1.144502,-2.74985,0.307748,3.168936,-3.455111,3.945652,-2.08316,-3.221081,2.8959,-0.8181716,-1.736032,-0.9747203,-2.764402,-0.2151046],
[-0.2804223,-2.855022,3.219434,0.1212619,-0.4880454,2.512636,0.8293069,-2.012913,-0.5773729,-2.27347,-1.372816,-2.203105,2.483747,-3.202006,-2.561405,-2.085659,0.8527774,0.3774824,-1.238803,-0.3104165,-1.542449,3.52065,2.413841,-2.465528,-2.552233,3.767804,-2.534958,-0.4243582,2.687259,-1.082106,-2.505157,-2.904173,-1.765787],
[-2.92922,-3.741417,-3.925027,1.465479,2.914232,1.047944,2.251404,2.266511,2.399754,2.993855,2.482518,1.587451,-1.86037,-2.543697,-0.4760783,-1.58518,-1.342103,1.637991,-2.933007,1.67678,-3.120302,0.2529198,-3.666169,2.472883,0.8543304,2.59708,0.06725431,-2.545151,-3.169193,-2.184741,-2.301556,-1.467703,3.662337],
[-0.6084109,-1.27401,2.0514,2.271962,-2.653551,-0.1760076,-3.053522,0.2320013,-0.8990651,-2.376266,1.853849,2.062288,2.179804,-3.208095,1.161054,-0.2898426,0.2024145,-0.7352915,2.624794,3.037956,-0.04483803,0.08643126,-3.719953,1.684222,-3.960432,-0.07625677,3.769129,-1.913134,-0.04196434,2.1678,3.473519,3.237945,-1.538857],
[1.266889,3.1001,-3.395708,-2.798422,-2.186406,-3.385151,3.254866,0.9417488,-3.556374,0.7999463,-0.945597,3.953434,-1.485916,3.372194,-1.879802,3.494799,-2.888347,0.9367241,-1.66748,-2.135897,-2.688995,-2.471014,-1.840618,-1.848183,0.5486069,3.740493,-0.4847483,-1.532748,-2.923976,2.303991,3.037116,3.871546,1.921686],
[3.532799,-1.083459,1.048271,3.794809,-2.246682,-0.4735246,2.74316,-3.995994,0.3776715,3.063365,-2.5075,-0.445715,-0.3248541,-3.194355,-3.524557,1.385864,1.197007,-3.950945,-1.540409,2.138805,0.5698867,2.219519,0.8895007,3.376727,3.584052,2.188148,-3.209828,2.428212,-3.649125,-3.877561,2.084703,-0.271382,1.16405],
[-1.340819,2.771218,1.818129,3.508455,2.686761,0.9316185,-2.231889,-0.4267663,-3.163885,0.5593325,2.816432,-0.8457267,1.507542,-1.666399,-2.103315,1.497374,3.141764,-3.215364,3.138439,-2.65782,-1.635854,-2.949497,2.065693,-3.324703,3.287574,2.789268,-1.843419,2.768122,0.1917418,3.079286,-3.431772,2.862067,-3.127261],
[2.643791,-3.400343,-3.808329,0.7371546,-1.458467,3.35814,2.702676,-1.330546,-3.874385,2.604957,3.158889,-1.731268,-2.121341,0.7873955,-0.3877349,-1.320403,-2.522343,1.309823,-2.716825,1.993194,2.194873,-1.874114,0.3614327,2.770932,3.291671,0.1434101,0.3200656,1.175481,-0.1557069,1.621876,0.6147328,-0.696526,3.50673],
[-1.243779,0.2666757,2.214647,1.80374,-0.5907509,-1.056183,-2.475092,-2.163199,1.919224,-3.252691,-3.781944,-1.618293,3.448814,-3.463188,1.87279,-3.398025,-0.9207699,2.313757,-3.738596,3.700763,0.8056257,1.781594,1.828475,-1.166152,-0.2753811,-3.01452,-0.6494162,-2.269546,0.5494564,-3.419399,2.937076,-2.24572,-2.006994],
[-2.009577,0.5262218,-3.092241,-1.945968,2.355637,3.982675,0.4832425,1.853839,-2.160999,-0.8032573,0.8404053,-1.841888,0.9864326,0.1882572,3.890908,1.969533,-1.97294,-1.37601,-3.017436,0.1972003,2.714904,3.914804,0.5724449,-3.110141,-2.420316,0.9484486,-2.164034,-3.681007,3.809735,2.780128,2.888011,0.9234601,-3.79195],
[0.07612082,2.541677,-1.207804,2.045128,1.169141,0.5598496,2.376511,0.8381565,-0.1900603,-0.3524683,1.200553,-3.834196,1.608284,0.5200096,-1.752157,2.676112,3.972282,2.571075,3.800372,0.01630678,-1.782111,-2.913716,3.957242,2.810948,1.013479,-0.2573393,1.685302,1.36833,0.01945097,-0.3414186,0.1964445,-0.04547199,-2.784048],
[-1.038504,3.061864,-1.376521,3.973029,-2.691548,1.75123,3.307273,3.159183,2.30742,0.8000867,3.679402,2.553229,3.524065,-2.231948,-1.832622,-3.547177,2.549958,2.027147,3.698288,-0.6440433,-3.358696,-3.572478,-3.51698,-3.286376,-1.152582,-1.332486,-1.707823,3.52728,-1.908256,-3.694292,-2.800091,1.888671,1.200512],
[-3.591603,-2.80198,-1.030915,-1.58476,0.4355824,-1.095069,-0.1954381,2.714089,-2.799672,-3.795734,-0.2356759,3.686751,3.512296,-2.983299,2.123573,-0.5473059,-2.605685,-0.4323375,0.8480191,1.498079,-3.637975,0.5089577,-0.2951152,-0.6771743,2.32502,0.7050159,0.6730642,2.32176,0.6829786,-2.377733,1.587304,-2.750057,1.932284]
],
[
[1.628074,1.928386,1.870768,-1.115027,3.890861,3.835497,2.969784,2.824379,3.480457,-3.145064,2.75232,-0.9468919,2.726518,3.477093,-3.76767,-2.452881,3.578796,-0.7948633,-0.6243777,-2.37351,-2.095676,-0.4494382,-2.375152,2.474404,3.665965,1.261716,2.637631,3.269176,-1.038366,2.898396,1.347211,2.472987,-0.174878],
[-2.069587,-2.328146,-2.863968,3.49759,-2.561231,2.219435,-3.553376,-0.6843625,3.480572,3.850982,3.363726,-3.490812,0.6558889,-3.75844,0.9676256,-1.901283,-1.071312,-3.43437,-0.1538082,3.775802,-3.248266,-0.3958601,0.8045784,-2.245758,3.70207,-3.661962,-3.851626,3.501993,-2.283075,3.307909,-2.932121,-1.096176,1.024567]
]
],
"biases":[
[
-1.665383,1.711619,2.977915,2.119529,-0.6593308,3.963227,-1.682639,3.87562,2.496295,0.8343115,0.673637,-0.9767005,-0.0888046,0.6967561,1.165271,-3.95273,2.295101,-3.265152,1.667422,-0.4712221,3.470505,3.06284,-3.009807,0.4139915,2.859061,-0.1629816,3.765651,1.807262,2.196317,-0.522894,2.881643,3.751305,-1.148473
],
[
-3.521348,3.779681
]
]},
{
"fitness":1.411143,
"weights":[
[
[-1.738366,3.819804,3.285106,-0.5334287,2.16976,-2.219444,-2.171606,-2.805437,-2.722683,-0.4528193,-0.3212766,0.3733838,-1.022988,3.716795,-0.4751117,-2.936502,1.869496,-2.011982,1.815285,-0.119169,0.2059107,0.721224,0.8373896,-3.339451,2.123839,-1.884469,0.1923655,-0.2030959,1.124954,3.504394,0.3402409,-3.511792,-2.037601],
[-2.270746,-3.774572,-0.8376256,-0.8812811,0.3386625,0.2599749,-3.031281,-0.5627699,0.1855156,-1.709838,2.215887,-2.995996,1.582495,-2.63526,3.910561,-2.499237,-0.5184563,-1.038052,0.2403591,-2.400764,3.407774,0.7006202,2.740021,0.7828817,2.80179,3.388392,3.600829,1.275923,1.439267,0.5171697,0.05064868,3.9484,-0.9962655],
[2.053475,2.446915,3.137414,-1.323981,-0.07732848,-3.471081,-1.532545,-2.342881,3.634437,2.168025,-1.968568,2.433658,2.862535,-1.171199,-0.4789518,-1.763112,1.937287,-2.251801,-1.425394,3.53592,2.161,-1.898956,0.2155975,-3.12202,-2.507725,2.044082,-1.259969,-1.805383,-1.527384,1.938712,-3.168648,3.176066,-0.4001763],
[-1.040039,-2.826697,-3.628891,-1.932861,1.356295,3.104415,1.392773,-3.797608,-2.58565,2.030447,2.750207,-2.985308,0.3372135,-2.316465,-3.021868,-3.604859,-2.303859,1.423569,-3.818507,2.888135,-2.356476,1.163972,-2.958614,0.4802887,-3.666774,-2.488531,-2.616094,-0.6467667,2.964026,3.771673,1.019239,3.41435,1.37968],
[3.404859,3.786089,2.625753,-0.8233101,-0.6254709,2.864174,3.300988,-0.009155829,-3.098905,-2.696178,1.783417,3.403874,-2.186289,-3.036649,-3.173312,2.800987,-1.137171,-3.788287,-1.947802,0.5295448,1.170146,0.9570978,1.883149,-1.663125,2.917283,1.076742,-1.197183,0.1540618,-2.080996,-2.604183,3.571762,2.241042,3.089721],
[-0.5848234,0.7017098,0.4197648,-2.484798,0.8284883,0.2606332,-3.837015,-1.369274,2.695986,-1.879225,-0.6029953,-0.1125827,-0.5177264,-0.1187943,1.977268,0.5140324,3.675449,3.778118,-1.485115,-0.4161558,-0.6186507,-3.495362,2.660879,-2.71636,-2.342139,-0.6545601,1.139201,1.483309,-0.2534047,0.5380393,2.827566,-0.3730284,-3.274355],
[3.983661,2.691208,1.630445,2.93698,0.5130063,-0.5683371,0.6476523,-1.951377,-1.086691,-0.3141516,-2.135903,-3.27669,-3.303265,1.912637,0.2742796,2.716424,-0.6629943,-3.864414,2.017935,-0.6817138,-2.848434,3.557955,-3.978371,2.724906,-0.9270143,-0.8055856,-2.616831,-3.562943,-1.31095,-1.475122,2.531357,3.211086,-2.976798],
[1.363,0.8081962,-3.489065,1.404224,2.374693,3.763873,0.2442918,-0.1979763,0.7621124,1.920747,3.41822,-0.723138,2.540336,-2.550911,2.374706,-0.1714881,3.50755,-3.536516,0.604831,-0.489565,-2.618607,-2.092746,2.342235,0.3421259,0.2483134,-3.755268,-0.3317404,1.596734,-1.81405,2.155525,1.030475,-2.47663,0.4987918],
[2.369496,-1.390033,-1.333998,-1.093007,-1.227469,-1.044016,1.890071,-1.361477,-0.1685423,-0.2424104,-2.997208,2.406476,1.717999,-2.53267,2.180727,2.443218,-1.92321,0.8866167,-1.527214,-3.438123,-3.885447,0.7645865,3.097442,2.739554,-1.790655,0.6041061,-2.222553,3.837189,-1.069548,1.043825,0.2271533,-1.388581,-3.817779],
[-0.5645497,-3.226096,-2.387723,-3.670453,0.4492052,-1.076183,-3.222527,2.207456,1.126675,-2.969037,3.032909,-1.367568,3.423477,2.28898,2.614612,-1.024421,-1.581056,-3.297298,2.131312,1.277543,0.1395561,3.602268,2.712566,-1.479635,3.415815,1.11771,-3.896523,-0.6920229,0.5672885,3.878757,1.302058,2.646088,-3.001604],
[1.482685,-3.243419,-0.1362076,-2.45708,-0.006103946,0.9856755,-1.306896,0.9700591,3.438262,1.758193,-3.536685,0.6324179,2.535851,2.046671,-0.5733193,0.3297225,-2.557091,2.096747,2.609241,0.8294951,2.703964,0.6607786,1.295809,-1.225888,0.3334689,-2.028659,1.248085,-3.398453,-3.778445,3.726527,2.294415,2.611726,-3.401438],
[0.07691795,1.694463,-3.540473,-0.6179311,-1.841636,-3.006003,3.10848,-1.107487,1.334049,1.831158,-0.7414904,3.814768,0.6922259,1.576913,-3.452996,0.1592237,-1.746514,-3.353621,-3.618651,3.599002,2.718521,2.795925,3.772091,-0.1446122,-3.566179,-3.758873,0.01239882,-2.098221,-0.5398598,-2.707947,1.409565,-2.255361,-3.887474],
[2.95783,-3.521459,0.7436203,1.740826,-1.62879,0.4705274,-2.065366,1.149078,-2.845741,3.840357,0.1235809,-1.556729,1.43965,3.060068,2.949005,-0.6438184,-3.447403,-1.248543,-3.84614,1.450896,-0.4644914,1.720735,3.783935,-2.98675,3.237022,-0.2033785,0.7572578,1.201345,2.653275,-3.949106,0.378076,-3.216752,0.7259336],
[3.835363,1.899692,-3.246678,-2.475508,1.698765,3.387868,-1.054477,-3.174239,1.427572,-3.690099,3.235678,0.7179456,2.303363,-2.519894,-2.111806,0.3627873,-1.739717,-0.5147653,0.709293,-1.078916,1.399124,-0.9141207,-3.342458,2.497654,2.623768,-0.926008,-2.125462,2.454417,-0.613211,-3.785142,-0.3079413,-3.456635,-3.059636],
[0.7560702,-3.630198,-1.10386,-2.515955,3.209603,-2.070492,-2.539168,-0.3618236,2.505853,-3.038446,3.077127,-0.09669046,0.03204479,1.590089,-2.235123,-2.629635,3.249609,1.514508,3.442154,0.6429093,0.7643404,-1.851546,2.246618,-3.965475,0.8687612,-0.75462,-1.118602,0.6783471,-2.588985,-2.276455,-1.634954,-1.797693,1.418958],
[3.60563,-0.4678347,-2.787975,2.176858,-0.6082024,-3.272611,2.87977,-3.344831,2.949712,0.9662235,-1.998301,-1.980636,-0.433055,-3.13827,-2.282116,-3.021616,3.190598,1.841227,-2.797933,0.02704825,3.977868,-1.981066,2.442196,-2.593915,-0.6545036,-0.8559467,0.5689613,3.723249,-0.8675179,1.897247,-2.03115,2.578176,0.8698025],
[2.673241,-2.544172,-0.8965689,-0.2992399,-1.933928,-3.925367,0.2764583,3.970693,2.690727,-3.382018,3.906765,-3.77947,1.301029,-2.260486,0.08093055,-3.185572,-0.6589816,1.316167,3.999689,-0.7886294,-0.513536,-0.6068151,-0.5537373,2.423891,3.452479,1.881335,-2.678508,-1.606739,-0.6761737,2.889332,1.933679,-2.871661,-1.056752],
[-0.1441527,-1.247223,3.608027,-0.1967786,2.791176,1.74292,-1.488554,3.551857,1.159892,-1.650634,-2.632309,-0.5258684,0.9837443,1.830562,1.596643,2.403094,0.7666287,3.703279,3.209724,-3.877259,-2.589709,2.287658,1.71574,-1.136713,1.296631,-0.95353,0.9559083,-2.889918,-3.496372,-1.273824,0.8522272,-3.937226,1.00208],
[3.406942,3.999842,3.167921,-3.485487,0.4805135,3.086119,0.8328041,-3.126513,-0.8407778,3.288849,2.335725,-1.662589,-2.381725,-2.555152,-3.342562,2.6775,1.488328,-2.091738,1.753221,0.199733,3.59132,2.29919,-1.876936,-2.491395,-3.058276,3.461476,-2.108666,1.403444,-0.3855239,-1.657305,0.3401649,-0.1670678,3.046516],
[-3.22345,-3.91253,0.4341013,-1.971841,-3.643565,3.097713,-1.189161,1.504815,-0.198104,0.3280964,2.739265,-3.415311,1.078951,2.041258,-2.970503,-0.1124052,-2.706824,3.061006,-3.494852,2.609043,-0.2764317,2.199133,-2.227979,0.7045317,3.25832,-0.3004901,-3.667426,1.173242,-0.2236401,-0.08471705,-2.735118,0.8121843,-1.11886],
[-1.846197,3.052023,0.6667312,-2.102265,2.331933,-2.742204,2.264374,0.8216252,-0.2318522,-1.505009,-2.597406,0.7017106,-1.465509,3.83345,-2.840117,-0.2486823,3.522866,-0.3339963,-3.914741,1.144502,-2.74985,0.307748,3.168936,-3.455111,3.945652,-2.08316,-2.504072,2.8959,3.204703,-1.736032,-0.9747203,-2.764402,-0.2151046],
[-0.2804223,-2.855022,3.219434,0.1212619,-0.4880454,1.060913,0.8293069,-2.012913,-0.5773729,-2.27347,-1.372816,-2.203105,2.483747,-3.202006,-2.561405,-2.085659,0.8527774,0.3774824,-1.238803,-0.3104165,-1.542449,3.52065,2.413841,-2.465528,-2.552233,3.767804,-2.534958,-0.4243582,2.687259,-1.082106,-1.852891,-2.904173,0.3238107],
[-2.92922,-3.741417,-3.925027,1.465479,2.914232,1.047944,2.251404,2.266511,2.399754,-2.870666,2.482518,1.587451,-1.86037,-2.543697,-0.4760783,-3.114919,-1.342103,1.637991,-2.933007,1.67678,-3.120302,0.2529198,-3.666169,1.020486,2.181911,2.59708,0.06725431,-2.545151,-3.169193,-2.184741,-2.301556,1.729992,3.662337],
[-0.6084109,-1.27401,2.0514,-3.553879,-0.534497,-0.1760076,-3.053522,0.2320013,-0.8990651,-2.376266,1.853849,2.062288,2.179804,-3.208095,1.161054,-2.802275,0.2024145,-0.7352915,2.624794,3.037956,-0.04483803,-3.519693,-3.719953,1.684222,-3.960432,-0.07625677,3.769129,-1.913134,3.870851,1.34036,3.473519,3.237945,-1.538857],
[-2.5639,3.1001,-3.395708,-2.798422,3.918893,-3.385151,3.254866,0.9417488,-3.556374,0.7999463,-0.945597,3.953434,-1.485916,3.372194,-1.879802,3.494799,-2.888347,0.9367241,-1.66748,-2.135897,-2.688995,-2.471014,-1.840618,-1.848183,0.5486069,3.740493,-0.4847483,-1.532748,-2.923976,2.303991,3.037116,3.871546,1.921686],
[3.532799,-1.083459,1.048271,3.794809,-2.246682,-0.4735246,2.74316,-3.995994,0.3776715,3.063365,-2.5075,-0.445715,-0.3248541,-3.194355,-3.524557,1.385864,1.197007,-3.950945,-1.540409,2.138805,0.5698867,2.219519,0.8895007,3.376727,3.584052,2.188148,-3.209828,2.428212,1.125344,-3.877561,2.084703,-0.271382,1.16405],
[3.694231,2.771218,1.818129,3.508455,3.987408,0.9316185,-2.231889,-0.4267663,-3.163885,0.5593325,2.816432,-0.8457267,1.507542,-1.666399,-0.756942,1.497374,3.141764,-3.215364,3.138439,-2.65782,-1.635854,-2.949497,2.065693,-3.324703,3.287574,2.789268,-1.843419,2.768122,0.1917418,3.079286,-3.431772,-3.40836,-3.127261],
[2.643791,-3.400343,-3.808329,0.7371546,3.397026,3.35814,2.702676,-1.330546,-3.874385,2.604957,3.158889,-1.731268,-2.121341,0.7873955,2.38165,-1.320403,-2.522343,1.309823,-2.716825,1.993194,2.194873,-1.874114,0.3614327,2.770932,3.291671,0.1434101,0.3200656,1.175481,2.905325,1.621876,-0.4096217,-0.696526,3.50673],
[-1.243779,0.2666757,-3.091142,1.80374,-0.5907509,-1.056183,-2.475092,-2.163199,1.919224,-3.252691,-3.781944,-1.618293,-1.598432,-3.463188,1.87279,-3.398025,-0.9207699,2.313757,-3.738596,3.700763,0.8056257,1.781594,1.828475,-1.166152,-1.230805,-3.01452,2.794572,-2.269546,0.5494564,-3.104644,2.937076,-2.24572,-2.006994],
[-2.009577,0.5262218,-3.092241,-1.945968,2.355637,3.982675,0.4832425,1.853839,-2.160999,-0.8032573,0.8404053,-1.841888,0.9864326,0.1882572,3.890908,1.969533,-1.97294,-1.37601,-1.831491,0.1972003,2.714904,0.3429011,0.5724449,-2.440401,-2.420316,0.9484486,-2.164034,-3.681007,3.809735,2.780128,2.888011,0.9234601,0.4764786],
[1.672569,2.541677,-1.207804,2.045128,1.169141,0.5598496,2.376511,0.8381565,-0.1900603,-0.3524683,1.200553,-3.834196,1.608284,0.5200096,-1.752157,2.676112,0.9857715,2.571075,3.800372,0.01630678,-1.782111,-2.913716,3.957242,-3.805643,0.6967035,-0.2573393,1.685302,1.36833,0.01945097,-0.3414186,0.1964445,-0.04547199,-2.784048],
[-1.038504,3.061864,-1.376521,1.332151,-2.691548,-2.155719,3.307273,3.159183,-2.916796,0.8000867,3.679402,2.553229,3.524065,-2.231948,-1.832622,3.837421,0.01621067,2.027147,3.698288,3.767105,-3.358696,-0.3113291,-3.51698,-3.286376,-1.152582,-1.332486,-1.707823,3.52728,-1.908256,-3.694292,-2.800091,1.888671,1.200512],
[-3.591603,-2.80198,3.856348,-1.58476,0.2455475,-1.095069,-0.1954381,2.714089,-2.799672,-1.178847,-0.2356759,3.686751,-2.935516,3.940908,2.123573,-0.5473059,-2.605685,-0.4323375,0.8480191,1.498079,-3.637975,0.5089577,-0.3142662,-0.6771743,2.32502,0.7050159,0.6730642,2.32176,0.6829786,-2.377733,1.587304,-2.750057,1.932284]
],
[
[1.628074,1.928386,1.870768,-1.115027,3.890861,-3.351911,2.969784,2.824379,3.480457,-3.145064,2.75232,2.192558,2.726518,3.477093,-3.76767,-2.452881,3.578796,-0.7948633,-0.6243777,-2.37351,-2.095676,-0.4494382,-2.375152,2.474404,3.665965,1.261716,2.637631,3.269176,-1.038366,2.898396,-2.467404,2.472987,-0.174878],
[-2.069587,-0.1509858,-2.863968,3.49759,-3.167747,2.219435,-3.553376,-0.6843625,3.480572,3.850982,3.363726,-3.490812,0.6558889,-3.75844,0.9676256,-1.901283,-1.071312,-2.30612,-0.1538082,3.775802,-3.248266,-0.3958601,0.8045784,-2.245758,3.70207,-3.661962,-3.851626,3.501993,-2.283075,3.307909,-2.932121,-1.096176,1.024567]
]
],
"biases":[
[
-1.665383,1.711619,2.977915,2.119529,-0.6593308,3.963227,-1.682639,3.87562,2.496295,0.8343115,0.673637,-0.9767005,-0.0888046,0.6967561,1.165271,-3.95273,2.295101,-3.265152,1.667422,-0.4712221,3.470505,3.06284,-3.009807,0.4139915,2.859061,-0.1629816,3.765651,-1.930507,2.196317,-0.522894,2.881643,3.751305,-1.148473
],
[
-3.521348,3.779681
]
]},
{
"fitness":1.227784,
"weights":[
[
[-1.738366,1.251377,3.285106,-0.5334287,2.16976,-2.219444,-2.171606,-2.805437,-2.722683,-0.4528193,-0.3212766,0.3733838,-1.022988,3.716795,-0.4751117,-2.936502,1.869496,-2.011982,1.815285,-0.119169,0.2059107,0.721224,0.8373896,-3.339451,2.123839,-1.884469,0.1923655,-0.2030959,1.124954,3.504394,0.3402409,-3.511792,-2.037601],
[-2.270746,-3.774572,-0.8376256,-2.64014,0.3386625,0.2599749,-3.031281,-0.5627699,0.1855156,-1.709838,2.215887,-2.995996,1.582495,-2.63526,0.7465335,-2.499237,-0.9194614,-1.038052,0.2403591,-2.400764,3.407774,-1.254452,2.740021,0.7828817,2.80179,3.388392,3.600829,1.275923,1.439267,0.5171697,0.05064868,3.9484,-0.9962655],
[2.053475,-2.28551,3.137414,-1.323981,-0.07732848,-3.471081,-1.532545,0.3836698,3.634437,2.168025,-1.968568,2.433658,2.862535,-3.973273,-0.4789518,-1.763112,1.937287,-2.251801,-1.425394,3.53592,2.161,-1.898956,0.2155975,-3.12202,-2.507725,2.044082,-1.259969,-1.805383,-1.527384,1.938712,-3.168648,3.176066,-0.4001763],
[-1.040039,-2.826697,-3.628891,-0.5462989,1.356295,3.104415,1.392773,-3.797608,-2.58565,2.030447,2.750207,-2.985308,0.3372135,-2.316465,-3.021868,-0.1623624,-2.303859,1.423569,-3.818507,2.888135,-2.356476,1.163972,-2.958614,0.4802887,-3.666774,-2.488531,-2.616094,3.067683,2.964026,3.771673,1.019239,3.41435,-2.762413],
[3.404859,3.786089,2.625753,-0.8233101,-0.6254709,2.864174,3.300988,-0.009155829,-3.098905,-2.696178,1.783417,3.403874,-2.186289,-3.036649,-3.173312,2.800987,-1.137171,-3.788287,-1.947802,0.5295448,1.170146,0.9570978,1.883149,-1.663125,2.917283,1.076742,-1.197183,0.1540618,-2.080996,-2.604183,3.571762,2.241042,3.089721],
[-0.5848234,0.7017098,0.4197648,-2.484798,0.8284883,0.2606332,-3.837015,-1.369274,2.695986,-1.879225,-0.6029953,-0.1125827,-0.5177264,-0.1187943,1.977268,0.5140324,3.675449,3.778118,-3.27955,-0.4161558,-0.6186507,-3.495362,2.36409,-2.71636,-2.342139,-0.6545601,1.139201,1.483309,-0.2534047,0.5380393,2.827566,-0.3730284,-3.274355],
[3.983661,2.691208,1.630445,1.585712,0.5130063,-0.5683371,0.6476523,-1.951377,-1.086691,-0.3141516,-2.135903,-3.27669,-3.303265,1.912637,0.2742796,2.716424,-0.6629943,-3.864414,2.017935,-0.6817138,-2.655061,3.557955,-3.978371,2.724906,3.584677,3.162127,-2.616831,-3.562943,-1.31095,-1.475122,2.531357,3.211086,-2.976798],
[1.363,0.8081962,-3.489065,1.404224,2.374693,3.763873,0.2442918,-0.1979763,0.7621124,2.659685,3.41822,-0.723138,2.540336,-2.550911,2.374706,-0.1714881,3.50755,-3.536516,0.604831,-0.489565,-2.618607,-2.092746,2.342235,0.3421259,0.2483134,-3.755268,-0.3317404,2.987942,-1.81405,2.155525,1.030475,3.321108,0.4987918],
[2.369496,-1.390033,-1.333998,-1.093007,-1.227469,-1.044016,1.890071,-1.361477,-0.1685423,-0.2424104,-2.997208,2.406476,1.717999,-2.53267,2.180727,2.443218,-1.92321,0.8866167,-1.527214,-3.438123,-3.885447,0.7645865,3.097442,2.739554,2.948904,0.6041061,-2.222553,3.837189,-1.069548,1.043825,0.2271533,-1.388581,-3.817779],
[-0.5645497,-3.226096,1.934926,-3.670453,0.4492052,-1.015615,-3.222527,2.207456,1.126675,-2.969037,3.032909,-1.367568,3.423477,2.28898,2.614612,2.023297,-1.581056,-3.297298,2.131312,1.277543,0.1395561,3.602268,2.712566,-1.479635,3.415815,1.11771,-3.896523,-3.083767,0.5672885,2.396321,1.302058,2.646088,-3.001604],
[3.430922,-3.243419,-0.1362076,-2.45708,-0.006103946,0.9856755,-1.306896,0.9700591,3.438262,1.758193,-3.536685,0.6324179,2.535851,2.046671,-0.5733193,0.3297225,-2.880179,2.096747,2.609241,0.8294951,2.703964,0.6607786,1.295809,-1.225888,0.3334689,-2.028659,1.248085,-1.182181,-3.778445,3.726527,2.294415,2.611726,-3.401438],
[0.07691795,2.035002,-3.540473,-0.6179311,-1.841636,-3.006003,3.10848,-1.107487,1.334049,1.831158,-0.7414904,3.814768,0.6922259,1.576913,-3.452996,0.1592237,-1.746514,-3.353621,-3.618651,3.599002,2.718521,2.938477,3.772091,-0.1446122,2.027372,-3.758873,0.01239882,-2.098221,-0.5398598,-3.721896,1.409565,-2.255361,3.12496],
[2.95783,-3.521459,0.7436203,1.740826,-1.62879,0.4705274,-2.065366,1.149078,-2.845741,3.840357,0.1235809,-1.556729,1.43965,3.060068,2.949005,-0.6438184,-3.447403,-1.248543,-3.84614,1.450896,-0.4644914,1.720735,3.783935,-2.98675,3.237022,-0.2033785,1.044891,1.201345,2.653275,-3.949106,0.378076,-3.216752,0.7259336],
[3.835363,1.899692,-3.246678,2.989876,1.698765,3.387868,-1.054477,-3.174239,1.427572,-3.690099,3.235678,0.7179456,2.303363,-2.519894,-2.111806,0.3627873,-1.739717,-0.5147653,0.709293,-1.078916,1.399124,-0.9141207,-3.342458,2.497654,2.623768,-0.926008,-2.125462,2.454417,-0.613211,-3.785142,-0.3079413,-3.456635,-3.059636],
[0.7560702,-3.630198,-1.10386,-2.515955,3.209603,-2.070492,-2.539168,-0.3618236,2.505853,-3.038446,3.077127,-0.09669046,0.03204479,1.590089,-2.235123,-2.629635,3.249609,-2.578723,3.442154,0.6429093,0.7643404,-1.851546,2.246618,-3.965475,0.8687612,-0.75462,-1.118602,0.6879497,1.315673,-2.276455,-1.634954,-1.797693,1.418958],
[3.60563,-0.4678347,-2.787975,2.176858,-0.6082024,1.264778,2.755567,-3.344831,2.949712,0.9662235,-1.998301,-1.980636,-0.433055,-3.13827,-2.282116,-3.021616,3.190598,1.841227,-2.797933,0.02704825,3.977868,-1.981066,2.442196,-2.593915,-0.6545036,3.884414,-2.560161,2.188529,-0.8675179,1.897247,1.19776,2.578176,0.8698025],
[2.673241,-2.544172,-0.8965689,-0.2992399,-1.933928,-3.925367,0.2764583,3.970693,2.690727,-3.382018,3.906765,-3.77947,1.301029,-2.260486,0.08093055,-3.185572,-0.6589816,1.316167,3.999689,-0.7886294,1.572683,-0.6068151,-0.5537373,2.423891,3.452479,1.881335,-2.678508,-1.606739,-0.6761737,2.889332,1.933679,-2.871661,-1.056752],
[-0.1441527,-1.247223,3.608027,-0.1967786,2.791176,1.74292,-1.488554,3.551857,1.159892,-1.650634,-0.611539,-0.5258684,0.9837443,1.830562,1.596643,-3.37321,0.7666287,3.703279,3.209724,-3.877259,-2.589709,2.287658,1.71574,-1.136713,1.296631,-0.95353,0.9559083,-2.889918,0.1255038,-1.273824,0.8522272,-3.937226,1.00208],
[3.406942,3.999842,3.167921,-3.485487,0.4805135,3.086119,0.8328041,-3.126513,-0.8407778,3.288849,2.335725,-1.662589,-2.381725,-2.555152,-3.342562,2.6775,1.488328,-2.091738,1.753221,0.199733,3.59132,2.29919,-1.876936,-2.491395,-3.058276,3.461476,-2.108666,1.403444,-0.3855239,-0.5913118,0.3401649,-0.1670678,3.046516],
[2.733147,-3.91253,0.4341013,-1.971841,-3.643565,3.097713,-1.189161,1.504815,-0.198104,0.3280964,2.739265,-3.415311,1.078951,2.041258,-2.970503,-0.1124052,-2.706824,3.061006,-3.494852,2.609043,-0.2764317,2.199133,-2.227979,0.7045317,3.25832,-0.7132928,-3.667426,1.173242,-0.2236401,3.003246,-2.735118,0.8121843,-1.11886],
[-1.846197,3.052023,0.6667312,-2.102265,2.331933,-2.742204,2.264374,0.8216252,-0.2318522,-1.505009,-2.597406,0.7017106,-1.465509,3.83345,-2.840117,-0.2486823,3.522866,-0.3339963,-3.914741,1.144502,-2.74985,0.307748,3.168936,-3.455111,3.945652,-2.08316,-2.504072,2.8959,3.204703,-1.736032,-0.9747203,-2.764402,-0.2151046],
[-0.2804223,-2.855022,3.219434,0.1212619,-0.4880454,1.060913,0.8293069,-2.012913,-0.5773729,-0.1097467,-1.372816,-2.203105,2.483747,-3.202006,-2.561405,-3.902193,0.8527774,0.3774824,-1.238803,-0.3104165,-1.542449,3.52065,2.413841,-2.465528,-2.552233,3.767804,-2.534958,-0.4243582,2.687259,-1.082106,-1.852891,-2.904173,0.3238107],
[-2.92922,-3.741417,-3.925027,1.465479,2.914232,1.047944,2.251404,-0.7974224,3.832146,-2.870666,2.482518,1.587451,-1.86037,-2.543697,-0.4760783,-3.114919,-1.342103,1.637991,-2.933007,1.67678,-3.120302,0.2529198,-3.666169,1.020486,2.181911,2.59708,0.06725431,-2.545151,-3.169193,-2.184741,-2.301556,3.155216,3.662337],
[-0.6084109,-1.27401,2.659443,-3.553879,-0.534497,-0.1760076,-3.053522,0.2320013,1.954008,-2.376266,1.853849,2.062288,2.179804,-3.208095,-3.99746,-2.802275,0.2024145,-0.7352915,2.624794,3.037956,-0.04483803,-3.519693,-3.719953,1.684222,-3.960432,-0.07625677,3.769129,-1.913134,3.870851,1.34036,3.473519,3.237945,-1.538857],
[-2.5639,3.1001,-3.395708,-2.798422,3.918893,-3.385151,3.254866,0.9417488,-3.556374,0.7999463,-0.945597,3.953434,-1.485916,3.372194,-1.879802,3.494799,-2.888347,0.9367241,-1.66748,-2.135897,-2.688995,-2.471014,-1.840618,-1.848183,0.5486069,3.740493,-0.4847483,-1.532748,3.774208,2.303991,3.037116,3.871546,1.921686],
[3.532799,-1.083459,1.048271,3.794809,-2.246682,-0.4735246,2.74316,-3.995994,0.3776715,3.063365,-2.5075,-0.445715,-0.4031831,-3.194355,-3.524557,1.385864,1.197007,-3.950945,-1.540409,2.138805,0.5698867,2.219519,0.8895007,3.376727,3.584052,2.188148,3.228132,2.428212,-3.649125,-3.877561,2.084703,-0.271382,1.16405],
[3.694231,2.771218,1.818129,0.2562637,3.987408,0.9316185,-3.805841,-0.4267663,-3.163885,0.5593325,2.816432,-0.8457267,1.507542,-1.666399,3.141371,1.497374,3.141764,-3.215364,3.138439,-2.65782,-1.635854,-2.949497,2.065693,-3.324703,3.287574,2.789268,-1.843419,2.768122,0.1917418,3.079286,-3.431772,-3.40836,-3.127261],
[2.643791,-3.400343,-1.306938,0.7371546,3.397026,3.35814,2.702676,-1.330546,-3.874385,2.604957,3.158889,-1.731268,-2.121341,0.7873955,2.38165,-1.320403,-2.522343,1.309823,-2.716825,1.993194,2.194873,-1.874114,0.3614327,2.770932,3.291671,0.1434101,0.3200656,1.175481,2.905325,1.621876,-0.4096217,-0.696526,3.50673],
[-1.243779,0.2666757,-3.091142,1.80374,-3.073905,-1.056183,-2.475092,-2.163199,1.919224,-3.252691,-3.781944,-1.618293,-1.598432,-3.463188,1.87279,-3.398025,-0.9207699,2.313757,-3.738596,3.700763,0.8056257,1.781594,1.828475,-1.166152,-1.230805,-3.01452,2.794572,-2.269546,0.5494564,-3.419399,2.937076,2.789174,-2.006994],
[-2.009577,0.5262218,-3.092241,-1.945968,2.355637,3.982675,0.4832425,1.853839,-2.160999,-0.8032573,0.8404053,-1.841888,0.9864326,0.1882572,3.890908,1.969533,-1.97294,-1.37601,-1.831491,0.1972003,2.714904,0.3429011,0.5724449,-2.440401,-2.420316,-2.432982,-2.164034,3.342266,3.809735,2.780128,2.888011,0.9234601,0.4764786],
[3.841008,2.541677,-1.207804,2.045128,1.169141,0.5598496,2.376511,0.8381565,-0.1900603,-0.3524683,1.200553,-3.834196,1.608284,0.5200096,-1.752157,2.676112,0.9857715,2.571075,3.800372,0.01630678,-1.782111,-2.913716,3.957242,-3.805643,0.6967035,-0.2573393,1.685302,1.111824,0.01945097,-0.3414186,0.1964445,-0.04547199,-2.784048],
[-1.038504,3.061864,-1.376521,1.332151,-2.691548,-2.155719,3.307273,3.159183,-2.916796,0.8000867,3.679402,2.553229,3.524065,-2.231948,-1.832622,0.335102,0.01621067,2.027147,3.698288,3.767105,-3.358696,-0.3113291,-3.51698,-3.286376,-1.152582,-1.332486,-1.707823,3.52728,-1.908256,-3.694292,-2.800091,3.938709,1.200512],
[-3.591603,-2.80198,3.856348,-1.58476,0.2455475,-1.095069,-0.1954381,2.714089,-2.799672,-1.178847,-0.2356759,3.686751,-2.935516,-2.983299,2.123573,-0.5473059,-2.605685,-0.4323375,0.8480191,1.498079,-3.637975,0.5089577,-0.3142662,-0.6771743,2.32502,0.7050159,0.6730642,2.32176,0.6829786,-2.377733,1.587304,-2.750057,1.932284]
],
[
[1.628074,1.928386,1.870768,-1.115027,3.890861,2.473979,2.969784,2.824379,3.480457,-3.145064,2.75232,2.192558,2.726518,3.477093,-3.76767,-2.452881,3.578796,-0.7948633,-0.6243777,-2.37351,-2.095676,-0.4494382,-2.375152,2.474404,3.665965,1.261716,2.637631,3.269176,-1.038366,2.898396,-2.467404,2.472987,-0.174878],
[-2.069587,-0.1509858,-2.863968,3.49759,-3.167747,2.219435,-3.553376,-0.6843625,3.480572,3.850982,3.363726,-3.490812,0.6558889,-3.75844,-1.017013,-1.901283,-1.071312,-2.30612,0.5163389,3.775802,-3.248266,-0.3958601,0.8045784,-2.245758,3.70207,-3.661962,-3.851626,3.501993,-2.283075,3.307909,-2.932121,-1.096176,1.024567]
]
],
"biases":[
[
-1.665383,1.711619,2.977915,2.119529,-0.6593308,3.963227,-1.682639,3.87562,2.496295,0.8343115,0.673637,-0.9767005,-3.378919,0.6967561,1.165271,-3.95273,2.295101,-3.265152,1.667422,-0.4712221,-2.335715,3.06284,-3.009807,0.4139915,2.859061,-0.1629816,3.765651,0.5275767,2.196317,-0.522894,2.881643,3.751305,-1.148473
],
[
-3.521348,3.779681
]
]},
{
"fitness":1.027879,
"weights":[
[
[-1.738366,3.819804,-0.04991746,-0.5334287,2.16976,-2.219444,-2.171606,-2.805437,-2.722683,-0.4528193,-0.3212766,0.3733838,-1.022988,3.716795,-0.4751117,-2.936502,1.869496,-2.011982,1.815285,-0.119169,0.2059107,0.721224,0.8373896,-3.339451,2.123839,-1.884469,0.1923655,-0.2030959,1.124954,3.504394,0.3402409,-3.511792,-2.037601],
[-2.270746,-3.774572,-0.8376256,-0.8812811,0.3386625,0.2599749,-3.031281,-0.5627699,0.1855156,-1.709838,2.215887,-2.995996,1.582495,-2.63526,3.910561,-2.499237,-0.5184563,-1.038052,0.2403591,-2.400764,3.407774,0.7006202,2.740021,0.7828817,2.80179,3.388392,3.600829,1.275923,1.439267,0.5171697,0.05064868,3.9484,-0.9962655],
[2.053475,2.446915,3.137414,-1.323981,-0.07732848,-3.471081,-1.532545,0.3836698,3.634437,2.168025,-1.968568,2.433658,2.862535,-1.171199,-0.4789518,-1.763112,1.937287,-2.251801,-1.425394,3.53592,2.161,-1.898956,0.2155975,-3.12202,-2.507725,2.044082,-1.259969,-1.805383,-1.527384,1.938712,-3.168648,3.176066,-0.4001763],
[-1.040039,-2.826697,-3.628891,-1.932861,1.356295,3.104415,1.392773,-3.797608,-2.58565,2.030447,2.750207,-2.985308,0.3372135,-2.316465,-3.021868,-0.1623624,-2.303859,1.423569,-3.818507,2.888135,-2.356476,1.163972,-2.958614,0.4802887,-3.666774,-2.488531,-2.616094,-0.6467667,2.964026,3.771673,1.019239,3.41435,1.37968],
[3.404859,3.786089,2.625753,-0.8233101,-1.934468,2.864174,3.300988,-0.009155829,-3.098905,-2.696178,1.783417,3.403874,-2.186289,-3.036649,-3.173312,2.800987,-1.137171,-3.788287,-1.947802,0.5295448,1.170146,0.9570978,1.883149,-1.663125,2.917283,1.076742,-1.197183,0.1540618,-2.080996,-2.604183,3.571762,2.241042,3.089721],
[-0.5848234,0.7017098,0.4197648,-2.484798,0.8284883,0.2606332,-3.837015,-1.369274,2.695986,-1.879225,-0.6029953,-0.1125827,-0.5177264,-0.1187943,1.977268,0.5140324,3.675449,3.778118,-1.485115,-0.4161558,-0.6186507,-3.495362,2.660879,-2.71636,-2.342139,-0.6545601,1.139201,1.483309,-0.2534047,0.5380393,2.827566,-0.3730284,-3.274355],
[3.983661,2.691208,1.630445,2.93698,0.5130063,-0.5683371,0.6476523,-1.951377,-1.086691,-0.3141516,-2.135903,-3.27669,-3.303265,1.912637,0.2742796,2.716424,-0.6629943,-3.864414,2.017935,-0.6817138,-2.655061,3.557955,-3.978371,2.724906,3.584677,-0.8055856,-2.616831,-3.562943,-1.31095,-1.475122,2.531357,3.211086,-2.976798],
[1.363,0.8081962,-3.489065,1.404224,2.374693,3.763873,0.2442918,-0.1979763,0.7621124,1.920747,3.41822,-0.723138,2.540336,-2.550911,2.374706,-0.1714881,3.50755,-3.536516,0.604831,-0.489565,-2.618607,-2.092746,2.342235,0.3421259,0.2483134,-3.755268,-0.3317404,1.596734,-1.81405,2.155525,1.030475,-2.47663,0.4987918],
[2.369496,-1.390033,-1.333998,-1.890105,-1.227469,-1.044016,1.890071,-1.361477,-0.1685423,-0.2424104,-2.997208,2.406476,1.717999,-2.53267,2.180727,2.443218,-1.92321,0.8866167,-1.527214,-3.438123,-3.885447,0.7645865,3.097442,2.739554,2.948904,0.6041061,3.935246,3.837189,-1.069548,1.043825,0.2271533,-1.388581,-3.817779],
[-0.5645497,-3.226096,-2.387723,-3.670453,0.4492052,-1.015615,-3.222527,2.207456,1.126675,-2.969037,3.032909,-1.367568,3.423477,2.28898,2.614612,2.023297,-1.581056,-3.297298,2.131312,1.277543,0.1395561,3.602268,2.712566,-1.479635,3.415815,1.11771,-3.896523,-3.083767,0.5672885,3.878757,1.302058,2.646088,-3.001604],
[1.482685,-3.243419,-0.1362076,-2.45708,-0.006103946,0.9856755,-1.306896,0.9700591,3.438262,1.758193,-3.536685,0.6324179,2.535851,2.046671,-0.5733193,0.3297225,-2.557091,-2.723952,2.609241,0.8294951,2.703964,0.6607786,1.295809,-1.225888,0.3334689,-2.028659,1.248085,-3.398453,-3.778445,3.726527,2.294415,2.611726,-3.401438],
[0.07691795,1.694463,-3.540473,-0.6179311,-1.841636,-3.006003,3.10848,-1.107487,1.334049,1.831158,-0.7414904,3.814768,0.6922259,1.576913,-3.452996,0.1592237,-1.746514,-3.353621,-3.618651,3.599002,2.718521,2.795925,3.772091,-0.1446122,-3.566179,-3.758873,0.01239882,-2.098221,-0.5398598,-2.707947,1.409565,-2.255361,-3.887474],
[2.95783,-3.521459,0.7436203,1.740826,-1.62879,0.4705274,-2.065366,1.149078,-2.845741,3.840357,0.1235809,-1.556729,1.43965,3.060068,2.949005,-0.6438184,-3.447403,-1.248543,-3.84614,1.450896,-0.4644914,1.720735,3.783935,-2.98675,3.237022,-0.2033785,0.7572578,1.201345,2.653275,-3.949106,0.378076,-3.216752,0.7259336],
[3.835363,1.899692,-3.246678,-2.475508,1.698765,3.387868,-1.054477,-3.174239,1.427572,-3.690099,3.235678,-0.09437812,2.303363,-2.519894,-2.111806,0.3627873,-1.739717,-0.5147653,0.709293,-1.078916,1.399124,-0.9141207,-3.342458,2.497654,2.623768,-0.926008,-2.125462,2.454417,-0.613211,-3.785142,-0.3079413,-3.456635,-3.059636],
[0.7560702,-3.630198,-1.10386,-2.515955,3.209603,-2.070492,-2.539168,-0.3618236,2.505853,-3.038446,3.077127,-0.09669046,0.03204479,1.590089,-2.235123,-2.629635,3.249609,-2.578723,3.442154,0.6429093,0.7643404,-1.851546,2.246618,-3.965475,0.8687612,-0.75462,-1.118602,0.6783471,-2.588985,-2.276455,-1.634954,-1.797693,1.418958],
[3.60563,-0.4678347,-2.787975,2.176858,-0.6082024,-3.272611,2.755567,-3.344831,2.949712,0.9662235,-1.998301,-1.980636,-0.433055,-3.13827,-2.282116,-3.021616,3.190598,1.841227,-2.797933,0.02704825,3.977868,-1.981066,2.442196,-2.593915,-0.6545036,-0.8559467,0.5689613,3.723249,-0.8675179,1.897247,-2.03115,2.578176,0.8698025],
[2.673241,-2.544172,-0.8965689,-0.2992399,-1.933928,-3.925367,0.2764583,3.970693,2.690727,-3.382018,3.906765,-3.77947,1.301029,-2.260486,0.08093055,-3.185572,-0.6589816,1.316167,3.999689,-0.7886294,-0.513536,-0.6068151,-0.5537373,2.423891,3.452479,1.881335,-2.678508,-1.606739,-0.6761737,2.889332,1.933679,-2.871661,-1.056752],
[-0.1441527,-1.247223,3.608027,-0.1967786,2.791176,1.74292,-1.488554,3.551857,1.159892,-1.650634,-0.611539,-0.5258684,0.9837443,1.830562,1.596643,2.403094,0.7666287,3.703279,3.209724,-3.877259,-2.589709,2.287658,1.71574,-1.136713,1.296631,-0.95353,0.9559083,-2.889918,-3.496372,-1.273824,0.8522272,-3.937226,1.00208],
[3.406942,3.999842,3.167921,-3.485487,0.4805135,3.086119,0.8328041,-3.126513,-0.8407778,3.288849,2.335725,-1.662589,-2.381725,-2.555152,-3.342562,2.6775,-2.417554,-2.091738,1.753221,0.199733,3.59132,2.29919,-1.876936,-2.491395,-3.058276,3.461476,-2.108666,1.403444,-0.3855239,-0.5913118,0.3401649,-0.1670678,3.046516],
[-3.22345,-3.91253,0.4341013,-1.971841,-3.643565,3.097713,-1.189161,1.504815,-0.198104,0.3280964,2.739265,-3.415311,1.078951,2.041258,-2.970503,-0.1124052,-2.706824,3.061006,-3.494852,2.609043,-0.2764317,2.199133,-2.227979,0.7045317,3.25832,-0.3004901,-3.667426,1.173242,-0.2236401,-0.08471705,-2.735118,0.8121843,-1.11886],
[-1.846197,3.052023,0.6667312,-2.102265,2.331933,-2.742204,2.264374,0.8216252,-0.2318522,-1.505009,-2.597406,0.7017106,-1.465509,3.83345,-2.840117,-0.2486823,3.522866,-0.3339963,-3.914741,1.144502,-2.74985,0.307748,3.168936,-3.455111,3.945652,-2.08316,-1.566983,2.8959,3.204703,-1.736032,-0.9747203,-2.764402,-0.2151046],
[-0.2804223,-2.855022,3.219434,0.1212619,-0.4880454,2.837931,0.8293069,-2.012913,-0.5773729,-2.27347,-1.372816,-2.203105,2.483747,-3.202006,-2.561405,-2.085659,0.8527774,0.3774824,-1.238803,-0.3104165,-1.542449,3.52065,2.413841,-2.465528,-2.552233,3.767804,-2.534958,-0.4243582,2.687259,-1.082106,-1.852891,-2.904173,0.3238107],
[-2.92922,-3.741417,-3.925027,1.465479,2.914232,1.047944,2.251404,2.266511,2.399754,-2.870666,2.482518,1.587451,-1.86037,-2.543697,-0.4760783,-3.114919,-1.342103,1.637991,-2.933007,1.67678,-3.120302,0.2529198,-3.666169,1.020486,2.181911,2.59708,0.06725431,-2.545151,-3.169193,-2.184741,-2.301556,1.729992,3.662337],
[-0.6084109,-1.27401,2.0514,-3.553879,-0.534497,-0.1760076,-3.053522,0.2320013,-0.8990651,-2.376266,1.853849,2.062288,2.179804,-3.208095,1.161054,-2.802275,0.2024145,-0.7352915,2.624794,3.037956,-0.04483803,-3.519693,-3.719953,1.684222,-3.960432,-0.07625677,3.769129,-1.913134,3.870851,1.34036,3.473519,3.237945,-1.538857],
[-2.5639,3.1001,-3.395708,-2.798422,3.918893,-3.385151,3.254866,0.9417488,-3.556374,0.7999463,-0.945597,3.953434,-1.485916,3.372194,-1.879802,3.494799,-2.888347,0.9367241,-1.66748,-2.135897,-2.688995,-2.471014,-1.840618,-1.848183,0.5486069,3.740493,-0.4847483,-1.532748,-2.923976,2.303991,3.037116,3.871546,1.921686],
[3.532799,-1.083459,1.048271,3.794809,-2.246682,-0.4735246,2.74316,-3.995994,0.3776715,3.063365,-2.5075,-0.445715,-0.3248541,-3.194355,-3.524557,1.385864,1.197007,-3.950945,-1.540409,2.138805,0.5698867,2.219519,0.8895007,3.376727,3.584052,2.188148,-3.209828,2.428212,-3.649125,-3.877561,2.084703,-0.271382,1.16405],
[3.694231,2.771218,1.818129,3.508455,3.987408,0.9316185,-2.231889,-0.4267663,-3.163885,0.5593325,2.816432,-0.8457267,1.507542,-1.666399,-0.756942,1.497374,3.141764,-3.215364,3.138439,-2.65782,-1.635854,-2.949497,1.552296,-3.324703,3.287574,2.789268,-1.843419,2.768122,0.1917418,3.079286,-3.431772,-3.40836,-3.127261],
[2.643791,-3.400343,-3.808329,0.7371546,3.397026,3.35814,2.702676,-1.330546,-3.874385,2.604957,3.158889,-1.731268,-1.659711,0.7873955,2.38165,-1.320403,-2.522343,1.309823,-2.716825,1.993194,2.194873,-1.874114,0.3614327,2.770932,3.291671,0.1434101,0.3200656,1.175481,2.905325,1.621876,-0.4096217,-0.696526,-0.5448924],
[-1.243779,0.2666757,-3.091142,1.80374,-0.5907509,-1.056183,-2.475092,-2.163199,1.919224,-3.252691,-3.781944,-1.618293,-1.598432,-3.463188,1.87279,-3.398025,-0.9207699,2.313757,-3.738596,3.700763,0.8056257,1.781594,1.828475,-1.166152,-1.230805,-3.01452,2.794572,-2.269546,0.5494564,-3.419399,2.937076,-2.24572,-2.006994],
[-2.009577,0.5262218,-3.092241,-1.945968,2.355637,3.982675,0.4832425,1.853839,-2.160999,-0.8032573,0.8404053,-1.841888,0.9864326,0.1882572,3.890908,1.969533,-1.97294,-1.37601,-1.831491,0.1972003,2.714904,0.3429011,0.5724449,-2.440401,-2.420316,0.9484486,-2.164034,-3.681007,3.809735,2.780128,2.888011,0.9234601,0.4764786],
[0.07612082,2.541677,-1.207804,2.045128,1.169141,0.5598496,2.376511,0.8381565,-0.1900603,-0.3524683,1.200553,-3.834196,1.608284,0.5200096,-1.752157,2.676112,0.9857715,2.571075,3.800372,0.01630678,-1.782111,-2.913716,3.957242,-3.805643,0.6967035,-0.2573393,1.685302,1.36833,0.01945097,-0.3414186,0.1964445,-0.04547199,-2.784048],
[-1.038504,3.061864,-1.376521,1.332151,-2.691548,-2.155719,3.307273,3.159183,-2.916796,0.8000867,3.679402,2.553229,3.524065,-2.231948,-1.832622,3.837421,0.01621067,2.027147,3.698288,3.767105,-3.358696,-0.3113291,-3.51698,-3.286376,-1.152582,-1.332486,-1.707823,3.52728,-1.908256,-3.694292,-2.800091,1.888671,1.200512],
[-3.591603,-2.80198,3.856348,-1.58476,0.2455475,-1.095069,-0.1954381,2.714089,-2.799672,-1.178847,-0.2356759,3.686751,-2.935516,-2.983299,2.123573,-0.5473059,-2.605685,-0.4323375,0.8480191,1.498079,-3.637975,0.5089577,-0.3142662,-0.6771743,2.32502,0.7050159,0.6730642,2.32176,0.6829786,-2.377733,1.587304,-2.750057,-2.730149]
],
[
[1.628074,1.928386,1.870768,-1.115027,3.890861,-3.351911,2.969784,2.824379,-0.9938883,-3.145064,2.75232,2.192558,2.726518,3.477093,-3.76767,-2.452881,3.578796,-0.7948633,-0.6243777,-2.37351,-2.095676,-0.4494382,-2.375152,2.474404,3.665965,1.261716,2.637631,3.269176,-1.038366,2.898396,-2.467404,2.472987,-0.174878],
[-2.069587,-0.1509858,-2.863968,3.49759,-3.167747,2.219435,-3.553376,-0.6843625,3.480572,3.850982,3.363726,-3.490812,0.6558889,-3.75844,0.9676256,-1.901283,-1.071312,-2.30612,-0.1538082,3.775802,-3.248266,-0.3958601,0.8045784,-2.245758,3.70207,-3.661962,-3.851626,3.501993,-2.283075,3.307909,-2.932121,-1.096176,1.024567]
]
],
"biases":[
[
-1.665383,1.711619,2.977915,2.119529,-0.6593308,3.963227,-1.682639,3.87562,2.496295,0.8343115,0.673637,-0.9767005,-0.0888046,0.6967561,1.165271,-3.95273,2.295101,-3.265152,1.667422,-0.4712221,3.470505,3.06284,-3.009807,0.4139915,2.859061,-0.1629816,3.765651,0.5275767,2.196317,-0.522894,2.881643,3.751305,-1.148473
],
[
-3.521348,3.779681
]
]},
{
"fitness":1.013121,
"weights":[
[
[-1.738366,3.819804,3.285106,-0.5334287,2.16976,-2.219444,-2.171606,-2.805437,0.3128594,-0.4528193,-0.3212766,0.3733838,-1.022988,3.481077,-0.4751117,-2.936502,3.423445,-2.011982,1.815285,-0.119169,0.2059107,0.721224,0.8373896,2.486605,2.123839,-1.884469,0.1923655,-0.2030959,1.124954,3.504394,0.3402409,-3.511792,-2.037601],
[-2.270746,-3.774572,0.1782294,-0.8812811,0.3386625,0.2599749,-3.031281,-0.5627699,0.1855156,-1.709838,2.215887,-2.995996,1.582495,-2.63526,3.910561,-2.499237,-0.5184563,-1.038052,0.2403591,-2.400764,3.407774,0.7006202,2.740021,-1.458749,2.80179,3.388392,3.600829,-2.300288,1.439267,0.5171697,0.05064868,3.9484,-0.9962655],
[2.053475,2.446915,3.137414,-1.323981,-0.07732848,-3.471081,-1.532545,0.3836698,3.634437,2.168025,-1.968568,2.433658,2.862535,-1.171199,-0.4789518,-1.763112,1.937287,0.8556123,-1.425394,3.53592,2.161,-1.898956,0.2155975,-3.12202,-2.507725,2.044082,-1.259969,-1.805383,-1.527384,1.938712,-3.168648,3.176066,-0.4001763],
[-1.040039,1.973181,-3.628891,-2.031054,1.356295,3.104415,1.392773,-3.797608,-2.58565,2.030447,2.750207,-2.985308,0.6113159,-2.316465,-3.021868,-0.1623624,-2.303859,1.423569,0.680749,2.888135,-2.356476,1.163972,3.000252,0.4802887,2.544358,-2.488531,-2.616094,-0.6467667,-0.5570176,3.771673,1.019239,3.41435,1.37968],
[3.404859,3.786089,2.625753,2.966964,-0.6254709,2.864174,3.300988,-0.009155829,-3.098905,-2.72319,1.783417,3.403874,-2.186289,-3.036649,-3.173312,2.800987,-1.137171,-3.788287,-1.947802,0.5295448,1.170146,-3.072521,2.093047,-1.663125,2.917283,3.558909,-1.197183,0.1540618,0.7279836,-2.604183,3.571762,2.241042,3.089721],
[-0.5848234,0.7017098,0.4197648,-2.484798,0.8284883,0.2606332,-3.837015,-1.369274,2.695986,-1.879225,-0.6029953,-0.1125827,-0.5177264,-0.1187943,1.977268,1.528685,3.675449,3.778118,-1.485115,-0.4161558,-0.6186507,-3.495362,2.660879,-2.71636,-2.342139,-0.6545601,1.139201,1.483309,-0.2534047,0.5380393,2.827566,-0.3730284,-3.274355],
[3.983661,2.691208,1.630445,2.93698,0.5130063,-0.5683371,0.6476523,-1.951377,-1.086691,-0.3141516,-1.962733,-3.27669,-3.303265,1.912637,-3.340873,2.716424,-0.6629943,-3.864414,2.017935,-0.6817138,-2.655061,3.557955,-3.978371,2.724906,3.584677,-0.8055856,3.329669,-3.562943,-1.31095,-1.475122,2.531357,3.211086,-2.976798],
[2.269442,0.8081962,-3.489065,1.404224,2.374693,3.763873,0.2442918,-0.1979763,0.7621124,1.920747,3.41822,-0.723138,2.540336,-2.684888,2.374706,-0.1714881,3.50755,-3.536516,0.604831,3.061956,-3.124172,-2.092746,2.342235,0.3421259,0.2483134,0.1968955,-0.3317404,1.596734,-1.81405,2.155525,1.030475,-2.47663,0.4987918],
[2.369496,1.361841,-1.333998,-1.093007,-1.227469,-1.044016,1.890071,-1.361477,-0.1685423,-0.2424104,1.339683,2.406476,1.717999,-2.53267,2.180727,2.443218,-1.92321,1.435335,-1.527214,-3.438123,-3.885447,0.7645865,0.6303332,2.739554,2.948904,0.6041061,-2.222553,3.837189,-1.069548,-0.6703723,0.2271533,-1.388581,-3.817779],
[-0.5645497,-3.226096,-2.387723,-3.670453,0.4492052,-1.015615,-3.222527,2.207456,1.126675,-2.969037,3.032909,-1.367568,3.423477,-1.518897,2.614612,-2.785887,3.946593,-3.297298,3.488398,1.277543,0.1395561,3.602268,2.712566,-1.479635,3.415815,1.11771,-3.896523,-3.083767,0.5672885,3.878757,1.302058,2.646088,-3.001604],
[1.482685,-3.243419,-0.1362076,-2.45708,-0.006103946,0.9856755,-1.306896,0.9700591,3.438262,1.758193,-3.536685,0.6324179,2.535851,2.046671,-0.5733193,0.3297225,2.600786,2.096747,2.609241,0.8294951,2.703964,0.6607786,1.295809,-2.907064,2.783582,-2.028659,1.248085,-3.398453,-3.778445,3.726527,2.294415,2.611726,-3.401438],
[0.07691795,1.694463,-3.540473,-0.6179311,-1.841636,-3.006003,3.10848,-1.470013,1.334049,1.831158,-0.7414904,3.814768,0.6922259,1.576913,-3.452996,0.1592237,3.281774,-3.353621,-3.618651,3.599002,2.718521,2.795925,3.772091,-0.1446122,-3.566179,-3.758873,0.01239882,-2.098221,-0.5398598,-2.707947,1.409565,-2.255361,-3.887474],
[2.95783,-3.521459,0.7436203,1.740826,-1.62879,0.4705274,-2.065366,1.149078,-2.845741,3.840357,0.1235809,3.540684,1.43965,3.060068,-3.240426,-0.6438184,-3.447403,-1.248543,-3.84614,1.450896,-0.4644914,1.720735,3.783935,-2.98675,3.237022,-0.1969345,0.7572578,1.201345,-3.49572,-3.949106,0.378076,-3.216752,0.7259336],
[3.835363,1.899692,-3.246678,-2.475508,1.698765,3.387868,-1.054477,-3.174239,1.427572,-3.690099,3.235678,0.7179456,2.303363,-2.519894,-2.430543,0.3627873,-1.739717,-0.5147653,0.709293,-1.078916,1.399124,-0.9141207,-3.342458,-0.5396163,2.623768,-0.2980884,-2.125462,2.454417,-0.613211,-3.785142,-0.3079413,-3.456635,-3.059636],
[0.7560702,-3.630198,-1.10386,-2.515955,-2.943759,-2.070492,-2.539168,-0.3618236,2.505853,-3.038446,3.077127,0.8307839,0.03204479,1.590089,-2.235123,-2.629635,3.249609,-2.578723,3.442154,0.6429093,-0.1924241,-1.851546,2.246618,-3.965475,0.8687612,-0.75462,-1.118602,0.6783471,-2.588985,-2.427237,-1.634954,-1.797693,1.418958],
[3.60563,-0.4678347,-2.787975,2.176858,-0.6082024,-3.272611,-2.577527,-3.344831,2.949712,-3.492826,-1.998301,-1.980636,1.568709,-3.13827,-2.282116,-3.021616,3.190598,1.841227,-2.797933,0.02704825,3.977868,-1.981066,2.442196,-2.593915,1.125422,-0.8559467,0.5689613,3.723249,-0.8675179,1.897247,-2.03115,2.578176,0.8698025],
[2.673241,-2.544172,-0.8965689,-0.2992399,-1.933928,-3.925367,0.2764583,3.970693,-3.83983,-3.382018,3.906765,-3.77947,1.301029,-2.260486,0.08093055,-3.185572,-0.6589816,1.316167,3.999689,-0.7886294,-0.513536,-0.6068151,-0.5537373,2.960423,3.452479,1.881335,-2.678508,-1.606739,-0.6761737,2.889332,1.933679,-2.871661,-1.056752],
[-0.1441527,-1.247223,3.608027,3.331769,0.6221454,1.74292,-1.488554,3.551857,1.159892,-1.650634,-0.611539,-0.5258684,0.9837443,1.830562,1.596643,2.403094,0.7666287,3.703279,3.209724,-3.877259,-2.270764,-0.7942486,1.71574,-1.136713,1.296631,1.554766,3.739874,-2.889918,-3.496372,-1.273824,0.8522272,-3.937226,1.00208],
[3.406942,3.999842,3.167921,-3.113387,0.4805135,3.086119,0.8328041,-3.126513,-0.8407778,3.288849,0.3554956,-1.662589,-2.381725,-2.555152,-3.342562,2.6775,1.488328,-2.091738,1.753221,0.199733,3.59132,2.29919,-1.876936,2.674411,-3.058276,-3.861818,-2.108666,3.932742,-0.3855239,-0.5913118,0.3401649,-0.1670678,3.046516],
[-3.22345,-3.91253,0.4341013,-1.971841,-3.643565,3.772116,-1.189161,1.504815,-0.198104,0.3280964,2.739265,2.297523,1.078951,2.041258,0.7990465,2.992098,-2.706824,3.061006,-3.494852,2.609043,-0.2764317,2.199133,-2.227979,0.7045317,3.25832,-0.3004901,-3.667426,1.173242,-0.2236401,-0.08471705,-1.354166,0.8121843,-1.11886],
[-1.230498,3.052023,0.6667312,-2.102265,2.331933,-2.742204,2.264374,0.8216252,-0.2318522,-1.505009,-2.597406,0.7017106,-1.465509,3.83345,-2.840117,-0.2486823,3.522866,-0.3339963,-3.914741,1.144502,-2.74985,0.307748,3.168936,-3.455111,3.945652,-2.08316,-2.504072,2.8959,-0.8181716,-1.736032,-0.9747203,-2.764402,-0.2151046],
[-0.2804223,-2.855022,3.219434,0.1212619,-0.4880454,2.512636,0.8293069,-2.012913,-0.5773729,-2.27347,-1.372816,-2.203105,2.483747,-3.202006,-2.561405,-2.085659,0.8527774,0.3774824,-1.238803,-0.3104165,-1.542449,3.52065,2.413841,-2.465528,-2.552233,-2.030526,-2.534958,-0.4243582,2.687259,-1.082106,2.343299,-2.904173,0.3238107],
[-2.92922,-3.741417,-3.925027,1.465479,2.914232,1.047944,2.251404,2.266511,2.399754,2.993855,2.482518,1.587451,-1.86037,-2.543697,-0.4760783,-1.58518,-1.342103,1.637991,-2.933007,1.67678,-3.120302,0.2529198,-3.666169,1.020486,2.181911,2.59708,0.06725431,-2.545151,-3.169193,-2.184741,-2.301556,1.729992,3.662337],
[-0.6084109,-1.27401,2.0514,2.271962,-0.534497,-0.1760076,-3.053522,0.2320013,-0.8990651,-2.376266,1.853849,2.062288,2.179804,-3.208095,1.161054,-0.2898426,0.2024145,-0.7352915,2.624794,3.037956,-0.04483803,0.08643126,-3.719953,1.684222,-3.960432,-0.07625677,3.769129,-1.913134,-0.04196434,1.34036,3.473519,3.237945,-1.538857],
[-2.5639,3.1001,-3.395708,-2.798422,-2.186406,-3.385151,3.254866,0.9417488,-3.556374,-3.743381,-0.945597,3.953434,-1.485916,3.372194,1.439121,3.494799,-2.888347,0.9367241,-1.66748,-2.135897,1.83411,-2.471014,-1.840618,-1.848183,0.5486069,3.740493,-0.4847483,-1.532748,-2.923976,2.303991,3.037116,3.871546,1.921686],
[3.532799,-1.083459,1.048271,3.794809,-2.246682,-0.4735246,2.74316,-3.995994,0.3776715,3.063365,-2.5075,-0.445715,-0.3248541,-3.194355,-3.524557,1.385864,1.197007,-3.950945,-1.540409,2.138805,0.5698867,2.219519,0.8895007,3.376727,3.584052,2.188148,-3.209828,2.428212,-3.649125,-3.877561,2.084703,-0.271382,3.506504],
[-1.340819,2.771218,1.818129,3.508455,2.686761,0.9316185,-2.231889,-0.4267663,-3.163885,0.5593325,2.816432,-0.8457267,1.507542,-2.365384,-2.103315,1.497374,3.141764,-3.215364,3.138439,-2.65782,-1.635854,-2.949497,2.065693,-3.324703,3.287574,2.789268,-1.843419,2.768122,0.1917418,3.079286,-3.431772,2.862067,-3.127261],
[0.02253207,-3.400343,-3.808329,0.7371546,-1.458467,3.35814,2.702676,-1.330546,-3.874385,2.604957,3.158889,-1.731268,-2.121341,0.7873955,2.38165,-1.320403,-2.522343,1.309823,-2.716825,1.993194,2.194873,-1.874114,0.3614327,2.770932,3.291671,0.1434101,0.3200656,1.175481,2.905325,1.621876,-0.4096217,-0.696526,3.50673],
[-1.243779,0.2666757,2.214647,1.80374,-0.5907509,-1.056183,-2.475092,3.125936,1.919224,-3.252691,-3.781944,-1.618293,3.448814,-3.463188,1.87279,-3.398025,-0.9207699,2.313757,-3.738596,3.700763,0.8056257,1.781594,1.828475,-1.166152,-0.2753811,-3.01452,-0.6494162,-2.269546,0.5494564,-3.419399,0.3544923,-2.24572,-2.006994],
[-2.009577,0.5262218,0.7691265,-1.945968,2.355637,3.982675,0.4832425,1.853839,-2.160999,-0.8032573,0.8404053,-1.841888,0.9864326,0.1882572,3.890908,1.969533,-1.97294,-1.37601,-1.831491,0.1972003,2.714904,3.914804,0.5724449,-3.110141,0.5552889,0.9484486,-2.164034,-3.681007,3.809735,2.780128,2.888011,0.9234601,-3.79195],
[0.07612082,2.541677,-1.207804,2.045128,1.169141,-0.5046147,2.376511,0.8381565,-0.1900603,-0.3524683,1.200553,-3.834196,1.608284,-0.08351935,-1.752157,2.676112,3.972282,2.571075,3.800372,0.01630678,-1.782111,-2.913716,3.957242,2.810948,1.013479,-0.2573393,-1.184708,1.36833,0.01945097,-0.3414186,0.1964445,-0.04547199,-2.784048],
[-1.038504,3.061864,-1.376521,1.332151,-2.691548,1.75123,3.307273,3.159183,2.30742,0.8000867,3.679402,1.785223,3.524065,-2.231948,-1.832622,-3.547177,0.01621067,2.027147,3.698288,-0.6440433,-3.358696,-3.572478,-3.51698,-3.286376,-1.152582,-1.332486,-1.707823,3.52728,-1.908256,-3.694292,-0.7470515,1.888671,1.200512],
[-3.591603,-0.2320302,3.856348,-1.58476,0.4355824,-1.095069,-0.1954381,2.714089,-2.799672,-1.178847,-0.2356759,3.686751,3.512296,-2.983299,2.123573,0.13946,-2.605685,1.094819,0.8480191,1.896962,-3.637975,0.5089577,-0.2951152,-0.6771743,2.32502,0.7050159,0.6730642,2.32176,0.6829786,-2.377733,1.587304,-2.750057,1.932284]
],
[
[1.628074,1.928386,1.870768,-1.115027,3.890861,3.835497,2.969784,2.824379,3.480457,-3.145064,2.75232,-0.9468919,2.726518,3.477093,-3.76767,-2.452881,3.578796,-0.7948633,-0.6243777,-2.37351,-2.095676,-0.4494382,-2.375152,2.474404,3.665965,1.261716,2.637631,3.269176,-1.903676,2.898396,-2.467404,2.472987,-0.174878],
[-2.069587,-0.1509858,-2.863968,3.49759,-2.561231,2.219435,-3.553376,-0.6843625,3.480572,3.850982,3.363726,-3.490812,0.6558889,-3.75844,0.9676256,-1.901283,-1.071312,-2.463664,-0.1538082,3.775802,-3.248266,-0.3958601,0.8045784,-2.245758,3.70207,-3.661962,-3.851626,3.501993,-2.283075,3.307909,-2.932121,-1.096176,1.024567]
]
],
"biases":[
[
-1.665383,1.711619,2.977915,3.82857,-0.6593308,3.963227,-1.682639,3.87562,2.496295,0.8343115,0.673637,-0.9767005,-0.0888046,0.6967561,1.165271,-3.661865,2.295101,-3.265152,1.667422,-0.4712221,3.470505,3.06284,-3.009807,0.4139915,2.859061,-0.1629816,3.765651,1.807262,2.196317,-0.522894,2.881643,3.751305,-1.148473
],
[
-3.521348,3.779681
]
]},
{
"fitness":1.861252,
"weights":[
[
[-1.738366,3.819804,3.285106,-0.5334287,2.16976,-2.219444,-2.171606,-2.805437,-3.497331,-0.4528193,-0.3212766,-3.779394,-1.022988,3.716795,-0.4751117,-2.936502,1.869496,-0.6907533,1.815285,-0.119169,0.2059107,0.721224,0.8373896,-3.339451,2.123839,-1.884469,0.1923655,-0.2030959,1.124954,3.504394,0.3402409,-3.511792,-2.037601],
[-2.270746,-3.774572,0.1782294,-0.8812811,0.3386625,0.2599749,-3.031281,-0.5627699,0.1855156,-1.709838,2.215887,-2.995996,1.582495,-2.63526,3.910561,-2.499237,-0.5184563,-1.038052,0.2403591,-2.400764,3.407774,0.7006202,2.740021,0.3058103,2.80179,3.388392,3.600829,-2.300288,1.439267,3.865376,0.05064868,3.9484,-0.9962655],
[2.053475,2.446915,3.137414,-1.323981,-0.07732848,-3.471081,-1.532545,0.3836698,3.634437,2.168025,-1.968568,2.433658,2.083399,-1.171199,-0.4789518,-1.763112,1.937287,-2.251801,-1.425394,3.53592,2.161,-1.898956,0.2155975,-3.12202,-2.507725,2.044082,-1.259969,-1.805383,-1.527384,1.938712,-3.168648,3.176066,-0.4001763],
[-1.040039,-2.826697,-3.628891,-1.932861,1.356295,3.104415,1.392773,-3.797608,-2.58565,2.030447,2.750207,-2.985308,0.3372135,-2.316465,-3.021868,2.118716,-2.303859,1.423569,-3.818507,2.888135,-2.356476,1.163972,-2.958614,0.4802887,-3.666774,-2.488531,-2.616094,-0.6467667,2.964026,3.771673,1.019239,3.41435,1.37968],
[3.404859,3.786089,2.625753,2.966964,0.8066472,2.864174,3.300988,-0.009155829,-3.098905,-0.8501997,1.783417,3.403874,-2.186289,-3.036649,-3.173312,2.800987,-1.137171,-3.788287,-1.947802,0.5295448,1.170146,0.9570978,1.883149,-1.663125,2.917283,1.076742,-1.197183,0.1540618,0.1438121,-2.604183,3.571762,2.241042,3.089721],
[-0.5848234,0.7017098,-3.383483,-2.484798,0.8284883,0.2606332,-3.837015,-1.369274,2.695986,-1.879225,-0.6029953,-0.9647511,-0.5177264,-0.1187943,0.3316537,0.5140324,3.675449,3.778118,-1.485115,-0.4244586,-0.6186507,-3.495362,2.660879,-2.71636,-2.342139,-0.6545601,1.139201,1.483309,-0.2534047,-0.2413434,2.827566,-0.3730284,-3.274355],
[3.983661,2.691208,1.630445,2.93698,0.5130063,-0.5683371,0.6476523,-1.951377,-1.086691,-0.3141516,-2.135903,-3.27669,-3.303265,1.912637,0.2742796,-2.390029,-0.6629943,-3.864414,2.017935,-0.6817138,-2.655061,1.284156,-3.978371,2.724906,3.584677,-0.8055856,-2.616831,-3.562943,-1.31095,-1.475122,2.531357,3.211086,-2.976798],
[1.363,0.8081962,-3.489065,1.404224,1.888073,3.763873,0.2442918,-0.1979763,0.7621124,1.920747,3.41822,-0.723138,2.540336,-2.550911,2.374706,3.254039,3.50755,-3.536516,0.604831,-0.489565,1.199164,-2.092746,2.342235,0.3421259,0.2483134,-3.755268,-0.3317404,1.596734,-1.81405,2.155525,1.030475,-2.47663,0.4987918],
[2.369496,-1.390033,-1.333998,-1.093007,-1.227469,0.8890263,1.890071,-1.361477,-2.77158,-0.2424104,-2.997208,2.406476,1.717999,-2.53267,2.180727,2.443218,-1.92321,0.8866167,-1.527214,-3.19448,-3.885447,0.7645865,3.097442,2.739554,2.948904,0.6041061,-2.222553,3.837189,-1.069548,1.043825,0.2271533,-3.721336,-3.817779],
[-0.5645497,-3.226096,-2.387723,-3.670453,0.4492052,-1.015615,-3.222527,2.207456,1.126675,-2.969037,3.032909,-1.367568,3.423477,2.28898,2.614612,-2.785887,-1.581056,-3.297298,2.131312,1.277543,0.1395561,-2.449896,2.712566,-1.479635,3.415815,1.11771,-3.896523,-3.083767,0.5672885,3.533105,1.302058,2.646088,-3.001604],
[1.482685,-3.243419,-0.1362076,-2.45708,-0.006103946,0.9856755,-1.306896,0.9700591,3.438262,1.758193,-3.536685,0.6324179,2.535851,2.046671,-0.5733193,0.3297225,-2.557091,2.096747,2.609241,0.8294951,2.703964,0.6607786,1.295809,-1.225888,0.3334689,-2.028659,1.248085,-3.398453,-3.778445,3.914136,2.294415,2.611726,-3.401438],
[0.07691795,1.694463,-3.540473,-0.6179311,-1.841636,-1.633735,3.10848,-1.107487,1.334049,1.831158,-0.7414904,3.814768,0.6922259,1.576913,-3.452996,0.1592237,2.654922,-3.353621,-3.618651,3.599002,2.718521,2.795925,3.772091,-0.1446122,-3.566179,-3.758873,0.01239882,2.011224,-0.5398598,-3.706654,1.409565,-2.255361,-3.887474],
[2.95783,-3.521459,0.7436203,1.740826,-1.62879,0.4705274,-2.065366,1.149078,-0.9724683,3.840357,0.1235809,-1.556729,1.43965,3.060068,2.949005,-0.6438184,-3.447403,-1.248543,-3.84614,1.450896,-0.4644914,1.720735,3.783935,-2.98675,3.237022,-0.2033785,0.7572578,1.201345,-2.853068,-3.949106,0.378076,-3.216752,0.7259336],
[3.835363,1.899692,-3.246678,-3.434672,1.698765,-0.4228906,-1.054477,-3.174239,1.427572,-3.690099,3.235678,0.8371068,2.303363,-2.519894,-2.111806,0.3627873,0.3348803,-0.5147653,0.709293,-1.078916,1.399124,-0.9141207,-3.342458,2.497654,2.623768,-0.926008,-2.125462,2.454417,-0.613211,-3.785142,-0.3079413,-3.456635,-3.059636],
[0.7560702,-3.630198,-1.10386,-2.515955,3.209603,-2.070492,-2.539168,-0.3618236,2.505853,-3.038446,3.077127,0.8307839,-2.22274,1.590089,-2.235123,-2.629635,3.249609,-2.578723,3.442154,0.6429093,0.7643404,-1.851546,2.246618,-3.965475,0.8687612,-0.75462,-1.118602,0.6783471,-2.588985,-2.276455,-1.634954,-1.797693,1.418958],
[3.60563,-0.4678347,-2.787975,-2.843634,-0.6082024,-3.272611,2.755567,-3.344831,2.949712,0.9662235,-1.998301,0.9031585,1.568709,0.5570377,-2.282116,-3.021616,3.190598,1.841227,-2.797933,0.02704825,3.977868,-0.3552288,2.442196,-2.593915,1.125422,-0.8559467,0.5689613,3.723249,-0.8675179,1.897247,-2.03115,2.578176,0.8698025],
[2.673241,-2.544172,-0.8965689,-0.2992399,-1.933928,-3.925367,0.2764583,3.970693,2.690727,-3.382018,3.906765,-3.77947,2.620632,-2.260486,0.08093055,-3.185572,-0.6589816,1.316167,3.999689,-0.7886294,-0.513536,-0.6068151,1.105172,2.423891,3.452479,1.881335,-2.678508,-1.606739,-0.6761737,2.889332,1.933679,-2.871661,-1.056752],
[-0.1441527,-1.247223,3.608027,-0.1967786,0.6221454,1.74292,-1.488554,3.551857,1.159892,-0.7280649,-0.611539,-0.5258684,0.9837443,1.830562,1.596643,2.403094,0.7666287,3.703279,3.209724,-3.877259,-0.3011055,-0.7942486,1.71574,-1.136713,1.296631,0.2030996,3.739874,-2.889918,-3.810623,-1.273824,0.8522272,-3.937226,1.00208],
[3.406942,3.999842,3.167921,-3.485487,0.4805135,3.086119,0.8328041,-3.126513,-0.8407778,3.121417,0.3554956,-1.662589,-2.381725,-2.555152,-1.434679,2.6775,1.488328,-2.091738,1.753221,0.199733,1.279211,2.29919,-1.876936,-2.491395,-3.058276,3.461476,-2.108666,1.403444,-0.3855239,-0.5913118,3.304698,-0.1670678,3.046516],
[-3.22345,-3.91253,0.4341013,-1.971841,-3.643565,3.097713,-1.189161,1.504815,-0.198104,0.3280964,2.739265,-3.415311,1.078951,2.041258,-2.970503,-0.1124052,-2.706824,3.061006,-3.494852,2.609043,-0.2764317,2.199133,-2.227979,0.7045317,3.25832,-0.3004901,-3.667426,-3.38743,-0.2236401,-0.08471705,-1.354166,0.8121843,-1.11886],
[-1.846197,3.052023,0.6667312,-2.102265,2.973072,-2.742204,2.264374,0.8216252,-0.2318522,-1.505009,-2.597406,0.7017106,-1.465509,-2.90259,-2.840117,-0.2486823,3.522866,-0.3339963,-3.914741,1.144502,-2.74985,0.307748,3.168936,0.536157,3.945652,-2.08316,-2.504072,2.8959,-0.8181716,-1.736032,-0.9747203,-2.764402,-0.2151046],
[-0.2804223,-2.855022,3.219434,0.1212619,-0.4880454,1.060913,0.8293069,-3.391692,-0.5773729,-2.27347,-1.372816,-2.203105,2.483747,-3.202006,-2.561405,-2.085659,0.8527774,0.3774824,-1.238803,-0.3104165,-1.542449,3.52065,2.413841,-2.465528,-2.552233,3.767804,-2.534958,-0.4243582,2.687259,-1.082106,-2.505157,-2.904173,0.3238107],
[-2.92922,-2.353628,-3.925027,1.465479,2.914232,1.047944,2.251404,2.266511,2.399754,-2.870666,2.482518,1.587451,-1.86037,-2.543697,-0.4760783,-3.114919,-1.342103,1.637991,-2.933007,1.67678,-3.120302,0.2529198,-3.666169,1.020486,2.181911,2.59708,0.06725431,-2.545151,-3.169193,-2.184741,-2.301556,1.729992,3.662337],
[-0.6084109,-1.199587,2.0514,1.455002,-0.534497,-0.1760076,-3.053522,0.2320013,-0.8990651,-2.376266,1.853849,0.6585755,2.179804,-3.208095,1.161054,-0.2898426,0.2024145,-2.296457,2.624794,1.353718,-0.04483803,0.462399,-3.719953,1.684222,-3.960432,3.706403,3.769129,-3.523278,-0.04196434,1.34036,3.473519,3.237945,-1.538857],
[-2.5639,3.1001,-3.395708,-2.798422,3.918893,-3.385151,3.254866,0.9417488,-3.556374,0.7999463,-0.945597,3.953434,-1.485916,3.372194,3.080167,3.494799,-2.888347,-1.769295,-1.66748,-2.135897,-2.688995,-2.471014,-1.840618,-1.848183,0.5486069,3.740493,-0.4847483,-1.532748,-2.923976,2.303991,3.037116,-2.987065,1.921686],
[3.532799,-1.083459,1.048271,3.794809,-2.246682,-0.4735246,0.6407318,-2.163618,0.3776715,-2.946349,-2.5075,-0.445715,-0.3248541,-2.398302,-3.524557,1.385864,-1.883845,-3.950945,-1.540409,2.138805,0.5698867,2.219519,-0.08617957,3.376727,3.584052,2.188148,-3.209828,2.467451,-3.649125,-3.877561,2.084703,-0.271382,1.16405],
[3.694231,2.771218,1.818129,-1.550832,2.686761,0.9316185,-2.231889,-0.4267663,-3.163885,0.5593325,2.816432,-0.8457267,1.507542,-1.666399,-2.103315,1.497374,3.141764,-3.215364,3.138439,-2.65782,-1.635854,-2.949497,2.065693,-3.324703,3.287574,2.789268,-1.843419,2.768122,0.1917418,3.079286,-3.431772,-3.40836,-3.127261],
[2.643791,-3.400343,-3.808329,0.7371546,3.397026,3.35814,3.551129,-1.330546,-3.874385,2.604957,3.158889,-1.731268,-2.121341,0.7873955,2.38165,-1.320403,-2.522343,1.309823,-2.716825,1.993194,2.194873,-1.874114,0.3614327,2.770932,3.291671,0.1434101,0.3200656,1.175481,2.905325,1.621876,0.3842904,-0.696526,3.50673],
[-1.243779,0.2666757,-3.091142,1.80374,-0.5907509,-1.056183,-2.475092,-2.163199,1.919224,-3.252691,-3.781944,-1.618293,3.448814,-3.463188,1.87279,-3.398025,-0.9207699,2.313757,-3.738596,3.700763,0.8056257,1.781594,1.828475,-1.166152,0.1844733,-3.01452,-0.6494162,-2.269546,0.5494564,-3.419399,2.937076,-2.24572,-2.006994],
[-2.009577,0.5262218,-3.092241,-1.945968,2.054241,3.982675,0.4832425,1.853839,-2.160999,-0.8032573,0.8404053,-1.841888,-1.907765,-3.404326,3.890908,1.969533,-1.97294,-1.37601,-1.831491,0.1972003,2.928017,3.914804,0.5724449,-2.440401,-2.420316,0.9484486,-2.164034,-3.681007,3.809735,2.780128,2.888011,0.9234601,0.4764786],
[0.07612082,2.541677,-1.207804,2.045128,1.169141,0.5598496,2.376511,0.8381565,-0.1900603,-0.3524683,1.200553,-3.834196,1.608284,0.5200096,-1.752157,3.032098,3.972282,2.571075,3.800372,0.01630678,-1.782111,-2.913716,3.957242,2.810948,1.013479,2.069192,1.685302,1.36833,0.01945097,-0.3414186,0.1964445,-0.04547199,-2.784048],
[-1.038504,3.061864,-1.376521,1.332151,-2.691548,-2.155719,3.307273,3.159183,-2.697409,0.8000867,3.679402,2.553229,1.848747,-2.231948,-1.832622,-3.547177,0.01621067,2.027147,3.698288,3.767105,-3.358696,-0.3113291,-3.51698,-3.286376,-1.152582,-1.332486,-1.707823,0.2578861,-1.908256,-3.694292,-2.800091,1.888671,1.200512],
[-3.591603,-2.80198,3.856348,-1.58476,0.2455475,-1.095069,-0.1954381,2.714089,-2.799672,-1.178847,-0.2356759,3.686751,-2.935516,-2.983299,2.123573,-0.5473059,-2.605685,-0.4323375,0.8480191,1.498079,-3.637975,0.5089577,-0.3142662,-0.6771743,2.32502,0.7050159,0.6730642,2.32176,0.6829786,-2.377733,1.587304,-2.750057,1.932284]
],
[
[1.628074,1.928386,1.870768,-1.115027,3.890861,-3.351911,2.969784,2.824379,3.480457,-3.145064,2.75232,2.192558,2.726518,3.477093,-3.76767,-2.452881,3.578796,-0.7948633,-0.6243777,-2.37351,-2.095676,-0.4494382,-2.375152,2.474404,3.665965,1.261716,2.637631,3.269176,-1.038366,2.898396,-2.467404,2.472987,-0.174878],
[-2.069587,-0.1509858,-2.863968,3.49759,-3.167747,2.219435,-3.553376,-0.6843625,3.480572,3.850982,3.363726,-3.490812,0.6558889,-3.75844,0.9676256,-1.901283,-1.071312,-2.30612,-0.1538082,3.775802,-3.248266,-0.3958601,0.8045784,-2.245758,3.70207,-2.723726,-3.851626,3.501993,-2.283075,3.307909,-2.932121,-1.096176,1.024567]
]
],
"biases":[
[
-1.665383,1.711619,2.977915,2.119529,-0.6593308,3.963227,-1.682639,3.87562,2.496295,0.8343115,0.673637,-0.9767005,-0.0888046,0.6967561,1.165271,-3.95273,2.295101,-3.265152,-1.875454,-0.4712221,3.470505,3.06284,-3.009807,0.4139915,2.414492,-0.1629816,3.765651,0.5275767,2.196317,-0.522894,2.243094,3.751305,-1.148473
],
[
-3.521348,3.779681
]
]},
{
"fitness":1.829744,
"weights":[
[
[-1.738366,3.819804,3.285106,-0.5334287,2.16976,-2.219444,-2.171606,-2.805437,-2.722683,-0.4528193,-0.3212766,0.3733838,-1.022988,3.481077,-0.4751117,-2.936502,1.869496,-2.011982,1.815285,-0.119169,0.2059107,0.721224,0.8373896,-3.339451,2.123839,-1.884469,0.1923655,-0.2030959,1.124954,3.504394,0.3402409,-3.511792,-2.037601],
[-2.270746,-3.774572,0.1782294,-0.8812811,0.3386625,0.2599749,-3.031281,-0.5627699,0.1855156,-1.709838,2.215887,-2.995996,-1.942437,-2.63526,3.910561,-2.499237,-0.5184563,-1.038052,0.2403591,-2.400764,3.407774,0.7006202,2.740021,0.7828817,2.80179,3.388392,3.600829,-2.300288,1.439267,0.5171697,0.05064868,3.9484,-0.9962655],
[2.053475,2.446915,3.137414,-1.323981,-0.07732848,-3.471081,-1.532545,0.3836698,3.634437,2.168025,-1.968568,2.433658,2.862535,-1.171199,-0.4789518,-1.763112,1.937287,0.8556123,-1.425394,3.53592,2.161,-1.898956,0.7591294,-3.12202,-2.507725,2.044082,-1.259969,-1.805383,-1.527384,1.938712,-3.168648,3.176066,-0.4001763],
[-1.040039,-2.826697,-3.628891,-2.031054,1.356295,3.104415,1.392773,-3.797608,-2.58565,2.030447,2.750207,-2.985308,0.6113159,-2.316465,-3.021868,-0.1623624,-2.303859,1.423569,0.680749,2.888135,-2.356476,1.163972,-2.958614,0.4802887,2.544358,-2.488531,-2.616094,-0.6467667,-0.5570176,-2.378233,1.019239,3.41435,1.37968],
[3.404859,3.786089,2.625753,2.966964,-0.6254709,2.864174,3.300988,-0.009155829,-3.098905,-2.72319,1.783417,3.403874,-2.186289,-3.036649,-3.173312,2.800987,-1.137171,-3.788287,-1.947802,0.5295448,1.170146,-3.072521,1.883149,-1.663125,2.917283,3.558909,-1.197183,0.1540618,0.7279836,-2.604183,3.571762,2.241042,3.089721],
[-0.5848234,0.7017098,0.4197648,-2.484798,0.8284883,0.2606332,-3.837015,-1.369274,2.695986,-1.879225,-0.6029953,-0.1125827,-0.5177264,-0.1187943,1.977268,1.528685,3.675449,3.778118,-1.485115,-0.4161558,-0.6186507,-3.495362,2.660879,-1.81394,-2.342139,-0.6545601,1.139201,1.483309,-0.2534047,0.5380393,2.827566,-0.3730284,-3.274355],
[3.983661,2.691208,1.630445,2.93698,0.5130063,-0.5683371,0.6476523,-1.951377,-1.086691,-0.3141516,-2.135903,-3.27669,-3.303265,1.912637,-3.340873,2.716424,-0.6629943,-3.864414,2.017935,-0.6817138,-2.655061,3.557955,-3.978371,2.724906,3.584677,-0.8055856,3.329669,-3.562943,-1.31095,-1.475122,2.531357,3.211086,-2.976798],
[2.269442,0.8081962,-3.489065,1.404224,2.374693,3.763873,0.2442918,-0.1979763,0.7621124,1.920747,3.41822,-0.723138,2.540336,-2.684888,2.374706,-0.1714881,3.50755,-3.536516,0.604831,3.061956,1.199164,-2.092746,2.342235,0.3421259,0.2483134,-3.755268,-0.3317404,1.596734,-1.81405,2.155525,1.030475,-2.47663,0.4987918],
[2.369496,1.361841,-1.333998,-1.093007,-1.227469,-1.044016,1.890071,-1.361477,-0.1685423,-0.2424104,-2.997208,2.406476,1.717999,-2.53267,2.180727,2.443218,-1.92321,1.435335,-1.527214,-3.438123,-3.885447,0.7645865,0.6303332,2.739554,-0.9727311,0.6041061,-2.222553,3.837189,-1.069548,1.043825,0.2271533,-1.388581,-3.817779],
[-0.5645497,-3.226096,-2.387723,-3.670453,0.4492052,-1.015615,-3.222527,2.207456,1.126675,-2.969037,3.032909,-1.367568,3.423477,-1.518897,2.614612,-2.785887,3.946593,-3.297298,-1.946603,1.277543,0.1395561,3.602268,2.712566,-1.479635,3.415815,1.11771,-3.896523,-3.083767,0.5672885,3.878757,1.302058,2.646088,-3.001604],
[1.482685,-3.243419,-3.041731,-2.45708,-0.006103946,0.9856755,-1.306896,0.9700591,3.438262,1.758193,-3.536685,0.6324179,2.535851,2.046671,-0.5733193,0.3297225,-2.557091,2.096747,2.609241,0.8294951,2.703964,0.6607786,1.295809,3.095789,0.3334689,-2.028659,1.248085,-3.398453,-3.778445,3.726527,2.294415,2.611726,-3.401438],
[0.07691795,1.694463,-3.540473,-0.6179311,-1.841636,-3.006003,3.10848,-1.107487,1.334049,1.831158,-0.7414904,3.814768,0.6922259,1.576913,-3.452996,0.1592237,-1.746514,-3.353621,-3.618651,3.599002,2.718521,2.795925,3.772091,-0.1446122,-3.566179,-3.758873,0.01239882,-2.098221,-0.5398598,-2.707947,1.409565,-2.255361,-3.887474],
[2.95783,-3.521459,0.7436203,1.740826,-1.62879,0.4705274,-2.065366,1.149078,-2.845741,3.840357,0.9700758,-1.556729,1.43965,3.060068,2.949005,-0.6438184,-3.447403,-1.248543,-3.84614,1.450896,-0.4644914,1.720735,3.783935,-2.98675,3.237022,-0.1969345,0.7572578,1.201345,-3.49572,-3.949106,0.378076,-3.216752,0.7259336],
[3.835363,1.899692,-3.246678,-2.475508,1.698765,3.387868,-1.054477,-3.174239,1.427572,-3.690099,3.235678,0.7179456,2.303363,-2.519894,-2.111806,0.3627873,-1.739717,-0.5147653,0.709293,-1.078916,1.399124,-0.9141207,-3.342458,-0.5396163,2.623768,-0.926008,-2.125462,2.454417,-0.613211,-3.785142,-0.3079413,-3.456635,-3.059636],
[0.7560702,-3.630198,-1.10386,-2.515955,-2.943759,-2.070492,-2.539168,-0.3618236,2.505853,-3.038446,3.077127,0.8307839,0.03204479,1.590089,-2.235123,-2.629635,3.249609,-2.578723,3.442154,0.6429093,0.7643404,-1.851546,2.246618,-3.965475,0.8687612,-0.75462,-1.118602,0.6783471,-2.588985,-2.427237,-1.634954,-1.797693,1.418958],
[3.60563,-0.4678347,-2.787975,2.176858,-0.6082024,-3.272611,2.755567,-3.344831,2.949712,0.9662235,-1.998301,-1.980636,1.568709,-3.13827,-2.282116,-3.021616,3.190598,1.841227,-2.797933,0.02704825,3.977868,-1.981066,2.442196,-2.593915,1.125422,-0.8559467,0.5689613,3.723249,-0.8675179,1.897247,-2.03115,2.578176,0.8698025],
[2.673241,-2.544172,-0.8965689,-0.2992399,-1.933928,-3.925367,0.2764583,3.970693,-3.83983,-3.382018,3.906765,-3.77947,1.301029,-2.260486,0.08093055,-3.185572,-0.6589816,1.316167,3.999689,-0.7886294,-0.513536,-0.6068151,-0.5537373,2.423891,3.452479,1.881335,-2.678508,-1.606739,-0.6761737,3.364609,1.933679,-2.871661,-1.056752],
[-0.1441527,-1.247223,3.608027,3.331769,0.6221454,1.74292,-1.488554,3.551857,1.159892,-1.650634,-0.611539,-0.5258684,0.9837443,1.830562,1.596643,2.403094,0.7666287,3.703279,3.209724,-3.877259,-2.270764,-0.7942486,1.71574,-1.136713,1.296631,1.554766,3.739874,-2.889918,-3.496372,-1.273824,0.8522272,-3.937226,1.00208],
[3.406942,3.999842,3.167921,-3.113387,0.4805135,3.086119,0.8328041,-3.126513,-0.8407778,3.288849,0.3554956,-1.662589,-2.381725,-2.555152,-3.342562,2.6775,1.488328,-2.091738,1.753221,0.199733,3.59132,2.29919,-1.876936,2.674411,-3.058276,-3.861818,-2.108666,3.932742,-0.3855239,-0.5913118,0.3401649,-0.1670678,3.046516],
[-3.22345,-3.91253,0.4341013,-1.971841,-3.643565,3.097713,-1.189161,1.504815,-0.198104,0.3280964,2.739265,2.297523,1.078951,2.041258,0.7990465,2.992098,-2.706824,3.061006,-3.494852,2.609043,-0.2764317,2.199133,-2.227979,0.7045317,3.25832,-0.3004901,-3.667426,1.173242,-0.2236401,-0.08471705,-1.354166,0.8121843,-1.11886],
[-1.230498,3.052023,0.6667312,-2.102265,2.331933,-2.742204,2.264374,0.8216252,-0.2318522,-1.505009,-2.597406,0.7017106,-1.465509,3.83345,-2.840117,-0.2486823,3.522866,-0.3339963,-3.914741,1.144502,-2.74985,0.307748,3.168936,-3.455111,3.945652,-2.08316,-2.504072,2.8959,-0.8181716,-1.736032,-0.9747203,-2.764402,-0.2151046],
[-0.2804223,-2.855022,3.219434,0.1212619,-0.4880454,2.512636,0.8293069,-2.012913,-0.5773729,-2.27347,-1.372816,-2.203105,2.483747,-3.202006,-2.561405,-2.085659,0.8527774,0.3774824,-1.238803,-0.3104165,-1.542449,3.52065,2.413841,-2.465528,-2.552233,-2.030526,-2.534958,-0.4243582,2.687259,-1.082106,-2.505157,-2.904173,0.3238107],
[-2.92922,-3.741417,-3.925027,1.465479,2.914232,1.047944,2.251404,2.266511,2.399754,2.993855,2.482518,1.587451,-1.86037,-2.543697,-0.4760783,-1.58518,-1.342103,1.637991,-2.933007,1.67678,-3.120302,0.2529198,-3.666169,1.020486,2.181911,2.59708,0.06725431,-2.545151,-3.169193,-2.184741,-2.301556,1.729992,3.662337],
[-0.6084109,-1.27401,2.0514,2.271962,-0.534497,-0.1760076,-3.053522,0.2320013,-0.8990651,-2.376266,1.853849,2.062288,2.179804,-3.208095,1.161054,-0.2898426,0.2024145,-0.7352915,2.624794,3.037956,-0.04483803,0.08643126,-3.719953,1.684222,-3.960432,-0.07625677,3.769129,-1.913134,-0.04196434,1.34036,3.473519,3.237945,-1.538857],
[-2.5639,3.1001,-3.395708,-2.798422,-2.186406,-3.385151,3.254866,0.9417488,-3.556374,0.7999463,-0.945597,3.953434,-1.485916,3.372194,1.439121,3.494799,-2.888347,0.9367241,-1.66748,-2.135897,-2.688995,-2.471014,-1.840618,-1.848183,0.5486069,3.740493,-0.4847483,-1.532748,-2.923976,2.303991,3.037116,3.871546,1.921686],
[3.532799,-1.083459,1.048271,3.794809,-2.246682,-0.4735246,2.74316,-3.995994,0.3776715,3.063365,-2.5075,-0.445715,-0.3248541,-3.194355,-3.524557,1.385864,1.197007,-3.950945,-1.540409,2.138805,0.5698867,2.219519,0.8895007,3.376727,3.584052,2.188148,-3.209828,2.428212,-3.649125,-3.877561,2.084703,-0.271382,1.16405],
[-1.340819,2.771218,1.818129,3.508455,2.686761,0.9316185,-2.231889,-0.4267663,-3.163885,0.5593325,2.816432,-0.8457267,1.507542,-2.365384,-2.103315,1.497374,3.141764,-3.215364,3.138439,-2.65782,-1.635854,-2.949497,2.065693,-3.324703,3.287574,2.789268,-1.843419,2.768122,0.1917418,3.079286,-3.431772,2.862067,-3.127261],
[2.643791,-3.400343,-3.808329,0.7371546,-1.458467,3.35814,2.702676,-1.330546,-3.874385,2.604957,3.158889,-1.731268,-2.121341,0.7873955,2.38165,-1.320403,-2.522343,1.309823,-2.716825,1.993194,2.194873,-1.874114,0.3614327,2.770932,3.291671,0.1434101,0.3200656,1.175481,2.905325,1.621876,-0.4096217,-0.696526,3.50673],
[-1.243779,0.2666757,2.214647,1.80374,-0.5907509,-1.056183,-2.475092,-2.163199,1.919224,-3.252691,-3.781944,-1.618293,3.448814,-3.463188,1.87279,-3.398025,-0.9207699,2.313757,-3.738596,3.700763,0.8056257,1.781594,1.828475,-1.166152,-0.2753811,-3.01452,-0.6494162,-2.269546,0.5494564,-3.419399,2.937076,-2.24572,-2.006994],
[-2.009577,0.5262218,-3.092241,-1.945968,2.355637,3.982675,0.4832425,1.853839,-2.160999,-0.8032573,0.8404053,-1.841888,0.9864326,0.1882572,3.890908,1.969533,-1.97294,-1.37601,-1.831491,0.1972003,2.714904,3.914804,0.5724449,-3.110141,-2.420316,0.9484486,-2.164034,-3.681007,3.809735,2.780128,2.888011,0.9234601,-3.79195],
[0.07612082,2.541677,-1.207804,2.045128,1.169141,-0.5046147,2.376511,0.8381565,-0.1900603,-0.3524683,1.200553,-3.834196,1.608284,-0.08351935,-1.752157,2.676112,3.972282,2.571075,3.800372,0.01630678,-1.782111,-2.913716,3.957242,2.810948,1.013479,-0.2573393,1.685302,1.36833,0.01945097,-0.3414186,0.1964445,-0.04547199,-2.784048],
[-1.038504,3.061864,-1.376521,1.332151,-2.691548,1.75123,3.307273,3.159183,2.30742,0.8000867,3.679402,2.553229,3.524065,-1.11389,-1.832622,-3.547177,0.01621067,2.027147,3.698288,-0.6440433,-3.358696,-3.572478,-3.51698,-3.286376,-1.152582,-1.332486,-1.707823,3.52728,-1.908256,-3.694292,-2.800091,1.888671,1.200512],
[-3.591603,-2.80198,3.856348,-1.58476,0.4355824,-1.095069,-0.1954381,2.714089,-2.799672,-1.178847,-0.2356759,3.686751,3.512296,-2.983299,2.123573,-0.5473059,-2.605685,-0.4323375,0.8480191,1.498079,-3.637975,0.5089577,-0.2951152,-0.6771743,2.32502,0.7050159,0.6730642,2.32176,0.6829786,-2.377733,1.587304,-2.750057,1.932284]
],
[
[1.628074,1.928386,1.870768,-1.115027,3.890861,3.835497,2.969784,2.824379,3.480457,-3.145064,2.75232,-0.9468919,2.726518,-2.695378,-3.76767,-2.452881,3.578796,-0.7948633,-0.6243777,-2.37351,-2.095676,-0.4494382,-2.375152,2.474404,3.665965,1.261716,2.637631,3.269176,-1.038366,2.898396,-2.467404,2.472987,-0.174878],
[-2.069587,-0.1509858,-2.863968,3.49759,-2.561231,2.219435,-3.553376,-0.6843625,-0.326367,3.850982,3.363726,-3.490812,0.6558889,-3.75844,0.9676256,-1.901283,-1.071312,-3.43437,-0.1538082,3.775802,-3.248266,-0.3958601,0.8045784,-2.245758,3.70207,-3.661962,-3.851626,3.501993,-2.283075,3.307909,-2.932121,-1.096176,1.024567]
]
],
"biases":[
[
-1.665383,1.711619,2.977915,2.119529,-0.6593308,3.963227,-1.682639,3.87562,2.496295,0.8343115,0.673637,-0.9767005,-0.0888046,0.6967561,1.165271,-3.95273,2.295101,-3.265152,1.667422,-0.4712221,3.470505,3.06284,-3.009807,0.4139915,2.859061,-0.1629816,3.765651,1.807262,2.196317,-0.522894,2.881643,3.751305,-1.148473
],
[
-3.521348,3.779681
]
]},
{
"fitness":1.812224,
"weights":[
[
[-1.916342,3.819804,3.285106,-0.5334287,2.16976,-2.219444,-2.171606,-2.805437,-2.722683,-0.4528193,-0.3212766,0.3733838,-1.911461,3.716795,-0.4751117,-2.936502,-3.772161,-2.011982,1.815285,-0.119169,0.2059107,0.721224,0.8373896,-3.339451,2.123839,-1.884469,0.1923655,-0.2030959,1.124954,3.504394,0.3402409,2.835743,-2.037601],
[-2.270746,-3.774572,0.1782294,-0.8812811,0.3386625,0.2599749,-3.031281,-0.5627699,0.1855156,-1.709838,2.215887,-2.995996,1.582495,-2.63526,1.940661,-2.499237,-0.5184563,-1.038052,0.4130231,-2.400764,3.407774,0.7006202,2.740021,0.7828817,2.80179,3.388392,3.600829,-2.20208,1.439267,0.5171697,0.05064868,3.9484,-0.9962655],
[2.053475,2.446915,3.137414,-1.323981,-0.07732848,-3.471081,-1.532545,0.3836698,3.634437,2.168025,-1.968568,2.433658,2.862535,-1.171199,-0.4789518,-1.763112,1.937287,-2.251801,-1.425394,3.53592,1.419477,-1.898956,0.2155975,-3.12202,-1.102097,2.044082,-1.259969,-1.805383,-1.527384,1.938712,-3.168648,3.176066,-0.4001763],
[-1.040039,-2.826697,-3.628891,-1.932861,1.356295,3.104415,1.392773,-3.797608,-2.58565,2.030447,2.750207,-2.985308,0.3372135,-2.316465,-3.021868,-0.1623624,-2.303859,1.423569,0.680749,2.888135,-2.356476,1.163972,-2.958614,0.4802887,-3.666774,-2.488531,-2.88634,-0.4327453,-0.5570176,3.771673,1.019239,3.41435,1.37968],
[3.404859,3.786089,2.625753,2.966964,-0.6254709,2.864174,3.300988,-0.009155829,-3.098905,-2.696178,1.783417,3.403874,-2.186289,-3.036649,-3.173312,2.800987,-1.137171,-3.788287,-1.947802,0.5295448,1.170146,-3.072521,1.883149,-1.663125,2.917283,-2.364359,-1.197183,0.1540618,-2.080996,-2.604183,0.5228612,2.241042,3.089721],
[-0.5848234,0.7017098,0.4197648,-0.3637502,0.8284883,0.2606332,-3.837015,-1.369274,-2.031842,-1.879225,-0.6029953,-0.1125827,-0.5177264,-0.1187943,1.977268,0.5140324,3.675449,3.778118,-1.485115,-0.4161558,-0.6186507,-3.495362,2.660879,-2.71636,2.975179,-0.6545601,1.139201,1.483309,-0.2534047,0.5380393,2.827566,-0.3730284,-3.274355],
[3.983661,2.691208,1.630445,2.93698,0.5130063,-0.5683371,0.6476523,-1.951377,-1.086691,-0.3141516,-2.135903,-3.27669,-3.303265,1.912637,-2.162247,2.716424,-0.6629943,-3.864414,2.017935,-0.6817138,-2.655061,3.557955,-3.978371,2.724906,3.584677,-0.8055856,3.329669,-3.562943,-1.31095,-1.475122,-3.313021,3.211086,-2.976798],
[1.363,0.8081962,-0.3603495,1.404224,2.374693,3.763873,0.2442918,-0.1979763,0.7621124,1.920747,3.41822,-0.723138,2.540336,-2.550911,2.374706,-0.2630612,3.50755,-3.536516,0.604831,-0.489565,1.199164,-2.092746,2.342235,0.3421259,0.2483134,-3.755268,-0.3317404,1.596734,-1.81405,2.155525,1.030475,-2.47663,0.4987918],
[2.369496,-1.390033,-1.333998,-1.093007,-1.227469,-1.044016,1.890071,-1.361477,-0.1685423,1.385138,-2.997208,2.406476,1.717999,0.6614248,2.180727,2.443218,-1.92321,0.8866167,-1.527214,-3.438123,-3.885447,0.7645865,3.097442,2.739554,2.948904,0.6041061,-2.222553,3.837189,-1.069548,1.043825,0.2271533,-1.388581,-3.817779],
[-0.5645497,-3.226096,-2.387723,-3.670453,0.4492052,-1.015615,-3.222527,2.207456,1.126675,-0.6167582,3.032909,3.685882,3.423477,2.28898,2.614612,-2.785887,3.946593,-3.297298,2.131312,1.277543,0.1395561,3.602268,2.712566,-1.479635,3.415815,1.11771,-3.896523,-3.083767,0.5672885,3.878757,1.302058,2.646088,-1.799945],
[1.482685,-3.243419,-0.1362076,-2.45708,-0.006103946,0.9856755,-1.306896,0.9700591,3.438262,1.758193,-3.536685,0.6324179,2.535851,2.046671,-0.5733193,0.3297225,-2.557091,2.096747,2.609241,0.8294951,2.703964,0.6607786,1.295809,3.095789,0.3334689,-2.028659,1.248085,-3.398453,-3.778445,3.726527,2.294415,2.611726,-3.401438],
[0.07691795,1.694463,-3.540473,-0.6179311,-1.841636,-3.006003,3.10848,-1.107487,1.334049,-3.683611,-0.7414904,2.321583,0.6922259,1.576913,-3.452996,0.1592237,-1.746514,1.141042,-3.618651,3.599002,2.718521,-2.825614,3.772091,-0.1446122,-3.566179,-3.758873,0.01239882,-2.098221,-0.5398598,-2.707947,1.409565,-2.255361,-3.887474],
[-2.488845,-3.521459,0.7436203,1.740826,-1.62879,0.4705274,-2.065366,1.149078,-2.845741,3.840357,0.1235809,-1.556729,1.43965,3.060068,2.949005,3.927456,-3.447403,-1.248543,2.839045,1.450896,-0.4644914,1.720735,3.783935,-2.98675,3.237022,-0.2033785,0.7572578,1.201345,2.653275,-3.949106,0.378076,-3.216752,2.836848],
[3.835363,1.899692,-3.246678,-2.475508,1.698765,3.387868,-1.054477,-3.174239,1.427572,-3.690099,3.235678,0.7179456,2.303363,-2.262865,-2.111806,2.397316,-1.739717,-0.5147653,0.709293,1.603194,1.399124,-0.9141207,-3.342458,2.497654,2.623768,-0.926008,-2.125462,2.454417,-0.613211,-3.785142,-0.3079413,-3.456635,-3.059636],
[0.7560702,-3.630198,-1.10386,-2.515955,-2.928611,-2.070492,-2.539168,-0.3618236,2.505853,-3.038446,3.077127,0.8307839,0.03204479,1.590089,-2.235123,-2.629635,3.249609,-2.578723,3.442154,0.6429093,0.7643404,-1.851546,2.246618,-3.965475,0.8687612,-0.75462,-1.118602,0.6783471,-2.588985,-2.276455,-1.634954,-1.797693,1.418958],
[3.60563,-0.4678347,-2.787975,2.176858,-0.6082024,-3.272611,2.755567,-3.344831,2.949712,0.9662235,-1.998301,-1.980636,1.568709,-3.13827,-2.282116,-3.021616,3.190598,1.841227,-2.797933,0.02704825,3.977868,-1.981066,2.442196,-2.593915,1.125422,-0.8559467,0.5689613,3.778326,-0.8675179,1.897247,-2.03115,2.578176,1.859599],
[2.673241,-2.544172,-0.8965689,-0.2992399,-0.4436555,-3.925367,0.2764583,3.970693,2.690727,-3.382018,3.906765,-3.77947,1.301029,-2.260486,0.08093055,-3.185572,-0.6589816,1.316167,3.999689,1.351074,-0.513536,-0.6068151,-0.5537373,2.423891,3.452479,1.881335,-2.678508,-1.606739,-0.6761737,2.889332,1.933679,-2.871661,-1.056752],
[-0.1441527,-1.247223,3.608027,-0.1967786,0.6221454,1.74292,-1.488554,3.551857,1.159892,-1.650634,-0.611539,-0.9675206,0.9837443,-0.40103,1.596643,-0.06132524,0.7666287,3.703279,3.209724,-3.877259,-2.589709,-0.7942486,1.71574,-1.136713,1.296631,-0.95353,3.739874,-2.889918,-3.496372,0.425368,0.8522272,-3.937226,1.00208],
[3.406942,3.999842,3.167921,-3.485487,0.4805135,3.086119,0.8328041,-3.126513,-0.8407778,3.288849,0.3554956,-1.662589,-2.381725,-2.555152,-3.342562,2.6775,1.488328,-2.091738,1.753221,3.027295,3.71207,2.29919,-1.876936,-2.491395,-3.058276,3.461476,-2.108666,1.403444,-0.3855239,-0.5913118,0.3401649,-0.1670678,3.046516],
[-3.22345,-3.163558,0.4341013,-1.971841,-3.643565,3.097713,-1.189161,1.504815,-0.198104,0.3280964,-2.423651,-3.415311,1.078951,2.041258,-2.970503,2.992098,-2.706824,3.061006,-3.494852,2.609043,-0.2764317,2.199133,-2.227979,0.7045317,3.25832,-0.3004901,-3.667426,1.173242,-0.2236401,-0.08471705,-1.354166,0.8121843,-1.11886],
[-1.846197,3.052023,1.606803,-2.102265,2.331933,-3.512119,2.264374,0.8216252,-0.2318522,-1.505009,-2.597406,0.7017106,-1.465509,3.83345,-2.840117,-0.2486823,2.832281,-3.14714,-3.914741,1.144502,-2.74985,0.307748,3.168936,-3.455111,3.945652,-2.08316,-2.504072,2.8959,-0.8181716,-1.736032,-0.9747203,-2.764402,-0.2151046],
[-0.2804223,-2.855022,3.219434,0.1212619,-0.4880454,1.060913,0.8293069,-2.012913,-0.5773729,-2.27347,-1.372816,-2.203105,2.483747,-3.202006,-2.561405,-2.085659,0.8527774,0.3774824,-1.238803,-0.3104165,-1.542449,3.52065,2.413841,-2.465528,-2.552233,3.767804,-2.534958,-0.4243582,2.687259,-1.082106,-2.505157,-2.904173,0.3238107],
[-2.92922,-3.741417,-3.925027,1.465479,2.914232,1.047944,2.251404,2.266511,2.399754,-2.870666,2.482518,1.587451,-1.86037,-2.543697,-0.4760783,-3.114919,-1.342103,1.637991,-0.1907742,1.67678,-3.120302,0.2529198,-3.666169,1.020486,2.181911,2.59708,0.06725431,-2.545151,-3.169193,-2.184741,-2.301556,1.729992,3.662337],
[-0.6084109,-1.27401,2.0514,3.278064,-0.534497,-0.1760076,-3.053522,0.2320013,-0.8990651,-2.376266,1.853849,2.062288,2.179804,-3.208095,1.161054,-0.2898426,0.2024145,-0.7352915,2.624794,1.90407,-2.88862,0.08643126,-3.719953,1.684222,-3.960432,-0.07625677,3.769129,-1.913134,-0.04196434,1.34036,3.473519,-1.925329,-1.538857],
[-2.5639,3.1001,-3.395708,-2.798422,-2.186406,-3.385151,3.254866,0.9417488,-3.556374,0.7999463,-0.945597,3.953434,-1.485916,3.372194,-1.879802,3.494799,-2.888347,0.9367241,-1.66748,-2.135897,-2.688995,-2.471014,-3.678444,-1.848183,0.5486069,3.740493,-0.4847483,-1.532748,-2.923976,2.303991,3.037116,3.871546,1.921686],
[3.532799,-1.083459,1.048271,3.794809,-2.246682,-0.4735246,2.74316,-3.995994,0.3776715,3.063365,-2.5075,-0.445715,-2.476529,-3.194355,-3.720337,1.385864,1.197007,-3.950945,-1.540409,2.138805,0.5698867,2.219519,0.8895007,3.376727,3.584052,2.188148,-3.209828,2.428212,-3.649125,-3.877561,2.084703,-0.271382,1.16405],
[3.694231,2.771218,1.818129,3.508455,2.686761,0.9316185,-2.231889,-0.4267663,-3.163885,0.5593325,2.816432,-0.8457267,1.507542,-1.666399,-2.103315,1.497374,3.141764,-3.215364,3.138439,-2.65782,-2.704946,-2.949497,2.065693,-3.324703,3.287574,2.789268,-1.843419,2.768122,0.1917418,3.079286,-3.431772,-3.40836,-3.127261],
[2.643791,-3.400343,-3.808329,0.7371546,3.397026,3.35814,2.702676,-1.330546,-3.874385,2.604957,3.158889,-1.731268,-2.121341,0.7873955,2.38165,-1.320403,0.3739103,1.309823,-2.716825,1.993194,-2.560786,-1.874114,0.3614327,2.770932,3.291671,0.1434101,0.3200656,1.175481,2.905325,1.621876,-0.4096217,-0.696526,3.50673],
[-1.243779,0.2666757,1.075011,1.80374,-0.5907509,-1.056183,-3.195948,-1.942788,1.919224,-3.252691,-3.781944,-1.618293,3.448814,-3.463188,1.87279,-3.398025,-0.9207699,2.313757,-3.738596,3.700763,0.8056257,1.781594,1.828475,-1.166152,-1.230805,-3.01452,-0.6494162,-2.269546,0.5494564,-3.419399,2.937076,-2.24572,0.7013023],
[-2.009577,0.5262218,-1.93723,-1.945968,2.355637,3.982675,0.4832425,1.853839,-2.160999,-0.8032573,0.8404053,-1.841888,0.9864326,0.1882572,3.890908,1.969533,-1.97294,-1.37601,-1.831491,0.1972003,2.714904,3.914804,0.5724449,-3.110141,-2.420316,0.9484486,-2.164034,-3.681007,3.809735,2.780128,2.888011,0.9234601,0.4764786],
[0.07612082,2.541677,-1.207804,2.045128,1.169141,0.5598496,2.376511,0.8381565,-0.1900603,-0.9592885,1.200553,-3.834196,1.608284,0.5200096,-1.752157,2.676112,3.505664,2.571075,3.800372,0.01630678,-1.782111,-2.913716,3.957242,2.810948,1.013479,-0.2573393,1.685302,1.614413,0.01945097,-0.3414186,0.1964445,-0.04547199,-2.784048],
[-1.038504,3.061864,-1.376521,1.332151,-2.691548,-2.155719,3.307273,3.159183,2.30742,0.8000867,3.679402,2.553229,3.524065,-2.231948,-1.832622,-3.547177,0.01621067,2.027147,3.698288,3.767105,-3.358696,-0.3113291,-3.51698,-3.286376,-1.152582,-1.332486,-1.707823,3.52728,-1.908256,-3.694292,-2.800091,1.888671,1.200512],
[-3.591603,-2.80198,-1.277162,-1.58476,0.2455475,-1.095069,-0.1954381,2.714089,-2.799672,-1.178847,-0.2356759,3.686751,3.512296,-2.983299,2.123573,-0.5473059,-2.605685,-0.4323375,0.8480191,1.498079,-3.637975,0.5089577,-0.3142662,-0.6771743,2.32502,0.7050159,0.6730642,2.32176,0.6829786,-2.377733,1.587304,-2.750057,1.932284]
],
[
[1.628074,1.928386,1.870768,-1.115027,3.890861,-3.351911,2.969784,2.824379,3.480457,-3.145064,2.75232,2.192558,2.726518,3.477093,-3.76767,-2.452881,3.578796,-0.7948633,-0.6243777,-2.37351,-0.7458774,-0.4494382,-2.375152,2.474404,3.665965,1.261716,2.637631,3.269176,0.2654629,2.898396,-2.467404,2.472987,-0.174878],
[-2.069587,-0.1509858,-2.863968,3.49759,-3.167747,2.219435,-3.553376,-0.6843625,3.480572,3.850982,3.363726,-3.490812,-2.606347,-3.75844,0.9676256,-1.901283,-1.071312,-3.43437,-0.1538082,3.775802,-3.248266,3.23716,0.8045784,-2.245758,3.70207,-3.661962,-3.851626,3.501993,-2.283075,3.307909,-2.932121,-1.096176,1.024567]
]
],
"biases":[
[
-1.665383,-1.055847,2.977915,2.119529,-0.6593308,2.595631,-1.682639,3.87562,0.6678129,0.8343115,0.673637,-0.9767005,-0.0888046,0.6967561,1.165271,-3.95273,2.295101,-3.265152,1.667422,-0.4712221,3.470505,3.06284,-3.009807,0.4139915,2.859061,-0.1629816,3.765651,-1.365583,-2.144274,-0.522894,2.881643,3.751305,-2.295712
],
[
-3.521348,3.779681
]
]},
{
"fitness":1.746452,
"weights":[
[
[-1.738366,3.819804,3.285106,-0.5334287,2.16976,-2.219444,-2.171606,-2.805437,-0.4906727,-0.4528193,-0.3212766,0.3733838,1.299233,3.716795,-0.4751117,-2.126449,1.869496,-2.011982,1.815285,-0.119169,0.2059107,0.721224,0.8373896,-3.339451,2.123839,-1.884469,0.1923655,-0.2030959,1.124954,3.504394,1.732358,-3.511792,-2.037601],
[-2.270746,-3.774572,0.1782294,-0.8812811,0.3386625,0.2599749,-3.031281,-0.5627699,0.1855156,-1.709838,2.215887,-2.995996,1.582495,-2.63526,3.910561,-2.499237,-0.5184563,-1.038052,0.2403591,-2.400764,3.407774,0.7006202,2.740021,0.7828817,2.80179,3.388392,3.600829,-2.300288,1.439267,0.5171697,0.05064868,3.9484,-0.9962655],
[2.053475,2.446915,3.137414,-1.323981,-0.07732848,-3.471081,-1.532545,0.3836698,3.634437,2.168025,-1.968568,2.433658,2.862535,-1.171199,-0.4789518,-1.763112,1.937287,0.8556123,-1.425394,3.53592,2.161,-1.898956,0.2155975,-3.12202,-2.507725,2.044082,-1.259969,-1.805383,-1.527384,1.938712,-3.168648,3.176066,-0.4001763],
[-1.040039,-2.826697,-3.628891,-2.031054,1.356295,3.104415,1.392773,-3.797608,-2.58565,2.030447,2.750207,-2.985308,0.6113159,-2.316465,-3.021868,-0.1623624,-2.303859,1.423569,0.680749,2.888135,-2.356476,1.163972,-2.958614,0.4802887,2.544358,-2.488531,-2.616094,-0.6467667,-0.5570176,3.771673,1.019239,3.41435,1.37968],
[3.404859,3.786089,2.625753,2.966964,-0.6254709,2.864174,3.300988,-0.009155829,-3.098905,-2.72319,1.783417,3.403874,-2.186289,-3.036649,-3.173312,2.800987,-1.137171,-3.788287,-1.947802,0.5295448,1.170146,-3.072521,1.883149,-1.663125,2.917283,3.558909,-1.197183,0.1540618,-2.080996,-2.604183,3.571762,2.241042,3.089721],
[-0.5848234,0.7017098,0.4197648,-2.484798,0.8284883,0.2606332,-3.837015,-1.369274,2.695986,-1.879225,-0.6029953,-0.1125827,-0.5177264,-0.1187943,1.977268,1.528685,3.675449,3.778118,-1.485115,-0.4161558,-0.6186507,-3.495362,2.660879,-2.71636,-2.342139,2.176441,1.139201,1.483309,-0.2534047,0.5380393,2.827566,-0.3730284,-3.274355],
[3.983661,2.691208,1.630445,2.93698,0.5130063,-0.5683371,0.6476523,-1.951377,-1.086691,-0.3141516,-2.135903,-3.27669,-3.303265,1.912637,-3.340873,2.716424,-0.6629943,-3.864414,2.017935,-0.6817138,-2.655061,3.557955,-3.978371,2.724906,3.584677,-0.8055856,3.329669,-3.562943,-1.31095,-1.475122,2.531357,3.211086,-2.976798],
[2.269442,0.8081962,-3.489065,1.404224,2.374693,3.763873,0.2442918,-0.1979763,0.7621124,1.920747,3.41822,-0.723138,2.540336,-2.684888,2.374706,-0.1714881,3.50755,-3.536516,0.604831,3.061956,1.199164,-2.092746,2.342235,0.3421259,0.2483134,-3.755268,-0.3317404,1.596734,-1.81405,2.155525,1.030475,-2.47663,0.4987918],
[2.369496,1.361841,-1.333998,-1.093007,-1.227469,-1.044016,1.890071,-1.361477,-0.1685423,-0.2424104,-2.997208,2.406476,1.717999,-2.53267,2.180727,2.443218,-1.92321,0.8866167,-1.527214,-3.438123,-3.885447,0.7645865,0.6303332,2.739554,2.948904,0.6041061,-2.222553,3.837189,-1.069548,1.043825,0.2271533,-1.388581,-3.817779],
[-0.5645497,-3.226096,-0.09533341,-3.670453,0.4492052,-1.015615,-3.222527,2.207456,1.126675,-2.969037,3.032909,-1.860449,3.423477,-1.518897,2.614612,-2.785887,3.946593,-3.297298,-0.8295377,1.277543,0.1395561,3.602268,2.712566,-1.479635,3.415815,1.11771,3.544462,-3.083767,0.5672885,3.878757,1.302058,2.646088,-3.001604],
[1.482685,-3.243419,-0.1362076,-2.45708,-0.006103946,0.9856755,-1.306896,0.9700591,3.438262,1.758193,-3.536685,0.6324179,2.535851,2.046671,-0.5733193,0.3297225,-2.557091,2.096747,2.609241,0.8294951,2.703964,0.6607786,1.295809,3.095789,0.3334689,-2.028659,1.248085,-3.398453,-3.778445,3.726527,2.294415,2.611726,-3.401438],
[0.07691795,1.694463,-3.540473,-0.6179311,-1.841636,-3.006003,3.10848,-1.107487,-1.385527,1.831158,-0.7414904,3.814768,0.6922259,1.576913,-3.452996,0.1592237,-1.746514,-3.353621,-3.618651,3.599002,2.718521,2.795925,3.772091,-0.1446122,-3.566179,-3.758873,0.01239882,-2.098221,-0.5398598,-2.707947,1.409565,-2.255361,-3.887474],
[2.95783,-3.521459,0.7436203,1.740826,-1.62879,0.4705274,2.686837,1.149078,-2.845741,3.840357,0.1235809,-1.556729,1.168396,3.060068,2.949005,-0.6438184,-3.447403,-1.248543,-3.84614,1.450896,-0.4644914,1.720735,3.783935,-2.98675,3.237022,-0.1969345,0.7572578,1.201345,-3.49572,-3.949106,0.378076,-3.216752,0.7259336],
[3.835363,1.899692,-3.246678,-2.475508,1.698765,3.387868,-1.054477,-3.174239,1.427572,-3.690099,3.235678,-3.372735,2.303363,-2.519894,-2.111806,0.3627873,-1.739717,-0.5147653,0.709293,-1.078916,1.399124,-0.9141207,-3.342458,-0.5396163,2.623768,-0.926008,-2.125462,2.454417,-0.613211,3.661454,-0.3079413,-3.456635,-3.059636],
[0.7560702,-3.630198,-1.10386,-2.515955,3.209603,-2.070492,-2.539168,-0.3618236,2.505853,-3.038446,3.077127,0.8307839,0.03204479,1.590089,-2.235123,-2.629635,3.249609,-2.578723,3.442154,0.6429093,0.7643404,-1.851546,2.246618,-3.965475,0.8687612,-0.75462,-1.118602,0.6783471,-2.588985,-2.427237,-1.634954,-1.797693,1.418958],
[3.60563,-0.4678347,-2.787975,2.176858,-0.6082024,-3.272611,2.755567,-3.344831,2.949712,0.9662235,-1.998301,-1.980636,1.568709,-3.13827,-2.282116,-3.021616,3.190598,1.841227,-2.797933,0.02704825,3.977868,-1.981066,2.442196,-2.593915,1.125422,-0.8559467,0.5689613,3.723249,-0.8675179,1.897247,-2.03115,2.578176,0.8698025],
[2.673241,-2.544172,-0.8965689,-0.2992399,-1.933928,-3.925367,0.2764583,3.970693,-3.83983,-3.382018,3.906765,-3.77947,1.301029,-2.260486,0.08093055,-3.185572,-0.6589816,1.316167,3.999689,-0.7886294,-0.513536,-0.6068151,-0.5537373,2.423891,3.452479,1.881335,-2.678508,-1.606739,-0.6761737,2.889332,1.933679,-2.871661,-1.056752],
[-0.1441527,-1.247223,3.608027,1.360287,0.6221454,1.74292,-1.488554,3.551857,1.159892,-1.650634,-0.611539,-0.5258684,0.9837443,1.830562,1.596643,2.403094,0.7666287,3.703279,3.209724,-3.877259,-2.270764,-0.7942486,1.71574,-1.136713,1.296631,1.554766,3.739874,-2.889918,-3.496372,-1.273824,0.8522272,-3.937226,1.00208],
[3.406942,3.999842,3.167921,-3.113387,0.4805135,3.086119,0.8328041,-3.126513,-0.8407778,3.288849,0.3554956,-1.662589,-2.381725,-2.555152,-3.342562,2.6775,1.488328,-2.091738,1.753221,0.199733,3.59132,2.29919,-1.876936,2.674411,-3.058276,3.461476,-2.108666,1.403444,-0.3855239,-0.5913118,0.3401649,-0.1670678,3.046516],
[0.4626671,-3.91253,0.4341013,-1.971841,-3.643565,3.097713,-1.189161,1.504815,-0.198104,0.3280964,2.739265,2.297523,1.078951,2.041258,-2.970503,2.992098,-2.706824,3.061006,-3.494852,2.609043,-0.2764317,2.199133,-2.227979,0.7045317,3.25832,-0.3004901,-3.667426,1.173242,-0.2236401,-0.08471705,-1.354166,0.8121843,-1.11886],
