{ "networks":
[
{
"fitness":14.64773,
"weights":[
[
[-1.609437,-2.875808,-2.144767,-2.696937,-3.840883,-3.030014,3.04741,1.218845,-1.932426,-3.303815,0.2647265,-3.086865,2.89114,3.110282,3.222561,0.1255745,0.1097404,-3.454693,0.03806201,-3.321349,-2.360805,3.966749,-1.150079,-2.774112,1.070742,1.217456,-1.101236,2.800459,2.301049,-0.9414376,2.343025,-2.534022,-0.6774846],
[-1.71582,-1.449701,0.06041431,-3.106535,-0.6800516,-3.710451,-0.9621251,-0.2307653,3.253474,2.578684,3.165354,0.158921,1.26924,0.8685908,-3.362031,0.3046208,0.80181,1.955827,-3.056019,-0.7041674,0.108242,1.042646,-1.39469,3.583609,-0.6240649,-3.336303,-1.376732,2.71244,2.008596,0.8650296,1.757319,-1.263912,3.04029],
[3.141703,-2.00577,-3.44813,-0.04194372,-1.857109,3.524132,2.722397,3.620896,0.1397557,3.318615,-2.402684,0.08992094,-2.673543,-2.720726,-1.125916,2.469089,-3.100772,3.258704,3.3675,-2.435326,2.91264,-3.796095,3.33983,-1.012549,0.1311176,-0.5644074,-2.305581,-1.47485,-1.160557,-1.289716,0.01633436,2.45638,1.858041],
[-3.490097,-1.738556,1.784473,3.133038,1.361151,1.927206,-0.9790171,-2.456433,-2.971087,-0.3651536,1.699812,0.7725538,3.34563,0.3367074,1.888044,-3.115545,2.684111,-2.086679,2.367616,1.490564,1.009177,-2.849997,3.034222,2.684742,-0.4100107,-0.4179822,-1.351564,3.585114,-2.231875,0.83412,-0.6659738,0.2970589,-2.286979],
[0.3361972,1.134689,-2.897664,0.202086,-0.9611304,-1.086675,-1.893487,-3.95515,-3.68312,1.582077,-0.1311461,-3.914371,-3.94438,1.088453,0.5736251,2.414421,0.4294841,-0.8525163,3.771591,-0.5370978,3.777474,1.740186,-2.103337,-1.978902,-2.634524,0.954401,-1.064239,-2.246299,-2.934002,1.352617,1.404337,1.430781,-2.511472],
[-0.5011693,1.111134,1.362934,3.354479,0.2810386,-1.810037,3.8533,3.80648,1.915504,3.462551,2.634498,2.207928,-3.787525,-1.366417,-2.5404,3.773384,-3.890032,0.2025428,-0.8141493,-2.798769,-1.922136,1.225327,-3.417171,-3.380871,2.818684,-1.680081,-0.7951583,3.708064,2.802967,-1.000762,-2.401652,2.09204,1.9082],
[3.546435,3.02843,0.7463084,1.299634,2.373403,-1.073467,3.562001,-2.120526,-2.803333,2.837245,-2.80323,-0.8546166,2.755201,3.583991,0.8886918,2.384834,-0.2505224,-1.050875,1.276949,0.889069,1.798916,-0.6056678,1.808946,3.277479,-1.238712,-0.8746363,0.1513956,-0.2924927,0.1863657,3.176889,0.6104108,-3.766184,-3.550978],
[1.633412,0.3694827,-1.125067,0.9994507,-1.170412,3.34509,-3.62352,-2.377882,-3.094718,0.2868547,-0.1328074,2.350563,-3.570739,-1.174826,-2.567138,2.180606,-1.078602,0.1864255,-3.321806,-3.52437,-3.309825,1.58994,2.837477,2.324579,0.5847445,2.725543,1.256442,-2.854423,2.2823,-2.950307,-3.520356,2.405277,-3.827008],
[-3.673136,-2.383487,-3.745777,-3.592551,-0.04385284,-0.1975768,2.136276,-1.648504,0.4086452,2.440805,1.461126,1.684721,2.143282,1.840325,2.639138,-3.227005,3.020901,1.189024,3.003607,1.058537,2.041626,-2.916391,-3.745689,-0.9854816,0.8458161,-3.862566,2.955951,-0.5644535,-3.743573,0.2547611,1.758238,0.3850458,-2.131809],
[-1.29947,-1.642718,2.525922,-1.148435,-1.4013,0.7169554,-3.588225,-0.924465,-2.977318,2.404429,0.4286259,3.201174,2.142412,2.116869,-2.824935,-2.346991,-1.570068,-1.70225,-0.5702884,2.652789,2.495618,3.417913,-0.06415327,-3.36992,-3.443073,-0.7106277,-0.9658592,-2.205006,-0.3642045,2.785896,-3.351722,-1.328836,-0.1021626],
[-3.275821,-1.424419,3.652834,1.12136,-3.568351,-3.551361,0.9858004,2.052892,-1.582993,0.1674339,-0.2546599,-1.391929,-2.744114,3.500358,-3.2205,-1.692387,3.136261,-2.829926,-0.7036709,-3.278,1.742687,-2.320138,2.626446,1.712282,-3.226329,2.259277,2.479914,1.901478,1.642128,-0.06459174,0.1271919,2.953915,1.08663],
[0.5942296,0.7061491,-3.887921,0.8126408,-1.184316,2.874826,2.113353,-0.8402264,-2.860717,-3.152723,0.5281037,-1.747911,0.2932828,3.80298,-2.368696,-0.5188714,2.875316,0.3739283,-1.242708,3.240239,-0.1456939,-0.2774561,2.229975,3.793952,-1.980974,-1.644858,-3.089609,1.918524,-3.397315,-2.57482,-1.681693,3.849306,0.4034548],
[-3.188526,-2.248409,-1.544929,-2.957902,2.658207,-3.249436,-0.6456081,3.208447,-0.4600753,-2.414497,-2.712591,0.8689626,3.781176,0.9157898,3.45268,-0.8970637,-0.14871,0.9780577,-0.9384119,3.705587,-1.388498,-0.7971949,3.986314,-3.388961,2.005343,2.888745,-2.792872,3.340569,-0.6318091,2.785386,-2.243278,3.889288,3.532735],
[-1.354484,-2.503075,-3.225065,-3.442488,-2.335809,-0.5397251,-2.684717,1.090137,3.547187,3.342872,-0.08584858,-0.08847141,-0.5194587,1.687929,0.8070552,2.142907,2.3176,0.9168575,3.14032,3.846244,-2.037808,-1.220156,1.865629,3.523316,-1.717847,2.269366,-1.573821,-0.697803,-1.666902,2.609694,1.354499,1.58631,0.7955171],
[3.552507,-1.317938,-3.781333,-2.815278,-2.638625,-0.8814344,-0.3720349,-3.456177,-0.7550552,-3.605923,-1.826075,-2.061518,2.872822,3.33867,0.1518359,-1.957452,3.389534,-0.1474638,1.989672,2.070158,1.063005,1.243515,3.226917,-2.837761,2.975721,1.042991,-1.562653,-2.225509,0.2532741,-1.660754,1.80429,1.959724,2.839882],
[2.706905,-3.340784,-0.6495129,-1.091406,2.614674,-1.397229,-0.03016503,-1.324513,-0.03534789,-1.170496,-0.9059336,2.964713,-0.295805,-2.032639,-3.254948,-0.8986922,-3.056149,1.458048,2.143739,0.1045357,-1.971373,0.1193294,0.9849841,3.125347,2.488428,3.299223,3.223363,2.874913,1.733703,3.73719,1.822393,-1.826807,0.8717627],
[-1.215261,-0.4349076,3.920416,2.977473,-2.682204,-1.41671,-0.9216255,-0.29868,3.225328,-0.8922176,3.437888,-1.787716,-2.814992,-2.694309,-2.422761,2.061974,-1.038715,-1.54107,-1.058947,-3.021641,-3.703758,-3.788951,1.914179,-1.632367,-1.02403,-1.842648,2.636376,-1.564385,-2.305373,-1.8886,2.649388,-2.034694,0.7434541],
[-3.048082,2.750524,-0.7952363,-0.7297704,2.117516,-2.114836,1.213636,-0.8378499,1.851057,3.35531,-3.419616,2.213625,0.7286788,-3.585553,-3.38625,-0.2280676,0.7368672,-1.749986,0.9253891,-2.114657,2.498749,-0.01388523,-0.305458,-3.891722,-2.875597,-3.898554,3.853929,-2.918626,0.308079,1.008538,0.6305817,0.2982469,3.574003],
[2.93336,-0.9505462,-0.9364709,-3.90302,-1.525599,-3.142948,-3.654679,-3.721637,-0.955132,-1.770544,-3.329131,-2.224926,2.92772,1.320634,1.39585,2.826654,-1.417621,2.903579,-2.193019,-0.4251702,-0.5356716,1.71983,-0.1963876,-3.296879,1.52776,1.024647,-2.931835,0.1337453,3.262456,-2.325286,-3.082102,2.766169,1.365373],
[-1.771871,3.987074,-2.599919,3.288498,0.4818473,-2.87552,-2.070466,1.454046,2.880886,3.097726,0.2093596,3.18589,3.060414,1.341259,-1.696292,3.824291,0.3368181,0.7831529,1.895292,-0.4610158,-1.923035,0.6536703,2.068864,-2.580198,0.008525044,2.240551,-1.030758,2.585359,3.812172,-3.010514,-0.1695053,1.224119,-2.5237],
[1.650017,-2.842793,-0.1544479,3.203337,3.572067,0.6198199,-0.5895711,-3.812503,-2.479454,3.876223,-3.020714,-2.497431,-1.846336,1.584485,3.011979,1.481413,-0.3276851,-1.744227,1.490761,-3.779153,2.744961,0.5802348,-1.69559,-2.862745,-2.617577,-0.07301406,2.332752,-1.551901,3.454799,0.1778298,0.3013955,0.7439135,-0.7104015],
[-1.696501,2.734206,3.367991,3.355302,-3.661028,0.4426949,0.3343734,1.697475,0.31655,0.4252608,3.38951,-0.4918602,-3.264879,-1.85679,3.622812,-2.068679,-3.118362,1.958674,-1.94536,-0.2531775,1.624175,3.562413,1.286268,-2.615824,-3.64672,-0.8235731,-2.005204,-3.860834,-2.856117,3.004697,1.454546,-2.251295,-0.6437867],
[-0.9397758,2.829702,2.030802,1.252714,-1.442871,-0.7208976,-2.663173,0.4183618,-3.257374,-3.365216,-1.773162,3.248797,-3.725525,1.200356,3.28187,0.6338559,3.623187,0.8854861,3.65167,-0.8041914,-3.138373,-2.981222,-3.82457,-0.6626172,0.07532813,2.820242,1.920013,-2.306724,0.2219725,2.325473,-0.2106185,2.985302,-0.3849214],
[0.920388,-1.556897,2.960637,-3.127537,1.077405,-3.116344,-1.40449,0.4158233,-2.026544,3.650325,3.814142,0.1182113,-0.3677399,0.4800433,1.92057,3.83965,-3.490081,-3.632778,-0.4188258,0.4924567,-0.5867748,3.413661,-0.07743467,2.954999,-1.912849,-2.759964,-0.4878019,-1.585592,-0.3869758,0.6752389,-0.6696744,2.553308,0.7418671],
[0.5808726,2.374596,-3.815733,-2.311922,2.065704,1.555483,3.111179,-3.460526,-0.2435812,1.288473,1.683919,-1.399875,1.274215,3.559649,1.395185,2.234443,-3.3205,-2.817681,-2.973914,-3.9743,1.690626,-2.353957,1.270284,1.289877,-0.79391,2.866871,-0.1681979,0.2094382,-2.750685,1.825054,0.137502,-0.6190967,-0.0283088],
[-1.729742,-1.366993,0.7496019,-3.902163,-3.462518,-0.1965064,-0.2388038,2.377391,-1.339136,1.320468,-0.1879042,0.6075469,-2.353152,2.083266,-0.7868712,2.639562,3.981996,2.24737,-0.5052427,-1.62971,2.937987,3.988036,-3.035764,-2.951503,-2.287329,-0.07084865,2.242332,-2.286345,2.891152,1.742964,0.1525621,-0.3070109,-2.731305],
[2.932134,3.07038,-0.3007584,-1.005779,0.70824,3.329721,2.163159,0.3354386,-2.84779,-0.03386816,-0.7730047,-3.054414,-2.228912,-0.7087597,-0.4915667,0.09609632,-3.022406,-2.0637,3.777639,-1.198134,-3.326551,-2.135429,1.597497,3.726552,0.4418744,-2.338441,3.061485,3.867381,0.6371034,0.1639366,2.603297,2.318104,0.265137],
[3.724426,-2.4812,2.7175,3.71246,2.557805,-2.796756,-0.7307519,-1.885355,-3.980427,-1.922933,-0.7293895,2.871067,2.668429,-3.432817,0.1905929,-3.145472,2.267405,2.22776,-0.8317112,1.110935,-2.239463,2.990333,-0.042438,0.4570724,-0.2306183,-1.946809,-3.397995,-3.794512,2.358693,2.106722,-0.3231254,-0.3329199,-1.78784],
[-3.124646,3.682813,2.417453,-3.833483,3.996072,-0.7270651,-2.336851,0.6705763,2.582991,-3.256328,-3.422911,3.141979,-1.140386,-1.938706,-3.194443,3.546278,0.5033113,-0.334651,-3.022646,-0.3081586,0.2845475,1.01582,3.015762,1.903409,0.2627268,1.70737,-2.9898,-2.062459,-3.270561,2.77125,0.1469279,1.467867,3.840764],
[3.546054,-2.998409,-2.046115,-2.777911,2.259732,2.405627,-2.634404,-1.306887,1.493446,3.796286,-1.168626,1.291454,-1.517066,-1.546274,2.662506,-0.2002966,1.016745,-2.976928,0.7019809,3.759878,2.423554,-3.567114,3.782849,2.130103,-1.865694,-1.77531,-2.897493,0.8687821,-0.9531994,0.7539672,-1.312244,3.400027,-3.466075],
[2.841047,0.5921577,2.123708,-1.069854,-0.5129061,1.959576,3.444751,-2.864483,-2.66314,-1.597731,1.301243,-1.402449,2.027485,-2.350148,1.034402,-1.821521,2.136493,1.912802,1.314716,3.867142,-1.762957,-3.921872,2.292564,2.105762,-1.543874,-2.057711,-0.2639608,2.857414,1.252949,-2.055784,2.477319,-2.884392,-0.5391072],
[-0.3668306,0.8185427,0.110546,-2.653599,-2.084217,0.5908516,0.7573102,2.529439,0.3369085,1.273298,0.6301325,3.033117,2.785817,3.80016,-0.826248,1.349873,1.666229,-2.562864,3.758579,3.24967,-3.836228,1.653433,-1.083858,0.5493532,-2.38447,2.515512,-3.952095,-2.086533,-3.892748,-1.704995,1.434262,-2.669488,1.16168],
[2.89701,-1.076251,-1.681304,2.451926,-1.114447,-2.162332,2.358451,-1.637284,-0.8994977,-1.251729,1.023621,0.9129255,-3.132908,-2.278033,3.540976,-1.158996,-0.3828903,-1.328091,2.605091,0.2729222,3.508429,3.535018,-3.519047,-0.3044143,2.795524,-2.324315,3.122119,-3.735629,-3.894412,-3.700169,-1.157791,-3.913662,-2.873259]
],
[
[2.946582,-3.593513,2.193508,-3.566732,-0.6762667,-1.778782,0.9309523,0.4802006,0.4824035,1.554565,0.5415758,-0.1288415,-2.491148,-2.494657,0.9984686,0.3810046,-0.6562461,0.03827967,-1.822117,3.816688,3.017124,3.45864,2.219717,0.9918922,-3.190679,3.34412,-3.14117,2.068289,-0.8234617,-1.535414,3.269938,3.866401,0.3221079],
[3.87439,-0.1077356,1.332616,0.4879563,-0.8304896,-0.8697397,-3.696769,0.4557229,3.940516,2.810798,-1.065643,-0.8054987,2.456268,3.152075,1.565499,2.010329,-0.2321042,0.01911268,1.693803,-3.447806,0.6905077,-1.937932,-1.952054,2.16549,0.2444624,1.704513,-1.988104,-1.537637,-3.111856,-0.03008038,-1.327397,2.993285,1.118225]
]
],
"biases":[
[
-0.004210655,-3.436096,0.3361756,-3.385372,-1.931718,0.1869369,-0.3679451,0.6207185,2.055725,0.7336873,3.809267,-3.324663,-3.716177,-2.022121,-0.1263258,-1.586707,3.348677,-3.003479,-1.626504,-3.255197,-1.983596,-2.719475,2.777702,3.649604,0.682179,-0.3675023,1.979543,-1.785414,-0.926236,-0.3737648,2.565713,2.827713,0.7961598
],
[
0.688612,-1.713373
]
]},
{
"fitness":14.61554,
"weights":[
[
[-3.851475,0.06941975,-2.144767,3.51563,-3.840883,-3.030014,3.04741,1.218845,-1.932426,-2.869089,0.2647265,-3.086865,2.89114,3.110282,3.222561,0.1255745,0.1097404,-3.454693,0.03806201,-3.321349,-2.360805,-2.328486,-1.150079,-2.774112,1.070742,1.217456,-1.101236,2.800459,2.301049,-0.9414376,2.343025,-2.534022,-0.6774846],
[-1.71582,-1.449701,0.06041431,2.147177,-0.6800516,-3.710451,-0.9621251,-0.2307653,3.253474,2.578684,3.165354,0.158921,1.26924,0.8685908,-3.362031,0.3046208,0.80181,1.955827,-3.056019,-0.7041674,0.108242,1.042646,-1.39469,3.583609,-0.6240649,-3.336303,-1.376732,2.71244,2.008596,0.8650296,-1.540099,-1.263912,3.04029],
[3.141703,-1.461472,-3.44813,-0.04194372,-1.857109,3.524132,-1.757669,3.620896,-3.524,3.318615,-2.402684,0.08992094,0.5511064,-2.720726,-1.125916,2.469089,-3.100772,3.258704,1.916522,-2.435326,2.91264,-3.796095,2.159057,-1.012549,0.1311176,-1.991002,-2.305581,-1.47485,-1.160557,-1.289716,0.01633436,2.45638,1.858041],
[-3.490097,-1.738556,1.784473,3.133038,1.361151,1.927206,-0.9790171,-2.456433,-2.971087,-0.3651536,1.699812,0.7725538,3.34563,0.3367074,1.888044,-3.115545,2.684111,-2.086679,2.367616,1.490564,1.009177,-2.849997,3.034222,2.684742,3.837697,-0.4179822,-1.351564,3.585114,-2.231875,0.83412,2.594339,0.2970589,-2.286979],
[2.062675,2.582702,-2.897664,0.202086,3.523703,-1.086675,-1.893487,-3.95515,-3.68312,1.582077,-0.1311461,-3.914371,-3.94438,1.088453,0.5736251,2.414421,0.4294841,-0.8525163,3.771591,-0.5370978,3.777474,1.740186,-2.103337,-1.978902,-2.634524,0.954401,-1.064239,-1.618917,-2.934002,1.352617,1.404337,1.430781,-2.511472],
[-0.5011693,1.111134,1.362934,3.354479,0.2810386,-1.810037,3.8533,3.80648,1.915504,3.462551,2.634498,2.207928,-3.787525,-1.366417,-2.5404,-0.7289767,2.187445,0.2025428,-0.8141493,-2.798769,-1.922136,1.225327,-3.417171,-3.380871,-3.464148,-1.680081,1.392475,1.45883,2.802967,-1.000762,-2.401652,2.09204,1.9082],
[3.546435,3.02843,0.7463084,1.299634,2.373403,-1.073467,-1.630317,-2.120526,-2.803333,2.837245,-2.80323,-0.8546166,2.755201,3.583991,0.8886918,2.384834,-0.2505224,-1.050875,1.276949,0.889069,1.798916,-0.6056678,1.808946,3.277479,-1.238712,-0.8746363,0.1513956,-0.2924927,0.1863657,3.176889,0.6104108,-3.766184,-3.550978],
[1.633412,-2.271233,-1.125067,0.9994507,-1.170412,3.34509,-3.051867,-2.377882,-3.094718,0.2868547,-0.1328074,-2.647277,-3.570739,-1.174826,-2.567138,2.180606,-1.078602,0.1864255,-3.321806,-3.52437,-3.309825,1.58994,2.837477,2.324579,0.5847445,2.725543,3.303905,-2.854423,2.2823,-2.950307,-3.520356,2.405277,-3.827008],
[0.00206575,-2.383487,-3.745777,-3.592551,-0.04385284,-0.1975768,2.136276,-1.648504,0.4086452,2.440805,1.461126,1.684721,2.143282,1.840325,2.639138,-3.227005,3.020901,1.189024,3.003607,1.058537,2.041626,-2.916391,-3.745689,-2.905713,0.8458161,-3.862566,2.955951,-0.5644535,-3.743573,0.2547611,1.758238,0.3850458,-2.131809],
[-1.29947,-1.642718,2.525922,-2.62627,-1.4013,0.7169554,-3.588225,-0.924465,-2.977318,2.404429,0.4286259,3.201174,2.142412,-2.125623,-1.579776,-2.346991,-1.570068,-1.70225,3.570404,2.652789,2.495618,3.417913,-0.06415327,-3.36992,-3.443073,-0.7106277,-0.9658592,-2.205006,-0.3642045,2.785896,-3.351722,-1.328836,-3.783635],
[-3.275821,-1.424419,3.652834,1.12136,-3.568351,-3.551361,0.9858004,2.052892,-1.582993,0.1674339,-0.2546599,-1.391929,-2.744114,3.500358,-3.2205,1.693606,3.136261,-2.829926,-1.58896,-3.278,1.742687,-2.320138,2.626446,1.712282,-3.226329,2.259277,2.479914,1.901478,-0.4928436,-0.06459174,3.694091,2.953915,1.08663],
[0.5942296,0.7061491,-3.887921,0.8126408,3.241969,2.874826,2.113353,-0.8402264,-2.860717,-3.152723,0.5281037,2.772043,0.2932828,-3.632354,-2.368696,-0.5188714,2.875316,-3.143676,-1.242708,3.240239,-0.1456939,-0.2774561,2.229975,3.793952,-1.980974,-1.644858,-3.089609,1.918524,3.969746,-2.57482,-1.681693,3.849306,0.4034548],
[-3.188526,-2.248409,-1.544929,-2.957902,2.658207,-3.249436,-0.6456081,3.312573,-0.4600753,-2.414497,-2.712591,1.48885,3.781176,0.9157898,3.45268,-0.8970637,-0.14871,0.9780577,-0.9384119,3.705587,-1.388498,-0.7971949,3.986314,-3.388961,2.005343,2.888745,-2.792872,0.8737144,-0.6318091,2.785386,-2.243278,3.889288,3.532735],
[-1.354484,-2.503075,-3.225065,-3.442488,1.559933,-0.5397251,-2.684717,1.090137,3.547187,3.342872,-0.08584858,-0.08847141,-0.5194587,1.687929,0.8070552,2.142907,2.3176,0.9168575,3.14032,3.846244,-2.037808,-1.220156,1.865629,3.523316,-1.717847,2.269366,0.8837599,-0.697803,-1.666902,2.609694,1.354499,1.58631,0.7955171],
[3.552507,-1.317938,-3.781333,-2.815278,-2.638625,-0.8814344,1.810884,-3.456177,-1.582611,-3.605923,-1.826075,-2.061518,2.872822,3.33867,0.1518359,-1.957452,3.446038,-0.1474638,1.989672,2.070158,1.063005,3.355864,3.226917,-2.837761,2.975721,1.042991,-1.562653,-2.225509,0.2532741,-1.660754,1.80429,1.959724,2.839882],
[2.706905,-3.340784,-0.2592212,-1.091406,2.614674,-1.397229,-0.03016503,-1.324513,-0.03534789,-1.170496,-0.9059336,2.964713,-0.295805,-2.032639,-3.254948,-2.44416,-3.056149,1.458048,2.143739,-3.766865,-1.971373,0.1193294,0.9849841,3.125347,2.488428,3.299223,3.223363,2.874913,1.733703,3.73719,1.822393,-1.826807,0.8717627],
[-1.215261,-0.4349076,3.920416,2.977473,-2.682204,-1.41671,-0.9216255,3.367936,3.225328,-0.8922176,3.437888,-1.787716,-2.814992,-2.694309,-2.422761,-3.62887,-1.038715,-1.54107,-1.058947,-3.021641,-3.703758,-3.788951,1.914179,-1.632367,-1.02403,-1.842648,2.636376,-1.564385,-2.305373,-1.8886,2.649388,1.42381,0.7434541],
[-3.048082,2.750524,-0.7952363,-0.1859604,2.117516,-2.114836,1.213636,-0.8378499,1.851057,3.35531,-3.419616,2.213625,0.7286788,-3.585553,-0.7187125,-0.2280676,0.7368672,-1.749986,0.9253891,-2.114657,2.498749,-0.01388523,-0.305458,-3.891722,-2.875597,-3.898554,3.853929,-2.918626,0.308079,1.008538,0.6305817,0.2982469,3.574003],
[2.93336,-0.9505462,-0.9364709,-3.90302,-0.2405825,-3.142948,-3.654679,-3.721637,-0.955132,-1.770544,-2.184836,-2.224926,2.92772,2.280235,1.39585,2.826654,-1.417621,2.903579,-2.193019,-0.4251702,-0.5356716,1.71983,-0.1963876,-3.296879,1.52776,1.024647,2.296732,0.1337453,3.262456,-2.325286,-3.082102,2.766169,1.365373],
[-1.771871,3.987074,2.152174,3.288498,0.4818473,-2.87552,-2.070466,1.454046,2.880886,3.097726,0.2093596,3.18589,3.060414,1.341259,-1.696292,3.824291,0.3368181,0.7831529,1.895292,3.863313,-1.923035,0.6536703,2.068864,-2.580198,0.008525044,2.240551,-1.030758,0.9258901,3.812172,2.600798,-0.1695053,1.224119,-2.5237],
[1.650017,-2.842793,-0.1544479,3.203337,3.572067,0.6198199,-0.5895711,-3.812503,-2.479454,3.876223,-3.020714,-2.497431,-1.846336,1.584485,3.011979,1.481413,-0.3276851,-1.744227,1.490761,-3.779153,2.744961,0.5802348,-1.69559,-2.862745,3.23721,-0.07301406,2.332752,0.827222,3.454799,0.1778298,0.3013955,0.7439135,-0.7104015],
[-1.696501,2.734206,3.367991,3.355302,-3.661028,0.4426949,0.3343734,1.697475,0.31655,0.4252608,2.084189,-0.4918602,-3.264879,-1.85679,3.622812,-2.068679,-3.118362,1.958674,-1.94536,-0.2531775,1.624175,3.562413,1.286268,-2.615824,-3.64672,-0.5456319,-2.005204,3.275086,-2.856117,3.004697,2.85704,-2.251295,-0.6437867],
[-0.9397758,2.829702,2.030802,1.252714,2.982727,-0.7208976,-2.663173,0.4183618,-3.257374,-3.365216,-1.773162,3.248797,-3.725525,1.200356,3.28187,0.6338559,3.623187,0.8854861,3.65167,-0.8041914,-3.138373,-2.981222,-3.82457,-0.6626172,0.07532813,2.820242,-1.193486,-2.306724,0.2219725,2.325473,-0.2106185,2.284781,-0.3849214],
[0.920388,-1.556897,2.960637,-3.127537,1.077405,-3.116344,-1.40449,0.4158233,-2.026544,3.650325,3.814142,0.1182113,-0.3677399,0.4800433,1.92057,3.83965,-3.490081,-3.632778,-2.199805,-1.34814,-0.5867748,-0.1357328,-0.07743467,2.954999,-1.912849,-2.759964,-0.4878019,3.621513,-0.3869758,0.6752389,-0.6696744,2.553308,0.7418671],
[-2.334388,-1.909817,-3.815733,-2.311922,2.065704,1.555483,3.111179,-3.460526,-0.2435812,1.288473,1.683919,-1.399875,1.274215,3.559649,1.395185,2.234443,-3.3205,-2.817681,-2.973914,-3.9743,1.690626,-2.353957,2.030341,1.289877,-0.79391,2.866871,-0.1681979,0.2094382,-2.750685,1.825054,0.137502,-0.6190967,1.552902],
[-1.729742,1.797897,0.7496019,-3.902163,-3.462518,-0.1965064,-0.2388038,2.377391,-1.339136,1.320468,-0.1879042,1.733886,-2.353152,2.083266,-0.7868712,2.639562,3.981996,2.24737,-0.5052427,-1.62971,2.937987,3.988036,-3.035764,-2.951503,1.164034,-0.07084865,2.242332,-2.286345,2.891152,1.742964,0.1525621,-0.3070109,-2.731305],
[2.932134,3.07038,-0.3007584,-1.005779,0.70824,3.329721,2.163159,0.3354386,-2.84779,-0.03386816,-0.7730047,-3.054414,-2.228912,-0.7087597,-0.4915667,0.09609632,-3.022406,-2.0637,3.777639,-1.198134,-3.326551,-2.135429,1.597497,3.726552,0.4418744,-2.338441,3.061485,3.867381,0.6371034,0.1639366,2.603297,2.318104,0.265137],
[3.724426,3.740457,2.7175,3.71246,2.557805,-2.796756,-0.7307519,-1.885355,-3.980427,-1.922933,-0.7293895,2.871067,2.668429,-3.432817,0.1905929,0.9570436,2.267405,2.22776,-0.8317112,1.110935,-2.239463,2.990333,-0.042438,0.4570724,-0.2306183,-1.946809,-3.397995,-3.794512,2.358693,2.106722,-0.3231254,-0.3329199,-1.78784],
[-3.124646,3.682813,2.417453,-3.833483,3.996072,-0.7270651,-2.336851,0.6705763,2.582991,-1.896343,-3.422911,3.141979,-1.140386,-1.938706,-3.194443,2.629446,0.5033113,-0.334651,-3.022646,-0.3081586,-2.228194,1.01582,3.015762,1.903409,0.2627268,1.70737,-2.9898,-2.062459,-3.270561,2.77125,0.1469279,1.467867,3.840764],
[3.546054,-2.998409,-2.046115,-2.777911,2.259732,2.405627,-2.634404,2.474675,1.493446,3.796286,-1.168626,1.291454,-1.517066,-1.546274,2.662506,-0.2002966,1.016745,-2.976928,-2.130675,3.759878,2.423554,-3.567114,3.782849,2.130103,-1.865694,-1.77531,-2.897493,0.8687821,2.745013,0.7539672,-1.312244,3.400027,-3.466075],
[2.841047,0.5921577,2.123708,-1.069854,-0.5129061,1.959576,3.444751,-2.864483,-2.66314,-1.597731,2.538568,-1.402449,2.027485,-2.350148,1.034402,-1.821521,2.136493,1.912802,1.314716,3.867142,-1.762957,-3.921872,2.292564,2.105762,-1.543874,-2.057711,-0.2639608,2.857414,1.252949,-2.055784,0.1189664,-2.884392,-0.5391072],
[2.27458,0.8185427,0.110546,-2.653599,-2.084217,0.5908516,0.7573102,2.529439,0.3369085,1.273298,0.6301325,3.033117,2.785817,3.80016,0.291553,1.349873,1.666229,-2.562864,3.758579,3.24967,-3.836228,1.653433,-1.083858,0.5493532,-2.38447,-3.476971,-3.952095,-2.086533,-3.892748,-1.704995,1.434262,-2.669488,1.16168],
[2.89701,-1.076251,-0.8929972,2.451926,-1.114447,-2.162332,2.358451,-1.637284,-0.8994977,-1.251729,1.023621,0.9129255,-3.132908,-2.278033,3.540976,-1.158996,-0.3828903,-1.328091,2.605091,0.2729222,3.508429,3.535018,-3.519047,-0.3044143,2.795524,-2.324315,3.122119,2.084625,-3.894412,-3.700169,-1.157791,-3.913662,-2.873259]
],
[
[2.946582,-3.593513,2.193508,-0.7160225,-0.6762667,-1.778782,0.9309523,0.4802006,0.4824035,1.554565,0.5415758,-0.1288415,-2.491148,-1.153957,0.9984686,0.3810046,-0.6562461,0.03827967,-1.822117,3.816688,2.545344,3.45864,2.219717,0.9918922,-3.190679,3.34412,-3.14117,2.068289,-0.8234617,-1.535414,3.269938,3.866401,2.893404],
[3.87439,-0.1077356,1.332616,0.4879563,-0.8304896,-0.8697397,-3.696769,0.4557229,3.940516,2.810798,-1.065643,-0.8054987,2.561154,3.152075,1.565499,2.010329,-0.2321042,0.01911268,1.693803,-3.447806,0.6905077,-1.937932,-1.952054,2.16549,0.2444624,1.704513,-1.988104,-1.965359,-3.111856,-0.03008038,-1.327397,2.993285,1.118225]
]
],
"biases":[
[
-0.004210655,-3.436096,0.3361756,-3.385372,-1.931718,0.1869369,-0.3679451,0.6207185,2.055725,0.7336873,3.809267,-3.324663,-3.716177,-2.11489,-0.1263258,-1.586707,3.348677,-3.003479,-1.626504,-3.255197,-1.983596,-0.9498963,2.777702,-0.8549684,0.682179,-0.3675023,1.979543,-1.785414,-0.926236,-0.3737648,2.565713,2.827713,0.7961598
],
[
0.688612,-1.713373
]
]},
{
"fitness":14.58138,
"weights":[
[
[-3.851475,-2.875808,-2.144767,-2.696937,-1.412736,-0.5955333,3.04741,1.218845,-1.932426,-3.303815,0.2647265,-3.086865,2.89114,3.110282,3.222561,0.1255745,0.1097404,-3.454693,0.03806201,-3.321349,-2.360805,2.892171,-1.150079,-2.774112,1.070742,1.217456,-1.101236,2.800459,2.301049,-0.9414376,2.343025,-2.534022,-0.6774846],
[-1.71582,-1.449701,0.06041431,2.147177,-0.6800516,3.781698,-0.9621251,-0.2307653,3.253474,-2.073239,3.165354,0.158921,1.26924,0.8685908,-2.160433,0.3046208,0.80181,1.955827,3.390104,0.7323532,0.108242,1.042646,-1.39469,2.959629,-0.6240649,-3.336303,-1.376732,2.71244,2.008596,0.8650296,1.757319,-1.263912,3.04029],
[3.141703,-1.461472,-3.44813,-0.04194372,-3.214602,3.524132,-1.757669,2.629538,-3.524,3.318615,-2.402684,0.08992094,0.5511064,-2.720726,-1.125916,2.469089,-3.100772,1.158091,-1.163887,-2.435326,2.91264,-3.796095,3.33983,-1.012549,0.1311176,2.460664,-2.305581,-1.47485,-1.160557,-1.289716,0.01633436,2.45638,1.858041],
[-3.490097,-1.738556,1.784473,3.133038,0.0683843,1.927206,-0.9790171,-2.456433,3.150026,-1.27311,1.699812,0.1672183,3.34563,0.3367074,1.888044,-3.259941,2.684111,-2.086679,2.367616,2.481081,1.009177,-2.849997,3.034222,2.684742,3.837697,-0.4179822,-1.351564,3.585114,-2.231875,0.83412,2.594339,0.2970589,2.848251],
[-1.360826,2.582702,-2.897664,0.202086,-0.9611304,-3.87898,-1.893487,-3.95515,-3.68312,1.582077,-0.1311461,-3.914371,0.8080451,1.088453,0.5736251,2.414421,3.240174,-0.8525163,3.771591,-0.5370978,3.777474,1.740186,-2.103337,-0.4484046,-2.634524,0.954401,-1.064239,-1.618917,2.379272,1.352617,-0.2130419,-2.50201,-3.690237],
[-0.5011693,1.111134,1.362934,-2.49899,3.31411,-1.810037,3.457539,3.80648,1.915504,3.462551,2.634498,2.207928,-3.787525,-0.8864157,-2.5404,-0.7366666,2.187445,0.2025428,-0.8141493,-2.798769,-1.922136,1.225327,-3.417171,-3.380871,-3.464148,-1.422783,0.2049251,3.708064,2.802967,-1.000762,-2.401652,2.09204,1.9082],
[3.546435,3.02843,0.7463084,1.299634,2.373403,-1.073467,-1.630317,-2.120526,-2.803333,2.837245,-2.343646,-0.8546166,2.755201,-1.096477,0.8886918,2.384834,-0.2505224,-3.526734,1.276949,0.889069,0.970673,-0.6056678,1.808946,3.277479,-1.238712,-0.8746363,3.701237,-0.2924927,0.1863657,3.176889,0.6104108,-3.766184,3.458853],
[1.633412,0.3694827,-2.225856,0.9994507,-1.170412,3.34509,-3.62352,-2.377882,-3.094718,0.2868547,-0.1328074,2.350563,-3.570739,-1.174826,-2.567138,2.180606,-3.75929,0.1864255,-3.321806,-3.52437,-3.309825,1.58994,2.837477,2.324579,0.5847445,-1.759298,1.256442,-2.854423,2.985299,-2.950307,-2.248348,2.405277,-3.827008],
[2.660539,-2.383487,-3.745777,-3.592551,2.910689,-0.1975768,2.136276,-1.648504,0.4086452,2.440805,1.461126,1.684721,2.143282,1.840325,2.639138,-3.227005,3.020901,1.189024,3.003607,1.058537,2.041626,-2.916391,-3.745689,0.7800342,0.8458161,-3.862566,2.955951,-0.5644535,2.571117,0.2547611,1.758238,0.3850458,-2.131809],
[-1.29947,-2.750117,2.525922,-2.62627,-1.4013,0.7169554,-3.588225,-1.351657,-2.977318,2.404429,0.4286259,3.201174,2.142412,-2.296126,-0.4210773,-2.346991,2.335777,-1.70225,-1.123233,2.652789,2.495618,3.417913,3.043341,-3.36992,2.980531,-0.7106277,-0.9658592,-2.205006,-0.3642045,2.785896,-3.351722,2.21847,-0.1021626],
[-3.275821,-1.424419,3.652834,1.12136,-3.568351,-3.551361,0.9858004,3.699545,-1.582993,0.1674339,-0.2546599,-1.391929,-2.130518,3.500358,-3.2205,-1.692387,0.1700138,-2.829926,-0.7036709,-3.278,1.742687,-2.320138,2.626446,1.712282,-3.226329,2.259277,2.479914,1.901478,-0.4928436,-0.06459174,-2.269888,-3.947968,1.08663],
[-1.153335,0.7061491,-3.887921,1.966483,3.241969,2.874826,2.113353,-0.8402264,-2.860717,2.982762,0.5281037,-1.747911,-2.360149,-0.09919877,-2.368696,-0.5188714,2.875316,-3.143676,-1.242708,3.240239,-0.1456939,-0.2774561,2.229975,3.793952,-1.980974,-1.644858,-3.089609,1.918524,3.969746,-2.57482,-1.681693,1.708305,-1.720877],
[-0.4013044,-2.248409,-1.544929,-2.34613,2.658207,-3.249436,-1.63175,2.334261,-0.4600753,-2.414497,-2.712591,0.8689626,3.781176,-3.896206,3.45268,-0.8970637,-0.14871,0.9780577,-0.9384119,1.24786,-1.388498,-0.7971949,3.986314,-3.388961,2.005343,2.888745,-2.792872,-0.3559009,-0.6318091,2.785386,-2.243278,3.889288,3.532735],
[-1.354484,-2.503075,-3.225065,-3.442488,1.559933,-0.5397251,-2.684717,1.090137,3.547187,3.342872,-0.08584858,-0.08847141,-2.334752,-0.4155709,0.8070552,2.142907,-1.897297,0.9168575,3.14032,3.846244,-2.037808,-1.220156,1.865629,3.523316,-1.717847,0.2720311,-1.573821,-0.697803,-1.666902,2.609694,1.354499,1.58631,0.7955171],
[3.552507,-1.317938,-2.017256,-2.815278,-2.638625,-0.8814344,1.810884,-3.456177,-0.7550552,-3.605923,-1.826075,3.14924,2.872822,3.33867,0.1518359,-1.957452,3.389534,0.3234122,1.989672,2.070158,1.063005,1.243515,3.226917,-2.837761,2.975721,1.042991,-1.562653,-2.225509,-0.5492423,3.955782,0.4101051,1.959724,2.839882],
[2.706905,-3.340784,2.79539,-1.091406,2.614674,0.1129434,-0.03016503,-1.324513,-0.03534789,-1.027885,-0.9059336,2.964713,-0.295805,2.216627,0.7958971,2.448686,-3.056149,1.458048,3.068596,0.1045357,-2.161466,0.1193294,0.9849841,-0.1156517,2.488428,3.299223,3.223363,2.874913,1.733703,-1.148454,-0.412825,-1.826807,0.8717627],
[-1.215261,-0.4349076,3.920416,3.723248,-2.682204,-1.41671,-1.38095,-0.29868,3.225328,-0.8922176,-0.4912381,-1.787716,-2.814992,-2.694309,-2.422761,-3.62887,-1.038715,-2.114457,-1.058947,-3.021641,-3.14155,-0.4401343,1.914179,-1.632367,-1.02403,0.4189653,-0.4234928,-1.564385,-2.305373,-1.8886,2.649388,1.42381,-2.65697],
[-3.048082,2.750524,-0.7952363,-0.7297704,2.117516,-2.114836,2.744999,-0.8378499,1.851057,3.35531,-3.419616,2.213625,0.7286788,-3.585553,0.260233,-0.2280676,0.7368672,-1.749986,0.9253891,1.378463,2.498749,-0.01388523,-0.305458,-3.891722,-2.875597,-3.898554,3.853929,-2.918626,0.308079,1.008538,0.6305817,0.2982469,1.428296],
[2.93336,-0.9505462,-0.9364709,-3.90302,-1.953492,-3.142948,-3.654679,-3.721637,-0.955132,-1.770544,-2.184836,-2.224926,2.92772,1.320634,1.39585,2.826654,-1.417621,1.184395,-2.193019,-0.4251702,-0.5356716,-2.931239,-0.1963876,-3.296879,1.52776,1.024647,2.296732,0.1337453,3.262456,-2.325286,-3.082102,2.766169,1.365373],
[-1.771871,3.987074,2.152174,2.414609,0.4818473,-2.87552,-2.070466,1.454046,2.880886,3.097726,0.2093596,3.351321,3.060414,1.341259,-0.2525848,3.824291,0.3368181,1.421508,1.390585,-0.4610158,-1.923035,0.6536703,2.068864,-2.580198,0.008525044,2.240551,1.158365,0.9258901,3.812172,2.600798,-0.1695053,1.224119,-2.5237],
[-2.001606,-2.842793,-0.1544479,3.203337,3.572067,0.6198199,-0.5895711,-3.812503,-2.479454,3.876223,2.135426,3.374758,-1.846336,1.584485,3.011979,1.481413,-0.0777157,-1.744227,1.490761,2.003426,2.744961,-0.02292744,-1.69559,-2.862745,-2.617577,-0.07301406,2.332752,-1.32031,3.454799,0.1778298,0.3013955,-0.6356819,-0.7104015],
[-1.696501,2.734206,3.367991,3.355302,-3.661028,0.4426949,-2.602906,-3.729645,0.31655,-0.5109222,2.084189,-0.4918602,-3.264879,-1.85679,3.622812,-2.068679,-3.118362,1.958674,-1.94536,-0.2531775,1.624175,3.562413,1.286268,-0.8174788,-3.64672,-0.8235731,-2.005204,-3.860834,3.721237,-3.6707,1.454546,-2.251295,-0.6437867],
[-0.9397758,2.829702,2.030802,1.252714,2.982727,-0.7208976,-2.663173,0.2392118,-3.257374,-3.365216,3.10893,3.248797,-3.725525,1.200356,1.976868,-2.311348,3.623187,0.8854861,3.65167,-0.8041914,-3.138373,-2.981222,-3.82457,-0.6626172,0.07532813,2.820242,-1.193486,-3.237896,0.2219725,2.325473,-0.2106185,2.985302,-0.3849214],
[1.255646,-1.556897,2.960637,-1.811654,1.077405,-3.116344,-1.40449,0.4158233,-2.026544,3.650325,3.814142,0.1182113,-0.3677399,0.4800433,3.722195,3.83965,-3.490081,-3.632778,-0.4188258,0.4924567,-0.5867748,3.413661,-0.07743467,2.954999,-1.912849,-2.759964,-0.4878019,-3.471375,-0.3869758,0.6752389,-0.6696744,2.553308,0.7418671],
[-2.334388,2.374596,3.74356,-3.077462,2.065704,-0.9060586,3.111179,-3.460526,-0.2435812,1.288473,1.683919,-1.399875,1.274215,3.559649,1.395185,2.234443,-3.3205,-2.817681,-2.973914,-3.9743,1.690626,-2.353957,2.030341,-1.910819,0.4256306,1.846344,-0.1681979,0.2094382,-2.750685,1.390829,0.137502,-0.6190967,1.552902],
[3.493692,-2.370794,0.7496019,-2.21799,-3.462518,1.190733,-0.2388038,2.377391,-1.339136,1.320468,-0.1879042,0.6075469,-2.353152,2.083266,-0.7868712,2.639562,3.981996,2.24737,-0.5052427,-1.62971,-3.693288,3.988036,-3.035764,-2.951503,-2.287329,-0.07084865,2.242332,1.705595,2.891152,1.742964,0.1525621,-0.3070109,-2.731305],
[2.932134,3.07038,-0.3007584,-1.005779,0.70824,-3.196661,2.163159,0.3354386,-2.84779,-0.03386816,-0.7018412,-3.054414,-2.228912,-0.7087597,-0.4915667,0.09609632,0.02123785,-2.0637,3.777639,-1.198134,-3.326551,-2.135429,1.597497,3.726552,0.4418744,-2.338441,3.061485,3.867381,0.6371034,0.1639366,2.603297,2.318104,-2.447236],
[3.724426,3.740457,3.662342,2.921764,-1.615291,-2.796756,-0.7307519,-1.885355,-3.980427,0.5558466,-0.7293895,2.871067,-0.968882,-3.432817,0.1905929,-3.145472,2.267405,2.22776,-0.8317112,1.110935,-2.239463,2.990333,-0.042438,0.4570724,-0.2306183,-1.946809,-3.356224,3.864269,-3.426274,2.106722,-0.3231254,-0.3329199,-1.78784],
[-3.124646,3.682813,2.417453,0.8579797,3.996072,-0.7270651,-2.336851,0.6705763,-2.782876,-0.9856969,-3.422911,3.141979,-1.140386,-1.938706,-3.194443,2.629446,0.5033113,-0.334651,-3.022646,-1.323882,-2.228194,1.01582,3.015762,-3.623796,0.2627268,1.70737,-2.9898,-2.062459,-3.270561,2.77125,0.1469279,1.467867,3.840764],
[3.546054,-2.998409,-2.046115,-2.777911,2.259732,1.798251,1.794874,2.474675,1.493446,3.97852,-1.168626,1.291454,-1.517066,-1.546274,2.662506,-0.2002966,1.016745,2.580268,2.086844,3.759878,2.423554,0.2638161,3.782849,2.130103,-1.865694,-1.77531,-2.897493,-1.890607,-0.9531994,0.7539672,-1.312244,1.571663,-3.466075],
[2.841047,0.5921577,2.123708,-1.069854,-0.5129061,1.959576,3.444751,-2.864483,-2.66314,-1.597731,1.301243,2.944812,2.027485,-2.350148,1.034402,-1.821521,2.136493,1.912802,1.314716,3.867142,-1.762957,3.816627,2.292564,2.105762,-1.543874,-2.057711,-2.979777,2.857414,1.252949,-2.055784,2.477319,-2.884392,-0.5391072],
[-0.3668306,0.8185427,0.110546,-2.304343,-2.084217,0.5267931,0.7573102,-0.5824841,0.3369085,1.273298,-2.487236,3.033117,2.785817,3.80016,0.291553,1.349873,1.666229,-2.562864,0.3851876,3.24967,-3.836228,1.653433,0.2134572,0.5493532,1.59468,2.515512,-3.952095,-2.812862,-3.892748,-1.704995,1.434262,-2.669488,1.16168],
[2.89701,1.25184,-0.8929972,2.451926,-1.114447,-2.162332,2.358451,-1.637284,-0.8994977,-1.251729,1.023621,0.9129255,-3.132908,3.555273,3.540976,-1.158996,-0.3828903,-1.328091,2.605091,0.2729222,3.508429,3.535018,-3.519047,-0.3044143,2.795524,-1.098226,3.122119,-3.735629,2.570329,-3.700169,-1.157791,-3.913662,-2.873259]
],
[
[2.946582,-3.593513,2.193508,-0.6549104,-0.6762667,-1.778782,0.9309523,0.4802006,0.4824035,-0.1302113,0.5415758,-0.1288415,-2.491148,-1.153957,0.9984686,1.364657,-3.391723,0.03827967,-1.822117,3.816688,2.545344,3.45864,2.219717,0.9918922,-3.190679,0.5071288,-3.14117,2.068289,-0.8234617,-1.535414,3.269938,3.866401,0.3221079],
[3.87439,-0.1077356,1.332616,0.4879563,-0.8304896,-0.8697397,-3.696769,0.4557229,3.940516,2.810798,-1.065643,-0.8054987,3.01315,3.152075,1.565499,2.010329,-0.2321042,0.01911268,-2.481522,-3.447806,2.495023,-1.937932,-1.952054,2.16549,0.2444624,1.704513,-1.988104,-1.537637,-3.111856,-0.03008038,-1.327397,-0.3269551,1.118225]
]
],
"biases":[
[
-0.004210655,-3.436096,0.3361756,-3.385372,-1.931718,0.1869369,-2.809171,0.6207185,2.055725,0.7336873,-0.9576613,-3.324663,-3.716177,-1.792108,-0.1263258,-1.586707,3.348677,-3.003479,-1.626504,-3.255197,-1.983596,-2.719475,2.777702,-0.966382,0.682179,-0.3675023,1.979543,-1.785414,-0.926236,-0.3737648,2.565713,2.827713,0.7961598
],
[
0.688612,-1.713373
]
]},
{
"fitness":14.48616,
"weights":[
[
[-3.851475,-2.875808,-2.144767,-2.696937,-1.412736,-2.989387,3.04741,1.218845,-1.932426,-3.303815,0.2647265,-3.086865,2.89114,3.110282,3.222561,0.1255745,0.1097404,-3.454693,0.03806201,-3.321349,-2.360805,-1.023563,-1.150079,-2.774112,1.070742,1.217456,-1.101236,2.800459,2.301049,-0.9414376,2.343025,-2.534022,-0.6774846],
[-1.71582,-1.449701,0.06041431,2.147177,-0.6800516,3.781698,-0.9621251,3.947804,3.253474,2.578684,3.165354,0.158921,1.26924,0.8685908,-2.160433,0.3046208,0.80181,1.955827,-3.056019,-0.7041674,0.108242,1.042646,-1.39469,3.583609,-0.6240649,-3.336303,-1.376732,2.71244,2.008596,0.8650296,1.757319,-1.263912,3.04029],
[3.141703,-1.461472,0.3752128,-0.04194372,-3.214602,3.524132,3.229505,2.629538,-3.524,3.318615,-2.402684,0.08992094,0.5511064,-2.720726,-1.125916,2.469089,-3.100772,3.258704,-1.163887,-2.435326,2.91264,-3.796095,3.33983,-1.012549,0.1311176,-0.5644074,-2.305581,-1.47485,-1.160557,-1.289716,2.105586,2.45638,1.858041],
[-3.490097,-1.738556,1.784473,3.133038,1.361151,1.927206,-0.9790171,-2.456433,3.150026,-0.3651536,1.699812,0.1672183,3.34563,0.3367074,1.888044,-3.115545,2.684111,-2.086679,-3.088585,2.481081,1.009177,-2.849997,3.034222,2.684742,3.837697,-0.4179822,-1.351564,3.585114,-2.231875,0.83412,2.594339,0.3985333,-2.286979],
[-2.566716,2.582702,-2.897664,0.202086,-0.9611304,-1.086675,-1.893487,-3.95515,-3.68312,1.582077,-0.1311461,-3.914371,0.8080451,1.088453,0.5736251,2.414421,3.240174,-0.8525163,3.771591,-0.5370978,3.777474,1.740186,-2.103337,-0.4484046,-2.634524,0.954401,-1.064239,-1.618917,-0.6471149,1.352617,-0.2130419,-2.50201,-2.511472],
[-0.5011693,1.111134,1.362934,-2.49899,3.31411,-1.810037,3.8533,3.80648,1.915504,3.462551,2.634498,2.207928,-3.787525,-1.366417,-2.5404,-0.7366666,2.187445,0.2025428,-0.8141493,-2.798769,-1.922136,1.225327,-3.417171,-3.916166,-3.464148,-1.422783,0.2049251,3.708064,2.802967,-1.000762,-2.401652,2.09204,1.9082],
[1.477635,3.02843,0.7463084,1.299634,2.373403,3.469511,-1.630317,-2.120526,-2.803333,2.837245,-2.851159,-0.8546166,2.755201,3.583991,0.8886918,2.384834,-0.2505224,-3.526734,1.276949,0.889069,1.798916,-0.6056678,1.808946,3.277479,-1.238712,-0.8746363,3.701237,-0.2924927,0.1863657,3.176889,0.6104108,-3.766184,-3.550978],
[1.633412,0.3694827,-1.125067,0.9994507,-1.170412,3.34509,-3.62352,-2.377882,-3.094718,0.2868547,-0.1328074,2.350563,-3.570739,1.456726,-2.567138,2.180606,-1.078602,0.1864255,-3.321806,-3.52437,-3.891921,1.58994,2.837477,2.324579,0.5847445,2.725543,1.256442,-2.854423,2.2823,-2.950307,-2.248348,2.405277,-3.827008],
[-1.523167,-2.383487,-3.745777,-3.592551,-0.04385284,-0.1975768,2.136276,-1.648504,0.4086452,2.440805,1.461126,1.684721,2.143282,1.840325,2.639138,-3.227005,3.020901,1.189024,3.003607,1.058537,2.041626,-2.916391,-3.745689,-2.905713,0.8458161,-3.862566,2.955951,-0.5644535,0.4080288,0.2547611,1.758238,0.3850458,-2.131809],
[-1.29947,-2.750117,2.525922,-2.62627,-1.4013,0.7169554,-3.588225,-1.351657,-2.977318,2.404429,0.4286259,3.201174,2.622345,2.116869,-0.4210773,-2.346991,-1.570068,-1.70225,3.570404,2.652789,2.495618,3.417913,3.043341,-3.36992,2.980531,-0.7106277,-0.9658592,-2.205006,-0.3642045,2.785896,-3.351722,-1.328836,-0.1021626],
[-3.275821,-1.424419,3.652834,1.12136,-3.568351,-3.551361,0.9858004,2.052892,-1.582993,0.1674339,-0.2546599,-1.391929,-2.130518,3.500358,-3.2205,-1.692387,0.1700138,-2.829926,-0.7036709,-3.278,1.742687,-2.320138,2.626446,1.712282,-3.226329,2.259277,2.479914,-0.0591295,-0.4928436,-0.06459174,0.1271919,2.953915,1.08663],
[-1.153335,0.7061491,-3.887921,1.966483,3.241969,2.874826,2.113353,-0.8402264,-2.860717,-0.63419,0.5281037,-1.747911,-2.360149,-0.09919877,-2.368696,-0.5188714,2.875316,-3.143676,-1.242708,3.240239,-0.1456939,-0.2774561,2.229975,3.793952,-1.980974,-1.644858,-3.089609,1.918524,3.969746,-2.57482,-1.681693,3.849306,0.4034548],
[-3.188526,-2.248409,-1.544929,-2.957902,2.658207,-1.158559,-1.63175,3.208447,-0.4600753,-2.414497,-2.712591,0.8689626,-2.252725,-3.896206,3.45268,-0.8970637,-0.14871,0.9780577,-0.9384119,1.24786,-1.388498,2.598982,3.986314,-3.388961,2.005343,2.888745,-2.792872,-0.3559009,-0.6318091,2.785386,-2.243278,3.889288,3.532735],
[-1.354484,-2.503075,-3.225065,-1.183438,1.559933,-0.5397251,-2.684717,1.090137,3.547187,3.342872,-0.08584858,-0.08847141,-0.5194587,-0.4155709,0.8070552,2.142907,-1.897297,0.9168575,3.14032,-1.988048,-2.037808,-1.220156,1.865629,3.523316,-1.717847,0.2720311,-1.573821,-0.697803,-1.666902,2.609694,1.354499,1.58631,0.7955171],
[3.552507,-1.317938,-3.781333,-2.815278,-2.638625,-0.8814344,1.810884,-3.456177,-0.7550552,-3.605923,-1.826075,-2.061518,2.872822,3.33867,0.1518359,-1.957452,3.389534,0.3234122,1.989672,2.070158,1.063005,1.243515,3.226917,-2.837761,2.975721,1.042991,-1.562653,-2.225509,-0.5492423,-2.872564,1.80429,1.959724,2.839882],
[2.706905,-3.340784,3.69901,-1.091406,2.614674,-1.397229,-0.03016503,-1.324513,-0.03534789,-1.027885,-0.9059336,2.964713,-0.295805,2.216627,-3.254948,-0.8986922,-3.056149,1.458048,2.143739,0.1045357,-1.971373,0.1193294,3.531008,-0.1156517,2.488428,3.299223,3.223363,2.874913,1.733703,-1.148454,-0.412825,-1.826807,0.8717627],
[-1.215261,-0.4349076,3.920416,3.723248,-2.682204,-1.41671,-1.38095,-0.29868,3.225328,-0.8922176,-0.4912381,-1.787716,-2.814992,-2.694309,-2.422761,-3.62887,-1.038715,-2.114457,1.654395,-3.021641,-3.14155,-0.4401343,1.914179,-1.632367,2.223528,0.4189653,2.636376,-1.564385,-2.305373,-1.8886,2.649388,1.42381,-2.65697],
[-3.048082,2.750524,-0.7952363,-0.7297704,2.117516,-2.114836,2.744999,-0.8378499,1.851057,3.35531,-3.419616,2.213625,0.7286788,-3.585553,1.843419,-0.2280676,0.7368672,-1.749986,0.9253891,-2.114657,2.498749,-0.01388523,-0.305458,-3.891722,-2.875597,-3.898554,3.853929,-2.918626,0.308079,1.008538,0.6305817,0.2982469,3.574003],
[2.93336,-0.9505462,-0.9364709,-3.90302,-1.953492,-3.142948,-3.654679,-3.721637,-0.955132,-1.770544,-2.184836,-2.224926,2.92772,1.320634,1.39585,2.826654,-1.417621,1.184395,-2.193019,-0.4251702,-0.5356716,-2.931239,-0.1963876,-1.10537,1.52776,1.024647,2.296732,0.1337453,3.262456,-2.325286,0.5853452,2.766169,1.365373],
[-1.771871,3.987074,2.152174,2.414609,0.4818473,-2.87552,2.114978,1.454046,2.880886,3.097726,0.2093596,3.351321,3.060414,1.341259,-1.696292,3.824291,0.3368181,0.7831529,1.895292,-0.4610158,-1.923035,0.6536703,2.068864,-2.580198,0.008525044,2.240551,-1.030758,0.9353904,3.812172,2.600798,-0.1695053,1.224119,-2.5237],
[1.650017,-2.842793,-0.1544479,3.203337,3.572067,0.6198199,-0.5895711,-3.812503,-2.479454,3.876223,-3.020714,-2.497431,-1.846336,1.584485,3.011979,1.481413,-0.0777157,3.404401,1.490761,-3.836222,2.744961,0.5802348,-1.69559,-2.862745,-2.617577,-0.07301406,2.332752,-1.551901,2.570827,0.1778298,0.3013955,-0.6356819,-0.7104015],
[-1.696501,2.734206,3.367991,3.355302,-3.661028,0.4426949,1.488471,1.697475,0.31655,-0.5109222,2.084189,-0.4918602,-3.264879,-1.85679,3.622812,-2.068679,-3.118362,1.958674,-1.94536,-0.2531775,1.624175,3.562413,1.286268,-2.615824,-3.64672,-0.8235731,-2.005204,-3.860834,3.721237,-3.6707,1.454546,-0.1202308,-0.4818397],
[-0.9397758,2.829702,2.030802,1.252714,2.982727,-0.7208976,-2.663173,3.186325,-3.257374,-3.365216,-1.773162,3.248797,-3.725525,1.200356,3.28187,0.6338559,3.623187,0.8854861,3.65167,-0.8041914,-3.138373,-2.981222,-0.7633173,-0.6626172,0.07532813,2.820242,-1.193486,2.905276,0.2219725,2.325473,-0.2106185,2.985302,-0.3849214],
[1.255646,-1.556897,2.960637,-1.625625,1.077405,-3.116344,-1.40449,0.4158233,-2.026544,3.650325,3.814142,0.1182113,-0.3677399,0.4800433,3.722195,3.83965,-3.490081,-3.632778,-0.4188258,0.4924567,-0.5867748,3.413661,-0.07743467,2.954999,-1.912849,-0.1134549,-0.4878019,-3.471375,-0.3869758,0.6752389,-0.6696744,2.553308,0.7418671],
[-2.334388,2.374596,3.74356,-2.311922,2.065704,-0.9060586,3.111179,-3.460526,-0.2435812,1.288473,1.683919,-1.399875,1.274215,3.559649,-0.4028686,2.234443,-3.3205,-2.817681,-2.973914,-3.9743,1.690626,2.676824,2.030341,1.289877,0.4256306,-3.194294,-0.1681979,0.2094382,-2.750685,1.390829,0.137502,-0.6190967,1.552902],
[-1.729742,-2.370794,0.7496019,-3.902163,-3.462518,-0.1965064,-0.2388038,2.377391,-1.339136,1.320468,-0.1879042,0.6075469,-2.353152,2.083266,-0.7868712,2.639562,3.981996,2.24737,-0.5052427,-1.62971,2.937987,3.988036,-3.035764,-2.951503,-2.287329,-0.07084865,2.242332,1.705595,2.891152,1.742964,0.1525621,-0.3070109,-2.731305],
[2.932134,3.07038,-0.3007584,-1.005779,0.70824,3.329721,2.163159,0.3354386,2.603111,-0.03386816,0.9839603,-3.054414,-2.228912,-0.7087597,-0.4915667,0.09609632,0.02123785,-2.0637,3.777639,-1.198134,-3.326551,-2.135429,1.597497,3.726552,0.4418744,-2.338441,3.061485,3.867381,0.6371034,0.1639366,2.603297,2.318104,-2.447236],
[3.724426,3.740457,3.662342,3.71246,-1.615291,-2.796756,-0.7307519,-1.885355,-3.980427,0.5558466,-0.7293895,2.871067,2.668429,-3.432817,0.1905929,-3.145472,2.267405,2.22776,-0.8317112,1.110935,-2.239463,2.990333,-0.042438,0.4570724,-0.2306183,-1.946809,-3.356224,-3.794512,-3.426274,2.106722,-0.3231254,-0.3329199,-1.78784],
[-3.124646,3.682813,2.417453,-3.833483,3.996072,-0.7270651,-2.336851,0.6705763,2.582991,-0.9856969,-3.422911,3.141979,-1.140386,-2.732642,-3.194443,2.629446,0.5033113,-0.334651,-3.022646,-1.323882,-2.228194,1.01582,3.015762,-3.623796,0.2627268,1.70737,-2.9898,-2.062459,-0.7494001,2.77125,0.1469279,1.467867,3.840764],
[3.546054,-2.998409,-2.046115,-2.777911,2.259732,1.798251,1.794874,2.474675,1.493446,3.97852,-1.168626,1.291454,-1.517066,-1.546274,2.662506,-0.2002966,1.016745,-2.976928,0.7019809,3.759878,2.423554,0.2638161,3.782849,2.130103,2.907256,-1.77531,-2.897493,-1.890607,-0.9531994,0.7539672,-1.312244,1.571663,-3.466075],
[2.841047,0.5921577,2.123708,-1.069854,-0.5129061,1.959576,3.444751,-2.864483,-2.66314,-1.597731,1.301243,2.944812,2.027485,-2.350148,1.034402,-1.821521,2.136493,1.912802,1.314716,3.867142,-1.762957,-3.921872,2.292564,2.105762,-1.543874,-2.057711,-2.979777,2.857414,1.252949,-2.055784,2.477319,-2.884392,-0.5391072],
[-0.3668306,0.8185427,0.110546,-2.304343,-2.084217,0.5267931,0.7573102,2.529439,0.3369085,1.273298,-2.487236,3.033117,2.785817,3.80016,0.291553,1.349873,-2.225904,-2.562864,0.3851876,3.24967,-3.836228,1.653433,0.934642,0.5493532,1.59468,2.515512,-3.952095,-2.812862,-3.892748,-1.704995,1.434262,-2.669488,1.16168],
[2.89701,1.25184,-0.8929972,2.451926,-1.114447,-2.162332,2.358451,-1.637284,-0.8994977,-1.251729,-3.180768,0.9129255,-3.132908,3.555273,3.540976,-1.158996,-0.3828903,-1.328091,2.605091,0.2729222,3.508429,3.535018,-3.519047,-0.3044143,2.795524,-2.324315,3.122119,-3.735629,2.570329,-3.700169,-1.157791,-3.116896,1.50775]
],
[
[2.946582,-3.593513,2.193508,-0.7160225,-0.6762667,-1.778782,0.9309523,0.4802006,0.4824035,-0.1302113,0.5415758,-0.1288415,-2.491148,-1.153957,0.9984686,2.899245,-3.391723,0.03827967,-1.822117,3.816688,2.545344,3.45864,2.219717,0.9918922,-3.190679,0.5071288,-3.14117,2.068289,-0.8234617,-1.535414,3.269938,3.866401,0.3221079],
[3.87439,-0.1077356,1.332616,0.4879563,-0.8304896,-0.8697397,-3.696769,0.4557229,3.940516,2.810798,-1.065643,-0.8054987,3.01315,3.152075,1.565499,2.010329,-0.2321042,0.01911268,-1.858561,-3.447806,2.495023,-1.937932,-1.952054,2.16549,0.2444624,1.704513,-1.988104,-1.537637,-3.111856,-0.03008038,-1.327397,2.993285,1.118225]
]
],
"biases":[
[
-0.004210655,-3.436096,0.3361756,-3.385372,-1.931718,0.1869369,-0.3679451,0.6207185,2.055725,0.7336873,3.809267,-3.324663,-3.716177,-1.792108,-0.1263258,-1.586707,3.348677,-3.003479,-1.626504,-3.255197,-1.983596,-2.719475,2.777702,0.2650805,0.682179,-0.3675023,1.979543,-1.785414,-0.926236,-0.3737648,2.565713,2.827713,0.7961598
],
[
0.688612,-1.713373
]
]},
{
"fitness":14.38153,
"weights":[
[
[-1.609437,-2.875808,-2.144767,-2.696937,-3.840883,-3.030014,3.04741,1.218845,-1.932426,-3.303815,0.2647265,-3.086865,2.89114,3.110282,3.222561,0.1255745,0.1097404,-3.454693,0.03806201,-3.321349,-2.360805,-1.023563,-1.150079,-2.774112,0.445215,1.217456,-1.101236,2.800459,2.301049,-0.9414376,2.343025,-2.534022,-0.6774846],
[-1.71582,-1.449701,0.06041431,2.147177,-0.6800516,-3.710451,-0.9621251,-0.2307653,3.253474,2.578684,3.165354,0.158921,1.26924,0.8685908,-3.362031,0.3046208,0.80181,1.955827,-3.056019,-0.7041674,0.108242,1.042646,-3.201589,3.583609,-0.6240649,-3.336303,-1.376732,1.597319,2.008596,0.8650296,1.757319,-1.263912,3.04029],
[3.141703,-1.461472,-3.44813,-0.04194372,-1.857109,3.524132,2.722397,3.620896,0.1397557,3.318615,-2.402684,0.08992094,-2.673543,-2.720726,-1.125916,2.469089,-3.100772,3.258704,1.916522,-2.435326,2.91264,-3.796095,3.33983,-1.012549,0.1311176,-0.5644074,-2.305581,-1.47485,-1.160557,-1.289716,0.01633436,2.45638,1.858041],
[-3.490097,-1.738556,1.784473,3.133038,1.361151,1.927206,-0.9790171,-2.456433,-2.971087,-0.3651536,1.699812,0.7725538,3.34563,0.3367074,1.888044,-3.115545,2.684111,-2.086679,2.367616,1.490564,1.009177,-2.849997,3.034222,2.684742,-0.4100107,-0.4179822,-1.351564,3.585114,-2.231875,0.83412,-0.6659738,0.2970589,-2.286979],
[-2.001303,1.134689,-2.897664,0.202086,-0.9611304,-1.086675,-1.893487,-3.95515,-3.68312,1.582077,3.546832,-3.914371,-3.94438,1.088453,0.5736251,2.414421,0.4294841,2.161376,3.771591,-0.5370978,3.777474,1.740186,-2.103337,-1.978902,-2.634524,0.954401,-1.064239,-1.618917,-2.934002,1.352617,1.404337,1.430781,-2.511472],
[-0.5011693,1.111134,1.362934,3.354479,0.2810386,-1.810037,3.8533,3.80648,1.915504,3.462551,2.634498,2.207928,-3.787525,-1.366417,-2.5404,3.773384,2.187445,0.2025428,-0.8141493,-2.798769,-1.922136,1.225327,-3.417171,-3.380871,2.818684,-1.680081,1.392475,3.708064,2.802967,-1.000762,-2.401652,-2.355893,1.9082],
[3.546435,3.02843,0.7463084,1.299634,2.373403,-1.073467,3.562001,-2.120526,-2.803333,2.837245,-2.80323,-0.8546166,2.755201,3.583991,0.8886918,2.384834,-0.2505224,-1.050875,1.276949,0.889069,1.798916,-0.6056678,1.808946,3.277479,-1.238712,-0.8746363,0.1513956,-0.2924927,0.1863657,3.176889,0.6104108,-3.766184,-3.550978],
[1.633412,0.3694827,-1.125067,0.9994507,-1.170412,3.34509,-3.62352,-2.377882,-3.094718,0.2868547,-0.1328074,2.350563,-3.570739,-1.174826,-2.567138,2.180606,-1.078602,0.1864255,-3.321806,-3.52437,-3.309825,1.58994,2.837477,2.324579,0.5847445,2.725543,1.256442,-2.854423,2.2823,-2.950307,-3.520356,2.405277,-3.827008],
[0.00206575,-2.383487,-3.745777,-3.592551,-0.04385284,-0.1975768,2.136276,-1.648504,0.4086452,2.440805,1.461126,1.684721,2.143282,1.840325,2.639138,-3.227005,3.020901,1.189024,3.003607,1.058537,2.041626,-2.916391,-3.745689,-2.905713,0.8458161,-3.862566,2.955951,-0.5644535,-3.743573,0.2547611,1.758238,0.3850458,-2.131809],
[-1.29947,-1.642718,2.525922,-2.62627,-1.4013,0.7169554,-3.588225,-0.924465,-2.977318,2.404429,0.4286259,3.201174,2.142412,2.116869,-2.824935,-2.346991,-1.570068,-1.70225,3.570404,2.652789,2.495618,3.417913,-0.06415327,-3.36992,-3.443073,-0.7106277,-0.9658592,-2.205006,-0.3642045,2.785896,-3.351722,-1.328836,-0.1021626],
[-3.275821,-1.424419,3.652834,1.12136,-3.568351,-3.551361,0.9858004,2.052892,-1.582993,0.1674339,-0.2546599,-1.391929,-2.744114,3.500358,-3.2205,-1.692387,3.136261,-2.829926,-0.7036709,-3.278,1.742687,-2.320138,2.626446,1.712282,-3.226329,2.259277,2.479914,1.901478,-0.4928436,-0.06459174,0.1271919,2.953915,1.08663],
[0.5942296,0.7061491,-3.887921,0.8126408,-1.184316,2.874826,2.113353,-0.8402264,-2.860717,-3.152723,0.5281037,-1.747911,0.2932828,3.80298,-2.368696,-0.5188714,2.875316,0.3739283,-1.242708,3.240239,-0.1456939,-0.2774561,2.229975,3.793952,-1.980974,-1.644858,-3.089609,1.918524,3.969746,-2.57482,-1.681693,3.849306,0.4034548],
[-3.188526,-2.248409,-1.544929,-2.957902,2.658207,-3.249436,-0.6456081,3.208447,-0.4600753,-2.414497,-2.712591,0.8689626,3.781176,0.9157898,3.45268,-0.8970637,-0.14871,0.9780577,-0.9384119,3.705587,-1.388498,-0.7971949,3.986314,-3.388961,2.005343,2.888745,-2.792872,3.340569,-0.6318091,2.785386,-2.243278,3.889288,3.532735],
[-1.354484,-2.503075,-3.225065,-3.442488,1.559933,-0.5397251,-2.684717,1.090137,3.547187,3.342872,-0.08584858,-0.08847141,-0.5194587,1.687929,0.8070552,2.142907,2.3176,0.9168575,3.14032,3.846244,-2.037808,-1.220156,1.865629,3.523316,-1.717847,2.269366,-1.573821,-0.697803,-1.666902,2.609694,1.354499,1.58631,0.7955171],
[3.552507,-1.317938,-3.781333,-2.815278,-2.638625,-0.8814344,1.810884,-3.456177,-0.7550552,-3.605923,-1.826075,-2.061518,2.872822,3.33867,0.1518359,-1.957452,3.389534,-0.1474638,1.989672,2.070158,1.063005,1.243515,3.226917,-2.837761,2.975721,1.042991,-1.562653,-2.225509,0.2532741,-1.660754,1.80429,1.959724,2.839882],
[2.706905,-3.340784,-0.6495129,-1.091406,2.614674,-1.397229,-0.03016503,-1.324513,-0.03534789,-1.170496,-0.9059336,2.964713,-0.295805,-2.032639,-3.254948,-0.8986922,-3.056149,1.458048,2.143739,0.1045357,-1.971373,0.1193294,0.9849841,3.125347,2.488428,3.299223,3.223363,2.874913,1.733703,3.73719,1.822393,-1.826807,0.8717627],
[-1.215261,-0.4349076,3.920416,2.977473,-2.682204,-3.241364,-0.9216255,-0.29868,3.225328,-0.8922176,3.437888,-1.787716,-2.814992,-2.694309,-2.422761,-3.62887,-1.038715,-1.54107,-1.058947,-3.021641,-3.703758,-3.788951,1.914179,-1.632367,-1.02403,-1.842648,2.636376,-1.564385,-2.305373,-1.8886,2.649388,1.42381,0.7434541],
[-3.048082,2.750524,-0.7952363,-0.7297704,2.117516,-2.114836,1.213636,-0.8378499,1.851057,3.35531,-3.419616,2.213625,0.7286788,-3.585553,-3.38625,-0.2280676,0.7368672,-1.749986,0.9253891,-2.114657,2.498749,-0.01388523,-0.305458,-3.891722,-2.875597,-3.898554,3.853929,-2.918626,0.308079,1.008538,0.6305817,0.2982469,3.574003],
[2.93336,-0.9505462,-0.9364709,-3.90302,-0.2405825,-3.142948,-3.654679,-3.721637,-0.955132,-1.770544,-3.329131,-2.224926,2.92772,1.320634,1.39585,2.826654,-1.417621,2.903579,-2.193019,-0.4251702,-0.5356716,1.71983,-0.1963876,-3.296879,1.52776,1.024647,2.296732,0.1337453,3.262456,-2.325286,-3.082102,2.766169,1.365373],
[-1.771871,3.987074,2.152174,3.288498,0.4818473,-2.87552,-2.070466,1.454046,2.880886,3.097726,0.2093596,3.18589,3.060414,1.341259,-1.696292,3.824291,0.3368181,0.7831529,1.895292,-0.4610158,-1.923035,-3.311634,2.068864,-2.580198,0.008525044,2.240551,-1.030758,2.585359,3.812172,-3.010514,-0.1695053,1.224119,-2.5237],
[1.650017,-2.842793,-0.1544479,3.203337,3.572067,0.6198199,-0.5895711,-3.812503,-2.479454,3.876223,-3.020714,-2.497431,-1.846336,1.584485,3.011979,1.481413,-0.3276851,-1.744227,1.490761,-3.779153,2.744961,0.5802348,-1.69559,-2.862745,-2.617577,-0.07301406,2.332752,-1.551901,3.454799,0.1778298,0.3013955,0.7439135,-0.7104015],
[-1.696501,2.734206,3.367991,3.355302,-3.661028,0.4426949,0.3343734,1.697475,0.31655,0.4252608,3.38951,-0.4918602,-3.264879,-1.85679,3.622812,-2.068679,-3.118362,1.958674,-1.94536,-0.2531775,1.624175,3.562413,1.286268,-2.615824,-1.817771,-0.8235731,-2.005204,-3.860834,-2.856117,3.004697,1.454546,-2.251295,-0.6437867],
[-0.9397758,2.829702,2.030802,1.252714,-1.442871,-0.7208976,-2.663173,0.4183618,-3.257374,-3.365216,-1.773162,3.248797,-3.725525,1.200356,3.28187,0.6338559,3.623187,0.8854861,3.65167,-0.8041914,-3.138373,-2.981222,3.280881,-0.6626172,0.07532813,2.820242,1.920013,-2.306724,0.2219725,2.325473,-0.2106185,2.985302,-0.3849214],
[0.920388,-1.556897,2.960637,-3.127537,1.077405,-3.116344,-1.40449,0.4158233,-2.026544,3.650325,3.814142,0.1182113,-0.3677399,0.4800433,1.92057,3.83965,-3.490081,-3.632778,-0.4188258,0.4924567,-0.5867748,3.413661,-0.07743467,2.954999,-1.912849,-2.759964,-0.4878019,-1.585592,-0.3869758,0.6752389,-0.6696744,2.553308,0.7418671],
[-2.334388,2.374596,-3.815733,-2.311922,2.065704,1.555483,3.111179,-3.460526,-0.2435812,1.288473,1.683919,-1.399875,1.274215,3.559649,1.395185,2.234443,-3.3205,-2.817681,-2.973914,-3.9743,1.690626,-2.353957,1.270284,1.289877,-0.79391,2.866871,-0.1681979,0.2094382,-2.750685,1.825054,0.137502,-0.6190967,-0.0283088],
[-1.729742,-1.366993,0.7496019,-3.902163,-3.462518,-0.1965064,-0.2388038,2.377391,-1.339136,1.320468,-0.1879042,0.6075469,-2.353152,2.083266,-0.7868712,2.639562,3.981996,2.24737,-0.5052427,-1.62971,2.937987,3.988036,-3.035764,-0.6841731,-2.287329,-0.07084865,2.242332,-2.286345,2.891152,1.742964,0.1525621,-0.3070109,-2.731305],
[2.932134,3.07038,-0.3007584,-1.005779,0.70824,3.329721,2.163159,0.3354386,-2.84779,-0.03386816,-0.7730047,-3.054414,-2.228912,-0.7087597,-0.4915667,0.09609632,-3.022406,-2.0637,3.777639,-1.198134,-3.326551,-2.135429,1.597497,3.726552,0.4418744,-2.338441,3.061485,3.867381,0.6371034,0.1639366,2.603297,2.318104,0.265137],
[3.724426,-2.4812,2.7175,3.71246,2.557805,-2.796756,-0.7307519,-1.885355,-3.980427,-1.922933,-0.7293895,2.871067,2.668429,-3.432817,0.1905929,-3.145472,2.267405,2.22776,-0.8317112,1.110935,-2.239463,0.2865412,-0.042438,0.4570724,-0.2306183,-1.946809,-3.397995,-3.794512,2.358693,2.106722,-0.3231254,-0.3329199,-1.78784],
[-3.124646,3.682813,2.417453,-3.833483,3.996072,-0.7270651,-2.336851,0.6705763,2.582991,-3.256328,-3.422911,3.141979,-1.140386,-1.938706,-3.194443,3.546278,0.5033113,-0.334651,-3.022646,-0.3081586,0.2845475,1.01582,3.015762,1.903409,0.2627268,1.70737,-2.9898,-2.062459,-3.270561,2.77125,0.1469279,1.467867,3.840764],
[3.546054,-2.998409,-2.046115,-2.777911,2.259732,2.405627,-2.634404,2.474675,1.493446,3.796286,-1.168626,1.291454,-1.517066,-1.546274,2.662506,-0.2002966,1.016745,-2.976928,0.7019809,3.759878,2.423554,-3.567114,3.782849,2.130103,-1.865694,-1.77531,-2.897493,0.8687821,-0.9531994,0.7539672,-1.312244,3.400027,-3.466075],
[2.841047,0.5921577,2.123708,-1.069854,-0.5129061,1.959576,3.444751,-2.864483,-2.66314,-1.597731,1.301243,-1.402449,2.027485,-2.350148,1.034402,-1.821521,2.136493,1.912802,1.314716,3.867142,-1.762957,-3.921872,2.292564,2.105762,-1.543874,-2.057711,-0.2639608,2.857414,1.252949,-2.055784,2.477319,-2.884392,-0.5391072],
[-0.3668306,0.8185427,0.110546,-2.653599,-2.084217,0.5908516,0.7573102,2.529439,0.3369085,1.273298,0.6301325,3.033117,2.785817,3.80016,0.291553,1.349873,1.666229,-2.562864,3.758579,3.24967,-3.836228,1.653433,-1.083858,0.5493532,-2.38447,2.515512,-3.952095,-2.086533,-3.892748,-1.704995,1.434262,-2.669488,1.16168],
[2.89701,-1.076251,-1.681304,2.451926,-1.114447,-2.162332,2.358451,-1.637284,-0.8994977,-1.251729,1.023621,0.9129255,-3.132908,-2.278033,3.540976,-1.158996,-0.3828903,-1.328091,2.605091,0.2729222,3.508429,3.535018,-3.519047,-0.3044143,2.795524,-2.324315,3.122119,-3.735629,-3.894412,-3.700169,-1.157791,-3.913662,-2.873259]
],
[
[2.946582,-3.593513,2.193508,-3.566732,-0.6762667,-1.778782,0.9309523,0.4802006,0.4824035,1.554565,0.5415758,-0.1288415,-2.491148,-2.494657,0.9984686,0.3810046,-0.6562461,0.03827967,-1.822117,3.816688,3.017124,3.45864,2.219717,0.9918922,-3.190679,3.34412,-3.14117,2.068289,-0.8234617,-1.535414,3.269938,3.866401,0.3221079],
[3.87439,-0.1077356,1.332616,0.4879563,-0.8304896,-0.8697397,-3.696769,0.4557229,3.940516,2.810798,-1.065643,-0.8054987,2.561154,3.152075,1.565499,2.010329,-0.2321042,0.01911268,1.693803,-3.447806,0.6905077,-1.937932,-1.952054,2.16549,0.2444624,1.704513,-1.988104,-1.537637,-3.111856,-0.03008038,-1.327397,2.993285,1.118225]
]
],
"biases":[
[
-0.004210655,-3.436096,0.3361756,-3.385372,-1.931718,0.1869369,-0.3679451,0.6207185,2.055725,0.7336873,3.809267,-3.324663,-3.716177,-2.022121,-0.1263258,-1.586707,3.348677,-3.003479,-1.626504,-3.255197,-1.983596,-2.719475,2.777702,3.649604,0.682179,-0.3675023,1.979543,-1.785414,-0.926236,-0.3737648,2.565713,2.827713,0.7961598
],
[
0.688612,-1.713373
]
]},
{
"fitness":14.21844,
"weights":[
[
[-3.851475,-2.875808,-2.144767,-2.696937,-1.412736,-2.989387,3.04741,1.218845,-1.932426,-3.303815,0.2647265,-3.086865,2.89114,3.110282,3.222561,0.1255745,0.1097404,-3.454693,0.03806201,-3.321349,-2.360805,-1.023563,-1.150079,-2.774112,1.070742,1.217456,-1.101236,2.800459,2.301049,-0.9414376,2.343025,-2.534022,-0.6774846],
[-1.71582,-1.449701,0.06041431,2.147177,-0.6800516,3.781698,-0.9621251,3.947804,3.253474,2.578684,3.165354,0.158921,1.26924,0.8685908,-2.160433,0.3046208,0.80181,1.955827,-3.056019,-0.7041674,0.108242,1.042646,-1.39469,3.583609,-0.6240649,-3.336303,-1.376732,2.71244,2.008596,0.8650296,1.757319,-1.263912,3.04029],
[3.141703,-1.461472,0.3752128,-0.04194372,-3.214602,3.524132,3.229505,2.629538,-3.524,3.318615,-2.402684,0.08992094,0.5511064,-2.720726,-1.125916,2.469089,-3.100772,3.258704,-1.163887,-2.435326,2.91264,-3.796095,3.33983,-1.012549,0.1311176,-0.5644074,-2.305581,-1.47485,-1.160557,-1.289716,0.01633436,2.45638,1.858041],
[-3.490097,-1.738556,1.784473,3.133038,1.361151,1.927206,-0.9790171,-2.456433,3.150026,-0.3651536,1.699812,0.1672183,3.34563,0.3367074,1.888044,-3.115545,2.684111,-2.086679,-3.088585,2.481081,1.009177,-2.849997,3.034222,2.684742,3.837697,-0.4179822,-1.351564,3.585114,-2.231875,0.83412,2.594339,0.3985333,-2.286979],
[-2.566716,2.582702,-2.897664,0.202086,-0.9611304,-1.086675,-1.893487,-3.95515,-3.68312,1.582077,-0.1311461,-3.914371,0.8080451,1.088453,0.5736251,2.414421,3.240174,-0.8525163,3.771591,-0.5370978,3.777474,1.740186,-2.103337,-0.4484046,-2.634524,0.954401,-1.064239,-1.618917,-0.6471149,1.352617,-0.2130419,-2.50201,-2.511472],
[-0.5011693,1.111134,1.362934,-2.49899,3.31411,-1.810037,3.8533,3.80648,1.915504,3.462551,2.634498,2.207928,-3.787525,-1.366417,-2.5404,-0.7366666,2.187445,0.2025428,-0.8141493,-2.798769,-1.922136,1.225327,-3.417171,-3.380871,-3.464148,-1.422783,0.2049251,3.708064,2.802967,-1.000762,-2.401652,2.09204,1.9082],
[1.477635,3.02843,0.7463084,1.299634,2.373403,3.469511,-1.630317,-2.120526,-2.803333,2.837245,-2.851159,-0.8546166,2.755201,3.583991,0.8886918,2.384834,-0.2505224,-3.526734,1.276949,0.889069,1.798916,-0.6056678,1.808946,3.277479,-1.238712,-0.8746363,3.701237,-0.2924927,0.1863657,3.176889,0.6104108,-3.766184,-3.550978],
[1.633412,0.3694827,-1.125067,0.9994507,-1.170412,3.34509,-3.62352,-2.377882,-3.094718,0.2868547,-0.1328074,2.350563,-3.570739,-3.45444,-2.567138,2.180606,-1.078602,0.1864255,-3.321806,-3.52437,-3.891921,1.58994,2.837477,2.324579,0.5847445,2.725543,1.256442,-2.854423,2.2823,-2.950307,-2.248348,2.405277,-3.827008],
[-1.523167,-2.383487,-3.745777,-3.592551,-0.04385284,-0.1975768,2.136276,-1.648504,0.4086452,2.440805,1.461126,1.684721,2.143282,1.840325,2.639138,-3.227005,3.020901,1.189024,3.003607,1.058537,2.041626,-2.916391,-3.745689,-2.905713,0.8458161,-3.862566,2.955951,-0.5644535,0.4080288,0.2547611,1.758238,0.3850458,-2.131809],
[-1.29947,-2.750117,2.525922,-2.62627,-1.4013,0.7169554,-3.588225,-1.351657,-2.977318,2.404429,0.4286259,3.201174,2.142412,2.116869,-0.4210773,-2.346991,-1.570068,-1.70225,3.570404,2.652789,2.495618,3.417913,3.043341,-3.36992,2.980531,-0.7106277,-0.9658592,-2.205006,-0.3642045,2.785896,-3.351722,-1.328836,-0.1021626],
[-3.275821,-1.424419,3.652834,1.12136,-3.568351,-3.551361,0.9858004,2.052892,-1.582993,0.1674339,-0.2546599,-1.391929,-2.130518,3.500358,-3.2205,-1.692387,0.1700138,-2.829926,-0.7036709,-3.278,1.742687,-2.320138,2.626446,1.712282,-3.226329,2.259277,2.479914,-0.0591295,-0.4928436,-0.06459174,0.1271919,2.953915,1.08663],
[-1.153335,0.7061491,-3.887921,1.966483,3.241969,2.874826,2.113353,-0.8402264,-2.860717,2.982762,0.5281037,-1.747911,-2.360149,-0.09919877,-2.368696,-0.5188714,2.875316,-3.143676,-1.242708,3.240239,-0.1456939,-0.2774561,2.229975,3.793952,-1.980974,-1.644858,-3.089609,1.918524,3.969746,-2.57482,-1.681693,3.849306,0.4034548],
[-3.188526,-2.248409,-1.544929,-2.957902,2.658207,-1.158559,-1.63175,3.208447,-0.4600753,-2.414497,-2.712591,0.8689626,3.781176,-3.896206,3.45268,-0.8970637,-0.14871,0.9780577,-0.9384119,1.24786,-1.388498,2.598982,3.986314,-3.388961,2.005343,2.888745,-2.792872,-0.3559009,-0.6318091,2.785386,-2.243278,3.889288,3.532735],
[-1.354484,-2.503075,-3.225065,-1.183438,1.559933,-0.5397251,-2.684717,1.090137,3.547187,3.342872,-0.08584858,-0.08847141,-0.5194587,-0.4155709,0.8070552,2.142907,-1.897297,0.9168575,3.14032,-1.988048,-2.037808,-1.220156,1.865629,3.523316,-1.717847,0.2720311,-1.573821,-0.697803,-1.666902,2.609694,1.354499,1.58631,0.7955171],
[3.552507,-1.317938,-3.781333,-2.815278,-2.638625,-0.8814344,1.810884,-3.456177,-0.7550552,-3.605923,-1.826075,-2.061518,2.872822,3.33867,0.1518359,-1.957452,3.389534,0.3234122,1.989672,2.070158,1.063005,1.243515,3.226917,-2.837761,2.975721,1.042991,-1.562653,-2.225509,-0.5492423,-2.872564,1.80429,1.959724,2.839882],
[2.706905,-3.340784,3.69901,-1.091406,2.614674,-1.397229,-0.03016503,-1.324513,-0.03534789,-1.027885,-0.9059336,2.964713,-0.295805,2.216627,-3.254948,-0.8986922,-3.056149,1.458048,2.143739,0.1045357,-1.971373,0.1193294,3.531008,-0.1156517,2.488428,3.299223,3.223363,2.874913,1.733703,-1.148454,-0.412825,-1.826807,0.8717627],
[-1.215261,-0.4349076,3.920416,3.723248,-2.682204,-1.41671,-1.38095,-0.29868,3.225328,-0.8922176,-0.4912381,-1.787716,-2.814992,-2.694309,-2.422761,-3.62887,-1.038715,-2.114457,1.654395,-3.021641,-3.14155,-0.4401343,1.914179,-1.632367,2.223528,0.4189653,2.636376,-1.564385,-2.305373,-1.8886,2.649388,1.42381,-2.65697],
[-3.048082,2.750524,-0.7952363,-0.7297704,2.117516,-2.114836,2.744999,-0.8378499,1.851057,3.35531,-3.419616,2.213625,0.7286788,-3.585553,1.843419,-0.2280676,0.7368672,-1.749986,0.9253891,-2.114657,2.498749,-0.01388523,-0.305458,-3.891722,-2.875597,-3.898554,3.853929,-2.918626,0.308079,1.008538,0.6305817,0.2982469,3.574003],
[2.93336,-0.9505462,-0.9364709,-3.90302,-1.953492,-3.142948,-3.654679,-3.721637,-0.955132,-1.770544,-2.184836,-2.224926,2.92772,1.320634,1.39585,2.826654,-1.417621,1.184395,-2.193019,-0.4251702,-0.5356716,-2.931239,-0.1963876,-3.296879,1.52776,1.024647,2.296732,0.1337453,3.262456,-2.325286,-3.082102,2.766169,1.365373],
[-1.771871,3.987074,2.152174,2.414609,0.4818473,-2.87552,2.114978,1.454046,2.880886,3.097726,0.2093596,3.351321,3.060414,1.341259,-1.696292,3.824291,0.3368181,0.7831529,1.895292,-0.4610158,-1.923035,0.6536703,2.068864,-2.580198,0.008525044,2.240551,-1.030758,0.9353904,3.812172,2.600798,-0.1695053,1.224119,-2.5237],
[1.650017,-2.842793,-0.1544479,3.203337,3.572067,0.6198199,-0.5895711,-3.812503,-2.479454,3.876223,-3.020714,-2.497431,-1.846336,1.584485,3.011979,1.481413,-0.0777157,3.404401,1.490761,-3.836222,2.744961,0.5802348,-1.69559,-2.862745,-2.617577,-0.07301406,2.332752,-1.551901,2.570827,0.1778298,0.3013955,-0.6356819,-0.7104015],
[-1.696501,2.734206,3.367991,3.355302,-3.661028,0.4426949,1.488471,1.697475,0.31655,-0.5109222,2.084189,-0.4918602,-3.264879,-1.85679,3.622812,-2.068679,-3.118362,1.958674,-1.94536,-0.2531775,1.624175,3.562413,1.286268,-2.615824,-3.64672,-0.8235731,-2.005204,-3.860834,3.721237,-3.6707,1.454546,-0.1202308,-0.6437867],
[-0.9397758,2.829702,2.030802,1.252714,2.982727,-0.7208976,-2.663173,3.186325,-3.257374,-3.365216,-1.773162,3.248797,-3.725525,1.200356,3.28187,0.6338559,3.623187,0.8854861,3.65167,-0.8041914,-3.138373,-2.981222,-0.7633173,-0.6626172,0.07532813,2.820242,-1.193486,-3.237896,0.2219725,2.325473,-0.2106185,2.985302,-0.3849214],
[1.255646,-1.556897,2.960637,-1.625625,1.077405,-3.116344,-1.40449,0.4158233,-2.026544,3.650325,3.814142,0.1182113,-0.3677399,0.4800433,3.722195,3.83965,-3.490081,-3.632778,-0.4188258,0.4924567,-0.5867748,3.413661,-0.07743467,2.954999,-1.912849,-0.1134549,-0.4878019,-3.471375,-0.3869758,0.6752389,-0.6696744,2.553308,0.7418671],
[-2.334388,2.374596,3.74356,-2.311922,2.065704,-0.9060586,3.111179,-3.460526,-0.2435812,1.288473,1.683919,-1.399875,1.274215,3.559649,-0.4028686,2.234443,-3.3205,-2.817681,-2.973914,-3.9743,1.690626,2.676824,2.030341,1.289877,0.4256306,-3.194294,-0.1681979,0.2094382,-2.750685,1.390829,0.137502,-0.6190967,1.552902],
[-1.729742,-2.370794,0.7496019,-3.902163,-3.462518,-0.1965064,-0.2388038,2.377391,-1.339136,1.320468,-0.1879042,0.6075469,-2.353152,2.083266,-0.7868712,2.639562,3.981996,2.24737,-0.5052427,-1.62971,2.937987,3.988036,-3.035764,-2.951503,-2.287329,-0.07084865,2.242332,1.705595,2.891152,1.742964,0.1525621,-0.3070109,-2.731305],
[2.932134,3.07038,-0.3007584,-1.005779,0.70824,3.329721,2.163159,0.3354386,2.603111,-0.03386816,0.9839603,-3.054414,-2.228912,-0.7087597,-0.4915667,0.09609632,0.02123785,-2.0637,3.777639,-1.198134,-3.326551,-2.135429,1.597497,3.726552,0.4418744,-2.338441,3.061485,3.867381,0.6371034,0.1639366,2.603297,2.318104,-2.447236],
[3.724426,3.740457,3.662342,3.71246,-1.615291,-2.796756,-0.7307519,-1.885355,-3.980427,0.5558466,-0.7293895,2.871067,2.668429,-3.432817,0.1905929,-3.145472,2.267405,2.22776,-0.8317112,1.110935,-2.239463,2.990333,-0.042438,0.4570724,-0.2306183,-1.946809,-3.356224,-3.794512,-3.426274,2.106722,-0.3231254,-0.3329199,-1.78784],
[-3.124646,3.682813,2.417453,-3.833483,3.996072,-0.7270651,-2.336851,0.6705763,2.582991,-0.9856969,-3.422911,3.141979,-1.140386,-2.732642,-3.194443,2.629446,0.5033113,-0.334651,-3.022646,-1.323882,-2.228194,1.01582,3.015762,-3.623796,0.2627268,1.70737,-2.9898,-2.062459,-0.7494001,2.77125,0.1469279,1.467867,3.840764],
[3.546054,-2.998409,-2.046115,-2.777911,2.259732,1.798251,1.794874,2.474675,1.493446,3.97852,-1.168626,1.291454,-1.517066,-1.546274,2.662506,-0.2002966,1.016745,-2.976928,0.7019809,3.759878,2.423554,0.2638161,3.782849,2.130103,2.907256,-1.77531,-2.897493,-1.890607,-0.9531994,0.7539672,-1.312244,1.571663,-3.466075],
[2.841047,0.5921577,2.123708,-1.069854,-0.5129061,1.959576,3.444751,-2.864483,-2.66314,-1.597731,1.301243,2.944812,2.027485,-2.350148,1.034402,-1.821521,2.136493,1.912802,1.314716,3.867142,-1.762957,-3.921872,2.292564,2.105762,-1.543874,-2.057711,-2.979777,2.857414,1.252949,-2.055784,2.477319,-2.884392,-0.5391072],
[-0.3668306,0.8185427,0.110546,-2.304343,-2.084217,0.5267931,0.7573102,2.529439,0.3369085,1.273298,-2.487236,3.033117,2.785817,3.80016,0.291553,1.349873,1.666229,-2.562864,0.3851876,3.24967,-3.836228,1.653433,0.934642,0.5493532,1.59468,2.515512,-3.952095,-2.812862,-3.892748,-1.704995,1.434262,-2.669488,1.16168],
[2.89701,1.25184,-0.8929972,2.451926,-1.114447,-2.162332,2.358451,-1.637284,-0.8994977,-1.251729,1.023621,0.9129255,-3.132908,3.555273,3.540976,-1.158996,-0.3828903,-1.328091,2.605091,0.2729222,3.508429,3.535018,-3.519047,-0.3044143,2.795524,-2.324315,3.122119,-3.735629,2.570329,-3.700169,-1.157791,-3.913662,1.50775]
],
[
[2.946582,-3.593513,2.193508,-0.7160225,-0.6762667,-1.778782,0.9309523,0.4802006,0.4824035,-0.1302113,0.5415758,-0.1288415,-2.491148,-1.153957,0.9984686,2.899245,-3.391723,0.03827967,-1.822117,3.816688,2.545344,3.45864,2.219717,0.9918922,-3.190679,0.5071288,-3.14117,2.068289,-0.8234617,-1.535414,3.269938,3.866401,0.3221079],
[3.87439,-0.1077356,1.332616,0.4879563,-0.8304896,-0.8697397,-3.696769,0.4557229,3.940516,2.810798,-1.065643,-0.8054987,3.01315,3.152075,1.565499,2.010329,-0.2321042,0.01911268,-1.115525,-3.447806,2.495023,-1.937932,-1.952054,2.16549,0.2444624,1.704513,-1.988104,-1.537637,-3.111856,-0.03008038,-1.327397,2.993285,1.118225]
]
],
"biases":[
[
-0.004210655,-3.436096,0.3361756,-3.385372,-1.931718,0.1869369,-0.3679451,0.6207185,2.055725,0.7336873,3.809267,-3.324663,-3.716177,-1.792108,-0.1263258,-1.586707,3.348677,-3.003479,-1.626504,-3.255197,-1.983596,-2.719475,2.777702,0.2650805,0.682179,-0.3675023,1.979543,-1.785414,-0.926236,-0.3737648,2.565713,2.827713,0.7961598
],
[
0.688612,-1.713373
]
]},
{
"fitness":14.17959,
"weights":[
[
[-3.851475,-2.875808,-1.361404,-2.696937,-3.840883,-3.030014,3.04741,1.218845,-1.932426,-3.303815,0.2647265,-3.086865,2.89114,3.110282,3.222561,0.1255745,0.1097404,-3.454693,0.03806201,-3.321349,-2.360805,-1.023563,-2.630318,-2.774112,1.070742,1.217456,-1.101236,2.800459,2.301049,-0.9414376,2.343025,-2.534022,-0.6774846],
[-1.71582,-1.449701,0.06041431,2.147177,-0.6800516,-3.710451,-0.9621251,-0.2307653,3.253474,2.578684,3.165354,0.158921,1.26924,0.8685908,-3.362031,0.3046208,0.80181,1.955827,-3.056019,-0.7041674,0.108242,1.042646,-1.39469,3.583609,-0.6240649,-3.336303,-1.376732,2.71244,2.008596,0.8650296,1.757319,-1.263912,3.04029],
[3.141703,-1.461472,-3.44813,-0.04194372,-1.857109,3.524132,-1.757669,3.620896,-3.524,3.318615,-2.402684,0.08992094,0.5511064,-2.720726,-1.125916,-2.926934,-3.100772,3.258704,1.916522,-2.435326,2.91264,-3.796095,3.33983,-1.012549,0.1311176,-0.5644074,-2.305581,-1.47485,-1.160557,-1.289716,0.01633436,2.45638,1.858041],
[-3.490097,-1.738556,1.784473,3.133038,1.361151,1.927206,-0.9790171,-2.456433,-2.51791,-0.3651536,1.699812,0.7725538,3.34563,0.3367074,1.888044,-3.115545,2.684111,-2.086679,2.367616,-1.408383,1.009177,-2.849997,3.034222,2.684742,3.837697,-0.4179822,-1.351564,3.585114,-2.231875,0.83412,2.594339,0.2970589,-2.286979],
[2.062675,2.582702,-2.897664,0.202086,-0.9611304,-1.086675,-1.893487,-3.95515,-3.68312,1.582077,-0.1311461,-3.914371,-3.94438,1.088453,-0.6481922,-1.662048,3.240174,-0.8525163,3.771591,-0.5370978,3.777474,1.740186,-2.103337,-1.978902,-2.634524,0.954401,-1.064239,-1.618917,-2.934002,-0.2148638,1.404337,1.430781,-2.511472],
[-0.5011693,1.111134,1.362934,3.354479,-2.925955,-1.810037,3.8533,3.80648,1.915504,3.462551,2.634498,2.207928,-3.787525,-1.366417,-2.5404,-0.7289767,2.187445,0.2025428,-0.8141493,-2.798769,-1.922136,1.225327,-3.417171,-3.380871,-3.464148,-1.680081,1.392475,3.708064,2.802967,-1.38568,-2.401652,2.09204,1.9082],
[3.546435,3.02843,0.7463084,1.299634,-2.641698,-1.073467,-1.630317,-2.120526,-2.803333,2.837245,-2.80323,-0.8546166,2.755201,3.583991,0.8886918,2.384834,-0.2505224,-1.050875,1.276949,0.889069,1.798916,-0.6056678,1.808946,3.277479,-1.238712,-0.8746363,0.1513956,-0.2924927,0.1863657,3.176889,0.6104108,-3.766184,-3.550978],
[1.633412,0.3694827,-1.125067,0.9994507,-1.170412,3.34509,-3.62352,-0.1852812,-3.094718,2.276868,-0.1328074,2.350563,-3.570739,-1.174826,-2.567138,2.180606,-1.078602,0.1864255,3.261692,-3.52437,-3.309825,1.58994,2.837477,2.324579,0.5847445,2.725543,1.256442,-2.854423,2.2823,-2.950307,-3.520356,2.405277,-3.827008],
[-1.136165,-2.383487,-3.745777,-3.592551,2.009376,-0.1975768,2.136276,-1.648504,0.4086452,2.440805,1.461126,1.684721,2.143282,1.840325,2.639138,-3.227005,3.020901,1.189024,3.003607,1.058537,2.041626,-2.916391,-3.745689,-2.905713,-3.230513,-3.862566,2.955951,-3.849317,-3.743573,0.2547611,1.758238,0.3850458,-2.772695],
[-1.29947,-1.642718,2.525922,-2.62627,-1.4013,0.7169554,3.55389,-0.924465,-2.977318,-2.85217,0.4286259,3.201174,2.142412,2.116869,-0.4210773,-2.346991,-1.570068,-1.70225,3.570404,2.652789,2.495618,3.417913,-0.06415327,-3.36992,-3.443073,-0.7106277,-0.9658592,-2.205006,-0.3642045,2.742863,-3.351722,-1.328836,-0.1021626],
[-3.275821,-1.424419,3.652834,1.12136,-3.568351,-3.551361,0.9858004,2.052892,-1.582993,0.1674339,-0.2546599,-1.391929,-2.744114,0.9880157,-3.2205,-1.692387,3.136261,1.387709,-0.7036709,-3.278,1.742687,-2.320138,2.626446,1.712282,-3.226329,2.259277,2.479914,-0.2688006,-0.4928436,-0.06459174,0.1271919,2.953915,1.08663],
[0.5942296,0.7061491,-3.887921,0.8126408,3.241969,2.874826,2.113353,-0.8402264,-2.860717,-3.152723,0.5281037,-1.747911,0.2932828,3.80298,-3.518312,-0.5188714,2.875316,-3.143676,-1.242708,3.240239,-2.163339,-0.2774561,2.229975,3.793952,-1.980974,-1.644858,-3.089609,1.918524,3.969746,-2.57482,-1.681693,3.849306,0.4034548],
[-3.188526,-2.248409,-1.544929,0.8686251,2.658207,-3.249436,-0.6456081,-3.630041,-0.4600753,-2.414497,-2.712591,0.8689626,3.781176,0.9157898,3.45268,-0.8970637,-0.14871,0.9780577,-0.9384119,3.705587,-1.388498,-0.7971949,3.986314,-3.388961,3.579321,2.888745,-2.792872,3.340569,-2.363204,2.785386,-2.243278,3.889288,3.532735],
[-1.354484,-2.503075,-3.225065,-3.442488,1.559933,-0.5397251,-2.684717,1.090137,3.547187,3.342872,-0.08584858,-0.08847141,-0.5194587,-0.4155709,0.8070552,2.142907,2.3176,0.9168575,3.14032,3.846244,2.941884,-1.220156,1.865629,3.523316,-1.717847,2.269366,-1.573821,-0.697803,1.860786,2.609694,1.354499,1.58631,0.7955171],
[3.552507,-1.317938,-3.781333,-2.815278,-2.638625,-0.8814344,1.810884,-3.456177,-0.7550552,-3.605923,-1.826075,-2.061518,2.872822,3.33867,0.1518359,-1.957452,3.389534,-0.1474638,1.989672,0.7121489,1.063005,1.243515,3.226917,-2.837761,3.980953,1.042991,-1.562653,-2.225509,0.2532741,-1.660754,1.80429,1.959724,2.839882],
[2.706905,-3.340784,3.69901,-1.091406,2.614674,-1.397229,-0.03016503,-1.324513,-0.03534789,-1.170496,-0.9059336,2.964713,-3.82743,-2.032639,-3.254948,-3.8771,-3.056149,1.458048,2.143739,0.1045357,-1.971373,0.1193294,0.9849841,-3.459759,2.488428,3.299223,0.1247212,2.874913,1.733703,3.73719,1.822393,-1.826807,0.8717627],
[-1.215261,-0.4349076,3.920416,2.977473,-2.682204,-1.41671,-0.9216255,-0.29868,3.225328,-0.8922176,3.437888,-3.569633,-2.814992,1.300571,-2.422761,-3.62887,-1.038715,-1.54107,-2.939474,-3.021641,-3.703758,-3.788951,1.914179,-1.632367,-1.02403,-1.842648,2.636376,-1.564385,-2.305373,-1.8886,2.649388,1.42381,0.7434541],
[-3.048082,2.750524,-0.7952363,-0.7297704,2.117516,-2.114836,0.3979667,-0.8378499,1.851057,3.35531,-3.419616,2.213625,0.7286788,-3.585553,1.843419,-0.2280676,0.7368672,-1.749986,0.9253891,-2.114657,2.498749,-0.01388523,-0.305458,-3.891722,-2.875597,-3.898554,3.853929,-2.918626,0.308079,1.008538,0.6305817,0.2982469,3.574003],
[2.93336,-0.9505462,-0.9364709,-3.90302,-0.2405825,-3.142948,-3.654679,-3.721637,1.435457,-1.770544,-2.184836,-2.224926,2.92772,-0.1905248,1.39585,2.826654,-1.417621,1.184395,-2.193019,-0.4251702,-0.5356716,1.71983,-0.1963876,-3.296879,1.52776,1.024647,-1.191867,0.1337453,3.262456,-2.325286,-3.082102,2.766169,1.365373],
[3.199686,3.987074,2.152174,3.288498,0.4818473,-2.87552,-2.070466,1.454046,2.880886,3.097726,0.2093596,3.18589,3.060414,1.341259,-1.696292,3.824291,0.3368181,0.7831529,1.895292,-0.4610158,-1.923035,0.6536703,2.068864,-2.580198,0.008525044,2.240551,-1.030758,0.9258901,3.812172,2.600798,-0.1695053,1.224119,-2.5237],
[1.650017,-2.842793,-0.1544479,3.203337,3.572067,0.6198199,-0.5895711,-3.812503,-2.479454,3.876223,-3.020714,-2.497431,-1.846336,1.584485,3.011979,1.481413,-0.3276851,0.7805373,1.490761,-3.836222,2.744961,0.5802348,-1.69559,2.409612,-2.617577,-0.07301406,2.332752,-1.551901,3.454799,0.1778298,0.3013955,0.7439135,-0.7104015],
[-1.696501,2.734206,-3.395343,3.355302,-3.661028,0.4426949,0.3343734,1.697475,0.31655,0.4252608,2.084189,-0.4918602,-3.264879,-1.85679,3.622812,-2.068679,-3.118362,1.958674,-1.94536,-0.2531775,1.624175,3.562413,1.286268,-2.615824,-3.64672,-0.8235731,-2.005204,-3.860834,-2.856117,0.1835907,1.454546,-2.251295,-0.6437867],
[-0.9397758,-3.073605,2.030802,1.252714,2.982727,-0.7208976,-2.663173,0.4183618,-3.257374,-3.365216,-1.773162,3.248797,-3.725525,1.200356,3.28187,0.6338559,3.623187,0.8854861,3.65167,-0.8041914,-3.138373,-2.981222,-3.82457,-0.6626172,0.07532813,2.820242,-1.193486,-2.306724,0.2219725,2.325473,-0.2106185,2.985302,-0.3849214],
[0.920388,-1.556897,2.960637,-3.127537,1.077405,-3.116344,-0.8425152,0.4158233,-2.026544,3.650325,3.814142,0.1182113,-0.3677399,0.4800433,1.92057,3.83965,-3.490081,-3.632778,-0.4188258,0.4924567,-0.5867748,-3.632262,-0.07743467,2.954999,-1.912849,-2.759964,-0.4878019,-1.585592,-0.3869758,0.6752389,-0.6696744,2.553308,0.7418671],
[-2.334388,2.374596,-3.815733,-2.311922,2.065704,1.555483,1.539815,-3.460526,-0.2435812,1.288473,1.683919,-1.399875,1.274215,3.559649,1.395185,2.234443,-3.3205,-2.817681,-2.973914,-3.9743,1.690626,-2.353957,2.030341,1.289877,-0.79391,2.866871,-0.1681979,0.2094382,-2.750685,1.825054,0.137502,-0.6190967,1.552902],
[-1.729742,-1.366993,0.7496019,-3.902163,-3.462518,-0.1965064,-0.2388038,2.377391,-0.6049929,1.320468,1.59387,0.6075469,-2.353152,2.083266,-0.7868712,2.639562,3.981996,2.24737,-0.5052427,-1.62971,2.937987,3.988036,-3.035764,-2.951503,-2.287329,-2.221836,2.242332,-2.286345,2.891152,1.742964,-0.3828774,-0.3070109,-2.731305],
[2.932134,3.07038,-0.3007584,-1.005779,0.70824,-0.9322234,-3.593655,0.3354386,-2.84779,-0.03386816,-0.7730047,-3.054414,-2.228912,-0.7087597,-0.4915667,0.09609632,2.885224,-2.0637,3.777639,-1.198134,-3.326551,-2.135429,1.597497,3.726552,0.4418744,-2.338441,3.061485,3.867381,0.6371034,0.1639366,2.603297,2.318104,0.265137],
[3.724426,3.740457,2.7175,3.71246,2.557805,-2.796756,-0.7307519,-1.885355,-1.018601,-1.922933,-0.7293895,2.871067,2.668429,-3.432817,0.1905929,-3.145472,2.267405,2.22776,-0.8317112,1.110935,-2.239463,2.990333,-0.042438,0.4570724,-0.2306183,-1.946809,-3.397995,-3.794512,2.785151,2.106722,-0.3231254,-0.3329199,-1.78784],
[-3.124646,3.682813,2.417453,-3.833483,3.996072,-0.7270651,-2.336851,0.6705763,2.582991,-3.256328,-3.422911,3.141979,-3.559961,-1.938706,-3.194443,2.629446,0.5033113,-0.334651,-3.022646,-0.3081586,-2.228194,1.01582,3.015762,1.903409,0.2627268,1.70737,-2.9898,-2.062459,-3.270561,2.77125,0.1469279,1.467867,3.840764],
[3.546054,-2.998409,-3.538024,-2.777911,2.259732,2.114669,-2.634404,2.474675,1.493446,3.796286,-1.168626,1.291454,-1.517066,-1.546274,2.662506,-0.2002966,1.016745,-2.976928,0.7019809,3.759878,2.423554,-3.567114,3.782849,2.130103,-1.865694,-1.77531,-3.391917,0.8687821,-0.9531994,0.7539672,-1.312244,-1.39843,-3.466075],
[2.841047,0.5921577,2.123708,-1.069854,-0.5129061,1.959576,3.444751,-2.864483,-2.66314,-1.597731,1.301243,-1.402449,2.027485,-2.350148,1.034402,-1.821521,-0.7336126,1.912802,1.314716,3.867142,-1.762957,-3.921872,2.292564,2.105762,-1.543874,-2.057711,-2.979777,2.857414,1.252949,-2.055784,2.477319,0.587983,-0.5391072],
[-0.3668306,0.8185427,0.110546,-2.653599,-2.084217,0.5908516,0.7573102,2.529439,0.3369085,1.273298,0.6301325,3.033117,-1.596964,1.988819,-0.4048333,1.349873,1.666229,-2.562864,3.758579,3.24967,-3.836228,1.653433,-1.083858,0.5493532,-2.38447,2.515512,-3.952095,-2.812862,-3.892748,-1.704995,1.434262,-2.669488,1.16168],
[2.89701,-1.076251,-0.8929972,2.451926,-1.114447,-2.162332,2.358451,-1.637284,-0.8994977,-1.251729,1.023621,0.9129255,-3.132908,-2.278033,3.540976,-1.158996,-0.3828903,-1.328091,2.605091,0.2729222,3.508429,3.535018,-3.519047,-0.3044143,2.795524,-2.324315,3.122119,-3.735629,-3.894412,-3.700169,-1.157791,-3.913662,-2.873259]
],
[
[2.946582,-3.593513,2.193508,-0.7160225,-0.6762667,-1.778782,0.9309523,0.4802006,-3.970909,1.554565,0.5415758,-0.1288415,-2.491148,-1.153957,0.9984686,0.3810046,-0.6562461,0.03827967,-1.822117,3.816688,2.545344,3.45864,2.219717,0.9918922,-3.190679,3.34412,-3.14117,2.068289,-0.8234617,-1.535414,3.269938,3.866401,0.3221079],
[3.87439,-0.1077356,-0.4241991,0.4879563,-0.8304896,-0.8697397,-3.696769,1.688812,3.940516,2.810798,-1.065643,-0.8054987,2.561154,3.984348,1.565499,2.010329,-0.2321042,0.01911268,1.693803,-3.447806,0.6905077,-1.937932,-1.952054,3.441132,0.2444624,1.704513,-1.988104,-1.537637,-3.111856,-0.03008038,-1.327397,2.993285,1.118225]
]
],
"biases":[
[
-0.004210655,-3.436096,0.3361756,-3.385372,-1.931718,0.1869369,-0.3679451,0.6207185,2.055725,0.7336873,3.809267,-3.324663,-3.716177,-1.792108,-0.1263258,-2.957779,3.348677,-3.003479,-1.626504,-3.255197,-1.983596,-2.719475,2.777702,3.649604,0.682179,-0.3675023,1.979543,-1.785414,-0.926236,-0.3737648,2.565713,2.827713,0.7961598
],
[
0.688612,-1.713373
]
]},
{
"fitness":14.14967,
"weights":[
[
[-1.609437,-2.875808,-2.144767,-2.696937,-3.840883,-3.030014,3.04741,1.218845,-1.932426,-3.303815,0.2647265,-3.086865,2.89114,3.110282,3.222561,0.1255745,0.1097404,-3.454693,0.03806201,-3.321349,-2.360805,-1.023563,-1.150079,-2.774112,1.070742,1.217456,-1.101236,2.800459,2.301049,-0.9414376,2.343025,-2.534022,-0.6774846],
[-1.71582,-1.449701,0.06041431,2.147177,-0.6800516,-3.710451,-0.9621251,-0.2307653,3.253474,2.578684,3.165354,0.158921,1.26924,0.8685908,-3.362031,0.3046208,0.80181,1.955827,-3.056019,-0.7041674,0.108242,1.042646,-1.39469,3.583609,-0.6240649,-3.336303,-1.376732,2.71244,2.008596,0.8650296,1.757319,-1.263912,3.04029],
[3.141703,-2.00577,-3.44813,-0.04194372,-1.857109,3.524132,2.722397,3.620896,0.1397557,3.318615,-2.402684,0.08992094,-2.673543,-2.720726,-1.125916,2.469089,-3.100772,3.258704,3.3675,-2.435326,2.91264,-3.796095,3.33983,-1.012549,0.1311176,-0.5644074,-2.305581,-1.47485,-1.160557,-1.289716,0.01633436,2.45638,1.858041],
[-3.490097,-1.738556,1.784473,3.133038,1.361151,1.927206,-0.9790171,-2.456433,-2.971087,-0.3651536,1.699812,0.7725538,3.34563,0.3367074,1.888044,-3.115545,2.684111,-2.086679,2.367616,1.490564,1.009177,-2.849997,3.034222,2.684742,-0.4100107,-0.4179822,-1.351564,3.585114,-2.231875,0.83412,-0.6659738,0.2970589,-2.286979],
[0.3361972,1.134689,-2.897664,0.202086,-0.9611304,-1.086675,-1.893487,-3.95515,-3.68312,1.582077,-0.1311461,-3.914371,-3.94438,1.088453,0.5736251,2.414421,0.4294841,-0.8525163,3.771591,-0.5370978,3.777474,1.740186,-2.103337,-1.978902,-2.634524,0.954401,-1.064239,-1.618917,-2.934002,1.352617,1.404337,1.430781,-2.511472],
[-0.5011693,1.111134,1.362934,3.354479,0.2810386,-1.810037,3.8533,3.80648,1.915504,3.462551,2.634498,2.207928,-3.787525,-1.366417,-2.5404,3.773384,2.187445,0.2025428,-0.8141493,-2.798769,-1.922136,1.225327,-3.417171,-3.380871,2.818684,-1.680081,1.392475,3.708064,2.802967,-1.000762,-2.401652,2.09204,1.9082],
[3.546435,3.02843,0.7463084,1.299634,2.373403,-1.073467,3.562001,-2.120526,-2.803333,2.837245,-2.80323,-0.8546166,2.755201,3.583991,0.8886918,2.384834,-0.2505224,-1.050875,1.276949,0.889069,1.798916,-0.6056678,1.808946,3.277479,-1.238712,-0.8746363,0.1513956,-0.2924927,0.1863657,3.176889,0.6104108,-3.766184,-3.550978],
[1.633412,0.3694827,-1.125067,0.9994507,-1.170412,3.34509,-3.62352,-2.377882,-3.094718,0.2868547,-0.1328074,2.350563,-3.570739,-1.174826,-2.567138,2.180606,-1.078602,0.1864255,-3.321806,-3.52437,-3.309825,1.58994,2.837477,2.324579,0.5847445,2.725543,1.256442,-2.854423,2.2823,-2.950307,-3.520356,2.405277,-3.827008],
[-3.673136,-2.383487,-3.745777,-3.592551,-0.04385284,-0.1975768,2.136276,-1.648504,0.4086452,2.440805,1.461126,1.684721,2.143282,1.840325,2.639138,-3.227005,3.020901,1.189024,3.003607,1.058537,2.041626,-2.916391,-3.745689,-2.905713,0.8458161,-3.862566,2.955951,-0.5644535,-3.743573,0.2547611,1.758238,0.3850458,-2.131809],
[-1.29947,-1.642718,2.525922,-2.62627,-1.4013,0.7169554,-3.588225,-0.924465,-2.977318,2.404429,0.4286259,3.201174,2.142412,2.116869,-2.824935,-2.346991,-1.570068,-1.70225,3.570404,2.652789,2.495618,3.417913,-0.06415327,-3.36992,-3.443073,-0.7106277,-0.9658592,-2.205006,-0.3642045,2.785896,-3.351722,-1.328836,-0.1021626],
[-3.275821,-1.424419,3.652834,1.12136,-3.568351,-3.551361,0.9858004,2.052892,-1.582993,0.1674339,-0.2546599,-1.391929,-2.744114,3.500358,-3.2205,-1.692387,3.136261,-2.829926,-0.7036709,-3.278,1.742687,-2.320138,2.626446,1.712282,-3.226329,2.259277,2.479914,1.901478,1.642128,-0.06459174,0.1271919,2.953915,1.08663],
[0.5942296,0.7061491,-3.887921,0.8126408,-1.184316,2.874826,2.113353,-0.8402264,-2.860717,-3.152723,0.5281037,-1.747911,0.2932828,3.80298,-2.368696,-0.5188714,2.875316,0.3739283,-1.242708,3.240239,-0.1456939,-0.2774561,2.229975,3.793952,-1.980974,-1.644858,-3.089609,1.918524,-3.397315,-2.57482,-1.681693,3.849306,0.4034548],
[-3.188526,-2.248409,-1.544929,-2.957902,2.658207,-3.249436,-0.6456081,3.208447,-0.4600753,-2.414497,-2.712591,0.8689626,3.781176,0.9157898,3.45268,-0.8970637,-0.14871,0.9780577,-0.9384119,3.705587,-1.388498,-0.7971949,3.986314,-3.388961,2.005343,2.888745,-2.792872,3.340569,-0.6318091,2.785386,-2.243278,3.889288,3.532735],
[-1.354484,-2.503075,-3.225065,-3.442488,1.559933,-0.5397251,-2.684717,1.090137,3.547187,3.342872,-0.08584858,-0.08847141,-0.5194587,1.687929,0.8070552,2.142907,2.3176,0.9168575,3.14032,3.846244,-2.037808,-1.220156,1.865629,3.523316,-1.717847,2.269366,-1.573821,-0.697803,-1.666902,2.609694,1.354499,1.58631,0.7955171],
[3.552507,-1.317938,-3.781333,-2.815278,-2.638625,-0.8814344,-0.3720349,-3.456177,-0.7550552,-3.605923,-1.826075,-2.061518,2.872822,3.33867,0.1518359,-1.957452,3.389534,-0.1474638,1.989672,2.070158,1.063005,1.243515,3.226917,-2.837761,2.975721,1.042991,-1.562653,-2.225509,0.2532741,-1.660754,1.80429,1.959724,2.839882],
[2.706905,-3.340784,-0.6495129,-1.091406,2.614674,-1.397229,-0.03016503,-1.324513,-0.03534789,-1.170496,-0.9059336,2.964713,-0.295805,-2.032639,-3.254948,-0.8986922,-3.056149,1.458048,2.143739,0.1045357,-1.971373,0.1193294,0.9849841,3.125347,2.488428,3.299223,3.223363,2.874913,1.733703,3.73719,1.822393,-1.826807,0.8717627],
[-1.215261,-0.4349076,3.920416,2.977473,-2.682204,-1.41671,-0.9216255,-0.29868,3.225328,-0.8922176,3.437888,-1.787716,-2.814992,-2.694309,-2.422761,2.061974,-1.038715,-1.54107,-1.058947,-3.021641,-3.703758,-3.788951,1.914179,-1.632367,-1.02403,-1.842648,2.636376,-1.564385,-2.305373,-1.8886,2.649388,-2.034694,0.7434541],
[-3.048082,2.750524,-0.7952363,-0.7297704,2.117516,-2.114836,1.213636,-0.8378499,1.851057,3.35531,-3.419616,2.213625,0.7286788,-3.585553,-3.38625,-0.2280676,0.7368672,-1.749986,0.9253891,-2.114657,2.498749,-0.01388523,-0.305458,-3.891722,-2.875597,-3.898554,3.853929,-2.918626,0.308079,1.008538,0.6305817,0.2982469,3.574003],
[2.93336,-0.9505462,-0.9364709,-3.90302,-0.2405825,-3.142948,-3.654679,-3.721637,-0.955132,-1.770544,-3.329131,-2.224926,2.92772,1.320634,1.39585,2.826654,-1.417621,2.903579,-2.193019,-0.4251702,-0.5356716,1.71983,-0.1963876,-3.296879,1.52776,1.024647,2.296732,0.1337453,3.262456,-2.325286,-3.082102,2.766169,1.365373],
[-1.771871,3.987074,-2.599919,3.288498,0.4818473,-2.87552,-2.070466,1.454046,2.880886,3.097726,0.2093596,3.18589,3.060414,1.341259,-1.696292,3.824291,0.3368181,0.7831529,1.895292,-0.4610158,-1.923035,0.6536703,2.068864,-2.580198,0.008525044,2.240551,-1.030758,2.585359,3.812172,-3.010514,-0.1695053,1.224119,-2.5237],
[1.650017,-2.842793,-0.1544479,3.203337,3.572067,0.6198199,-0.5895711,-3.812503,-2.479454,3.876223,-3.020714,-2.497431,-1.846336,1.584485,3.011979,1.481413,-0.3276851,-1.744227,1.490761,-3.779153,2.744961,0.5802348,-1.69559,-2.862745,-2.617577,-0.07301406,2.332752,-1.551901,3.454799,0.1778298,0.3013955,0.7439135,-0.7104015],
[-1.696501,2.734206,3.367991,3.355302,-3.661028,0.4426949,0.3343734,1.697475,0.31655,0.4252608,3.38951,-0.4918602,-3.264879,-1.85679,3.622812,-2.068679,-3.118362,1.958674,-1.94536,-0.2531775,1.624175,3.562413,1.286268,-2.615824,-3.64672,-0.8235731,-2.005204,-3.860834,-2.856117,3.004697,1.454546,-2.251295,-0.6437867],
[-0.9397758,2.829702,2.030802,1.252714,-1.442871,-0.7208976,-2.663173,0.4183618,-3.257374,-3.365216,-1.773162,3.248797,-3.725525,1.200356,3.28187,0.6338559,3.623187,0.8854861,3.65167,-0.8041914,-3.138373,-2.981222,-3.82457,-0.6626172,0.07532813,2.820242,1.920013,-2.306724,0.2219725,2.325473,-0.2106185,2.985302,-0.3849214],
[0.920388,-1.556897,2.960637,-3.127537,1.077405,-3.116344,-1.40449,0.4158233,-2.026544,3.650325,3.814142,0.1182113,-0.3677399,0.4800433,1.92057,3.83965,-3.490081,-3.632778,-0.4188258,0.4924567,-0.5867748,3.413661,-0.07743467,2.954999,-1.912849,-2.759964,-0.4878019,-1.585592,-0.3869758,0.6752389,-0.6696744,2.553308,0.7418671],
[-2.334388,2.374596,-3.815733,-2.311922,2.065704,1.555483,3.111179,-3.460526,-0.2435812,1.288473,1.683919,-1.399875,1.274215,3.559649,1.395185,2.234443,-3.3205,-2.817681,-2.973914,-3.9743,1.690626,-2.353957,1.270284,1.289877,-0.79391,2.866871,-0.1681979,0.2094382,-2.750685,1.825054,0.137502,-0.6190967,-0.0283088],
[-1.729742,-1.366993,0.7496019,-3.902163,-3.462518,-0.1965064,-0.2388038,2.377391,-1.339136,1.320468,-0.1879042,0.6075469,-2.353152,2.083266,-0.7868712,2.639562,3.981996,2.24737,-0.5052427,-1.62971,2.937987,3.988036,-3.035764,-2.951503,-2.287329,-0.07084865,2.242332,-2.286345,2.891152,1.742964,0.1525621,-0.3070109,-2.731305],
[2.932134,3.07038,-0.3007584,-1.005779,0.70824,3.329721,2.163159,0.3354386,-2.84779,-0.03386816,-0.7730047,-3.054414,-2.228912,-0.7087597,-0.4915667,0.09609632,-3.022406,-2.0637,3.777639,-1.198134,-3.326551,-2.135429,1.597497,3.726552,0.4418744,-2.338441,3.061485,3.867381,0.6371034,0.1639366,2.603297,2.318104,0.265137],
[3.724426,-2.4812,2.7175,3.71246,2.557805,-2.796756,-0.7307519,-1.885355,-3.980427,-1.922933,-0.7293895,2.871067,2.668429,-3.432817,0.1905929,-3.145472,2.267405,2.22776,-0.8317112,1.110935,-2.239463,2.990333,-0.042438,0.4570724,-0.2306183,-1.946809,-3.397995,-3.794512,2.358693,2.106722,-0.3231254,-0.3329199,-1.78784],
[-3.124646,3.682813,2.417453,-3.833483,3.996072,-0.7270651,-2.336851,0.6705763,2.582991,-3.256328,-3.422911,3.141979,-1.140386,-1.938706,-3.194443,3.546278,0.5033113,-0.334651,-3.022646,-0.3081586,0.2845475,1.01582,3.015762,1.903409,0.2627268,1.70737,-2.9898,-2.062459,-3.270561,2.77125,0.1469279,1.467867,3.840764],
[3.546054,-2.998409,-2.046115,-2.777911,2.259732,2.405627,-2.634404,2.474675,1.493446,3.796286,-1.168626,1.291454,-1.517066,-1.546274,2.662506,-0.2002966,1.016745,-2.976928,0.7019809,3.759878,2.423554,-3.567114,3.782849,2.130103,-1.865694,-1.77531,-2.897493,0.8687821,-0.9531994,0.7539672,-1.312244,3.400027,-3.466075],
[2.841047,0.5921577,2.123708,-1.069854,-0.5129061,1.959576,3.444751,-2.864483,-2.66314,-1.597731,1.301243,-1.402449,2.027485,-2.350148,1.034402,-1.821521,2.136493,1.912802,1.314716,3.867142,-1.762957,-3.921872,2.292564,2.105762,-1.543874,-2.057711,-0.2639608,2.857414,1.252949,-2.055784,2.477319,-2.884392,-0.5391072],
[-0.3668306,0.8185427,0.110546,-2.653599,-2.084217,0.5908516,0.7573102,2.529439,0.3369085,1.273298,0.6301325,3.033117,2.785817,3.80016,0.291553,1.349873,1.666229,-2.562864,3.758579,3.24967,-3.836228,1.653433,-1.083858,0.5493532,-2.38447,2.515512,-3.952095,-2.086533,-3.892748,-1.704995,1.434262,-2.669488,1.16168],
[2.89701,-1.076251,-1.681304,2.451926,-1.114447,-2.162332,2.358451,-1.637284,-0.8994977,-1.251729,1.023621,0.9129255,-3.132908,-2.278033,3.540976,-1.158996,-0.3828903,-1.328091,2.605091,0.2729222,3.508429,3.535018,-3.519047,-0.3044143,2.795524,-2.324315,3.122119,-3.735629,-3.894412,-3.700169,-1.157791,-3.913662,-2.873259]
],
[
[2.946582,-3.593513,2.193508,-3.566732,-0.6762667,-1.778782,0.9309523,0.4802006,0.4824035,1.554565,0.5415758,-0.1288415,-2.491148,-2.494657,0.9984686,0.3810046,-0.6562461,0.03827967,-1.822117,3.816688,3.017124,3.45864,2.219717,0.9918922,-3.190679,3.34412,-3.14117,2.068289,-0.8234617,-1.535414,3.269938,3.866401,0.3221079],
[3.87439,-0.1077356,1.332616,0.4879563,-0.8304896,-0.8697397,-3.696769,0.4557229,3.940516,2.810798,-1.065643,-0.8054987,2.561154,3.152075,1.565499,2.010329,-0.2321042,0.01911268,1.693803,-3.447806,0.6905077,-1.937932,-1.952054,2.16549,0.2444624,1.704513,-1.988104,-1.537637,-3.111856,-0.03008038,-1.327397,2.993285,1.118225]
]
],
"biases":[
[
-0.004210655,-3.436096,0.3361756,-3.385372,-1.931718,0.1869369,-0.3679451,0.6207185,2.055725,0.7336873,3.809267,-3.324663,-3.716177,-2.022121,-0.1263258,-1.586707,3.348677,-3.003479,-1.626504,-3.255197,-1.983596,-2.719475,2.777702,3.649604,0.682179,-0.3675023,1.979543,-1.785414,-0.926236,-0.3737648,2.565713,2.827713,0.7961598
],
[
0.688612,-1.713373
]
]},
{
"fitness":14.14853,
"weights":[
[
[-1.609437,-2.875808,-2.144767,-2.696937,-3.840883,-3.030014,3.04741,1.218845,-1.932426,-3.303815,0.2647265,-3.086865,2.89114,3.110282,3.222561,0.1255745,0.1097404,-3.454693,0.03806201,-3.321349,-2.360805,-1.023563,-1.150079,-2.774112,1.070742,1.217456,-1.101236,2.800459,2.301049,-0.9414376,2.343025,-2.534022,-0.6774846],
[-1.71582,-1.449701,0.06041431,2.147177,-0.6800516,-3.710451,-0.9621251,-0.2307653,3.253474,2.578684,3.165354,0.158921,1.26924,0.8685908,-3.362031,0.3046208,0.80181,1.955827,-3.056019,-0.7041674,0.108242,1.042646,-1.39469,3.583609,-0.6240649,-3.336303,-1.376732,2.71244,2.008596,0.8650296,1.757319,-1.263912,3.04029],
[3.141703,-2.00577,-3.44813,-0.04194372,-1.857109,3.524132,2.722397,3.620896,0.1397557,3.318615,-2.402684,0.08992094,-2.673543,-2.720726,-1.125916,2.469089,-3.100772,3.258704,3.3675,-2.435326,2.91264,-3.796095,3.33983,-1.012549,0.1311176,-0.5644074,-2.305581,-1.47485,-1.160557,-1.289716,0.01633436,2.45638,1.858041],
[-3.490097,-1.738556,1.784473,3.133038,1.361151,1.927206,-0.9790171,2.664604,-2.971087,-0.3651536,1.699812,0.7725538,3.34563,0.3367074,1.888044,-3.115545,2.684111,-2.086679,2.367616,1.490564,1.009177,-2.849997,3.034222,2.684742,-0.4100107,-0.4179822,-1.351564,3.585114,-2.231875,0.83412,-0.6659738,0.2970589,-2.286979],
[0.3361972,1.134689,-2.897664,0.202086,-0.9611304,-1.086675,-1.893487,-3.95515,-3.68312,1.582077,-0.1311461,-3.914371,-3.94438,1.088453,0.5736251,2.414421,0.4294841,-0.8525163,3.771591,-0.5370978,3.777474,1.740186,-2.103337,-1.978902,-2.634524,0.954401,-1.064239,-1.618917,-2.934002,1.352617,1.404337,1.430781,-3.967247],
[-0.5011693,1.111134,1.362934,3.354479,0.2810386,-1.810037,3.8533,3.80648,1.915504,3.462551,2.634498,2.207928,-3.787525,-1.366417,-2.5404,3.773384,2.187445,0.2025428,-0.8141493,-2.798769,-1.922136,1.225327,-3.417171,-3.380871,2.818684,-1.680081,1.392475,3.708064,2.802967,-1.000762,-2.401652,2.09204,1.9082],
[3.546435,3.02843,0.7463084,1.299634,2.373403,-1.073467,3.562001,-2.120526,-2.803333,2.837245,-2.80323,-0.8546166,2.755201,3.583991,0.8886918,2.384834,-0.2505224,-1.050875,1.276949,0.889069,1.798916,-0.6056678,1.808946,3.277479,-1.238712,-0.8746363,0.1513956,-0.2924927,0.1863657,3.176889,0.6104108,-3.766184,-3.550978],
[1.633412,0.3694827,-1.125067,0.9994507,-1.170412,3.34509,-3.62352,-2.377882,-3.094718,0.2868547,-0.1328074,2.350563,-3.570739,-1.174826,-2.567138,2.180606,-1.078602,0.1864255,-3.321806,-3.52437,-3.309825,1.58994,2.837477,2.324579,0.5847445,2.725543,1.256442,-2.854423,2.2823,-2.950307,-3.520356,2.405277,-3.827008],
[-3.673136,-2.383487,-3.745777,-3.592551,-0.04385284,-0.1975768,2.136276,-1.648504,0.4086452,-0.4603767,1.461126,1.684721,2.143282,1.840325,2.639138,-3.227005,3.020901,1.189024,3.003607,1.058537,2.041626,-2.916391,-3.745689,-2.905713,0.8458161,-3.862566,2.955951,-0.5644535,-3.743573,0.2547611,1.758238,0.3850458,-2.131809],
[-1.29947,-1.642718,2.525922,-2.62627,-1.4013,0.7169554,-3.588225,-0.924465,-2.977318,2.404429,0.4286259,3.201174,2.142412,2.116869,-2.824935,-2.346991,-1.570068,-1.70225,3.570404,2.652789,2.495618,3.417913,-0.06415327,-3.36992,-3.443073,-0.7106277,-0.9658592,-2.205006,-0.3642045,2.785896,-3.351722,-1.328836,-0.1021626],
[-3.275821,-1.424419,3.652834,1.12136,-3.568351,-3.551361,0.9858004,2.052892,-1.582993,0.1674339,-0.2546599,-1.391929,-2.744114,3.500358,-3.2205,-1.692387,3.136261,-2.829926,-0.7036709,-3.278,1.742687,1.021714,2.626446,1.712282,-3.226329,2.259277,2.479914,1.901478,1.642128,-0.06459174,0.1271919,2.953915,1.08663],
[0.5942296,0.7061491,-3.887921,0.8126408,-1.184316,2.874826,2.113353,-0.8402264,-2.860717,-3.152723,0.5281037,-1.747911,0.2932828,3.80298,-2.368696,-0.5188714,2.875316,0.3739283,-1.242708,3.240239,-0.1456939,-0.2774561,2.229975,3.793952,-1.980974,-1.644858,-3.089609,1.918524,-3.397315,-2.57482,-1.681693,3.849306,0.4034548],
[-3.188526,-2.248409,-1.544929,-2.957902,2.658207,-3.249436,-0.6456081,3.208447,-0.4600753,-2.414497,-2.712591,0.8689626,3.781176,0.9157898,3.45268,-0.8970637,-0.14871,0.9780577,-0.9384119,3.705587,-1.388498,-0.7971949,3.986314,-3.388961,2.005343,2.888745,-2.792872,3.340569,-0.6318091,2.785386,-2.243278,3.889288,3.532735],
[-1.354484,-2.503075,-3.225065,-3.442488,1.559933,-0.5397251,-2.684717,1.090137,3.547187,3.342872,-0.08584858,-0.08847141,-0.5194587,1.687929,0.8070552,2.142907,2.3176,0.9168575,3.14032,3.846244,-2.037808,-1.220156,1.865629,3.523316,-1.717847,2.269366,-1.573821,-0.697803,-1.666902,2.609694,1.354499,1.58631,0.7955171],
[3.552507,-1.317938,-3.781333,-2.815278,-2.638625,-0.8814344,-0.3720349,-3.456177,-0.7550552,-3.605923,-1.826075,-2.061518,2.872822,3.33867,0.1518359,-1.957452,3.389534,-0.1474638,1.989672,2.070158,1.063005,1.243515,3.226917,-2.837761,2.975721,1.042991,-1.562653,-2.225509,0.2532741,-1.660754,1.80429,1.959724,2.839882],
[2.706905,-3.340784,-0.6495129,-1.091406,2.614674,-1.397229,-0.03016503,-1.324513,-0.03534789,-1.170496,-0.9059336,2.964713,-0.295805,-2.032639,-3.254948,-0.8986922,-3.056149,1.458048,2.143739,0.1045357,-1.971373,0.1193294,0.9849841,3.125347,2.488428,3.299223,3.223363,2.874913,1.733703,3.73719,1.822393,-1.826807,0.8717627],
[-1.215261,-0.4349076,3.920416,2.977473,-2.682204,-1.41671,-0.9216255,-0.29868,3.225328,-0.8922176,3.437888,-1.787716,-2.814992,-2.694309,-2.422761,2.061974,-1.038715,-1.54107,-1.058947,-3.021641,-3.703758,-3.074902,1.914179,-1.632367,-1.02403,-1.842648,2.636376,-1.564385,-2.305373,-1.8886,2.649388,-2.034694,0.7434541],
[-3.048082,2.750524,-0.7952363,-0.7297704,2.117516,-2.114836,1.213636,-0.8378499,1.851057,3.35531,-3.419616,2.213625,0.7286788,-3.585553,-3.38625,-0.2280676,0.7368672,-1.749986,0.9253891,-2.114657,2.498749,-0.01388523,-0.305458,-3.891722,-2.875597,-3.898554,3.853929,-2.918626,0.308079,1.008538,0.6305817,0.2982469,3.574003],
[2.93336,-0.9505462,-0.9364709,-3.90302,-0.2405825,-3.142948,-3.654679,-3.721637,-0.955132,-1.770544,-3.329131,-2.224926,2.92772,1.320634,1.39585,2.826654,-1.417621,2.903579,-2.193019,-0.4251702,-0.5356716,1.71983,-0.1963876,-3.296879,1.52776,1.024647,2.296732,0.1337453,3.262456,-2.325286,-3.082102,2.766169,2.019844],
[-1.771871,3.987074,-2.599919,3.288498,0.4818473,-2.87552,-2.070466,1.454046,2.880886,3.097726,0.2093596,3.18589,3.060414,1.341259,-1.696292,3.824291,0.3368181,0.7831529,1.895292,-0.4610158,-1.923035,0.6536703,2.068864,-2.580198,0.008525044,2.240551,-1.030758,2.585359,3.812172,-3.010514,-0.1695053,1.224119,-2.5237],
