{ "networks":
[
{
"fitness":22.30426,
"weights":[
[
[-3.851475,-2.875808,-2.144767,-0.6803982,-3.840883,-1.972085,3.04741,1.218845,-1.932426,-3.077334,0.2647265,-3.086865,2.89114,3.110282,3.222561,0.1255745,0.1097404,-3.454693,0.03806201,-3.321349,-2.360805,2.087991,-1.150079,-2.774112,1.070742,1.217456,-1.101236,-0.14051,2.301049,-0.9414376,2.343025,-2.534022,-2.260663],
[-1.71582,-1.449701,0.06041431,2.147177,-0.6800516,-3.710451,-2.858373,-0.2307653,3.253474,2.578684,-2.765348,0.158921,1.26924,0.8685908,-3.362031,-2.394049,0.80181,1.955827,-3.056019,-0.7041674,0.108242,1.042646,-2.462207,3.46124,-0.6240649,-3.336303,-1.376732,2.71244,2.008596,0.8650296,1.757319,-1.263912,-0.3976458],
[3.141703,-1.461472,-3.44813,-0.04194372,-3.214602,3.524132,-1.757669,3.620896,-3.524,3.026172,-2.402684,0.08992094,0.5511064,-2.720726,-1.125916,-2.359608,-3.100772,3.258704,1.916522,3.110306,2.91264,-1.62058,3.33983,-1.012549,0.1311176,-0.5644074,-2.439856,-1.47485,3.838071,0.6222859,3.500487,2.45638,1.858041],
[-3.490097,-1.738556,1.784473,3.133038,1.361151,1.927206,3.306416,-2.456433,3.150026,-0.3651536,-0.5344608,0.1672183,-3.123652,0.3367074,1.888044,-3.115545,3.646834,-2.086679,2.367616,1.31781,1.009177,-2.849997,-0.5508719,2.684742,3.837697,-0.4179822,-1.351564,-0.1841132,-2.231875,0.83412,2.815589,0.2970589,-2.286979],
[2.062675,2.582702,-2.897664,0.202086,-0.9611304,-1.746566,-1.893487,-3.95515,-3.68312,1.582077,-2.982791,-3.914371,0.8080451,1.088453,0.5736251,0.6396722,3.240174,-0.8525163,-2.331296,-0.5370978,-3.557433,-2.494679,-2.628852,-1.978902,-2.634524,0.954401,2.100263,-1.618917,-2.934002,-3.134121,1.404337,2.008632,-1.40388],
[1.474232,-0.2263162,-2.225894,3.354479,-1.286032,1.160386,3.8533,3.80648,1.915504,3.462551,2.634498,2.207928,-3.787525,0.6201601,-2.5404,-0.7366666,2.187445,0.2025428,-0.8141493,-2.385607,-1.922136,1.225327,-3.417171,-3.380871,-3.464148,-1.680081,1.392475,3.708064,2.802967,-1.000762,-2.401652,2.09204,1.9082],
[3.546435,3.02843,0.7463084,1.299634,2.373403,-1.073467,-1.630317,-2.120526,-2.803333,2.837245,-2.343646,-0.8546166,2.755201,2.954189,0.8886918,2.384834,-0.2505224,-1.050875,1.276949,0.889069,1.798916,-0.6056678,-1.97583,-2.377055,1.527447,-0.8746363,0.1513956,-0.2924927,0.1863657,-3.195826,0.6104108,2.969154,-1.647389],
[1.633412,0.3694827,-1.125067,0.9994507,-1.170412,3.34509,-3.62352,-2.377882,-3.094718,0.2868547,-2.693098,2.350563,-3.570739,-1.174826,-2.567138,2.180606,1.002875,-1.345845,2.41171,-3.52437,0.1545187,1.58994,2.837477,3.331109,0.5847445,-2.458995,1.256442,-2.854423,2.516593,-2.950307,-3.520356,2.405277,-2.216136],
[-1.813381,-2.383487,-3.745777,-3.592551,1.365238,-0.1975768,2.136276,-1.648504,0.4086452,2.440805,1.461126,1.684721,2.143282,1.840325,0.935023,-3.227005,3.020901,1.189024,3.003607,1.058537,2.041626,3.468966,-3.745689,1.283554,0.8458161,-3.862566,2.955951,-0.5644535,-3.743573,0.2547611,1.758238,0.3850458,-2.131809],
[-1.29947,-2.750117,2.525922,-2.62627,-0.2248633,0.7169554,-3.588225,-0.924465,-2.977318,2.422698,0.4286259,3.201174,0.591458,2.116869,-0.4210773,-2.346991,3.951384,-1.70225,3.570404,2.652789,2.495618,2.279969,3.043341,-3.36992,-3.443073,-0.7106277,-0.9658592,-2.205006,-3.227089,2.785896,-3.351722,-1.328836,-0.1021626],
[-1.213423,-1.424419,0.5215699,1.12136,-3.568351,-3.551361,0.9858004,2.052892,-1.582993,0.4217962,-0.2546599,-1.391929,-2.130518,3.500358,2.412,-1.692387,3.136261,-2.829926,-0.7036709,-3.278,2.35873,-2.883659,2.626446,1.712282,-3.226329,2.259277,2.479914,-1.018559,-0.8475955,-0.06459174,0.1271919,2.953915,1.08663],
[-1.153335,0.7061491,-0.3517314,-2.785106,-0.09477231,0.219359,-2.271168,1.39554,-2.860717,-3.152723,0.5281037,-1.747911,0.2932828,3.80298,-2.368696,-0.5188714,2.875316,-3.143676,1.281578,3.271693,-0.1456939,-0.2774561,-1.06198,3.793952,-1.980974,-1.239659,-3.089609,3.99291,3.969746,3.5461,-1.681693,3.849306,0.4034548],
[-3.188526,-2.248409,-1.544929,-2.957902,2.658207,-3.249436,-0.6456081,3.208447,-0.4600753,-2.414497,0.4959449,0.8689626,3.781176,0.9157898,3.45268,0.2541744,-1.945434,0.9780577,-3.216383,3.705587,-1.011888,-0.7971949,0.8040553,-3.388961,2.005343,2.888745,-2.792872,-0.3559009,-0.6318091,2.785386,-2.243278,3.889288,-0.8369697],
[-1.354484,-2.503075,-3.225065,-3.442488,1.559933,-2.845613,1.977382,2.064285,3.547187,-3.061754,-1.148638,-0.08847141,1.228686,-0.4155709,0.8070552,1.52881,-1.897297,0.9168575,3.14032,3.846244,-2.037808,-1.220156,1.865629,1.569641,-1.717847,1.955694,-1.573821,-0.697803,-1.666902,-3.793208,0.1921077,1.58631,2.675473],
[-2.767762,-1.317938,-3.781333,-2.815278,-0.5075952,-0.8814344,2.64249,-3.456177,-0.7550552,-3.605923,-1.826075,-2.061518,2.872822,3.33867,-3.78354,1.924645,3.389534,0.3234122,-2.666236,2.070158,1.063005,1.243515,3.226917,2.667765,0.7829905,1.042991,-3.433434,-2.225509,-0.5492423,-1.660754,1.497732,1.959724,-0.7811986],
[2.706905,-3.340784,3.69901,-1.091406,2.614674,-1.397229,-0.03016503,-1.324513,-0.03534789,-1.170496,-3.835243,2.964713,3.588988,-1.633072,-3.254948,-0.8986922,-3.056149,1.458048,2.143739,-2.569768,-1.828555,0.1193294,0.9849841,3.125347,-0.7060055,3.299223,3.223363,0.8413364,1.733703,-1.148454,1.822393,-1.826807,0.8717627],
[-2.842652,-0.4349076,-1.477935,2.577361,-2.682204,-1.41671,-1.38095,-0.9844347,3.225328,-2.063284,3.437888,-1.787716,-2.814992,-0.927266,-2.422761,-3.62887,3.372941,-1.54107,-1.058947,-3.021641,-3.703758,-3.788951,-2.044857,-0.8870986,-1.02403,-1.842648,2.636376,-1.564385,-2.305373,-1.8886,2.649388,1.42381,0.7434541],
[-3.048082,2.750524,-0.7257459,1.066196,-1.529567,0.6811419,0.3979667,-3.698417,2.47332,3.35531,-3.419616,2.213625,0.7286788,-3.585553,2.083233,-0.2280676,1.396343,-1.749986,0.9253891,-2.114657,0.1317808,3.417295,2.666774,-3.891722,-2.735086,1.429123,3.313963,-2.918626,0.308079,1.008538,0.6305817,0.2982469,3.574003],
[-2.698882,3.755827,-0.9364709,-3.90302,-0.2405825,-3.142948,-3.654679,-3.721637,-0.955132,-1.770544,-2.184836,-2.224926,-3.281909,1.320634,1.39585,2.826654,-1.417621,1.184395,0.0754558,-0.4251702,-0.5356716,1.71983,-0.1963876,-3.296879,1.52776,-0.3393653,2.296732,0.1337453,3.262456,-2.325286,-3.082102,1.397602,-3.071131],
[-1.771871,3.987074,2.152174,2.414609,0.4818473,-2.87552,-2.070466,1.454046,2.880886,3.097726,0.2093596,3.351321,3.060414,1.341259,-1.696292,3.824291,0.3368181,0.7831529,0.3568347,-0.4610158,-1.923035,0.6536703,2.068864,-2.580198,0.008525044,2.240551,-1.030758,0.9258901,1.477135,2.600798,-2.137723,1.224119,-2.5237],
[1.650017,3.848059,-0.1544479,-2.139048,0.2356767,0.6198199,-0.5895711,2.292269,-2.479454,3.876223,-3.020714,-2.497431,-1.846336,1.584485,3.011979,1.481413,2.505951,-1.744227,1.490761,-3.836222,3.615145,0.5802348,-1.69559,-2.862745,-2.617577,-0.07301406,2.332752,-1.551901,3.454799,0.1778298,0.3013955,-0.6356819,-0.7104015],
[-1.696501,2.734206,-0.05397954,3.355302,-3.661028,-1.386517,1.488471,1.697475,0.31655,0.4252608,2.084189,-0.4918602,-3.264879,-1.85679,3.622812,-2.068679,-3.118362,1.958674,-1.94536,-0.2531775,-0.5868995,3.562413,1.286268,-2.615824,-3.64672,2.680973,-2.005204,-3.860834,-2.856117,3.004697,1.454546,-2.251295,-0.6437867],
[0.5739841,2.829702,2.030802,1.252714,2.982727,-0.7208976,-2.663173,0.4183618,-3.257374,-0.1065968,-1.773162,3.248797,1.415138,2.441938,3.28187,0.6338559,3.623187,2.012547,3.65167,-0.8041914,1.446435,2.468985,-3.82457,-0.6626172,0.07532813,2.820242,-1.193486,-2.306724,0.2219725,2.325473,-2.433083,0.5762606,-0.3849214],
[3.204993,-1.556897,2.960637,-2.892187,1.077405,-3.116344,0.848533,-0.9669305,-2.738784,3.650325,3.814142,0.1182113,-0.9652128,0.4800433,3.722195,3.83965,-3.490081,3.256654,-0.4188258,0.4924567,-0.5867748,3.413661,-0.07743467,-0.4007108,-1.912849,-2.759964,-0.4878019,-1.585592,-0.3869758,2.58715,-0.6696744,-2.599948,-0.3736157],
[0.8091602,2.374596,3.74356,-2.989922,0.7918518,1.555483,3.111179,-1.626952,-0.2435812,1.288473,1.683919,-1.399875,0.2588645,-0.301799,3.663235,2.234443,-3.125783,-2.817681,-2.973914,-3.9743,1.690626,-2.353957,2.030341,1.289877,-3.569732,2.866871,-0.1681979,0.2094382,-2.750685,1.390829,0.137502,-0.6190967,1.518002],
[-3.326902,-2.370794,-1.452988,-3.902163,-3.462518,-0.1965064,1.403558,2.377391,-1.339136,1.320468,-0.1879042,0.6075469,-1.948032,2.083266,-0.7868712,2.639562,3.981996,2.24737,-0.5052427,-1.62971,2.937987,3.988036,-3.035764,-2.951503,3.91723,-0.07084865,2.242332,-2.286345,2.891152,1.88172,0.1525621,-0.3070109,-2.731305],
[2.932134,3.373611,-0.3007584,-1.525331,0.70824,3.329721,0.3355754,0.3354386,-1.889082,-0.03386816,-0.7730047,-3.054414,-2.228912,-0.7087597,-0.4915667,1.030931,0.02123785,-2.0637,3.777639,-1.198134,2.014982,-2.135429,-2.42671,-2.847482,0.4418744,-2.338441,3.061485,3.867381,0.6371034,0.1639366,2.603297,2.318104,2.105624],
[3.724426,3.740457,2.7175,3.71246,2.557805,-2.796756,2.769666,2.052463,2.326565,-1.922933,-0.7293895,2.871067,0.7906943,-3.432817,0.1905929,0.08552583,2.267405,2.22776,-0.8317112,1.110935,-2.239463,2.990333,-0.042438,0.7563906,-0.8377777,-1.946809,-3.397995,-3.794512,2.358693,2.106722,-0.3231254,-0.3329199,-1.78784],
[-3.113526,3.682813,2.417453,-3.833483,3.996072,-0.7270651,-2.336851,1.95067,-0.500729,-3.256328,-3.422911,3.141979,-1.140386,2.857658,-3.194443,2.629446,0.5033113,1.34859,-3.022646,-1.323882,-2.228194,3.226808,-2.494618,-3.623796,0.2627268,1.70737,-2.9898,-2.062459,-3.270561,0.7661155,0.1469279,-3.939696,3.840764],
[3.546054,-2.998409,-2.046115,-2.777911,2.259732,0.7190611,-2.634404,2.474675,0.5424936,3.796286,-1.168626,1.291454,-1.517066,-1.546274,2.662506,-0.2002966,1.016745,-2.976928,0.7019809,3.759878,2.423554,0.2638161,-0.3312106,2.130103,-1.865694,-1.77531,-1.242644,0.8687821,3.173455,2.92501,-1.312244,3.400027,-3.466075],
[2.841047,0.5921577,2.123708,-2.606297,-0.5129061,1.959576,-3.380578,-2.864483,-2.66314,-1.597731,2.164716,2.944812,2.027485,-2.8284,1.034402,-1.821521,2.136493,1.912802,-0.9710066,3.867142,-1.762957,-3.921872,2.292564,2.105762,-1.543874,-2.34765,2.843761,-1.67678,1.252949,-2.055784,2.477319,-2.884392,-0.5391072],
[-0.3668306,-0.5998039,0.110546,2.663201,-2.084217,0.5267931,0.7573102,2.529439,-0.04658766,1.273298,1.931495,3.34612,2.649027,-2.180557,0.291553,1.349873,1.666229,-2.562864,3.406695,3.24967,-3.836228,1.653433,-1.083858,0.5493532,-2.38447,2.515512,-3.952095,-2.812862,-3.892748,-1.704995,1.508465,-0.5887274,1.16168],
[2.89701,-1.076251,-1.116634,2.451926,-1.114447,-2.162332,2.358451,-1.637284,-0.8994977,-1.251729,3.813859,-0.7177593,-3.132908,3.555273,3.540976,-1.158996,-0.3828903,0.7526857,2.605091,-3.891867,3.508429,2.722557,-3.519047,-0.3044143,2.795524,-2.324315,3.122119,-3.735629,-3.894412,-3.700169,-1.157791,-3.913662,-2.873259]
],
[
[2.946582,-3.359493,2.193508,-0.7160225,-0.6762667,-1.778782,0.9309523,0.4802006,0.4824035,1.554565,0.5415758,-0.1288415,-2.491148,-1.153957,0.9984686,1.364657,-0.6562461,0.03827967,-1.822117,3.816688,2.545344,0.7058429,2.219717,0.9918922,-3.190679,0.5071288,-3.14117,2.068289,-0.8234617,-1.535414,3.269938,3.288735,0.3221079],
[3.87439,-1.178426,1.466745,-2.594648,-0.8304896,-0.8697397,-3.696769,0.4557229,3.940516,2.810798,-1.065643,-0.8054987,3.01315,3.152075,1.565499,2.010329,-0.2321042,0.01911268,1.693803,-3.447806,2.495023,-1.937932,-1.952054,2.16549,0.2444624,1.452041,-1.988104,-1.537637,-3.111856,-0.03008038,-1.327397,2.993285,1.118225]
]
],
"biases":[
[
-0.004210655,-3.436096,0.3361756,-3.385372,-1.931718,0.1869369,-0.3679451,0.6207185,2.055725,0.7336873,2.829679,-3.324663,-3.716177,-0.9122068,1.02607,-0.8156071,3.348677,-3.003479,-2.713309,-3.255197,-1.983596,-2.719475,2.777702,3.649604,0.682179,-0.3675023,1.338709,-1.785414,2.014179,-0.3737648,2.565713,2.827713,0.7961598
],
[
0.688612,-1.445462
]
]},
{
"fitness":21.61903,
"weights":[
[
[-3.851475,-2.875808,-2.144767,-0.6803982,-3.840883,-1.972085,3.04741,-3.723008,-1.932426,-3.077334,0.2647265,-0.4194664,2.89114,3.110282,3.222561,0.1255745,0.1097404,0.9271922,0.03806201,-3.321349,-1.537236,-1.023563,-1.150079,-2.774112,1.070742,1.217456,-1.101236,-0.14051,2.301049,-0.09497602,2.343025,-2.534022,-0.6774846],
[-1.71582,-1.449701,0.06041431,2.147177,-0.6800516,-3.710451,-0.9621251,-0.2307653,3.253474,0.2272388,0.4550842,0.158921,1.26924,0.8685908,-3.362031,-2.394049,0.80181,1.955827,-3.056019,-0.7041674,0.108242,1.042646,-2.462207,3.583609,-0.6240649,-3.336303,-1.376732,2.71244,2.008596,0.8650296,1.757319,-0.5518783,-0.3976458],
[3.141703,-1.461472,-3.44813,-0.04194372,-3.214602,3.524132,-1.757669,3.620896,-3.524,3.026172,-2.402684,0.08992094,0.5511064,-2.720726,-0.4034553,-2.359608,-3.100772,3.258704,1.916522,3.110306,2.91264,-1.62058,0.6171327,-1.012549,0.1311176,-0.5644074,-2.305581,-1.47485,3.813405,-1.289716,0.01633436,2.45638,1.858041],
[-3.490097,-1.738556,1.784473,3.133038,1.361151,1.927206,3.546773,-2.456433,3.150026,-0.3651536,-0.5344608,0.1672183,3.34563,0.3367074,1.888044,1.635943,-2.869705,-2.086679,2.367616,1.31781,1.009177,-2.849997,-0.5508719,2.684742,3.837697,0.5337675,-1.351564,3.585114,-2.231875,0.83412,2.594339,0.2970589,-2.286979],
[2.062675,2.582702,-2.897664,0.202086,-0.9611304,-1.086675,-1.893487,-3.95515,-3.68312,1.582077,-0.1311461,-3.914371,0.8080451,1.088453,0.5736251,0.6396722,3.240174,-0.8525163,3.771591,-0.5370978,3.777474,1.740186,-2.628852,-1.978902,-2.634524,0.954401,2.100263,-1.618917,-2.934002,-3.134121,1.404337,2.008632,-2.511472],
[-1.552318,-0.2263162,3.589318,3.354479,3.31411,1.160386,1.074626,3.80648,1.915504,3.462551,3.489264,2.207928,-3.787525,0.6201601,-2.5404,-0.7366666,2.187445,0.2025428,-0.8141493,-2.385607,-1.922136,1.225327,-3.417171,-3.380871,-3.464148,-1.178484,1.392475,3.708064,2.802967,-1.000762,-2.401652,2.09204,1.9082],
[3.546435,3.02843,0.7463084,1.299634,2.373403,-1.073467,-1.630317,-2.120526,-2.803333,1.034697,-2.343646,-0.8546166,2.755201,3.583991,0.8886918,2.384834,2.731779,-1.050875,1.276949,0.889069,1.798916,-0.6056678,1.808946,3.277479,-1.238712,-0.8746363,0.1513956,-0.2924927,0.1863657,3.176889,0.6104108,-3.766184,-1.647389],
[1.633412,0.3694827,-1.125067,0.9994507,-1.170412,0.6498358,-3.62352,-2.377882,-3.094718,0.2868547,-2.693098,2.350563,-3.570739,-1.174826,-2.567138,2.180606,1.002875,-1.345845,-3.321806,-3.52437,-3.309825,1.58994,2.837477,3.331109,0.5847445,2.725543,1.256442,-2.854423,-1.418101,-2.950307,-3.520356,2.405277,-3.827008],
[-1.813381,-2.383487,-3.745777,-3.592551,-0.04385284,1.186234,2.136276,-1.648504,0.4086452,2.440805,1.461126,1.684721,2.143282,1.840325,0.935023,-3.227005,3.020901,1.189024,3.003607,1.058537,2.041626,-2.916391,-3.745689,1.283554,0.8458161,-3.862566,2.955951,-3.699589,-3.743573,0.2547611,1.758238,0.3850458,-2.131809],
[0.06002687,3.915932,2.525922,-2.62627,-1.4013,0.7169554,-3.588225,-0.924465,-2.977318,2.422698,3.528932,3.201174,2.142412,2.116869,-0.4210773,-2.346991,3.951384,-1.70225,3.570404,2.652789,2.495618,2.279969,3.043341,-3.36992,-3.443073,-0.7106277,-0.9658592,-2.205006,-3.227089,2.785896,-3.351722,2.109526,-0.1021626],
[-3.275821,-1.424419,3.652834,1.12136,-3.568351,-3.551361,0.9858004,2.052892,-1.582993,0.1674339,-0.2546599,-1.391929,-2.130518,3.500358,-3.2205,-1.692387,3.136261,-2.829926,-0.7036709,-3.278,1.742687,-2.320138,2.626446,1.712282,-3.226329,2.259277,2.479914,1.901478,-0.4928436,-3.118093,0.1271919,2.953915,1.08663],
[-1.153335,0.7061491,-3.887921,0.8126408,0.005770976,0.219359,2.113353,2.432855,-2.860717,-3.152723,0.5281037,-1.747911,0.2932828,3.80298,-2.368696,-0.6740049,2.875316,-3.143676,-1.135556,3.271693,-0.1456939,-0.2774561,2.229975,3.793952,-1.980974,-1.644858,-3.089609,1.918524,2.785792,-2.57482,-1.681693,3.849306,0.4034548],
[0.6485159,-2.248409,-1.544929,-2.957902,2.658207,-3.249436,-0.6456081,3.208447,-0.4600753,-2.414497,-2.712591,0.8689626,3.781176,0.9157898,3.45268,-0.8970637,-1.945434,0.9780577,-0.9384119,3.705587,-1.011888,-0.7971949,0.8040553,-3.388961,2.005343,2.888745,-2.792872,-0.3559009,-0.6318091,2.785386,-2.243278,3.889288,-2.991208],
[-1.354484,-2.503075,-3.225065,-3.442488,1.559933,-2.845613,-2.684717,2.064285,3.547187,-3.061754,-3.917511,-1.79479,-0.5194587,-0.4155709,0.8070552,1.52881,-1.897297,0.9168575,3.14032,3.846244,-2.037808,-1.220156,1.865629,1.569641,-1.717847,1.955694,-1.573821,-0.697803,-1.666902,2.609694,0.1921077,1.445894,0.7955171],
[-2.767762,-1.317938,-3.781333,-2.815278,-0.5075952,-0.8814344,1.810884,-3.456177,-0.7550552,-3.605923,-1.826075,-2.061518,2.872822,3.33867,-3.78354,1.924645,3.389534,0.3234122,-2.666236,2.070158,1.063005,1.243515,3.226917,2.667765,2.975721,1.042991,-1.159971,-0.0875444,-0.5492423,-1.660754,1.80429,1.959724,2.839882],
[2.706905,-3.340784,3.69901,-1.091406,2.614674,-1.397229,-0.03016503,-1.324513,-0.03534789,-1.170496,-0.9059336,2.964713,3.588988,-1.633072,-3.254948,-0.8986922,-3.056149,1.458048,2.143739,-2.569768,-1.828555,0.1193294,0.9849841,3.125347,2.488428,3.299223,3.223363,1.662599,0.2659537,3.516839,1.822393,-1.826807,0.8717627],
[2.853009,-0.4349076,-1.477935,0.2021101,-0.3442513,-1.41671,-1.38095,-0.9844347,3.225328,-2.063284,3.437888,-1.787716,-2.814992,-0.927266,-2.422761,-3.62887,1.714474,-1.54107,-1.591491,-3.021641,-3.703758,-3.788951,1.914179,-0.8870986,-1.02403,-1.842648,2.636376,-1.564385,-2.305373,-1.8886,2.649388,1.42381,0.7434541],
[-3.048082,2.750524,-0.7952363,1.066196,-1.529567,0.6811419,0.4939164,0.9726241,1.851057,3.35531,-3.419616,2.213625,0.7286788,-3.585553,1.843419,-0.2280676,0.7368672,-1.749986,0.9253891,-1.500509,0.1317808,3.417295,2.666774,-3.891722,-2.875597,1.072904,3.853929,-2.918626,0.308079,1.008538,0.6305817,0.2982469,3.574003],
[-2.698882,3.755827,-0.9364709,-3.90302,-0.2405825,-3.142948,-3.654679,-3.721637,-0.955132,-1.770544,-2.184836,-2.224926,-3.281909,1.320634,1.39585,2.826654,-1.417621,1.184395,-2.193019,-0.4251702,-0.5356716,1.71983,-0.1963876,-3.296879,-3.554665,-0.3393653,2.296732,0.1337453,3.262456,-2.325286,-3.082102,2.766169,1.365373],
[-1.771871,3.987074,2.152174,-2.383604,0.4818473,-2.87552,-2.070466,2.627751,2.880886,3.097726,0.2093596,3.351321,3.060414,1.341259,-1.696292,1.570529,0.3368181,0.7831529,0.3568347,-0.4610158,-1.923035,-0.6809249,2.068864,2.820719,0.008525044,-1.419739,-1.030758,0.9258901,2.351864,2.600798,-2.137723,1.224119,-2.5237],
[1.650017,-2.842793,-0.1544479,-2.139048,0.2356767,0.6198199,-0.5895711,-0.5021799,-2.479454,3.876223,-3.020714,-2.497431,-2.921694,1.584485,3.011979,1.481413,-3.339035,-1.744227,1.490761,-3.836222,2.744961,0.5802348,-1.69559,-2.862745,-2.617577,0.8307558,2.332752,-3.216169,3.454799,0.1778298,0.3013955,-0.6356819,-0.7104015],
[-1.696501,2.734206,1.406365,3.355302,-3.661028,-1.386517,1.488471,1.697475,0.31655,0.4252608,2.084189,3.453196,-3.264879,-1.85679,3.622812,-2.068679,-3.118362,1.958674,-1.94536,-0.2531775,-0.5868995,3.562413,1.286268,3.106589,-3.64672,2.680973,-2.005204,-3.860834,-2.856117,3.004697,1.454546,-2.251295,-0.6437867],
[-0.9397758,2.829702,1.932101,1.252714,2.982727,-0.7208976,-2.663173,0.4183618,-3.257374,-0.1065968,-1.773162,3.248797,-3.725525,2.441938,3.28187,0.6338559,3.623187,0.8854861,3.65167,-0.8041914,1.446435,2.468985,-3.82457,-0.6626172,0.07532813,2.820242,-1.193486,-2.306724,0.2219725,-1.977484,-0.2106185,0.5762606,-0.3849214],
[1.362164,-1.556897,2.960637,-2.892187,1.077405,-3.116344,-1.40449,0.4158233,-2.026544,3.650325,3.814142,0.1182113,-3.890169,0.4800433,3.722195,3.83965,-3.490081,3.256654,-0.4188258,0.4924567,-0.5867748,3.413661,-0.07743467,-0.4007108,-1.912849,-2.759964,-0.4878019,0.2063949,-0.3869758,2.58715,-0.6696744,-2.599948,0.7418671],
[0.8091602,2.374596,3.74356,-2.311922,2.065704,1.555483,3.111179,-3.460526,-0.2435812,1.288473,1.683919,-1.399875,1.274215,3.559649,3.663235,2.234443,-3.3205,-2.817681,-2.973914,-3.9743,1.690626,-2.353957,2.030341,1.289877,-2.363558,3.878817,-0.1681979,0.2094382,-2.750685,1.390829,0.137502,-0.6190967,1.518002],
[-3.326902,3.830276,-1.452988,-3.902163,-3.462518,-0.1965064,1.403558,2.377391,-1.339136,-2.775566,-0.1879042,0.6075469,-2.353152,2.083266,-0.7868712,2.639562,3.981996,2.24737,-0.5052427,-1.62971,2.937987,3.988036,-3.035764,-2.951503,-2.287329,-0.07084865,2.242332,-2.286345,-3.881113,1.88172,0.1525621,-0.3070109,-2.731305],
[2.932134,3.07038,-0.3007584,-1.005779,0.70824,3.329721,0.3355754,0.3354386,-2.84779,-0.03386816,-0.7730047,-3.054414,-2.228912,-0.7087597,-0.4915667,0.09609632,0.02123785,-2.0637,3.777639,-1.198134,2.014982,-2.135429,1.597497,-3.659094,0.4418744,-2.338441,3.061485,3.867381,0.6371034,-2.541214,2.603297,2.318104,2.105624],
[3.724426,3.740457,2.7175,-1.559053,2.557805,-2.796756,2.769666,-0.1906385,0.01105642,-1.922933,-0.7293895,2.871067,2.668429,-3.432817,0.1905929,-0.8660559,2.267405,2.22776,-0.8317112,1.110935,-2.239463,2.990333,-0.042438,0.7563906,-0.4982146,-1.946809,-3.397995,-3.794512,2.358693,2.106722,-0.3231254,-0.3329199,-1.78784],
[-3.124646,3.682813,2.417453,-3.833483,3.996072,3.956614,-0.07925661,1.95067,-0.500729,-3.256328,-3.422911,3.141979,-1.140386,2.857658,-3.194443,3.264016,0.5033113,1.34859,-3.022646,-1.323882,-2.228194,3.226808,-2.494618,-3.623796,0.2627268,1.70737,-2.9898,-2.062459,-3.270561,0.7661155,0.1469279,-3.939696,3.840764],
[3.546054,-2.998409,-2.046115,-2.777911,2.259732,1.798251,-2.634404,2.474675,-2.88891,3.796286,-1.168626,1.291454,-1.517066,-1.546274,2.662506,-0.2002966,1.016745,-2.976928,0.7019809,3.759878,2.423554,0.2638161,3.87036,2.130103,-1.865694,-1.77531,-1.242644,0.8687821,-0.9531994,0.7539672,-1.312244,3.400027,-3.466075],
[2.841047,0.5921577,2.123708,-2.606297,-0.5129061,1.959576,-3.380578,1.658044,-2.66314,-1.597731,2.339998,2.944812,2.027485,-2.8284,1.034402,-1.821521,2.136493,1.912802,-0.9710066,3.867142,-1.762957,-3.921872,2.292564,2.105762,-1.543874,-2.057711,-2.979777,-1.67678,1.252949,-2.055784,2.477319,-2.884392,-2.016926],
[-0.3668306,-0.5998039,0.110546,-2.653599,-2.084217,0.5267931,0.7573102,2.529439,-0.04658766,1.273298,1.931495,3.033117,2.649027,-2.180557,0.291553,1.349873,1.666229,-2.562864,0.3851876,3.24967,-3.836228,1.653433,-1.083858,0.5493532,-1.66388,2.515512,-3.952095,-2.812862,-3.892748,-1.704995,1.508465,0.9978779,1.16168],
[2.89701,-1.076251,-1.116634,2.451926,-1.114447,-2.162332,2.358451,-1.637284,-0.8994977,-1.251729,1.023621,-0.7177593,-3.132908,3.555273,3.540976,-1.158996,-0.3828903,0.7526857,2.605091,-3.891867,3.508429,2.722557,-3.519047,-3.056734,1.881639,-2.324315,3.122119,-3.735629,-3.894412,-3.700169,-1.157791,-3.913662,-2.873259]
],
[
[2.946582,-3.593513,2.193508,-0.7160225,-0.6762667,-1.778782,0.9309523,0.4802006,0.4824035,1.554565,0.5415758,-0.1288415,-2.491148,-1.153957,0.9984686,1.364657,-0.6562461,0.03827967,-1.822117,3.816688,2.545344,0.7058429,2.219717,0.9918922,-3.190679,0.5071288,-3.14117,2.068289,-0.8234617,-1.535414,3.269938,3.866401,0.3221079],
[3.87439,-1.178426,1.844557,0.4879563,-0.8304896,-0.8697397,-3.696769,0.4557229,3.940516,2.810798,-1.065643,-0.8054987,3.01315,3.152075,1.565499,2.010329,-0.2321042,0.01911268,1.693803,-3.447806,2.495023,-1.937932,-1.952054,2.16549,0.2444624,1.452041,-1.988104,-1.537637,-3.111856,-0.03008038,-1.327397,2.993285,1.118225]
]
],
"biases":[
[
-0.004210655,-3.436096,0.3361756,-3.385372,-1.931718,0.1869369,-0.3679451,0.6207185,2.055725,0.7336873,2.829679,-3.324663,-3.716177,-0.9122068,-0.1263258,-0.8156071,3.348677,-3.003479,-2.713309,-3.255197,-1.983596,-2.719475,2.777702,3.649604,0.682179,-0.3675023,1.979543,-1.785414,2.014179,-0.3737648,2.565713,2.827713,0.7961598
],
[
0.688612,-1.713373
]
]},
{
"fitness":20.99888,
"weights":[
[
[-3.851475,-2.875808,-2.144767,-0.6803982,-3.840883,-1.972085,3.04741,1.218845,-1.932426,-3.077334,0.2647265,-3.086865,2.89114,3.110282,3.222561,0.1255745,0.1097404,0.9271922,0.03806201,-3.321349,-2.360805,-1.023563,-1.150079,-2.774112,1.070742,1.217456,-1.101236,-0.14051,2.301049,-0.09497602,2.343025,-2.534022,-0.6774846],
[-1.71582,-1.449701,0.06041431,2.147177,-0.6800516,-3.710451,-0.9621251,-0.2307653,3.253474,2.578684,0.4550842,0.158921,1.26924,0.8685908,-3.362031,-2.394049,0.80181,1.955827,-3.056019,-0.7041674,0.108242,1.042646,-2.462207,3.583609,-0.6240649,-3.336303,-1.376732,2.71244,2.008596,0.8650296,1.757319,-1.263912,-0.3976458],
[3.141703,-1.461472,-3.44813,-0.04194372,-3.214602,3.524132,-1.757669,3.620896,-2.46903,3.026172,-2.402684,0.08992094,0.5511064,-2.720726,-1.125916,-2.359608,-3.100772,3.258704,1.916522,3.110306,2.91264,-1.62058,3.33983,-1.012549,0.1311176,-0.5644074,-2.305581,-1.47485,3.838071,-1.289716,0.01633436,2.45638,1.858041],
[-3.490097,-1.738556,1.784473,3.133038,1.361151,1.927206,-1.663618,-2.456433,3.150026,-0.3651536,-0.5344608,0.1672183,3.34563,0.3367074,1.888044,-3.115545,-2.869705,3.281503,2.367616,1.31781,1.009177,-2.849997,-0.5508719,2.684742,3.837697,0.5337675,-1.351564,3.585114,-2.231875,0.83412,2.594339,0.2970589,-2.286979],
[2.062675,2.582702,-2.897664,0.202086,-0.9611304,-1.086675,-1.893487,-3.95515,-3.68312,1.582077,-0.1311461,-3.914371,0.8080451,1.088453,0.5736251,0.6396722,3.240174,-0.8525163,3.771591,-0.5370978,3.777474,1.740186,-2.628852,-1.978902,-2.634524,0.954401,2.100263,-1.618917,-2.934002,-3.134121,1.404337,2.008632,-2.511472],
[-1.552318,-0.2263162,1.362934,-0.2193103,3.31411,1.160386,1.074626,3.80648,1.915504,3.462551,3.489264,2.207928,-3.787525,0.6201601,-2.5404,-0.7366666,2.187445,0.2025428,-0.8141493,-2.385607,-1.922136,1.225327,-3.417171,-3.380871,-3.464148,-1.680081,1.392475,3.708064,2.802967,-1.000762,-2.401652,2.09204,1.9082],
[3.546435,3.02843,0.7463084,1.299634,2.373403,-1.073467,-1.630317,-2.120526,-2.803333,2.837245,-2.343646,-0.8546166,2.755201,3.583991,0.8886918,2.384834,2.731779,-1.050875,1.276949,0.889069,1.798916,-0.6056678,1.808946,3.277479,-1.238712,-0.8746363,0.1513956,-0.2924927,0.1863657,3.176889,0.6104108,-3.766184,-1.647389],
[1.633412,0.3694827,-1.125067,0.9994507,-1.170412,3.34509,-3.62352,-2.377882,-3.094718,0.2868547,-2.693098,2.350563,-3.570739,-1.174826,-2.567138,2.180606,1.002875,-1.345845,-3.321806,-3.52437,-3.309825,1.58994,2.837477,3.331109,0.5847445,2.725543,1.256442,-2.854423,-1.418101,-2.950307,-3.520356,2.405277,-3.827008],
[-1.813381,-2.383487,-3.745777,-3.592551,-0.04385284,-0.1975768,2.136276,-1.648504,0.4086452,2.440805,1.461126,1.684721,2.143282,1.840325,0.935023,-3.227005,3.020901,1.189024,3.003607,1.058537,2.041626,-2.916391,-3.745689,1.283554,0.8458161,-3.862566,2.955951,-0.5644535,-3.743573,0.2547611,1.758238,0.3850458,-2.131809],
[0.06002687,-2.750117,2.525922,-2.62627,-1.4013,0.7169554,-3.588225,-0.924465,-2.977318,2.422698,0.4286259,3.201174,2.142412,2.116869,-0.4210773,-2.346991,3.951384,-1.70225,0.3111736,2.652789,2.495618,2.279969,3.043341,-3.36992,-3.443073,-0.7106277,-0.9658592,-2.205006,-3.227089,2.785896,-3.351722,-1.328836,-0.1021626],
[-3.275821,-1.424419,3.652834,1.12136,-3.568351,-3.551361,0.9858004,2.052892,-1.582993,0.1674339,-0.2546599,-1.391929,-2.130518,3.500358,-3.2205,-1.692387,3.136261,-2.829926,-0.7036709,-3.278,1.742687,-2.320138,2.626446,1.712282,-3.226329,2.259277,2.479914,1.901478,-0.4928436,-3.118093,0.1271919,2.953915,1.08663],
[-1.153335,0.7061491,-3.887921,0.8126408,0.03627349,0.219359,2.113353,2.432855,-2.860717,-3.152723,0.5281037,-1.747911,0.2932828,3.80298,-2.368696,-0.6740049,2.875316,-3.143676,-2.652126,3.271693,-0.1456939,-0.2774561,2.229975,3.793952,-1.980974,-1.644858,-3.089609,1.918524,3.969746,-2.57482,-1.681693,3.849306,0.4034548],
[-3.188526,-2.248409,-1.544929,-2.957902,2.658207,-3.249436,-0.6456081,3.208447,-0.4600753,-2.414497,-2.712591,0.8689626,3.781176,0.9157898,3.45268,-0.8970637,-1.945434,0.9780577,-0.9384119,3.705587,-1.011888,-0.7971949,0.8040553,-3.388961,2.005343,2.888745,-2.792872,-0.3559009,-0.6318091,2.785386,-2.243278,3.889288,-2.991208],
[-1.354484,-2.503075,-3.225065,-3.442488,1.559933,-2.845613,-2.684717,2.064285,3.547187,-3.061754,-3.917511,-1.79479,-0.5194587,-0.4155709,0.8070552,1.52881,-1.897297,0.9168575,3.14032,3.846244,-2.037808,-1.220156,1.865629,1.569641,-1.717847,1.955694,-1.573821,-0.697803,-0.1603169,2.609694,0.1921077,1.445894,0.7955171],
[-2.767762,-1.317938,-3.781333,-2.815278,-1.49167,-0.8814344,1.810884,-3.456177,-0.7550552,-3.605923,-1.826075,-2.061518,2.872822,3.33867,-3.78354,1.924645,-1.490548,0.3234122,-2.666236,2.070158,1.063005,1.243515,3.226917,2.667765,2.975721,1.042991,-3.433434,-2.225509,-0.5492423,-1.660754,1.80429,1.959724,2.839882],
[2.706905,-3.340784,3.69901,-1.091406,2.614674,-1.397229,-0.03016503,-1.324513,-0.03534789,-1.170496,-0.9059336,2.964713,3.588988,-1.633072,-3.254948,-0.8986922,-3.056149,1.458048,2.143739,-2.569768,-1.828555,0.1193294,0.9849841,3.125347,2.488428,3.299223,3.223363,1.662599,2.663705,-1.148454,1.822393,-1.826807,0.8717627],
[2.853009,-0.4349076,-1.477935,2.577361,-2.682204,-1.41671,-1.38095,-0.9844347,3.225328,-2.063284,3.437888,-1.787716,-2.814992,-0.927266,-2.422761,-3.62887,1.714474,-1.54107,-1.591491,-3.021641,-3.703758,-3.788951,1.914179,-0.8870986,-1.02403,-1.842648,2.636376,-1.564385,-2.305373,-1.8886,2.649388,1.42381,0.7434541],
[-3.048082,2.750524,-0.7952363,1.066196,-1.529567,0.6811419,0.4939164,0.9726241,1.851057,3.35531,-3.419616,2.213625,0.7286788,-3.585553,1.843419,-0.2280676,0.7368672,-1.749986,0.9253891,-1.500509,0.1317808,3.417295,2.666774,2.359437,-2.875597,1.072904,3.853929,-2.918626,0.308079,1.008538,0.6305817,0.2982469,3.574003],
[-2.698882,3.755827,-0.9364709,-3.90302,-0.2405825,-3.142948,-3.654679,-3.721637,-0.955132,-1.770544,-2.184836,-2.224926,-3.281909,1.320634,1.39585,2.826654,-1.417621,1.184395,-2.193019,-0.4251702,-0.5356716,1.71983,-0.1963876,-3.296879,1.52776,-0.3393653,2.296732,0.1337453,3.262456,-2.325286,-3.082102,2.766169,1.365373],
[-1.771871,3.987074,2.152174,2.414609,0.4818473,-2.87552,-2.070466,2.627751,2.880886,3.097726,0.2093596,3.351321,3.060414,1.341259,-1.696292,1.570529,0.3368181,0.7831529,0.3568347,-0.4610158,-1.923035,-0.6809249,2.068864,-2.580198,0.008525044,2.240551,-1.030758,0.9258901,1.477135,2.600798,-2.137723,1.224119,-2.5237],
[1.650017,-2.842793,-0.1544479,-2.139048,0.2356767,0.6198199,-0.5895711,-0.5021799,-2.479454,3.876223,-3.020714,-2.497431,-2.921694,1.584485,3.011979,1.481413,-3.339035,-1.744227,1.490761,-3.836222,2.744961,0.5802348,-1.69559,-2.862745,-2.617577,0.8307558,2.332752,-1.551901,3.454799,0.1778298,0.3013955,-0.6356819,-0.7104015],
[-1.696501,2.734206,1.406365,3.355302,-3.661028,-1.386517,1.488471,1.697475,0.31655,0.4252608,2.084189,3.453196,-3.264879,-1.85679,3.622812,-2.068679,-3.118362,1.958674,-1.94536,-0.2531775,-0.5868995,3.562413,1.286268,3.106589,-3.64672,2.680973,-2.005204,-3.860834,-2.856117,3.004697,1.454546,-2.251295,-0.6437867],
[-0.9397758,2.829702,1.932101,1.252714,2.982727,-0.7208976,-2.663173,0.4183618,-3.257374,-0.1065968,-1.773162,3.248797,-3.725525,2.441938,0.6879392,0.3003192,3.623187,0.8854861,3.65167,-0.8041914,1.446435,2.468985,-3.82457,-0.6626172,0.07532813,2.820242,-1.193486,-2.306724,0.2219725,2.325473,-0.2106185,0.5762606,-0.3849214],
[3.204993,-1.556897,2.960637,-2.892187,1.077405,-3.116344,-1.40449,0.4158233,-2.026544,3.650325,3.814142,0.1182113,-0.9652128,0.4800433,3.722195,3.83965,-3.490081,3.256654,-0.02978426,0.4924567,-0.5867748,3.413661,-0.07743467,-0.4007108,-1.912849,-2.759964,-0.4878019,-1.585592,-0.3869758,2.58715,-0.6696744,-2.599948,0.7418671],
[0.8091602,2.374596,3.74356,-2.311922,2.065704,-3.603027,3.111179,-3.460526,-0.2435812,1.288473,1.683919,-1.399875,1.274215,3.559649,3.663235,2.234443,-3.3205,-2.817681,-2.973914,-3.9743,1.690626,-2.353957,2.030341,1.289877,-3.569732,2.866871,-0.1681979,0.2094382,3.82106,1.390829,0.137502,-0.6190967,1.518002],
[-3.326902,-2.370794,-1.452988,-3.902163,-3.462518,-0.1965064,1.403558,2.377391,-1.339136,1.320468,-0.1879042,0.6075469,-2.353152,2.083266,-0.7868712,2.639562,3.981996,2.24737,-0.5052427,-1.62971,2.937987,3.988036,-3.035764,-2.951503,-2.287329,-0.07084865,2.242332,-2.286345,-3.881113,1.88172,0.1525621,-0.3070109,-2.731305],
[2.932134,3.07038,-0.3007584,-1.005779,0.70824,3.329721,0.3355754,0.3354386,-2.84779,-0.03386816,-0.7730047,-3.054414,-2.228912,-0.7087597,-0.4915667,0.09609632,0.02123785,-2.0637,3.777639,-1.198134,2.014982,-2.135429,1.597497,-3.659094,0.4418744,-2.338441,3.061485,3.867381,0.6371034,0.1639366,2.603297,2.318104,2.105624],
[3.724426,3.740457,2.7175,3.71246,2.557805,-2.796756,2.769666,-0.1906385,0.01105642,-1.922933,-0.7293895,2.871067,2.668429,-3.432817,0.1905929,-0.8660559,2.267405,2.22776,-0.8317112,1.110935,-2.239463,2.990333,-0.042438,0.7563906,-0.8377777,-1.946809,-3.397995,-3.794512,2.358693,2.106722,-0.3231254,-0.3329199,-1.78784],
[-3.124646,3.682813,2.417453,-3.833483,3.996072,3.956614,-2.336851,1.95067,-0.500729,-3.256328,-3.422911,3.141979,-1.140386,2.857658,-3.194443,2.629446,0.5033113,1.34859,-3.022646,-1.323882,-2.228194,3.226808,-2.494618,-3.623796,0.2627268,1.70737,-2.9898,-2.062459,-3.270561,0.7661155,0.1469279,-3.939696,3.840764],
[3.546054,-2.998409,-2.046115,-2.777911,2.259732,1.798251,-2.634404,2.474675,-2.88891,3.796286,-1.168626,1.291454,-1.517066,-1.546274,2.662506,-0.2002966,1.016745,-2.976928,0.7019809,3.759878,2.423554,0.2638161,3.782849,2.130103,-1.865694,-1.77531,-1.242644,0.8687821,-0.9531994,0.7539672,-1.312244,3.400027,-3.466075],
[2.841047,0.5921577,2.123708,-2.606297,-0.5129061,1.959576,-3.380578,1.658044,-2.66314,-1.597731,2.339998,2.944812,2.027485,-2.8284,1.034402,-1.821521,2.136493,1.912802,-0.9710066,3.867142,-1.762957,-3.921872,2.292564,2.105762,-1.543874,-2.057711,-2.979777,-1.67678,1.252949,-2.055784,2.477319,-2.884392,-2.016926],
[-0.3668306,-0.5998039,0.110546,-2.653599,-2.084217,0.5267931,0.7573102,2.529439,-0.04658766,1.273298,1.931495,3.033117,2.649027,-2.180557,0.291553,1.349873,1.666229,-2.562864,0.3851876,3.24967,-3.836228,1.653433,-1.083858,0.5493532,-2.38447,2.515512,-3.952095,-2.812862,-3.892748,-1.704995,1.508465,0.9978779,1.16168],
[2.89701,-1.076251,-1.116634,2.451926,-1.114447,-2.162332,2.358451,-1.637284,-0.8994977,-1.251729,1.023621,-0.7177593,-3.132908,3.555273,-0.04210582,-1.158996,-0.3828903,0.7526857,2.605091,-3.891867,3.508429,2.722557,-3.519047,-3.056734,2.795524,-2.324315,3.122119,-3.735629,-3.894412,-3.700169,-1.157791,-3.913662,-2.873259]
],
[
[2.946582,-3.593513,2.193508,-0.7160225,-0.6762667,-1.778782,0.9309523,0.4802006,0.4824035,1.554565,0.5415758,-0.1288415,-2.491148,-1.153957,0.9984686,1.364657,-0.6562461,0.03827967,-1.822117,3.816688,2.545344,0.7058429,2.219717,0.9918922,-3.190679,0.5071288,-3.14117,2.068289,-0.8234617,-1.535414,3.269938,3.866401,0.3221079],
[3.87439,-1.178426,1.844557,0.4879563,-0.8304896,-0.8697397,-3.696769,0.4557229,3.940516,2.810798,-1.065643,-0.8054987,3.01315,3.152075,1.565499,2.010329,-0.2321042,0.01911268,1.693803,-3.447806,2.495023,-1.937932,-1.952054,2.16549,0.2444624,1.452041,-1.988104,-1.537637,-3.111856,-0.03008038,-1.327397,2.993285,1.118225]
]
],
"biases":[
[
-0.004210655,-3.436096,0.3361756,-3.385372,-1.931718,0.1869369,-0.3679451,0.6207185,2.055725,0.7336873,2.829679,-3.324663,-3.716177,-0.9122068,-0.1263258,-0.8156071,3.348677,-3.003479,-2.713309,-3.796837,-1.983596,-2.719475,2.777702,3.649604,0.682179,-0.3675023,1.979543,-1.785414,2.014179,-0.3737648,2.565713,2.827713,0.7961598
],
[
0.688612,-1.713373
]
]},
{
"fitness":20.20786,
"weights":[
[
[-3.851475,-2.875808,-2.144767,-0.6803982,-3.840883,-1.972085,3.04741,1.218845,-1.932426,-3.077334,0.2647265,-3.086865,2.89114,3.110282,3.222561,0.1255745,0.1097404,-3.454693,0.03806201,-3.321349,-2.360805,-1.023563,0.9135875,-2.774112,1.070742,1.217456,-1.101236,-0.14051,2.301049,-0.9414376,2.343025,-2.534022,-0.6774846],
[-1.71582,-1.449701,0.06041431,2.147177,-0.6800516,-3.710451,-0.9621251,-0.2307653,3.253474,2.578684,0.4550842,0.158921,1.26924,0.8685908,-3.362031,-2.394049,0.80181,1.955827,-3.056019,-0.7041674,0.108242,1.042646,-2.462207,3.583609,-0.6240649,-3.336303,-1.376732,2.71244,2.008596,0.8650296,1.757319,-1.263912,-0.3976458],
[3.141703,-1.461472,-3.44813,-0.04194372,-3.214602,3.524132,-1.757669,3.620896,-3.524,3.026172,-2.402684,0.08992094,0.5511064,-2.720726,-1.125916,-2.359608,-3.100772,3.258704,1.916522,3.110306,2.91264,-1.62058,3.33983,-1.012549,0.1311176,-0.5644074,-2.305581,-1.47485,3.838071,-1.289716,0.01633436,2.45638,1.858041],
[-3.490097,-1.738556,1.784473,3.133038,1.361151,1.927206,3.546773,-2.456433,3.150026,-0.3651536,-0.5344608,0.1672183,3.34563,0.3367074,1.888044,-3.115545,3.074759,-2.086679,2.367616,1.31781,1.009177,-2.849997,-0.5508719,2.684742,3.837697,-0.4179822,-1.351564,3.585114,-2.231875,0.83412,2.594339,0.2970589,-2.286979],
[2.062675,2.582702,-2.897664,0.202086,-0.9611304,-1.086675,-1.893487,-3.95515,-3.68312,1.582077,-0.1311461,-3.914371,0.8080451,1.088453,0.5736251,0.6396722,3.240174,-0.8525163,3.771591,-0.5370978,3.777474,1.740186,-2.628852,-1.978902,-2.634524,0.954401,2.100263,-1.618917,-2.934002,-3.134121,1.404337,2.008632,-2.511472],
[-1.552318,-0.2263162,1.362934,3.354479,3.31411,1.160386,3.8533,3.80648,1.915504,3.462551,2.634498,2.207928,3.774786,0.6201601,-2.5404,-0.7366666,2.187445,0.2025428,-0.8141493,-2.385607,-1.922136,1.225327,-3.417171,-3.380871,-3.464148,-1.680081,1.392475,3.708064,2.802967,-1.000762,-2.401652,2.09204,1.9082],
[3.546435,3.02843,0.7463084,1.299634,2.373403,-1.073467,-1.630317,-2.120526,-2.803333,2.837245,-2.343646,-0.8546166,2.755201,3.583991,1.221763,2.384834,-0.2505224,-1.050875,1.276949,0.889069,1.798916,-0.6056678,1.808946,3.277479,-1.238712,-0.8746363,3.801181,-0.2924927,0.1863657,3.176889,0.6104108,-3.766184,-1.647389],
[1.633412,0.3694827,-1.125067,0.9994507,-1.170412,3.34509,-3.62352,-2.377882,-3.094718,-1.840864,-2.693098,2.350563,-3.570739,-1.174826,-2.567138,2.180606,1.002875,-1.345845,-3.321806,-3.52437,-3.309825,1.58994,2.837477,3.331109,0.5847445,2.725543,1.256442,-2.854423,2.516593,-2.950307,-3.520356,2.405277,-3.827008],
[-1.813381,-2.383487,-3.745777,-3.592551,-0.04385284,-0.1975768,2.136276,-1.648504,0.4086452,2.440805,0.607882,1.684721,2.143282,1.840325,0.935023,-3.227005,3.020901,1.189024,3.003607,1.058537,-2.457055,-2.916391,-3.745689,1.283554,0.8458161,-3.862566,2.955951,-0.5644535,-3.743573,0.2547611,1.758238,0.3850458,-2.131809],
[-1.29947,-2.750117,2.525922,-2.62627,-1.4013,0.7169554,-3.588225,-0.924465,-2.977318,2.422698,0.4286259,3.201174,2.142412,2.116869,-0.4210773,-2.346991,3.951384,-1.70225,3.570404,2.652789,2.495618,2.279969,3.043341,-3.36992,-3.443073,-0.7106277,-0.9658592,-2.205006,-3.227089,2.785896,-3.351722,-1.328836,-0.1021626],
[-3.275821,-1.424419,-1.412086,1.12136,-3.568351,-3.551361,0.9858004,2.052892,-1.582993,0.1674339,-0.2546599,-1.391929,-2.130518,3.500358,-3.2205,-1.692387,3.136261,-2.829926,-0.7036709,-1.85008,1.742687,-2.320138,2.626446,1.712282,-3.226329,2.259277,2.479914,1.901478,-0.4928436,-0.06459174,0.1271919,2.953915,1.08663],
[-1.153335,0.7061491,-3.887921,0.8126408,0.03627349,0.219359,2.113353,2.432855,-2.860717,-3.152723,0.5281037,-1.747911,0.2932828,3.80298,-2.368696,0.8771123,2.875316,-3.143676,-1.242708,3.271693,-0.1456939,-0.2774561,2.229975,3.793952,-1.980974,-1.644858,-3.089609,1.918524,3.969746,-2.57482,-1.681693,3.849306,0.4034548],
[-3.188526,-2.248409,-1.544929,-2.957902,2.658207,-3.249436,-0.6456081,3.208447,-0.4600753,-2.414497,-2.09433,0.8689626,3.781176,0.9157898,3.45268,-0.8970637,-1.945434,0.9780577,-0.9384119,3.705587,-1.011888,-0.7971949,0.8040553,-3.388961,2.005343,2.888745,-2.792872,-0.3559009,-0.6318091,2.785386,-2.243278,3.889288,-2.991208],
[-1.354484,-2.503075,-3.225065,-3.442488,1.559933,-2.845613,-2.684717,2.064285,3.547187,-3.061754,-1.148638,-0.08847141,-0.5194587,-0.4155709,0.8070552,1.52881,-1.897297,0.9168575,3.86302,3.846244,-2.037808,-1.220156,1.865629,1.569641,-1.717847,1.955694,-1.573821,-0.697803,-1.666902,2.609694,0.1921077,1.58631,0.7955171],
[-2.767762,-1.317938,-3.781333,-2.815278,-0.5075952,-0.8814344,1.810884,-3.456177,-0.7550552,-3.605923,-1.826075,-2.061518,2.872822,3.33867,-3.78354,1.924645,3.389534,0.3234122,-2.666236,2.070158,1.063005,1.243515,3.226917,2.667765,2.975721,1.042991,-3.433434,-2.225509,-0.5492423,-1.660754,1.80429,1.959724,2.839882],
[-0.2865997,-3.340784,3.69901,-1.091406,2.614674,-1.397229,-0.03016503,-1.324513,-0.03534789,-1.170496,-0.9059336,2.964713,3.588988,-1.633072,-3.254948,-0.8986922,-3.056149,1.458048,2.143739,-2.569768,-1.828555,0.1193294,0.9849841,3.125347,2.488428,3.299223,3.223363,1.662599,1.733703,-1.148454,1.822393,-1.826807,0.8717627],
[-1.215261,-0.4349076,-1.477935,2.577361,-2.682204,-1.41671,-1.38095,-0.9844347,3.225328,-2.063284,3.437888,-1.787716,-2.814992,-0.927266,-2.422761,-3.62887,1.714474,-1.54107,-1.058947,-3.021641,-3.703758,-3.788951,1.914179,-0.8870986,-1.02403,-1.842648,2.636376,-1.564385,-2.305373,-1.8886,2.649388,1.42381,0.7434541],
[-3.048082,2.750524,-0.7952363,1.066196,-1.529567,0.6811419,0.3979667,0.9726241,1.851057,3.35531,-3.419616,2.213625,0.7286788,-3.585553,1.843419,-0.2280676,0.7368672,-1.749986,0.9253891,-2.114657,0.1317808,3.417295,2.666774,-3.891722,-2.875597,1.072904,3.853929,-2.918626,0.308079,1.008538,0.6305817,0.2982469,3.574003],
[-2.698882,3.755827,-0.9717931,-3.90302,-0.2405825,-3.142948,1.739386,-3.721637,-0.955132,-1.770544,-3.097695,-2.224926,-3.281909,1.320634,1.39585,2.826654,-1.417621,1.184395,-2.193019,-0.4251702,-0.5356716,1.71983,-0.1963876,-3.296879,1.52776,-0.3393653,2.296732,0.1337453,3.262456,-2.325286,-3.082102,2.766169,1.365373],
[-1.771871,3.987074,2.152174,2.414609,0.4818473,-2.87552,-2.070466,1.454046,2.880886,3.097726,0.2093596,3.351321,3.060414,1.341259,-1.696292,3.824291,0.3368181,0.7831529,0.3568347,-2.718328,-1.923035,0.6536703,2.068864,-2.580198,0.008525044,2.240551,-1.030758,0.9258901,1.477135,2.600798,-2.137723,1.224119,-2.5237],
[1.650017,0.6850688,1.103488,-2.139048,0.2356767,0.6198199,-0.5895711,-0.5021799,-2.479454,3.876223,-3.020714,-2.497431,0.5083628,1.584485,3.011979,-3.784961,-3.339035,-1.744227,1.490761,-3.836222,2.744961,0.5802348,-1.69559,-2.862745,-2.617577,-0.07301406,2.332752,-1.551901,-2.898657,0.1778298,0.3013955,-0.6356819,-0.7104015],
[-2.807462,2.734206,1.406365,3.355302,-3.661028,-1.386517,1.488471,1.697475,0.31655,0.4252608,2.084189,-0.4918602,-3.264879,-1.85679,3.622812,-2.068679,-3.118362,1.958674,-1.94536,-0.2531775,-0.5868995,3.562413,1.286268,-2.615824,-3.64672,2.680973,-2.005204,-3.860834,-2.856117,3.004697,1.454546,-2.251295,-0.6437867],
[-0.9397758,2.829702,2.030802,1.252714,2.982727,-0.7208976,2.483751,0.4183618,-3.257374,-0.1065968,-1.773162,3.248797,-3.725525,2.441938,3.28187,0.6338559,-0.4372333,0.8854861,3.65167,-0.8041914,1.446435,2.468985,-3.82457,-0.6626172,0.07532813,2.820242,-2.321094,-2.306724,0.2219725,2.325473,-0.2106185,0.5762606,-0.3849214],
[3.204993,-1.556897,2.960637,-2.892187,1.077405,-3.116344,-1.40449,0.4158233,-2.026544,3.650325,3.814142,0.1182113,-0.9652128,1.688588,3.722195,3.83965,-3.490081,3.256654,-0.4188258,0.4924567,-0.5867748,3.413661,-0.07743467,-0.4007108,-1.912849,-2.759964,-0.4878019,-1.585592,-0.3869758,2.58715,-0.6696744,-2.599948,0.7418671],
[0.8091602,2.374596,3.74356,-2.311922,2.065704,1.555483,3.111179,-3.460526,-0.2435812,1.288473,1.683919,-1.399875,1.274215,3.559649,3.663235,2.234443,-3.3205,-2.817681,-2.973914,-3.9743,1.690626,-2.353957,2.030341,1.289877,-3.569732,2.866871,-0.1681979,0.2094382,-2.750685,1.390829,3.788222,-0.6190967,1.518002],
[-3.326902,-2.370794,-1.452988,-3.902163,-3.462518,-0.1965064,1.403558,2.377391,-1.339136,1.320468,-0.1879042,0.6075469,-2.353152,2.083266,-0.7868712,-2.795736,3.981996,2.24737,-0.5052427,-1.62971,2.937987,3.988036,-3.035764,-2.951503,-2.287329,-0.07084865,2.242332,-2.286345,2.891152,1.88172,0.1525621,-0.3070109,-2.731305],
[-1.285343,-1.576941,-0.3007584,-1.005779,0.70824,3.329721,0.3355754,0.3354386,-2.84779,-0.03386816,-0.7730047,-3.054414,-2.228912,-0.7087597,-0.4915667,0.09609632,0.02123785,-2.0637,3.777639,-1.198134,2.014982,-2.135429,1.597497,3.726552,0.4418744,-2.338441,3.061485,3.867381,0.6371034,0.1639366,2.603297,2.318104,2.105624],
[3.724426,3.740457,2.034453,3.71246,3.393636,-2.796756,2.769666,-0.1906385,0.01105642,-1.922933,-0.7293895,2.871067,2.668429,-3.432817,0.1905929,-0.8660559,2.267405,2.22776,-0.8317112,1.110935,-2.239463,2.990333,-0.042438,0.7563906,-0.8377777,-1.946809,-3.397995,-3.794512,2.358693,2.106722,-0.3231254,-0.3329199,-1.78784],
[-3.124646,3.682813,2.417453,-3.833483,3.996072,-0.7270651,-2.336851,1.95067,-0.500729,-3.256328,-3.422911,3.141979,-1.140386,2.857658,-3.194443,0.1289272,0.5033113,1.34859,-3.022646,-1.323882,-2.228194,3.226808,-2.494618,-3.623796,0.2627268,1.70737,-2.9898,-2.062459,-3.270561,0.7661155,0.1469279,-3.939696,3.840764],
[3.546054,-0.008428928,-2.046115,-2.777911,2.259732,1.798251,-2.634404,-2.440088,0.5424936,3.796286,-1.168626,1.291454,-1.517066,-1.546274,2.662506,-0.2002966,1.016745,-2.976928,0.7019809,3.759878,2.423554,0.2638161,3.782849,2.130103,-1.865694,-1.77531,-1.242644,0.8687821,-0.9531994,0.7539672,-1.312244,3.400027,-3.466075],
[2.841047,0.5921577,2.123708,-2.606297,-0.5129061,1.959576,-3.380578,-2.864483,-2.66314,-1.597731,2.339998,2.944812,2.027485,-2.8284,1.034402,-1.821521,2.136493,1.912802,-0.9710066,3.867142,0.6717509,-0.9415103,2.292564,2.105762,-1.543874,-2.057711,-2.979777,-1.67678,1.252949,-2.055784,2.477319,-2.884392,-0.5391072],
[-0.3668306,-0.5998039,0.110546,-2.653599,-2.084217,0.5267931,0.7573102,2.529439,-0.04658766,1.273298,1.931495,3.033117,2.649027,3.862608,0.291553,1.349873,1.666229,-2.562864,0.3851876,3.24967,-3.836228,1.653433,-1.083858,0.5493532,-2.38447,2.515512,-3.952095,-2.812862,-3.892748,-1.704995,1.508465,0.9978779,1.16168],
[2.89701,-1.076251,-1.116634,2.451926,-1.114447,-2.162332,2.358451,1.159993,-0.8994977,-1.251729,1.023621,-0.7177593,-3.132908,3.555273,3.540976,-1.158996,-0.3828903,0.7526857,2.605091,-3.891867,3.508429,2.722557,-3.519047,-0.3044143,2.795524,-2.324315,3.122119,-3.735629,-3.894412,-3.700169,-1.157791,-3.913662,-2.873259]
],
[
[2.946582,-3.593513,2.193508,-0.7160225,-0.6762667,-1.778782,0.9309523,0.4802006,0.4824035,1.554565,0.5415758,-0.1288415,-2.491148,-1.153957,0.9984686,1.364657,-1.534987,0.03827967,-1.822117,3.816688,2.545344,0.7058429,2.219717,0.9918922,-3.190679,0.5071288,-3.14117,2.068289,-0.8234617,-1.535414,3.269938,3.866401,0.3221079],
[3.87439,-1.178426,1.332616,0.4879563,-0.8304896,-0.8697397,-3.696769,0.4557229,3.940516,2.810798,-1.065643,-0.8054987,3.01315,3.152075,1.565499,2.010329,-0.2321042,0.01911268,1.693803,-3.447806,2.495023,-1.937932,-1.952054,2.16549,0.2444624,1.452041,-1.988104,-1.537637,-3.111856,-0.03008038,-1.327397,2.993285,1.118225]
]
],
"biases":[
[
-0.004210655,-3.436096,0.3361756,-3.385372,-1.931718,0.1869369,-0.3679451,0.6207185,2.055725,0.7336873,2.829679,-3.324663,-3.716177,-0.9122068,-0.1263258,-0.8156071,3.348677,-3.003479,-2.713309,-3.255197,0.5843533,-2.719475,2.777702,3.649604,0.682179,-0.3675023,1.979543,-1.785414,2.014179,-0.3737648,2.565713,2.827713,0.7961598
],
[
0.688612,-1.713373
]
]},
{
"fitness":19.59604,
"weights":[
[
[-3.851475,-2.875808,-2.144767,-2.696937,-3.840883,-1.972085,3.04741,1.218845,-1.932426,-3.077334,0.2647265,-3.086865,2.89114,3.110282,3.222561,0.1255745,0.1097404,-3.454693,0.03806201,-3.321349,-2.360805,-1.023563,-1.150079,-2.774112,1.070742,1.217456,-1.101236,-0.14051,2.301049,-0.9414376,2.343025,-2.534022,-0.6774846],
[-1.71582,-1.449701,0.06041431,2.147177,-0.6800516,-3.710451,-0.9621251,-0.2307653,3.253474,2.578684,0.4550842,0.158921,1.26924,0.8685908,-3.362031,0.3046208,0.80181,1.955827,-3.056019,-0.7041674,0.108242,1.042646,-2.462207,3.583609,-0.6240649,-3.336303,-1.376732,2.71244,2.008596,0.8650296,1.757319,-1.263912,-0.3976458],
[3.141703,-1.461472,-3.44813,-0.04194372,-3.214602,3.524132,-1.757669,3.620896,-3.524,1.01184,-2.402684,0.08992094,0.5511064,-2.720726,-1.125916,2.469089,-3.100772,3.258704,1.916522,3.110306,2.91264,-3.796095,3.33983,-1.012549,0.1311176,-0.5644074,-2.305581,-1.47485,3.838071,-1.289716,0.01633436,2.45638,1.858041],
[-3.490097,-1.738556,1.784473,3.133038,1.361151,1.927206,3.546773,-2.456433,3.150026,-0.3651536,1.699812,0.1672183,3.34563,0.3367074,1.888044,-3.115545,2.684111,-2.086679,2.367616,1.31781,1.009177,-2.849997,-0.5508719,2.684742,3.837697,-0.4179822,-1.351564,3.585114,-2.231875,0.83412,2.594339,0.2970589,-2.286979],
[2.062675,2.582702,-2.897664,0.202086,-0.9611304,-1.086675,-1.893487,-3.95515,-3.68312,1.582077,-0.1311461,-3.914371,0.8080451,1.088453,0.5736251,0.6396722,3.240174,-0.8525163,3.771591,-0.5370978,3.777474,1.740186,-2.628852,-1.978902,-2.634524,0.954401,2.100263,-1.618917,-2.934002,-3.134121,1.404337,2.008632,-2.511472],
[-0.5011693,1.111134,1.362934,3.354479,3.31411,1.160386,3.8533,3.80648,1.915504,3.462551,2.634498,2.207928,-3.787525,0.6201601,-2.5404,-0.7366666,2.187445,0.2025428,-0.8141493,-2.385607,-1.922136,1.225327,-3.417171,-3.380871,-3.464148,-1.680081,1.392475,3.708064,2.802967,-1.000762,-2.401652,2.09204,1.9082],
[3.546435,3.02843,0.7463084,1.299634,2.373403,-1.073467,-1.630317,-2.120526,-2.803333,2.837245,-2.343646,-0.8546166,2.755201,3.583991,0.8886918,2.384834,-0.2505224,-1.050875,1.276949,0.889069,1.798916,-0.6056678,1.808946,3.277479,-1.238712,-0.8746363,0.1513956,-0.2924927,0.1863657,3.176889,0.6104108,-3.766184,-1.647389],
[1.633412,0.3694827,-1.125067,0.9994507,-1.170412,3.34509,-3.62352,-2.377882,-3.094718,0.2868547,-2.693098,2.350563,-3.570739,-1.174826,-2.567138,2.180606,1.002875,0.1864255,-3.321806,-3.52437,-3.309825,1.58994,2.837477,3.331109,0.5847445,2.725543,1.256442,-2.854423,2.516593,-2.950307,-3.520356,2.405277,-3.827008],
[-1.813381,-2.383487,-3.745777,-3.592551,-0.04385284,-0.1975768,2.136276,-1.648504,0.4086452,2.440805,1.461126,1.684721,2.143282,1.840325,0.935023,-3.227005,3.020901,1.189024,3.003607,1.058537,2.041626,-2.916391,-3.745689,1.283554,0.8458161,-3.862566,2.955951,-0.5644535,-3.743573,0.2547611,1.758238,0.3850458,-2.131809],
[-1.29947,-2.750117,2.525922,-2.62627,-1.4013,0.7169554,-3.588225,-0.924465,-2.977318,2.422698,0.4286259,3.201174,2.142412,2.116869,-0.4210773,-2.346991,-1.570068,-1.70225,3.570404,2.652789,2.495618,3.417913,3.043341,-3.36992,-3.443073,-0.7106277,-0.9658592,-2.205006,-3.227089,2.785896,-3.351722,-1.328836,-0.1021626],
[-3.275821,-1.424419,3.652834,1.12136,-3.568351,-3.551361,0.9858004,2.052892,-1.582993,0.1674339,-0.2546599,-1.391929,-2.130518,3.500358,-3.2205,-1.692387,3.136261,-2.829926,-0.7036709,-3.278,1.742687,-2.320138,2.626446,1.712282,-3.226329,2.259277,2.479914,1.901478,-0.4928436,-0.06459174,0.1271919,2.953915,1.08663],
[-1.153335,0.7061491,-3.887921,0.8126408,0.03627349,0.219359,2.113353,-0.8402264,-2.860717,-3.152723,0.5281037,-1.747911,0.2932828,3.80298,-2.368696,-0.5188714,2.875316,-3.143676,-1.242708,3.271693,-0.1456939,-0.2774561,2.229975,3.793952,-1.980974,-1.644858,-3.089609,1.918524,3.969746,-2.57482,-1.681693,3.849306,0.4034548],
[-3.188526,-2.248409,-1.544929,-2.957902,2.658207,-3.249436,-0.6456081,3.208447,-0.4600753,-2.414497,-2.712591,0.8689626,3.781176,0.9157898,3.45268,-0.8970637,-1.945434,0.9780577,-0.9384119,3.705587,-1.011888,-0.7971949,3.986314,-3.388961,2.005343,2.888745,-2.792872,-0.3559009,-0.6318091,2.785386,-2.243278,3.889288,-2.991208],
[-1.354484,-2.503075,-3.225065,-3.442488,1.559933,-2.845613,-2.684717,2.064285,3.547187,-3.061754,-1.148638,-0.08847141,-0.5194587,-0.4155709,0.8070552,1.52881,-1.897297,0.9168575,3.14032,3.846244,-2.037808,-1.220156,1.865629,1.569641,-1.717847,1.955694,-1.573821,-0.697803,-1.666902,2.609694,0.1921077,1.58631,0.7955171],
[-2.767762,-1.317938,-3.781333,-2.815278,-0.5075952,-0.8814344,1.810884,-3.456177,-0.7550552,-3.605923,-1.826075,-2.061518,2.872822,3.33867,-3.78354,1.924645,3.389534,0.3234122,-2.666236,2.070158,1.063005,1.243515,3.226917,2.667765,2.975721,1.042991,-3.433434,-2.225509,-0.5492423,-1.660754,1.80429,1.959724,2.839882],
[2.706905,-3.340784,3.69901,-1.091406,2.614674,-1.397229,-0.03016503,-1.324513,-0.03534789,-1.170496,-0.9059336,2.964713,3.588988,-1.633072,-3.254948,-0.8986922,-3.056149,1.458048,2.143739,-2.569768,-1.828555,0.1193294,0.9849841,3.125347,2.488428,3.299223,3.223363,1.662599,1.733703,-1.148454,1.822393,-1.826807,0.8717627],
[-1.215261,-0.4349076,-1.477935,2.577361,-2.682204,-1.41671,-1.38095,-0.9844347,3.225328,-0.8922176,3.437888,-1.787716,-2.814992,-2.694309,-2.422761,-3.62887,1.714474,-1.54107,-1.058947,-3.021641,-3.703758,-3.788951,1.914179,-0.8870986,-1.02403,-1.842648,2.636376,-1.564385,-2.305373,-1.8886,2.649388,1.42381,0.7434541],
[-3.048082,2.750524,-0.7952363,1.066196,2.117516,0.6811419,0.3979667,0.9726241,1.851057,3.35531,-3.419616,2.213625,0.7286788,-3.585553,1.843419,-0.2280676,0.7368672,-1.749986,0.9253891,-2.114657,0.1317808,-0.01388523,2.666774,-3.891722,-2.875597,1.072904,3.853929,-2.918626,0.308079,1.008538,0.6305817,0.2982469,3.574003],
[-2.698882,3.755827,-0.9364709,-3.90302,-0.2405825,-3.142948,-3.654679,-3.721637,-0.955132,-1.770544,-2.184836,-2.224926,-3.281909,1.320634,1.39585,2.826654,-1.417621,1.184395,-2.193019,-0.4251702,-0.5356716,1.71983,-0.1963876,-3.296879,1.52776,-0.3393653,2.296732,0.1337453,3.262456,-2.325286,-3.082102,2.766169,1.365373],
[-1.771871,3.987074,2.152174,2.414609,0.4818473,-2.87552,-2.070466,1.454046,2.880886,3.097726,0.2093596,3.351321,3.060414,1.341259,-1.696292,3.824291,0.3368181,0.7831529,0.3568347,-0.4610158,-1.923035,0.6536703,2.068864,-2.580198,0.008525044,2.240551,-1.030758,0.9258901,1.477135,2.600798,-2.137723,1.224119,-2.5237],
[1.650017,-2.842793,-0.1544479,-2.139048,0.2356767,0.6198199,-0.5895711,-0.5021799,-2.479454,3.876223,-3.020714,-2.497431,-1.846336,1.584485,3.011979,1.481413,-3.339035,-1.744227,1.490761,-3.836222,2.744961,0.5802348,-1.69559,-2.862745,-2.617577,-0.07301406,2.332752,-1.551901,3.454799,0.1778298,0.3013955,-0.6356819,-0.7104015],
[-1.696501,2.734206,3.367991,3.355302,-3.661028,-1.386517,1.488471,1.697475,0.31655,0.4252608,2.084189,-0.4918602,-3.264879,-1.85679,3.622812,-2.068679,-3.118362,1.958674,-1.94536,-0.2531775,1.624175,3.562413,1.286268,-2.615824,-3.64672,-0.8235731,-2.005204,-3.860834,-2.856117,3.004697,1.454546,-2.251295,-0.6437867],
[-0.9397758,2.829702,2.030802,1.252714,2.982727,-0.7208976,-2.663173,0.4183618,-3.257374,-0.1065968,-1.773162,3.248797,-3.725525,2.441938,3.28187,0.6338559,3.623187,0.8854861,3.65167,-0.8041914,1.446435,2.468985,-3.82457,-0.6626172,0.07532813,2.820242,-1.193486,-2.306724,0.2219725,2.325473,-0.2106185,0.5762606,-0.3849214],
[3.204993,-1.556897,2.960637,-2.892187,1.077405,-3.116344,-1.40449,0.4158233,-2.026544,3.650325,3.814142,0.1182113,-0.9652128,0.4800433,3.722195,3.83965,-3.490081,3.256654,-0.4188258,0.4924567,-0.5867748,3.413661,-0.07743467,-0.4007108,-1.912849,-2.759964,-0.4878019,-1.585592,-0.3869758,2.58715,-0.6696744,-2.599948,0.7418671],
[-2.334388,2.374596,3.74356,-2.311922,2.065704,1.555483,3.111179,-3.460526,-0.2435812,1.288473,1.683919,-1.399875,1.274215,3.559649,3.663235,2.234443,-3.3205,-2.817681,-2.973914,-3.9743,1.690626,-2.353957,2.030341,1.289877,-0.79391,2.866871,-0.1681979,0.2094382,-2.750685,1.390829,0.137502,-0.6190967,1.518002],
[-3.326902,-2.370794,-1.452988,-3.902163,-3.462518,-0.1965064,1.403558,2.377391,-1.339136,1.320468,-0.1879042,0.6075469,-2.353152,2.083266,-0.7868712,2.639562,3.981996,2.24737,-0.5052427,-1.62971,2.937987,3.988036,-3.035764,-2.951503,-2.287329,-0.07084865,2.242332,-2.286345,2.891152,1.88172,0.1525621,-0.3070109,-2.731305],
[2.932134,3.07038,-0.3007584,-1.005779,0.70824,3.329721,0.3355754,0.3354386,-2.84779,-0.03386816,-0.7730047,-3.054414,-2.228912,-0.7087597,-0.4915667,0.09609632,0.02123785,-2.0637,3.777639,-1.198134,2.014982,-2.135429,1.597497,3.726552,0.4418744,-2.338441,3.061485,3.867381,0.6371034,0.1639366,2.603297,2.318104,2.105624],
[3.724426,3.740457,2.7175,3.71246,2.557805,-2.796756,-0.7307519,-1.885355,0.01105642,-1.922933,-0.7293895,2.871067,2.668429,-3.432817,0.1905929,-0.8660559,2.267405,2.22776,-0.8317112,1.110935,-2.239463,2.990333,-0.042438,0.7563906,-0.8377777,-1.946809,-3.397995,-3.794512,2.358693,2.106722,-0.3231254,-0.3329199,-1.78784],
[-3.124646,3.682813,2.417453,-3.833483,3.996072,-0.7270651,-2.336851,1.95067,-0.500729,-3.256328,-3.422911,3.141979,-1.140386,2.857658,-3.194443,2.629446,0.5033113,1.34859,-3.022646,-1.323882,-2.228194,3.226808,-2.494618,-3.623796,0.2627268,1.70737,-2.9898,-2.062459,-3.270561,0.7661155,0.1469279,-3.939696,3.840764],
[3.546054,-2.998409,-2.046115,-2.777911,2.259732,1.798251,-2.634404,2.474675,0.5424936,3.796286,-1.168626,1.291454,-1.517066,-1.546274,2.662506,-0.2002966,1.016745,-2.976928,0.7019809,3.759878,2.423554,0.2638161,3.782849,2.130103,-1.865694,-1.77531,-2.897493,0.8687821,-0.9531994,0.7539672,-1.312244,3.400027,-3.466075],
[2.841047,0.5921577,2.123708,-2.606297,-0.5129061,1.959576,-3.380578,-2.864483,-2.66314,-1.597731,2.339998,2.944812,2.027485,-2.8284,1.034402,-1.821521,2.136493,1.912802,1.314716,3.867142,-1.762957,-3.921872,2.292564,2.105762,-1.543874,-2.057711,-2.979777,-1.67678,1.252949,-2.055784,2.477319,-2.884392,-0.5391072],
[-0.3668306,0.8185427,0.110546,-2.653599,-2.084217,0.5267931,0.7573102,2.529439,-0.04658766,1.273298,1.931495,3.033117,2.785817,-2.180557,0.291553,1.349873,1.666229,-2.562864,0.3851876,3.24967,-3.836228,1.653433,-1.083858,0.5493532,-2.38447,2.515512,-3.952095,-2.812862,-3.892748,-1.704995,1.434262,0.9978779,1.16168],
[2.89701,-1.076251,-0.8929972,2.451926,-1.114447,-2.162332,2.358451,-1.637284,-0.8994977,-1.251729,1.023621,-0.7177593,-3.132908,3.555273,3.540976,-1.158996,-0.3828903,0.7526857,2.605091,-3.891867,3.508429,3.535018,-3.519047,-0.3044143,2.795524,-2.324315,3.122119,-3.735629,-3.894412,-3.700169,-1.157791,-3.913662,-2.873259]
],
[
[2.946582,-3.593513,2.193508,-0.7160225,-0.6762667,-1.778782,0.9309523,0.4802006,0.4824035,1.554565,0.5415758,-0.1288415,-2.491148,-1.153957,0.9984686,1.364657,-0.6562461,0.03827967,-1.822117,3.816688,2.545344,0.7058429,2.219717,0.9918922,-3.190679,0.5071288,-3.14117,2.068289,-0.8234617,-1.535414,3.269938,3.866401,0.3221079],
[3.87439,-1.178426,1.332616,0.4879563,-0.8304896,-0.8697397,-3.696769,0.4557229,3.940516,2.810798,-1.065643,-0.8054987,3.01315,3.152075,1.565499,2.010329,-0.2321042,0.01911268,1.693803,-3.447806,2.495023,-1.937932,-1.952054,2.16549,0.2444624,1.452041,-1.988104,-1.537637,-3.111856,-0.03008038,-1.327397,2.993285,1.118225]
]
],
"biases":[
[
-0.004210655,-3.436096,0.3361756,-3.385372,-1.931718,0.1869369,-0.3679451,0.6207185,2.055725,0.7336873,2.829679,-3.324663,-3.716177,-0.9122068,-0.1263258,-1.586707,3.348677,-3.003479,-2.713309,-3.255197,-1.983596,-2.719475,2.777702,3.649604,0.682179,-0.3675023,1.979543,-1.785414,-0.926236,-0.3737648,2.565713,2.827713,0.7961598
],
[
0.688612,-1.713373
]
]},
{
"fitness":19.55115,
"weights":[
[
[-3.851475,-2.875808,-2.144767,-2.696937,-3.840883,-1.972085,3.04741,1.218845,-1.932426,-3.077334,0.2647265,-3.086865,-1.578066,3.110282,3.222561,0.1255745,0.1097404,-3.941135,0.7113575,-3.321349,-2.360805,-1.023563,2.633994,-2.774112,1.070742,1.217456,-1.101236,-0.14051,2.301049,-0.9414376,2.343025,-2.534022,-0.6774846],
[-1.71582,-1.449701,0.06041431,2.147177,-0.6800516,-3.710451,-0.9621251,-0.2307653,3.253474,2.578684,0.4550842,0.158921,1.26924,0.8685908,-3.362031,0.3046208,0.80181,1.955827,-3.056019,-0.7041674,0.108242,1.042646,-2.462207,3.583609,-0.6240649,-3.336303,-1.376732,2.71244,2.008596,0.8650296,1.757319,-1.263912,-0.3976458],
[3.141703,-1.461472,-3.44813,-0.04194372,-3.214602,3.524132,-1.757669,3.620896,-3.524,3.026172,-2.402684,0.08992094,0.5511064,-2.720726,-1.125916,-2.695992,-3.100772,3.258704,1.916522,3.110306,2.91264,-3.796095,3.33983,-1.012549,0.1311176,-0.5644074,-2.305581,-1.47485,3.838071,-1.289716,0.01633436,2.45638,1.858041],
[-3.490097,-1.738556,1.784473,3.133038,1.361151,1.927206,3.546773,-2.456433,3.150026,-0.3651536,-0.5344608,0.1672183,3.34563,0.3367074,1.888044,-3.115545,3.074759,-2.086679,2.367616,1.31781,1.009177,-2.849997,-0.5508719,2.684742,3.837697,-0.4179822,-1.351564,3.585114,-2.231875,0.83412,2.594339,0.2970589,-2.286979],
[2.062675,2.582702,-2.897664,0.202086,-0.9611304,-1.086675,-1.893487,-3.95515,-3.68312,1.582077,-0.1311461,-3.914371,0.8080451,1.088453,0.5736251,0.6396722,-2.215706,-0.8525163,3.771591,-0.5370978,3.777474,1.740186,-2.628852,-1.978902,-2.634524,0.954401,2.100263,-1.618917,-2.934002,-3.134121,1.404337,2.008632,-2.511472],
[-1.552318,1.111134,-3.313268,3.354479,3.31411,1.160386,3.8533,3.80648,1.915504,3.462551,0.4593928,2.207928,-3.787525,0.6201601,-2.5404,-0.7366666,2.187445,0.8656062,-0.8141493,-2.385607,-1.922136,1.225327,-3.417171,-3.380871,-3.464148,-1.680081,1.392475,3.708064,2.802967,-1.000762,-2.401652,2.09204,1.9082],
[3.546435,3.02843,0.7463084,1.299634,2.373403,-1.073467,-1.630317,-2.120526,-2.803333,2.837245,-2.343646,-0.8546166,2.755201,3.401764,0.8886918,2.384834,-0.2505224,-1.050875,1.276949,0.889069,1.798916,-0.6056678,1.808946,3.277479,-1.238712,-0.8746363,0.1513956,-0.2924927,0.1863657,3.176889,0.6104108,-3.766184,-1.647389],
[-0.4796461,0.3694827,-1.125067,0.9994507,-1.170412,3.34509,-3.62352,-2.377882,-3.094718,0.2868547,-2.693098,2.350563,-3.570739,-1.174826,-2.567138,2.180606,1.002875,-1.345845,-3.321806,-3.52437,-3.309825,1.58994,2.837477,3.331109,0.5847445,2.725543,1.256442,-2.854423,2.516593,-2.950307,-3.520356,2.405277,-3.827008],
[-1.813381,-2.383487,-3.745777,-3.592551,-0.04385284,-0.1975768,2.136276,-1.648504,0.4086452,2.440805,1.461126,1.684721,2.143282,1.840325,0.935023,-3.227005,3.020901,1.189024,3.003607,1.058537,2.041626,1.283081,-3.745689,1.283554,0.8458161,2.063239,2.955951,-0.5644535,-3.743573,0.2547611,1.758238,0.3850458,-2.131809],
[-1.29947,-2.750117,2.525922,-2.62627,-1.4013,0.7169554,-3.588225,-0.924465,-2.977318,2.422698,0.4286259,3.201174,2.142412,2.116869,-0.4210773,-2.346991,3.951384,-1.70225,3.570404,2.652789,2.495618,3.417913,3.043341,-3.868765,-3.443073,-0.7106277,-0.9658592,-2.205006,-3.227089,2.785896,-3.351722,-1.328836,-0.1021626],
[-3.275821,-1.424419,0.8165204,1.12136,3.198732,-3.551361,0.9858004,2.052892,-1.582993,0.1674339,-0.2546599,-1.391929,-2.130518,-0.5260503,-3.2205,-1.692387,3.136261,-2.829926,-0.7036709,-3.278,1.742687,-2.320138,2.626446,1.712282,-3.226329,2.259277,2.479914,1.901478,-0.4928436,-0.06459174,0.1271919,2.953915,1.08663],
[-1.153335,0.7061491,-3.887921,0.8126408,0.03627349,0.4930343,2.113353,2.432855,-2.860717,-3.152723,-1.185555,-1.747911,0.2932828,3.80298,-2.368696,-0.5188714,2.875316,-3.143676,-1.242708,3.271693,-0.1456939,-0.2774561,2.229975,3.793952,-1.980974,-1.644858,-3.089609,1.918524,3.969746,-2.57482,-1.681693,3.849306,0.4034548],
[2.772419,1.145168,-1.544929,-2.957902,2.658207,-3.249436,-0.6456081,3.208447,-0.4600753,-2.414497,-3.05679,0.8689626,3.781176,0.9157898,3.45268,-0.8970637,-1.945434,0.9780577,-0.9384119,3.705587,-1.011888,-0.7971949,0.8040553,-3.388961,2.005343,2.888745,-2.792872,-0.3559009,-0.6318091,2.785386,-2.243278,3.889288,-2.991208],
[-1.354484,-2.503075,-3.225065,-3.442488,1.559933,-2.845613,-2.684717,2.064285,3.547187,-3.061754,-1.148638,-0.08847141,-0.4857624,-0.4155709,0.8070552,1.52881,-1.897297,0.9168575,3.300301,3.846244,-2.037808,2.577531,1.865629,1.569641,-1.717847,1.955694,-1.573821,-0.697803,-1.666902,2.609694,0.1921077,1.58631,0.7955171],
[-2.767762,-1.317938,-3.781333,-2.815278,-0.5075952,-0.8814344,1.810884,-3.456177,-0.7550552,-3.605923,-1.826075,-2.061518,2.872822,3.33867,-3.78354,1.924645,3.389534,0.3234122,-1.430263,0.2567124,1.063005,1.243515,3.226917,2.667765,2.975721,1.042991,-3.433434,-2.225509,-0.5492423,-1.660754,1.80429,1.959724,2.839882],
[2.706905,-3.340784,3.69901,-1.091406,2.614674,-1.397229,-0.03016503,-1.324513,-0.03534789,-2.467412,-0.9059336,2.964713,3.588988,-1.633072,-3.254948,-0.8986922,-3.056149,1.458048,2.143739,-2.569768,-1.828555,0.1193294,0.1188044,3.125347,2.488428,3.299223,3.223363,1.662599,1.733703,-1.148454,1.822393,-1.826807,0.8717627],
[-1.215261,-0.4349076,-1.477935,2.577361,-2.682204,-1.41671,-1.38095,-0.9844347,3.225328,-2.063284,3.437888,-1.787716,-2.814992,-2.694309,-2.422761,-3.62887,1.714474,-1.54107,-1.058947,-3.021641,-3.703758,-3.788951,1.914179,-0.8870986,-1.02403,-1.842648,2.636376,-1.564385,-2.305373,-1.8886,2.649388,1.42381,0.7434541],
[-3.048082,2.750524,-0.7952363,1.066196,2.117516,0.6811419,3.293671,0.9726241,1.851057,3.35531,-3.419616,2.213625,0.7286788,-3.585553,1.843419,-0.2280676,0.7368672,-1.749986,-2.53644,-2.114657,0.1317808,3.417295,2.666774,-3.891722,-2.875597,1.072904,3.853929,-2.918626,0.308079,1.008538,0.6305817,0.2982469,3.574003],
[-2.698882,3.755827,-0.9364709,-3.90302,-0.2405825,-3.142948,-3.654679,-3.721637,-0.955132,-1.770544,-2.184836,-2.224926,-3.281909,1.320634,1.39585,2.826654,-1.417621,1.184395,-2.193019,-0.4251702,-0.5356716,1.71983,-0.1963876,-3.296879,1.52776,-0.3393653,2.296732,1.488518,3.262456,-2.325286,0.169988,2.766169,1.365373],
[-1.771871,3.987074,2.152174,2.414609,0.4818473,-2.87552,-2.070466,1.454046,2.880886,3.097726,0.2093596,3.351321,3.060414,1.341259,-1.696292,3.824291,0.3368181,0.967101,0.3568347,-0.4610158,-1.923035,0.6536703,2.068864,-2.580198,0.008525044,2.240551,-1.030758,0.9258901,1.477135,2.600798,-2.137723,1.224119,-2.5237],
[1.650017,-2.842793,-0.1544479,-2.139048,0.2356767,0.6198199,-0.5895711,-0.5021799,-2.479454,3.876223,-3.020714,-2.497431,-1.846336,1.584485,3.011979,1.481413,-3.339035,-1.744227,1.490761,-3.836222,2.744961,0.5802348,-1.69559,-2.862745,-2.617577,-0.07301406,2.332752,-1.551901,3.454799,0.1778298,0.3013955,-0.6356819,-0.7104015],
[-1.696501,2.734206,3.367991,3.355302,-3.661028,-1.386517,1.488471,1.697475,0.31655,0.4252608,2.084189,-0.4918602,-3.264879,-1.85679,3.622812,-2.068679,-3.118362,1.958674,-1.94536,-0.2531775,-0.5868995,3.562413,1.286268,3.082662,-3.64672,-0.8235731,-2.005204,-3.860834,-2.856117,3.004697,1.454546,-2.251295,-0.6437867],
[-0.9397758,2.829702,2.030802,1.252714,0.1295096,-0.7208976,-2.663173,0.4183618,-3.257374,-3.660795,-1.773162,-2.062576,-3.725525,2.441938,3.28187,0.6338559,3.623187,0.8854861,3.65167,-0.8041914,1.446435,2.468985,-3.82457,-0.6626172,0.07532813,2.820242,-1.193486,-2.306724,0.2219725,2.325473,-0.2106185,0.5762606,-0.3849214],
[3.204993,-1.556897,2.960637,-2.892187,1.077405,-3.116344,-1.40449,0.4158233,-2.026544,3.650325,3.814142,0.1182113,-0.9652128,0.4800433,3.722195,3.83965,-3.490081,3.256654,-0.4188258,0.4924567,-0.5867748,3.413661,-0.07743467,-0.4007108,-2.815075,-2.759964,-0.4878019,-1.585592,-0.3869758,2.58715,-0.6696744,-2.599948,0.7418671],
[-2.837636,2.374596,3.74356,-2.311922,2.065704,1.555483,3.111179,-3.460526,-0.2435812,1.288473,1.683919,-1.399875,1.274215,3.559649,3.663235,2.234443,-3.3205,-2.817681,-2.973914,-3.9743,1.690626,-2.353957,2.030341,1.289877,-0.79391,2.866871,-0.1681979,0.2094382,-2.750685,1.390829,0.137502,-0.6190967,1.518002],
[-3.326902,-2.370794,-1.452988,-3.902163,-3.462518,-0.1965064,1.403558,2.377391,-1.339136,1.320468,-0.1879042,0.6075469,-2.353152,2.083266,-0.7868712,2.639562,3.981996,2.24737,-0.5052427,-1.62971,2.937987,3.988036,-3.035764,-2.951503,-2.287329,-0.07084865,2.242332,-2.286345,2.891152,1.88172,-3.440233,-0.3070109,-2.731305],
[2.932134,3.07038,-0.3007584,-1.005779,0.70824,3.329721,0.3355754,3.505484,-2.84779,-0.03386816,-0.7730047,-3.054414,-2.228912,-0.7087597,-0.4915667,0.09609632,0.02123785,-2.0637,3.777639,-1.198134,2.014982,-2.135429,1.597497,3.726552,0.4418744,-2.338441,3.061485,3.867381,0.6371034,0.1639366,2.603297,2.318104,2.105624],
[3.724426,3.740457,2.7175,3.71246,2.557805,-2.796756,-0.7307519,-0.1906385,0.01105642,-1.922933,-0.7293895,2.871067,2.668429,-3.432817,0.1905929,-0.8660559,2.267405,2.22776,-0.8317112,1.110935,-2.239463,2.990333,-0.042438,0.7563906,-0.8377777,-1.946809,-3.397995,-3.794512,2.358693,2.106722,-0.3231254,-0.3329199,-1.78784],
[-3.124646,3.682813,2.417453,-3.833483,3.996072,-0.7270651,-2.336851,1.95067,-0.500729,-3.256328,-3.422911,3.141979,-1.140386,2.857658,-3.194443,-2.078734,0.5033113,1.34859,-3.022646,-1.323882,-2.228194,3.226808,-2.494618,-3.623796,0.2627268,1.70737,-2.9898,-2.062459,-3.270561,2.926581,0.1469279,-3.939696,3.840764],
[3.546054,-2.998409,-2.046115,-2.777911,2.259732,1.798251,-2.634404,2.474675,0.5424936,3.796286,-1.168626,1.291454,-1.517066,-1.546274,2.662506,-0.2002966,1.016745,-2.976928,0.7019809,3.759878,2.423554,1.790387,3.782849,2.130103,-1.865694,-1.77531,-1.242644,0.8687821,-0.9531994,0.7539672,-1.312244,3.400027,-3.466075],
[2.841047,0.5921577,2.123708,-2.606297,-0.5129061,1.959576,-3.380578,-2.864483,-2.66314,-1.597731,2.339998,2.944812,2.027485,-2.8284,1.034402,-1.821521,2.136493,1.912802,1.314716,3.867142,-1.762957,-3.921872,2.292564,2.105762,-1.543874,-2.057711,-2.979777,-1.67678,1.252949,-2.055784,2.477319,-2.884392,-0.5391072],
[-0.3668306,-0.5998039,3.596488,-2.653599,-2.084217,0.5267931,0.7573102,2.529439,-0.04658766,1.273298,1.931495,2.384994,2.649027,-2.180557,0.291553,1.349873,1.666229,-2.562864,0.3851876,1.521303,-3.836228,1.190583,-0.2151601,0.5493532,-2.38447,2.515512,-3.952095,-2.812862,-3.892748,-1.704995,1.508465,0.9978779,1.16168],
[2.89701,0.2845294,-1.116634,2.451926,-1.114447,-2.20763,2.358451,-2.402035,-0.8994977,-1.251729,1.023621,-0.7177593,-3.132908,-2.056819,3.540976,-1.158996,-0.3828903,0.7526857,2.605091,-3.891867,3.508429,3.535018,-3.519047,3.363234,2.795524,-2.324315,2.057093,-3.735629,-3.894412,-3.700169,-1.157791,-3.913662,-2.873259]
],
[
[2.946582,-3.593513,2.193508,-0.7160225,-0.6762667,-1.778782,0.9309523,0.4802006,0.4824035,1.554565,0.5415758,-0.1288415,-2.491148,-1.153957,0.9984686,1.364657,-0.6562461,0.03827967,-1.822117,3.816688,2.545344,0.7058429,2.219717,0.9918922,-3.190679,0.5071288,-3.14117,2.068289,-0.8234617,-1.535414,3.269938,3.866401,0.3221079],
[3.87439,-1.178426,1.332616,0.4879563,-0.8304896,-0.8697397,-3.696769,0.4557229,3.940516,2.810798,-1.065643,-0.8054987,3.01315,3.152075,1.565499,2.010329,-0.2321042,0.01911268,1.693803,-3.447806,2.495023,-3.748961,-1.952054,2.16549,0.2444624,1.452041,-1.988104,-1.537637,-3.111856,-0.03008038,2.208693,2.993285,1.118225]
]
],
"biases":[
[
-0.004210655,-3.436096,0.3361756,-3.385372,-1.931718,0.1869369,-0.3679451,0.6207185,2.055725,0.7336873,2.829679,-3.324663,-3.716177,-0.9122068,-0.1263258,-1.586707,3.348677,-3.003479,-2.713309,-3.255197,-1.983596,-2.719475,2.777702,3.649604,0.682179,-0.3675023,1.979543,-1.785414,2.667447,-0.3737648,2.565713,2.827713,0.7961598
],
[
-2.181983,-1.713373
]
]},
{
"fitness":19.46679,
"weights":[
[
[-3.851475,-2.875808,-2.144767,-2.696937,-3.840883,-1.972085,3.04741,1.218845,-1.932426,-3.077334,0.2647265,-3.086865,2.89114,3.110282,3.222561,-0.2985889,0.1097404,-3.454693,0.03806201,-3.219891,-2.360805,-1.023563,-1.150079,-2.774112,1.070742,1.217456,-1.101236,-0.14051,2.301049,-0.9414376,2.343025,-2.534022,-0.6774846],
[-1.71582,-1.449701,0.06041431,2.147177,-0.6800516,-3.710451,2.064329,-0.2307653,3.253474,2.578684,0.4550842,0.158921,1.26924,0.8685908,-3.362031,0.3046208,0.80181,1.955827,-3.056019,-0.7041674,0.108242,1.042646,-2.462207,3.583609,-0.6240649,-3.336303,-1.376732,2.71244,2.008596,0.8650296,1.757319,-1.263912,-0.3976458],
[3.141703,-1.461472,-3.44813,-2.045078,0.6452991,3.524132,-1.757669,3.620896,-3.524,3.026172,-2.402684,0.08992094,0.5511064,-2.720726,-1.125916,2.469089,-3.100772,3.258704,1.916522,3.110306,2.91264,-3.796095,3.33983,-1.012549,0.1311176,-0.5644074,-2.305581,-1.47485,3.838071,-1.289716,0.01633436,2.45638,1.858041],
[-3.490097,-1.738556,1.784473,3.133038,1.361151,1.927206,3.546773,-2.456433,3.150026,-0.3651536,-0.5344608,0.1672183,3.34563,0.3367074,1.888044,-3.115545,3.074759,-2.086679,2.367616,1.31781,1.009177,-2.849997,-0.5508719,2.684742,3.837697,-0.4179822,-1.351564,3.585114,-2.231875,0.83412,2.594339,0.2970589,-2.286979],
[2.062675,2.582702,-2.897664,0.202086,-0.9611304,-1.086675,-1.893487,-3.95515,-3.68312,0.6131342,-0.1311461,-3.914371,0.8080451,1.088453,0.5736251,0.6396722,3.240174,-0.8525163,3.771591,-0.5370978,3.777474,1.740186,-2.628852,-1.978902,-2.634524,0.954401,2.100263,-1.618917,-2.934002,-3.134121,1.404337,2.008632,-2.511472],
[-1.552318,1.111134,1.362934,3.354479,3.31411,1.160386,3.8533,3.80648,1.915504,3.462551,2.634498,2.207928,-3.787525,0.6201601,-2.5404,-0.7366666,2.187445,0.2025428,-0.8141493,-2.385607,-1.922136,1.225327,-3.417171,-3.380871,-3.464148,-1.680081,1.392475,3.708064,2.802967,-1.000762,-2.401652,2.09204,1.9082],
[3.546435,3.02843,0.7463084,1.299634,2.373403,-1.073467,-1.630317,-2.120526,-2.803333,2.837245,-2.480105,-0.8546166,2.755201,3.583991,0.8886918,2.384834,-0.2505224,-1.050875,1.276949,0.889069,1.798916,-0.6056678,1.808946,3.277479,-1.238712,-0.8746363,0.1513956,-0.2924927,0.1863657,3.176889,0.6104108,-3.766184,-1.647389],
[1.633412,0.3694827,-1.125067,0.9994507,-1.170412,3.34509,-3.62352,-2.377882,-3.094718,0.2868547,-2.693098,2.350563,-3.570739,-1.174826,-2.567138,2.180606,1.002875,-1.345845,-3.321806,-3.52437,-3.309825,1.58994,2.837477,3.331109,0.5847445,2.725543,1.256442,-2.854423,2.516593,-2.950307,-3.520356,2.405277,-3.827008],
[-1.813381,-2.383487,-3.745777,-3.592551,-0.04385284,-0.1975768,2.136276,-1.648504,-2.382398,2.440805,1.461126,1.684721,2.143282,1.840325,0.935023,-3.227005,3.020901,1.189024,3.003607,1.058537,2.041626,-2.916391,-3.745689,1.283554,0.8458161,-3.862566,2.955951,-0.5644535,-3.743573,0.2547611,1.758238,0.3850458,-2.131809],
[-1.29947,-2.750117,2.525922,-2.62627,-1.4013,0.7169554,-3.588225,-0.924465,-2.977318,2.422698,0.4286259,3.201174,2.142412,2.116869,-0.4210773,-2.346991,3.951384,-1.70225,3.570404,2.652789,2.495618,3.417913,3.043341,-3.36992,-3.443073,-0.7106277,-3.748668,-2.205006,-3.227089,2.785896,-3.351722,-1.328836,-0.1021626],
[-3.275821,-1.424419,3.652834,1.12136,-3.568351,-3.551361,0.9858004,2.052892,-1.582993,0.1674339,-0.2546599,-1.391929,-2.130518,3.500358,-3.2205,-1.692387,3.136261,-2.829926,-0.7036709,-3.278,1.742687,-2.320138,2.626446,1.712282,-3.226329,2.259277,2.479914,1.901478,-0.4928436,-0.06459174,0.1271919,-2.139418,1.08663],
[3.686306,0.7061491,-3.887921,0.8126408,0.03627349,0.219359,2.113353,2.432855,-2.860717,-3.152723,0.5281037,-1.747911,0.2932828,3.80298,-2.368696,-0.5188714,2.875316,-3.143676,-1.242708,3.271693,-0.1456939,-0.2774561,2.229975,3.793952,-1.980974,-1.644858,-3.089609,1.918524,3.969746,-2.57482,-1.681693,3.849306,0.4034548],
[-3.188526,-2.248409,-1.544929,-2.957902,2.658207,-3.249436,-0.6456081,3.208447,-0.4600753,-2.414497,-2.712591,0.8689626,-2.070516,0.9157898,3.45268,-0.8970637,-1.945434,0.9780577,-0.9384119,3.705587,-1.011888,-0.7971949,0.8040553,-3.388961,2.005343,2.888745,-2.792872,-0.3559009,-0.6318091,2.785386,-2.243278,3.889288,-2.991208],
[-1.354484,-2.503075,-3.225065,-3.442488,1.559933,-2.845613,-2.684717,2.064285,3.547187,-3.061754,-1.148638,-0.08847141,-0.5194587,-0.4155709,0.8070552,1.52881,-1.897297,0.9168575,3.14032,3.846244,-2.037808,-1.220156,1.865629,1.569641,-1.717847,1.955694,-1.573821,-0.697803,-1.666902,2.609694,0.1921077,1.58631,0.7955171],
[-2.767762,-1.317938,-3.781333,-2.815278,-0.5075952,-0.8814344,1.810884,-3.456177,-0.7550552,-3.605923,-1.826075,-2.061518,2.872822,3.33867,-3.78354,1.924645,3.389534,0.3234122,-2.666236,2.070158,1.063005,1.243515,3.226917,2.667765,2.975721,1.042991,-3.433434,-2.225509,-0.5492423,-1.660754,1.80429,1.959724,2.839882],
[2.706905,-3.340784,3.69901,-1.091406,2.614674,-1.397229,-0.03016503,-1.324513,-0.03534789,-1.170496,-0.9059336,2.964713,3.588988,-1.633072,-3.254948,-0.8986922,-3.056149,1.458048,2.143739,-2.569768,-1.828555,0.1193294,-3.933676,3.125347,2.488428,3.299223,3.223363,1.662599,1.733703,-1.148454,1.822393,-1.826807,0.8717627],
[-1.215261,-0.4349076,-1.477935,2.577361,-2.682204,-1.41671,-1.38095,-0.9844347,3.225328,-2.063284,3.437888,-1.787716,-2.814992,-2.694309,-2.422761,-3.62887,1.714474,-1.54107,-1.058947,-3.021641,-3.703758,-3.788951,1.914179,-0.8870986,-1.02403,-1.842648,2.636376,-1.564385,-2.305373,-1.8886,2.649388,1.42381,0.7434541],
[-3.048082,2.750524,-0.7952363,1.066196,2.117516,0.6811419,0.3979667,0.9726241,1.851057,3.35531,-3.419616,2.213625,0.7286788,-3.585553,1.843419,-0.2280676,0.7368672,-1.749986,-1.181173,-2.114657,0.1317808,3.417295,2.666774,-3.891722,-2.875597,1.072904,3.853929,-2.918626,0.308079,1.008538,0.6305817,0.2982469,-0.5302484],
[-2.698882,3.755827,-0.9364709,-3.90302,-0.2405825,-3.142948,-3.654679,-3.721637,-0.955132,-1.770544,-2.184836,-2.224926,-3.281909,1.320634,1.39585,2.826654,-1.417621,1.184395,-2.193019,-0.4251702,-0.5356716,1.71983,-0.1963876,-3.296879,1.52776,-0.3393653,2.296732,0.1337453,3.262456,-2.325286,-3.082102,2.766169,1.365373],
[-1.771871,3.987074,2.152174,2.414609,0.4818473,-2.87552,-2.070466,1.454046,2.880886,3.097726,0.2093596,3.351321,3.060414,1.341259,-1.696292,3.824291,0.3368181,0.7831529,0.3568347,-0.4610158,-1.923035,0.6536703,2.068864,-2.580198,0.008525044,2.240551,-1.030758,0.9258901,1.477135,2.600798,-2.137723,1.224119,-2.5237],
[1.650017,-2.842793,-0.1544479,-2.139048,0.2356767,0.6198199,-0.5895711,-0.5021799,-2.479454,3.876223,-3.020714,-2.497431,-1.846336,1.584485,3.011979,1.481413,-3.339035,-1.744227,1.490761,-3.836222,2.744961,0.5802348,-1.69559,-2.862745,-2.617577,-0.07301406,2.332752,-1.551901,3.454799,0.1778298,0.3013955,-0.6356819,-0.7104015],
[-1.696501,2.734206,3.367991,3.355302,-3.661028,-1.386517,1.488471,1.697475,0.31655,0.4252608,2.084189,-0.4918602,-3.264879,-1.85679,3.622812,-2.068679,-3.118362,1.958674,-1.94536,-0.2531775,-0.5868995,3.562413,1.286268,-2.615824,-3.64672,-0.8235731,-2.005204,-3.860834,-2.856117,3.004697,1.454546,-2.251295,-0.6437867],
[-0.9397758,2.829702,2.030802,1.252714,2.982727,-0.7208976,-2.663173,0.4183618,-3.257374,-0.1065968,-1.773162,3.248797,-3.725525,2.441938,3.28187,0.6338559,3.623187,0.8854861,3.65167,-0.8041914,1.446435,2.468985,-3.82457,-0.6626172,0.07532813,2.820242,-1.193486,-2.306724,0.2219725,2.325473,-0.2106185,0.5762606,-0.3849214],
[3.204993,-1.556897,2.960637,-2.892187,1.077405,-3.116344,-1.40449,0.4158233,-2.026544,3.650325,3.814142,0.1182113,-0.9652128,0.4800433,3.722195,3.83965,-3.490081,3.256654,-0.4188258,0.4924567,-0.5867748,3.413661,-0.07743467,-0.4007108,-1.912849,-2.759964,-0.4878019,-1.585592,-0.3869758,2.58715,-0.6696744,-2.599948,0.7418671],
[0.8091602,2.374596,3.74356,-2.311922,2.065704,1.555483,3.111179,-3.460526,-0.2435812,1.288473,1.683919,-1.399875,1.274215,3.559649,3.663235,2.234443,-3.3205,-2.817681,-2.973914,-3.9743,1.690626,-2.353957,2.030341,1.289877,-0.79391,2.866871,-0.1681979,0.2094382,-2.750685,1.390829,0.137502,-0.6190967,1.518002],
[-3.326902,-2.370794,-1.452988,-3.902163,-3.462518,-0.1965064,1.403558,2.377391,-1.339136,1.320468,-0.1879042,0.6075469,-2.353152,2.083266,-0.7868712,2.639562,3.981996,2.24737,-0.5052427,-1.62971,2.937987,3.988036,-3.035764,-2.951503,-2.287329,-0.07084865,2.242332,-2.286345,2.891152,1.88172,0.1525621,-0.3070109,-2.731305],
[2.932134,3.07038,-0.3007584,-1.005779,0.70824,3.329721,0.3355754,0.3354386,-2.84779,-0.03386816,-0.7730047,-3.054414,-2.228912,-0.7087597,-0.4915667,0.09609632,0.02123785,-2.147922,3.777639,-1.198134,2.014982,-2.135429,1.597497,3.726552,0.4418744,-2.338441,3.061485,3.867381,0.6371034,0.1639366,2.603297,2.318104,2.105624],
[3.724426,3.740457,2.7175,3.71246,2.557805,-2.796756,-0.7307519,-0.1906385,0.01105642,-1.922933,-0.7293895,2.871067,2.668429,-3.432817,0.1905929,-0.8660559,2.267405,2.22776,-0.8317112,1.110935,-2.239463,2.990333,-0.042438,2.034533,-0.8377777,-1.946809,-3.397995,-3.794512,2.358693,2.106722,-0.3231254,-0.3329199,-1.78784],
[-3.124646,3.682813,2.417453,-3.833483,3.996072,-0.7270651,-2.336851,1.95067,-0.500729,-3.256328,-3.422911,3.141979,-1.140386,2.857658,-3.194443,2.629446,0.5033113,1.34859,-3.022646,-1.323882,-2.228194,3.226808,-2.494618,-3.623796,0.2627268,1.70737,-2.9898,-2.062459,-3.270561,0.7661155,0.1469279,-3.939696,3.840764],
[3.546054,-2.998409,-2.046115,-2.777911,2.259732,1.798251,-2.634404,2.474675,0.5424936,3.796286,-1.168626,1.291454,-1.517066,-1.546274,2.662506,-0.2002966,1.016745,-2.976928,0.7019809,3.759878,2.423554,0.2638161,3.782849,2.130103,-1.865694,-1.77531,-1.242644,0.8687821,-0.9531994,0.7539672,-1.312244,3.400027,-3.466075],
[2.841047,0.5921577,2.123708,-2.606297,-0.5129061,1.959576,-3.380578,-2.864483,-2.66314,-1.597731,2.339998,2.944812,2.027485,-2.8284,1.034402,-1.821521,2.136493,-1.148384,1.314716,3.867142,-1.762957,-3.921872,2.292564,2.105762,-1.543874,-2.057711,-2.979777,-1.67678,1.252949,-2.055784,2.477319,-2.884392,-0.5391072],
[-0.3668306,-0.5998039,0.110546,-2.653599,-2.084217,0.5267931,0.7573102,2.529439,-0.04658766,1.273298,1.931495,3.033117,2.649027,-2.180557,0.291553,1.349873,1.666229,-2.562864,0.3851876,3.24967,-3.836228,1.653433,-1.083858,0.5493532,-2.38447,2.515512,-3.952095,-2.812862,-3.892748,-1.704995,1.508465,0.9978779,1.16168],
[2.89701,-1.076251,-1.116634,2.451926,-1.114447,-2.162332,2.358451,-1.637284,-0.8994977,-1.251729,1.023621,-0.7177593,-3.132908,3.555273,3.540976,-1.158996,-0.3828903,0.7526857,2.605091,-3.891867,3.508429,3.535018,-3.519047,-0.3044143,2.795524,-2.324315,3.122119,-3.735629,-3.894412,-3.700169,-1.157791,-3.913662,-2.873259]
],
[
[2.946582,-3.593513,2.193508,-0.7160225,-0.6762667,-1.778782,0.9309523,0.4802006,0.4824035,1.554565,0.5415758,-0.1288415,-2.491148,-3.41893,0.9984686,1.364657,-0.6562461,0.03827967,-1.822117,3.816688,2.811145,0.7058429,2.219717,0.9918922,-3.190679,0.5071288,-3.14117,2.068289,-0.8234617,-1.535414,3.269938,3.866401,0.3221079],
[3.87439,-1.178426,1.332616,0.4879563,-0.8304896,-0.8697397,-3.696769,0.4557229,3.940516,2.810798,-1.065643,-0.8054987,3.01315,3.152075,1.565499,2.010329,-0.2321042,0.01911268,1.693803,-3.447806,2.495023,-1.937932,-1.952054,2.16549,0.2444624,1.452041,-1.988104,-1.537637,-3.111856,-0.03008038,-1.327397,2.993285,1.118225]
]
],
"biases":[
[
-0.004210655,-3.436096,0.3361756,-3.385372,-1.931718,0.1869369,-0.3679451,0.6207185,2.055725,0.7336873,2.829679,-3.324663,-3.716177,-0.9122068,-0.1263258,-1.586707,3.348677,-3.003479,-2.713309,-3.255197,-1.983596,-2.719475,2.777702,3.649604,0.682179,-0.3675023,1.979543,-1.785414,2.667447,-0.3737648,2.565713,2.827713,0.7961598
],
[
0.688612,2.11176
]
]},
{
"fitness":19.28497,
"weights":[
[
[-3.851475,-2.875808,-2.144767,-2.696937,-3.840883,-1.972085,3.04741,1.218845,-1.932426,-3.077334,0.2647265,-3.086865,2.89114,3.110282,3.222561,0.1255745,0.1097404,-3.454693,0.03806201,-3.321349,-2.360805,-1.023563,-1.150079,-2.774112,1.070742,1.217456,-1.101236,-0.14051,2.301049,-0.9414376,2.343025,-2.534022,-0.6774846],
[-1.71582,-1.449701,0.06041431,2.147177,-0.6800516,-3.710451,-0.9621251,-0.2307653,3.253474,2.578684,0.4550842,0.158921,1.26924,0.8685908,-3.362031,0.3046208,0.80181,1.955827,0.5755242,-0.7041674,0.108242,1.042646,-2.462207,3.583609,-0.6240649,-3.336303,1.688276,2.71244,2.008596,0.8650296,1.757319,-1.263912,-0.3976458],
[3.141703,-1.461472,-3.44813,-0.04194372,-3.214602,3.524132,-1.757669,3.620896,-3.524,3.026172,-2.402684,0.08992094,0.5511064,-2.720726,-1.125916,2.469089,-3.100772,3.258704,1.916522,3.110306,2.91264,-3.796095,3.33983,-1.012549,0.1311176,-0.5644074,-2.305581,-1.47485,3.838071,-1.289716,0.01633436,1.59636,1.858041],
[-3.490097,-1.738556,1.784473,3.133038,1.361151,1.927206,3.546773,-2.456433,3.150026,-0.3651536,-0.5344608,0.1672183,3.34563,0.3367074,1.888044,-3.115545,3.074759,-2.086679,2.367616,1.31781,1.009177,-2.849997,-0.5508719,2.684742,3.837697,-0.4179822,-1.351564,3.585114,-2.231875,0.83412,2.594339,0.2970589,-2.286979],
[2.062675,2.582702,-2.897664,0.202086,-0.9611304,-1.086675,-1.893487,-3.95515,-3.68312,1.582077,-0.1311461,-3.914371,0.8080451,1.088453,0.5736251,0.6396722,3.240174,-0.8525163,3.771591,-0.5370978,3.777474,1.740186,-2.628852,-1.978902,-2.634524,0.954401,2.100263,-1.618917,-2.934002,-3.134121,1.404337,-2.845259,-2.511472],
[-1.552318,1.111134,1.362934,3.354479,3.31411,1.160386,3.8533,3.80648,1.915504,3.462551,1.76553,2.207928,-3.787525,0.6201601,-2.5404,-0.7366666,2.187445,0.2025428,-0.8141493,-2.385607,-1.922136,1.225327,-3.417171,-3.380871,-3.464148,-1.680081,1.392475,3.708064,2.802967,-0.2435623,-2.401652,2.09204,1.9082],
[3.546435,3.02843,0.7463084,1.299634,2.373403,-1.073467,-1.630317,-2.120526,-2.803333,2.837245,-2.343646,-0.8546166,2.755201,3.583991,0.8886918,2.384834,-0.2505224,-1.050875,1.276949,0.889069,1.798916,-0.6056678,1.808946,3.277479,-1.238712,-0.8746363,0.1513956,-0.2924927,0.1863657,3.176889,0.6104108,-3.766184,-1.647389],
[1.633412,0.3694827,-1.125067,0.9994507,-1.170412,3.34509,-3.62352,-2.377882,-3.094718,0.2868547,-2.693098,2.350563,-3.570739,-1.174826,-2.567138,3.759874,1.002875,-1.345845,-3.321806,-3.52437,-3.309825,1.58994,2.837477,3.331109,0.5847445,2.725543,1.256442,-2.854423,2.516593,-2.950307,-3.520356,2.405277,-3.827008],
[-1.813381,-2.383487,-3.745777,-3.592551,-0.04385284,-0.1975768,2.136276,-1.648504,0.8702455,1.892417,1.461126,1.684721,2.143282,1.840325,0.935023,-3.227005,3.020901,1.189024,3.003607,1.058537,2.041626,-2.916391,-3.745689,1.283554,0.8458161,-3.862566,2.955951,-0.5644535,-3.743573,0.2547611,1.758238,0.3850458,-2.131809],
[-1.29947,-2.750117,2.525922,-2.62627,-1.4013,0.7169554,-3.588225,-0.924465,-2.977318,2.422698,0.4286259,3.201174,2.142412,2.116869,-0.4210773,-2.346991,3.951384,-1.70225,3.570404,2.652789,2.495618,3.417913,3.043341,-3.36992,-3.443073,1.644472,-0.9658592,-2.205006,-3.227089,2.785896,-0.01643836,-1.328836,-0.1021626],
[-3.275821,-1.424419,3.652834,1.12136,-3.568351,-3.551361,0.9858004,2.052892,-1.582993,0.1674339,-0.2546599,-1.391929,-2.130518,3.500358,-3.2205,-1.692387,3.136261,-2.829926,-0.7036709,-3.278,1.742687,-2.320138,2.626446,1.712282,-3.226329,2.259277,2.479914,1.901478,-0.4928436,-0.06459174,0.1271919,2.953915,1.08663],
[-1.153335,0.7061491,-3.887921,0.8126408,0.03627349,0.219359,2.113353,2.432855,-2.860717,-3.152723,0.5281037,-1.747911,0.2932828,3.80298,-2.368696,-0.5188714,2.875316,-3.143676,-1.242708,3.271693,-0.1456939,-0.2774561,2.229975,3.793952,-1.980974,-1.644858,-3.089609,1.918524,3.969746,-2.57482,-1.681693,3.849306,-3.206185],
[-3.188526,-2.248409,-1.544929,-2.957902,2.658207,-3.249436,-0.6456081,3.208447,-0.4600753,-2.414497,-2.712591,0.8689626,3.781176,0.9157898,3.45268,-0.8970637,-1.945434,0.9780577,-0.9384119,3.705587,-1.011888,-0.7971949,0.8040553,-3.388961,2.005343,2.888745,-2.792872,-3.972929,-0.6318091,2.785386,-2.243278,3.889288,-2.991208],
[-1.354484,-2.503075,-3.225065,-3.442488,1.559933,-2.845613,-2.684717,2.064285,3.547187,-3.061754,-1.148638,-0.08847141,-0.5194587,-0.4155709,0.8070552,1.52881,-1.897297,0.9168575,3.14032,3.846244,-2.037808,-1.220156,1.865629,1.569641,0.1810376,1.955694,-1.573821,-0.697803,-1.666902,2.609694,0.1921077,1.58631,0.7955171],
[-2.767762,-1.317938,-3.781333,-2.815278,-0.5075952,-0.8814344,1.810884,-3.456177,-0.7550552,-3.605923,-1.826075,-2.061518,2.872822,3.33867,-3.78354,1.924645,3.389534,0.3234122,-2.666236,2.070158,1.063005,1.243515,3.226917,2.667765,2.975721,1.042991,-3.433434,-2.225509,-0.5492423,-1.660754,-2.382296,1.959724,2.839882],
[2.706905,-3.340784,3.69901,-1.091406,2.614674,-1.397229,-0.03016503,-1.324513,-0.03534789,-1.170496,-2.36831,2.964713,3.588988,-1.633072,-3.254948,-0.8986922,-3.056149,1.458048,2.143739,-0.6951781,-1.828555,0.1193294,0.9849841,3.125347,2.488428,3.299223,3.223363,1.662599,1.733703,-1.148454,1.822393,-1.826807,0.8717627],
[-1.215261,-0.4349076,-1.477935,2.577361,-2.682204,-1.41671,-1.38095,-0.9844347,3.225328,-2.063284,3.437888,-1.787716,-2.814992,2.893689,-2.422761,-3.62887,1.714474,-1.54107,-1.058947,-3.021641,1.995553,-3.788951,1.914179,-0.8870986,-1.02403,-1.842648,2.636376,-1.564385,-2.305373,-1.8886,2.649388,1.42381,0.7434541],
[-3.048082,2.750524,-0.7952363,1.066196,2.117516,0.6811419,0.3979667,0.9726241,1.851057,3.35531,-3.419616,2.213625,0.7286788,-3.585553,1.843419,-0.2280676,2.687012,-1.749986,0.9253891,-2.114657,0.1317808,1.74596,3.871821,-3.891722,-2.875597,1.072904,3.853929,-2.918626,0.308079,1.008538,0.6305817,0.2982469,3.574003],
[-2.698882,3.755827,-0.9364709,-3.90302,-0.2405825,-3.142948,-3.654679,-3.721637,-0.955132,-1.770544,-2.184836,-2.224926,-3.281909,1.320634,1.39585,2.826654,-1.417621,1.184395,-2.193019,-0.4251702,-0.5356716,1.71983,-0.1963876,-3.296879,1.52776,-0.3393653,2.296732,0.1337453,3.262456,-2.325286,-3.082102,2.766169,1.365373],
[-1.771871,3.987074,2.152174,2.414609,0.4818473,-2.87552,-2.070466,1.454046,2.880886,3.097726,0.2093596,3.351321,3.060414,1.341259,-1.696292,3.824291,0.3368181,0.7831529,0.3568347,-0.4610158,-1.923035,-0.3739474,2.068864,3.006367,0.008525044,2.240551,-1.030758,0.9258901,1.477135,2.7421,-2.137723,1.224119,-2.5237],
[1.650017,-2.842793,-0.1544479,-2.139048,0.2356767,0.6198199,-0.5895711,-0.5021799,-2.479454,3.876223,-3.020714,-2.497431,-1.846336,1.584485,3.011979,1.481413,-3.339035,-1.744227,1.490761,-3.836222,2.744961,0.5802348,-1.69559,-2.862745,-2.617577,-0.07301406,2.332752,-1.551901,3.454799,0.1778298,0.3013955,-0.6356819,-0.7104015],
[-1.696501,2.734206,3.367991,3.355302,-3.661028,-1.386517,1.488471,1.697475,0.31655,0.4252608,2.084189,-0.4918602,-3.264879,-1.85679,3.622812,-2.068679,-3.118362,1.958674,-1.94536,-0.2531775,-0.5868995,3.562413,1.286268,-2.615824,-3.64672,-0.8235731,-2.005204,-3.860834,-2.856117,3.004697,1.454546,-2.251295,-0.6437867],
[-0.9397758,2.829702,2.030802,1.252714,2.982727,-0.7208976,-2.663173,0.4183618,-3.257374,-0.1065968,-1.773162,3.248797,-3.725525,2.441938,3.28187,0.6338559,3.623187,0.8854861,3.65167,-0.8041914,1.446435,2.468985,-3.82457,-0.6626172,0.07532813,2.820242,-1.193486,-2.306724,0.2219725,2.325473,-0.2106185,-3.591229,-0.3849214],
[3.204993,-1.556897,2.960637,-2.892187,1.077405,-3.116344,-1.40449,0.4158233,-2.026544,3.650325,3.814142,0.1182113,-0.9652128,0.4800433,3.722195,3.83965,-3.490081,3.256654,-0.4188258,0.4924567,-0.5867748,3.413661,-0.07743467,-0.4007108,-1.912849,-2.759964,-0.4878019,-1.585592,-0.3869758,2.58715,-0.6696744,-2.599948,0.7418671],
[0.8091602,2.374596,3.74356,-2.311922,2.065704,1.555483,3.111179,-3.460526,-0.2435812,1.288473,1.683919,-1.399875,1.274215,3.559649,3.663235,2.234443,-3.3205,-2.817681,-2.973914,-3.9743,1.690626,-2.353957,2.030341,1.289877,-0.79391,2.866871,-0.1681979,0.2094382,-2.750685,1.390829,0.137502,-0.6190967,1.518002],
[-3.326902,-2.370794,-1.452988,-3.902163,-3.462518,-0.1965064,1.403558,2.377391,-1.339136,1.320468,-0.1879042,0.6075469,-2.353152,2.083266,-0.7868712,2.639562,3.981996,2.24737,-0.5052427,-1.62971,2.937987,3.988036,-3.035764,-2.951503,-2.287329,-0.07084865,2.242332,-2.286345,2.891152,1.88172,0.1525621,-0.3070109,-2.731305],
[2.932134,3.07038,-0.3007584,-1.005779,0.70824,3.329721,0.3355754,0.3354386,-2.84779,-0.03386816,-3.319543,-3.054414,-2.228912,-0.7087597,-0.4915667,0.09609632,0.02123785,-2.0637,3.777639,-1.198134,2.014982,-2.135429,1.597497,3.726552,0.4418744,-2.338441,3.061485,3.867381,0.6371034,0.1639366,2.603297,2.318104,2.105624],
[3.724426,3.740457,2.7175,3.71246,2.557805,-2.796756,-0.7307519,1.741587,0.01105642,-1.922933,-0.7293895,2.871067,2.668429,-3.432817,0.1905929,-0.8660559,2.267405,2.22776,-0.8317112,1.110935,-2.239463,2.990333,-0.042438,0.7563906,-0.8377777,1.532049,-3.397995,-3.794512,2.358693,2.106722,-0.3231254,-0.3329199,-1.78784],
[-3.124646,3.682813,2.417453,-3.833483,3.996072,-0.7270651,-2.336851,1.95067,-0.500729,-2.687084,-3.422911,3.141979,-1.140386,2.857658,-3.194443,2.629446,0.5033113,1.34859,-3.022646,-1.323882,-2.228194,3.226808,-2.494618,-3.623796,0.2627268,1.70737,-2.9898,-2.062459,-3.270561,0.7661155,0.1469279,-3.939696,3.840764],
[3.546054,-0.8368231,-2.046115,-2.777911,2.259732,1.798251,-2.634404,2.474675,0.5424936,3.796286,-1.168626,1.291454,-1.517066,-1.546274,2.662506,-0.2002966,1.016745,-2.976928,0.7019809,3.759878,2.423554,0.2638161,3.782849,2.130103,-1.865694,-1.77531,-1.242644,-0.8628016,-0.9531994,0.7539672,-1.312244,3.400027,-3.466075],
[2.841047,0.5921577,2.123708,-2.606297,-0.5129061,1.959576,-3.380578,-2.864483,-2.66314,-1.597731,2.339998,2.944812,2.027485,-2.8284,1.034402,-1.821521,2.136493,1.912802,1.314716,3.867142,-1.762957,-3.921872,2.292564,2.105762,-1.543874,-2.057711,-2.979777,-1.67678,1.252949,-2.055784,2.477319,-2.884392,-0.5391072],
[-0.3668306,-0.5998039,0.110546,-2.653599,-2.084217,0.5267931,0.7573102,2.529439,-0.04658766,1.273298,1.931495,3.033117,2.649027,-2.180557,0.291553,1.349873,1.666229,-2.562864,0.3851876,3.24967,-3.836228,1.653433,-1.083858,0.5493532,-2.38447,2.515512,-3.952095,-2.812862,-3.892748,-1.704995,1.508465,0.9978779,1.16168],
[2.89701,-1.076251,-1.116634,2.451926,-1.114447,-2.162332,2.358451,-1.637284,-0.8994977,-1.251729,1.023621,-0.7177593,-3.132908,3.555273,3.540976,-1.158996,-0.3828903,0.7526857,2.605091,-3.891867,3.508429,3.535018,-0.4441103,0.2973008,2.795524,-2.324315,3.122119,-3.735629,-3.894412,-3.700169,-1.157791,-3.913662,-2.873259]
],
[
[2.946582,-3.593513,2.193508,-0.7160225,-0.6762667,-1.778782,0.9309523,0.4802006,0.4824035,1.554565,0.5415758,-0.1288415,-2.491148,-1.153957,0.9984686,1.364657,-0.6562461,0.03827967,-1.822117,3.816688,2.545344,0.7058429,2.219717,0.9918922,-3.190679,0.5071288,-3.14117,2.068289,-0.8234617,-1.535414,3.269938,3.866401,0.3221079],
[3.87439,-1.178426,1.332616,0.4879563,-0.8304896,-0.8697397,-3.696769,0.4557229,3.940516,2.810798,-1.065643,-0.8054987,3.01315,3.152075,1.565499,2.010329,-0.2321042,0.01911268,1.693803,-3.447806,2.495023,-1.937932,-1.952054,2.16549,0.2444624,1.452041,-1.988104,-1.537637,-3.111856,-0.03008038,-1.327397,2.993285,1.118225]
]
],
"biases":[
[
-0.004210655,-3.436096,0.3361756,-3.385372,-1.931718,0.1869369,-0.3679451,0.6207185,2.055725,0.7336873,2.829679,-3.324663,-3.716177,-0.9122068,-0.1263258,-1.586707,3.348677,-3.003479,-2.713309,-3.255197,-1.983596,-2.719475,2.777702,3.649604,0.682179,-0.3675023,1.979543,-1.785414,2.667447,-0.3737648,2.565713,2.827713,0.7961598
],
[
0.688612,-1.713373
]
]},
{
"fitness":18.82425,
"weights":[
[
[-3.851475,-2.875808,-2.144767,-2.696937,-3.840883,-1.972085,3.04741,1.218845,-1.932426,-3.077334,0.2647265,-3.086865,2.89114,3.110282,3.222561,0.1255745,0.1097404,-3.454693,0.03806201,-3.321349,-2.360805,-1.023563,-1.150079,-2.774112,1.070742,1.217456,-1.101236,3.33088,2.301049,-0.9414376,2.343025,-2.534022,-0.6774846],
[-1.71582,-1.449701,0.06041431,2.147177,-0.6800516,-3.710451,-0.9621251,-0.2307653,3.253474,2.578684,0.4550842,0.158921,1.26924,0.8685908,-3.362031,0.3046208,0.80181,1.955827,-3.056019,-0.7041674,0.108242,-2.88382,-2.462207,3.583609,-0.6240649,-3.336303,3.371814,2.71244,2.008596,0.8650296,1.757319,-1.263912,-0.3976458],
[3.141703,-1.461472,-3.44813,-0.04194372,-3.214602,3.524132,-3.881727,3.620896,-3.524,3.026172,-2.402684,0.08992094,2.602251,-2.720726,-1.125916,-2.695992,-3.100772,3.258704,1.916522,3.110306,2.91264,-3.796095,3.33983,-1.012549,0.1311176,-0.5644074,-2.305581,-1.47485,3.838071,-1.289716,0.01633436,2.45638,1.858041],
[-3.490097,-1.738556,1.784473,3.133038,1.361151,1.927206,-3.631789,-2.456433,3.150026,-0.3651536,-0.5344608,0.1672183,3.34563,0.3367074,1.888044,-3.115545,3.074759,-2.086679,2.367616,1.31781,1.009177,-2.849997,-0.5508719,-1.378868,3.837697,-0.4179822,-1.351564,1.730937,-2.231875,0.83412,2.594339,3.415643,-2.286979],
[2.062675,2.582702,3.462656,0.202086,-0.9611304,-1.086675,-1.893487,-3.95515,-3.68312,1.582077,-0.1311461,-3.914371,0.8080451,1.088453,0.5736251,0.6396722,3.240174,-0.8525163,3.771591,-0.5370978,3.777474,1.740186,-2.628852,3.328234,-2.634524,0.954401,2.100263,-1.618917,-2.934002,-3.134121,1.404337,2.008632,-2.511472],
[-1.552318,1.111134,1.362934,3.354479,3.31411,1.160386,3.8533,3.80648,1.915504,3.462551,2.634498,2.207928,-3.787525,0.6201601,-2.5404,-0.7366666,2.187445,0.2025428,-0.8141493,-2.385607,-1.922136,1.225327,-3.417171,-3.380871,-3.464148,-1.680081,1.392475,3.708064,2.802967,-1.000762,-2.401652,2.09204,1.9082],
[3.546435,3.02843,0.7463084,1.299634,2.373403,-1.073467,-1.630317,-2.120526,-2.803333,2.837245,-2.343646,-0.8546166,2.755201,3.583991,-2.566453,2.384834,-0.2505224,-1.050875,1.276949,0.889069,1.798916,-0.6056678,1.808946,3.277479,-1.238712,-0.8746363,0.1513956,-0.2924927,0.1863657,3.176889,0.6104108,-3.766184,-1.647389],
[1.633412,0.3694827,-1.125067,0.9994507,1.938555,3.34509,-3.62352,-2.377882,-3.094718,0.2868547,-2.693098,2.350563,-3.570739,-2.160434,-2.567138,2.180606,1.002875,-1.345845,-3.321806,-3.52437,-3.309825,1.58994,2.837477,3.331109,0.5847445,2.725543,1.256442,-2.854423,2.516593,-1.845146,-3.520356,2.405277,-3.827008],
[-1.813381,-2.383487,-3.745777,-3.592551,-0.04385284,-0.1975768,2.136276,-1.648504,0.4086452,2.440805,1.461126,1.684721,2.143282,1.840325,0.935023,-3.227005,3.020901,1.189024,3.003607,1.058537,2.041626,-2.916391,-3.745689,1.283554,0.8458161,-3.862566,2.955951,-0.5644535,-3.743573,0.2547611,1.758238,0.3850458,-1.046699],
[-1.29947,-2.750117,2.525922,-2.62627,-1.4013,0.7169554,-3.588225,-0.924465,-2.977318,2.422698,0.4286259,3.201174,2.142412,2.116869,-0.4210773,-2.346991,3.951384,-1.70225,3.570404,2.652789,2.495618,3.417913,3.043341,-3.868765,-3.443073,-0.7106277,-0.9658592,-2.205006,-3.227089,2.785896,-3.351722,-1.328836,-0.1021626],
[-3.275821,-1.424419,3.652834,1.12136,-3.568351,-3.551361,0.9858004,2.052892,-1.582993,0.1674339,-0.2546599,-1.391929,-2.130518,3.500358,-3.2205,-1.692387,3.136261,-2.829926,-0.7036709,2.902308,1.742687,-2.320138,2.626446,1.712282,-3.226329,2.259277,1.883824,1.901478,-0.4928436,-0.06459174,0.1271919,3.853889,1.08663],
[-1.153335,0.7061491,-3.887921,0.8126408,0.03627349,0.219359,2.113353,2.432855,-2.860717,-3.152723,-1.185555,-1.747911,0.2932828,3.80298,-2.368696,-0.5188714,2.875316,-3.143676,-1.242708,-2.264188,-0.1456939,-0.2774561,2.229975,3.793952,-1.980974,-1.644858,-3.089609,1.918524,3.969746,-2.57482,-1.681693,3.849306,0.4034548],
[2.772419,-2.248409,-1.544929,-2.957902,2.658207,-3.249436,-0.6456081,3.208447,-0.4600753,-2.414497,-2.712591,0.8689626,3.781176,0.9157898,3.45268,-0.8970637,-1.945434,0.9780577,-0.9384119,3.705587,-1.011888,-0.7971949,0.8040553,-3.388961,2.005343,2.888745,-2.792872,-0.3559009,-0.6318091,2.785386,-2.243278,3.889288,-2.991208],
[-1.354484,-2.503075,-3.225065,-3.442488,1.559933,-2.845613,-2.684717,2.064285,3.547187,-3.061754,-1.148638,-0.08847141,-0.4857624,-0.4155709,0.8070552,1.52881,-1.897297,0.9168575,3.14032,3.846244,-2.037808,-1.220156,1.865629,1.569641,-1.717847,1.955694,-1.573821,-0.697803,-1.666902,2.609694,0.1921077,1.58631,0.7955171],
[-2.767762,-1.317938,-3.781333,-2.815278,-0.5075952,-0.8814344,1.810884,-3.456177,-0.7550552,-3.605923,-1.826075,-2.061518,2.872822,3.33867,-3.78354,1.924645,3.389534,0.3234122,-1.430263,-0.09315975,1.063005,1.243515,3.226917,2.667765,2.975721,1.042991,2.012314,-2.225509,-0.5492423,-1.660754,1.80429,1.959724,2.839882],
[2.706905,-3.340784,3.69901,-1.091406,2.614674,-1.397229,-0.03016503,-1.324513,-0.03534789,-1.170496,-0.9059336,2.964713,3.588988,-1.633072,-3.254948,-0.8986922,-3.056149,1.458048,2.143739,-2.569768,-1.828555,0.1193294,0.9849841,3.125347,1.32765,3.299223,3.223363,1.662599,1.733703,-1.148454,1.822393,-1.826807,0.8717627],
[-1.215261,-0.4349076,-1.477935,2.577361,-2.682204,-1.41671,-2.786717,-0.9844347,3.225328,-2.063284,3.437888,-1.787716,-2.814992,-2.694309,-2.422761,-3.62887,1.714474,-1.54107,-1.058947,-3.021641,-3.703758,-3.788951,1.914179,-0.8870986,-1.02403,-1.842648,2.636376,-1.564385,-2.305373,-1.8886,2.649388,1.42381,0.7434541],
[-3.048082,2.750524,-0.7952363,1.066196,2.117516,0.6811419,3.293671,0.9726241,1.851057,3.35531,-3.419616,2.213625,0.7286788,-3.585553,1.843419,-0.2280676,0.7368672,-1.749986,0.9253891,-2.114657,0.1317808,2.08348,2.666774,-3.891722,-2.875597,1.072904,3.853929,-2.918626,0.308079,1.008538,0.6305817,0.2982469,3.574003],
[-2.698882,3.755827,-0.9364709,-3.90302,-0.2405825,-3.142948,-3.654679,-3.721637,-0.955132,-1.770544,-2.184836,-2.224926,2.609811,1.320634,1.39585,2.826654,-1.417621,1.184395,-2.193019,-0.4251702,-0.5356716,1.71983,-0.1963876,-3.296879,1.52776,-0.3393653,2.296732,1.488518,3.262456,-2.325286,-3.082102,2.766169,1.365373],
[-1.771871,3.987074,2.152174,2.414609,0.4818473,-2.87552,-2.070466,1.454046,2.880886,3.097726,0.2093596,3.351321,3.060414,1.341259,-1.696292,3.824291,0.3368181,0.967101,0.3568347,0.3157728,-1.923035,0.6536703,2.068864,-2.580198,0.008525044,2.240551,-1.030758,0.9258901,1.477135,2.600798,-2.137723,1.224119,-2.5237],
