{ "networks":
[
{
"fitness":-1,
"weights":[
[
[2.964295,1.199968,3.642844,-2.201462,-1.396928,2.347562,-3.993588,-1.40294,1.402417,2.494532,-1.109536,-2.851745,-0.3841238,-1.502911,-1.708949,3.879133,0.3498775,0.08191189,-0.7591048,0.4226114,-3.976031,-0.09444566,-3.918117,0.8200046,2.080813,3.663864,1.683155,-3.534951,-1.321588,1.649739,0.7852876,3.202654,-3.678768],
[1.957617,-0.1396098,-2.980246,0.2955438,-2.3047,-1.507693,-2.398754,2.861028,-0.3324363,-3.596255,-2.960026,-0.4460683,-2.601279,3.522248,-3.318034,-1.463343,2.196859,-0.4932593,1.348983,-3.169441,2.327205,-0.1979181,2.442014,0.1176176,-3.926538,-0.530771,-3.655528,1.824565,3.694575,-3.475835,-2.919016,1.7839,3.155163],
[-0.6492245,3.541398,1.48906,3.669008,2.711969,1.360679,-0.5747606,0.3566689,1.936663,-0.3116511,0.01780792,0.06270015,0.2993572,-1.61941,2.620494,1.643078,0.6598979,1.685447,-2.610262,2.7611,-1.981023,1.587051,-2.35456,-0.1675285,-2.029069,-2.354962,2.628197,1.100027,0.6576086,3.127716,2.116452,0.125993,0.4973413],
[-3.735273,-3.71377,2.505815,-2.458114,3.568051,-2.75327,1.460143,1.895147,-0.8614637,-0.577383,2.118507,0.7466836,-1.869793,-1.94055,0.3424239,-3.570011,2.423446,2.759921,-1.778768,-3.681675,2.857149,3.111069,-0.8884757,3.323226,2.196733,3.162254,-0.5571914,0.5871335,1.49239,2.602135,-1.311456,0.4862306,1.211858],
[-1.855754,-0.5877629,2.624717,1.430313,-1.324509,2.468508,-2.933377,0.1158445,-1.345626,3.20988,-2.296103,2.665095,-1.264109,-1.531587,-0.1143536,2.382465,0.9135148,-1.836564,-2.084837,2.855959,3.944332,-0.2767972,2.021264,-3.200486,2.794214,0.8541662,2.301202,-0.1380911,2.621592,-1.802372,2.278665,-0.8638266,-1.858093],
[-1.330387,1.943839,-0.1370572,-3.422113,2.625908,3.419533,3.35452,-2.247928,1.723424,-1.044367,-1.991817,-2.965275,3.497115,-1.139895,-2.94737,1.110023,3.546487,-1.198409,1.224531,3.34646,-0.5456895,0.256303,-0.2575029,-2.485609,-3.537533,-3.47417,-1.051401,1.928027,-2.446636,0.7260699,-1.224223,-3.857318,-0.6792399],
[0.6456571,-0.854493,1.319455,3.270211,-0.9953319,-1.986725,-3.312801,3.385836,2.04629,-0.5954952,-1.454616,3.927303,-0.1507078,-1.909946,-0.3875576,3.286612,-0.422525,2.526019,3.78656,-1.656739,-2.24736,-3.84611,0.1632728,0.9724024,-2.362841,2.465985,0.7186381,1.327736,-3.095247,-2.504068,-3.569359,0.3655491,-1.071036],
[0.1859636,-1.383929,0.2269095,-2.296565,0.4064561,-2.403445,2.594639,1.050928,0.2436214,-2.072835,2.766007,-3.322263,-2.666624,-1.211255,0.07376773,-1.882539,-1.710408,0.3749775,-3.842771,-1.864587,-1.370762,-2.360377,1.551919,-3.144747,1.260045,3.356461,2.466284,-2.609874,-2.512303,-0.8357056,-2.638173,-3.812533,-2.896251],
[2.538113,-0.2991914,-0.9017726,-0.937474,2.547058,-0.2413701,3.974954,2.858545,-3.857102,0.7884257,-1.004127,2.267122,0.1869869,-3.460191,-3.503202,3.523405,-2.484435,-1.952418,-0.9275188,-1.091586,-2.537879,0.9681709,3.286542,2.047998,0.6171977,1.903502,2.634487,1.842548,-0.9655535,3.529327,3.742876,-3.241221,-0.4220433],
[-2.178805,-1.663443,-0.8331628,3.145136,2.568194,-0.2736278,0.4135827,0.07190488,-3.245981,-1.736706,-2.960291,-3.528233,0.06422357,3.113965,-1.65006,-2.919093,2.52735,-2.893251,-2.709842,-0.3380567,-0.8141409,3.229202,0.6489659,-3.730159,-0.912927,-2.762998,0.09160614,2.162795,2.119701,2.801432,1.796337,-2.104976,2.572221],
[2.75906,-2.950526,-1.326673,-2.32812,-3.262485,-0.3498028,0.5254593,0.6239101,-2.428735,3.747327,-0.08355023,-0.7720047,1.14504,-0.5620003,-0.7318538,-3.463548,-0.08561894,-2.170726,3.662319,-3.427282,0.3922394,2.963589,0.6039848,-2.417364,-1.553553,-0.8538971,-0.656065,0.8975043,-0.6636887,-3.574009,0.2503111,-3.890993,-2.830657],
[0.06671572,1.839469,-0.7875209,1.442368,1.967455,-2.876544,1.976826,-1.129162,1.443172,3.257943,-3.901245,1.319392,2.192954,-2.553175,2.704799,-3.250839,-1.812083,1.302548,-0.8064035,-0.7859552,3.494295,2.661932,0.36092,-1.335641,1.16288,-1.338731,3.240794,0.3929822,0.3172225,-3.892501,3.376339,-0.8575226,0.307872],
[-0.6433812,-2.458357,-3.489937,3.093629,2.034471,-3.617773,0.4193944,1.271415,-2.629417,-3.000097,3.363609,3.165671,0.5644287,3.333539,2.42742,-1.610024,3.079626,-0.06237541,2.840989,-3.067297,-1.831697,1.659714,-2.299975,1.384833,-0.2084247,-2.091246,3.307768,-2.543728,-0.3245944,3.572302,-0.9307958,-1.027208,-2.910254],
[1.460477,-0.2543002,1.963099,-0.2043833,-2.596669,1.257723,2.865288,0.7609348,3.29368,1.187938,-3.226355,-1.213494,-1.59362,-1.648079,2.009492,1.071971,-1.778468,2.082424,1.815146,-3.813301,-0.02457754,2.227898,-3.74052,-0.4360471,-1.031173,0.6487308,0.6260511,3.024515,3.475508,-3.356492,1.237363,-3.820107,-3.158145],
[0.1443376,1.323845,-0.2136161,3.030715,3.208755,-2.043594,0.3494182,2.763332,-2.974172,-2.306182,-2.503374,2.8372,-3.468837,-2.037672,-2.968095,-0.162029,2.750433,-1.883488,-3.17917,-3.652339,2.831743,3.436248,3.747159,3.250893,-0.6185784,-3.938007,0.8772317,-2.129826,-2.43456,0.866273,-2.920215,1.151932,-0.1028051],
[-2.753959,1.801159,1.47966,3.33355,-3.151643,-2.585182,1.708244,1.822696,0.4884901,-1.075478,-1.132098,3.461652,-3.486785,2.980012,-2.459212,2.805461,-0.8558168,-0.8519888,2.700391,0.09115241,-2.125981,-3.374662,-0.4743603,1.892924,1.105514,-2.786667,3.830389,2.166147,-0.285319,2.76572,0.3134487,-2.609143,2.078171],
[-2.249079,1.30937,-1.809492,0.6025807,1.495857,0.6306894,2.094673,-0.7465347,2.513788,-0.3078025,-3.775078,1.297237,-2.688036,-0.5895953,0.08670464,-2.433092,-3.467093,0.5703273,-2.257308,-0.008974582,3.082138,-2.24762,1.472476,2.040395,0.2576409,-2.859275,-1.882903,3.237812,1.851972,-1.114773,3.473557,0.8361542,-2.665071],
[0.8021315,1.857992,-2.603852,-2.835991,3.827819,-2.94301,-0.6958106,-0.4293553,2.274865,0.2156149,0.506837,0.3409325,-2.662762,-0.5795062,3.483287,-3.09008,-3.489527,1.473732,-3.515073,1.561306,1.089832,2.644885,0.9325316,2.940546,1.877086,0.01927276,-2.406849,3.261764,2.438165,1.305506,3.249362,-0.3882414,1.842948],
[3.27332,-1.814872,-2.37074,1.985602,0.02114726,-1.706226,-0.8386347,-2.022866,-2.789917,-0.2598566,1.585326,2.230777,-3.822311,-1.134638,-3.019699,2.252681,2.244453,1.25334,-3.413846,-1.199224,-3.541381,-3.042636,3.189313,3.567338,-2.333609,-2.270185,-1.992005,-3.140175,-2.502583,-0.3950944,-0.303883,3.163321,0.39033],
[-0.6984379,-1.515088,-0.6150405,-3.719486,-1.648767,2.044475,-2.379243,1.111007,3.030672,-1.31387,0.7342562,0.4085873,-3.8908,-2.648289,-0.2768614,-2.099993,-3.989924,2.425812,-1.889216,-1.386248,-2.708449,-0.3451703,0.2153173,3.027609,0.7574742,-2.265622,2.216078,0.419973,0.6544487,1.29662,-3.001899,3.539289,3.242681],
[0.7251837,-1.237824,-2.018481,-0.5816661,-1.738754,-1.721153,2.891364,1.007868,3.877068,2.971696,-0.3730541,-1.71594,3.369641,3.975675,3.242117,3.687611,-3.490891,3.650166,1.787326,1.744212,3.627221,2.678084,-0.01872729,3.77845,1.414165,-0.3686852,2.981396,-2.810412,2.289018,-3.966821,1.4958,1.034441,1.232004],
[-3.830979,-3.57142,2.833173,3.358776,-2.550159,-1.45408,2.09251,0.4195753,-3.545551,3.788142,-3.989638,1.078332,0.7020057,3.037481,2.293631,3.397373,0.1885117,-1.556039,2.210424,3.331029,1.603384,0.4434201,-0.136912,2.5453,-1.848207,-0.6412712,2.95306,2.529418,-2.838813,-0.380502,3.955551,3.302598,-1.839086],
[1.009551,-3.21286,1.422028,0.2202523,-3.13158,-3.890038,-0.4236992,-0.3911462,2.631697,2.112317,0.5520357,-2.344108,-0.3258632,-2.269662,-3.161765,3.777171,-1.999494,-0.3435373,3.483729,3.084347,-0.488479,-3.354408,-2.114338,2.732286,-2.159921,-2.572124,-0.06260299,1.832921,3.631324,1.374101,3.519069,-2.552755,-0.07352241],
[-0.7962395,1.012949,-2.343932,1.572225,-1.314171,-1.468877,-0.2123539,0.5399136,-2.93459,1.100086,-3.190305,-3.304734,0.5773214,3.202059,-1.486951,2.838355,1.375777,-0.8763392,1.273532,-0.6021247,-1.439282,2.273504,0.6675104,-1.406739,-2.443712,2.98459,-2.212774,-3.466758,-3.996503,1.988292,3.374665,1.797898,-3.474632],
[-2.746309,-0.08215392,0.3222595,-0.2119309,2.747263,-0.8243262,3.59573,2.997963,-1.697254,2.105459,-0.31822,-0.3708141,-0.446207,2.248685,-2.549585,-0.2772488,2.822222,3.017674,3.426656,2.252936,2.788089,-3.818148,-0.9800267,1.51102,1.284676,-3.491627,-2.88006,2.861907,3.051071,0.7878786,-0.4133461,0.8138368,-0.6050315],
[-3.685146,-3.013042,3.120249,-0.2942928,0.3148482,1.83519,-3.961602,1.995924,0.7805071,3.649901,-1.3346,-3.133812,-1.443333,-1.006048,1.009151,-3.942873,0.01017869,-2.392573,-1.771384,-0.827837,2.435975,-0.4309912,3.626588,-3.92977,-3.81409,-2.831407,1.349893,0.3099684,0.8208957,1.904051,2.08072,-1.481545,-2.208749],
[3.112421,-1.634065,0.07741323,-1.702487,2.689871,3.369038,-1.575198,0.6261648,-2.638011,1.84818,0.7172877,-3.658834,1.260018,-1.562664,-2.636183,0.8498182,1.993329,2.047399,-3.269854,3.31403,-0.5562881,-0.7071195,3.738568,-0.127213,2.56655,-1.83087,3.234815,-2.69646,-2.128137,3.5312,1.90451,0.7833691,0.506098],
[-0.5287987,2.83237,-3.880219,0.9664122,1.895448,1.274113,-1.445385,0.09818047,3.635895,-0.875097,-2.010477,-1.758415,-0.9338937,2.266153,-0.9442272,-3.05684,-0.9108333,0.696577,1.083249,-1.780196,-2.395205,2.321572,-1.281893,-1.823691,1.519049,-0.6629252,-3.653273,-2.632457,-3.842723,3.182047,1.289404,-2.18449,-3.541285],
[-2.505615,2.56755,2.626933,2.739017,0.5730084,2.404001,-3.247944,1.790763,-1.09572,-3.686612,-2.634436,-0.7493864,-0.5591478,-2.189684,-2.938926,2.424162,-3.011217,3.761735,3.100087,1.209613,-1.535689,-2.433474,-0.4565822,3.112272,2.295603,3.983543,-1.319304,-0.8880905,0.03748998,-1.355454,1.781392,2.296268,0.8564319],
[3.724797,-2.971016,-2.893504,1.693873,0.322715,2.377303,-0.9925318,3.770576,2.853432,3.673475,3.724145,2.420659,-1.810048,3.968581,-2.603747,0.8283577,0.8331336,-3.855448,-0.825174,-2.668399,-2.410878,-2.920748,-0.604107,-3.450051,-1.945629,3.700853,2.364947,0.778671,3.571355,-3.155503,-2.205998,3.686855,-1.911732],
[0.7212404,-1.870867,-3.952791,1.606391,1.89489,1.281202,-2.56318,-2.929459,2.585936,0.8726206,2.52087,-3.95685,-2.109287,0.03430126,-0.5829043,1.427331,-1.533664,0.3946093,-2.34484,3.040807,0.9863812,-3.701579,1.834223,2.213243,1.429409,0.4415551,-0.2768119,1.794878,3.545555,-1.612177,0.9987915,0.514094,3.219423],
[-2.988506,-3.979807,2.207161,-1.263746,1.180002,1.367156,-3.42023,3.220967,2.557948,3.568933,-1.040972,0.7371488,-3.20777,-3.823938,3.510412,-3.276003,3.379305,-0.9724734,2.687562,0.7513984,2.421751,-1.563729,-3.010668,2.595207,-0.6848853,-0.6657986,-3.689929,-3.358373,2.606859,-3.900835,2.767031,-3.949255,-3.788293],
[-0.5808983,-2.013803,0.01853187,1.380588,3.132332,-1.586379,1.40996,1.709019,-0.6185696,-1.780052,0.5237575,3.52176,-1.142181,-2.987989,-1.286417,-0.7443933,3.246311,0.06244301,-2.25606,3.431845,-3.329724,3.335954,2.415097,-1.033158,-2.397664,0.5968475,-2.658733,1.756536,3.127801,2.616956,-3.711756,-2.802844,3.40373]
],
[
[1.930011,2.022604,-3.887435,-3.622617,2.778534,1.924492,3.722701,-0.4524435,-3.931441,-1.849037,-3.721323,2.861448,3.694977,2.056651,-0.007638387,-0.8438118,1.554265,2.58103,3.160267,3.096267,-0.9480408,3.499676,0.9777609,-0.6426095,-0.7144575,-1.398427,-2.077981,-1.277687,3.476358,-3.790167,-0.645313,-0.8487068,-1.802571],
[2.580225,-3.323954,-2.399665,0.4660518,1.886749,0.8279541,3.415381,-3.420285,3.613104,-2.160717,2.772186,-1.895199,-3.43344,3.619883,-3.823049,0.5671529,-2.374689,-3.101251,3.351709,-3.560708,3.723039,2.161709,3.03718,3.838907,-2.013522,3.902144,3.49199,-0.7910044,-0.3878383,3.376176,-3.13077,3.387099,-3.703688]
]
],
"biases":[
[
-3.197752,-0.1041321,1.113598,1.380863,-3.450154,-0.3872403,-1.007135,-2.267459,-2.903293,3.739599,-2.585963,1.032449,-2.078763,1.825534,-2.439132,-1.210399,3.839227,3.413498,0.4699911,-2.463731,-1.076081,0.3879701,-3.084732,-2.805837,1.611854,1.481422,0.5342416,-3.535813,3.14973,-2.531814,-0.7595006,3.669908,-1.775138
],
[
2.855194,3.200135
]
]}] }
