{ "networks":
[
{
"fitness":2.481463,
"weights":[
[
[-1.083182,-1.334512,-0.8643027,-3.697655,-2.908847,2.795537,-1.36856,-0.7432475,-3.910661,3.642049,-1.467166,-1.485597,3.849415,-3.998416,-3.334215,2.596504,2.012111],
[-2.631825,-3.978779,-1.112292,2.271434,1.540893,-0.1804555,3.307198,2.967706,-3.262153,-2.204427,1.809299,-1.769718,0.7156144,-1.476768,-3.179696,2.684087,3.253783],
[2.245706,2.897685,3.197312,0.4529719,-3.203809,1.728777,3.31553,0.6532699,0.7414778,1.149485,2.841759,-2.974627,-3.004836,-3.224485,-1.15102,-2.216818,-1.342094],
[3.353392,-1.748657,0.1968556,0.3991501,0.4221244,-2.407546,-0.740734,1.196177,3.274149,-3.385625,-2.012534,-2.059705,-3.577441,3.12206,2.479304,3.279392,3.40471],
[0.2636242,-2.175917,3.122427,0.05993885,0.9267663,2.882741,-0.6991618,-1.986795,-2.8925,2.012319,3.584898,1.061897,-1.108742,-2.640199,0.4684658,2.824856,-1.038967],
[3.532255,-1.328172,-2.385407,2.468996,-0.1037488,-3.258158,-0.1565702,0.3128759,-0.8539606,0.3034997,0.471363,-1.509286,3.977402,-2.498127,-3.716848,3.970246,1.622871],
[-3.27054,-0.7163998,-3.263638,-1.729956,1.658611,-3.148146,-2.783056,-1.896994,-0.1846151,0.3341084,-2.561583,-0.3920038,2.786265,3.427554,-1.149846,-3.321194,2.557796],
[2.273394,-0.2504825,-0.6254339,-0.2358773,3.188319,-2.75833,1.207069,2.332783,1.155757,-2.844908,3.946936,2.530944,-1.042791,3.985464,-1.661957,-0.5115755,0.08610141],
[-2.087099,3.822255,3.66582,2.992352,-2.871263,-1.357424,3.224389,0.2009124,-1.992833,-3.503269,-0.7913098,-3.538262,-0.4056546,-0.599619,-2.937379,-2.338756,-1.037402],
[-2.234979,-3.046454,-3.978914,-0.9761277,2.702569,0.922318,1.519572,-0.5213955,-3.507287,-3.024225,3.467811,3.381088,3.208732,2.291279,1.234854,0.5713922,1.183509],
[-1.236254,1.198098,2.114705,-2.78602,-1.845797,0.4752448,-1.725881,2.169289,-1.877075,3.206383,-3.277492,3.496313,2.569374,1.327258,1.855544,-0.7714859,2.155901],
[-2.185861,0.174073,2.809494,3.27614,1.611861,-2.788494,1.262294,-3.092818,-0.6161048,3.023659,-0.9140959,3.10773,0.01187589,-3.532756,3.729122,1.006953,0.9038582],
[-2.285367,-3.699198,0.9254677,2.074139,-3.487222,-0.6436365,-0.412989,-1.836985,3.790174,2.623782,-3.684592,2.302653,1.453269,0.4653334,2.794044,3.787294,1.259468],
[0.5936865,-3.726291,3.074906,1.046936,2.619254,0.1920432,-3.253789,1.423624,-2.382653,-0.8527315,0.8325502,1.829287,0.567883,-1.735129,-0.1626689,3.677897,-2.472025],
[-0.1897298,-2.222446,-0.4554917,0.02834316,-0.2813262,-3.185153,2.877811,1.588861,-1.369114,1.10515,0.3434194,-2.458244,3.080764,3.941939,3.285505,0.009821082,-3.364856],
[2.177595,-3.480901,0.2144429,-1.279981,0.09878881,3.673347,1.093118,-1.140461,0.526254,-2.414654,2.39875,-1.515057,2.592188,0.1194528,1.667646,-2.117273,-0.991549],
[-2.918432,-2.417064,-3.940285,3.905513,2.715556,-2.606088,-0.8555395,-3.12118,0.4802066,1.253857,2.537258,2.808933,2.439104,2.532582,-1.807208,-2.153703,0.9851934]
],
[
[1.624888,2.65594,0.9055656,-0.2768613,3.218428,-3.667532,0.4906469,3.679868,2.718942,3.445006,3.710491,2.072852,3.528915,3.03874,-0.4267017,2.572363,-2.097253],
[1.022868,3.757411,-2.273375,1.45527,-1.202063,-3.899225,-1.296847,-0.6445613,-3.417463,-2.240535,2.40789,-1.819558,1.094856,-3.762169,0.06189775,0.9281424,3.891663]
]
],
"biases":[
[
-0.3894714,1.652688,-3.057327,-2.950511,-0.9120159,1.655046,-1.357607,0.3106059,0.8193406,2.50772,-1.547769,-1.792716,-1.824284,-0.8279455,-1.697938,1.170814,-0.6000897
],
[
2.605009,0.6069773
]
]},
{
"fitness":2.381276,
"weights":[
[
[1.332746,-1.334512,-1.517561,-3.697655,-2.908847,2.795537,-1.36856,-2.143802,-3.910661,3.642049,0.331896,-1.485597,-0.1444751,3.128554,0.5635051,2.596504,2.012111],
[-2.631825,-3.978779,-1.112292,2.271434,1.540893,-0.1804555,-0.1124527,-3.92932,-3.262153,-3.444319,1.809299,-1.769718,2.982203,-1.476768,-3.179696,2.684087,-0.3137467],
[2.245706,2.897685,3.197312,0.4529719,-3.203809,1.728777,2.338394,0.6532699,0.7414778,1.149485,0.7055272,-2.974627,-3.004836,-3.224485,-1.15102,-2.216818,0.09765323],
[3.353392,-1.748657,-2.250773,0.3991501,0.4221244,1.158687,2.271714,1.196177,-2.269271,-3.385625,-2.012534,-2.059705,-3.577441,3.697186,0.5560041,-0.08100498,0.03415414],
[0.2636242,-2.175917,3.122427,-3.930944,0.9267663,0.9115218,-3.940679,-3.396524,-2.869844,1.735373,3.584898,1.061897,-1.108742,2.207983,0.4684658,2.824856,-1.038967],
[3.532255,1.951918,-0.8749017,2.468996,0.3970841,-3.258158,-0.1565702,0.3128759,2.776711,0.05468713,0.471363,-1.509286,0.3852929,-2.498127,-3.716848,3.970246,1.622871],
[-0.1197936,-0.7163998,2.662523,-1.729956,1.353113,-0.6477993,-2.783056,-1.896994,-0.1846151,-1.367051,-2.561583,-0.3920038,2.786265,3.427554,-1.149846,-3.321194,2.557796],
[2.273394,-0.2504825,-0.6254339,0.1977271,3.188319,-2.75833,1.207069,2.332783,2.671102,3.835159,3.946936,2.530944,-1.042791,1.468207,-1.512214,-0.3925368,0.08610141],
[2.319016,2.069355,-3.430488,2.992352,-3.647771,-1.357424,1.888119,0.2009124,-1.775484,-1.784918,-0.7913098,-3.538262,-0.4056546,-0.599619,3.443957,-2.338756,-0.4267464],
[-2.234979,-3.046454,-1.50855,-0.9761277,2.702569,0.922318,1.519572,-0.5213955,-3.507287,-3.024225,3.467811,3.381088,-3.755615,2.057843,1.234854,0.5713922,1.183509],
[-1.236254,-3.782489,-1.942802,-2.78602,-1.845797,0.4752448,-1.725881,2.169289,-1.378559,-3.52914,-3.277492,3.496313,2.569374,1.327258,1.855544,1.216229,-1.734679],
[-0.2431709,0.174073,2.809494,3.27614,1.611861,-2.788494,0.429973,3.902471,2.483099,3.023659,-3.950105,3.10773,3.919616,-3.532756,-2.45803,1.006953,0.9038582],
[-2.285367,-3.699198,-0.6388376,2.074139,-3.487222,-2.004387,-0.412989,0.3153951,3.790174,2.837104,-3.684592,2.302653,-0.5088205,3.652177,2.794044,3.787294,1.259468],
[0.5936865,2.080081,2.600238,1.046936,2.619254,0.1920432,-3.253789,-0.2875365,-2.382653,-0.8527315,0.8325502,1.829287,-1.742666,-1.735129,-0.1626689,1.178254,-0.5830905],
[-0.1897298,-2.222446,3.984012,0.02834316,-0.2813262,-3.185153,2.877811,1.588861,-0.5481747,1.10515,0.9396215,-2.458244,-2.677666,-3.1429,3.285505,0.009821082,-3.364856],
[2.177595,-3.480901,-3.399923,-1.279981,1.829078,-1.767682,1.093118,-1.138286,0.526254,0.0330139,-2.303342,-1.469884,-3.486063,0.1194528,1.667646,-2.117273,-0.991549],
[2.079544,-2.417064,-3.940285,3.905513,-0.7173423,-3.036579,-0.8555395,-3.955887,0.4802066,1.253857,2.537258,2.808933,2.439104,2.532582,-1.807208,-2.153703,0.9851934]
],
[
[1.624888,2.65594,2.761528,-0.2768613,3.218428,-3.667532,3.696334,3.679868,2.718942,3.203415,-2.763567,2.072852,3.528915,3.03874,-1.041243,2.572363,-2.097253],
[1.022868,3.940052,1.27962,1.45527,-1.202063,-3.899225,3.383265,-0.6445613,-3.417463,-2.240535,2.40789,-1.819558,1.094856,-3.762169,0.06189775,0.9281424,3.891663]
]
],
"biases":[
[
-0.3894714,1.652688,-3.057327,-1.529648,-1.69658,0.7094607,2.098697,0.3106059,0.8193406,2.50772,-3.593017,-0.7989747,-1.824284,-0.06173328,-1.697938,2.763343,-0.6000897
],
[
2.206181,0.6069773
]
]},
{
"fitness":2.336351,
"weights":[
[
[1.332746,0.9065989,-3.025404,-3.252301,1.092534,3.203521,1.970513,1.681873,-1.633892,-3.843048,1.928577,-1.485597,-0.1574917,-3.998416,-3.053209,-0.9058704,-1.688691],
[2.735322,-3.978779,-1.334657,2.271434,-0.9367657,-3.618899,-3.80251,-3.860635,-1.320775,-3.966459,-0.3746175,2.97008,0.7156144,-1.476768,3.450476,-0.0698885,2.903608],
[2.245706,-0.6166124,3.854627,-2.073942,0.4628903,2.559455,2.91989,0.6929685,-1.464083,2.560035,-1.220373,-2.974627,-1.028896,-0.79887,-1.113682,-2.441055,1.473719],
[-1.633389,1.829332,0.244022,2.636087,-0.8015668,1.158687,-1.413227,1.196177,-0.9996279,-3.990801,-0.9173689,-2.059705,1.968247,3.12206,2.863927,-1.735551,-3.844275],
[2.923531,-1.603809,-0.05442239,-1.71407,0.9267663,0.9115218,1.029932,-0.8072438,3.155816,-0.4115203,0.5387605,1.425483,-1.108742,3.016602,-0.3544715,2.824856,0.03342543],
[1.778679,1.772974,0.5490128,3.235327,-0.2312733,2.590559,2.193156,0.9361929,1.380637,3.541686,0.471363,-2.638724,0.3852929,0.4396034,-3.716848,-3.645064,1.302097],
[-3.27054,-0.7163998,-1.183606,-2.254406,3.509569,0.09699457,-2.684569,-1.896994,0.2192741,-2.456466,0.2825215,-0.3920038,-1.606169,1.693178,0.1610564,-0.127591,-3.493427],
[1.297822,-0.6215943,1.668098,0.6819264,-2.910517,3.338102,3.642573,3.341776,3.006576,0.07714141,-0.5846445,0.8981113,3.265745,-0.8359451,-1.661957,-3.093592,0.7797006],
[-3.673357,-3.062057,-2.496408,1.572604,1.040433,2.493006,3.431753,0.8021342,2.19214,-2.551456,0.02211242,-1.251561,-2.675427,-3.525705,-2.690341,0.6972783,3.541095],
[0.5439382,-3.046454,-2.311703,-0.9761277,3.60647,0.922318,1.519572,-2.523888,-3.507287,0.6109705,0.3238169,-1.037133,3.208732,-1.365475,1.234854,1.629902,-1.966674],
[-3.162611,-3.782489,-0.2888742,0.3103,-0.5267772,3.894082,-1.18441,-0.7176157,-2.108757,-3.52914,-3.277492,2.694999,3.406955,-3.391651,3.583971,-0.8193374,1.635107],
[0.8472637,2.624203,-2.39076,-1.627089,0.1802508,-1.745651,0.6452546,-3.702995,1.646105,-2.354633,2.930548,-1.254756,3.002247,2.73352,-3.084742,1.006953,3.853378],
[-0.3629124,0.148543,-0.6601475,-0.5481387,-1.791308,-1.887538,-2.307052,-1.836985,3.790174,-2.258613,-0.1916012,2.302653,-0.1985567,3.407846,2.506676,-3.076781,1.259468],
[1.587227,2.080081,2.600238,3.593478,3.331508,3.854142,-3.814229,1.423624,-2.382653,2.505034,0.8325502,1.745675,1.140066,3.45522,-0.9787037,-2.281819,-2.472025],
[0.1219355,0.6539271,-0.4821991,-1.41176,0.5913535,-3.185153,2.877811,-0.1442605,-3.107339,1.153929,-0.8179721,1.816224,3.080764,-2.60935,3.285505,2.028452,1.812299],
[-0.4349563,-3.764301,-3.607176,-3.134201,1.829078,1.529579,1.093118,1.923957,2.358784,1.686004,2.836675,-3.029345,-0.8006783,-2.89667,0.377761,-1.358264,-0.991549],
[1.384364,2.296497,-0.9603514,-1.218344,-2.473638,3.729494,0.7578188,3.266244,0.4802066,-3.650932,2.854107,-0.8194075,2.439104,2.516994,-1.25997,3.092267,0.4828627]
],
[
[1.359604,-2.810382,1.887185,3.773029,1.31268,-3.09165,2.91134,3.679868,-1.633012,2.755354,2.30916,-1.479437,-3.021559,3.03874,2.93633,2.572363,-0.3532555],
[-3.942622,3.421416,-0.6612625,0.6454473,-3.020353,-0.2540429,3.383265,-1.529628,-1.219127,0.5310866,2.40789,-1.819558,3.744692,-3.762169,0.06189775,0.9281424,3.757656]
]
],
"biases":[
[
-0.3894714,1.652688,3.197496,1.715806,-0.9120159,-0.2227169,2.098697,-3.568591,-2.388353,0.2298766,-3.715046,2.799052,-1.824284,1.672288,1.642559,1.358789,-0.6000897
],
[
2.605009,-1.104946
]
]},
{
"fitness":2.310085,
"weights":[
[
[1.332746,-1.334512,-1.517561,-3.697655,-2.908847,2.795537,-1.36856,-2.143802,0.2658258,3.642049,0.331896,-1.485597,1.745981,-3.998416,0.5635051,2.596504,2.012111],
[-2.631825,-3.978779,-1.112292,2.271434,-1.879668,-0.1804555,3.307198,2.967706,-3.262153,-3.444319,1.809299,-1.769718,0.7156144,-1.476768,-3.179696,2.684087,-0.3137467],
[2.245706,2.897685,3.666903,0.4529719,-3.203809,1.728777,2.338394,3.831746,0.7414778,1.149485,0.7055272,1.4805,-3.004836,-3.224485,-1.15102,-0.1218453,-2.861483],
[3.353392,-1.748657,-2.250773,-3.851565,0.4221244,1.158687,-0.1622076,1.196177,3.274149,-3.385625,1.542825,-2.059705,-3.577441,3.12206,-3.914804,1.485891,3.40471],
[1.42949,-2.175917,3.122427,-3.930944,0.9267663,0.9115218,-3.940679,-1.986795,-2.8925,2.012319,3.584898,1.96594,-1.108742,-2.640199,0.4684658,2.824856,-1.038967],
[3.532255,1.951918,-0.8749017,2.468996,0.3970841,-3.258158,2.330113,0.3128759,2.776711,0.904263,0.471363,-1.509286,1.038099,-2.498127,3.201022,3.970246,1.622871],
[-3.27054,3.704427,-3.263638,3.41045,-2.96862,-0.6477993,-0.5053244,-1.896994,-0.1846151,0.3341084,-2.561583,-0.3920038,2.786265,3.427554,-1.149846,-3.321194,3.114596],
[2.273394,1.158243,-0.6254339,0.1977271,3.188319,-2.75833,1.207069,2.332783,-1.226976,3.835159,-3.409922,2.530944,-1.042791,1.468207,3.526821,-0.3925368,0.08610141],
[2.319016,-3.062057,3.66582,-3.269396,2.621938,-2.957409,-1.359973,0.2009124,-1.675704,-3.503269,2.085816,-0.8045766,-0.4056546,-0.599619,-2.937379,-2.338756,-1.037402],
[-2.234979,-3.046454,-3.978914,-0.9761277,2.702569,0.922318,1.519572,-0.5213955,-3.507287,-3.024225,-3.139002,3.381088,2.508519,2.057843,1.234854,0.5713922,1.097148],
[-1.236254,-3.782489,2.114705,-2.78602,-1.845797,0.4752448,-0.4095912,3.41128,-3.554163,-3.52914,-3.277492,3.496313,2.569374,-3.131298,1.855544,-0.7714859,-1.734679],
[-2.185861,0.174073,2.809494,3.27614,1.611861,-2.788494,0.429973,3.902471,2.483099,3.023659,-0.9140959,3.10773,3.919616,-3.532756,-2.45803,1.006953,0.9038582],
[-2.285367,-3.699198,-0.6388376,2.074139,1.554031,-2.004387,-0.412989,-1.836985,3.790174,-2.788834,-3.684592,2.302653,1.453269,3.652177,-1.880824,3.787294,1.259468],
[0.5936865,2.080081,2.600238,1.046936,-2.824027,0.1920432,-3.253789,1.423624,-2.382653,-0.8527315,0.8325502,1.829287,-1.742666,-1.735129,-0.1626689,1.178254,-2.472025],
[-0.1897298,-2.222446,3.984012,0.02834316,-0.2813262,-1.885894,2.877811,1.588861,-1.369114,1.10515,0.3434194,-2.458244,3.080764,3.941939,2.826453,0.009821082,-3.364856],
[2.177595,1.321446,0.01115221,-1.279981,1.829078,3.438984,1.093118,-1.140461,0.526254,-2.414654,-1.090703,-1.084089,-3.486063,-3.810534,-0.9436625,-2.117273,-0.991549],
[-2.918432,-2.417064,-3.940285,3.905513,-0.7173423,-3.036579,1.739095,2.630523,-2.905243,1.253857,2.537258,2.808933,2.439104,2.532582,-1.807208,-2.153703,0.9851934]
],
[
[3.047055,2.65594,-2.293619,-0.2768613,3.218428,-3.667532,3.696334,3.679868,2.718942,3.445006,3.710491,0.8144419,3.528915,3.03874,-0.4267017,2.572363,-2.097253],
[1.022868,3.940052,-2.273375,1.45527,-1.202063,-3.899225,3.383265,-0.4513701,-3.417463,-2.240535,2.40789,-1.819558,1.094856,-3.762169,0.06189775,0.9281424,3.891663]
]
],
"biases":[
[
-0.3894714,1.652688,-3.057327,0.2489707,-0.9120159,1.655046,2.098697,0.3106059,0.8193406,2.50772,-3.593017,-0.7989747,-1.824284,-0.06173328,-1.697938,2.763343,-0.6000897
],
[
2.605009,0.6069773
]
]},
{
"fitness":2.245132,
"weights":[
[
[1.332746,-1.334512,-3.025404,-0.01632691,1.092534,3.203521,1.970513,1.681873,-1.633892,-3.843048,1.928577,-1.485597,-2.334831,-3.998416,-3.053209,-0.9058704,-1.688691],
[2.735322,-3.978779,-1.334657,2.271434,-2.393329,-3.618899,-3.80251,-3.860635,-1.320775,0.1187598,-0.3746175,2.97008,0.7156144,-1.476768,0.3261914,-0.0698885,2.903608],
[2.245706,-0.6166124,3.854627,-2.073942,0.4628903,3.187424,2.91989,0.6532699,-1.464083,2.560035,-0.1259976,-2.974627,-3.80818,-0.79887,-1.113682,-2.441055,1.473719],
[-1.633389,1.829332,-2.250773,2.636087,-0.8015668,1.158687,3.943249,1.196177,-0.9996279,-3.990801,-0.9173689,-2.059705,1.968247,3.12206,2.863927,-1.735551,3.718717],
[2.923531,0.1533085,3.122427,-1.71407,0.9267663,0.9115218,1.029932,-0.8072438,3.155816,2.578338,0.5387605,1.425483,-1.108742,3.016602,-0.3544715,2.824856,0.03342543],
[1.778679,1.772974,0.5490128,3.235327,-0.2312733,-3.447639,2.193156,0.3128759,1.380637,3.541686,0.471363,-2.638724,0.3852929,0.4396034,-3.716848,-3.645064,1.302097],
[-3.27054,-0.7163998,-1.183606,-2.254406,3.509569,0.09699457,-2.684569,-1.896994,0.2192741,0.3341084,0.2825215,-0.3920038,-1.606169,1.693178,0.1610564,-0.127591,-3.493427],
[-2.143863,-0.6215943,1.668098,0.6819264,-2.910517,3.338102,0.9468969,3.341776,3.006576,0.07714141,-0.5846445,0.8981113,3.265745,-0.8359451,-1.661957,-3.093592,0.7797006],
[-3.673357,-3.062057,-2.496408,1.572604,1.040433,2.493006,3.180286,0.8021342,2.19214,-2.551456,0.02211242,-1.251561,-2.675427,3.948922,1.504981,0.6972783,3.541095],
[0.5439382,-3.046454,-2.311703,-0.9761277,3.60647,0.922318,1.519572,-1.428603,-3.386806,0.6109705,3.467811,-1.037133,3.208732,2.995035,1.234854,1.629902,-2.420464],
[-3.162611,-3.782489,2.357537,0.3103,-0.5267772,3.894082,-1.18441,-0.7176157,-2.108757,-3.52914,-3.277492,2.694999,1.024551,-3.391651,3.583971,-0.8193374,1.635107],
[0.8472637,-3.434773,-2.39076,-1.627089,0.1802508,-1.745651,0.6452546,-1.803266,1.646105,0.800715,2.930548,-1.254756,1.170578,2.73352,2.521227,1.006953,3.853378],
[-0.3629124,0.148543,-3.094676,-0.5481387,-1.791308,-1.887538,-2.307052,-1.836985,3.790174,-2.258613,-0.1916012,2.302653,-0.1985567,3.407846,2.506676,-3.076781,1.259468],
[1.587227,2.080081,2.600238,3.593478,3.331508,3.854142,-3.814229,1.423624,-2.382653,-0.8527315,0.8325502,1.745675,-2.328796,-1.735129,0.07691754,-2.281819,-2.472025],
[0.1219355,-2.832877,-0.4821991,-1.41176,2.174624,-3.185153,2.877811,-0.1442605,-3.107339,1.153929,-0.8179721,1.816224,3.080764,-2.60935,3.285505,2.028452,1.812299],
[-0.4349563,-3.764301,-3.607176,-3.134201,1.829078,-1.767682,1.093118,1.923957,2.358784,1.686004,3.507342,3.225024,-0.8006783,-2.89667,0.377761,-2.117273,-0.991549],
[-1.224159,-1.63164,-0.9603514,-1.218344,-2.473638,3.729494,0.7578188,3.266244,0.4802066,-3.650932,2.854107,-0.8194075,2.439104,2.532582,0.9586955,3.092267,0.4828627]
],
[
[1.359604,2.65594,1.887185,3.773029,-1.917421,-3.09165,2.91134,3.679868,-1.608561,2.755354,2.30916,-1.479437,-3.021559,-3.12178,2.93633,2.572363,-2.097253],
[-3.942622,3.421416,-0.6612625,0.6454473,-3.020353,-0.2540429,3.383265,-1.529628,-1.219127,0.5310866,2.40789,-1.819558,3.744692,-3.762169,0.06189775,0.9281424,1.635856]
]
],
"biases":[
[
-0.3894714,1.652688,3.197496,1.715806,-0.9120159,-1.280341,2.098697,-3.568591,-2.999254,0.2298766,-3.715046,2.799052,-1.824284,1.672288,1.642559,1.358789,-0.6000897
],
[
2.605009,0.6069773
]
]},
{
"fitness":2.24345,
"weights":[
[
[1.332746,-1.334512,-1.517561,-3.697655,-2.908847,2.795537,-1.36856,-2.143802,-3.910661,3.642049,0.331896,-1.485597,-0.1444751,3.128554,0.5635051,2.596504,2.012111],
[-2.631825,-3.978779,-1.112292,2.271434,1.540893,-0.1804555,-0.1124527,-0.1340896,-3.262153,-3.444319,1.809299,-1.769718,2.982203,-1.476768,-3.179696,2.684087,-0.3137467],
[2.245706,2.897685,3.197312,0.4529719,-3.203809,1.728777,2.338394,0.6532699,0.7414778,1.149485,0.7055272,-2.974627,-3.004836,-3.224485,-1.15102,-2.216818,0.09765323],
[3.353392,-1.748657,-2.250773,0.3991501,0.4221244,1.158687,2.271714,1.196177,-2.269271,-3.385625,-2.012534,-2.059705,-3.577441,3.697186,0.5560041,-0.08100498,0.03415414],
[0.2636242,-2.175917,3.122427,-3.930944,0.9267663,0.9115218,-3.940679,-1.986795,-2.869844,1.735373,3.584898,1.061897,-1.108742,-1.732372,0.4684658,2.824856,-1.038967],
[3.532255,1.951918,-0.8749017,2.468996,0.3970841,-3.258158,-0.1565702,0.3128759,2.776711,0.3034997,0.471363,-1.509286,0.3852929,-2.498127,-3.716848,3.970246,1.622871],
[-0.1197936,-0.7163998,2.662523,-1.729956,1.353113,-0.6477993,-2.783056,-1.896994,-0.1846151,-1.367051,-2.561583,-0.3920038,2.786265,3.427554,-1.149846,-3.321194,2.557796],
[2.273394,-0.2504825,-0.6254339,0.1977271,3.188319,-2.75833,1.207069,2.332783,1.155757,3.835159,3.946936,2.530944,-1.042791,1.468207,-1.512214,-0.3925368,0.08610141],
[2.319016,-3.062057,-3.430488,2.992352,-3.647771,-1.357424,1.888119,0.2009124,-1.775484,-1.784918,-0.7913098,-3.538262,-0.4056546,-0.599619,3.443957,-2.338756,-0.4267464],
[-2.234979,-3.046454,-1.50855,-0.9761277,2.702569,0.922318,1.519572,-0.5213955,-3.507287,-3.024225,3.467811,3.381088,-3.755615,2.057843,1.234854,0.5713922,-1.858522],
[-1.236254,-3.782489,-1.942802,-2.78602,-1.845797,0.4752448,-1.725881,2.169289,-1.378559,-3.52914,-3.277492,3.496313,2.569374,1.327258,1.855544,1.216229,-1.734679],
[-3.800431,0.174073,2.809494,3.27614,1.611861,-2.788494,0.429973,3.902471,2.483099,3.023659,0.4229057,3.10773,3.919616,-3.532756,-2.45803,1.006953,0.9038582],
[-2.285367,-3.699198,-0.6388376,2.074139,-3.487222,-2.004387,-0.412989,0.3153951,3.790174,2.837104,-3.684592,2.302653,1.453269,3.652177,2.794044,3.787294,1.259468],
[0.5936865,2.080081,2.600238,1.046936,2.619254,0.1920432,-3.253789,-0.2875365,-2.382653,-0.8527315,0.8325502,1.829287,-1.742666,-1.735129,-0.1626689,1.178254,-0.5830905],
[-0.1897298,-2.222446,3.984012,0.02834316,-0.2813262,-3.185153,2.877811,1.588861,-1.369114,1.10515,0.3434194,-2.458244,-3.436059,-3.1429,3.285505,0.009821082,-3.364856],
[2.177595,-3.480901,-3.399923,-1.279981,1.829078,-1.767682,1.093118,-1.138286,0.526254,0.0330139,-2.303342,-1.469884,-3.486063,0.1194528,1.667646,-2.117273,-0.991549],
[-2.918432,-2.417064,-3.940285,3.905513,-0.7173423,-3.036579,-0.8555395,-3.955887,0.4802066,1.253857,2.537258,2.808933,2.439104,2.532582,-1.807208,-2.153703,0.9851934]
],
[
[1.624888,2.65594,-2.293619,-0.2768613,3.218428,-3.667532,3.696334,3.679868,2.718942,3.445006,-0.7806947,2.072852,3.528915,3.03874,-1.041243,2.572363,-2.097253],
[1.022868,3.940052,1.27962,1.45527,-1.202063,-3.899225,3.383265,-0.6445613,-3.417463,-2.240535,2.40789,-1.819558,1.094856,-3.762169,0.06189775,0.9281424,3.891663]
]
],
"biases":[
[
-0.3894714,1.652688,-3.057327,-1.529648,-1.69658,0.7094607,2.098697,0.3106059,0.8193406,2.50772,-3.593017,-0.7989747,-1.824284,-0.06173328,-1.697938,2.763343,-0.6000897
],
[
2.206181,0.6069773
]
]},
{
"fitness":2.239794,
"weights":[
[
[1.332746,1.582229,-0.8643027,-3.697655,-2.908847,2.795537,-1.36856,-2.622662,-3.910661,3.642049,0.331896,-1.485597,2.973165,-3.998416,0.5635051,2.596504,2.012111],
[-2.631825,-3.978779,-1.112292,2.271434,1.540893,-0.1804555,3.307198,2.967706,-3.262153,-2.204427,3.615074,-1.769718,0.7156144,-1.476768,-1.433173,2.684087,-0.3137467],
[2.245706,2.897685,3.197312,0.4529719,-3.203809,1.728777,2.338394,0.6532699,0.7414778,1.149485,2.841759,-2.974627,-3.004836,-3.224485,-1.15102,-2.216818,-1.342094],
[3.353392,-1.748657,-2.250773,0.3991501,0.4221244,-2.407546,2.271714,1.196177,3.274149,-3.385625,2.38873,-2.059705,-3.577441,3.12206,0.5560041,-0.08100498,3.40471],
[-0.2066972,-2.175917,3.122427,0.02937071,0.9267663,0.9115218,-3.549995,-1.986795,-2.8925,2.012319,3.584898,1.061897,-1.108742,2.39416,0.4684658,-0.5508335,-1.038967],
[3.532255,-3.077462,-0.8749017,2.468996,-0.1037488,-3.258158,-0.1565702,-0.6420833,-0.8539606,0.3034997,0.471363,-1.509286,3.977402,-2.498127,-3.716848,3.970246,1.622871],
[1.746136,-0.7163998,-3.263638,-1.729956,2.570117,-3.148146,-2.783056,0.7275507,-0.1846151,0.3341084,-2.561583,-0.3920038,2.786265,3.427554,-1.149846,-3.321194,2.557796],
[2.273394,-0.2504825,-0.6254339,-0.2358773,1.463385,-2.75833,1.207069,2.332783,1.155757,-2.844908,3.946936,2.530944,-1.042791,3.985464,-1.34304,3.225415,0.08610141],
[2.319016,-0.3046864,3.66582,2.992352,2.621938,-1.357424,1.888119,0.2009124,-0.6480013,-3.503269,-0.7913098,-3.538262,-0.4056546,-0.599619,-2.937379,-0.2797827,-1.037402],
[-0.9573932,-3.046454,-3.978914,-0.9761277,2.702569,0.922318,1.519572,-0.5213955,-3.507287,-3.024225,3.467811,1.669796,3.208732,2.057843,1.234854,0.5713922,1.183509],
[-1.236254,-3.782489,1.748617,-0.8219196,-1.845797,0.4752448,-1.725881,2.169289,-1.877075,3.206383,-3.277492,3.496313,2.569374,1.327258,1.855544,-0.7714859,-1.734679],
[-2.185861,0.174073,2.809494,3.27614,1.611861,-2.788494,0.1752587,3.902471,2.483099,3.023659,-0.9140959,3.10773,0.01187589,-3.532756,3.729122,1.006953,0.9038582],
[-2.285367,-3.699198,-0.6388376,2.074139,-3.487222,-2.004387,-0.412989,-1.836985,3.790174,-2.788834,-3.684592,2.302653,1.918205,3.652177,2.794044,1.739442,1.259468],
[0.5936865,-3.726291,2.600238,1.57485,1.287225,0.1920432,-3.253789,1.423624,-2.382653,-0.8527315,0.8325502,-3.184336,-1.742666,-1.735129,-0.1626689,3.677897,-2.472025],
[-0.1897298,-2.222446,-0.4554917,0.02834316,-0.2813262,-3.185153,2.877811,1.588861,-1.369114,1.10515,0.3434194,-2.458244,-3.535818,3.941939,-3.91387,0.009821082,-3.364856],
[2.177595,-3.480901,0.2144429,-1.279981,0.09878881,-1.767682,1.093118,-3.190607,0.526254,-2.414654,2.39875,-1.515057,-3.486063,0.1194528,1.667646,-2.117273,-0.991549],
[-2.918432,-2.417064,-3.940285,-2.859084,2.715556,-2.606088,-0.8555395,-3.955887,0.4802066,1.253857,2.537258,2.808933,2.439104,2.532582,-1.807208,-1.332113,0.9851934]
],
[
[1.624888,2.65594,0.9055656,-0.2768613,3.218428,-1.223381,0.4906469,3.679868,2.718942,3.445006,3.710491,2.072852,3.528915,3.03874,0.1800248,2.572363,-2.097253],
[1.022868,3.757411,-2.273375,1.45527,-1.202063,2.644178,-1.296847,-0.6445613,-3.417463,-2.240535,2.40789,-1.819558,1.094856,2.075305,1.953813,0.3262325,3.891663]
]
],
"biases":[
[
-0.3894714,0.753123,3.285214,-1.127728,-0.9120159,1.655046,-1.357607,0.3106059,0.8193406,2.50772,0.5229939,-1.792716,-1.824284,-0.8279455,0.4969731,1.170814,-0.6000897
],
[
-0.1193409,0.6069773
]
]},
{
"fitness":2.196306,
"weights":[
[
[1.332746,-1.334512,-1.517561,-3.697655,-2.908847,2.795537,-1.36856,-2.143802,-3.910661,3.642049,0.331896,-1.485597,-0.1444751,3.128554,0.5635051,2.596504,2.012111],
[-2.631825,-3.978779,-1.112292,2.271434,1.540893,-0.1804555,-0.1124527,-3.92932,-3.262153,-3.444319,1.809299,-1.769718,2.982203,-1.476768,-3.179696,2.684087,-0.3137467],
[2.245706,2.897685,3.197312,0.4529719,-3.203809,1.728777,2.338394,0.6532699,0.7414778,1.149485,0.7055272,-2.974627,-3.004836,-3.224485,-1.15102,-2.216818,0.09765323],
[1.691921,-1.748657,-2.250773,0.3991501,0.4221244,1.158687,2.271714,1.196177,-2.269271,-3.385625,-2.012534,-2.059705,-3.577441,3.697186,0.5560041,-0.08100498,0.03415414],
[0.2636242,-2.175917,3.122427,-3.930944,0.9267663,0.9115218,-3.940679,-3.396524,-2.869844,1.735373,3.584898,1.061897,-1.108742,-1.732372,0.4684658,2.824856,-1.038967],
[3.532255,1.951918,-0.8749017,2.468996,0.3970841,-3.258158,-0.1565702,0.3128759,2.776711,0.05468713,0.471363,-1.509286,0.3852929,-2.498127,-3.716848,3.970246,1.622871],
[-0.1197936,-0.7163998,2.662523,-1.729956,1.353113,-0.6477993,-2.783056,-1.896994,-0.1846151,-1.367051,-2.561583,-0.3920038,2.786265,3.427554,-1.149846,-3.321194,2.557796],
[2.273394,-0.2504825,-0.6254339,0.1977271,3.188319,0.9439628,1.207069,2.332783,2.671102,3.835159,3.946936,2.530944,-1.042791,1.468207,-1.512214,-0.3925368,0.08610141],
[0.2652226,2.069355,-3.430488,2.992352,-3.647771,-1.357424,1.888119,0.2009124,-1.775484,-1.784918,-0.7913098,-3.538262,-0.4056546,-0.599619,3.443957,-2.338756,-0.4267464],
[-2.234979,-3.046454,-1.50855,-0.9761277,2.702569,0.922318,1.519572,-0.5213955,-3.507287,-3.024225,3.467811,3.381088,-3.755615,2.057843,1.234854,0.5713922,1.183509],
[-1.236254,-3.782489,-1.942802,-2.78602,-1.845797,0.4752448,-1.725881,2.169289,-1.378559,-3.52914,-3.277492,3.496313,2.569374,1.327258,1.855544,1.216229,-1.734679],
[-0.2431709,0.174073,2.809494,3.27614,1.611861,-2.788494,0.429973,3.902471,2.483099,3.023659,-3.950105,3.10773,3.919616,-3.532756,-2.45803,1.006953,0.9038582],
[-2.285367,-3.699198,-0.6388376,2.074139,-3.487222,-2.004387,-0.412989,0.3153951,3.790174,2.837104,-3.684592,2.302653,1.453269,3.652177,2.794044,3.787294,1.259468],
[0.5936865,2.080081,2.600238,1.046936,2.619254,0.1920432,-3.253789,-0.2875365,-2.382653,-0.8527315,0.8325502,1.829287,-1.742666,-1.735129,-0.1626689,1.178254,-0.5830905],
[-0.1897298,-2.222446,3.984012,0.02834316,-0.2813262,-3.185153,2.877811,1.588861,-0.5481747,1.10515,0.3434194,-2.458244,-2.677666,-3.1429,3.285505,0.009821082,-3.364856],
[2.177595,-3.480901,-3.399923,-1.279981,1.829078,-1.767682,1.093118,-1.138286,0.526254,0.0330139,-2.303342,-1.469884,-3.486063,0.1194528,1.667646,-2.117273,-0.991549],
[-2.918432,-2.417064,-3.940285,-0.04252092,-0.7173423,-3.036579,-3.737058,-3.955887,0.4802066,1.253857,2.537258,2.808933,2.439104,2.532582,-1.807208,-2.153703,0.9851934]
],
[
[1.624888,2.65594,-2.293619,-0.2768613,3.218428,-3.667532,3.696334,3.679868,2.718942,3.445006,-2.763567,2.072852,3.528915,3.03874,-1.041243,2.572363,-2.097253],
[1.022868,3.940052,1.27962,1.45527,-1.202063,-3.899225,3.383265,-0.6445613,-3.417463,-2.240535,2.40789,-1.819558,1.094856,-3.762169,0.06189775,0.9281424,3.891663]
]
],
"biases":[
[
-0.3894714,1.652688,-3.057327,-1.529648,2.74654,0.7094607,2.098697,0.3106059,0.8193406,2.50772,-3.593017,-0.7989747,-1.824284,-0.06173328,-1.697938,2.763343,-0.6000897
],
[
2.206181,0.6069773
]
]},
{
"fitness":2.144518,
"weights":[
[
[1.332746,-1.334512,-1.517561,-3.697655,-2.908847,0.7434783,-1.36856,-2.143802,-3.910661,3.642049,0.331896,-1.485597,-0.1444751,3.128554,0.5635051,2.596504,2.012111],
[-2.631825,-3.978779,-1.112292,2.271434,1.540893,-0.1804555,-0.1124527,-3.92932,-3.262153,-3.444319,1.809299,-1.769718,2.982203,-1.476768,-3.179696,2.684087,-0.3137467],
[2.245706,2.897685,3.197312,0.4529719,-3.203809,1.728777,2.338394,0.6532699,0.7414778,1.149485,0.7055272,-2.974627,-3.004836,-3.224485,-1.15102,-2.216818,0.09765323],
[3.353392,-1.748657,-2.250773,0.3991501,0.4221244,1.158687,2.271714,1.196177,-2.269271,-3.385625,-2.012534,-2.059705,-3.577441,3.697186,0.5560041,-0.08100498,0.03415414],
[0.2636242,-2.175917,3.122427,-3.930944,0.9267663,0.9115218,-3.940679,-3.396524,-2.869844,1.735373,3.584898,1.061897,-1.108742,-1.732372,0.4684658,2.824856,-1.038967],
[3.532255,1.951918,-0.8749017,2.468996,0.3970841,-3.258158,-2.280136,0.3128759,2.776711,0.05468713,0.471363,-1.509286,0.3852929,-2.498127,-3.716848,3.970246,1.622871],
[-0.1197936,-0.7163998,3.777073,-1.729956,1.353113,-0.6477993,-2.783056,-1.896994,-0.1846151,-1.367051,-2.561583,-0.3920038,2.786265,3.427554,-1.149846,-3.321194,2.557796],
[2.273394,-0.2504825,-0.6254339,0.1977271,3.188319,-2.75833,1.207069,2.332783,2.671102,3.835159,3.946936,2.530944,-1.042791,1.468207,-1.512214,-0.3925368,0.08610141],
[2.319016,2.069355,-3.430488,2.992352,-3.647771,-1.357424,1.888119,0.2009124,-1.775484,-1.784918,-0.7913098,-3.538262,-0.4056546,-0.599619,3.443957,-2.338756,-0.4267464],
[-2.234979,-3.046454,-1.50855,-0.9761277,2.702569,0.922318,1.519572,-0.5213955,-3.507287,-3.024225,3.467811,3.381088,-3.755615,2.057843,1.234854,0.5713922,1.183509],
[-1.236254,-3.782489,-1.942802,-2.78602,-1.845797,0.4752448,-1.725881,2.169289,-1.378559,-3.52914,-3.277492,3.496313,2.569374,1.327258,1.855544,1.216229,-1.734679],
[-0.2431709,0.174073,2.809494,3.27614,1.611861,-2.788494,0.429973,3.902471,2.483099,3.023659,-3.950105,3.10773,3.919616,-3.532756,-2.45803,1.006953,0.9038582],
[-2.285367,-3.699198,-0.6388376,2.074139,-3.487222,-2.004387,-0.412989,0.3153951,3.790174,2.837104,-3.684592,2.302653,1.453269,3.652177,2.794044,3.787294,1.259468],
[0.5936865,2.080081,2.600238,1.046936,2.619254,0.1920432,-3.253789,-0.2875365,-2.382653,-0.8527315,-0.1191159,1.829287,-1.742666,-1.735129,-0.1626689,1.178254,-0.5830905],
[-0.1897298,-2.222446,3.984012,0.02834316,-0.2813262,-1.645836,2.877811,1.588861,-0.5481747,1.10515,0.3434194,-2.458244,-2.677666,-3.1429,3.285505,0.009821082,-3.364856],
[2.177595,-3.480901,-3.399923,-1.279981,1.829078,-1.767682,1.093118,-1.138286,0.526254,0.0330139,-2.303342,-1.469884,-3.486063,0.1194528,1.667646,-2.117273,-0.991549],
[-2.918432,-2.417064,-3.940285,3.905513,-0.7173423,-3.036579,-0.8555395,-3.955887,0.4802066,1.253857,2.537258,2.808933,2.439104,2.532582,-1.807208,-2.153703,0.9851934]
],
[
[1.624888,2.65594,-2.293619,-0.2768613,3.218428,-3.667532,-0.9688625,3.679868,2.718942,3.445006,-2.763567,2.072852,3.528915,3.03874,-1.041243,2.572363,-2.097253],
[1.022868,3.940052,1.27962,1.45527,-1.202063,-3.899225,3.383265,-0.6445613,-3.417463,-2.240535,2.40789,-1.819558,1.094856,-3.762169,0.06189775,0.9281424,3.891663]
]
],
"biases":[
[
-0.3894714,1.652688,-3.057327,-1.529648,-1.69658,0.7094607,2.098697,0.3106059,0.8193406,2.50772,-3.593017,-0.7989747,-1.824284,-0.06173328,-1.697938,2.763343,-0.6000897
],
[
2.206181,0.6069773
]
]},
{
"fitness":2.10951,
"weights":[
[
[1.332746,-1.334512,-0.8643027,-3.697655,-2.908847,2.795537,-1.36856,-0.7432475,-3.910661,3.642049,0.331896,-1.485597,3.849415,-3.998416,0.5635051,2.596504,-2.921255],
[-2.631825,-3.978779,-1.112292,2.271434,1.540893,-0.1804555,3.307198,2.967706,-3.262153,-2.204427,1.809299,1.785389,0.7156144,-1.476768,-3.179696,2.684087,-0.3137467],
[2.245706,2.897685,3.197312,0.4529719,-3.203809,1.728777,-0.5181013,0.6532699,0.7414778,1.149485,2.841759,-2.974627,1.785304,-3.224485,-1.15102,-2.216818,-1.342094],
[3.353392,-1.748657,-2.250773,0.3991501,1.572339,-2.407546,2.271714,1.196177,3.274149,-3.385625,-2.012534,-2.059705,-3.577441,3.12206,0.5560041,-0.08100498,3.40471],
[0.2636242,-2.175917,3.122427,2.018513,0.9267663,1.682758,-3.940679,-1.986795,-2.8925,2.012319,3.584898,2.571739,-1.108742,-2.640199,0.4684658,2.824856,-1.038967],
[3.532255,-1.328172,-0.8749017,2.468996,-0.1037488,-3.258158,-0.1565702,0.3128759,-0.8539606,0.3034997,0.471363,-3.545721,3.977402,-2.498127,-3.716848,3.970246,1.622871],
[-3.27054,-0.7163998,-3.263638,-1.729956,2.570117,1.988159,0.4047983,-1.896994,-3.085279,0.3341084,1.224813,-0.3920038,2.786265,3.427554,-1.149846,0.4143886,2.557796],
[2.273394,-0.2504825,-0.6254339,-0.2358773,3.188319,-2.75833,1.207069,2.332783,1.155757,-2.844908,3.946936,2.530944,-1.042791,3.985464,-1.661957,-0.3925368,0.08610141],
[2.319016,-3.062057,3.66582,2.992352,2.621938,-1.357424,1.888119,0.2009124,-1.992833,-3.503269,-0.7913098,-3.538262,-0.4056546,-0.599619,-2.937379,-2.338756,-1.037402],
[-2.234979,-3.046454,-2.036243,-0.2483827,2.702569,0.922318,1.519572,-0.5213955,-3.507287,-3.024225,3.467811,3.381088,3.208732,2.057843,1.234854,0.5713922,1.183509],
[-1.236254,-3.782489,-0.2922959,-2.78602,-1.845797,0.4752448,-1.725881,-1.391858,-1.877075,3.206383,-3.277492,3.496313,2.569374,1.327258,1.855544,-0.7714859,-1.734679],
[-2.185861,0.174073,2.809494,3.27614,1.611861,-2.788494,0.1752587,3.902471,2.483099,3.023659,-0.9140959,3.10773,0.01187589,-3.532756,3.729122,-3.898153,0.9038582],
[-2.285367,-3.699198,-0.6388376,2.074139,-3.487222,-2.004387,-0.412989,-3.467654,3.790174,-2.788834,-3.684592,2.302653,1.453269,3.652177,2.794044,3.787294,1.259468],
[0.5936865,-3.726291,2.600238,1.046936,2.619254,0.1920432,-3.253789,1.423624,-2.382653,-0.8527315,0.8325502,1.829287,-1.742666,-1.735129,-0.1626689,3.677897,-2.472025],
[-0.1897298,-2.222446,-0.4554917,0.02834316,1.840057,0.7306588,2.877811,1.588861,-1.369114,1.10515,0.3434194,-2.458244,3.080764,3.941939,3.285505,0.009821082,-3.364856],
[2.177595,-3.480901,0.2144429,-1.279981,0.09878881,2.700071,1.093118,-1.140461,0.526254,-2.414654,2.39875,-1.515057,-3.486063,0.1194528,1.667646,-2.117273,-0.991549],
[-2.918432,-2.417064,-3.940285,3.905513,2.715556,-2.606088,-0.8555395,-3.955887,0.4802066,-0.7532808,2.537258,2.808933,2.439104,2.532582,2.820457,-2.153703,0.9851934]
],
[
[1.624888,2.65594,0.9055656,-0.2768613,3.218428,-3.667532,0.4906469,3.679868,2.718942,3.445006,3.710491,2.072852,3.528915,3.03874,-0.4267017,2.572363,-2.097253],
[1.022868,3.757411,-2.273375,1.45527,-1.202063,-3.899225,-1.296847,-0.6445613,-3.417463,-3.967573,2.40789,-1.819558,1.094856,1.670011,0.06189775,0.9281424,3.891663]
]
],
"biases":[
[
-0.3894714,1.652688,-3.057327,-1.127728,-0.9120159,1.655046,-1.357607,0.3106059,0.8193406,2.50772,0.5229939,-1.792716,-0.7723757,-0.8279455,-1.697938,1.170814,-0.6000897
],
[
2.605009,0.6069773
]
]},
{
"fitness":2.072717,
"weights":[
[
[1.332746,-1.334512,-3.025404,-0.01632691,1.092534,3.203521,1.970513,1.681873,-1.633892,-3.843048,1.928577,-1.485597,-2.334831,-3.998416,-3.053209,-0.9058704,-1.688691],
[2.735322,-3.978779,-1.334657,2.271434,-2.393329,-3.618899,-3.80251,-3.860635,-1.320775,0.1187598,-0.3746175,2.97008,0.7156144,-1.476768,0.3261914,-0.0698885,2.903608],
[2.245706,-0.6166124,3.854627,-2.073942,0.4628903,3.187424,2.91989,0.6532699,-1.464083,2.560035,-0.1259976,-2.974627,-3.80818,-0.79887,-1.113682,-2.441055,1.473719],
[-1.633389,1.829332,-2.250773,2.636087,-0.8015668,1.158687,3.943249,1.196177,-0.9996279,-3.990801,-0.9173689,-2.059705,1.968247,3.12206,2.863927,-1.735551,3.718717],
[2.923531,0.1533085,3.122427,-1.71407,0.9267663,0.9115218,1.029932,-0.8072438,3.155816,2.578338,0.5387605,1.425483,-1.108742,3.016602,-0.3544715,2.824856,0.03342543],
[-2.827952,0.9763855,0.5490128,3.235327,-0.2312733,-3.447639,2.193156,0.3128759,1.380637,3.541686,0.471363,-2.638724,0.3852929,0.4396034,-3.716848,-3.645064,1.302097],
[-3.27054,-0.7163998,-1.183606,-2.254406,3.509569,0.09699457,-2.684569,-1.896994,0.2192741,0.3341084,0.2825215,-0.3920038,-1.606169,1.693178,0.1610564,-0.127591,-3.493427],
[-2.143863,-0.6215943,1.668098,0.6819264,-2.910517,3.338102,0.9468969,3.341776,3.006576,0.07714141,-0.5846445,0.8981113,3.265745,-0.8359451,-1.661957,-3.093592,0.7797006],
[-3.673357,-3.062057,-2.496408,1.572604,1.040433,2.493006,3.180286,0.8021342,2.19214,-2.551456,0.02211242,-1.251561,-2.675427,3.948922,1.504981,0.6972783,3.541095],
[0.5439382,-3.046454,-2.311703,-0.9761277,3.60647,3.631737,1.519572,-1.428603,-3.386806,0.6109705,3.467811,-1.037133,3.208732,2.995035,1.234854,1.629902,-2.420464],
[-3.162611,-3.782489,2.357537,0.3103,-0.5267772,3.894082,-1.18441,-0.7176157,-2.108757,-3.52914,-3.277492,2.694999,1.024551,-3.391651,3.583971,-0.8193374,1.635107],
[0.8472637,-3.434773,-2.39076,-1.627089,0.1802508,-1.745651,0.6452546,-1.803266,1.646105,0.800715,2.930548,-1.254756,1.170578,2.73352,2.521227,1.006953,3.853378],
[-0.3629124,0.148543,-3.094676,-0.5481387,-1.791308,-1.887538,-2.307052,-1.836985,3.790174,-2.258613,-0.1916012,2.302653,-0.1985567,3.407846,2.506676,-3.076781,1.259468],
[1.587227,2.080081,2.600238,3.593478,3.331508,3.854142,-3.814229,1.423624,-2.382653,-0.8527315,0.8325502,1.745675,-2.328796,-1.735129,0.07691754,-2.281819,-2.472025],
[0.1219355,-2.832877,-0.4821991,-1.41176,2.174624,-3.185153,2.877811,-0.1442605,-3.107339,1.153929,-0.8179721,1.816224,3.080764,-2.60935,3.285505,2.028452,1.812299],
[-0.4349563,-3.764301,-3.607176,-3.134201,1.829078,-1.767682,1.093118,1.923957,2.358784,1.686004,3.507342,3.225024,-0.8006783,-2.89667,0.377761,-2.117273,-0.991549],
[-1.224159,-1.63164,-0.9603514,-1.218344,-2.473638,3.729494,0.7578188,3.266244,0.4802066,-3.650932,2.854107,-0.8194075,2.439104,2.532582,0.9586955,3.092267,0.4828627]
],
[
[1.359604,2.65594,1.887185,3.773029,-1.917421,-3.09165,2.91134,3.679868,-1.608561,2.755354,2.30916,-1.037979,-3.021559,-3.12178,2.93633,2.572363,-2.097253],
[-3.942622,3.421416,-0.6612625,0.6454473,-3.020353,-0.2540429,3.383265,-1.529628,-1.219127,0.5310866,2.40789,-1.819558,3.744692,-3.762169,0.06189775,0.9281424,1.635856]
]
],
"biases":[
[
-0.3894714,1.652688,3.197496,1.715806,-0.9120159,-1.280341,2.098697,-3.568591,-2.999254,0.2298766,-3.715046,2.799052,-1.824284,1.672288,1.642559,1.358789,-0.6000897
],
[
2.605009,0.6069773
]
]},
{
"fitness":2.051995,
"weights":[
[
[1.332746,-1.334512,-0.8643027,-3.697655,0.6847998,2.795537,-3.132979,-0.7432475,-3.910661,3.642049,0.331896,-1.485597,3.849415,-3.998416,0.5635051,2.596504,2.012111],
[-2.631825,-3.978779,-1.112292,2.271434,1.540893,-0.1804555,3.307198,2.967706,-3.262153,-2.204427,1.809299,-1.769718,0.7156144,-1.476768,-3.179696,2.684087,-0.3137467],
[2.245706,2.897685,3.197312,0.4529719,-3.203809,1.728777,2.338394,0.6532699,0.7414778,1.149485,2.841759,-2.974627,-3.004836,-3.224485,-1.15102,1.939301,-1.342094],
[3.353392,-1.748657,-2.250773,0.3991501,0.4221244,-2.407546,1.199963,1.196177,3.274149,-3.385625,-2.012534,-2.059705,-3.577441,3.12206,0.5560041,-0.08100498,3.40471],
[0.2636242,-2.175917,3.122427,0.02937071,0.9267663,0.9115218,-3.940679,-1.986795,-2.8925,2.012319,3.584898,1.061897,-1.108742,-2.640199,0.4684658,2.824856,-1.038967],
[-1.039756,-1.328172,-0.8749017,2.550805,-0.1037488,-3.258158,-0.1565702,0.3128759,-0.8539606,0.3034997,0.471363,-1.509286,3.977402,-2.498127,-3.716848,3.970246,1.622871],
[-3.27054,1.930392,1.927024,-1.729956,2.570117,-3.148146,-2.783056,-1.896994,-0.1846151,0.3341084,-2.561583,-0.3920038,-2.947179,3.427554,-1.149846,-3.321194,2.557796],
[2.273394,-0.2504825,-0.6254339,-0.2358773,3.188319,-2.75833,1.207069,2.332783,1.155757,-2.844908,3.946936,2.530944,-1.042791,3.985464,-1.661957,-0.3925368,0.08610141],
[2.319016,-3.062057,3.66582,2.992352,2.621938,-1.357424,1.888119,-3.739726,-1.992833,-3.503269,-0.7913098,-3.538262,-1.854575,-0.599619,-2.937379,-2.338756,-1.037402],
[-2.234979,3.343171,-3.978914,-0.9761277,2.702569,0.922318,1.519572,1.458385,-3.507287,-3.024225,3.467811,3.381088,3.208732,-3.345859,1.234854,0.5713922,1.183509],
[-1.236254,-3.782489,2.114705,-2.78602,-1.845797,0.4752448,-1.725881,2.169289,-1.877075,3.206383,-3.277492,3.496313,2.569374,1.327258,1.855544,-0.7714859,-1.734679],
[-2.185861,0.174073,2.809494,3.27614,1.611861,-2.788494,0.1752587,3.902471,2.483099,-0.3169227,-0.9140959,3.10773,0.01187589,-3.532756,3.729122,1.006953,0.9038582],
[-2.285367,-1.604658,-0.6388376,2.074139,-3.487222,1.556275,-0.412989,-1.836985,3.790174,-2.788834,-3.684592,2.302653,1.453269,3.652177,1.019552,-2.936629,1.259468],
[0.5936865,-3.726291,2.600238,1.046936,2.619254,-0.974052,-3.253789,1.423624,-2.382653,-0.8527315,0.8325502,-2.699584,-1.742666,1.509586,-0.1626689,3.677897,-2.472025],
[-0.1897298,-2.222446,-0.4554917,0.02834316,-0.2813262,-3.185153,2.877811,1.588861,-1.369114,1.10515,0.3434194,-2.458244,3.080764,3.941939,3.285505,0.009821082,-3.364856],
[2.177595,-3.480901,0.2144429,-1.279981,0.09878881,-1.767682,1.13329,-1.140461,0.526254,-2.414654,2.39875,-1.515057,-3.486063,0.1194528,1.667646,-2.117273,-0.991549],
[-2.918432,-2.417064,-3.940285,3.905513,2.715556,-2.606088,-0.8555395,-3.955887,0.4802066,1.253857,2.537258,-3.483272,2.439104,2.532582,-1.807208,-2.153703,0.9851934]
],
[
[1.624888,2.65594,0.9055656,-0.2768613,3.218428,0.3563559,0.4906469,3.679868,2.718942,3.445006,3.710491,2.072852,3.528915,3.03874,-0.4267017,2.572363,-2.097253],
[1.022868,3.644572,-2.273375,1.45527,-1.202063,-3.899225,-1.296847,-0.6445613,-3.417463,-2.240535,2.40789,-1.819558,1.094856,-3.708966,0.06189775,0.9281424,3.891663]
]
],
"biases":[
[
-0.3894714,1.652688,-3.057327,3.093017,-0.9120159,1.655046,-1.357607,0.3106059,1.425316,2.50772,0.5229939,-1.792716,-1.824284,-0.8279455,-1.697938,1.170814,-0.6000897
],
[
2.605009,0.6069773
]
]},
{
"fitness":2.011489,
"weights":[
[
[-1.083182,-1.334512,-0.8643027,-3.697655,-2.908847,2.795537,-1.36856,-0.7432475,-3.910661,3.642049,0.331896,-1.485597,3.849415,-3.998416,-3.334215,2.596504,2.012111],
[-2.631825,-3.978779,-1.112292,2.271434,1.540893,-0.1804555,3.307198,2.967706,-3.262153,-2.204427,1.809299,-1.769718,0.7156144,-1.476768,-3.179696,2.684087,-0.3137467],
[2.245706,2.897685,3.197312,0.4529719,-3.203809,1.728777,2.338394,0.6532699,0.7414778,1.149485,2.841759,-2.974627,-3.004836,-0.9788634,-1.15102,-2.216818,-1.342094],
[3.353392,-1.748657,-2.250773,0.3991501,0.4221244,-2.407546,-0.740734,1.196177,3.274149,-3.385625,-2.012534,-2.059705,-3.577441,3.12206,2.479304,3.279392,3.40471],
[0.2636242,-2.175917,3.122427,0.05993885,-2.562507,0.9115218,-3.940679,-1.986795,-2.8925,2.012319,3.584898,1.061897,-1.108742,-2.640199,0.4684658,2.520538,3.290605],
[3.532255,-1.328172,-0.8749017,2.468996,-0.1037488,-3.258158,-0.1565702,0.3128759,-0.8539606,0.3034997,0.471363,-1.509286,3.977402,-2.498127,-3.716848,3.970246,1.622871],
[-3.27054,-0.7163998,-3.263638,-1.729956,2.768031,-3.148146,-2.783056,-1.896994,-0.1846151,0.3341084,-2.561583,-0.3920038,2.786265,3.427554,-1.149846,-3.321194,2.557796],
[2.273394,-0.2504825,-0.6254339,-0.2358773,3.188319,-2.75833,1.207069,2.332783,1.155757,-2.844908,3.946936,2.530944,-1.042791,3.985464,-2.678622,-0.3925368,0.08610141],
[2.319016,-3.062057,3.66582,2.992352,2.621938,-1.357424,1.888119,0.2009124,-1.992833,-3.503269,-0.7913098,-3.538262,-0.4056546,-0.599619,-2.937379,-2.338756,-1.037402],
[-2.234979,-3.046454,-3.978914,-0.9761277,2.702569,0.922318,1.519572,-0.5213955,-3.507287,-3.024225,3.467811,3.381088,3.208732,2.683069,1.234854,0.5713922,1.183509],
[-1.236254,-3.782489,2.114705,-2.78602,-1.845797,0.4752448,-1.725881,2.169289,-1.877075,3.206383,-3.277492,3.496313,2.569374,1.327258,1.855544,-0.7714859,-1.734679],
[-2.185861,0.174073,2.809494,3.27614,1.611861,-2.788494,0.1752587,3.902471,2.483099,3.023659,-0.9140959,3.10773,0.01187589,-3.532756,3.729122,1.006953,0.9038582],
[-2.285367,-3.699198,0.9254677,2.074139,-3.487222,-0.6436365,-0.412989,-1.836985,3.790174,-2.788834,-3.684592,2.302653,3.686677,0.4653334,2.794044,3.787294,1.259468],
[0.5936865,-3.726291,2.600238,1.046936,2.619254,0.1920432,-3.253789,1.423624,-2.382653,-0.8527315,0.8325502,1.829287,-1.742666,-1.735129,-0.1626689,3.677897,-2.472025],
[-0.1897298,-2.222446,-0.4554917,0.02834316,-0.2813262,-3.185153,2.877811,1.588861,-1.369114,1.10515,0.3434194,-2.458244,3.080764,3.941939,3.285505,0.009821082,-3.016637],
[2.177595,-3.480901,0.2144429,-1.279981,0.09878881,-1.767682,1.093118,-1.140461,0.526254,-2.414654,2.39875,-1.515057,2.592188,0.1194528,1.667646,-2.117273,-0.991549],
[-2.918432,-2.417064,-3.940285,3.905513,2.715556,-2.606088,-0.8555395,-3.955887,0.4802066,1.253857,2.537258,2.808933,2.439104,2.532582,-1.807208,-2.153703,0.9851934]
],
[
[1.624888,2.65594,0.9055656,-0.2768613,3.218428,-3.667532,0.4906469,3.679868,2.718942,3.445006,3.710491,2.072852,3.528915,3.03874,-0.4267017,2.572363,-2.097253],
[1.022868,3.757411,-2.273375,1.45527,-1.202063,-3.899225,-1.296847,-0.6445613,-3.417463,-2.240535,2.40789,-1.819558,1.051298,-3.762169,0.06189775,0.9281424,3.891663]
]
],
"biases":[
[
-0.3894714,1.652688,-3.057327,-1.127728,-0.9120159,1.655046,-1.357607,0.3106059,0.8193406,2.50772,-1.547769,-1.792716,-1.824284,-0.8279455,-1.697938,1.170814,-0.6000897
],
[
2.605009,0.6069773
]
]},
{
"fitness":1.950609,
"weights":[
[
[1.332746,0.5932505,-1.517561,-3.697655,-2.908847,2.795537,-1.36856,-2.143802,-3.910661,3.642049,0.331896,-1.485597,-0.1444751,3.128554,0.5635051,2.596504,2.012111],
[-0.9331099,-3.978779,-1.112292,2.271434,1.540893,-0.1804555,-0.1124527,-3.92932,-3.262153,-3.444319,1.809299,-1.769718,2.982203,-1.476768,-3.179696,2.684087,-0.3137467],
[2.245706,2.897685,3.197312,0.4529719,-3.203809,1.728777,2.338394,0.6532699,0.7414778,1.149485,0.7055272,-2.974627,-3.004836,-3.224485,-1.15102,-2.216818,0.09765323],
[3.353392,-1.748657,-2.250773,0.3991501,0.4221244,1.158687,2.271714,1.196177,-2.269271,-3.385625,-2.012534,-2.059705,-3.577441,3.697186,0.5560041,-0.08100498,0.03415414],
[0.2636242,-2.175917,3.122427,-3.930944,0.9267663,0.9115218,-3.940679,-3.396524,-2.869844,1.735373,3.584898,1.061897,-1.108742,-1.732372,0.4684658,2.824856,-1.038967],
[3.532255,1.951918,-0.8749017,2.468996,0.3970841,-3.258158,-0.1565702,0.3128759,2.776711,0.05468713,0.471363,-1.509286,0.3852929,-2.498127,-3.716848,3.970246,1.622871],
[-0.1197936,-0.7163998,2.662523,-1.729956,1.353113,-0.6477993,-2.783056,-1.896994,-0.2810738,-1.367051,-2.561583,-0.3920038,2.786265,3.427554,-1.149846,-3.321194,2.557796],
[2.273394,-0.2504825,-0.6254339,0.1977271,3.188319,-2.75833,1.207069,2.332783,2.671102,-1.514348,3.946936,2.530944,-1.042791,1.468207,-1.512214,-0.3925368,0.08610141],
[2.319016,2.069355,-3.430488,2.992352,-3.647771,-1.357424,1.888119,0.2009124,-1.775484,-1.784918,-0.7913098,-3.538262,-0.4056546,-0.599619,3.443957,-2.338756,-0.4267464],
[-2.234979,-3.046454,-1.50855,-0.9761277,2.702569,0.922318,1.519572,-0.5213955,-3.507287,-3.024225,3.467811,3.381088,-3.755615,2.057843,1.234854,0.5713922,1.183509],
[-1.236254,-3.782489,-1.942802,-2.78602,-1.845797,0.4752448,-1.725881,2.169289,-1.378559,-3.52914,-3.277492,3.496313,-0.9431283,1.327258,1.855544,1.216229,-1.734679],
[-0.2431709,0.174073,2.809494,3.27614,1.611861,-2.788494,0.429973,3.902471,2.483099,3.023659,-3.950105,3.10773,3.919616,-3.532756,-2.45803,1.006953,0.9038582],
[-2.285367,-3.699198,-0.6388376,2.074139,3.962362,-2.004387,-0.412989,0.3153951,3.790174,2.837104,-3.684592,2.302653,1.453269,3.652177,2.794044,3.787294,1.259468],
[0.5936865,2.080081,2.600238,1.046936,2.619254,0.1920432,-3.253789,-0.2875365,-2.382653,-0.8527315,0.8325502,1.829287,-1.742666,-1.735129,-0.1626689,1.178254,-0.5830905],
[-0.1897298,-2.222446,3.984012,0.02834316,-0.2813262,-3.185153,2.877811,1.588861,-0.5481747,1.10515,0.3434194,-2.458244,-2.677666,-3.1429,3.285505,0.009821082,-3.364856],
[2.177595,-3.480901,-3.399923,-1.279981,1.829078,-1.767682,1.093118,0.9339176,0.526254,0.0330139,-2.303342,-1.469884,-3.486063,0.1194528,1.667646,-2.117273,-0.991549],
[-2.918432,-2.417064,-3.940285,3.905513,-0.7173423,1.070489,-0.8555395,-3.955887,0.4802066,1.253857,2.537258,2.808933,2.439104,2.532582,-1.807208,-2.153703,0.9851934]
],
[
[1.624888,2.65594,-2.293619,-0.2768613,3.218428,-3.667532,3.696334,3.679868,2.718942,3.445006,-2.763567,2.072852,3.528915,-3.140764,1.394039,2.572363,-2.097253],
[1.022868,3.940052,1.27962,1.45527,-1.202063,-3.899225,3.383265,-0.6445613,-3.417463,-2.240535,2.40789,-1.819558,1.094856,-3.762169,0.06189775,0.9281424,3.891663]
]
],
"biases":[
[
-0.3894714,1.652688,-3.057327,-1.529648,-1.69658,0.7094607,2.098697,0.3106059,0.8193406,2.50772,-3.593017,-0.7989747,-1.824284,-0.06173328,-2.358318,2.763343,-0.6000897
],
[
2.206181,0.6069773
]
]},
{
"fitness":1.950197,
"weights":[
[
[1.332746,0.9065989,-3.025404,-3.252301,1.092534,3.203521,1.970513,1.681873,-1.633892,-3.843048,1.928577,-1.485597,-0.1574917,-3.998416,-3.053209,-0.9058704,-1.688691],
[2.735322,-3.978779,-1.334657,2.271434,-0.9367657,-3.618899,-3.80251,-3.860635,-1.320775,-3.966459,-0.3746175,2.97008,0.7156144,-1.476768,3.450476,-0.0698885,2.903608],
[2.245706,-0.6166124,3.854627,-2.073942,0.4628903,2.559455,2.91989,0.6929685,-1.464083,2.560035,-1.220373,-2.974627,-1.028896,-0.79887,-1.113682,-2.441055,1.473719],
[-1.633389,1.829332,0.244022,2.636087,-0.8015668,1.158687,-1.413227,1.196177,-0.9996279,-3.990801,-0.9173689,-2.059705,1.968247,3.12206,2.863927,-1.735551,-3.844275],
[2.923531,-1.603809,-0.05442239,-1.71407,0.9267663,0.9115218,1.029932,-0.8072438,3.155816,-0.4115203,0.5387605,1.425483,-1.108742,3.016602,-0.3544715,2.824856,0.03342543],
[1.778679,-0.0004111379,0.5490128,3.235327,-0.2312733,2.590559,2.193156,0.9361929,1.380637,3.541686,0.471363,-2.638724,0.3852929,0.4396034,-3.716848,-3.645064,1.302097],
[-3.27054,-0.7163998,-1.183606,-2.254406,3.509569,0.09699457,-2.684569,-0.4112318,0.2192741,-2.456466,0.2825215,-0.3920038,-1.606169,1.693178,0.1610564,-0.127591,-3.493427],
[1.297822,-0.6215943,1.668098,-1.905425,-2.910517,3.338102,3.642573,3.341776,3.006576,0.07714141,-0.5846445,0.8981113,3.265745,-0.8359451,-1.661957,-3.093592,0.7797006],
[-3.673357,-3.062057,-2.496408,1.572604,1.040433,2.493006,3.431753,0.8021342,2.19214,-2.551456,0.02211242,-1.251561,-2.675427,-3.525705,-2.690341,0.6972783,3.541095],
[0.5439382,-3.046454,-2.311703,-0.9761277,3.60647,0.922318,1.519572,-2.523888,-3.507287,0.6109705,0.3238169,-1.037133,-1.952172,-1.365475,1.234854,1.629902,-1.966674],
[-3.162611,-3.782489,-0.2888742,0.3103,-0.5267772,3.894082,-1.18441,-0.7176157,-2.108757,-3.52914,-3.277492,2.694999,3.406955,-3.391651,3.583971,-0.8193374,1.635107],
[0.8472637,2.624203,-2.39076,-1.627089,0.1802508,-1.745651,0.6452546,-3.702995,1.646105,-2.354633,2.930548,-1.254756,3.002247,2.73352,-3.084742,1.006953,3.853378],
[-0.3629124,0.148543,-0.6601475,-0.5481387,-1.791308,-1.887538,-2.307052,-1.836985,3.790174,-2.258613,-0.1916012,2.302653,-0.1985567,3.407846,2.506676,-3.076781,1.259468],
[1.587227,2.080081,2.600238,3.593478,3.331508,3.854142,-3.814229,1.423624,-2.382653,2.505034,0.8325502,1.745675,1.140066,3.45522,-0.9787037,-2.281819,-2.472025],
[0.1219355,0.6539271,-0.4821991,-1.41176,0.5913535,-3.185153,3.780238,-0.1442605,-3.107339,1.153929,-0.8179721,1.816224,3.080764,-2.60935,3.285505,2.028452,1.812299],
[-0.4349563,-3.764301,-3.607176,-3.134201,1.829078,1.529579,1.093118,1.923957,2.358784,1.686004,2.836675,-3.029345,-0.8006783,-2.89667,0.377761,-1.358264,-0.991549],
[1.384364,2.296497,-0.9603514,-1.218344,-2.473638,3.729494,0.7578188,3.266244,0.4802066,-3.650932,2.854107,-0.8194075,2.439104,-3.591982,-1.25997,3.092267,0.4828627]
],
[
[1.359604,-2.810382,1.887185,3.773029,1.31268,-3.09165,2.91134,3.679868,-1.633012,2.755354,2.30916,-1.479437,-3.021559,3.03874,2.93633,2.572363,-0.3532555],
[-3.942622,3.421416,-0.6612625,0.6454473,-3.020353,-0.2540429,3.383265,-1.529628,-1.219127,0.5310866,2.40789,-1.819558,3.744692,-3.762169,0.06189775,0.9281424,3.757656]
]
],
"biases":[
[
-0.3894714,1.652688,3.197496,1.715806,-0.9120159,-0.2227169,2.098697,-3.568591,-2.388353,0.2298766,-3.715046,2.799052,-1.824284,1.672288,1.642559,1.358789,-0.6000897
],
[
2.605009,-1.104946
]
]},
{
"fitness":1.947134,
"weights":[
[
[1.332746,1.582229,-0.8643027,-3.697655,-2.908847,2.795537,-1.36856,-2.622662,-3.910661,3.642049,0.331896,-1.485597,2.973165,-3.998416,0.5635051,2.596504,2.012111],
[-2.631825,-3.978779,-1.112292,2.271434,1.540893,-0.1804555,3.307198,2.967706,-3.262153,-2.204427,3.615074,-1.769718,0.7156144,-1.476768,-1.433173,2.684087,-0.3137467],
[2.245706,2.897685,3.197312,0.4529719,-3.203809,1.728777,2.338394,0.6532699,0.7414778,1.149485,2.841759,-2.974627,-3.004836,-3.224485,-1.15102,-2.216818,-1.342094],
[3.353392,-1.748657,-2.250773,0.3991501,0.4221244,-2.407546,2.271714,1.196177,3.274149,-3.385625,2.38873,-2.059705,-3.577441,3.12206,0.5560041,-0.08100498,3.40471],
[-0.2066972,-2.175917,3.122427,0.02937071,0.9267663,0.9115218,-3.549995,-1.986795,-2.8925,2.012319,3.584898,1.061897,-1.108742,2.39416,0.4684658,-0.5508335,-1.038967],
[3.532255,-3.077462,-0.8749017,2.468996,-0.1037488,-3.258158,-0.1565702,-0.6420833,-0.8539606,0.3034997,0.471363,-1.509286,3.977402,-2.498127,-3.716848,3.970246,1.622871],
[1.746136,-0.7163998,-3.263638,-1.729956,2.570117,-3.148146,-2.783056,0.7275507,-0.1846151,0.3341084,-2.561583,-0.3920038,2.786265,3.427554,-1.149846,-3.321194,2.557796],
[2.273394,-0.2504825,-0.6254339,-0.2358773,1.463385,-2.75833,1.207069,2.332783,1.155757,-2.844908,3.946936,2.530944,-1.042791,3.985464,-1.34304,3.225415,0.08610141],
[2.319016,-0.3046864,3.66582,2.992352,2.621938,-1.357424,1.888119,0.2009124,-0.6480013,-3.503269,-0.7913098,-3.538262,-0.4056546,-0.599619,-2.937379,-2.338756,-1.037402],
[-0.9573932,-3.046454,-3.978914,-0.9761277,2.702569,0.922318,1.519572,-0.5213955,-3.507287,-3.024225,3.467811,1.669796,3.208732,2.057843,1.234854,0.5713922,1.183509],
[-1.236254,-3.782489,1.748617,-0.8219196,-1.845797,0.4752448,-1.725881,2.169289,-1.877075,3.206383,-3.277492,3.496313,2.569374,1.327258,1.855544,-0.7714859,-1.734679],
[-2.185861,-2.027334,2.809494,3.27614,1.611861,-2.788494,0.1752587,3.902471,2.483099,3.023659,-0.9140959,3.10773,0.01187589,-3.532756,3.729122,1.006953,0.9038582],
[-2.285367,-3.699198,-0.6388376,2.074139,-3.487222,-2.004387,-0.412989,-1.836985,3.790174,-2.788834,-3.684592,2.302653,1.918205,3.652177,2.794044,3.272895,1.259468],
[0.5936865,-3.726291,2.600238,1.046936,1.287225,0.1920432,-3.253789,1.423624,-2.382653,-0.8527315,0.8325502,-3.184336,-1.742666,-1.735129,-0.1626689,3.677897,-2.472025],
[-0.1897298,-2.222446,-0.4554917,0.02834316,-0.2813262,-3.185153,2.877811,1.588861,-1.369114,1.10515,0.3434194,-2.458244,-3.535818,3.941939,3.285505,0.009821082,-3.364856],
[2.177595,-3.480901,0.2144429,-1.279981,0.09878881,-1.767682,1.093118,-3.190607,0.526254,-2.414654,2.39875,-1.515057,-3.486063,0.1194528,1.667646,-2.117273,-0.991549],
[-2.918432,-2.417064,-3.940285,-2.859084,2.715556,-2.606088,-0.8555395,-3.955887,0.4802066,1.253857,2.537258,2.808933,2.439104,2.532582,-1.807208,1.76047,0.9851934]
],
[
[1.624888,2.65594,0.9055656,-0.2768613,3.218428,-1.223381,0.4906469,3.679868,2.718942,3.445006,3.710491,2.072852,3.528915,3.03874,-0.4267017,2.572363,-2.097253],
[1.022868,3.757411,-2.273375,1.45527,-1.202063,2.644178,-1.296847,-0.6445613,-3.417463,-2.240535,2.40789,-1.819558,1.094856,2.075305,1.953813,0.3262325,3.891663]
]
],
"biases":[
[
-0.3894714,0.753123,3.285214,-1.127728,-0.9120159,1.655046,-1.357607,0.3106059,0.8193406,2.50772,0.5229939,-1.792716,-1.824284,-0.8279455,0.4969731,1.170814,-0.6000897
],
[
-0.1193409,0.6069773
]
]},
{
"fitness":1.913771,
"weights":[
[
[1.332746,-1.334512,-1.517561,-3.697655,-2.908847,2.795537,-1.36856,-2.143802,0.2658258,3.642049,0.331896,-1.485597,1.745981,-3.998416,0.5635051,2.596504,2.012111],
[-2.631825,-3.978779,-1.112292,2.271434,-1.879668,-0.1804555,3.307198,2.967706,-3.262153,-3.444319,1.809299,-1.769718,0.7156144,-1.476768,-3.179696,2.684087,-0.3137467],
[2.245706,2.897685,3.666903,0.4529719,-3.203809,1.728777,2.338394,3.831746,0.7414778,1.149485,0.7055272,-2.974627,-3.004836,-3.224485,-1.15102,-0.1218453,0.09765323],
[3.353392,-1.748657,-2.250773,-3.851565,0.4221244,1.158687,-0.1622076,1.196177,3.274149,-3.385625,1.542825,-2.059705,-3.577441,3.12206,0.5560041,1.485891,3.40471],
[1.42949,-2.175917,3.122427,-3.930944,0.9267663,0.9115218,-3.940679,-1.986795,-2.8925,2.012319,3.584898,1.96594,-1.108742,-2.640199,0.4684658,2.824856,-1.038967],
[3.532255,1.951918,-0.8749017,2.468996,0.3970841,-3.258158,2.330113,0.3128759,2.776711,0.904263,0.471363,-1.509286,0.3852929,-2.498127,3.201022,3.970246,1.622871],
[-3.27054,3.704427,-3.263638,3.41045,-2.96862,-0.6477993,-0.5053244,-1.896994,-0.1846151,0.3341084,-2.561583,-0.3920038,2.786265,3.427554,-1.149846,-3.321194,3.114596],
[2.273394,1.158243,-0.6254339,0.1977271,3.188319,-2.75833,1.207069,2.332783,-1.226976,3.835159,3.946936,2.530944,-1.042791,1.468207,3.526821,-0.3925368,0.08610141],
[2.319016,-3.062057,3.66582,-3.269396,2.621938,-2.957409,-1.359973,0.2009124,-1.675704,-3.503269,2.085816,-0.8045766,-0.4056546,-0.599619,-2.937379,-2.338756,-1.037402],
[-2.234979,-3.046454,-3.978914,-0.9761277,2.702569,0.922318,1.519572,-0.5213955,-3.507287,-3.024225,-3.139002,3.381088,2.508519,2.057843,1.234854,0.5713922,1.097148],
[-1.236254,-3.782489,2.114705,-2.78602,-1.845797,0.4752448,-0.4095912,3.41128,-3.554163,-3.52914,-3.277492,3.496313,2.569374,-3.131298,1.855544,-0.7714859,-1.734679],
[-2.185861,0.174073,2.809494,3.27614,1.611861,-2.788494,0.429973,3.902471,2.483099,3.023659,-0.9140959,3.10773,3.919616,-3.532756,-2.45803,1.006953,0.9038582],
[-2.285367,-3.699198,-0.6388376,2.074139,1.554031,-2.004387,-0.412989,-1.836985,3.790174,-2.788834,-3.684592,2.302653,1.453269,3.652177,-1.880824,3.787294,1.259468],
[0.5936865,2.080081,2.600238,1.046936,-2.824027,0.1920432,-3.253789,1.423624,-2.382653,-0.8527315,0.8325502,1.829287,-1.742666,-1.735129,-0.1626689,1.178254,-2.472025],
[-0.1897298,-2.222446,3.984012,0.02834316,-0.2813262,-1.885894,2.877811,1.588861,-1.369114,1.10515,0.3434194,-2.458244,3.080764,3.941939,3.285505,0.009821082,-3.364856],
[2.177595,1.321446,0.01115221,-1.279981,1.829078,3.438984,1.093118,-1.140461,0.526254,-2.414654,-1.090703,-1.084089,-3.486063,-3.810534,-0.9436625,-2.117273,-0.991549],
[-2.918432,-2.417064,-3.940285,3.905513,-0.7173423,-3.036579,-0.8555395,2.630523,-2.905243,1.253857,2.537258,2.808933,2.439104,2.532582,-1.807208,-2.153703,0.9851934]
],
[
[3.047055,2.65594,-2.293619,-0.2768613,3.218428,-3.667532,3.696334,3.679868,2.718942,3.445006,3.710491,0.8144419,3.528915,3.03874,-0.4267017,2.572363,-2.097253],
[1.022868,3.940052,-2.273375,1.45527,-1.202063,-3.899225,3.383265,-0.4513701,-3.417463,-2.240535,2.40789,-1.819558,1.094856,-3.762169,0.06189775,0.9281424,3.891663]
]
],
"biases":[
[
-0.3894714,1.652688,-3.057327,-1.127728,-0.9120159,1.655046,2.098697,0.3106059,0.8193406,2.50772,-3.593017,-0.7989747,-1.824284,-0.06173328,-1.697938,2.763343,-0.6000897
],
[
2.605009,0.6069773
]
]},
{
"fitness":1.841262,
"weights":[
[
[1.332746,-1.334512,-1.517561,-3.697655,-2.908847,2.795537,-1.36856,-2.143802,-3.910661,3.642049,0.331896,-1.485597,-0.1444751,3.128554,0.5635051,2.596504,2.012111],
[-2.631825,-3.978779,-1.112292,2.271434,1.540893,-0.1804555,-0.1124527,-0.1340896,-3.262153,-3.444319,1.809299,-1.769718,2.982203,-1.476768,-3.179696,2.684087,-0.3137467],
[2.245706,2.897685,3.197312,0.4529719,-3.203809,1.728777,2.338394,0.6532699,0.7414778,1.149485,0.7055272,-2.974627,-3.004836,-3.224485,-1.15102,-2.216818,0.09765323],
[3.353392,-1.748657,-2.250773,0.3991501,0.4221244,1.158687,2.271714,1.196177,-2.269271,-3.385625,-2.012534,-2.059705,-3.577441,3.697186,0.5560041,-0.08100498,0.03415414],
[0.2636242,-2.175917,3.122427,-3.930944,0.9267663,0.9115218,-3.940679,-1.986795,-2.869844,1.735373,3.584898,1.061897,-1.108742,-1.732372,0.4684658,2.824856,-1.038967],
[3.532255,1.951918,-0.8749017,2.468996,0.3970841,-3.258158,-0.1565702,0.3128759,2.776711,0.3034997,0.471363,-1.509286,0.3852929,-2.498127,-3.716848,3.970246,1.622871],
[-0.1197936,-0.7163998,2.662523,-1.729956,1.353113,-0.6477993,-2.783056,-1.896994,-0.1846151,-1.367051,-2.561583,-0.3920038,2.786265,3.427554,-1.149846,-3.321194,2.557796],
[2.273394,-0.2504825,-0.6254339,0.1977271,3.188319,-2.75833,1.207069,2.332783,1.155757,3.835159,3.946936,2.530944,-1.042791,1.468207,-1.512214,-0.3925368,0.08610141],
[2.319016,-3.062057,-3.430488,2.992352,-3.647771,-1.357424,1.888119,0.2009124,-1.775484,-1.784918,-0.7913098,-3.538262,-0.4056546,-0.599619,3.443957,-2.338756,-0.4267464],
[-2.234979,-3.046454,-1.50855,-0.9761277,2.702569,0.922318,1.519572,-0.5213955,-3.507287,-3.024225,3.467811,3.381088,-3.755615,2.057843,1.234854,0.5713922,1.183509],
[-1.236254,-3.782489,-1.942802,-2.78602,-1.845797,0.4752448,-1.725881,2.169289,-1.378559,-3.52914,-3.277492,3.496313,2.569374,1.327258,1.855544,1.216229,-1.734679],
[-0.2431709,0.174073,2.809494,3.27614,1.611861,-2.788494,0.429973,3.902471,2.483099,3.023659,-3.950105,3.10773,3.919616,-3.532756,-2.45803,1.006953,0.9038582],
[-2.285367,-3.699198,-0.6388376,2.074139,-3.487222,-2.004387,-0.412989,0.3153951,3.790174,2.837104,-3.684592,2.302653,1.453269,3.652177,2.794044,3.787294,1.259468],
[0.5936865,2.080081,2.600238,1.046936,2.619254,0.1920432,-3.253789,-0.2875365,-2.382653,-0.8527315,0.8325502,1.829287,-1.742666,-1.735129,-0.1626689,1.178254,-0.5830905],
[-0.1897298,-2.222446,3.984012,0.02834316,-0.2813262,-3.185153,2.877811,1.588861,-1.369114,1.10515,0.3434194,-2.458244,-2.677666,-3.1429,3.285505,0.009821082,-3.364856],
[2.177595,-3.480901,-3.399923,-1.279981,1.829078,-1.767682,1.093118,-1.138286,0.526254,0.0330139,-2.303342,-1.469884,-3.486063,0.1194528,1.667646,-2.117273,-0.991549],
[-2.918432,-2.417064,-3.940285,3.905513,-0.7173423,-3.036579,-0.8555395,-3.955887,0.4802066,1.253857,2.537258,2.808933,2.439104,2.532582,-1.807208,-2.153703,0.9851934]
],
[
[1.624888,2.65594,-2.293619,-0.2768613,3.218428,-3.667532,3.696334,3.679868,2.718942,3.445006,-2.763567,2.072852,3.528915,3.03874,-1.041243,2.572363,-2.097253],
[1.022868,3.940052,1.27962,1.45527,-1.202063,-3.899225,3.383265,-0.6445613,-3.417463,-2.240535,2.40789,-1.819558,1.094856,-3.762169,0.06189775,0.9281424,3.891663]
]
],
"biases":[
[
-0.3894714,1.652688,-3.057327,-1.529648,-1.69658,0.7094607,2.098697,0.3106059,0.8193406,2.50772,-3.593017,-0.7989747,-1.824284,-0.06173328,-1.697938,2.763343,-0.6000897
],
[
2.206181,0.6069773
]
]},
{
"fitness":1.795178,
"weights":[
[
[1.332746,-1.334512,-1.517561,-3.697655,-2.908847,2.795537,-1.36856,-2.143802,-3.910661,3.642049,0.331896,-1.485597,-0.1444751,3.128554,0.5635051,2.596504,2.012111],
[-2.631825,-3.978779,-1.112292,2.271434,1.540893,-0.1804555,-0.1124527,-3.92932,-3.262153,-3.444319,1.809299,-1.769718,2.982203,-1.476768,-3.179696,2.684087,-0.3137467],
[2.245706,2.897685,3.197312,0.4529719,-3.203809,1.728777,2.338394,0.6532699,0.7414778,1.149485,0.7055272,-2.974627,-3.004836,-3.224485,-1.15102,-2.216818,0.09765323],
[3.353392,-1.748657,-2.250773,0.3991501,0.4221244,1.158687,2.271714,1.196177,-2.269271,-3.385625,-2.012534,-2.059705,-3.577441,3.697186,0.5560041,-0.08100498,0.03415414],
[0.2636242,-2.175917,3.122427,-3.930944,0.9267663,0.9115218,-3.940679,-3.396524,-2.869844,1.735373,3.584898,1.061897,-1.108742,-1.732372,0.4684658,2.824856,-1.038967],
[3.532255,1.951918,-0.8749017,2.468996,0.3970841,-3.258158,-0.1565702,0.3128759,2.776711,0.05468713,0.471363,-1.509286,0.3852929,-2.498127,-3.716848,3.970246,1.622871],
[-0.1197936,-0.7163998,2.662523,-1.729956,1.353113,-0.6477993,-2.783056,-1.896994,-0.1846151,-1.367051,-2.561583,-0.3920038,2.786265,3.427554,-1.149846,-3.321194,2.557796],
[2.273394,-0.2504825,-0.6254339,0.1977271,3.188319,0.9439628,1.207069,2.332783,2.671102,3.835159,3.946936,2.530944,-1.042791,1.468207,-1.512214,-0.3925368,0.08610141],
[0.2652226,2.069355,-3.430488,2.992352,-3.647771,-1.357424,1.888119,0.2009124,-1.775484,-1.784918,-0.7913098,-3.538262,-0.4056546,-0.599619,3.443957,-2.338756,-0.4267464],
[-2.234979,-3.046454,-1.50855,-0.9761277,2.702569,0.922318,1.519572,-0.5213955,-3.507287,-3.024225,3.467811,3.381088,-3.755615,2.057843,1.234854,0.5713922,1.183509],
[-1.236254,-3.782489,-1.942802,-2.78602,-1.845797,0.4752448,-1.725881,2.169289,-1.378559,-3.52914,-3.277492,3.496313,2.569374,1.327258,1.855544,1.216229,-1.734679],
[-0.2431709,0.174073,2.809494,3.27614,1.611861,-2.788494,0.429973,3.902471,2.483099,3.023659,-3.950105,3.10773,3.919616,-3.532756,-2.45803,1.006953,0.9038582],
[-2.285367,-3.699198,-0.6388376,2.074139,-3.487222,-2.004387,-0.412989,0.3153951,3.790174,2.837104,-3.684592,2.302653,1.453269,3.652177,2.794044,3.787294,1.259468],
[0.5936865,2.080081,2.600238,1.046936,2.619254,0.1920432,-3.253789,-0.2875365,-2.382653,-0.8527315,0.8325502,1.829287,-1.742666,-1.735129,-0.1626689,1.178254,-0.5830905],
[-0.1897298,-2.222446,3.984012,0.02834316,-0.2813262,-3.185153,2.877811,1.588861,-0.5481747,1.10515,0.3434194,-2.458244,-2.677666,-3.1429,3.285505,0.009821082,-3.364856],
[2.177595,-3.480901,-3.399923,-1.279981,1.829078,-1.767682,1.093118,-1.138286,0.526254,0.0330139,-2.303342,-1.469884,-3.486063,0.1194528,1.667646,-2.117273,-0.991549],
[-2.918432,-2.417064,-3.940285,3.905513,-0.7173423,-3.036579,-3.737058,-3.955887,0.4802066,1.253857,2.537258,2.808933,2.439104,2.532582,-1.807208,-2.153703,0.9851934]
],
[
[1.624888,2.65594,-2.293619,-0.2768613,3.218428,-3.667532,3.696334,3.679868,2.718942,3.445006,-2.763567,2.072852,3.528915,3.03874,-1.041243,2.572363,-2.097253],
[1.022868,3.940052,1.27962,1.45527,-1.202063,-3.899225,3.383265,-0.6445613,-3.417463,-2.240535,2.40789,-1.819558,1.094856,-3.762169,0.06189775,0.9281424,3.891663]
]
],
"biases":[
[
-0.3894714,1.652688,-3.057327,-1.529648,2.74654,0.7094607,2.098697,0.3106059,0.8193406,2.50772,-3.593017,-0.7989747,-1.824284,-0.06173328,-1.697938,2.763343,-0.6000897
],
[
2.206181,0.6069773
]
]},
{
"fitness":1.773353,
"weights":[
[
[1.332746,-1.334512,-0.8643027,-3.697655,-2.908847,2.795537,-1.36856,-0.7432475,-3.910661,3.642049,0.331896,-1.485597,3.849415,-3.998416,0.5635051,2.596504,-2.921255],
[-2.631825,-3.978779,-1.112292,2.271434,1.540893,-0.1804555,3.307198,2.967706,-3.262153,-2.204427,1.809299,1.785389,0.7156144,-1.476768,-3.179696,2.684087,-0.3137467],
[2.245706,2.897685,0.991136,0.4529719,-3.203809,1.728777,-0.5181013,-3.284023,0.7414778,1.149485,2.841759,-2.974627,1.785304,-3.224485,-1.15102,-2.216818,-1.342094],
[3.353392,-1.748657,-2.250773,0.3991501,1.572339,-2.407546,2.271714,1.196177,3.274149,-3.385625,-2.012534,-2.059705,-3.577441,3.12206,0.5560041,-0.08100498,3.40471],
[0.2636242,-2.175917,3.122427,2.018513,0.9267663,1.682758,-3.940679,-1.986795,-2.8925,2.012319,3.584898,2.571739,-1.108742,-2.640199,0.4684658,2.824856,-1.038967],
[-3.99831,-1.328172,-0.8749017,2.468996,-0.1037488,-3.258158,-0.1565702,0.3128759,-0.8539606,0.3034997,0.471363,-3.545721,3.977402,-2.498127,-3.716848,3.970246,1.622871],
[-3.27054,-0.7163998,-3.263638,-1.729956,2.570117,1.988159,0.4047983,-1.896994,-3.085279,0.3341084,1.224813,-0.3920038,2.786265,3.427554,-1.149846,0.4143886,2.557796],
[2.273394,-0.2504825,-0.6254339,-0.2358773,3.188319,-2.75833,1.207069,2.332783,1.155757,-2.844908,3.946936,2.530944,-1.042791,3.985464,-1.661957,-0.3925368,0.08610141],
[2.319016,-3.062057,3.66582,2.992352,2.621938,-1.357424,1.888119,0.2009124,-1.992833,-3.503269,-0.7913098,-3.538262,-0.4056546,-0.599619,-2.937379,-2.338756,-1.037402],
[-2.234979,-3.046454,-2.036243,-0.2483827,2.702569,0.922318,1.519572,-0.5213955,-3.507287,-3.024225,0.9221016,3.381088,3.208732,2.057843,1.234854,0.5713922,1.183509],
[-1.236254,-3.782489,-0.2922959,-2.78602,-1.845797,0.4752448,-1.243765,-1.391858,-1.877075,3.206383,-3.277492,3.496313,2.569374,1.327258,1.855544,-0.7714859,-1.734679],
[-2.185861,0.174073,2.809494,3.27614,1.611861,-2.788494,0.1752587,3.902471,2.483099,3.023659,-0.9140959,3.10773,0.01187589,-3.532756,3.729122,-3.898153,0.9038582],
[-2.285367,-3.699198,-0.6388376,2.074139,-2.982656,-2.004387,-0.412989,-3.467654,3.790174,-2.788834,-3.684592,2.302653,1.453269,3.652177,2.794044,3.787294,1.259468],
[0.5936865,-3.726291,2.600238,1.046936,2.619254,0.1920432,-3.253789,1.423624,-2.382653,-0.8527315,0.8325502,1.829287,-1.742666,-1.735129,-0.1626689,3.677897,-2.472025],
[-0.1897298,-2.222446,-0.4554917,0.02834316,1.840057,0.7306588,2.877811,1.588861,-1.369114,1.10515,0.3434194,0.3934845,3.080764,3.941939,3.285505,0.009821082,-3.364856],
[2.177595,-3.480901,0.2144429,-1.279981,0.09878881,2.700071,1.093118,-1.140461,0.526254,-2.414654,2.39875,-1.515057,-3.486063,0.1194528,1.667646,-2.117273,-0.991549],
[-2.918432,-2.417064,-3.940285,3.905513,2.715556,-2.606088,-0.8555395,-3.955887,0.4802066,-0.7532808,2.537258,2.808933,2.439104,2.532582,2.820457,-2.153703,0.9851934]
],
[
[1.624888,3.395062,0.9055656,-0.2768613,3.218428,-3.667532,0.4906469,3.679868,2.718942,3.445006,3.710491,2.072852,3.528915,3.03874,-0.4267017,2.572363,-2.097253],
[1.022868,3.757411,-2.273375,1.45527,-1.202063,-3.899225,-1.296847,-0.6445613,-3.417463,-3.967573,2.40789,-1.819558,1.094856,1.670011,0.06189775,0.9281424,3.891663]
]
],
"biases":[
[
-0.3894714,1.652688,-3.057327,-1.127728,0.8372359,1.655046,-1.357607,-0.6282949,0.8193406,2.50772,0.5229939,-1.792716,-0.7723757,-0.8279455,-1.697938,1.170814,-0.6000897
],
[
2.605009,0.6069773
]
]},
{
"fitness":1.699443,
"weights":[
[
[-2.932185,-2.120116,-1.55056,-0.7587216,1.650971,-1.769544,-1.493859,-3.741817,-2.024707,1.07237,1.234379,2.57667,-3.070763,3.324852,2.450104,-2.911251,-0.7334523],
[-0.7731556,2.022904,1.827975,-3.854594,-0.6214204,1.042296,-1.518415,1.64151,1.477989,0.9344124,1.706912,3.788515,-0.577632,-2.729272,1.463431,-2.053562,-0.4955334],
[1.032443,2.87278,3.135633,-0.7015937,0.3363375,-3.805161,-0.2941366,3.312853,0.7029493,-2.042844,2.571985,-0.8405761,-1.619028,0.2050291,3.706253,-3.546754,3.251877],
[2.248711,-0.01404352,-3.829181,-2.449279,3.757551,-2.260233,2.228648,1.464071,-3.70789,0.2500977,-1.123985,1.598411,-1.866718,-1.334873,0.5081716,3.943825,-3.622812],
[3.423825,-0.813947,-0.7839971,1.308613,0.6975366,-1.95803,-1.489799,-0.2932062,-0.2027759,0.163961,1.11395,3.333292,2.752746,-1.756123,0.8363343,0.8868495,3.501784],
[-2.169267,2.812451,0.9849269,-0.4214235,-2.294249,-2.519247,-3.435159,0.641911,-1.196843,1.033653,-0.8648714,-2.930269,2.545803,1.991165,-3.746846,2.089316,-0.6944289],
[0.1663557,2.35844,-1.864457,-1.088002,-2.489822,-2.54316,-1.477396,1.689269,-2.384231,-1.874844,-2.313177,-3.409667,2.119408,2.681065,-3.704394,-0.1171082,2.398468],
[-2.041964,-2.909851,-1.559063,-1.975268,-0.08860261,-3.799891,2.480472,-0.5137625,2.813549,0.5943142,-3.915378,2.828434,0.4871138,2.184544,2.678688,1.798913,-1.456302],
[1.289713,-3.593724,-3.740708,3.688316,0.9826732,1.667881,-2.269393,0.5800056,3.428011,-3.894538,3.086841,3.644502,1.842762,-3.710163,0.2475863,-3.844481,-2.040373],
[-2.71961,2.986977,-1.664953,-1.757044,-2.785243,2.528368,3.209417,-0.5763154,-2.319681,2.263902,-2.273643,1.314483,0.1641549,3.047645,1.495045,-3.283859,-3.872602],
[-2.762203,2.748116,-2.063534,-3.916269,-3.676479,-1.034974,-3.391026,-3.047279,3.964544,1.40017,-1.187379,2.500614,0.3632013,-2.816885,-0.6377819,-0.8183317,-1.804252],
[2.67735,-3.289837,2.82836,-1.821707,-0.9023368,-3.209088,-3.463695,-2.943025,-3.248374,0.0982388,-0.9797079,2.988436,-2.100815,-1.860769,-2.212968,2.456017,-2.880718],
[-2.450348,0.4719071,-2.263744,-0.9726946,1.828425,2.233798,-1.832537,-1.715086,-1.086952,3.932351,-2.736035,-3.894402,-1.428792,-3.738618,2.160558,-2.575636,-3.385394],
[-2.47396,2.07035,1.053378,2.987312,-0.9214082,-1.915635,-1.540609,1.03335,-3.445134,-2.815201,1.280082,-1.440387,1.910773,1.358845,-2.045556,2.568107,0.7062529],
[-3.624556,-3.364181,-1.660934,2.33669,2.575482,-1.834347,3.509025,-1.193839,1.404034,1.63053,-0.01540399,-2.688189,3.763709,2.03925,-1.413075,0.2196219,-2.097824],
[0.3313655,2.698899,-0.917531,0.9267148,-3.864625,1.746463,-1.152756,1.835347,-3.23593,3.298396,3.072405,-2.631901,2.101533,-2.493793,0.4062889,0.9982612,3.100533],
[3.908216,2.242972,-1.949206,0.7290199,0.2192756,2.069441,-2.19245,1.916317,2.994357,-3.708602,-1.110902,0.207144,-2.992646,-1.503934,-0.6934314,0.4710783,-0.4146753]
],
[
[1.919658,-2.757282,-2.453652,1.05354,-1.158616,3.15199,0.4758525,-1.897928,-2.632225,0.3110181,-1.657708,-3.507811,1.291036,3.961421,-1.301994,3.304316,-2.473209],
[2.282913,-0.1977587,0.6534211,-1.942104,3.564733,0.4728027,0.9218005,-3.128492,-3.647576,0.05153861,3.054713,-0.5806454,1.904553,-2.942139,-0.6437237,0.8213268,3.786119]
]
],
"biases":[
[
2.8993,2.414632,-2.73621,-2.03685,-3.832393,-3.428116,0.06258807,0.2827155,0.3658966,-3.928646,-3.238286,2.758749,-3.001233,0.6078147,-1.224891,-3.168474,-2.446084
],
[
1.874652,-3.633436
]
]},
{
"fitness":1.6781,
"weights":[
[
[1.332746,-1.334512,-1.517561,-3.697655,-2.908847,2.795537,-1.36856,-2.143802,0.2658258,3.642049,0.331896,-1.485597,1.745981,-3.998416,0.5635051,2.596504,2.012111],
[-2.631825,-3.978779,-1.112292,2.271434,-1.879668,-0.1804555,3.307198,2.967706,-3.262153,-3.444319,1.809299,-1.769718,0.7156144,-1.476768,-3.179696,2.684087,-0.3137467],
[2.245706,2.897685,3.666903,0.4529719,-3.203809,1.728777,2.338394,3.831746,0.7414778,1.149485,0.7055272,-2.974627,-3.004836,-3.224485,-1.15102,-0.1218453,0.09765323],
[3.353392,-1.748657,-2.250773,-3.851565,0.4221244,1.158687,-0.1622076,1.196177,3.274149,-3.385625,1.542825,-2.059705,-3.577441,3.12206,0.5560041,1.485891,3.40471],
[1.42949,-2.175917,3.122427,-3.930944,0.9267663,0.9115218,-3.940679,-1.986795,-2.8925,2.012319,3.584898,1.96594,-1.108742,-2.640199,0.4684658,2.824856,-1.038967],
[3.532255,1.951918,-0.8749017,2.468996,0.3970841,-3.258158,2.330113,0.3128759,2.776711,0.904263,0.471363,-1.509286,0.3852929,-2.498127,3.201022,3.970246,1.622871],
[-3.27054,3.704427,-3.263638,3.41045,2.865172,-0.6477993,-0.5053244,-1.896994,-0.1846151,0.3341084,-2.561583,-0.3920038,2.786265,3.427554,-1.149846,-3.321194,3.114596],
[2.273394,1.158243,-0.6254339,0.1977271,3.188319,-2.75833,1.207069,2.332783,-1.226976,3.835159,3.946936,2.530944,-1.042791,1.468207,3.526821,-0.3925368,0.08610141],
[2.319016,-3.062057,3.66582,-3.269396,2.621938,-2.957409,-1.359973,0.2009124,-1.675704,-3.503269,2.085816,-0.8045766,-3.937903,-0.599619,-2.937379,-2.338756,-1.037402],
[0.9274282,-3.046454,-3.978914,-0.9761277,2.702569,0.922318,1.519572,-0.5213955,-3.507287,-3.024225,-3.139002,3.381088,2.508519,2.057843,1.234854,0.5713922,1.097148],
[-1.236254,-3.782489,2.114705,-2.78602,-1.845797,0.4752448,-0.4095912,3.41128,-3.554163,-3.52914,-3.277492,3.496313,2.569374,-3.131298,1.855544,-0.7714859,-1.734679],
[-2.185861,0.174073,2.809494,3.27614,1.611861,-2.788494,0.429973,3.902471,2.483099,3.023659,-0.9140959,3.10773,3.919616,-3.532756,-2.45803,1.006953,0.9038582],
[-2.285367,-3.699198,-0.6388376,2.074139,1.554031,-2.004387,-0.412989,-1.836985,3.790174,-2.788834,-3.684592,2.302653,1.453269,3.652177,-1.880824,3.787294,1.259468],
[0.5936865,2.080081,2.600238,1.046936,-2.824027,0.1920432,-3.253789,1.423624,-2.382653,-0.8527315,0.8325502,1.829287,-1.742666,-1.735129,-0.1626689,1.178254,-2.472025],
[-0.1897298,-2.222446,3.984012,0.02834316,-0.2813262,-1.885894,2.877811,1.588861,-1.369114,1.10515,0.3434194,-2.458244,3.080764,3.941939,3.285505,0.009821082,-3.364856],
[2.177595,1.321446,0.01115221,-1.279981,1.829078,3.438984,1.093118,-1.140461,0.526254,-2.414654,-1.090703,-1.084089,-3.486063,-3.810534,-0.9436625,-2.117273,-0.991549],
[-2.918432,-2.417064,-3.940285,3.905513,-0.7173423,-3.036579,-0.8555395,2.630523,-2.905243,1.253857,2.537258,2.808933,2.439104,2.532582,-1.807208,-2.153703,0.9851934]
],
[
[3.047055,2.65594,-2.293619,-0.2768613,3.218428,-3.667532,3.696334,3.679868,2.718942,3.445006,3.710491,0.8144419,3.528915,3.03874,-0.4267017,2.572363,-2.097253],
[1.022868,3.940052,-2.273375,1.45527,-1.202063,-3.899225,3.383265,-0.4513701,-3.417463,-2.240535,2.40789,-1.819558,1.094856,-3.762169,0.06189775,0.9281424,3.891663]
]
],
"biases":[
[
-0.3894714,1.652688,-3.057327,-1.127728,-0.9120159,1.655046,2.098697,0.3106059,0.8193406,2.50772,-3.593017,-0.7989747,-1.824284,-0.06173328,-1.697938,2.763343,-0.6000897
],
[
2.605009,0.6069773
]
]},
{
"fitness":1.66587,
"weights":[
[
[1.332746,-1.334512,-1.517561,2.191385,-2.908847,2.795537,-1.36856,-2.143802,-3.910661,3.642049,0.331896,-1.485597,-0.1444751,3.128554,0.5635051,2.596504,2.012111],
[-2.631825,-3.978779,-1.112292,2.271434,1.540893,-0.1804555,-0.1124527,-3.92932,-3.262153,-3.444319,1.809299,-1.769718,2.982203,-1.476768,-3.179696,2.684087,-0.3137467],
[2.245706,2.897685,3.197312,0.4529719,-3.203809,1.728777,2.338394,0.6532699,0.7414778,1.149485,0.7055272,-2.974627,-3.004836,-3.224485,-1.15102,-2.216818,0.09765323],
[3.353392,-1.748657,-2.250773,0.3991501,0.4221244,1.158687,2.271714,1.196177,-2.269271,-3.385625,-2.012534,-2.059705,-3.577441,3.697186,0.5560041,-0.08100498,0.03415414],
[0.2636242,-2.175917,3.122427,-3.930944,0.9267663,0.9115218,-3.940679,-3.396524,-2.869844,-3.525988,3.584898,1.061897,-1.108742,-1.732372,0.4684658,2.824856,-1.038967],
[3.532255,1.951918,-0.8749017,2.468996,0.3970841,-3.258158,-0.1565702,0.3128759,2.776711,0.05468713,0.471363,-1.509286,0.3852929,-2.498127,-3.716848,3.970246,1.622871],
[-0.1197936,-0.7163998,2.662523,-1.729956,1.353113,-0.6477993,-2.783056,-1.896994,-0.1846151,-1.367051,-2.561583,-0.3920038,2.786265,3.427554,-1.149846,-3.321194,2.557796],
[2.273394,-0.2504825,-0.6254339,0.1977271,3.188319,-2.75833,1.207069,2.332783,2.671102,3.835159,3.946936,2.530944,-1.042791,1.468207,-1.512214,-0.3925368,0.08610141],
[2.319016,2.069355,-3.430488,2.992352,-0.7991249,-1.357424,1.888119,0.2009124,-1.775484,-1.784918,-0.7913098,-3.538262,-0.4056546,-0.599619,3.443957,-2.338756,-0.4267464],
[-2.234979,-3.046454,0.3942632,-0.9761277,2.702569,0.922318,1.519572,-0.5213955,-3.507287,-3.024225,3.467811,3.381088,-3.755615,2.057843,1.234854,0.5713922,1.183509],
[-1.236254,-3.782489,-1.942802,-2.78602,-1.845797,0.4752448,-1.725881,2.169289,-1.378559,-3.52914,-3.277492,3.496313,2.569374,1.327258,1.855544,1.216229,-1.734679],
[-0.2431709,0.174073,2.809494,0.4460106,1.611861,-2.788494,0.429973,3.902471,2.483099,3.023659,-3.950105,3.10773,3.919616,-3.532756,-2.45803,1.006953,0.9038582],
[-2.285367,-3.699198,-0.6388376,2.074139,-3.487222,-2.004387,-0.412989,0.3153951,3.790174,2.837104,-3.684592,2.302653,1.453269,3.652177,2.794044,3.787294,1.259468],
[0.5936865,2.080081,2.600238,1.046936,2.619254,0.1920432,-3.253789,-0.2875365,-2.382653,-0.8527315,0.8325502,1.829287,-1.742666,-1.735129,-0.1626689,1.178254,-0.5830905],
[-0.1897298,-2.222446,3.984012,0.02834316,-0.2813262,-3.185153,2.877811,1.588861,-0.5481747,1.10515,3.381997,-2.458244,-2.677666,-3.1429,3.285505,0.009821082,-3.364856],
[2.177595,-3.480901,-3.399923,-1.279981,1.829078,-1.767682,1.093118,-1.138286,0.526254,0.0330139,-2.303342,-1.469884,-3.486063,0.1194528,-3.148696,-2.117273,-0.991549],
[-2.918432,-2.417064,-3.940285,3.905513,-0.7173423,-3.036579,-0.8555395,-3.955887,0.4802066,1.253857,2.537258,2.808933,2.439104,2.532582,-1.807208,-2.153703,0.9851934]
],
[
[1.624888,2.65594,-2.293619,-0.2768613,3.218428,-3.667532,3.696334,3.679868,2.718942,3.445006,-2.763567,2.072852,3.528915,3.03874,-1.041243,2.572363,-2.097253],
[1.022868,3.940052,1.27962,1.45527,-1.202063,-3.899225,3.383265,-0.6445613,-3.417463,-2.240535,2.40789,-1.819558,1.094856,-3.762169,0.06189775,0.9281424,3.891663]
]
],
"biases":[
[
-0.3894714,1.652688,-3.057327,-1.529648,-1.69658,0.7094607,2.098697,0.3106059,0.8193406,2.50772,-3.593017,-0.7989747,-1.824284,-0.06173328,-1.697938,2.763343,-0.6000897
],
[
2.206181,0.6069773
]
]},
{
"fitness":1.649924,
"weights":[
[
[-1.083182,-1.334512,-0.8643027,-3.697655,-2.908847,2.795537,-1.36856,-0.7432475,-3.910661,3.642049,-1.467166,-1.485597,3.849415,-3.998416,-3.334215,2.596504,2.012111],
[-2.631825,-3.978779,-1.112292,2.271434,1.540893,-0.1804555,3.307198,2.967706,-3.262153,-2.204427,1.809299,-1.769718,0.7156144,-1.476768,-3.179696,2.684087,-0.3137467],
[2.245706,2.897685,3.197312,0.4529719,-3.203809,1.728777,2.084311,3.130858,0.7414778,1.149485,3.376909,-2.974627,-3.004836,-3.224485,-1.15102,-2.216818,-1.342094],
[3.353392,-1.748657,0.1968556,3.527635,0.4221244,-2.407546,-0.740734,1.196177,2.39485,-3.385625,-2.012534,-2.059705,-3.577441,3.12206,2.479304,3.279392,3.40471],
[0.2636242,-2.175917,3.122427,0.05993885,0.9267663,0.9115218,-0.6991618,-1.986795,-2.8925,2.012319,3.584898,-2.601939,-1.108742,-2.640199,0.4684658,2.824856,-1.038967],
[3.532255,-1.328172,-0.8749017,-1.048789,-0.1037488,-3.258158,-0.1565702,0.3128759,-0.8539606,0.3034997,0.471363,-1.509286,3.977402,-2.498127,-3.716848,3.970246,1.622871],
[-3.27054,-0.7163998,-3.263638,-1.729956,1.658611,-3.148146,-2.783056,-1.896994,-0.1846151,0.3341084,-2.561583,-0.3920038,2.786265,3.427554,-1.149846,-3.321194,2.557796],
[2.273394,-0.2504825,-0.6254339,-0.2358773,3.188319,-2.75833,2.845238,2.332783,1.155757,-2.844908,3.946936,2.530944,-1.042791,-3.750862,-1.661957,-0.3925368,0.08610141],
[-2.087099,3.822255,3.66582,2.992352,2.621938,-1.357424,1.888119,0.2009124,-1.992833,-3.503269,-0.7913098,-3.538262,-0.4056546,-0.599619,-2.937379,-2.338756,-1.037402],
[-2.234979,-3.046454,-3.978914,-0.9761277,2.702569,0.922318,1.519572,-0.5213955,-3.507287,-3.024225,3.467811,3.381088,3.208732,2.291279,1.234854,0.5713922,1.183509],
[-1.236254,-3.782489,2.114705,-2.78602,-1.845797,0.4752448,-1.725881,2.169289,-1.877075,3.206383,-3.277492,3.496313,2.569374,1.327258,1.855544,-0.7714859,-1.734679],
[-2.185861,0.174073,2.809494,3.27614,1.611861,-2.788494,0.1752587,3.902471,-1.00382,3.023659,-0.9140959,3.10773,0.01187589,-3.532756,3.729122,1.006953,0.9038582],
[-2.285367,-3.894336,0.9254677,2.074139,-3.487222,-0.6436365,-0.412989,-1.836985,3.790174,-2.788834,-3.684592,-2.212589,1.453269,0.4653334,2.794044,3.787294,-0.3179946],
[0.5936865,-3.726291,2.600238,1.046936,2.619254,0.1920432,-3.253789,1.423624,-2.382653,-0.8527315,0.8325502,1.829287,0.567883,-1.735129,-0.1626689,-0.9458917,-3.223583],
[-0.1897298,-2.222446,-0.4554917,0.02834316,-0.2813262,-3.185153,2.877811,1.588861,-1.369114,1.10515,0.3434194,-2.458244,3.080764,3.941939,3.285505,0.009821082,-3.364856],
[2.177595,0.7560006,0.2144429,-1.279981,0.09878881,-1.767682,1.093118,-1.140461,0.526254,-2.414654,2.39875,-1.515057,2.592188,2.762551,1.667646,-2.117273,-0.991549],
[-2.918432,-2.417064,-3.940285,0.8795166,2.715556,-2.606088,0.889872,-3.12118,0.4802066,1.253857,2.537258,2.808933,2.439104,2.532582,-1.807208,-2.153703,0.9851934]
],
[
[1.624888,2.65594,0.9055656,-0.2768613,3.218428,-3.667532,0.4906469,3.679868,2.718942,3.445006,3.710491,2.072852,3.528915,3.03874,-0.4267017,2.572363,-2.097253],
[1.022868,3.757411,-2.273375,1.45527,-1.202063,-3.899225,-1.296847,-0.6445613,-3.417463,-2.240535,2.40789,-1.819558,1.094856,0.1274121,0.06189775,0.9281424,3.891663]
]
],
"biases":[
[
-0.3894714,1.652688,-3.057327,-2.950511,-0.9120159,1.655046,3.608715,0.3106059,0.8193406,2.50772,-1.547769,-1.792716,-1.824284,-0.8279455,-1.697938,1.170814,-0.6000897
],
[
2.605009,0.6069773
]
]},
{
"fitness":1.61251,
"weights":[
[
[1.332746,-1.334512,-3.025404,-0.01632691,1.092534,3.203521,1.970513,1.681873,-1.633892,-3.843048,1.928577,-1.485597,-2.334831,-3.998416,-3.053209,-0.9058704,-1.688691],
[2.735322,-3.978779,-1.334657,2.271434,-2.393329,-3.618899,-3.80251,-3.860635,-1.320775,0.1187598,-0.3746175,2.97008,0.7156144,-1.476768,0.3261914,-0.0698885,2.903608],
[2.245706,-0.6166124,3.854627,-2.073942,0.4628903,3.187424,2.91989,0.6532699,-1.464083,2.560035,-0.1259976,-2.974627,-3.80818,-0.79887,-1.113682,-2.441055,1.473719],
[-1.633389,1.829332,-2.250773,2.636087,-0.8015668,1.158687,3.943249,1.196177,-0.9996279,-3.990801,-0.9173689,-2.059705,1.968247,3.12206,2.863927,-1.735551,3.718717],
[2.923531,0.1533085,3.122427,-1.71407,0.9267663,0.9115218,1.029932,-0.8072438,3.155816,2.578338,0.5387605,1.425483,-1.108742,3.016602,-0.3544715,2.824856,0.03342543],
[1.778679,1.772974,0.5490128,3.235327,-0.2312733,-3.447639,2.193156,0.3128759,1.380637,3.541686,0.471363,-2.638724,0.3852929,0.4396034,-3.716848,-3.645064,1.302097],
[-3.27054,-0.7163998,-1.183606,-2.254406,3.509569,0.09699457,-2.684569,-1.896994,0.2192741,0.3341084,0.2825215,-0.3920038,-1.606169,1.693178,0.1610564,-0.127591,-3.493427],
[-2.143863,-0.6215943,1.668098,0.6819264,-2.910517,3.338102,0.9468969,3.341776,3.006576,0.07714141,-0.5846445,0.8981113,3.265745,-0.8359451,-1.661957,-3.093592,0.7797006],
[-3.673357,-3.062057,-2.496408,1.572604,1.040433,2.493006,3.180286,0.8021342,2.19214,-2.551456,0.02211242,-1.251561,-2.675427,3.948922,-3.208095,0.6972783,3.541095],
[0.5439382,-3.046454,-2.311703,-0.9761277,3.60647,0.922318,1.519572,-1.428603,-3.386806,0.6109705,3.467811,-1.037133,3.208732,2.995035,1.234854,1.629902,-2.420464],
[-3.162611,-3.782489,2.357537,0.3103,-0.5267772,3.894082,-1.18441,-0.7176157,-2.108757,-3.52914,-3.277492,2.694999,1.024551,-3.391651,3.583971,-0.8193374,1.635107],
[0.8472637,-3.434773,-2.39076,-1.627089,0.1802508,-1.745651,0.6452546,-1.803266,1.646105,0.800715,2.930548,-1.254756,1.170578,1.820627,2.521227,1.006953,3.853378],
[-0.3629124,0.148543,-3.094676,-0.5481387,-1.791308,-1.887538,-2.307052,-1.836985,3.790174,-2.258613,-0.1916012,2.302653,-0.1985567,3.407846,2.506676,-3.076781,1.259468],
[1.587227,2.080081,2.600238,3.593478,3.331508,3.854142,-3.814229,1.423624,-2.382653,-0.8527315,0.8325502,1.745675,-2.328796,-1.735129,0.07691754,-2.281819,-2.472025],
[0.1219355,-2.832877,-0.4821991,-1.41176,2.174624,-3.185153,2.877811,-0.1442605,-3.107339,1.153929,-0.8179721,1.816224,3.080764,-2.60935,3.285505,2.028452,1.812299],
[-0.4349563,-3.764301,-3.607176,-3.134201,1.829078,-1.767682,1.093118,1.923957,2.358784,1.686004,3.507342,3.225024,-0.8006783,-2.89667,0.7464157,-2.117273,-0.991549],
[-1.224159,-1.63164,-0.9603514,-1.218344,-2.473638,3.729494,0.7578188,3.266244,0.4802066,-3.650932,2.854107,-0.8194075,-0.1015434,2.532582,0.9586955,3.092267,0.4828627]
],
[
[1.359604,2.65594,1.887185,3.773029,-1.917421,-3.09165,2.91134,3.679868,-1.608561,2.755354,2.30916,-1.479437,-3.021559,-3.12178,2.93633,2.572363,-2.097253],
[-3.942622,3.421416,-0.6612625,0.6454473,-3.020353,-0.2540429,3.383265,-1.529628,-1.219127,0.5310866,2.40789,-1.819558,3.744692,-3.762169,0.06189775,0.9281424,1.635856]
]
],
"biases":[
[
-0.3894714,1.652688,3.197496,1.715806,-0.9120159,-1.503512,2.098697,-3.568591,-2.999254,0.2298766,-3.715046,2.799052,-1.824284,1.672288,1.642559,1.358789,-0.6000897
],
[
2.605009,0.6069773
]
]},
{
"fitness":1.60639,
"weights":[
[
[-1.083182,-1.334512,-0.8643027,-3.697655,-2.908847,2.795537,-1.36856,-0.7432475,-3.910661,3.642049,0.331896,-1.485597,3.849415,-3.998416,-3.334215,2.596504,2.012111],
[-2.631825,-3.978779,-1.112292,2.271434,1.540893,-0.1804555,3.307198,2.967706,-3.262153,-2.204427,1.809299,-1.769718,0.7156144,-1.476768,-3.179696,2.684087,-0.3137467],
[2.245706,2.897685,3.197312,0.4529719,-3.203809,1.728777,2.338394,0.6532699,0.7414778,1.149485,2.841759,-2.974627,-3.004836,-3.224485,-1.15102,-2.216818,-1.342094],
[3.353392,-1.748657,-2.250773,0.3991501,0.4221244,-2.407546,-0.740734,1.196177,3.274149,-3.385625,-2.012534,-2.059705,-3.577441,3.12206,2.479304,3.279392,3.40471],
[0.2636242,-2.175917,3.122427,0.05993885,0.9267663,0.9115218,-3.940679,-1.986795,-2.8925,2.012319,3.584898,1.061897,-1.108742,-2.640199,0.4684658,2.520538,3.290605],
[3.532255,-1.328172,-0.8749017,2.468996,-0.1037488,-3.258158,-0.1565702,0.3128759,-0.8539606,0.3034997,0.471363,-1.509286,3.977402,-2.498127,-3.716848,3.970246,1.622871],
[-3.27054,-0.7163998,-3.263638,-1.729956,2.768031,-3.148146,-2.783056,-1.896994,3.523885,0.3341084,-2.561583,-0.3920038,2.786265,3.427554,-1.149846,-3.321194,2.557796],
[2.273394,-0.2504825,-0.6254339,-0.2358773,3.188319,-2.75833,1.207069,2.332783,1.155757,-2.844908,3.946936,2.530944,-1.042791,3.985464,-2.678622,-0.3925368,0.08610141],
[2.319016,-3.062057,3.66582,2.992352,2.621938,-1.357424,1.888119,0.2009124,-1.992833,-3.503269,-0.7913098,-3.538262,-0.4056546,-0.599619,-2.937379,-2.338756,-1.037402],
[-2.234979,-3.046454,-3.978914,-0.9761277,2.702569,0.922318,1.519572,-0.5213955,-3.507287,-3.024225,3.467811,3.381088,3.208732,2.683069,1.234854,0.5713922,1.183509],
[-1.236254,-3.782489,2.114705,-2.78602,-1.845797,0.4752448,-1.725881,2.169289,-1.877075,3.206383,-3.277492,3.496313,2.569374,1.327258,1.855544,-0.7714859,-1.734679],
[-2.185861,0.174073,2.809494,3.27614,1.611861,-2.788494,0.1752587,3.902471,2.483099,3.023659,-0.9140959,3.10773,0.01187589,-3.532756,3.729122,1.006953,0.9038582],
[-2.285367,-3.699198,0.9254677,2.074139,-3.487222,-0.6436365,-0.412989,-1.836985,3.790174,-2.788834,-3.684592,2.302653,3.686677,0.4653334,2.794044,3.787294,1.259468],
[0.5936865,-3.726291,2.600238,1.046936,2.619254,-2.380683,-3.253789,1.423624,-2.382653,-0.8527315,0.8325502,1.829287,-1.742666,-1.735129,-0.1626689,3.677897,-2.472025],
[-0.1897298,-2.222446,-0.4554917,0.02834316,-0.2813262,-3.185153,2.877811,1.588861,-1.369114,1.10515,0.3434194,-2.458244,3.080764,3.941939,3.285505,0.009821082,-3.016637],
[2.177595,-3.480901,0.2144429,-1.279981,0.09878881,-1.767682,1.093118,-1.140461,0.526254,-2.414654,2.39875,-1.515057,2.592188,0.1194528,1.667646,-2.117273,-0.991549],
[-2.918432,-2.417064,-3.940285,3.905513,2.715556,-2.606088,-0.8555395,-3.955887,0.4802066,1.253857,2.537258,2.808933,2.439104,2.532582,-1.807208,-2.153703,0.9851934]
],
[
[1.624888,2.65594,0.9055656,-0.2768613,3.218428,-3.667532,0.4906469,3.679868,2.718942,3.445006,3.710491,2.072852,3.528915,3.03874,-0.4267017,2.572363,-2.097253],
[1.022868,3.757411,-2.273375,1.45527,-1.202063,-3.899225,-1.296847,-0.6445613,-3.417463,-2.240535,2.40789,-1.819558,1.051298,-3.762169,0.06189775,0.9281424,3.891663]
]
],
"biases":[
[
-0.3894714,1.652688,-3.057327,-1.127728,1.332753,1.655046,-1.357607,-2.084704,0.8193406,2.50772,-1.547769,-1.792716,-1.824284,-0.8279455,-1.697938,1.170814,-0.6000897
],
[
2.605009,0.6069773
]
]},
{
"fitness":1.514013,
"weights":[
[
[1.332746,0.9065989,-3.025404,-0.01632691,1.092534,3.203521,1.970513,1.681873,-1.633892,-3.843048,1.928577,-1.485597,-0.1574917,-3.998416,-3.053209,-0.9058704,-1.688691],
[2.735322,-3.978779,-1.334657,2.271434,-0.9367657,-3.618899,-3.80251,-3.860635,-1.320775,-3.966459,-0.3746175,2.97008,0.7156144,-1.476768,3.450476,-0.0698885,2.903608],
[2.245706,-0.6166124,3.854627,-2.073942,0.4628903,2.559455,2.91989,0.6929685,-1.464083,2.560035,-1.220373,-2.974627,-1.028896,-0.79887,-1.113682,-2.441055,1.473719],
[-1.633389,1.829332,0.244022,2.636087,-0.8015668,1.158687,-1.413227,1.196177,-0.9996279,-3.990801,-0.9173689,-2.059705,1.968247,3.12206,2.863927,-1.735551,-3.844275],
[2.923531,-1.603809,-0.05442239,-1.71407,0.9267663,0.9115218,1.029932,-0.8072438,3.155816,-0.4115203,0.5387605,1.425483,-1.108742,3.016602,-0.3544715,2.824856,0.03342543],
[1.778679,1.772974,0.5490128,3.235327,-0.2312733,2.590559,2.193156,0.9361929,1.380637,3.541686,0.471363,-2.638724,0.3852929,0.4396034,-3.716848,-3.645064,1.302097],
[-3.27054,-0.7163998,-1.183606,-2.254406,3.509569,0.09699457,-2.684569,-1.896994,0.2192741,-2.456466,0.2825215,-0.3920038,-1.606169,1.693178,0.1610564,-0.127591,-3.493427],
[1.297822,-0.6215943,1.668098,0.6819264,-2.910517,3.338102,3.642573,3.341776,3.006576,0.07714141,-0.5846445,0.8981113,3.265745,-0.8359451,-1.661957,-3.093592,0.7797006],
[-3.673357,-3.062057,-2.496408,1.572604,1.040433,2.493006,3.431753,0.8021342,2.19214,-2.551456,0.02211242,-1.251561,-2.675427,-3.525705,-2.690341,0.6972783,3.541095],
[0.5439382,-3.046454,-2.311703,-0.9761277,3.60647,0.922318,1.519572,-2.523888,-3.507287,0.6109705,0.3238169,-1.037133,3.208732,-1.365475,1.234854,1.629902,-1.966674],
[-3.162611,-3.782489,-0.2888742,0.3103,-0.5267772,3.894082,-1.18441,-0.7176157,-2.108757,-3.52914,-3.277492,2.694999,3.406955,-3.391651,3.583971,-0.8193374,1.635107],
[0.8472637,2.624203,-2.39076,-1.627089,0.1802508,-1.745651,0.6452546,-3.702995,1.646105,-2.354633,2.930548,-1.254756,3.002247,2.73352,-3.084742,1.006953,3.853378],
[-0.3629124,0.148543,-3.094676,-0.5481387,-1.791308,-1.887538,-2.307052,-1.836985,3.790174,-2.258613,-0.1916012,2.302653,-0.1985567,3.407846,2.506676,-3.076781,1.259468],
[1.587227,2.080081,2.600238,3.593478,3.331508,3.854142,-3.814229,1.423624,-2.382653,2.505034,0.8325502,1.745675,1.140066,3.45522,-0.9787037,-2.281819,-2.472025],
[0.1219355,0.6539271,-0.4821991,-1.41176,0.5913535,-3.185153,2.877811,-0.1442605,-3.107339,1.153929,-0.8179721,1.816224,3.080764,-2.60935,3.285505,2.028452,1.812299],
[-0.4349563,-3.764301,-3.607176,-3.134201,1.829078,1.529579,1.093118,1.923957,2.358784,1.686004,2.836675,-3.029345,-0.8006783,-2.89667,0.377761,-1.358264,-0.991549],
[1.384364,2.296497,-0.9603514,-1.218344,-2.473638,3.729494,0.7578188,3.266244,0.4802066,-3.650932,2.854107,-0.8194075,2.439104,2.516994,-1.25997,3.092267,0.4828627]
],
[
[1.359604,-2.810382,1.887185,3.773029,1.31268,-3.09165,2.91134,3.679868,-1.633012,2.755354,2.30916,-1.479437,-3.021559,3.03874,2.93633,2.572363,-0.3532555],
[-3.942622,3.421416,-0.6612625,0.6454473,-3.020353,-0.2540429,3.383265,-1.529628,-1.219127,0.5310866,2.40789,-1.819558,3.744692,-3.762169,0.06189775,0.9281424,3.757656]
]
],
"biases":[
[
-0.3894714,1.652688,3.197496,1.715806,-0.9120159,-0.2227169,2.098697,-3.568591,-2.388353,0.2298766,-3.715046,2.799052,-1.824284,1.672288,1.642559,1.358789,-0.6000897
],
[
2.605009,-1.104946
]
]},
{
"fitness":1.513051,
"weights":[
[
[1.332746,-1.334512,-1.517561,-3.697655,-2.908847,2.795537,-1.36856,-2.143802,-3.910661,3.642049,0.331896,-1.485597,-0.1444751,3.128554,0.5635051,2.596504,2.012111],
[-2.631825,-3.978779,-1.112292,2.271434,1.540893,-0.1804555,-0.1124527,-3.92932,-3.262153,-3.444319,1.809299,-1.769718,2.982203,-1.476768,-3.179696,2.684087,-0.3137467],
[-0.6049626,2.897685,3.197312,0.4529719,-3.203809,1.728777,2.338394,0.6532699,0.7414778,1.149485,0.7055272,-2.974627,-3.004836,-3.224485,-1.15102,-2.216818,0.09765323],
[3.353392,-1.748657,-2.250773,0.3991501,0.4221244,1.158687,2.271714,1.196177,-2.269271,-3.385625,-0.07703217,-2.059705,-3.577441,3.697186,0.5560041,-0.08100498,0.03415414],
[0.2636242,-2.175917,3.122427,-3.930944,0.9267663,0.9115218,-3.940679,-3.396524,-2.869844,1.735373,3.584898,1.061897,-1.108742,-1.732372,0.4684658,2.824856,-1.038967],
[3.532255,1.951918,-0.8749017,2.468996,0.3970841,-3.258158,-0.1565702,0.3128759,2.776711,0.05468713,0.471363,-1.509286,0.3852929,-2.498127,-3.716848,3.970246,1.622871],
[-0.1197936,-0.7163998,2.662523,-2.961012,1.353113,-0.6477993,-2.783056,-1.896994,-0.1846151,-1.367051,-2.561583,-0.3920038,2.786265,3.427554,-1.149846,-3.321194,2.557796],
[2.273394,-0.2504825,-0.6254339,0.1977271,3.188319,-2.75833,1.207069,2.332783,2.671102,-1.514348,3.946936,2.530944,-1.042791,1.468207,-1.512214,-0.3925368,-0.07558706],
[2.319016,2.069355,-3.430488,2.992352,-3.647771,-1.357424,1.888119,0.2009124,-1.775484,-1.784918,-0.7913098,-3.538262,-0.4056546,-0.599619,3.443957,-2.338756,-1.307809],
[-2.234979,-3.046454,-1.50855,-0.9761277,2.702569,0.922318,1.519572,-0.5213955,-3.507287,-3.024225,3.467811,3.381088,-3.755615,2.057843,1.234854,0.5713922,1.183509],
[-1.236254,-3.782489,-1.942802,-2.78602,-1.845797,0.4752448,-1.725881,2.169289,-1.378559,-3.52914,-3.277492,3.496313,-0.9431283,1.327258,1.855544,1.216229,-1.734679],
[-0.2431709,0.174073,-1.416639,3.27614,1.611861,-2.788494,0.429973,3.902471,2.483099,3.023659,-3.950105,3.10773,3.919616,-3.532756,-2.45803,1.006953,0.9038582],
[-2.285367,-3.699198,-0.6388376,2.074139,-3.487222,-2.004387,-0.412989,0.3153951,3.790174,2.837104,-3.684592,2.302653,1.453269,3.652177,2.794044,3.787294,1.259468],
[0.5936865,2.080081,2.600238,1.046936,2.619254,0.1920432,-3.253789,-0.2875365,-2.382653,-0.8527315,0.8325502,1.829287,-1.742666,-1.735129,-0.1626689,1.178254,-0.5830905],
[-0.1897298,-2.222446,3.984012,0.02834316,-0.2813262,-3.185153,2.877811,1.588861,-0.5481747,1.10515,0.3434194,-2.458244,0.9384685,-3.1429,3.285505,0.009821082,-3.364856],
[2.177595,-3.480901,-3.399923,-1.279981,1.829078,-1.767682,1.093118,-1.138286,0.526254,0.0330139,-2.303342,-1.469884,-3.486063,0.1194528,1.667646,-2.117273,-0.991549],
[-2.918432,-2.417064,-3.940285,3.905513,-0.7173423,1.070489,-0.8555395,-3.955887,0.4802066,1.253857,2.537258,2.808933,2.439104,2.532582,-1.807208,-2.153703,0.9851934]
],
[
[1.624888,2.65594,-2.293619,-0.2768613,3.218428,-3.667532,3.696334,3.679868,2.718942,3.445006,-2.763567,2.072852,3.528915,-3.140764,1.394039,2.572363,-2.097253],
[1.022868,3.940052,1.27962,1.45527,-1.202063,-3.899225,3.383265,-0.6445613,-3.417463,-2.240535,2.40789,-1.819558,1.094856,-3.762169,0.06189775,0.9281424,3.891663]
]
],
"biases":[
[
-0.3894714,1.652688,-3.057327,-1.529648,-1.69658,0.7094607,2.098697,0.3106059,0.8193406,2.50772,-3.593017,-0.7989747,-1.824284,-0.06173328,-2.358318,2.763343,-0.6000897
],
[
2.206181,0.6069773
]
]},
{
"fitness":1.504922,
"weights":[
[
[1.332746,1.582229,-0.8643027,-3.697655,-2.908847,2.795537,-1.36856,-2.622662,-3.910661,3.642049,0.331896,-1.485597,2.973165,-3.998416,0.5635051,2.596504,2.012111],
[-2.631825,-3.978779,-1.112292,2.271434,1.540893,-0.1804555,3.307198,2.967706,-3.262153,-2.204427,3.615074,-1.769718,0.7156144,-1.476768,-1.433173,2.684087,-0.3137467],
[2.245706,2.897685,3.197312,0.4529719,-3.203809,1.728777,2.338394,0.6532699,0.7414778,1.149485,2.841759,-2.974627,-3.004836,-3.224485,-2.733021,-2.216818,-1.342094],
[3.353392,-1.748657,-2.250773,0.3991501,0.4221244,-2.407546,2.271714,1.196177,3.274149,-3.385625,2.38873,-2.059705,-3.577441,3.12206,0.5560041,-0.08100498,3.40471],
[-0.2066972,-2.175917,3.122427,0.02937071,0.9267663,0.9115218,-3.549995,-1.986795,-2.8925,2.012319,3.584898,1.061897,-1.108742,2.39416,0.4684658,-0.5508335,-1.038967],
[3.532255,-3.077462,-0.8749017,2.468996,-0.1037488,-3.258158,-0.1565702,-0.6420833,-0.8539606,0.3034997,0.471363,-1.509286,3.977402,-2.498127,-3.716848,3.970246,1.622871],
[1.746136,-0.7163998,-3.263638,-1.729956,2.570117,-3.148146,-2.783056,0.7275507,-0.1846151,0.3341084,-2.561583,-0.3920038,2.786265,3.427554,-1.149846,-3.321194,2.557796],
[2.273394,-0.2504825,-0.6254339,-0.2358773,1.463385,-2.75833,1.207069,2.332783,1.155757,-2.844908,3.946936,2.530944,-1.042791,3.985464,-1.34304,3.225415,0.08610141],
[2.60681,-3.751745,3.66582,2.992352,2.621938,-1.357424,1.888119,0.2009124,-0.6480013,-3.503269,-0.7913098,-3.538262,-0.4056546,-0.599619,-2.937379,-0.2797827,-1.037402],
[-0.9573932,-3.046454,-3.978914,-0.9761277,2.702569,0.922318,1.519572,-0.5213955,-3.507287,-3.024225,3.467811,1.669796,3.208732,2.057843,1.234854,0.5713922,1.183509],
[-1.236254,-3.782489,1.748617,-0.8219196,-1.845797,0.4752448,-3.586972,2.169289,-1.877075,2.30223,-3.277492,3.496313,2.569374,1.327258,1.855544,-0.7714859,-1.734679],
[-2.185861,0.174073,2.809494,3.27614,1.611861,-2.788494,0.1752587,3.902471,2.483099,3.023659,-0.9140959,3.10773,0.01187589,-3.532756,3.729122,1.006953,0.9038582],
[-2.285367,-3.699198,-0.6388376,2.074139,-3.487222,-2.004387,-0.412989,-1.836985,3.790174,-2.788834,-3.684592,2.302653,1.918205,3.652177,2.794044,1.739442,1.259468],
[-1.025247,-3.726291,2.600238,1.046936,1.287225,0.1920432,-3.253789,1.423624,-2.382653,-0.8527315,0.8325502,-3.184336,-1.742666,-1.735129,-0.1626689,3.677897,-2.472025],
[-0.1897298,-2.222446,-0.4554917,0.1979562,-0.2813262,-3.185153,2.877811,1.588861,-1.369114,1.10515,0.3434194,-2.458244,-3.535818,3.941939,-3.91387,0.009821082,-3.364856],
[2.177595,-3.480901,0.2144429,-1.279981,0.09878881,-1.767682,1.093118,-3.190607,0.526254,-2.414654,2.63147,-1.515057,-3.486063,0.1194528,1.667646,-2.117273,-0.991549],
[-1.909017,-2.417064,-3.940285,-2.859084,2.715556,-2.606088,-0.8555395,-3.955887,0.4802066,1.253857,2.537258,2.808933,2.439104,2.532582,-1.807208,-1.332113,0.9851934]
],
[
[1.624888,2.65594,0.9055656,-0.2768613,3.218428,-1.223381,0.4906469,3.679868,2.718942,3.445006,3.710491,2.072852,3.528915,3.03874,0.1800248,2.572363,-2.097253],
[1.022868,3.757411,-2.273375,1.45527,-1.202063,2.644178,-1.296847,-0.6445613,-3.417463,-2.240535,2.40789,-1.819558,1.094856,2.075305,1.953813,0.3262325,3.891663]
]
],
"biases":[
[
-0.3894714,0.753123,3.285214,-1.127728,-0.9120159,1.655046,-1.357607,0.3106059,0.8193406,2.50772,0.5229939,-1.792716,-1.824284,-0.8279455,0.4969731,1.170814,-0.6000897
],
[
-0.1193409,0.6069773
]
]},
{
"fitness":1.480902,
"weights":[
[
[-1.083182,-1.334512,-0.8643027,-3.697655,-2.908847,2.795537,-1.36856,-0.7432475,-3.910661,3.642049,-1.467166,-1.485597,3.849415,-3.998416,-3.334215,2.596504,2.012111],
[-2.631825,-3.978779,-1.112292,2.271434,1.540893,-0.1804555,3.307198,2.967706,-3.262153,-2.204427,1.809299,-1.769718,0.7156144,-1.476768,-3.179696,2.684087,-0.3137467],
