{ "networks":
[
{
"fitness":-1,
"weights":[
[
[2.601763,-2.801226,1.827577,-1.167174,1.702512,2.545696,-3.04415,-0.9550003,3.049398,-3.736977,-2.269004,-1.909842,0.6968255,-2.802845,-3.88124,1.574507,2.911964],
[-0.118567,3.481409,-0.661674,-3.200965,-2.626805,0.7993869,-2.58953,-1.06005,-0.8846757,-0.8467507,-3.418233,-2.272742,-1.699806,3.041695,-3.088692,-2.536765,2.87242],
[0.9943267,-0.9298154,-0.8371885,-2.801973,-3.907228,-2.905826,-3.804924,1.689422,-3.618402,-1.23052,2.261879,3.395709,2.918808,-0.1063546,-2.242596,3.732054,-1.951363],
[-0.274812,-2.817336,3.933895,2.162269,-1.122286,2.70523,3.913232,-0.04648421,-0.2455551,2.972694,0.4627466,3.367118,-3.46441,-3.107413,2.842621,2.263154,3.071662],
[-2.419284,2.656088,-0.194244,-1.572347,-0.09417897,-0.08884162,1.320629,1.108022,-0.8754053,-0.0583579,1.716641,0.9437631,-1.619185,3.503679,-3.891919,0.2112817,-0.6021389],
[-3.875884,1.661887,-3.871086,2.636284,1.503916,-0.302644,3.819447,2.638639,0.4388322,-1.377834,1.198692,-0.601104,-3.184902,0.6535409,3.73029,1.365154,-1.051412],
[-1.068237,0.7034351,-2.107607,-2.407431,-3.518469,-0.7269622,-1.744164,2.159405,0.6640529,1.166023,1.324785,-2.424349,1.935511,-3.088649,1.935918,2.834307,-0.2769117],
[-2.352267,2.620096,-1.202573,0.1915122,-3.806536,-1.578369,3.457765,2.478729,1.370083,1.146997,0.9297244,-2.774616,-2.070049,3.268712,-0.730702,-3.068835,2.488554],
[0.177309,3.939085,-1.153776,3.97695,-0.05664078,-2.947353,2.570919,-1.424053,-1.222397,2.582751,2.738416,2.738117,3.548007,-0.4037093,-2.757669,3.054839,2.724815],
[1.153435,-3.577789,-2.904281,2.202775,3.53105,1.893256,0.7039667,1.920481,-3.152694,2.718546,2.198106,3.314873,1.924716,-3.670032,-0.4222188,0.6489992,-1.685352],
[-1.055857,-0.9427137,1.707329,0.1669626,0.7317913,0.5599624,-2.537365,0.7865248,-1.818984,2.029109,-0.7943518,-1.262398,0.9407854,2.872051,-2.847226,3.931989,2.836167],
[2.481191,-3.056072,2.302744,1.003422,1.186511,0.6238083,0.8955688,2.195009,0.9590735,-0.5764229,1.9713,2.989881,-0.00989343,1.424946,0.4403353,-3.518033,0.960607],
[-1.807384,1.036232,-2.455228,-1.648105,-3.086036,1.352975,2.250204,-1.067164,-1.366865,2.70426,3.542581,3.656743,1.364212,2.95419,2.436414,1.0846,2.525109],
[-0.1164717,-1.413263,-1.121942,3.802161,2.32232,-3.236898,-1.020353,0.1439925,0.9869761,3.904902,-2.081911,-2.653404,-3.342767,2.914757,-3.023486,-2.055922,1.546038],
[0.4418475,0.8503322,1.690465,-3.225207,-3.633596,1.43326,-3.475123,0.02413403,2.660054,-0.2843159,-3.257416,1.622926,2.289097,1.312004,-2.821413,-3.487936,-1.240491],
[1.262113,-2.821212,0.9905803,1.695431,-1.912919,0.817161,1.663806,-1.950343,0.08998747,3.455479,-1.355076,-0.05232757,-2.881058,-3.76611,-1.541733,3.410136,-3.652643],
[-0.7180204,-0.6412172,-0.8831353,3.401368,-3.512668,3.024533,-3.208666,2.084317,-2.22322,-0.449454,0.7405804,0.3064101,3.968907,-0.2737477,-3.799018,-2.107373,3.427179]
],
[
[-2.927731,-0.09447002,-0.4764675,1.390046,3.875219,0.08441685,-3.724012,0.09691263,0.6173184,-2.022223,2.550026,2.954785,3.771294,2.478403,1.741906,0.3076045,-1.657247],
[-3.463276,0.2485092,-2.083606,-0.9703376,-1.143094,3.572009,-1.705168,2.307617,-3.652914,-1.900298,-2.810183,2.652213,3.412511,-2.990554,-0.5954883,1.728478,1.227847]
]
],
"biases":[
[
2.308797,2.80502,-2.998925,-1.629009,3.704687,3.297459,-2.588961,-1.45087,-2.574038,-3.583136,3.662551,0.8987781,-1.058439,1.086697,0.1691594,0.8980582,0.796344
],
[
1.620341,-1.547501
]
]},
{
"fitness":-1,
"weights":[
[
[2.479589,1.44306,0.5615026,2.377815,-2.464129,0.600071,-0.1928312,2.367473,-2.404168,1.579663,-3.986205,-1.518508,-0.00975123,3.759672,2.295738,3.482059,3.85366],
[0.8534716,-2.905051,2.527407,-0.9124293,-2.080926,0.5611689,-3.610987,-0.9791757,-1.905477,-0.1960941,-1.567202,-0.5907676,2.084124,-3.700278,0.4068391,3.626105,-0.3836035],
[-0.8625363,3.896372,-0.4958535,2.29322,1.441744,-1.768928,3.795016,1.698978,-1.424989,-0.5240828,-3.419562,1.937269,-3.636778,-0.6548207,-2.374439,-1.558438,-2.990111],
[0.3081592,3.820272,-2.44017,3.589906,1.121917,-2.876273,-3.633411,0.9319469,-3.366051,3.89515,2.870051,-1.779568,-0.2219399,3.13926,3.191055,3.577626,-0.0555367],
[0.02181296,0.164547,0.02200743,-0.5409796,0.527294,-3.796386,-0.1838285,-3.390351,-1.828895,-0.4568468,2.129339,3.188164,3.412921,1.179533,0.1049407,-1.330683,1.102557],
[2.727877,1.963994,1.859624,-1.957082,3.326401,-3.089573,3.846329,1.609,1.153156,0.1782621,1.560898,-3.453524,1.96951,-3.605736,2.655825,-0.705675,0.7143448],
[0.9697907,-2.121059,-1.902561,3.946682,3.582555,-1.446661,-3.023193,2.620833,1.541224,2.522549,1.341334,0.2495439,-0.06994042,0.6067531,-1.765681,-2.724062,2.927821],
[-2.763577,-2.791902,-2.120575,0.3955564,3.464531,-2.860848,0.5332113,-2.610415,-3.050696,1.70472,3.42734,-3.357028,2.598917,3.436558,-3.530665,1.136268,0.8222234],
[2.0733,3.831256,0.3447927,-3.200049,-0.5471014,3.194918,0.04922142,1.660869,2.552115,2.314586,3.190152,1.461574,-2.129295,-2.34361,-0.08529487,1.127904,1.652128],
[0.6336265,-3.761918,1.975458,-0.8965029,-2.57679,-1.103406,3.631793,-0.2319324,3.538477,2.642471,-1.34064,0.4374638,-3.969532,0.8539139,1.039684,0.01065266,-3.715003],
[1.69555,-2.696613,1.715391,-2.636036,1.62802,-0.6037406,-1.747643,-2.381563,-2.063376,-2.887773,-1.041028,3.783906,-3.976223,-2.882388,1.738633,0.1514299,-3.626308],
[3.654803,-2.875076,2.703994,0.6423017,2.489993,1.275755,2.479516,3.376772,2.625403,3.955263,2.214202,-1.680132,-0.4672046,-3.892338,1.788836,-3.510254,1.589668],
[3.664513,0.7578244,-2.483586,0.4028724,1.288249,2.602992,0.2497109,-3.698655,-3.998911,0.5145304,-3.40158,2.222296,0.4831074,1.009195,-1.906193,2.774115,-3.193445],
[-0.1574811,-2.235009,-3.441671,3.473361,-2.285158,1.894884,-2.660297,-3.036364,0.06490217,-2.132748,2.111569,-1.127746,2.579996,3.616438,1.806143,2.570534,3.148305],
[-3.637929,-0.5022439,-3.584572,1.189438,-1.424043,-2.050899,-3.031575,1.479141,0.1017319,0.1538953,-1.144326,-2.257554,2.13037,-0.9406695,0.6606761,0.2772344,3.575015],
[2.636353,-3.501705,-3.169676,3.588358,2.522289,-3.689855,0.7818116,-0.9845719,-1.95654,-1.39456,-3.254637,-2.774723,2.701459,1.375812,-0.09313945,3.687422,3.847824],
[3.218108,-1.226182,1.399928,3.656163,-3.696429,3.512656,-0.5837497,0.9909286,-3.073235,2.081432,3.850614,1.919705,0.9652529,3.198667,-2.683466,1.916515,-3.6043]
],
[
[2.797099,1.356187,0.9027976,-1.624364,-1.05576,3.562744,0.9628103,2.734952,-3.799611,3.336221,-0.7764222,3.851096,-2.174218,2.522177,-0.7697569,3.10268,-0.02992562],
[1.678502,-0.6254631,2.300931,-2.687334,-3.677961,1.448643,0.6321046,2.913003,-1.363685,-2.423566,1.662348,0.7151483,-0.8554183,-3.048815,-1.675393,-1.985112,-1.137307]
]
],
"biases":[
[
3.273577,-3.437165,3.503297,-0.2590809,-2.872461,-0.5919117,-2.597284,0.7515922,1.538041,-3.965356,2.765355,-2.108651,-2.685417,-2.232424,0.7258309,-2.662064,-2.704957
],
[
-3.147651,0.9591268
]
]},
{
"fitness":-1,
"weights":[
[
[-2.002843,-3.677973,3.73314,3.528994,1.575578,2.456337,3.847564,1.755634,-1.515379,1.200399,3.648452,0.2962266,2.981773,-2.443946,-1.33711,-2.060613,-1.964712],
[-0.2438789,1.292668,-2.53337,2.395458,2.66047,2.636145,2.845182,3.264404,1.400375,2.806964,-3.813906,-1.389406,-0.1046279,-0.5866561,0.4953198,3.668673,-2.269847],
[3.481861,-1.121352,-0.3607358,-1.082926,-0.4691588,2.996871,0.2180246,3.159316,-0.9812041,0.6478308,-2.940116,-2.979763,-2.678335,-2.438158,-2.183472,0.1292678,-2.791206],
[-2.605208,0.6847069,0.5544674,-3.925157,2.16045,0.007266145,0.4352548,2.788014,-0.1899554,-3.418056,1.686444,-0.7587494,-0.2769914,-3.49764,2.129521,2.964563,-0.1147282],
[-3.490274,0.7366832,-0.4458374,2.332165,3.787048,-3.682221,-1.735637,-3.746783,1.752345,2.843225,3.035051,0.3584488,1.49156,0.8610768,3.141666,-1.50538,2.702561],
[3.755201,1.830082,0.8152261,2.693708,-1.432123,-0.3022096,-3.615858,-2.295732,-2.546664,-0.8010443,0.7664824,-1.720305,2.955398,3.83391,-0.04757116,3.949938,0.6260576],
[2.673385,0.8811237,1.313077,1.412058,2.516526,-3.949809,-0.8414171,3.504399,2.234115,1.68087,-2.801949,1.28584,-0.7648184,0.6696897,3.18147,-1.862736,-2.049464],
[-1.26947,-0.9272296,-1.412204,1.697997,2.483889,-1.150898,1.732139,1.26678,2.919903,3.247337,-3.954961,-2.978287,3.516697,-1.628054,-0.7607611,-1.416798,-0.4571613],
[-2.450884,1.613466,-1.173162,1.028495,3.229499,-1.346713,2.069375,-1.308754,0.6950535,2.343674,0.1165637,1.01426,-0.7273469,2.47286,0.7279171,-1.281226,-0.8734359],
[-3.99117,-1.461004,0.678408,1.337166,-3.438438,-0.09357559,-1.812712,-2.99194,-1.935544,-2.892058,1.544699,0.2419845,-0.5237696,-0.1307247,-2.908869,-2.920464,0.2609821],
[2.665791,0.7991828,3.229598,0.8827003,-0.7344223,3.141626,-0.8029647,-0.6758756,0.6222485,2.249386,-0.1502467,1.813734,-0.4403991,-2.395834,-3.952821,-3.215267,3.151499],
[-3.437263,-3.918374,-1.814178,-0.8769125,0.8008041,3.176603,-0.9461148,2.760645,-2.011091,-1.825175,-1.50241,-2.539304,2.222356,-3.945197,-2.489108,-1.028718,-0.06947901],
[-0.9823369,1.593835,-0.2291751,3.842477,3.110893,-0.3530684,1.956454,1.521732,1.991769,-2.843894,-3.16727,-1.275334,-1.239555,3.468382,-0.6290823,-3.860845,3.354424],
[0.3193011,-3.765083,3.886961,2.163517,1.953301,-1.343731,-0.5279834,-0.858431,2.32346,-0.01081773,-1.31001,3.338535,1.202934,2.263475,-1.7064,-3.155564,1.275671],
[2.666878,-2.284971,2.536004,-0.1061435,1.197674,1.379187,2.850556,-3.824392,0.1777451,1.426118,1.99605,1.243498,-3.333041,3.459959,-0.7457204,-1.263963,1.837873],
[3.518229,-3.224803,-1.220705,-0.5202178,1.286181,-1.723603,-2.981218,2.267399,-1.522057,-0.9220941,3.347149,1.247677,-3.958959,0.3093819,0.3088112,-1.528317,-3.816269],
[-3.727987,1.81243,2.590095,1.353889,-0.7300864,-0.4915855,2.524057,-1.447743,-3.973069,-3.534463,-0.6043578,1.72547,-2.839081,-0.4101416,-1.117494,-3.19273,-1.315997]
],
[
[2.642883,-0.8208869,3.584109,-0.8168094,1.522329,-2.312736,1.961216,1.687643,-0.5124084,2.273855,-1.962678,0.4066354,-1.965949,-1.147405,2.105573,1.05693,0.2533214],
[0.4163784,-2.184372,-0.3325577,3.071081,0.5387558,0.04857753,1.276759,2.210395,-1.705685,2.463307,1.025931,0.9992403,-2.919272,-1.969587,2.96822,-0.186823,-2.141957]
]
],
"biases":[
[
3.691382,-0.02046072,-1.895289,-3.492106,-0.7803645,1.537714,-0.8709703,2.758202,-3.133615,-1.601099,2.09924,0.739333,-2.454164,2.380041,-1.171496,1.893839,3.381179
],
[
1.700405,-3.611622
]
]},
{
"fitness":-1,
"weights":[
[
[0.2906021,1.963265,-1.681562,2.103048,3.5203,-0.9295181,1.928692,-2.150411,2.217345,-0.5936417,3.873213,2.795906,2.810495,-2.255398,-3.366177,2.159045,1.979109],
[1.363549,3.980646,1.73232,-2.984176,-1.580081,-1.759405,-0.0740382,-0.7316957,3.967503,-0.3095723,-2.085572,1.612875,-3.10006,-2.017758,-3.43719,-3.081854,1.412109],
[3.231287,0.5766624,0.3944064,-1.227041,-2.462981,3.871373,0.8846521,-0.09955207,2.060066,-2.688409,-3.180897,0.120346,-0.3302219,-1.170273,1.083568,-0.2541263,0.02484695],
[-2.499762,-0.06475657,-3.331889,-1.595349,-0.6403631,-3.289864,-1.247674,-0.5822807,-0.6576191,-2.83261,1.458651,2.891003,-0.1737174,1.548518,2.125988,3.410379,2.159108],
[2.168205,-0.3656238,2.257481,3.055385,-0.9877179,-1.376734,-2.434113,0.7741924,0.3774716,0.9104807,-3.681082,-0.587684,-2.096688,-3.151354,3.815501,3.065206,2.718045],
[1.808379,-1.738179,-0.6151257,-3.526201,-1.89251,-0.3339362,-0.2643048,-3.589144,1.035921,0.2008256,0.3821935,-1.468414,-2.441144,1.426727,1.789199,2.698061,-1.500598],
[-0.8365679,-1.418705,3.932278,0.8603556,-0.6825685,-3.477515,1.806805,-3.083383,3.815396,-0.8839185,2.150676,-3.25274,-3.111523,0.1234715,2.291547,2.755893,-1.932395],
[0.5006901,0.8176476,-0.3889613,-2.230011,2.748978,1.034332,-1.115784,-2.888843,-3.993905,-3.949651,-1.596768,-2.247595,-1.596657,-0.6573426,2.288416,3.584349,-1.173129],
[-2.876836,-3.066018,-3.856182,-2.671304,-2.931584,-0.1666313,0.3854125,-0.2171985,-1.699655,1.142024,-1.147865,0.6344929,2.022348,0.0759511,-1.341275,1.218939,-1.175321],
[3.96528,-1.290314,-1.267469,-0.3535894,-2.057064,-3.309541,-3.445233,-3.691199,-2.454855,2.44589,-1.809947,0.3092591,-3.185794,1.662993,-2.446479,-1.960819,2.777476],
[-1.621217,-0.4990186,-1.388173,-2.281221,2.646956,-2.682601,3.599037,-1.271989,-3.528299,-3.89046,1.854918,0.07002068,3.700778,-2.997805,-1.215813,-1.659467,3.402425],
[-2.520337,-3.660483,-2.885019,3.63871,0.6117527,-0.6188309,2.170552,-0.7406377,1.100877,-0.7377947,-3.454596,3.390698,-3.525139,-0.6005582,0.08465428,1.876671,1.922365],
[0.1676858,-0.8760663,1.915417,-3.553599,-0.7792566,-2.695666,-2.370121,3.902205,2.076521,-3.640673,-3.376491,-0.3126383,-1.275482,-3.957564,-0.2199531,-2.886576,1.001597],
[-1.341291,-2.485221,-1.370684,-3.199468,-3.694757,1.076161,-0.7048472,1.264024,0.586876,1.017868,3.514445,0.3230645,-2.104675,0.4090323,-2.225747,-0.6812975,-3.478399],
[3.84347,-1.845391,2.060491,3.588956,0.7540708,-0.4954929,-0.7804874,-0.1312921,-3.75639,-1.63992,0.4364078,3.622593,-3.618201,0.1571868,-3.431282,2.067503,-3.209343],
[2.374794,-1.318537,2.458607,2.024928,1.112925,3.511012,-1.205021,1.377895,1.550606,3.009411,3.769682,3.473462,0.03742645,-2.923539,3.713429,0.09575805,1.675297],
[-2.43862,-1.362266,1.071347,2.286518,-3.599693,-1.451691,2.007975,1.313383,-3.867228,2.507218,2.961718,-1.138512,-3.663073,-0.2996424,-1.412124,-3.788521,-0.3138017]
],
[
[-2.086578,2.574678,-1.195919,0.06665295,1.740654,2.961725,-0.0162586,3.390193,1.436358,1.034041,-3.87029,0.4750115,0.6870097,3.095831,1.950566,-1.741275,-0.3673744],
[-0.0425557,-0.7776036,3.276985,1.953454,-1.296287,-1.173057,-0.05912811,2.672806,-2.067999,3.886819,2.42489,-3.289502,1.092561,-3.412637,-0.4523743,-3.153816,0.05932069]
]
],
"biases":[
[
2.762753,0.5875378,-0.6141129,-1.039856,1.833467,-3.061881,-3.978636,3.815045,-3.814801,0.1107084,-0.3310675,2.066223,-0.652752,-3.485052,0.9043611,3.376535,-1.880948
],
[
-1.493973,-1.631293
]
]},
{
"fitness":-1,
"weights":[
[
[-0.7758768,1.341972,3.249707,0.7070397,0.9941613,-1.486431,-2.539747,1.259623,2.938898,-1.677719,-1.84173,1.618055,-1.249669,-3.763324,-2.011477,3.604693,1.070418],
[3.110679,1.058145,3.572926,-1.287878,1.773072,-0.7573612,3.970426,-3.319327,-1.01298,1.646158,1.727185,-0.8758068,-0.3877056,-2.66844,-1.399,-0.6268826,-0.08795518],
[-1.231113,3.325688,0.7829211,-2.549893,0.4677908,1.223338,-0.4953764,-2.099068,0.3691753,-0.7745649,-2.155567,-0.0003730301,1.479628,-1.538591,-2.419986,0.6150642,-2.178944],
[-2.493226,-2.536376,2.000937,-3.301584,-3.422329,3.215347,-1.990226,-1.481694,0.9566588,3.028883,1.351151,2.352774,-1.770857,0.3879761,-2.935307,3.585451,-3.790382],
[-2.772872,3.210906,-3.464292,0.5224214,-3.049509,-0.8747851,-0.7060767,-2.765578,-3.436595,-2.135008,1.461323,-0.300629,-3.677665,0.06400725,0.7181467,0.5699961,-0.6658916],
[-3.602964,2.640607,0.9187569,0.546482,2.216166,3.741465,0.8339655,-1.085238,-2.181085,-3.027878,-2.336075,-2.296937,-0.547178,-3.548576,-2.786852,2.774358,-2.258585],
[2.020002,-3.177546,-2.6323,-0.1783422,-0.4039821,0.8302472,2.69706,-1.792936,2.922114,-0.9473624,-0.03969289,-1.840004,1.666518,1.860677,2.164801,0.484033,-2.646885],
[-3.559842,-0.738478,3.702756,-2.222718,1.669573,0.7400347,0.01477682,1.145235,1.17138,2.181036,0.4550435,-1.96226,0.9611155,3.311131,-3.266006,1.072868,3.229657],
[-0.4302956,1.769985,3.701731,-3.521496,3.78461,2.802355,3.747585,1.842456,-2.920409,1.844685,-1.186844,-0.4776752,-3.220871,1.152974,3.882385,3.823701,-2.069906],
[-1.86587,3.211621,1.220181,0.0735683,3.38786,1.897382,-0.6078125,-2.364969,-3.606927,3.325835,-1.410399,-0.2759579,3.644703,-3.70906,1.162411,-0.0305671,-1.968137],
[-1.352775,0.2279516,-0.6187737,-0.563768,3.88477,-3.076861,-3.882301,-0.2804819,2.514822,-3.171987,2.801779,0.4413651,-0.9148661,-3.436755,0.8516294,2.392004,2.336518],
[-1.572361,-2.738914,-1.070246,0.009464802,-3.128177,-2.170599,-1.723201,0.5738065,3.906553,-1.249708,-2.996259,0.06963723,-3.26266,3.840675,3.339883,-1.130032,3.753696],
[1.887601,3.595257,0.524232,-0.5503159,1.174183,-3.932591,1.74297,0.68182,-3.848609,-3.827824,-0.3521086,3.506608,2.243494,-1.881291,0.4843545,0.7207776,-1.976278],
[-1.867399,0.6557723,-0.8941741,0.9452866,3.783538,-2.430737,-0.5503507,-0.6386595,0.9181913,-0.2505837,0.6290962,-0.274969,-1.199774,3.935731,-0.0007710084,0.5719817,0.4129284],
[-3.339732,3.129021,-0.009218274,0.06841264,3.393149,-3.898137,-3.552481,-2.207109,-0.2354977,-1.022789,2.392295,3.455993,-0.2472075,-2.920045,3.436032,3.257899,-1.975405],
[-3.825356,0.34236,3.982089,2.093452,-2.600587,-2.484255,3.122522,-1.544765,1.816971,3.383934,0.7781934,0.6464053,1.85866,1.36238,3.449647,-1.962764,-2.619296],
[-1.140663,-1.982422,-0.8849005,0.01033323,2.219683,3.02422,0.078863,2.657914,1.959113,-0.8310304,-3.849877,-3.265268,0.1083316,3.208845,-3.169382,3.733076,1.318457]
],
[
[-3.528089,-0.5104972,3.711215,1.653583,1.849296,-1.986159,2.158713,3.170515,-3.408508,1.463517,-2.357874,2.072091,0.6471349,-0.3599331,-3.832748,-3.470901,-3.014002],
[3.402515,-0.6433741,-1.220413,-2.74168,-3.289285,-3.265616,-0.2160126,3.48052,1.959848,0.676998,0.5774561,0.4071316,2.32221,2.677759,2.035242,3.254839,-3.093714]
]
],
"biases":[
[
3.204654,-3.740359,1.128471,1.877723,-2.283626,-1.642749,-1.551103,1.227371,2.50407,3.142769,-1.441613,-1.442883,-2.491989,0.008139024,3.965425,-3.943826,2.289494
],
[
1.622855,-0.653146
]
]},
{
"fitness":-1,
"weights":[
[
[3.963018,-3.878844,-2.438732,-1.872566,-1.383054,0.1929541,2.342168,0.5172954,-2.413825,3.426981,1.7489,-1.838801,-1.210099,2.302827,0.3953132,-1.351843,-0.5813047],
[-0.5739806,0.9296064,0.1276778,2.07416,1.665106,-2.647052,1.512201,-2.407288,3.964385,-3.148075,2.612597,3.624732,2.250257,3.783445,2.239398,3.356121,3.191374],
[-3.750072,-3.365928,-3.053828,-0.8052933,-0.4922346,1.241596,3.562639,3.630949,0.1478986,3.406838,2.594228,3.5023,-1.381017,1.324389,-1.636899,1.260943,-0.6647145],
[-0.3196102,-2.849873,0.5137181,-2.351466,2.857025,-3.165555,1.651038,1.318139,1.399188,-3.383663,-0.2250574,-1.111058,0.07548082,0.3188456,-1.51035,-2.804527,1.622421],
[-3.256734,-0.961718,-1.05333,1.988188,0.00997676,-1.182417,-3.199439,-3.273744,1.405448,-0.1275519,-1.248705,-3.463756,2.599004,-3.042202,3.574553,2.901285,1.940143],
[-3.366233,-2.290988,-2.738702,1.171749,3.887149,-2.644687,0.4877984,-1.840338,-2.466665,1.063831,-1.939679,3.39484,1.496431,-3.723292,0.6970681,3.239801,-3.384047],
[-1.415428,-2.434374,-3.338222,3.414367,-1.027883,0.925092,2.551583,0.4365409,-0.9162302,-0.5433209,-1.998096,2.032917,2.35629,3.786978,-1.988946,-2.281055,-2.933746],
[2.220965,-3.459618,0.3516056,3.282885,3.133077,-1.021502,-2.128352,-0.4266461,-3.712488,-1.570729,-1.472912,0.2388078,1.15231,-1.469282,-2.37962,2.388694,3.485132],
[0.4192822,2.095286,-2.989623,2.575006,-1.50495,3.767733,3.205044,-2.671836,-0.8997086,-1.171817,-0.4340467,-2.311262,-2.105517,0.958005,-3.066444,0.6234697,1.090091],
[0.5147425,2.436019,2.40342,3.916394,-1.562352,0.29579,3.000698,1.275967,-1.051119,3.66345,0.3929955,-2.498832,-3.745181,0.3431027,1.641021,1.593324,3.737468],
[2.944621,3.007905,2.518606,1.48342,1.909403,3.96175,0.7284353,3.398445,-3.79668,2.634052,-1.231143,1.26024,0.1551821,-1.094116,-0.4890385,-3.012279,2.860774],
[2.750552,3.064149,-3.251099,-2.029176,0.9503391,-3.332382,1.501836,-2.253295,-1.005944,-0.07808226,-0.7192424,-3.110924,-3.93624,0.6436503,0.2546505,2.3798,3.216377],
[0.0129932,2.695194,0.7297918,-1.917081,3.692285,1.815365,-0.1972356,-3.038163,-3.248607,2.968922,-3.012851,3.910384,-1.654676,-2.738745,3.066073,2.196546,1.939158],
[2.867143,2.153494,-1.970099,2.111932,-2.327845,-2.287362,-1.735381,1.613992,-0.5835279,-1.040789,-0.2249628,2.219419,-1.944976,1.752141,0.07302991,-0.1520984,3.818311],
[-0.6116639,-3.575408,-3.640649,3.880896,-2.279627,-0.8752514,0.9460616,-0.0861299,-3.242152,-0.8526865,0.6207725,2.006605,-2.6043,-3.664063,2.671019,-2.76917,-2.669667],
[0.5905807,-1.283898,0.4805013,-3.456138,-2.209672,-1.795857,0.3288335,2.085557,-3.003456,1.957091,3.942899,-0.651898,3.775655,-1.024186,-2.194221,2.201976,-2.237761],
[-1.783503,-3.4011,1.218341,-1.713587,2.152999,2.005336,3.11465,-1.603164,3.770118,3.444489,0.9186679,-2.460314,2.469717,0.6675158,1.69457,-0.9174823,-0.3952946]
],
[
[-1.864957,0.63801,-3.933815,0.7593557,0.725752,-3.093706,-0.5444328,2.778103,-2.226613,-2.513442,2.240727,-1.585591,-3.133682,-3.883743,2.780311,-3.395572,-3.520388],
[2.575377,-2.886597,2.89436,-0.04956393,1.14202,2.83304,-1.641852,-3.351947,2.005395,-0.4025961,1.130038,-3.954935,3.100425,-0.6190458,0.5788344,-3.199945,0.02891748]
]
],
"biases":[
[
0.5549663,-2.925171,2.137216,3.133149,-0.6513746,-0.7247815,1.893887,-1.039792,-0.7533889,-0.176646,1.130265,0.5363737,-1.592407,-3.169993,-2.044092,3.947562,1.370251
],
[
-2.439524,-0.4733073
]
]},
{
"fitness":-1,
"weights":[
[
[-3.68003,-1.973715,-2.653092,3.332681,-2.469068,2.734061,0.3409509,0.02125205,-0.573878,0.06097167,0.04999527,2.129897,-3.157972,0.6878322,-2.40391,-0.5966349,1.226935],
[3.710046,-0.702503,2.972609,1.364664,-2.487824,-2.457839,1.604844,-0.5946711,0.9421671,-3.785328,1.99956,3.853682,3.108063,0.01313475,3.126651,-3.372555,-2.996408],
[3.714074,-3.245909,2.209565,-3.13644,-2.399162,-2.234451,3.377036,1.935691,2.536962,0.6123678,-0.8278754,2.571878,0.7782086,1.736388,-1.955182,-2.805253,0.3551046],
[-1.526403,-3.837759,3.951242,-0.957496,-0.8611635,0.500119,-0.1426067,-2.201928,0.3767709,0.5156864,-3.174616,1.312533,3.175465,0.5527596,3.496282,-3.192607,0.8911753],
[0.2334474,-3.285635,-1.424987,-3.046044,3.060801,-0.7890822,-3.010293,0.4766627,1.930139,0.5173155,1.256299,-0.6814858,-2.499631,3.878598,-2.786918,2.003824,-3.774965],
[-0.4686394,-2.902721,2.155236,-2.794481,0.8458157,-2.69609,2.530877,1.210959,-0.8585696,0.2806367,-0.08265959,3.469916,1.532349,2.289561,1.244324,0.3052654,-2.584022],
[3.296292,3.991445,-0.2116635,3.063044,-3.04596,3.588692,2.420031,-3.616997,-3.837646,-3.285803,-0.5073094,-3.701402,-0.8081191,-1.286856,3.82891,0.1887882,-1.616331],
[-0.4338697,0.9910139,1.873244,1.383316,-0.1896769,2.366617,3.871906,0.8483512,0.9164317,3.401416,-1.428195,-2.237856,-3.289395,2.278346,0.3919295,1.823375,-3.80403],
[-1.401821,0.6672468,-0.4992053,-0.9674475,0.1552299,3.321177,3.703226,0.7383727,-3.277051,0.08796515,-2.586576,-3.611462,0.7076429,-1.692578,-0.3137688,-3.785792,0.7269929],
[1.150704,-1.052583,-0.2564657,1.883813,0.5957084,3.06818,2.565619,-1.449354,1.971661,3.463408,1.276192,3.171306,-1.387377,-3.022541,-2.741169,-1.569574,0.4178423],
[-0.1083445,-2.832498,-0.4863528,-2.270302,3.936873,0.9509988,-1.258013,2.713808,-2.143189,-0.5023327,-2.501702,3.429602,-0.8925659,3.940483,2.880614,-3.043715,-1.679299],
[-0.08995784,-0.7662451,-1.841369,-0.4316907,2.667577,1.296526,2.580372,1.314349,1.964715,3.366102,-2.202318,3.772943,0.9985734,0.35202,2.507333,-0.1007117,-0.2570461],
[-3.312497,-2.61955,1.19999,-2.229982,0.7853861,-1.503615,-2.84028,-1.113695,-1.594012,-2.053448,-3.379561,0.04264893,3.610969,3.641836,-1.91107,0.1073862,0.2428555],
[-1.526489,-0.1083948,2.94365,3.897283,-0.2622039,3.107829,0.1271665,-0.572327,1.031451,-1.751674,-1.505064,2.901849,3.782393,1.317208,3.922981,0.8247242,3.650457],
[-1.041327,0.8662709,2.665532,-2.362314,2.713006,-0.7569155,3.055155,-3.758883,1.465204,2.626404,-1.395559,-3.578753,-3.850783,-3.94582,3.290978,-1.461613,2.230938],
[-0.1032697,-1.739005,1.599988,3.505402,-3.052645,-3.010838,-2.029624,-2.889418,0.63161,-1.239212,-1.883764,-3.719411,0.8463625,-0.3576386,-0.23113,-0.7488363,3.761871],
[1.59422,1.38391,3.927006,1.571477,-0.7129133,3.872547,-1.797372,-1.169631,0.8703268,-0.5864757,-2.064618,2.607467,-1.288855,-2.48924,0.2130819,-3.024931,3.60629]
],
[
[-1.647445,-1.125437,1.828437,1.272561,1.096135,-0.5680781,0.1611508,-2.862013,-2.269584,2.593001,-2.816316,1.572742,-0.2870291,-3.139281,2.920939,-3.995323,-2.038935],
[-0.5785643,-1.069569,2.738381,-0.9382431,0.638351,-2.523914,-0.4214598,-2.295126,0.2980234,1.385417,-2.983525,0.4591439,2.164719,-3.975877,1.50068,1.452603,-3.947752]
]
],
"biases":[
[
-1.654387,-1.023878,2.358742,-1.472835,1.465012,-1.047972,1.616004,0.9772125,1.715423,2.173209,1.384279,3.897149,-1.326619,-3.363539,-2.719603,3.158425,3.092832
],
[
1.44716,-3.662096
]
]},
{
"fitness":-1,
"weights":[
[
[-1.070942,1.048431,-3.167931,3.792747,3.859923,-3.978106,1.144769,-2.982729,1.966307,-3.23381,0.2874286,0.08463174,1.785721,3.901042,0.6984607,0.6652274,-1.513593],
[2.626436,0.368519,3.04271,-1.653331,-3.878772,0.1644836,3.088311,-2.797786,3.197001,-1.917491,-0.2528567,2.567658,2.693865,3.26625,0.6569084,-1.940003,0.932391],
[1.992688,-0.8120225,-0.08344138,-1.795678,0.1781911,1.566516,-2.733286,-0.3850046,0.5075263,-0.3450907,-1.297046,3.118492,-0.9800444,3.038649,-0.5749781,-0.1384422,-0.01983998],
[-3.857324,3.917548,1.862158,-0.7589448,3.342537,-1.504999,0.7072828,-1.471183,0.3113256,-0.2597529,-1.373643,1.230443,-2.712759,3.844425,2.611539,1.136301,3.256529],
[0.6568631,0.9802561,-1.001642,2.538542,-0.1673287,3.9844,-1.496545,-1.285102,0.4087236,-3.773185,-3.964018,-0.410411,3.246584,-2.446564,-1.399371,-3.639162,-1.143023],
[1.488829,-1.05007,3.435622,1.029418,-1.386204,3.411978,1.758601,0.4621856,-3.32508,-1.256827,-0.052454,-2.575434,0.7726729,-1.740887,1.614367,-0.6363603,1.673607],
[1.768209,-0.0431416,-2.43543,-3.925811,-3.173181,-2.519928,-0.4034887,0.7813908,-3.487816,-0.987757,2.940424,3.661933,-1.055833,3.294827,-2.777007,-0.6881126,-1.276642],
[2.625966,2.496612,-2.727744,-3.420121,-3.750029,-3.384268,-3.5507,-0.5012282,1.64564,0.9311792,-3.059692,-1.231472,-0.9079868,1.717368,1.523754,0.01933101,-1.787757],
[-3.261057,0.6925849,0.9023582,-1.777302,-0.02936965,0.9490323,-0.7290068,-0.1164327,-1.431181,-3.106386,1.17175,2.50361,1.178566,0.3012438,2.812326,0.07917707,-1.195688],
[2.956012,-0.3448077,-2.962057,-0.03939996,3.213402,1.136577,2.682889,0.5853063,-2.413584,-2.30286,1.8283,-3.122777,2.069098,-3.597699,0.5452856,-1.560636,1.708894],
[-3.338915,-2.90391,2.315057,2.607652,2.110884,-2.234442,-3.126453,3.9843,2.895915,0.7828486,0.9286631,-2.397766,-0.7675455,2.750609,3.791762,3.654266,3.203157],
[0.5575091,2.413476,1.60587,2.4526,-0.08328096,-0.2847738,-1.474049,-3.678179,3.976508,-1.834497,-1.775719,-2.440066,3.49578,3.523446,3.106644,-0.9835107,3.381127],
[-2.626216,1.738492,-0.2129754,-2.45095,2.096444,1.7007,-0.6311026,-1.753386,2.058936,-3.350574,1.833042,-2.724653,-1.255314,2.148027,-0.05164026,-2.140858,0.3782542],
[-1.850619,2.850713,-3.551484,0.5170842,3.78532,3.931587,-3.268139,0.1582931,-2.751503,-2.909134,1.022559,-1.217645,-1.318301,-1.888676,-1.328376,-2.400877,2.074921],
[-2.998036,3.528559,-3.486342,1.547678,-0.2854233,-3.142954,-1.189217,0.1975001,3.28333,2.063263,-1.338281,0.2840569,-0.4023275,3.507507,-1.894943,-0.3175412,-3.623249],
[3.097718,1.226419,-0.6888169,2.588507,-1.007066,2.369207,-1.321967,-1.662064,2.703342,-1.737785,3.902625,-2.830822,2.449214,3.840211,3.738314,-1.416855,-0.6207869],
[-1.246723,-2.799216,1.410553,-1.251402,-0.5371594,-0.04333146,-1.299702,1.785794,0.7362533,-0.02063352,-3.90888,1.135032,-3.882144,2.331273,-2.686938,-1.170686,-0.7952835]
],
[
[-2.785925,-2.792367,-1.63254,-2.810781,-3.742015,-3.991116,0.05282275,-2.789141,3.390233,-1.305845,-1.864301,1.742508,-1.375591,-1.422025,-1.369152,0.6617113,-1.246844],
[-1.501176,2.323551,-3.133195,-0.9554716,-2.798959,-3.827173,1.212817,3.97226,0.5911341,2.615965,2.999479,-0.02004377,-3.885421,-1.213842,-2.081067,-2.172969,-2.113443]
]
],
"biases":[
[
3.49562,-0.3546408,-2.400537,-2.985051,1.775992,0.2831926,-3.426922,-0.8971397,-1.160033,2.66458,-0.4780729,-0.453735,-1.076712,1.711517,-2.067288,2.464772,-2.108778
],
[
-1.286036,-2.949306
]
]},
{
"fitness":-1,
"weights":[
[
[0.9163429,3.820087,2.433028,1.468004,-3.052867,3.618389,2.748082,2.597503,2.724611,-1.609526,1.253285,-0.7207731,3.456752,-1.787582,-2.440641,-3.687615,1.853604],
[-2.574384,-2.010332,0.1301517,0.1787522,3.421362,-1.285637,-3.269215,-1.166279,-2.632262,1.401549,0.4658604,2.200531,1.695881,-2.972613,1.635002,3.897722,1.608647],
[0.2268117,-0.3073666,-2.529371,0.2984352,3.210934,-0.4990296,-1.809373,1.472758,0.2399168,-2.581744,2.485467,2.204087,-2.099472,-2.825226,2.414857,-3.120984,2.97183],
[-1.271387,2.61827,3.397933,-0.4354626,-2.134741,-0.2847305,3.230537,-2.74528,2.759086,2.144707,3.20124,3.181084,-2.768983,-3.438925,-1.078203,3.014137,1.517087],
[-0.5175514,-2.262817,-3.353652,-0.6383084,-3.783694,-2.058802,-0.6050506,3.068777,1.029016,2.295734,2.453641,-2.456913,2.509785,-2.817641,-3.269457,0.06986739,-3.07836],
[-1.084924,1.026041,-1.913218,-2.893056,-0.5955399,2.919008,1.075145,-1.072982,-2.033031,3.62551,-3.553933,-3.973557,-0.1676174,1.458713,2.765893,-1.254032,-3.328162],
[-1.978727,3.501731,3.135303,2.014898,-0.9126986,3.524431,-3.948422,-3.230534,1.048058,1.186294,0.105708,-2.825266,2.717256,-2.905394,-0.6850366,-0.4124691,1.447418],
[-0.7797578,-1.402333,0.7867867,1.438321,-0.6173921,2.385525,-1.423395,-3.744434,-1.025636,1.09853,2.479371,3.462679,3.483331,-0.03542518,-1.350864,2.900759,-3.60686],
[-2.235735,-2.93564,0.2168994,0.9406111,2.361242,3.808129,3.620677,0.3695306,2.901217,-1.13524,-2.975371,-1.468618,-3.229431,3.030719,0.8501021,0.7854914,-1.833817],
[1.45369,3.732441,-1.11588,-2.59158,-1.186349,1.378103,1.772112,1.958798,3.962135,-3.004137,2.126586,1.211385,-2.368916,2.706445,2.770594,0.3473787,-3.672164],
[0.3760184,-3.831773,-2.834347,-3.190363,-2.912548,-2.891207,3.1457,1.555526,3.04345,1.159866,-2.581201,2.059012,2.01919,0.03992475,-1.249642,1.849124,3.356565],
[3.19125,-2.819185,2.390827,3.533921,-0.605502,-0.1449242,1.732309,-1.568066,-2.919956,-2.666072,-3.816,2.329991,1.911829,2.403012,-2.325718,-3.890982,-2.996891],
[-3.93733,-1.470078,-2.352433,0.03673288,1.042548,2.299173,-1.824997,-2.759741,3.359537,-3.808175,-1.292717,-2.15891,-0.309993,-3.791289,-3.653437,-0.4839499,1.546102],
[-2.093575,-0.1034293,-0.915459,3.341141,0.01851147,-3.703181,-0.3732764,0.3926397,-2.118581,-0.4595135,-2.013986,0.7792674,-2.076955,2.672392,-0.8187617,2.855769,-0.09519691],
[-2.503018,2.007852,-0.4042419,-0.5325654,-3.505184,-1.078408,-2.456048,-3.851701,1.915688,-3.521735,1.423778,0.6752191,-3.035444,0.6808836,-0.2837498,-3.874971,-3.150712],
[3.459539,-1.484118,-1.770027,3.545411,-1.764443,3.243754,2.596496,-2.070924,0.2124279,2.659424,0.03540413,0.5432918,1.853871,-2.382654,-1.626375,-0.8772108,-3.746056],
[1.913635,3.040673,3.718419,1.638028,-2.98043,-3.444654,3.941577,3.574194,2.046124,-3.277504,-3.59956,1.315238,0.5261384,-2.614587,-3.932217,3.108782,-0.9138882]
],
[
[0.04441598,-3.98449,-3.872368,1.825593,1.528551,0.5894318,0.6698077,-3.301023,2.850702,-2.059608,2.281415,-1.263675,-2.829425,-3.905819,0.6524653,1.710586,0.4087548],
[-0.8084769,3.304563,2.671998,-0.2104021,-0.1600902,3.557423,-1.619879,-3.468536,3.188282,-1.330363,3.054589,-2.558303,-3.559285,-2.191804,0.09572256,-1.073945,1.964969]
]
],
"biases":[
[
0.8899381,-1.999458,1.815134,2.548457,-3.653569,1.074998,2.344344,-0.2813609,-0.1863769,-0.73853,1.087005,2.017872,0.6080202,0.7949034,3.501019,-2.921113,3.483787
],
[
-2.296067,-0.6083031
]
]},
{
"fitness":-1,
"weights":[
[
[-1.858212,2.802687,-3.126233,-3.302923,-0.008867921,-1.022596,-1.236756,1.996038,-1.777607,2.994818,1.077352,-0.161504,-0.3725572,2.778401,0.6588044,-1.691815,1.058577],
[-0.5220454,-1.191277,1.700644,-1.753548,-1.428292,-2.672737,-2.235645,1.923287,-2.072447,1.329553,-3.477112,1.727129,-2.871995,-3.046606,3.804706,-0.4831403,-1.902448],
[3.854573,0.8219209,0.2007374,-1.371277,-0.1036577,3.93537,3.28655,-1.345143,-1.709499,0.8289892,2.321529,-0.281918,-0.8193274,1.06911,2.52936,-2.645385,-2.915923],
[2.000235,-2.780388,-1.010352,-1.61366,-1.841281,-2.202894,0.1208377,-3.289981,-2.965268,-1.172473,-1.234518,-3.499421,-1.045194,-2.919298,-3.058759,1.658951,0.3690282],
[0.8873806,-2.346071,0.5681126,0.5327942,-1.852302,-2.259861,-3.498231,-3.106413,1.382037,-0.6162978,0.6235545,-1.778037,-2.008262,2.206231,-0.6185466,-3.937926,1.466185],
[-2.807686,-2.883803,0.8769306,2.28291,-2.673684,-0.3474001,1.709797,-3.958254,-1.768364,2.821369,1.171248,1.398275,-1.218102,-0.9861284,1.16617,-2.368014,1.403652],
[-1.266525,1.031915,0.4508096,3.772355,-1.088547,-3.254153,0.9334736,-3.80914,-3.780286,3.461324,3.153252,-2.55111,1.883446,2.216071,-1.720074,3.439967,0.7337658],
[1.673408,-3.473344,3.479124,0.3704071,-3.321702,-1.130213,0.4274954,-2.730809,-1.386932,-1.669033,0.4540438,-1.659385,-1.746439,-1.971954,-2.117588,-3.103642,-2.379325],
[1.675225,-3.147981,-1.392433,2.166831,-2.000533,-1.234155,-0.3107488,2.420045,0.1366273,-0.132133,3.218092,-0.8851494,1.637373,-0.8394412,2.412853,1.193861,0.7128853],
[-0.461105,-0.1509109,-3.163496,2.249194,-2.999106,2.927454,-3.110246,1.099845,-2.466672,1.467552,-2.527885,-1.770653,-2.848165,-1.599524,-1.072814,-2.689681,-3.39251],
[-1.482006,0.5545974,0.6729491,-2.093681,0.4473157,-2.951561,0.348242,-1.930879,-0.0506991,1.912572,3.313987,-2.683872,-2.007941,0.08203622,-0.076627,-3.599447,-1.044964],
[-0.818585,-3.95876,1.365371,0.4085682,2.263859,-0.8892267,-1.685194,-0.8509799,-1.579319,-0.7459911,-3.314152,-3.357041,3.806622,0.3488741,-0.8469934,-0.657498,0.2340078],
[0.6374887,2.553117,1.567627,-1.202892,3.782957,2.067382,3.919434,3.55337,-1.042554,1.093212,-1.394982,-0.5705351,-3.595591,3.722749,0.4437911,-1.114324,2.283852],
[1.596439,3.274804,-0.1270321,-0.967272,-0.3327786,0.4498153,-1.948666,-2.33147,-1.091896,1.642473,0.3785152,-1.77585,-3.79456,-2.747861,0.8042788,3.725968,1.570562],
[0.9825404,1.667988,-1.339866,-2.018291,-3.890405,-0.2611468,-0.3444971,3.222112,1.97652,3.907869,-3.02399,-1.701393,1.137904,1.162264,-1.46397,3.893598,-3.373176],
[-1.846328,2.3113,-2.13602,-0.396866,0.4448185,-3.420086,-2.142355,-0.5681166,2.400974,0.7770644,2.686838,-2.241667,0.6964498,-2.847554,0.3248149,1.038299,3.177504],
[0.2651169,-3.712052,2.8005,-3.546575,3.328534,0.6287723,1.720362,-2.459835,1.57516,-1.554365,0.2469247,-2.901949,0.9998955,-0.8609369,-3.750453,-0.7431655,0.9857168]
],
[
[1.818696,-3.50237,-1.391,2.349054,-3.361003,-2.989724,3.810799,0.1294136,3.446957,0.7368127,3.483743,-2.867323,1.377525,-1.550858,-0.3384613,0.9522355,3.523456],
[1.512335,-3.874256,1.172206,3.860065,-3.93776,-2.420929,1.397502,1.389953,3.575346,2.912201,0.4957864,1.912352,0.7983889,0.008646607,-2.288177,0.5795236,-1.964066]
]
],
"biases":[
[
3.326954,-0.9434435,2.997494,0.6363782,2.759494,-0.1893685,-2.752461,0.6658583,3.222273,-1.407086,-3.503612,0.2222716,-1.147821,-0.0996069,-0.5255879,2.197402,-2.996688
],
[
-0.05401807,1.391463
]
]},
{
"fitness":-1,
"weights":[
[
[0.2386959,0.8998859,-2.569251,0.9136261,-2.898371,3.728486,-0.8291789,-2.821235,-0.9585905,-2.05281,0.2677273,0.7939401,2.317997,-1.706432,-1.818375,-0.7495101,-3.681569],
[-2.258326,2.960492,-2.302237,2.941227,2.083817,0.3472456,-2.062006,0.9505577,0.005234201,0.4030156,1.536262,3.947096,-1.898198,1.670088,2.651183,-2.234134,-2.514115],
[-2.752038,-1.889418,1.070494,-3.78447,1.567554,-0.003222259,2.823842,1.532597,0.8555601,-0.3048713,-1.353484,0.1594453,2.335532,1.296656,-0.8395934,-1.482823,-0.4323401],
[-0.4763128,-1.196263,3.806607,1.798143,-1.908134,1.830158,0.5334968,2.003631,-3.273995,2.627595,-3.080426,0.4445375,-1.631258,2.335387,1.998281,2.736442,-2.996364],
[-1.572346,3.916277,-3.78262,0.6067759,3.420789,3.985907,-3.422768,-1.409297,-0.5730451,3.753768,-3.260436,1.998223,-0.2231678,3.595024,-2.909668,-3.791888,1.261622],
[-3.792744,0.1818164,-1.624481,-0.5162648,2.445834,-0.08209044,-0.4034271,2.056258,1.062092,-2.426471,1.118551,0.6107506,-3.485705,2.647025,-3.796645,-0.4729269,-1.128035],
[0.6361946,-1.93424,0.8654151,2.504061,1.323673,1.197084,-0.7597715,3.163377,-0.8597309,3.522606,0.7924559,2.0379,2.383387,3.982155,2.772483,1.963414,-2.238577],
[-3.893636,-0.5325268,3.266515,3.256906,1.863037,-0.6069003,-3.361654,-3.909376,3.993412,2.192241,-3.013808,2.396177,3.675682,3.508358,3.973355,2.425259,-1.32966],
[-2.591659,-1.055263,1.376017,-1.720536,-1.015539,2.749341,0.7927762,2.289758,-1.11571,0.729517,0.7655306,-0.8445866,-0.2628836,0.4090469,-1.550067,-1.472804,1.496074],
[-3.070385,1.718928,0.759043,3.071229,-0.9176793,-2.633745,-1.833107,2.229424,3.144112,-1.904841,-0.744246,3.142199,-1.627774,-3.912767,3.660252,-3.907706,-3.974822],
[3.927409,-2.197233,2.20567,3.085268,-3.082374,2.281497,0.3526031,1.208232,3.546988,2.109973,0.2119533,3.450941,-1.859555,3.398053,-1.084894,-0.7316461,3.073578],
[0.3515822,0.7346336,1.8262,2.196825,-1.765308,-1.481594,1.285008,3.793037,-2.061802,-3.752069,-1.275945,-2.58709,3.722705,-3.352089,0.3908005,2.314504,1.082789],
[3.912794,1.305273,-3.697398,3.062021,1.723267,-1.580488,1.596356,-2.755801,-2.766282,2.662299,-0.3010362,0.08821526,3.381787,-3.029974,0.2672656,-2.078482,-0.4892947],
[-0.4926788,2.528091,-2.748751,-3.417566,0.7529091,-0.05088643,3.531047,-2.501217,-2.648843,1.02259,1.362951,1.859769,-1.924724,1.272775,-3.416473,2.08431,-1.77441],
[-0.04937423,1.074957,-0.6419756,-1.474617,0.5725295,-3.035715,1.855364,-0.4975488,2.198537,-0.6276221,-0.9907299,-3.042486,1.968204,-1.730427,0.7860897,-3.961012,-2.103435],
[-3.202558,-3.363168,-1.853418,-3.604076,2.908442,-2.803825,-2.553577,1.367613,-1.435186,-3.380776,0.3221845,-3.688345,-3.17611,2.940433,3.247179,1.932492,0.1860887],
[-3.684942,1.56597,-0.2003493,-2.434606,0.5894152,-2.291593,-0.3705434,-1.713044,3.838764,2.46479,3.321469,-0.3852298,-0.6497092,2.913962,3.564475,-0.9641485,3.452339]
],
[
[-2.532747,0.5655373,0.02312271,1.59853,-0.03697752,2.508077,-0.2531399,-0.5118504,3.042666,3.933148,2.583069,-3.650882,2.275725,0.7216054,1.293679,0.7687941,3.677277],
[-0.8195493,1.109253,3.258922,0.2205028,-0.7043904,1.100152,3.926245,2.664436,-2.621745,3.589285,0.1178176,1.772293,1.061186,3.041554,2.606605,0.1636572,-0.7358903]
]
],
"biases":[
[
2.446428,0.9420649,3.087326,-1.052886,3.546316,3.617502,3.447213,-3.231057,-3.955642,-2.253788,1.969261,-2.995044,1.181419,2.869259,-1.231575,0.09949297,-3.6941
],
[
0.1468033,-2.94009
]
]},
{
"fitness":-1,
"weights":[
[
[1.380496,3.270394,-1.212193,2.069101,3.108304,2.495939,1.253267,-1.524562,-1.460477,3.510109,-2.874686,1.595952,-3.170475,2.869437,-1.330312,-2.590886,-2.314572],
[-2.028641,-1.335403,-0.8244582,-3.618365,-1.480683,2.727616,-0.3225038,2.424545,3.845675,1.348566,3.196812,2.186675,-0.9353189,1.189819,3.468283,-3.695261,2.038],
[-2.714306,0.1694279,-2.204524,3.949769,-3.737462,-3.504084,1.163692,-0.9506154,0.2332059,-2.075472,-0.9005456,-0.6924245,-1.178706,3.516264,2.197939,-2.083018,-0.6449652],
[-3.553863,1.313214,-2.8265,1.100344,-3.559583,-0.7616581,-2.357645,3.827242,-0.5308718,1.365324,-3.303915,-0.7012327,-1.099584,1.829716,-2.742686,0.2084339,-3.514287],
[-3.459569,1.161288,-0.5086031,-1.721527,-0.03283273,0.9988055,-1.71217,0.8816031,1.178526,1.521616,0.5942779,-2.6039,2.820962,0.5219573,3.263,0.3351614,-2.58501],
[-0.1205719,2.654316,2.485985,-2.578634,0.04033544,0.9740803,-2.842025,2.412714,-0.5430155,1.692451,-1.059504,-2.594469,1.498814,0.02282881,0.5292175,3.668038,-1.044245],
[-1.126173,-2.076755,0.9202042,1.506197,1.421833,0.9556585,1.984494,-0.9071847,1.682401,2.231786,-2.220567,2.367484,1.885015,-1.28279,-3.103664,2.223558,3.110643],
[3.403029,-2.680834,3.235187,-3.269678,3.524255,-3.165328,-2.618762,0.2043301,3.225721,-3.945369,0.3275931,3.859461,3.884854,-0.9947126,-3.39966,0.9862207,1.122943],
[-1.322516,0.4008509,-2.321845,-0.6607091,2.961801,0.3152228,2.356116,-0.8985128,1.573164,-2.538008,0.1101138,-2.582159,3.926778,-2.913218,-0.3102099,1.059253,2.176502],
[-0.2636443,2.09797,2.615957,3.914059,-1.946354,0.6832424,-0.2312136,-0.6251748,2.065405,2.67725,0.0647864,-2.438153,0.8733434,-2.377693,-0.02397945,3.676479,-2.186662],
[-2.942848,-3.324153,-2.759436,0.1449106,-1.59786,-0.9942169,-2.398187,-1.057539,2.565117,-3.550347,-1.438337,-0.1265088,2.414634,3.323261,3.015731,-2.387874,-2.372222],
[-0.9790475,-3.774829,-1.911823,-2.014176,1.605119,2.38316,-2.265313,-3.347554,1.611681,-2.94185,-3.476866,3.486001,-1.420742,-0.5455091,-1.389957,1.080512,-3.057226],
[-3.894738,2.150891,-0.6309962,-3.965153,3.874992,1.325029,-3.500508,-3.859029,0.07427517,-0.976639,1.803689,-1.477958,0.8668811,-1.046404,1.121087,2.42889,-2.87594],
[-0.2802166,2.758686,-1.29341,-3.622549,3.642569,-1.057634,2.683866,3.772748,-3.733178,-0.3728711,0.8773199,0.3386417,1.428714,-2.51997,1.828821,3.962983,-2.370676],
[-2.107986,2.404156,1.528967,-0.9650353,-0.09071113,0.278018,-0.2023602,-1.256034,-3.76377,0.01512676,-2.330003,2.250178,-1.159319,2.819501,1.863608,3.742194,0.1876693],
[-0.4716159,1.384445,0.7869448,-0.4531949,2.596712,-0.7121461,-1.117573,-2.803632,-0.01215866,2.29698,-2.77243,2.074212,-2.36159,3.336801,-0.7181896,3.816112,-3.728327],
[-3.518019,-3.562349,-2.602791,-2.777014,-2.57474,0.8675146,2.750651,2.762997,-3.661584,-3.998729,-3.912114,3.807016,2.548276,-1.777417,2.372851,-1.658917,3.220897]
],
[
[0.9302067,-0.3233751,2.08602,1.39075,1.302869,-3.577128,1.801972,3.684592,-3.210054,-3.722429,0.2610272,3.936002,0.1587595,0.2196726,-0.9431337,3.290642,-0.2284125],
[0.6687226,-0.03206959,2.119205,-2.239544,-1.406224,3.213522,-3.894425,-2.405286,1.947291,-2.109655,2.95324,-1.390204,1.2465,-3.3357,-3.544906,-1.207294,0.3571207]
]
],
"biases":[
[
1.632404,2.161184,-1.114338,-1.146039,-0.543538,-2.736462,-1.155961,-2.995996,-1.781429,-3.735459,-1.869302,2.384905,-0.04381938,2.334536,-3.508125,2.060392,2.446358
],
[
-3.400009,-1.601835
]
]},
{
"fitness":-1,
"weights":[
[
[-1.974732,2.098492,3.740115,0.3334687,-2.275125,-3.899279,-2.485935,-1.082603,-1.28092,-3.783913,1.281607,-1.836204,-1.715674,-0.2865537,0.1326465,-2.789573,1.429261],
[-3.266452,2.490667,-0.4489596,0.8137414,0.8385888,2.336774,3.617928,1.719015,1.644817,0.3534796,0.8751053,-0.1283295,-3.513401,-0.6738245,-3.050053,3.344459,2.349876],
[-2.186111,3.024304,-1.495359,-2.751473,-1.434417,-3.478766,0.09284335,-3.330988,3.736538,0.2115659,-1.793471,-2.286836,-1.147055,-0.03576163,1.863004,-1.447815,3.495487],
[3.139312,-3.794415,-0.1248179,-3.916068,-3.707124,0.5806005,2.932764,-3.585568,3.894583,3.696147,-3.314235,-3.236329,0.2329854,-2.622108,-1.78397,0.2651155,1.679406],
[0.4582573,-1.678404,-0.79571,-0.299482,3.510527,1.156934,0.9766535,0.5779403,-1.939872,2.523005,0.76871,-2.701715,-3.248207,0.7051555,0.5472218,-0.006837873,-2.671523],
[-1.061706,3.247492,-3.033307,3.273094,-0.638464,3.090828,-3.500349,0.3827519,0.8671564,-2.408028,1.836506,1.187514,-3.202229,1.285718,2.039446,-0.0152942,1.059026],
[3.300163,1.446263,-2.441699,2.685336,3.421093,0.8159516,0.7721327,0.5296516,0.7218494,1.759512,-3.018528,1.777479,2.912738,-0.6834207,-0.7361946,3.727294,-2.884036],
[3.645253,0.3586526,-2.952814,-2.661776,-2.591369,3.214533,-2.266935,-0.120229,1.91681,-0.7552028,-3.918388,-2.322335,1.292159,3.529782,1.669607,2.84331,2.557171],
[2.392298,0.6195379,2.797524,-3.33727,-0.5318529,-0.2033188,2.690394,-1.485752,-0.7350314,-2.33962,-0.6571625,0.5255929,-0.669274,2.089298,-3.76236,3.919418,0.4732294],
[-0.6757966,-3.982039,-2.81346,0.9569259,-2.878802,-2.852122,-3.264559,1.945696,-1.261255,-3.744172,-1.324458,0.1062903,0.8983827,0.4578951,0.5985087,-2.714196,-1.182161],
[2.575872,0.4469429,0.9816653,-2.351038,0.7540158,2.067088,-0.971207,-1.412393,1.924275,-1.296622,-0.4086823,1.282554,-0.5516494,-0.7898738,0.9262401,3.475845,3.14063],
[3.621296,-3.335317,-3.646259,2.813837,-0.4208485,-2.130225,3.265426,0.345086,1.865841,2.123843,-0.5052327,-3.519727,-0.5974245,1.425119,1.78114,-2.966574,-2.345289],
[-0.4591125,2.457185,-2.950363,2.040052,-0.9756085,2.349663,1.975348,1.667582,-3.319062,1.143035,-2.656861,-3.684991,3.459455,-2.187953,1.155148,-0.04121637,-1.316438],
[0.01556972,-3.968942,-2.215349,2.508403,-1.828957,3.134873,-2.416436,1.70011,1.07143,-1.339948,-1.935579,1.039077,2.289722,1.1649,-2.362827,0.1435606,3.246042],
[3.210337,2.987846,1.188039,1.763566,-1.882486,1.146724,-3.171399,-2.498784,-3.933307,-2.733862,-3.847252,-1.875414,0.8397509,2.568108,-3.477529,-0.5254017,2.544172],
[1.30541,0.04220926,-1.295496,-3.991758,-1.28862,3.871155,-1.165877,-2.390275,2.741219,3.528357,2.525679,0.772491,-0.9376431,2.08682,-1.242291,3.849139,-1.65975],
[-2.20549,-3.761129,-1.450498,-1.723978,-0.7013872,-1.262162,0.1541712,-0.7054812,-1.179978,-1.037486,-0.2228685,1.219312,3.212139,1.941585,0.39388,2.752011,1.240117]
],
[
[0.3921454,-2.670869,-3.530907,-1.05092,1.174555,1.13926,-2.972605,-0.9363951,3.418005,3.435544,-3.684421,-0.8602827,-0.5391845,2.717311,-2.918202,-2.416971,-2.994517],
[1.049759,3.152865,3.157404,-2.48198,-3.529141,-0.7339895,-1.860248,0.706289,-2.115137,-2.106811,2.122725,3.399667,3.193419,-1.425783,-0.894044,-1.296445,3.988831]
]
],
"biases":[
[
1.364296,-3.919665,-1.045642,-3.780571,1.72412,-2.209213,-0.2342716,3.966433,-2.860613,3.756467,-2.886091,-1.018514,0.7739921,1.649701,-2.06487,-1.245539,0.8368911
],
[
-0.07664904,-3.777361
]
]},
{
"fitness":-1,
"weights":[
[
[0.4777489,-3.061433,1.28934,0.3515538,2.641418,-0.3065664,2.502277,-1.601698,1.281862,1.142179,0.1984023,0.8294787,2.926761,-0.1864648,-3.852715,-0.8285555,-0.7863066],
[1.789369,0.9151949,0.8746091,-3.472298,1.940458,1.839256,1.340101,-0.8840246,1.229631,-2.205289,0.5166976,2.420789,1.338192,1.275178,0.7344534,0.3514556,1.34914],
[-0.1768863,-2.939291,0.9488267,2.899509,-3.441137,2.63707,0.4828008,-0.5612686,0.6439742,-2.145877,3.225561,-3.983924,2.056235,-1.829197,-2.498379,-3.791631,0.1973996],
[-1.161317,0.8569,-2.98124,0.9427773,-2.433978,-2.924804,3.094771,0.2411667,-1.619489,-2.995779,-2.269905,-1.143734,-3.111513,-3.262363,-3.789947,3.35175,0.07816884],
[3.292817,-3.894439,-0.5595907,2.708474,-0.9710738,3.003688,2.442933,1.052245,3.308954,-0.1776694,-2.354243,-1.986693,-2.919096,-0.9168563,2.673713,0.862056,-1.728948],
[2.231088,-2.251737,0.7700646,-3.13811,2.592007,1.121172,3.471494,-3.609051,-2.286618,0.001701802,-1.932033,3.267503,3.851599,-3.545395,-2.034811,-0.5558522,-1.407387],
[0.06383563,-2.737112,-3.920467,3.021813,2.871988,1.592464,-2.679718,-1.60503,1.591969,3.992257,2.688042,-1.720505,-1.465303,2.797876,2.934685,-2.223905,-2.885077],
[-1.030223,-2.872327,-2.633321,1.643772,1.128027,2.974339,-1.940056,3.098565,3.040045,2.52016,3.600773,2.295308,3.077222,-2.051278,3.035793,-0.2243749,1.908947],
[-3.807117,-0.6702746,0.6679245,2.615186,1.487431,-0.5507082,-3.213813,-3.202918,-2.103842,-0.8800235,3.894885,-2.089635,-0.6751266,-1.436755,-3.714011,0.4818538,3.699744],
[-2.031627,-0.9094618,-3.446652,-3.105701,-3.999778,-0.2521168,-1.92783,-2.931983,-1.931902,-1.620848,2.849691,3.794217,-1.58242,-2.035919,2.319263,3.57313,1.543926],
[2.48788,-1.650101,3.046503,3.186256,0.6495794,1.882798,-3.943741,1.582936,-0.511768,-3.428899,2.602204,-1.167905,-3.542538,0.2608621,1.327219,-1.896584,-0.2710631],
[0.9430445,-1.949574,1.372358,-0.230912,3.37967,2.949641,2.795556,-3.203082,-1.329363,-2.029725,-0.3578734,3.013997,-1.579561,3.881427,-2.954182,3.757309,3.728863],
[1.322911,-3.075914,-2.604954,-3.694313,-0.04999928,1.087459,-2.256004,3.043889,-1.84142,-0.2774799,-1.524962,1.747876,-2.40065,-0.8204234,-0.1338956,1.536894,-0.6560955],
[-0.1548074,3.136808,1.79125,-2.515591,2.881683,-3.029821,-0.9973943,-2.034457,0.1752755,1.108409,-3.138816,0.7246743,1.818036,-3.320508,0.5302376,-3.077665,2.665708],
[3.276224,2.433406,-3.991866,-0.8460588,2.349025,-2.089626,-0.832425,2.962953,1.482242,3.090841,1.966413,-0.1867582,0.3188514,-2.611436,0.9306577,2.693048,3.117297],
[-1.944419,3.021591,2.824457,1.720374,-3.708532,2.887468,0.5569727,-3.090631,-3.802818,2.00303,-3.505749,1.978461,1.816306,-0.8459471,-1.365464,0.02374497,-0.6202185],
[-3.542365,-0.9175454,-1.134352,-2.86935,-1.249684,-0.02131906,-3.056011,2.088018,-3.53965,-0.8761251,-1.845335,0.2320506,3.675227,-2.144294,0.740326,-1.256635,3.519228]
],
[
[-3.55741,-2.780849,0.5761843,-0.5379269,1.78852,-0.08060102,2.558498,3.515984,0.01320392,-0.05211484,1.755746,-3.88284,3.689752,2.247764,-1.279542,-1.822771,1.112473],
[1.31918,1.733663,0.8753132,1.950477,-0.7287532,3.567496,-1.278514,-0.5114613,2.515131,-0.5541847,-1.431139,3.62145,-3.484925,-2.05527,-2.584761,3.015532,-0.6489723]
]
],
"biases":[
[
-2.738054,2.05656,2.410142,-0.5271449,3.704321,-3.5487,1.516068,2.173845,-1.415039,-3.585582,2.586736,-3.903851,3.944982,-1.576715,1.802022,3.989395,-2.2797
],
[
-3.097156,-3.884756
]
]},
{
"fitness":-1,
"weights":[
[
[-2.191032,3.461714,1.597754,3.87794,2.186841,2.310469,3.746326,-3.796227,3.427481,2.962696,-2.598901,3.967408,-2.646677,3.21294,0.8997303,-0.4348,-0.67322],
[2.262713,3.793061,3.99283,-2.709553,-2.206857,-1.663969,0.320299,3.710389,-2.201229,3.788031,-0.4170537,0.799271,1.044927,-1.390482,-2.928195,3.211111,2.254748],
[3.843417,-1.646155,-0.3279623,-1.140867,2.042346,-0.2728144,-1.478241,-1.190201,0.3444579,-2.768047,-3.593655,-1.523843,1.299381,-2.124004,3.945691,3.124548,1.067106],
[-2.956265,-0.6491262,1.406793,-2.143028,-3.233319,1.609958,1.31363,1.409977,-1.364236,0.1546164,-0.5118684,-2.534577,-1.658774,3.129233,3.765774,0.540463,-3.201496],
[0.1853107,-1.758638,0.9615679,0.2667025,1.589198,1.399279,1.498728,0.0009477679,1.641214,0.09377444,2.688004,0.8224292,1.680449,1.56494,1.233382,-0.3064652,0.7634386],
[-1.142492,0.1599171,0.6904023,1.545397,-3.213653,-1.187236,3.96193,-1.639386,-0.5956143,0.5078053,2.214649,0.5462705,0.8275399,1.327253,-0.09445183,-2.189664,2.586289],
[-2.314776,2.971505,0.3301242,-1.021587,1.031596,0.5945185,-3.64004,1.662342,-1.895918,3.572135,-1.947393,1.393144,3.390265,-1.065235,-0.1674878,3.495493,-1.691531],
[-3.166505,-2.58099,0.01699241,2.10123,2.57979,3.142182,1.846342,-1.078806,1.760713,-1.105479,-1.821549,3.067217,1.407666,-2.816582,0.4096,-3.91775,-3.054798],
[1.579053,-1.134778,-1.830917,1.376224,-1.207564,-0.2512635,3.948207,0.08506148,2.272306,3.103412,-1.316051,-3.777102,0.6962971,0.7264143,-3.0122,0.2707395,-3.66055],
[-2.744388,-3.917881,0.5841674,-3.296663,-2.503211,1.791404,2.29287,-1.142726,3.505706,-0.1654003,-2.823722,-2.32377,2.587059,-2.612016,1.588511,-0.1858252,1.201282],
[0.6164834,-0.3439882,2.07847,2.999389,0.04671802,2.273719,-0.8647155,-3.481426,0.04725031,3.847136,-2.378615,3.773653,0.682265,-2.811702,-2.71238,-0.07490473,2.533911],
[2.382494,-1.796212,0.2578759,1.268483,-0.9282964,-2.576761,-0.9189222,3.109998,-2.133917,-0.1370111,-2.609033,3.704383,1.251854,0.7752057,2.250935,-1.364304,-0.4700769],
[3.078888,-0.973015,-0.7559398,-3.189404,3.865679,2.127646,-1.547819,0.1901655,2.948217,-0.8677365,-0.2264675,1.625573,3.104354,3.086021,-0.5842513,1.605926,-1.023348],
[1.521195,-2.663973,-0.5508772,1.152769,-1.485751,2.022944,2.456163,1.070693,-1.921735,2.677594,-1.492917,2.074676,0.5398335,-0.5162329,2.918311,3.967338,1.420264],
[-3.999862,3.444076,1.659325,-1.006545,-0.1230405,-1.689465,-2.91579,-2.37381,1.205299,3.346205,1.885241,-3.663082,0.5277545,-1.826269,0.2676468,-2.482207,-0.2157376],
[-3.640646,0.7100613,3.988992,1.346662,-3.383132,-2.659951,2.373755,1.526544,-2.444846,-3.513775,-3.033286,3.227683,-2.762634,3.376786,-2.418493,0.7898046,-1.494188],
[-3.697543,-0.9577824,1.652088,-0.8748281,1.059244,-2.503713,-3.860429,2.955989,1.939818,-3.945364,3.201307,-0.8318847,-3.149119,3.106018,-1.547113,-1.456494,3.766355]
],
[
[-0.1875318,2.75734,2.553531,-3.019335,1.761457,-0.8795838,-1.089763,-2.946305,-3.474025,2.871256,-3.70819,3.054226,0.1212309,-3.06864,2.609974,-0.9584376,-3.011445],
[3.266245,2.190639,-3.653988,-2.722582,-3.236946,2.649561,1.515303,-2.157095,-0.05570931,3.465982,2.229896,-2.208146,-0.7520935,0.4983302,-0.3867507,1.315357,-0.8302277]
]
],
"biases":[
[
-2.592225,2.501106,-0.6994407,-2.901312,-0.3992604,2.761622,1.421252,-1.502409,3.678782,-2.907009,1.216475,-0.4706081,-3.59658,3.968579,3.385831,-3.351233,0.5448918
],
[
1.169191,-2.516648
]
]},
{
"fitness":-1,
"weights":[
[
[2.263504,3.692269,2.912328,1.703406,-0.6735749,2.355186,2.494158,-0.1394108,-2.574271,-2.683116,3.22832,3.123427,0.6480902,2.152841,-0.9587876,-2.430562,3.118568],
[-2.240168,0.5724844,0.4454063,-3.783331,3.71566,0.4986686,1.800635,1.90213,3.2724,2.749362,3.520932,-3.684918,-1.434499,-3.108663,-0.1737949,0.2977795,3.131799],
[-2.783859,-1.728033,3.996095,0.9656176,-0.04784068,2.412642,2.317419,2.68308,-1.814176,1.574048,3.791598,3.424713,0.659852,0.8411234,-3.212831,0.437028,2.560554],
[-1.104671,-1.769897,2.906384,-2.056814,2.796766,-3.405676,1.985401,3.875878,-2.653974,3.633281,-0.6351742,2.280687,-0.8383384,1.312387,-1.99286,1.407092,-3.11851],
[2.618398,3.917567,1.549894,-1.361409,-2.834767,-1.49968,0.448584,-2.602724,0.6740471,2.01019,-1.544285,-2.437784,-1.123642,-2.884494,-2.699873,0.3078486,2.326157],
[-1.32432,1.007152,0.2961458,0.1517054,-2.595331,2.123792,-3.680199,-0.9375252,-2.253232,1.67728,-0.2491445,-0.1576452,-3.918324,-3.091408,3.093121,1.533987,-0.2193478],
[0.2334687,-3.037433,2.762815,1.576967,-1.112653,1.361726,-3.522031,-2.775067,-0.7135977,2.687195,0.3917452,2.440339,2.157584,-3.307284,3.940509,1.214307,1.936218],
[2.593314,-0.4316187,-2.129695,0.8533251,-1.436059,1.644511,3.268576,2.303387,-3.208827,2.352543,-2.128026,0.9004558,0.9691388,1.268351,0.295655,-0.03572997,1.239317],
[-2.621589,-3.678527,1.730872,-0.5501349,-1.428103,-1.01334,-1.371315,0.3081535,3.625468,3.177098,-2.508852,-0.1317086,-3.21587,-2.084259,-0.05979046,-1.969684,3.119925],
[1.485303,3.133184,2.712174,-1.919705,1.110833,-2.076815,0.6212584,-2.260896,-1.515135,-0.1905809,2.286384,-3.563794,-2.759616,2.342107,-0.3705617,1.843321,-2.812104],
[-2.871185,1.759732,3.512489,-0.4586258,-3.190174,3.238776,2.109299,0.9457265,-3.533106,-2.784576,0.1315948,-1.135622,0.04227141,1.535093,-2.367724,-2.209522,2.227474],
[-3.596412,-2.876923,0.05037979,-0.5035511,-0.400987,-3.077281,-0.7593172,-0.1831941,-1.727071,1.936474,-2.671104,0.8191513,1.885134,3.491336,-3.904533,-2.454022,2.735682],
[0.5378962,-2.423421,-3.153126,2.218692,1.93498,-3.91384,-2.370532,-2.496361,0.6449821,-1.395033,2.585825,-1.498256,2.091401,-0.5230014,1.846791,-1.396768,0.9053602],
[3.49837,0.3550933,-1.708178,-2.850844,3.298502,0.9276303,-0.8872282,-1.781189,-0.9023955,1.721708,1.545344,2.504261,0.7969291,0.04457143,0.9086577,-1.52088,-1.102023],
[0.2249496,3.444705,-3.786732,3.923468,2.097744,-2.595917,3.644752,3.97555,3.281525,0.5950857,0.7840247,-1.063558,3.654166,1.21671,3.385912,-1.244781,-2.167624],
[-3.896755,-0.6516452,-2.828851,-0.07662898,-1.665509,-3.79784,3.824159,3.649025,3.301769,2.953931,-3.594205,3.665578,2.73419,-2.79511,-2.642243,0.3303717,0.3631343],
[2.040825,0.249938,-1.323651,-2.459498,-1.492325,-0.6686798,1.4219,-2.907892,3.843068,-1.698356,3.464133,0.8314644,-3.675971,1.519223,-3.228129,1.977163,3.762846]
],
[
[3.949166,-0.9772776,-1.553659,2.024236,-3.025182,-0.7567598,-0.739035,2.82278,-2.576651,-1.469037,3.85516,-1.544092,2.9693,1.418708,1.797117,-3.891177,0.09681129],
[-3.186612,3.14879,-1.411304,-1.976798,2.176864,1.843236,3.074083,-2.83212,3.45538,-0.2901482,0.9300055,-1.004656,-3.978061,2.091336,-0.4674598,-1.517518,-1.768681]
]
],
"biases":[
[
-2.772339,-0.2567316,-0.887122,1.85503,-1.738819,2.343373,-1.593922,-0.2351253,-0.3350528,2.757266,-3.963313,-2.266938,-1.155421,0.3770042,2.180147,-1.645299,3.635589
],
[
-1.928684,-3.895811
]
]},
{
"fitness":-1,
"weights":[
[
[2.729419,3.199422,2.180331,1.000104,3.763242,1.581632,2.604358,1.926327,-2.075784,1.481225,-0.8122954,2.256515,2.856519,-2.177004,0.01903783,2.952188,0.5071363],
[2.582119,-0.8157133,3.501691,-1.301157,2.7388,-1.884754,1.343056,-1.038685,-2.836231,-2.021848,3.135921,-1.044016,2.63515,0.3257336,-0.8122654,-1.886578,-1.045116],
[2.327491,-2.094875,-2.56724,3.215555,2.332645,-1.154881,-2.38937,2.365241,-3.956569,3.465888,-1.535616,3.596237,2.121311,2.155838,-2.450441,0.2035042,-2.774792],
[3.949059,-0.7953217,3.794833,2.86484,-0.7368993,-3.749091,0.815736,-3.062846,-1.748359,2.726942,2.484263,-3.189332,-2.101895,3.969699,1.171093,-1.309081,-1.38945],
[-0.3941206,-0.9050776,-3.119069,2.745952,-2.881205,1.337254,-2.771005,1.415177,1.903794,3.939353,1.325245,3.145185,0.5245801,2.831415,2.084524,0.5697459,-0.2788951],
[-0.2577468,-2.626518,-1.313716,-0.5575097,3.778806,-1.386481,2.391709,3.422822,0.5119662,1.800496,1.138999,3.907001,-3.24364,3.43672,3.595714,-1.901749,3.404533],
[-0.9952473,-1.911179,-0.5552627,0.6269792,-1.016446,3.771806,-2.708527,0.352327,2.022766,-3.612069,-0.3188633,2.165422,-2.770062,-0.275022,1.895363,-2.636862,-0.5369474],
[3.357963,0.9883634,-0.717605,0.06443048,3.447376,2.204323,1.287648,-1.896548,-2.819135,-0.4764015,-2.300182,-0.3879626,3.624127,-3.326274,2.176008,-3.616125,1.505507],
[-3.952495,-2.506624,-1.775503,-2.227352,-2.601167,1.363163,3.666042,-0.3862582,0.78262,-1.378038,-1.812362,-3.302793,0.7093916,-1.642301,-2.114589,1.731119,2.891745],
[-0.2265583,3.555067,-1.817482,1.778222,3.829443,0.9836063,3.559351,-1.281664,-1.338293,-0.6485209,3.797485,-0.5126618,-1.746672,2.639589,-3.751879,-0.2966683,-1.927601],
[2.959836,3.984931,-1.386097,-2.049432,3.192371,3.216814,-3.067644,-3.133597,3.804974,1.795875,-3.594689,3.150953,-0.7727667,-2.037572,-3.951645,1.84443,2.62462],
[2.837561,3.284664,-2.861282,1.543352,2.996397,2.810387,-0.181686,-1.708265,-3.394111,3.529021,0.555585,-2.658968,1.036177,-1.085988,2.182314,-0.3235277,1.128123],
[3.452481,-3.797258,2.20815,-1.232621,-1.390867,-3.839454,-3.696136,2.193884,3.919472,1.247364,3.729669,-0.7827374,3.435497,-1.225357,1.761937,-0.1339864,0.6942558],
[-1.23465,-0.8093221,-3.958154,-3.751023,-3.211147,-0.074322,-3.715414,1.349349,2.416923,2.328735,-0.2116992,0.7523487,1.89484,-1.462716,-2.092222,3.920265,-2.134359],
[-0.8548031,1.594997,-2.350805,3.235319,-1.361609,0.4186505,-1.979335,-2.409573,-0.2952352,0.5138629,0.253321,2.302939,3.204375,-1.768682,2.009106,-1.602212,0.7972766],
[-2.685857,-0.6391957,1.538318,0.938963,1.768357,2.513791,2.363457,-1.213801,-0.05411429,-3.837164,-0.08178907,2.004852,-0.09534842,-3.060309,-2.095687,1.187639,0.3442212],
[-0.2701975,-0.285175,0.3540945,-0.8954538,-0.06513847,-2.226996,-1.760774,0.2443214,3.247205,1.941708,3.55834,-1.111347,3.352345,-3.775963,2.70804,-2.410925,0.6144128]
],
[
[-3.643791,1.519946,-0.7818266,-2.144844,0.7639053,2.425679,-1.229646,3.280552,2.961505,-3.757853,1.567519,2.878945,0.2278026,-3.8426,-2.352307,0.839196,2.877757],
[-3.520541,-1.100453,-2.562508,-0.8687268,-1.326527,-0.345154,0.6115242,-0.08368345,0.5966569,3.492678,0.5917618,1.279433,-1.367769,-2.30378,1.067367,2.015188,2.445554]
]
],
"biases":[
[
0.1819602,0.5539251,-1.215195,3.882063,-0.9998922,-1.56932,-1.684982,-1.938694,2.648565,-3.004677,-1.374554,3.944429,-2.548344,1.051304,-1.450776,-3.660119,-3.137184
],
[
-0.01569893,-1.139019
]
]},
{
"fitness":-1,
"weights":[
[
[-1.106272,-2.447324,-3.878281,-2.444804,-3.830592,-0.3904379,-1.213431,3.931976,-0.6304035,3.344633,3.198259,-3.846482,1.868912,-1.273574,0.774053,-2.94545,0.1223062],
[-3.442563,-0.7440677,-3.46369,-0.8800294,-1.134692,-1.047962,3.459229,2.415608,-1.577806,-0.6572093,-3.651638,3.331711,0.4149194,-1.332593,2.193226,-1.629791,0.5920599],
[3.250871,-0.2224762,1.466502,-3.460569,2.041771,-2.17277,0.3549994,1.031653,-1.238533,2.908993,-2.757623,3.311478,-3.550865,-3.884726,3.038295,1.522526,0.3960973],
[-3.431484,0.9891974,-1.966471,-0.8043101,2.855147,-2.409065,-3.651874,-1.275464,3.648548,3.278077,-2.657917,-1.392123,0.8733758,2.629872,1.199394,-2.354411,1.192593],
[2.682584,-1.395646,2.129028,1.20464,2.946643,-0.414362,2.59916,-1.713593,2.802818,-2.006278,0.8961007,-2.470407,1.151665,-1.622792,3.591656,-0.2755108,-1.239889],
[-3.653886,2.630693,1.109999,-0.1935068,-3.032871,-3.273941,0.5500817,-2.321706,-1.35616,-3.056536,2.725718,3.638583,-0.9263393,0.5530595,2.062638,2.458199,2.852381],
[1.511571,1.325159,-0.6586174,-2.239132,3.758732,0.6634013,0.6911811,-3.300959,2.04276,-1.070743,3.194824,-2.831126,1.72023,2.698153,3.145154,0.6225548,-3.429184],
[3.561365,3.597856,0.4151268,0.3918575,-2.757542,3.534496,-1.371321,2.373201,1.25152,-1.607,-1.000121,-3.558087,1.901554,1.839445,3.109162,-2.962803,0.1592686],
[2.795785,0.7407359,3.074801,-2.801677,1.900243,3.129667,-3.280721,-0.2290294,-2.518756,3.64483,-1.258772,3.684822,0.6879503,2.584656,-0.8762975,-1.155109,2.762513],
[3.080355,-1.293993,-2.800198,-0.403566,-2.169775,-0.4387995,3.574394,-0.8795054,-3.367953,0.9790491,-1.541629,-0.1949383,2.129959,-1.399608,-2.549721,-2.675585,-2.008075],
[-0.09687991,-0.3901998,2.451856,-2.488251,-1.180842,-1.646446,2.694549,0.2051006,0.08190373,-2.118039,-0.5513677,-0.819922,2.637962,2.274832,-3.857636,0.9618413,0.5032198],
[1.926515,1.59888,2.363421,-3.812006,-1.28087,0.5848586,-2.099062,0.1721074,-0.9128851,0.2758157,1.259291,-3.521511,-3.823475,-0.656015,-2.063303,-0.4914753,3.695784],
[-0.6317702,-3.337947,1.885418,2.817834,2.097593,3.211627,1.318629,-3.061687,-2.780171,2.194103,2.35915,0.6055938,2.123959,-1.175079,-2.651453,3.464977,3.992277],
[1.219038,1.594028,0.4280959,-3.826221,3.432745,-3.678461,2.77638,-2.782496,-0.1124236,3.856781,3.340681,-3.879615,-0.0382362,-1.684821,2.51014,-0.7354465,3.963326],
[2.243235,-2.426112,3.615576,-1.513135,2.118846,0.3631312,-1.160002,3.60648,1.63357,2.922793,-3.555502,-0.1473178,-0.4720936,1.796879,1.202632,0.4309347,-2.651142],
[-0.3969744,-0.8828199,-1.63443,-2.098416,0.5532652,-1.296946,3.737855,1.661643,3.840174,2.895417,-2.707696,2.641076,-3.988446,3.216856,-3.766482,-2.573804,-3.6419],
[-0.8461857,-3.917707,2.5833,0.2633138,3.535635,-2.888355,3.182212,-2.287559,0.9809232,-1.368247,0.6205868,3.837365,-0.1216086,-3.161452,-2.097603,-3.959592,-2.493586]
],
[
[3.459991,-1.221465,-2.820009,-3.664636,-1.963368,-2.071194,-0.5337079,-3.296803,-2.9651,3.52169,0.03484638,-2.043009,1.160339,1.973963,-2.085989,-1.455873,-0.2153159],
[-3.581463,2.612149,1.317629,0.8106166,-3.687865,1.391338,-1.551661,3.277372,2.933086,-3.470764,-0.5913002,3.006266,1.32611,-0.4186036,3.272626,-0.7262008,3.175176]
]
],
"biases":[
[
1.682898,-2.118081,-2.173419,-1.896342,2.848011,-0.2351572,3.797362,0.1577487,-1.229898,-2.852256,-2.788931,0.5715985,0.4396331,1.768392,-1.952236,3.623015,-1.415242
],
[
-0.1441423,3.92858
]
]},
{
"fitness":-1,
"weights":[
[
[0.7104509,-0.6885138,3.055982,0.6332681,-3.001411,1.847894,0.05743275,-0.3012948,-3.921012,1.229146,2.701906,3.925535,0.2020409,3.064816,-2.138784,-3.850808,-3.89031],
[0.4818932,2.871232,2.715497,-0.05762727,1.536471,-1.897677,-1.922988,-2.787893,2.575644,1.89686,1.893844,1.261723,0.4608233,-2.106487,-3.035422,0.4570247,-2.177106],
[-3.155743,-3.049515,0.7744642,3.526406,-3.602653,-3.002502,-1.319984,-0.30482,0.6241459,-1.062309,2.604087,1.744727,1.011519,3.391063,-2.415007,2.835588,-3.260809],
[3.238138,-3.135861,3.738882,-3.849414,-1.422756,-3.42183,0.1948551,3.255259,-1.082207,1.131038,-3.155476,1.828792,0.1091382,0.8173144,-2.253645,-3.262509,-1.338405],
[3.848432,-3.718361,0.9953223,2.821295,-3.71244,1.727223,-3.481361,2.052754,3.895021,-0.1649401,-0.3244157,0.8678287,2.701256,3.939205,-0.2027562,-2.755341,-3.782246],
[-2.810296,-3.958557,1.625946,2.491961,-3.760959,1.219511,-2.630672,3.670178,-1.669959,0.2735685,-0.5921138,-3.225247,-3.318822,-2.280586,3.310381,-2.096682,-2.417944],
[-3.324786,-3.950977,-2.98899,2.552536,3.954216,3.116548,-3.183991,-3.652859,-2.735735,-0.2842632,-2.904978,0.8632749,-0.6166646,2.390427,-1.165538,-1.364321,-0.07585231],
[1.684385,1.189635,-1.67767,-1.286333,1.157989,3.71859,-2.943037,-2.735799,0.1855071,2.425513,-2.203944,-3.462678,-1.91414,-2.346881,1.663743,-2.810073,0.5264621],
[-3.046208,0.6475096,-2.842666,3.567379,2.340455,-3.876334,3.053775,2.302796,-1.12383,1.26566,-1.10675,-0.9938493,3.20943,-0.5393931,1.809993,-1.504939,-1.031507],
[-2.560506,-0.009442871,2.281193,0.3448113,2.39012,0.5058026,-0.7281634,-2.570527,3.019209,2.359732,1.517894,3.754153,-2.803566,2.650281,1.221913,-1.40567,-1.518765],
[0.8637663,2.608848,-1.253838,2.678356,-1.924162,-2.653634,1.531207,-1.74439,1.19197,2.675564,2.383774,0.01386114,-3.740661,2.475845,1.434924,-2.656269,-1.095454],
[0.8665754,-2.748143,-3.453586,-0.6038162,2.880598,2.738001,3.939595,-2.263324,-0.4049058,1.787602,3.881104,3.98593,-2.773749,1.341692,1.203379,-0.4865651,-3.742163],
[-3.060791,2.752559,3.264698,-0.04191953,-2.824386,2.001016,2.406106,2.790463,1.119769,2.192487,1.043352,3.808286,-3.018479,-2.374015,0.6963347,3.941918,1.078848],
[1.863517,0.6504787,-3.744909,0.4426502,1.25308,2.079229,-1.688336,3.567481,1.059961,2.825825,-2.04833,-1.797263,0.4637327,-1.310514,0.7892979,1.661033,0.05743594],
[-0.391796,1.105792,-1.313906,0.0794038,3.902332,-3.578973,3.772612,3.803521,-3.264017,1.304827,2.992078,-1.871467,3.381475,0.5830114,-3.983829,-3.580254,2.840493],
[0.5067568,-2.116225,1.550531,1.267721,3.808753,-1.38551,0.5551295,-2.48855,-1.218257,3.715754,0.4500058,2.373476,0.6346142,-2.033928,3.777578,0.5572284,0.2464959],
[3.324113,-2.048488,2.645956,0.2621516,-1.64181,-2.037877,-3.958397,-1.070928,-3.720683,-3.145864,-1.627975,0.6616712,-3.617947,0.7609845,1.554224,0.5705105,-0.9109796]
],
[
[1.155609,-2.368503,-0.8840658,-1.86009,-1.060111,3.6714,2.628618,1.687464,-2.505676,0.2434042,-1.585232,1.304486,3.778511,-3.753608,-3.454408,2.492562,-3.329056],
[2.415779,1.46452,-0.342537,-1.340353,-2.946312,-2.85154,-3.850823,-2.995134,2.944941,-1.099638,-2.270726,-1.320721,-2.704795,0.007364005,2.833127,0.7673526,3.568412]
]
],
"biases":[
[
-3.256006,-1.115786,-0.2834171,-1.577953,-1.142467,3.571032,-1.217351,-0.7805735,2.46487,1.08119,-1.996241,1.582963,-2.2247,-2.594815,-2.706621,-2.346538,-0.3438407
],
[
2.98387,2.675307
]
]},
{
"fitness":-1,
"weights":[
[
[-0.05904122,1.245168,2.799366,0.8350616,-3.708485,-0.1095198,-1.559744,0.4971218,3.272224,-2.022495,0.4247183,2.15393,1.090087,-2.226801,3.073096,-0.5237663,-2.738003],
[0.7708169,-1.392355,-0.5796664,0.99314,1.99712,-0.447186,0.8847035,-3.03804,-1.498606,-0.1875564,2.381076,2.866114,2.62617,2.948212,-3.808274,-0.2829688,0.6460922],
[0.1705914,-1.684238,-1.956049,-1.512972,-3.324954,0.0171894,2.544042,-3.49987,0.3859509,0.2664692,0.1402495,0.5183939,3.644094,-3.869921,-2.149621,-0.6870783,3.554909],
[0.6923831,-2.864659,-3.457952,1.297927,-2.144682,2.992683,1.756298,0.4595789,-3.616683,-2.900695,1.864227,-2.433114,0.4031267,-1.888227,3.13406,-1.987361,-0.7230245],
[0.4467124,3.835022,-3.064461,-1.345357,-3.675176,2.763344,3.784085,-1.877761,0.1344299,-3.252122,1.541119,-0.3303376,-3.337632,-0.1962411,-2.510031,2.157893,3.025674],
[-1.634765,-3.586777,2.843777,-3.070273,-2.909376,3.186265,3.09496,1.247977,-2.194312,-0.9068019,-3.922263,-3.724447,-0.2059573,-2.14398,0.07734089,-3.336414,-1.588904],
[-0.01578444,0.6191236,-1.348378,2.127448,-0.194763,3.388455,3.360012,0.07013507,-2.709844,3.137919,0.3755556,0.5616722,-1.036924,1.288052,0.8279081,0.2001942,2.644626],
[-3.290555,3.862656,-3.405466,-3.428106,2.44047,2.853953,1.984216,1.655784,2.847025,0.8476582,-0.9773968,3.028454,-1.219106,-3.918612,-0.4501083,3.094479,-2.180396],
[-1.242805,2.433373,3.454111,-1.958721,1.074286,0.2274908,-2.209684,3.419802,0.7985661,3.823244,0.1702199,-3.503666,-1.776725,-3.822736,3.208682,0.9886867,-2.413651],
[3.452255,3.74983,3.78524,-3.058568,2.310927,1.795818,3.567627,-1.492104,-0.662744,-2.89782,-1.638793,3.056735,-2.732653,1.075396,-1.85352,3.503506,-0.7469881],
[2.181831,1.075728,1.020965,2.231768,1.025683,-2.210929,-3.905947,-3.776159,0.08795211,-2.505695,-1.208263,1.32507,3.207376,-3.211088,-1.677093,-2.503832,-3.379283],
[-1.720262,-1.210776,3.323551,-3.842884,-0.688435,1.875756,-0.8779474,-1.399111,-1.113154,0.9079768,-1.751065,2.575059,3.401623,3.87523,2.991041,1.11707,-0.7454343],
[1.555486,3.433744,-2.729379,-0.5665019,-0.2386418,-1.245017,1.292866,1.606076,2.283574,-2.600338,-0.1919309,3.210392,-2.616741,-1.08462,3.630125,3.64818,3.950352],
[-1.332805,-0.07933012,-0.8302171,0.9655855,-3.268542,2.983952,-1.767679,-1.750897,-3.74533,-0.4187626,-1.712401,0.7274505,1.649738,0.6493486,-3.710779,-2.108959,3.357374],
[0.4621671,2.146237,-3.176522,-0.9344991,-3.406765,2.867826,-0.5361173,1.132439,3.206995,2.64029,-2.09967,-2.545585,-2.577992,1.78666,3.481526,-2.723651,-3.05425],
[-3.477594,2.287824,-2.550457,-0.185629,-3.419586,0.2206599,-3.517958,-2.016363,1.348232,2.784236,-0.7336881,-2.111975,-2.359957,0.5055228,-0.05855149,-3.524539,3.003514],
[-2.976564,-2.187244,-0.3235512,-3.381218,3.105558,1.037588,3.371104,-3.266434,-1.519352,-2.54951,1.452009,-1.208392,-0.2771055,-2.231649,1.269922,-3.340567,1.324094]
],
[
[1.524122,0.4253465,-1.646385,-0.9544445,-3.703369,2.31815,1.356945,3.086606,-3.280615,-3.39602,2.014883,1.596849,-3.18047,-0.13416,1.39844,-1.020432,2.070657],
[-1.578327,2.300061,2.052065,1.30225,2.061337,1.736234,3.948389,2.433285,-2.449789,1.114447,2.941525,-1.207787,-3.67489,1.092184,-2.254983,-3.006231,-3.850248]
]
],
"biases":[
[
-3.680683,2.383608,-0.6244082,-1.119515,-0.518172,0.03926328,-0.03696331,1.913966,3.07138,-0.001509612,-3.002002,2.67781,-3.194594,0.03784394,1.548882,3.479104,1.344314
],
[
1.167881,2.576605
]
]},
{
"fitness":-1,
"weights":[
[
[-0.4283178,-0.8559453,-0.8923076,0.3654281,-1.187671,3.185768,1.997,0.4059564,-0.5417748,2.491715,0.3017252,2.6351,-3.403323,-1.417929,-3.536808,3.873064,-2.727861],
[-2.731104,-1.362181,-0.2317724,0.4215514,-3.791222,-3.759072,-2.284837,-3.429233,0.9202288,-3.281699,0.7630866,-0.4297051,-3.159501,0.3426282,-3.805603,2.37599,0.3403317],
[-1.646863,3.565056,-1.754301,-2.059511,-1.611732,3.666455,-0.6952313,-0.6588383,-0.5556887,3.659315,-1.439703,-2.511194,-1.312059,2.467908,1.864929,3.26225,0.3598506],
[0.1600291,1.858381,-3.199489,-3.741342,-2.426831,-0.3753126,-0.7381274,-3.801793,1.428488,-1.795195,1.316048,-0.255401,2.812867,-3.129198,0.01024251,2.350303,0.761961],
[1.243266,3.739354,1.905303,-3.680308,2.973211,-3.061387,2.861517,3.199237,1.853916,2.51655,-0.1504539,2.613004,-1.432443,2.240738,2.735989,2.124092,0.3094515],
[-2.508279,-3.502654,-3.761774,1.632002,-2.938052,1.065792,-0.11326,-0.6512189,-1.25921,-3.684502,-0.04558782,-2.918287,-0.04897488,-0.3641535,-1.942442,-2.04694,0.1071085],
[-2.256992,2.193414,3.56727,-1.570632,0.474869,-3.588609,2.639513,2.67732,2.601656,0.6395265,-3.725735,1.12649,-3.669048,0.2533643,-1.444174,3.463291,-0.1722087],
[-2.420877,-1.285816,3.198149,1.44443,-2.20427,-2.103708,-3.050336,-1.864488,3.500415,-3.08402,2.967069,0.2534713,2.332276,-3.758521,-2.344345,3.412055,-0.9300519],
[-3.967343,-3.774476,-1.223638,-2.657758,-0.4646595,1.156901,3.981636,-3.791827,-0.08397397,0.7421454,3.27202,-2.687718,3.997821,-0.8246949,1.719298,3.397386,2.188072],
[-1.12706,-1.606285,-1.649034,1.061211,0.05344535,-0.09910494,3.497061,3.156328,-0.4171535,-2.544742,-1.27082,-2.978488,0.7104801,-0.5704642,3.883739,0.6284738,2.311153],
[-0.06431875,-0.01221035,1.216298,0.03911498,3.124011,1.465851,2.93246,0.1513784,0.4515167,1.598852,-0.7642885,3.119959,-1.446018,1.437787,0.2211683,-0.5332934,-1.758377],
[3.485618,-1.630122,-1.203828,0.9299458,-3.522796,-2.243671,1.55382,3.009709,3.273858,-0.4962909,-0.3657342,1.556519,2.093384,2.990052,-3.576164,3.560412,0.2515739],
[1.743302,-0.989544,2.806891,-2.966573,1.67057,2.346436,-1.540149,1.075295,-2.776167,-2.214305,-0.175621,2.915288,-1.892429,2.970853,-3.957233,-0.9477848,2.232038],
[3.80685,-3.877115,2.923772,-2.807913,-3.162344,0.312087,2.804223,-2.948703,-2.18381,1.501392,-3.400488,1.527371,3.236005,-1.309058,-2.958671,-0.9547061,3.403239],
[-1.072572,-3.346827,-3.007324,-0.2612695,0.7010559,-3.828627,-2.280483,-2.155634,2.044102,-2.478083,-1.120635,2.508088,0.5061224,-2.619017,3.47857,3.23852,2.678061],
[-0.673986,-1.612581,0.3256018,-3.956586,-3.132492,2.243519,-0.9083855,0.4556479,-1.343166,-2.775506,-3.880525,-0.4271688,1.292028,-2.437562,-0.5681377,1.619731,3.365045],
[1.547554,1.101972,-3.753061,-1.613763,-1.164898,-1.232437,2.04521,-0.445224,-1.671026,1.620676,3.759368,1.201159,-0.3563278,-3.960802,-2.674582,-1.839814,-0.1406327]
],
[
[-2.794875,-0.9013427,-3.521447,-3.817361,-0.2893466,-0.5314701,-1.712302,-3.881586,2.449101,-3.522798,1.275216,0.7189318,2.26878,0.1816951,3.626033,-1.250106,1.522538],
[-2.281573,-2.201828,-2.175048,1.227861,-2.678285,1.060148,1.829225,1.385667,3.939459,-2.435966,-0.7809952,3.425724,2.098394,0.04625601,-2.275837,3.895802,-0.8012111]
]
],
"biases":[
[
3.533529,-3.369144,-2.288647,-1.148111,-0.4889653,2.447877,-3.834887,-1.053801,0.4936639,1.356677,-2.991768,1.888274,3.659466,2.838588,1.686793,0.03169675,-1.36277
],
[
0.2727586,3.221387
]
]},
{
"fitness":-1,
"weights":[
[
[-0.193753,3.028041,-0.878737,2.100046,-1.909496,-1.551929,-0.6169941,2.126882,-1.9729,0.9202527,-0.3538992,1.370954,-0.2887431,0.6355192,2.485447,-1.342907,-3.90801],
[-2.075391,1.85055,3.208301,3.868413,0.4702128,-3.143893,3.039332,1.264413,1.103396,-0.9365635,3.925429,-2.122155,-3.060987,-1.142315,0.9356252,0.6166156,-1.189834],
[0.01157421,-2.051259,2.651453,-1.94894,-1.797804,0.5004517,0.5393742,2.777684,-1.238828,-2.455291,1.151419,3.539699,0.6327872,1.760026,-0.1466301,-1.974203,2.724888],
[-1.292214,-0.1305412,2.188624,2.441502,-1.847448,-3.348743,-2.627516,3.144246,-1.257191,-0.2981365,-2.444212,-1.891381,3.151668,-3.0999,-0.634322,-3.397676,-0.5052817],
[-1.174766,0.1715895,-3.369706,2.674873,-2.330036,-2.261714,-1.184313,2.115367,-2.962212,-0.1078887,-1.947168,1.155376,1.494982,0.5550104,0.7361428,-3.187305,-2.356264],
[-2.241956,-2.542429,-2.034926,0.4400638,3.320345,-1.197318,-0.7808394,3.195503,-2.749658,3.179576,-2.61216,-3.839757,2.657078,-2.151068,0.1520028,-2.178272,3.265369],
[-1.005712,-3.917528,2.436894,-1.696616,-3.367281,-0.8304932,0.1122432,2.909958,-2.220545,-2.140339,2.412325,-3.338476,1.167393,-2.697795,0.1110844,-0.7911053,2.306861],
[-0.2159134,-1.035295,-3.291986,-3.755247,1.753014,3.508282,-1.977178,-2.678623,-3.573035,1.460045,-3.453925,3.776196,-1.121498,-0.1128467,1.160377,0.9868163,-2.356716],
[-3.148788,2.601814,0.9778958,2.329868,-0.2598128,-2.090813,-3.15692,-2.544549,-3.753791,-2.873397,-3.155161,1.022705,0.4666142,-3.383914,-1.593706,2.038155,-3.732058],
[1.888025,-3.726986,1.429036,1.878467,2.003358,-2.820049,-2.769784,2.641478,-3.592702,-2.226328,3.927583,-0.517125,-1.356957,-3.572389,-1.363886,-2.778903,-0.9984542],
[-3.135097,3.075811,-3.453189,-1.018453,-0.4600417,-1.985483,3.968376,3.361209,3.785168,2.030555,1.739006,-0.08463228,2.553609,-3.761583,-2.008478,-3.815112,-0.1692766],
[-1.079411,3.794858,-3.755982,0.4071299,2.675094,2.130996,0.1790156,3.389513,-1.88538,3.347782,0.8894706,1.392031,1.6574,-2.303291,-2.147234,2.723688,1.01569],
[3.466653,-2.762953,3.86658,-1.170116,3.034517,-3.743516,-1.98438,-3.524718,3.046092,-1.004159,2.355348,1.144497,1.545346,1.058269,-1.690607,-2.78062,0.3870942],
[1.464268,0.8926048,2.680122,0.1324528,1.181118,-3.833368,-3.674471,1.489766,-1.879174,1.224207,-1.954273,-0.9410657,3.465145,3.665431,-0.7218986,-1.707224,-2.656972],
[1.782089,-2.543499,2.765629,1.169672,1.998616,-2.398819,-2.381369,3.44989,-1.524066,-0.9928002,1.543133,3.569078,1.741711,-2.027541,-1.903611,-0.7840849,0.05121198],
[2.365006,3.992188,-1.288041,1.129248,-1.606885,-2.617977,-3.928463,-3.060714,-1.899699,1.057065,0.6560605,3.274428,2.609205,2.406181,-0.9593273,0.02576001,-1.766287],
[0.161746,2.726822,0.779449,2.425021,3.480306,2.681479,-0.954734,0.4213231,-1.055955,-3.697875,2.945045,0.3440107,-2.428892,-0.5508024,-0.8068102,2.560817,-2.232544]
],
[
[-1.560604,3.066021,1.828103,2.082145,-0.5546996,2.074759,-0.7626129,-0.1110745,-3.673019,1.817937,2.529849,-1.089838,-2.365796,-2.488727,2.411655,-0.560631,1.109951],
[-0.4258639,3.89126,0.121006,-2.526383,3.348931,2.486832,3.604587,0.1408481,-2.367692,2.563889,-2.960871,1.356181,-0.6714036,1.826168,-2.917458,1.990909,1.628924]
]
],
"biases":[
[
2.563273,-1.937428,2.065455,-1.537928,1.482629,0.3803634,-1.969292,3.726337,1.478369,-2.00728,-3.943603,3.294299,1.674226,-3.1481,-0.2622165,-2.995744,3.647144
],
[
-0.5784295,1.541828
]
]},
{
"fitness":-1,
"weights":[
[
[2.716191,0.8763039,0.1331231,-1.155332,2.751134,-1.303312,-3.657063,2.824893,-2.233046,0.2541647,3.597363,-1.245742,-3.0169,-3.766251,-3.965594,1.913997,-0.7385192],
[-2.210047,-3.876613,-1.219768,-2.375791,0.579248,3.588079,2.1296,1.806587,-2.986677,3.540637,-1.140737,1.49135,0.113112,-0.4084744,-3.978085,0.7650332,-2.999726],
[3.155211,0.09683149,-0.6717675,-0.1228296,-3.092709,0.6922807,1.607586,3.94251,-2.63373,-3.704953,1.06685,0.2769867,3.532163,-1.958757,0.09966389,-0.8068373,-0.9068478],
[-3.89834,-3.131479,2.902873,1.248193,0.9401681,-3.979409,-3.612413,-3.113811,-2.040669,0.6680343,2.914433,-1.697204,-2.443961,-0.6846333,-2.148612,-2.125019,3.19239],
[2.686371,-1.183875,-2.076742,-0.3051309,-0.108964,1.986584,-0.2266411,-2.161,3.72056,-1.224828,2.427175,-3.461694,-3.356292,-2.994169,-2.956935,-0.981325,0.1847649],
[3.076954,2.960239,1.859623,0.5024937,3.939245,-0.09719362,-2.778878,2.997788,-3.009261,0.9784113,-0.3209397,2.297641,0.7004335,-0.8055708,3.107193,1.707636,0.8127531],
[-3.631304,1.874611,1.235281,-3.601475,3.209869,-0.8848701,0.8135736,-3.761871,-2.751675,2.611415,-3.259905,2.611614,1.916422,1.462727,0.8329455,-0.4968188,-2.765447],
[-1.360013,1.650718,-2.26081,0.9583282,-0.4881356,-1.228444,2.77695,-0.1088421,-1.14336,-1.897444,3.140368,0.1488745,-1.75164,-2.363714,-0.6475354,3.280327,-3.908702],
[-2.35046,1.91604,-0.5157679,-3.830108,-3.643249,2.259223,-0.05827525,-2.341055,2.725363,1.288388,-0.3667327,-3.640297,-3.034874,2.858889,-1.975588,-2.417497,-3.138752],
[3.365913,-2.862144,-0.8552047,-2.314373,0.6949835,-1.010711,-2.590832,-2.71536,2.801467,-0.5303546,0.6183197,2.87983,3.15579,-0.4564656,-1.245671,-3.841418,3.460111],
[2.192161,1.044647,-0.575786,1.208379,-2.114861,-1.707348,1.433344,-2.710902,1.474634,1.409673,-0.9840947,1.593582,-1.819181,-3.219195,1.368077,3.681909,1.34494],
[1.201876,-2.218699,-0.9885516,-0.8508698,-2.120673,-0.2302691,3.771388,1.658274,0.01083111,-2.045101,-2.302002,3.470034,-0.5536433,-1.121135,-0.5167183,-0.6195247,2.44586],
[-2.853439,-1.612018,-0.7300654,0.4407417,0.03035314,-2.283062,3.536305,0.01544165,0.4006932,-1.401455,-2.469902,0.1025788,1.845861,-2.810949,3.301543,2.999698,-2.976394],
[3.599428,-1.741018,-3.200024,-0.3911293,2.72968,1.306672,1.283415,-3.617086,1.477642,-0.6626028,2.849364,-2.359749,1.809463,1.052034,0.05925969,-0.5649166,-0.5270683],
[2.652634,-2.357393,-0.7304801,1.53106,-0.08321507,-1.707553,2.378549,2.283808,0.4859754,3.567906,-3.367437,-2.900155,3.342482,2.06142,-2.672082,-3.204171,1.955431],
[0.80768,1.632057,-3.321127,2.260842,2.963642,-0.7919649,-2.72878,-2.548828,-2.434522,-0.3062383,-0.5405087,-2.58925,-2.030557,-0.1190009,1.612945,-1.097909,-3.641916],
[1.672988,1.377647,-1.863493,3.159579,1.468884,1.159694,-3.177254,-1.39611,2.847999,-3.553416,3.730382,3.971749,2.398261,-0.9985608,-2.560595,3.297265,-0.1355328]
],
[
[-2.008971,3.153194,-0.7497748,-3.240595,-3.784949,3.898209,2.412677,-1.444156,-3.729539,0.8484133,-3.725788,-2.202193,2.849018,-3.384642,3.522928,-3.030564,0.7945363],
[-2.853618,2.10835,1.839973,-2.935791,3.159382,2.386311,-0.5520591,-0.4775615,-2.284347,0.2425649,-1.515756,-0.8464654,-3.125678,1.318838,0.2161843,-0.8600586,-2.940587]
]
],
"biases":[
[
-0.2505633,2.06179,2.686458,-0.01117281,-1.991289,3.667934,1.972531,0.6065985,-2.991067,1.901275,0.5170595,1.405389,-1.885529,2.16622,2.430203,-2.188929,3.44461
],
[
2.314299,1.073721
]
]},
{
"fitness":-1,
"weights":[
[
[3.176517,2.020802,0.05632748,3.648405,1.353515,-2.253873,-2.210702,1.860968,2.225731,3.879688,-2.252753,0.5474414,-1.495153,2.956517,-0.2703179,-1.666861,2.422432],
[0.01962463,-1.478215,0.3716867,0.8643651,1.498082,-2.328127,1.756715,3.113962,3.486999,1.180412,-0.885138,0.4906611,2.535468,-0.9645026,-3.431664,-2.624441,-0.743588],
[3.59702,-3.483019,-1.810837,0.9623233,0.1881592,-2.455558,-0.688394,-1.056138,-2.045832,-0.01878058,-3.627246,2.266383,3.894496,-3.118082,2.690858,-0.1932496,0.09625282],
[-1.440059,-0.8749784,-1.281424,2.911389,-3.118619,1.86531,2.204536,-2.756638,0.9171634,2.647132,-1.932067,0.8999906,2.522976,-2.813961,-1.119361,3.796513,-1.93021],
[1.310468,0.0234271,1.404679,-1.552118,0.9420734,-3.096476,-1.00976,2.652529,3.03164,0.08067806,1.795325,-2.291753,-0.973954,2.167415,3.239176,3.272375,3.254318],
[0.9877922,-2.31568,-1.383205,-1.163172,1.448158,1.018304,0.07491481,-3.388475,1.845033,1.658128,-3.089198,3.263154,-2.059875,0.5688154,-1.726325,0.06456812,3.33742],
[-2.049718,0.1613242,3.385867,-3.720519,-3.296628,3.273262,2.577768,0.6417073,-0.4443094,2.44782,2.601731,-2.385709,0.930756,-2.708896,-2.199612,3.819966,-1.935884],
[-1.067712,-1.433462,2.149687,-0.06806986,-1.758232,-0.2277156,1.245047,-2.508785,2.110942,-1.615828,1.609246,-2.238008,3.119373,0.3898498,-3.687408,-1.167856,2.036082],
[-2.129972,0.7292554,-0.5534163,-0.424571,-1.892955,1.05439,-2.704549,1.432876,3.112437,-3.744241,-3.847703,1.442386,-0.09317031,1.547482,-1.745919,1.252367,0.08446012],
[-1.004773,-1.839487,-0.318634,-1.008727,0.9247019,3.747224,-1.046523,0.4955268,-2.532808,-2.755137,-3.797635,-0.1595862,0.971222,-2.16872,2.878714,3.372489,-1.207876],
[-1.74526,-0.003787406,-0.6365972,1.443837,-2.9124,3.468618,1.762973,2.734485,2.349749,-0.3862689,-2.214571,-0.2202061,1.317422,1.011331,3.823148,-1.511335,3.56066],
[1.733186,0.5868691,-2.785239,-3.967094,-1.39022,-1.897386,1.019985,-2.627894,0.05429626,0.3769085,-3.430022,1.31248,-0.6643071,1.751557,-1.494146,2.650223,3.630082],
[-3.730641,-2.663793,0.2089553,2.490099,-3.140685,-1.482486,1.954018,-1.877175,-2.039599,2.408764,0.9304988,-3.1737,1.037447,-0.475703,-3.965128,-2.055775,0.2769977],
[3.471536,3.807203,3.047962,3.94591,3.219438,2.364423,-2.30765,2.968668,3.072329,2.770544,-1.163395,-1.875733,2.129034,0.2602741,-2.988282,2.077654,-3.743134],
[2.584222,-3.52848,1.71344,3.265008,0.8552341,-2.566385,2.375113,-1.356695,0.7310635,-0.9475279,2.283731,-1.059454,3.019054,2.782442,-0.7265559,-3.494335,-0.4199112],
[-2.811062,-3.004065,1.043455,1.625031,2.053087,0.5581284,3.143178,-1.237358,3.140418,2.300443,-2.23512,2.523997,0.02190427,3.62901,-0.1356381,3.056603,2.995111],
[2.889215,2.602771,-3.826529,3.896335,-2.735284,0.2705936,1.442548,-3.699147,0.7283328,2.322234,2.734589,-3.020378,1.648369,-0.2802202,-1.184042,2.53793,-1.753328]
],
[
[1.784842,2.663727,-2.314129,1.993273,-0.1077337,1.094266,0.5778413,2.55978,2.148085,-0.9348424,-1.406879,-2.068255,-3.776009,0.1447289,1.66045,1.166334,3.128543],
[2.92142,1.66087,-0.2552822,2.742081,-1.252308,-3.562996,0.2390743,3.995943,-2.282819,-2.511541,3.496756,-0.3537143,2.663074,-1.970989,-2.089963,-2.907681,-0.2587479]
]
],
"biases":[
[
0.8781892,-2.482077,0.4725887,0.6869879,1.911245,0.8133497,-1.737702,0.2975908,3.842196,0.4968059,0.2536083,0.1460761,-3.132457,-0.2240942,-1.752993,2.473518,1.550598
],
[
-2.555619,-2.6615
]
]},
{
"fitness":-1,
"weights":[
[
[3.749075,-0.9895131,3.275972,-3.235623,-1.087101,-3.039979,-1.398877,-1.980753,2.913149,-0.9789261,-1.800478,-2.852847,-2.321578,-2.767259,-3.782049,-1.121513,2.339278],
[0.1375346,-1.58376,-3.480605,1.757649,-1.0927,-2.492326,1.110039,-3.470808,-0.4880483,1.592368,2.36304,3.6515,0.712526,0.368176,-2.894431,3.774266,3.323205],
[1.372244,2.261457,-3.236618,0.4823685,3.800204,2.614772,-2.292141,3.167602,2.074449,-3.51333,-0.2495754,-0.1089189,-1.750232,0.9359714,-0.1649628,1.647084,2.671896],
[-1.453259,-0.5372147,-1.333496,-3.441765,-3.139993,0.4401292,0.954896,3.621256,0.7451819,0.08775043,-0.9823059,0.06800811,-2.489347,3.640457,-1.248508,-1.003329,2.24991],
[-2.83214,-0.1252681,-3.861695,-3.839129,2.419155,0.4910918,-0.7208706,0.9402574,-2.768671,0.9949732,-1.081792,-2.542623,2.317876,0.01183164,2.270651,-2.767128,1.6947],
[2.549223,0.6263992,3.269398,1.04375,-2.67327,-1.471354,-1.574085,-1.057328,1.16075,-0.758312,-1.764017,2.864033,1.523777,3.719386,2.847665,-3.486539,-3.718016],
[0.8282975,-1.644503,0.1388392,-3.790058,-1.080152,-1.545666,-0.9046739,2.831851,0.5306576,-3.451692,2.410388,2.971263,-3.676771,-0.4231159,0.4518026,-0.4333745,-1.446301],
[1.87204,-3.735514,2.653929,0.9440729,-0.00893301,-2.56839,2.438924,1.424537,2.470139,-1.031612,-0.7015358,-1.331916,-0.3428731,3.649704,0.1643012,-1.912168,-2.018571],
[-2.329612,0.2216854,0.5428456,-2.553144,-3.555088,-2.960089,2.82719,-1.944354,2.831723,2.816076,1.953352,2.440826,-3.807405,-2.509907,-1.618525,3.060276,2.464135],
[-1.454673,-2.0175,2.830277,-2.760418,-3.845124,-1.198237,2.110004,1.053405,0.8058928,-3.171756,0.2735275,2.712822,0.2367839,-1.866474,-1.356118,-1.62221,2.165807],
[-0.7708207,-3.884926,0.7892641,0.6018558,-0.7240111,2.520921,-3.712474,-2.1873,-2.554879,-1.473608,-1.86633,2.738474,2.365442,2.002315,-2.351179,2.63694,1.349626],
[-0.4867752,1.642336,-0.3867474,-1.287537,-1.716813,0.3821818,-2.786892,-1.233345,3.43034,3.415821,2.030152,-2.330361,3.336099,-0.4310457,1.888449,2.895771,-3.764389],
[3.404997,2.779518,3.750416,3.393874,3.434169,1.316186,-2.561984,-0.5736581,3.719458,1.651289,-1.000829,-3.040939,0.3514873,-1.498049,-3.73666,-2.888278,3.639313],
[-1.390862,1.898307,-0.4389327,-2.220753,0.0270576,2.772222,2.796621,-2.022233,-0.2182756,3.881606,1.769911,-0.7010043,-2.297929,2.632778,-1.725037,-2.84338,-1.759154],
[-0.5053905,-2.38445,-2.943119,3.988523,-2.251211,3.125887,-3.782123,2.087375,0.9717689,0.3400289,0.3101114,1.135925,2.462528,3.250217,-0.9660118,-3.874477,1.182481],
[1.586631,3.283377,-2.897221,2.826613,-3.905055,2.775296,3.471534,0.1999931,1.2377,-2.521284,3.069309,2.040425,-2.93965,1.539886,1.475034,-2.978288,-3.518145],
[3.542988,1.179809,-1.799204,-1.789296,-2.040919,3.832984,3.660502,0.1474998,3.871654,-0.3430536,-0.8312303,-0.1476545,-2.516635,3.47882,-3.953482,-2.839477,-2.249867]
],
[
[-2.451325,3.757418,1.902674,3.09682,-1.728932,3.164707,1.305063,-1.654512,1.706002,-0.5665283,1.222018,-2.414862,1.48916,-0.8519512,-1.644604,-0.03279559,-0.05265139],
[-1.472979,3.96719,3.533104,-0.5039954,1.831056,1.613766,-3.818816,-2.628864,2.539079,2.734963,-3.439796,-3.579765,3.754722,2.822797,-2.936141,3.661409,-2.002051]
]
],
"biases":[
[
1.630973,1.070156,-1.507579,-1.242852,-2.284498,-2.254515,-0.8217313,0.3657031,0.8430316,-0.5168815,2.277028,-0.01555413,2.57402,-0.06997788,-0.4821234,-1.438829,3.34526
],
[
1.746643,2.542493
]
]},
{
"fitness":-1,
"weights":[
[
[3.63854,-2.771747,-3.340802,-2.874601,0.7031872,-0.08243532,0.6195143,-0.8735476,-3.272045,3.50025,-0.6768093,0.4979005,3.349565,-1.341,1.968095,-3.443668,-2.925359],
[0.8939881,2.482022,-3.027428,2.447972,3.413224,0.7563642,2.045291,-3.580698,-1.711472,3.1966,1.381814,-1.251781,3.511468,1.685251,-2.511296,2.061728,3.488439],
[-2.39094,2.29663,1.400809,3.766678,0.8516601,-1.387098,1.905711,1.797459,1.886538,-1.230663,2.657668,0.4544801,0.470295,0.747395,3.618442,-3.236613,3.97095],
[0.00229557,3.201533,1.437608,2.601354,-3.705907,-1.435097,2.099868,1.971752,0.2318593,-3.406304,3.698,1.279801,3.006918,3.307088,3.212035,3.071967,-2.985016],
[-3.073068,-2.562507,-2.832232,-0.02746132,-1.290709,-0.8630514,-2.622546,0.4403758,3.254535,3.792545,-1.909525,0.1355651,-2.570524,1.827992,1.841897,-1.435335,0.5639271],
[2.121257,2.098963,0.8006518,-3.351431,1.742033,-1.88955,0.7533101,3.794299,-1.59965,-1.886378,-0.3182364,2.91699,-1.369732,3.991355,2.329551,-1.247519,-3.819643],
[0.6392561,3.333433,3.998921,-0.716491,1.419773,3.71819,1.230075,3.924287,0.01433363,-3.310818,1.5294,-2.975237,0.8870865,0.8980106,-1.302222,-0.6161713,1.451685],
[-2.028891,1.690325,1.488764,-3.92765,1.377787,1.212774,-0.8535252,-3.955182,-3.477395,-1.063186,-2.874991,-1.170167,3.706092,-1.194776,-3.340547,-3.881398,-0.9159955],
[-1.008689,2.085973,-0.5966758,-3.033366,2.142445,-1.432199,-0.1426044,1.487426,-3.697416,0.7124346,1.063186,0.9642966,3.272939,2.152231,0.5206963,-2.825496,-3.376921],
[-2.382237,-2.814334,-1.549138,-0.3401545,0.6370509,2.602159,-2.599588,1.778786,-3.357839,1.202897,-1.322065,-1.296077,-2.11688,3.075537,1.925274,3.040617,-2.572446],
[2.575604,3.95786,1.47797,2.622483,1.670281,0.0620243,1.014359,0.1662221,-1.6738,-0.4607519,-0.5110847,-1.372757,0.6299739,2.411502,0.4437853,-1.350836,3.730598],
[-2.986334,1.161178,-0.1834917,-1.869734,-1.152143,1.080102,2.212332,-3.465567,1.094682,3.715606,0.7690694,-0.7411984,0.7728935,0.4005945,-3.156145,-0.08003386,-3.770643],
[2.578544,-3.992014,-1.702029,-3.273824,-2.033469,1.367629,-0.2833882,-2.381661,-0.8948491,-0.4820408,-0.5727339,1.590145,2.103789,2.682459,2.499729,2.869287,0.3082723],
[-0.3300055,-1.187064,1.211227,2.819258,2.584303,-1.559309,0.2139626,-0.4439237,-0.7436833,-1.805604,-0.1271762,3.130799,3.729241,3.072194,0.989634,-3.779229,1.55999],
[-1.76143,0.3237321,-3.61146,-1.72603,-2.625217,3.511704,-1.209774,-2.067403,-1.928321,3.249008,3.740283,3.179372,-2.020571,-1.249493,3.283471,2.716868,-0.4079785],
[-1.315607,0.3165169,0.5757141,2.529041,-2.245659,-1.639871,1.138416,2.249077,-0.5888412,-3.83518,1.352294,0.1904802,-1.056355,3.020585,-1.612917,-1.359522,-0.3273284],
[0.8770069,-1.84655,1.724175,-3.509176,1.41007,-0.5791267,2.725782,-1.591171,-0.3485038,2.095688,-2.271574,2.430793,1.665302,-3.240821,0.4871359,-3.289559,-0.2972035]
],
[
[-2.874468,-0.7587166,1.786919,1.264081,-3.366901,0.6779695,2.831733,-1.732352,-3.124483,3.189031,-2.513764,-0.7330031,-0.3446134,-0.1287504,-1.431795,0.9573788,1.446548],
[2.997231,0.8227251,-1.456141,1.815065,-2.064997,-2.121824,0.762521,-0.5991704,-1.163238,-1.428522,0.761841,-1.29301,-1.910786,2.325448,-2.841626,0.2521445,-3.277249]
]
],
"biases":[
[
1.682143,-1.142922,2.340008,-2.514519,1.699854,-1.254024,-1.900478,-3.719239,1.306747,1.731754,1.393967,2.036301,-3.716036,2.729343,0.9045303,3.040665,0.03522852
],
[
-0.1693365,-3.717114
]
]},
{
"fitness":-1,
"weights":[
[
[0.8469004,0.8230055,1.495544,-2.357074,-2.079985,0.9240733,0.8721794,-2.81467,-2.073273,0.3177454,-0.8792052,2.80167,0.8113707,-3.641879,-2.459445,-0.008160733,1.83103],
[-2.957558,1.887236,1.161074,-2.173979,2.311608,0.08712131,2.456719,3.615339,-3.061446,1.901736,-3.757642,1.532462,-2.813406,3.566719,-3.057475,2.384099,2.274527],
[-0.9003336,3.102217,-0.3021419,1.25432,-2.760481,-2.265868,1.87037,-0.6874226,1.352447,0.7686326,2.482364,0.4920303,-0.410492,3.075199,0.3063466,-3.165123,2.165685],
[-2.303962,3.911627,-1.970411,0.09068497,-1.573256,1.606624,2.941688,1.371403,0.2406894,2.605537,0.9963721,-3.344558,-3.438824,1.709271,-0.5364054,3.711075,-3.142662],
[1.282315,1.453152,-2.72384,-3.127867,1.429712,0.1752291,-2.40293,3.221586,3.317756,-2.360086,-2.859503,2.186552,-2.330493,-1.731956,0.5918639,-0.04135119,-0.1666871],
[-0.6919873,-0.02405353,-2.288462,3.292325,-1.742287,2.07738,3.534606,-0.130534,-2.769948,-1.762073,-3.372107,3.574108,3.174443,2.563476,-1.48019,2.145744,-2.882115],
[-0.05316231,-2.513787,-1.847529,-0.4109293,-0.3062317,-0.4894444,-1.457195,0.686469,-3.691476,-0.1619397,2.461443,-1.949398,-0.5898309,0.1256726,-0.8008985,-3.677238,0.1411694],
[0.4596101,-2.88813,-0.5905195,0.0007241759,-1.878553,-1.315377,-1.563781,2.887423,-3.053068,-1.94411,-1.30582,-3.180079,-3.374075,-2.849981,1.200357,-2.485287,-3.623165],
[-0.4367604,-0.7538855,2.771076,2.329453,1.058996,-0.3307727,3.388032,1.622041,-3.019451,3.963255,1.719221,1.741983,-3.887576,-2.024295,-1.34614,2.029104,0.4818901],
[0.4621815,3.764416,-2.390736,3.032418,-3.17978,0.2038344,0.5981575,1.161152,-3.203573,-0.3769341,1.788644,-2.474556,-1.447878,-0.05135204,-2.813378,-1.129717,0.08820531],
[-0.6939466,-2.036902,-1.078039,2.556796,-3.698791,0.9670154,-1.446557,-3.84898,-0.2341085,1.173942,2.974657,-0.4877125,-1.681219,3.556012,1.221212,-1.117597,2.978734],
[2.183764,-2.196976,0.6620749,2.601339,2.843818,1.545526,2.566005,-2.383603,-0.2951322,-2.876493,2.243109,0.1426173,2.403509,-0.3426829,-2.683048,-0.623876,2.605417],
[2.00632,3.9852,-2.061487,-2.994496,0.8159312,2.900493,1.610672,2.793198,-2.401399,2.827742,-3.016087,-0.2103753,0.3554642,-1.280814,-1.511447,-2.942508,-3.976363],
[1.792758,2.486835,0.7130585,-0.9540998,2.890685,1.758112,1.974756,0.7001387,1.372878,-3.842343,-1.687193,3.632445,1.009185,-3.980687,-2.162466,0.417545,-3.952322],
[2.717498,2.359758,-0.4943111,-3.766989,0.4094136,1.059425,1.315073,-0.5892767,-3.322022,3.092691,-0.1033276,1.272398,1.479908,0.4064802,-0.2923711,1.809789,-0.5126749],
[2.697035,0.149926,-3.301916,-0.1851983,-1.990338,1.371178,-1.825546,-1.990403,3.372844,-3.953671,3.035328,-2.755249,0.1444409,0.02929824,3.340575,1.918388,-3.995096],
[0.3009574,2.892082,0.526652,-0.9010784,-0.1652361,-0.2073671,-3.615001,3.204485,2.932279,-1.73254,1.311911,3.690489,-0.8453761,0.8043911,-3.918003,3.774374,-1.586154]
],
[
[2.28977,2.133394,2.978313,-2.866212,-2.025008,-0.1877006,-3.148128,-2.805099,0.4715269,-1.239962,-1.761053,0.8065519,-3.211253,2.35005,-0.6131631,3.589697,0.1200273],
[0.856356,-2.033137,-0.2225917,-2.954405,-2.621687,3.573539,-0.4264008,1.553155,-0.8301923,0.07638911,3.498905,1.390509,1.13352,1.708048,-1.101664,-3.579638,1.873915]
]
],
"biases":[
[
-0.7846324,0.2609268,0.6036906,-2.588706,2.140383,-2.492958,2.101384,0.5405622,-2.808249,2.644517,2.808249,3.796621,2.975298,2.904528,3.056935,3.822984,-2.012321
],
[
-1.321396,-1.116462
]
]},
{
"fitness":-1,
"weights":[
[
[1.67892,1.350374,-0.1335197,-2.136189,-2.915205,2.297861,3.625163,2.965519,3.221905,-2.129356,1.484276,0.01667674,0.8998967,2.842379,-1.265464,-3.247957,1.323797],
[-0.1969903,3.783861,-2.680555,-0.6312017,0.6546886,-0.9671608,-3.530059,1.422861,0.3540075,-0.2933011,0.40219,1.8834,-2.520911,3.326547,0.2632404,-1.882813,0.3239256],
[1.065577,0.02766751,0.4140901,2.061091,3.832565,-3.750417,0.612538,2.64765,2.064575,1.479913,-1.610411,1.441651,-0.407449,-1.961755,3.701416,3.493455,1.725411],
[-0.9605598,1.790423,-1.59049,-2.132385,1.932435,-2.471872,-1.616913,-1.54488,-0.2960233,-3.954741,-0.3632496,0.7685855,2.568054,2.76198,1.885011,-1.89701,0.08640493],
[0.2004411,0.06981821,1.797817,2.877562,2.835081,0.7910759,-1.476879,0.09721415,0.5491005,-2.340389,2.1618,0.9486406,3.329825,-1.585,-1.796083,1.778792,-3.796753],
[0.6280409,0.5288025,2.357261,2.484191,0.4368257,-2.681872,3.498423,0.7344975,-2.923373,-0.2563877,-2.619734,0.3427706,2.602545,-3.142119,-0.01985713,-2.109388,2.621365],
[-0.8646746,1.67789,2.039454,-0.2336796,-0.7396078,2.438556,-2.945285,1.076573,1.504922,-2.594971,-3.615977,3.340019,2.465063,-1.72701,1.911609,-0.02943605,-1.783208],
[1.153886,-2.679725,-1.092082,0.4427355,0.3602155,2.095237,-2.589948,-0.2722145,0.389768,-2.304182,-3.809225,-1.314894,-2.316977,-3.129775,-3.415513,3.080173,-3.338771],
[-3.141846,1.512798,-2.797895,0.2262123,0.3362105,2.209216,-0.6637468,-1.867162,2.348996,-1.429553,-3.344298,-1.785771,3.34439,1.976212,-1.407462,-1.167873,2.618523],
[0.4773988,-2.078101,-3.826323,2.844605,0.5137904,-2.579264,3.824821,-0.945291,1.689226,-2.170194,0.9854766,0.779307,0.8504806,0.1568291,2.457128,3.242054,-2.703366],
[1.139626,3.80302,2.117856,2.192943,-0.5918787,-1.798053,-2.538024,-2.570036,0.6821327,1.084413,0.0771254,2.418995,0.9331947,-1.947373,-1.375555,2.20433,0.501745],
[-0.2973469,2.069758,-1.819799,-1.453333,-2.915559,3.738328,-3.914243,-0.6233194,3.481727,-2.092205,0.9205219,-3.001482,-2.600605,1.112593,1.112894,-3.849101,1.268422],
[-1.673665,0.06895388,1.073647,-3.127667,2.608048,-3.677883,0.6954531,3.723102,0.8981941,3.705376,-1.460292,2.733028,-3.04275,1.989888,0.9813307,-3.753306,-0.02187004],
[-3.129198,1.827418,-3.462515,-3.716653,-0.2306353,1.130859,-1.045962,-1.669877,1.407307,-3.304938,1.235987,3.885385,-0.1341037,2.350812,3.159628,-1.252109,1.597344],
[-2.425136,-2.019547,3.716449,-2.60033,-3.052186,0.9060131,1.495464,1.229085,-0.002141414,1.634176,1.836535,-3.024801,-0.3207515,3.122025,3.448074,-0.5334098,-3.766166],
[-0.4434859,3.610624,-2.594276,1.226737,1.638081,2.959115,-3.405929,3.712345,2.048299,1.426065,-2.547765,0.01001434,1.068916,0.2099545,-3.300145,3.625741,-3.349483],
[-3.064828,3.99751,-2.222475,3.161167,-0.4279464,-3.595349,-2.139045,-2.959327,-0.5164759,-3.21523,-2.39243,-0.3861094,3.741508,0.6134534,-0.9052582,-1.690009,-1.680619]
],
[
[-1.90855,-3.820945,2.485905,0.6127613,1.587331,2.19119,0.1493701,0.7037265,-1.095052,-2.173923,-3.576877,-1.304899,-0.5728768,3.088067,-2.574861,1.467797,2.010532],
[-2.299538,2.561544,-0.8880184,-2.454873,-0.06176542,-2.849051,-1.712899,-3.113471,-0.5486929,2.822076,-0.7896447,2.480568,1.045924,3.911975,0.6630926,-3.192436,-1.79342]
]
],
"biases":[
[
-0.03655211,-1.89383,1.434841,-3.823591,-1.170519,-3.66713,-0.5271372,1.55571,-1.409244,2.254504,-0.8255286,0.9473225,-3.634112,3.46275,1.51271,0.1720474,-1.827172
],
[
-2.128578,-3.839569
]
]},
{
"fitness":-1,
"weights":[
[
[0.7373441,1.701344,-3.144885,-3.084161,-1.375481,2.107368,-2.939321,-0.6371935,-3.945858,-1.57991,3.471218,-2.340776,2.988863,3.475524,0.5923508,3.699523,-0.5463782],
[2.433688,-2.475118,-3.324336,3.834836,3.72185,1.977877,-2.771026,-0.4873983,-2.676127,-3.485685,-1.409346,1.144356,-2.155842,-3.962355,1.10979,-0.3535723,-3.405083],
[-2.115452,-1.295123,-2.953387,0.1094473,2.911776,-1.007642,-1.099357,-3.372362,0.1172956,0.701379,-1.016762,-3.364047,-0.2734052,-2.563547,-3.402431,1.576899,2.415981],
[-3.028986,3.88803,0.892948,-2.096146,-3.767468,2.42754,-3.41222,-3.235176,1.485691,-3.816895,-3.764309,2.777905,3.53679,-0.150751,0.9074907,-2.450832,3.104315],
[-2.555626,-0.4282021,1.488654,-0.4380341,2.830154,0.353447,-3.252204,1.186648,3.45946,2.596777,-3.834564,-2.689526,-0.3893228,3.972967,-1.819143,2.390848,1.411116],
[1.718486,-3.460838,3.15048,-0.9754967,0.3191718,-0.3862862,-2.039326,3.048414,-0.2047256,3.633142,1.991758,3.444197,-0.926234,-1.7955,2.133445,-1.996803,1.184455],
[-3.570753,2.901294,3.161978,-1.95382,3.719553,-1.910374,-2.523384,-2.004247,-0.510805,-0.4435602,1.990783,-2.418685,-3.59842,1.721721,0.0999624,-3.916678,0.319476],
[-3.318459,-0.5985948,-2.19483,-1.825483,3.433362,-3.88029,-3.144351,-0.5395871,-2.464506,-0.2622468,-0.259928,-2.979584,0.4232851,-1.099924,-0.225092,3.19953,3.511787],
[0.1991641,-0.3014521,1.207558,-1.2499,0.9952583,-1.554094,0.9366739,-0.6785432,3.930034,0.06018388,-3.571663,3.2556,-2.752112,3.064729,-2.433903,-0.9519092,-2.489726],
[-0.9779484,-2.659988,1.138587,1.67164,2.668707,-2.632427,-1.483111,3.452364,-1.827357,0.6838171,-2.819504,-3.387371,3.352514,0.3307547,-2.255842,3.374652,-1.301399],
[3.454134,-1.13936,-3.228133,-0.4353847,-1.087079,2.063525,-1.198944,2.414921,-0.5491437,0.3879284,-0.1152903,2.189792,1.106134,-3.692129,-1.709091,1.060765,-2.189955],
[-1.478,0.2544549,2.756588,3.106732,-2.586969,-0.09027294,3.334072,2.179937,-0.222144,-1.348069,-0.4564911,-3.782599,-0.9110009,0.5930524,-1.352848,-2.712487,-0.7270175],
[3.088112,3.695137,-1.146002,-0.5993013,-0.2486332,-1.774294,-0.4027765,-3.814796,2.292147,-2.047981,-3.769847,-0.7229406,1.343092,-0.7251068,2.064492,-3.141788,-1.030095],
[3.326183,-2.313379,-1.878599,1.088001,1.128507,-1.043547,-1.45314,-0.9468139,-0.5398247,-1.270669,2.053615,2.960466,2.819427,1.839489,-0.7749277,3.988045,1.944128],
[-3.175159,3.131393,-1.52617,-3.044502,-2.202616,-0.6605646,3.175982,-2.660475,-1.937816,3.325063,3.121432,3.182527,0.2839164,-0.1498582,-2.25085,3.458693,-1.087758],
[-0.2380893,-2.372845,-0.6609459,-0.4104773,3.46487,2.571957,-1.518864,2.50412,3.600956,-2.266346,0.03544451,-3.494542,1.95999,-0.06109591,2.906028,-3.182798,-2.059721],
[2.377058,-3.348206,-3.654615,2.067536,2.040478,3.759757,2.998493,-2.240457,2.566251,-3.195569,-1.319535,-2.907894,2.240706,3.994406,-1.78982,-0.8090202,1.95341]
],
[
[-0.6542847,-1.657557,-3.731987,-3.992133,-0.9101763,-1.54275,-3.555374,-1.319308,0.5816534,1.458381,3.927675,-1.909935,2.971631,-1.63752,2.423883,1.327336,2.689272],
[-2.986063,0.4294577,1.103539,-3.883811,-2.451894,-2.276728,-3.833838,1.612944,-0.2341817,3.13196,1.748752,-0.2855627,-2.502945,3.483953,-2.091459,-0.4983015,-3.142766]
]
],
"biases":[
[
1.44305,3.736035,-0.6330042,1.543085,3.962804,-1.928148,-3.551384,1.882592,2.783859,-3.949747,3.145814,3.004312,-0.3440886,0.8266707,1.738839,3.703787,1.372511
],
[
-3.263857,-2.043718
]
]},
{
"fitness":-1,
"weights":[
[
[-0.6957153,-3.260363,2.409823,-3.096449,-2.619235,-1.924236,-3.930459,-0.7446534,-1.309175,3.342247,-3.466866,3.464453,-1.843885,3.78931,-0.5597582,3.677352,-3.944764],
[3.340568,-2.084376,3.762012,-1.383495,-3.302914,1.064825,-3.817568,-0.8809513,1.541845,2.957718,1.750165,-2.179677,3.79024,-0.05071245,1.475688,0.9633406,1.498508],
[3.516333,2.034963,-1.685397,-2.311677,-1.029603,2.48905,-3.357941,-2.640105,-3.570559,-0.8764536,1.884843,1.956866,-1.552455,3.171617,-0.4069112,-2.585795,-3.709084],
