{ "networks":
[
{
"fitness":8.823617,
"weights":[
[
[-1.49598,-2.626686,-2.029051,3.363545,1.304273,0.9890149,1.474379,-0.5351325,-0.6514432,2.228416,3.608979,-0.8805329,-1.420961,-2.475916,-1.259272,-1.803697,1.833803,-1.665804,2.986316,-3.410816,-1.900612,-2.963323,-1.882414,0.3773375,-3.829311,2.972982,-0.01280875,2.91704,-1.906713,-1.171944,3.910992,-2.408003,-0.8516453],
[2.188386,1.516584,-0.8247308,-3.113049,-3.699897,-0.8393911,-3.228036,-1.109428,0.7055132,1.453408,-1.547883,-0.6179453,2.3392,3.851536,-0.5169822,3.809283,-1.141992,-2.256826,3.281819,-0.9446827,2.93984,-0.6575758,-0.2638773,-2.718851,3.657289,-1.786912,-3.035667,1.202936,-1.801927,1.602441,0.1607817,0.01667918,-2.34683],
[-0.7513856,-0.7246286,3.76253,-1.150597,-1.384982,1.043995,-0.3487595,3.188101,1.458563,-2.554256,-0.4630049,1.652761,0.996366,-2.222569,-3.878083,-3.157925,1.690207,1.776921,-3.235108,0.7588578,-0.02663163,2.192987,-1.159556,1.455356,3.206129,-3.68541,2.593588,0.3942239,-1.977505,-1.586543,1.247459,-0.9189177,-3.755671],
[3.617959,2.182896,-2.112387,3.158541,-2.418145,2.78514,-3.579634,2.239941,3.343693,3.21242,-0.6179323,-3.655602,0.2429094,-1.722905,-0.6098871,1.960937,-1.656441,1.603697,-2.044706,-3.09241,-2.457341,-3.571603,1.118584,2.537271,-2.541385,-2.260261,2.896971,1.140441,3.617335,-2.697615,1.06489,-3.818139,1.795451],
[-1.347977,-1.05169,-0.2715503,0.6991579,0.7437768,-2.050339,-0.4300588,-2.099015,2.265809,0.7554263,-3.07119,2.849196,3.568349,2.732877,2.391854,2.199437,1.745159,-1.070445,1.467392,1.596206,-0.2763508,3.732458,-0.2469538,-0.1982738,0.3281594,2.471075,-0.3827794,-1.639557,-2.869939,3.086383,-0.4776498,0.4304264,0.04206773],
[-2.809925,0.4713703,-0.643871,2.165849,-3.032268,1.543885,-2.405554,-3.68219,1.777817,1.646308,2.635089,-2.825066,-0.6121358,-1.885972,-3.090127,-1.568865,2.878729,-0.9827498,-3.496195,-2.008418,-1.74807,-3.937726,1.249864,0.5814614,-1.28779,2.507648,1.84962,2.289019,1.307531,0.06329431,-0.2139913,-2.521848,-3.668208],
[-2.062397,-0.6163774,-2.853305,-1.49823,0.1433786,-3.31119,3.840154,0.1092749,1.404384,0.3195046,3.717521,-0.4323357,3.68333,-1.2124,-1.507361,3.255908,-0.3300289,1.004717,1.370009,1.083292,0.8304381,0.02822555,-2.298638,2.440103,2.488835,-3.534826,2.963277,-3.328381,2.317871,-1.387088,2.637197,-1.813312,-2.272787],
[2.972921,-0.4894141,1.528149,-0.4221756,-3.958967,-0.1717489,1.962279,-0.01371933,-3.623412,0.2330521,-1.293777,0.5006746,-3.117095,-2.671561,1.542161,-3.257232,-3.401272,-2.486105,0.07289194,0.4863601,-0.8959702,3.174372,1.639216,2.847285,-1.309398,1.914168,0.285294,-0.2593897,-0.1568944,-1.054332,-3.642112,2.659684,0.71741],
[-3.875394,-0.7616317,-0.06635816,1.55894,-1.605205,-0.5581958,-1.548324,-3.598039,-2.992037,0.1798546,2.148626,-0.7999706,-2.97755,2.905465,2.735177,3.251709,0.9049178,-1.408945,-2.443415,2.337176,2.339582,3.978102,-3.854627,-1.992471,-1.961649,1.45408,-3.415773,2.044089,-3.004357,-3.195606,2.378998,2.155338,0.8096136],
[1.017484,-0.08607174,-3.79302,-1.988829,-2.804569,-3.124256,3.145376,-0.1039052,-1.042535,2.426433,0.2527074,0.4623968,2.428702,0.7537179,-0.184286,1.917768,0.3648947,-2.482744,3.645811,-3.46885,-0.2209032,1.758208,3.946136,-0.07841282,3.767783,-3.412906,-2.284975,0.8974723,1.561895,-0.6283594,3.722164,-2.03035,-0.8338102],
[2.97743,3.918305,-0.672302,3.375693,3.186223,-3.376134,-0.04408234,-0.4323252,-0.1278559,-3.439342,-3.841992,1.262383,3.487594,-2.359059,-0.3425042,1.814496,-2.064466,-0.894464,-0.5399653,-2.384789,3.939859,1.780564,3.45504,3.16898,-1.51303,-2.162147,-0.05356053,3.172338,-3.169601,3.279815,3.513927,3.223676,-2.393378],
[-2.197977,-2.802037,-3.882295,3.541609,-3.73618,-3.300455,-0.7015331,-0.4106134,-3.41375,0.2624593,0.2469407,3.148449,-2.207075,-1.161483,-1.893474,-0.1589238,0.7631107,-3.675923,-2.182533,-2.046225,-0.2989612,-0.0002308413,-0.02200874,1.150115,3.685712,-3.552548,1.679796,-0.8746113,3.143638,-2.577292,-2.466188,2.950667,-3.303912],
[2.77844,0.6601688,2.961466,1.871935,2.022322,0.7802441,-1.116736,-2.74652,-0.06892475,2.995286,-3.786158,-1.801564,-3.868736,2.940972,0.9344267,-1.491841,1.90978,2.382765,-1.157677,-2.190536,-3.723973,-0.469375,-1.161112,3.821279,-2.596217,1.612956,0.8582513,-2.202919,-1.708285,1.017736,2.949096,1.480994,-2.249818],
[-3.260695,-2.602998,2.965062,2.143725,-3.277758,-2.447513,1.346217,0.07790276,-1.290135,1.15271,2.788233,0.193739,-0.7144642,-1.836537,1.083229,-2.262042,1.377778,0.9890758,-0.7381203,0.5574009,1.442771,-3.546338,0.4878468,-3.381942,0.02871561,-2.434205,-3.226272,1.664534,1.107358,-0.2873482,0.9368269,-1.041398,0.8405746],
[1.467294,-2.846641,0.2276939,-0.8015559,3.87628,1.378861,0.7386933,-2.903854,-2.161513,3.392898,0.7524564,-1.136052,-2.997878,-0.6662896,0.1215758,1.1959,-2.833214,-0.4045588,-3.175002,3.335201,0.57218,3.822883,2.0142,2.433465,-1.143528,-2.486828,-3.329126,-0.7200544,-2.424382,0.7185254,2.857998,-2.490386,-3.164005],
[0.1955435,-3.495661,1.103561,-0.9186804,-2.461198,-3.538476,0.9009253,-1.633295,2.157879,0.324512,0.391823,-0.6151302,-3.392471,-2.107601,1.386783,0.1820833,-0.3407208,-1.960649,3.351393,-3.48039,3.235673,3.882364,2.149933,-2.303162,2.160928,2.463889,-0.4858505,0.05514752,-1.43226,1.625472,1.956203,0.5978801,1.561322],
[-3.396574,1.303764,-2.983119,0.9131365,-2.428352,-3.644507,1.228675,-0.1334257,-0.1707306,-3.692358,-2.292648,3.817006,-3.502642,0.9091187,2.438027,2.707845,-1.609487,1.847964,-0.1656105,3.11595,-2.3229,2.677767,-3.723552,3.489927,-0.458081,3.641533,1.215388,1.775746,3.416211,-2.723746,-2.949446,2.820448,1.149114],
[-0.5837704,0.7864141,3.101064,1.65572,2.180929,3.807092,-0.9104026,-1.915158,-0.5343518,2.362057,0.117254,1.452523,2.820143,3.854486,3.847125,2.531453,1.840136,-3.419882,-0.1580791,3.975844,1.359707,-1.262088,3.150966,-2.084472,2.115056,3.438517,-2.688109,2.612119,-3.890424,-2.554772,3.749458,-0.8402326,-0.6559406],
[-0.7728041,0.9455974,3.40678,-0.8943145,2.519591,-3.057628,2.595726,3.899356,-3.400233,1.640597,2.480157,-0.1633935,2.97631,-3.019161,3.012642,-3.610535,1.039095,2.545513,3.083545,2.812546,2.547439,2.101273,0.04367201,-0.1945343,-0.5585532,-1.267793,0.09984691,1.125611,-1.594178,3.942911,3.458873,3.692427,-1.815295],
[1.833785,3.421192,-0.8427548,-2.224071,3.60761,-2.727706,-3.215655,-2.564301,0.2907399,-1.740137,-3.523372,3.269041,2.516948,2.920285,-0.383163,-2.138611,1.088999,-0.5320051,-0.3971972,0.9174163,-2.554076,2.188171,0.3077541,-0.01213467,-2.964165,-3.258338,-1.522098,-0.160268,-2.652779,3.13727,3.352597,0.1362514,3.232611],
[-0.1982386,1.578033,2.441548,-3.89596,1.360414,-0.7920567,1.015126,-3.104937,2.814003,3.209631,1.768552,2.90203,-1.209529,2.443837,-3.581697,3.645162,-2.901397,1.941537,-3.27493,1.92452,2.555177,0.01373805,3.426096,3.581292,-0.6265845,2.400541,-2.210166,0.354179,-3.292155,3.10042,1.202736,-0.3294359,2.150223],
[2.128334,-1.71762,1.151523,-0.8175362,-2.478269,1.458168,3.426129,-2.344264,-1.069589,-0.2207045,-3.645477,0.6267371,1.052196,3.703818,3.584893,3.25973,2.226668,-3.889948,-3.647027,-0.3560334,-3.241328,0.6477136,-3.441447,3.551152,-1.893922,1.547306,1.080173,0.4664154,-1.607526,2.979188,-3.900899,-3.32374,-1.037339],
[0.2333986,3.246008,0.7528586,2.440599,-2.500858,1.205282,-1.170974,-0.7819031,2.735547,0.08204987,0.7448028,2.085888,-3.032337,-2.116389,-3.229093,-2.54793,1.450318,2.595579,-2.471957,0.1238784,3.229325,1.221375,0.7571388,3.170071,1.694308,-1.783451,-2.145165,2.425134,0.7463043,-1.097442,2.72229,2.386272,-3.02403],
[1.340874,1.674865,1.420501,3.738206,2.392934,-2.632255,-0.9446059,-3.42522,-0.992601,3.309132,1.892794,0.7914936,2.718922,-0.2644947,-3.749361,-2.170852,-0.1857982,-0.967815,-2.519277,-0.07021579,0.9405531,1.091205,-0.4654896,-3.676919,-0.5447422,-2.962504,-2.082228,-1.457712,2.293634,-1.214262,-2.944868,-1.008121,3.517061],
[-0.2869196,-0.5171245,-0.1319409,-2.518761,0.5496193,1.174576,3.891807,-0.5918767,-2.14286,3.151529,1.364553,-0.452011,-3.680576,-2.001518,2.010462,-3.032741,2.379367,0.5482134,0.9144621,-1.307648,3.321916,-1.989242,2.002915,0.7531808,2.543221,3.387537,1.127091,-1.864386,-2.514341,2.399415,2.072833,-0.3548939,-2.691937],
[0.8148406,-2.21928,3.02643,0.7278299,-2.425838,-2.526921,-1.856069,0.9451794,-2.706834,1.377116,-3.469129,-1.949089,-3.104297,1.077349,1.32134,0.3704836,-0.3222351,-2.051983,-3.886723,2.569742,2.853809,0.2308666,2.729088,-1.710074,0.9812388,-3.500488,-0.677014,2.809906,0.6693478,-2.70762,0.7900926,-1.633847,-0.3599238],
[-0.5580732,3.026165,2.539221,-2.754896,-0.6696556,2.60797,0.5803448,2.513321,1.154316,0.5551119,-2.764985,3.210569,-2.112433,3.737541,0.3377762,0.9087722,-0.03352814,-2.080179,2.557105,2.863301,3.486591,3.150954,-0.003073284,1.786761,2.84663,-0.7501157,1.571154,-1.461284,2.106571,1.026971,1.374145,-2.740108,-3.58311],
[-2.604877,-1.471456,-1.28117,-0.2297567,1.273753,1.19871,-0.2932355,-3.630772,0.3502556,1.046209,-1.282062,-2.005073,-1.504106,3.785956,2.711589,-3.43378,-0.5553218,-2.05265,0.8702724,3.087349,1.959165,-3.72561,1.827742,2.156416,2.629543,3.605362,0.1937982,-0.1843139,1.4253,0.05726978,1.675951,1.594002,1.202308],
[1.545481,0.8544708,2.122927,3.080954,2.172338,2.797693,3.397498,2.982813,0.7309293,-0.7318193,2.345031,1.554089,-2.414634,0.9988587,-1.51215,0.1412398,-1.886347,-1.369963,3.36982,1.45734,-3.527089,-0.6286736,2.852248,-1.869935,-1.13615,0.7912821,2.256231,1.007771,1.609881,-0.7567662,3.806038,2.375762,-0.9433751],
[-2.23238,0.6554619,-1.39545,-3.323701,0.5766455,-2.78409,0.1848452,1.918133,2.899609,-0.01288534,-3.301854,-2.327346,-3.507726,2.64602,-1.267762,3.578304,2.674366,3.889217,-1.249858,-1.356806,1.584171,-2.091668,2.432159,-0.8116483,-1.622905,-2.113525,-1.039062,1.015197,0.7659686,-2.756639,-3.150316,1.365492,1.436059],
[1.067294,3.713007,0.3900134,1.553446,2.840853,0.9256052,-0.2477035,-3.787589,-3.234619,-1.753849,-1.015987,0.6093593,-3.980106,-1.896301,-0.7219777,2.306827,3.63112,-0.9452314,-2.714643,-1.015357,-1.137304,1.65865,-2.130845,-1.602424,-2.871923,1.468329,0.3774872,3.531103,-0.9779537,-3.187538,3.944084,3.476154,3.333004],
[0.005814862,3.902136,3.689546,-2.286352,3.311197,0.7941046,-3.023303,-0.7835661,3.378793,-0.9364859,-1.015497,-1.925538,0.9233119,-3.354628,0.6793239,-3.326041,-0.3367128,1.159453,3.218852,2.072802,-3.261335,1.340392,-2.601711,3.520584,-1.037403,3.070775,1.35005,-3.564207,-2.935779,2.049957,1.330414,-2.906514,-3.192807],
[-3.233459,0.9101059,-1.794028,-1.318988,-2.192284,3.353645,0.325256,-3.960471,3.597744,1.673147,2.302014,1.166513,0.4091497,2.831794,2.523134,3.496553,0.2026504,-3.759451,2.58028,-2.551828,0.9893165,1.185627,-1.520726,1.879159,3.933021,0.187326,-0.8474771,3.178636,-3.667444,1.17893,-3.750316,-0.582364,2.209853]
],
[
[3.70402,3.901727,2.61995,-3.661564,-2.383082,0.4708095,1.497064,-2.937818,2.652466,-0.1642065,2.436407,-2.136288,3.026705,-0.3143518,3.434245,1.238998,0.4233138,1.231972,-2.512,0.696212,2.420559,-0.6539354,2.466664,0.958671,3.100484,1.901729,1.794651,2.89059,2.708172,0.1392543,1.769231,2.901094,0.7615607],
[0.4127717,2.483387,-3.558351,-0.4485762,2.514801,-0.6809655,-1.969101,-0.4595246,1.525358,1.38646,0.5149629,-0.1962779,-2.538264,-1.934096,1.776881,-0.03314639,2.92387,3.808675,-0.1095893,0.7700627,3.294344,0.3146784,-2.288608,-1.898218,-0.7262689,3.071017,-0.9077039,1.656053,-1.068336,-1.44934,-2.450001,2.322953,-2.474452]
]
],
"biases":[
[
3.449096,2.77628,2.343588,3.207308,0.47827,2.082852,-3.528321,-0.1740377,-0.07972568,-1.514827,1.399913,-3.754495,3.791612,0.3386024,-3.264188,0.8454868,-1.072384,-3.879599,2.783392,1.139472,2.835451,-2.393504,-1.691802,2.156846,1.057215,3.240428,-0.2820766,-2.421559,-3.325386,2.046154,2.526659,-2.87946,1.659952
],
[
-1.896495,-3.458302
]
]},
{
"fitness":8.457804,
"weights":[
[
[-1.49598,-2.626686,-3.92431,-1.080046,1.304273,0.9890149,0.7595341,-0.5351325,-0.6514432,2.228416,3.608979,-0.8805329,-1.813026,-3.926301,-1.259272,-1.803697,1.833803,-1.665804,2.986316,-3.410816,-1.633437,0.7595097,-1.882414,0.3773375,-3.829311,2.972982,-0.01280875,2.123167,-1.906713,-1.171944,2.558099,-2.408003,-0.8516453],
[2.188386,1.516584,-0.8247308,-1.671317,-3.253524,-0.8393911,3.722452,-1.109428,3.894587,1.453408,-1.547883,-0.6179453,2.3392,3.851536,-0.5169822,3.809283,-0.4754096,-2.256826,3.281819,-0.9446827,3.311482,-0.6575758,-0.2638773,-2.488535,3.657289,-1.786912,-3.035667,1.202936,-1.801927,1.602441,0.1607817,0.01667918,-1.358397],
[-0.7513856,-0.7246286,3.76253,-1.150597,-1.384982,1.043995,-0.3487595,3.188101,1.458563,-0.5307159,0.5254685,1.652761,0.996366,-2.222569,-3.878083,-3.157925,-2.391136,0.9129422,-3.235108,0.7588578,-1.896509,2.192987,-0.5776439,1.455356,3.206129,-3.68541,3.234023,0.3942239,-1.977505,-1.586543,1.247459,-0.9189177,-2.931548],
[3.617959,2.182896,-2.112387,3.158541,-2.681625,2.78514,-3.579634,2.239941,-3.117889,3.21242,-0.6179323,-3.655602,1.04572,-1.722905,-0.6098871,1.960937,-1.656441,-2.408287,-2.044706,-3.09241,-2.457341,-3.571603,1.118584,2.537271,-3.003353,-2.260261,2.896971,1.140441,3.617335,-2.697615,1.06489,-3.818139,1.795451],
[0.7265951,-3.738571,-0.2715503,0.6991579,-2.842883,-2.050339,-0.4300588,-2.099015,-3.3733,0.7554263,-3.07119,2.849196,3.568349,2.732877,2.391854,2.199437,1.745159,0.4337374,1.684232,1.596206,-0.2763508,0.07061452,0.3733792,-0.1982738,0.3281594,1.141033,-0.3827794,-1.639557,-2.869939,3.086383,2.077878,-3.872133,0.04206773],
[-0.9881355,-2.277782,-3.567595,2.165849,2.494684,-2.973864,-2.405554,-3.68219,1.777817,0.9109743,2.635089,-2.825066,-0.6121358,-1.885972,-3.090127,-1.568865,2.878729,-0.9827498,-3.496195,-0.4117463,-1.74807,-3.937726,1.249864,0.5814614,3.561648,2.507648,0.8138544,-0.1893765,1.307531,0.06329431,-0.2139913,-0.3287329,2.931707],
[-2.062397,1.731344,-2.853305,-1.49823,0.1433786,-3.31119,-2.56429,-2.564015,1.404384,3.361555,3.717521,-0.4323357,3.68333,-1.2124,-1.507361,3.255908,-0.3300289,1.004717,1.370009,1.083292,0.8304381,3.7611,-2.817805,2.440103,2.488835,-3.534826,2.963277,-3.328381,-3.94765,-0.123147,-3.111852,-1.813312,-2.272787],
[3.372318,-0.4894141,1.528149,1.248474,-3.89334,-0.1717489,-0.8137738,-0.01371933,-3.623412,0.2330521,-1.293777,0.5006746,-1.366428,-2.671561,1.542161,-3.257232,3.284758,-2.486105,2.807396,0.4863601,-0.8959702,3.174372,1.639216,-0.3724381,-1.309398,-1.818852,0.285294,-0.2593897,-1.709568,-1.054332,-3.642112,2.659684,2.559161],
[-3.875394,-0.7616317,-0.06635816,1.064237,-1.605205,-0.5581958,-3.928509,2.688832,1.57631,0.1798546,2.148626,1.514164,-2.97755,3.615993,-1.011132,3.251709,0.9049178,-1.408945,-2.443415,2.337176,1.772324,3.978102,-0.8938369,-1.992471,-1.961649,-0.3000374,-3.415773,2.044089,-3.004357,-3.195606,2.378998,2.155338,-2.2098],
[1.017484,3.370334,-3.79302,-1.600002,-2.804569,-3.124256,3.145376,-0.1039052,-1.042535,2.426433,-3.389699,2.780719,2.428702,0.7537179,-0.184286,1.917768,0.3648947,-2.482744,3.645811,-3.46885,-0.2209032,-3.674663,3.946136,-0.07841282,1.578094,-3.412906,-2.284975,0.8974723,1.561895,-0.6283594,3.722164,-2.03035,-0.8338102],
[-1.889485,3.918305,-0.672302,3.375693,-3.303621,-3.376134,3.016724,-0.4323252,3.086487,-3.439342,-3.037019,1.262383,3.487594,-1.670158,3.725251,1.814496,3.374468,-2.258935,-0.5399653,-2.384789,-0.5547745,1.780564,3.45504,2.033803,-1.950197,-2.162147,-0.05356053,3.172338,-3.169601,3.279815,0.8664161,3.223676,-2.393378],
[-2.776731,-2.802037,-2.495692,3.541609,-3.73618,-3.300455,-0.7015331,2.107804,-3.41375,0.2624593,-0.07468468,3.148449,2.344112,-1.161483,-1.893474,-0.1589238,0.7631107,-3.675923,-2.182533,2.878459,-0.2989612,-0.0002308413,-0.02200874,1.150115,3.685712,-3.552548,1.679796,1.55792,3.143638,-2.577292,-2.466188,2.950667,-3.303912],
[2.77844,0.6601688,2.190719,1.871935,2.022322,0.7802441,-1.542027,-2.74652,-0.06892475,2.995286,0.2244023,-1.801564,-3.868736,2.940972,0.9344267,-1.491841,-3.405474,2.382765,0.3059163,-2.190536,-3.723973,-0.469375,-1.161112,3.821279,-2.596217,1.612956,0.8582513,3.117361,-1.708285,-1.567658,2.949096,1.480994,-2.249818],
[-3.260695,-2.602998,2.965062,-3.565179,-3.277758,-2.447513,1.346217,0.863764,-1.290135,-2.776138,2.788233,0.193739,-0.7144642,1.814777,1.083229,-2.262042,1.377778,0.9890758,-0.5040489,0.5574009,1.442771,-3.546338,0.4878468,-3.536786,-0.2167392,-2.434205,3.670657,1.664534,1.107358,-1.472661,0.9368269,-1.041398,2.807606],
[1.467294,-2.846641,0.2276939,-0.203811,3.87628,-1.139007,0.696715,-2.903854,2.394293,3.443926,1.825178,-3.50979,-2.997878,-0.6662896,0.1215758,1.1959,0.1117102,-0.4045588,-3.175002,3.335201,0.57218,3.822883,2.0142,2.433465,0.05092366,-2.486828,-3.183622,3.445543,-2.424382,0.7185254,-3.32403,-2.490386,-3.164005],
[0.1955435,-3.495661,1.103561,-0.9186804,-2.461198,-3.538476,0.9009253,-1.633295,2.157879,0.324512,1.57523,-0.6151302,-3.392471,-2.107601,-2.491789,0.1820833,-0.3407208,-1.960649,3.351393,2.171444,3.235673,3.882364,2.149933,-2.303162,2.160928,2.463889,-0.4858505,0.05514752,-1.43226,1.625472,1.956203,0.7726421,1.561322],
[-3.396574,-3.175922,-3.367014,0.3909792,-2.428352,-3.644507,1.228675,-0.1334257,-0.1707306,-3.692358,-2.292648,3.817006,-3.502642,0.9091187,2.438027,2.707845,-2.265941,1.847964,-0.1656105,3.11595,-2.3229,2.677767,-3.723552,3.489927,-3.117217,3.641533,1.215388,1.775746,2.738401,-3.286712,-2.949446,2.820448,1.149114],
[-0.5837704,0.7864141,3.101064,1.65572,2.180929,-0.2175381,-0.9104026,-1.915158,3.23822,2.362057,0.117254,1.452523,2.820143,3.854486,3.847125,2.531453,1.840136,-3.419882,-0.1580791,3.975844,1.359707,-1.262088,3.150966,-2.084472,2.115056,3.438517,-2.688109,2.612119,-3.890424,-2.188837,3.749458,-0.8402326,-0.6559406],
[-0.7728041,0.9455974,3.40678,-0.8943145,2.519591,-3.057628,2.595726,3.899356,-3.400233,1.640597,-1.482216,-0.1633935,2.97631,-3.019161,3.012642,-3.610535,1.039095,2.545513,3.083545,2.812546,2.547439,-1.671952,-3.473808,-0.1945343,-0.5585532,-1.267793,0.09984691,1.125611,3.194677,-2.706673,3.458873,3.692427,-1.815295],
[1.833785,3.421192,-3.960011,-2.224071,3.60761,-1.065162,3.158483,-2.564301,0.2907399,-1.740137,-3.523372,3.269041,2.516948,2.920285,3.943314,-2.138611,1.088999,-0.5320051,-0.3971972,0.9174163,-2.554076,2.188171,0.3077541,-0.01213467,-3.206909,-3.258338,2.75482,-0.160268,-0.8738608,3.13727,3.352597,0.1362514,3.232611],
[-0.1982386,1.578033,2.441548,-3.89596,1.360414,-0.7920567,-2.374577,-3.104937,2.814003,3.209631,1.768552,-2.620779,-1.209529,2.443837,-0.01428501,3.645162,-2.901397,1.941537,-3.27493,1.92452,2.555177,0.8951102,3.426096,3.581292,-0.4859369,2.400541,-2.210166,3.467987,3.555665,3.10042,3.825763,-0.3294359,2.150223],
[2.128334,-1.71762,1.151523,-0.8175362,-2.478269,1.458168,3.426129,-2.344264,-1.069589,-3.507267,-3.645477,0.6267371,1.052196,3.703818,3.584893,3.25973,1.647166,2.669353,-3.647027,-0.3560334,-2.576947,0.6477136,-3.441447,3.551152,-1.893922,1.547306,1.080173,0.4664154,-1.607526,0.3482807,-3.900899,-3.32374,-1.037339],
[0.2333986,3.246008,0.7528586,2.440599,-2.500858,1.205282,-1.170974,1.418316,-1.604727,0.08204987,-2.910125,2.085888,-3.032337,-2.116389,-3.229093,-2.54793,1.450318,1.619245,-2.471957,0.1238784,2.969,1.221375,0.7571388,3.170071,-2.771034,-1.783451,-2.145165,2.425134,0.7463043,-1.097442,0.9070603,2.386272,-3.02403],
[1.340874,0.9585406,1.420501,3.738206,2.392934,-2.632255,-0.9446059,-3.42522,-0.992601,3.309132,1.892794,-1.693318,2.718922,-0.2644947,-2.572999,3.493242,-0.1857982,-0.967815,-2.519277,-0.07021579,0.9405531,1.091205,-0.4654896,-3.676919,3.598589,-2.962504,-2.082228,-1.457712,2.293634,-1.214262,-1.262626,-1.008121,-3.780257],
[-0.2869196,-0.5171245,-0.1319409,-2.518761,-1.797291,1.174576,3.891807,-0.5918767,-2.14286,3.151529,1.364553,0.08631355,-3.680576,-0.6561996,-3.5814,-3.032741,2.379367,0.5482134,0.9144621,-1.307648,-0.3667336,-1.989242,2.002915,0.7531808,2.543221,3.387537,1.127091,-1.864386,-2.514341,2.399415,2.072833,3.28023,-3.208608],
[0.8148406,-2.21928,3.02643,0.7278299,-2.425838,-2.526921,-1.856069,1.988588,-2.706834,1.377116,0.9980928,-1.949089,-2.107205,2.413889,1.32134,0.3704836,-0.3222351,-2.051983,-3.886723,2.569742,2.853809,0.2308666,2.729088,-2.468504,1.262585,-3.500488,-0.677014,2.809906,-2.298651,3.162914,0.7900926,-1.633847,-0.3599238],
[-0.5580732,3.026165,2.539221,-2.754896,3.048341,2.60797,-1.249182,-0.4694393,1.154316,0.5551119,-2.851259,2.6065,-2.112433,3.737541,0.3377762,0.8698084,-0.03352814,-2.080179,3.050479,2.693774,3.486591,3.150954,-0.003073284,1.786761,-2.096313,-0.7501157,1.571154,-1.461284,2.106571,1.026971,1.374145,-3.829179,-3.58311],
[-3.592026,-1.471456,2.857191,-0.2297567,-0.4298382,1.19871,-0.2932355,-1.423081,0.3502556,1.046209,0.1211584,-2.582272,-1.504106,3.785956,2.711589,-3.43378,-0.5553218,-2.05265,0.8702724,3.087349,1.959165,-2.242888,1.827742,2.156416,2.629543,3.605362,0.1937982,-0.1843139,1.4253,0.05726978,1.675951,1.594002,1.202308],
[3.756544,0.8544708,2.122927,3.080954,-1.915808,2.797693,3.397498,2.982813,0.7309293,-0.7318193,2.345031,1.554089,-0.3936306,0.9988587,-1.51215,0.1412398,-2.370976,-1.369963,3.36982,1.45734,-3.205849,-2.961992,0.4654822,-1.869935,-1.13615,-2.881679,2.256231,1.007771,-3.68585,-0.7567662,3.806038,2.375762,-0.9433751],
[-2.23238,-2.084249,-1.39545,3.535733,0.5766455,-3.978909,0.1848452,1.918133,2.899609,-0.01288534,-3.301854,-2.327346,-2.896566,2.64602,1.242221,3.578304,2.674366,3.889217,-1.249858,-1.356806,1.584171,-2.091668,2.432159,-0.8116483,-1.622905,-2.113525,-1.039062,1.015197,-1.624487,-2.756639,0.05043628,1.365492,1.436059],
[1.067294,3.713007,2.944538,1.553446,2.840853,0.9256052,-0.2477035,-3.787589,-3.234619,-1.753849,-1.015987,0.6093593,-3.980106,-0.5936698,-0.7219777,0.04918659,3.63112,-1.516402,-2.714643,-1.015357,-1.137304,1.65865,-2.130845,-1.602424,-2.871923,1.468329,0.3774872,3.531103,-0.9779537,-0.1510882,2.213096,3.680227,3.333004],
[0.005814862,3.902136,3.689546,-2.286352,3.311197,0.7941046,-3.207998,-0.7835661,3.378793,-0.9364859,-1.015497,-1.925538,0.9233119,-3.354628,0.6793239,-3.326041,-0.3367128,1.159453,-3.761881,-3.736908,1.975611,1.340392,-2.146517,3.520584,-1.037403,3.070775,2.746768,3.061372,3.324939,2.049957,1.330414,-2.906514,-3.192807],
[-3.233459,0.9101059,-1.794028,-1.318988,-2.192284,3.353645,0.325256,-3.960471,3.597744,1.673147,2.302014,1.166513,0.4091497,-3.148727,2.523134,3.58602,0.2026504,-3.759451,2.58028,-2.551828,-0.5523003,1.185627,-1.520726,1.879159,3.933021,0.187326,-0.8474771,3.178636,-3.667444,1.17893,-3.750316,-0.582364,2.209853]
],
[
[3.70402,3.901727,2.61995,-3.661564,-2.383082,0.4708095,-1.550847,-3.104394,-3.883564,-0.1642065,2.436407,-2.136288,3.026705,-0.3143518,-3.821437,1.238998,0.9063368,1.231972,-2.512,0.696212,2.420559,3.335793,2.466664,1.660522,3.100484,1.901729,1.794651,2.89059,2.708172,1.833512,1.769231,2.901094,0.7615607],
[0.4127717,2.483387,-3.558351,-0.4485762,2.514801,-0.8608306,3.26806,-0.4595246,1.525358,1.38646,0.5149629,1.470863,-2.538264,-1.934096,1.776881,-2.911891,2.92387,2.939175,-0.1095893,0.7700627,3.294344,1.537413,-2.288608,-1.898218,0.5407786,3.071017,-0.9077039,2.824469,-0.1222432,-1.44934,-2.450001,2.322953,-2.474452]
]
],
"biases":[
[
3.449096,2.77628,2.343588,3.671146,0.47827,2.082852,-3.528321,2.192523,-0.5755177,-1.514827,1.399913,-3.754495,3.791612,0.3386024,-3.264188,0.8454868,-1.072384,-3.879599,2.783392,1.139472,2.835451,-2.393504,-1.691802,2.156846,2.61242,3.240428,-0.2820766,2.95227,-2.130277,2.046154,-2.679933,-2.87946,1.659952
],
[
-1.896495,-3.458302
]
]},
{
"fitness":8.223258,
"weights":[
[
[-1.49598,-2.626686,-0.5526496,3.363545,1.304273,0.9890149,1.474379,-0.5351325,-0.6514432,2.228416,3.608979,-0.8805329,-1.420961,-2.475916,-1.259272,-1.803697,1.833803,-1.665804,2.986316,-3.410816,-1.633437,-2.963323,-1.882414,0.3773375,-3.829311,2.972982,-0.01280875,2.123167,-1.906713,-1.171944,2.558099,-2.408003,-0.8516453],
[2.188386,1.516584,-0.8247308,-3.113049,-3.699897,-0.8393911,-3.228036,-1.109428,0.7055132,1.453408,-1.547883,-0.6179453,2.3392,3.851536,-0.5169822,3.809283,-1.141992,-2.256826,3.281819,-0.9446827,3.311482,-0.6575758,-0.2638773,-2.718851,3.657289,-1.786912,-3.035667,1.202936,1.327011,1.602441,0.1607817,0.01667918,-2.34683],
[-0.7513856,-0.7246286,3.76253,-1.150597,-1.384982,1.043995,-0.3487595,3.188101,1.458563,-2.554256,-0.4630049,1.652761,0.996366,-2.222569,-3.878083,-3.157925,1.690207,1.776921,-3.235108,0.7588578,-1.896509,2.192987,-1.159556,1.455356,3.206129,-3.68541,2.593588,0.3942239,-1.977505,-1.586543,1.247459,-0.9189177,-3.755671],
[-1.984934,2.182896,-2.112387,3.158541,-2.681625,-1.806482,-3.579634,2.095337,-3.117889,3.21242,-0.6179323,-3.655602,0.2429094,-1.722905,-0.6098871,1.101251,-1.656441,-2.408287,-2.044706,-3.09241,-2.457341,-3.571603,1.118584,3.710526,-2.541385,-2.260261,2.896971,1.140441,3.617335,-0.1533863,1.06489,-3.818139,1.795451],
[-1.347977,-1.05169,-0.2715503,0.6991579,0.7437768,-2.050339,-0.4300588,-2.099015,-3.3733,0.7554263,-3.07119,2.849196,3.568349,2.732877,2.391854,2.199437,0.3177047,0.4337374,1.467392,1.596206,-0.2763508,0.07061452,-0.2469538,-0.1982738,0.3281594,2.471075,-0.3827794,-1.639557,-2.869939,3.086383,-0.4776498,0.4304264,0.04206773],
[-2.809925,-2.277782,-3.567595,2.165849,2.494684,-2.973864,-2.405554,-3.68219,1.777817,1.646308,2.635089,-2.825066,-2.393557,-1.885972,-3.090127,-1.568865,2.878729,-0.9827498,-3.496195,-2.008418,-1.74807,-3.937726,1.249864,0.5814614,-1.28779,2.507648,1.84962,-0.1893765,1.307531,0.06329431,-0.2139913,-2.521848,2.931707],
[-2.062397,3.137009,-2.853305,-2.851264,0.1433786,-3.31119,-2.56429,-2.564015,1.404384,0.3195046,3.717521,-0.4323357,3.68333,-2.636563,-1.507361,3.255908,-0.3300289,1.004717,1.370009,1.083292,0.8304381,0.02822555,-2.298638,2.440103,0.5291695,-3.534826,-3.08487,-3.328381,2.317871,-0.123147,2.637197,-1.813312,-2.272787],
[2.972921,-0.4894141,1.528149,-0.528406,-3.958967,-0.1717489,1.962279,-0.01371933,-3.623412,0.2330521,-1.293777,0.5006746,-3.120079,-2.671561,1.542161,-3.257232,-3.401272,-2.486105,0.07289194,0.4863601,-0.8959702,3.174372,1.639216,2.847285,-1.309398,1.914168,0.285294,-0.2593897,-0.1568944,-1.054332,-3.642112,2.659684,-0.9989906],
[-3.875394,-0.7616317,-0.06635816,1.55894,-1.605205,-0.5581958,-0.6839197,-3.598039,-2.992037,0.1798546,2.148626,1.514164,-2.97755,2.905465,2.735177,3.251709,0.9049178,-1.408945,-2.443415,2.337176,2.339582,3.978102,-2.187521,-1.992471,-1.961649,1.45408,-3.415773,2.044089,-3.004357,-3.195606,2.378998,2.155338,-2.2098],
[1.017484,-0.08607174,-3.79302,-1.988829,-2.804569,-3.124256,3.145376,-0.1039052,-1.042535,2.426433,-3.389699,0.4623968,2.428702,0.7537179,-0.184286,1.917768,0.3648947,-2.482744,3.645811,-3.46885,-0.2209032,1.758208,3.946136,-0.07841282,3.767783,-3.412906,3.371239,0.8974723,1.561895,-0.6283594,3.722164,-2.03035,-0.8338102],
[2.97743,3.918305,-0.672302,3.375693,3.186223,-3.376134,-0.04408234,-0.4323252,3.086487,-3.439342,-3.841992,1.262383,3.487594,-2.359059,-0.3425042,1.814496,3.374468,1.053786,-0.5399653,-2.384789,3.939859,1.780564,3.45504,3.16898,-1.51303,-2.162147,-0.05356053,3.172338,-3.169601,3.279815,3.513927,-1.554056,-2.393378],
[-2.197977,-2.802037,-3.882295,3.541609,-3.73618,-3.300455,-0.7015331,-0.4106134,-3.41375,0.2624593,0.2469407,3.148449,2.344112,-0.601691,-1.893474,-0.1589238,0.7631107,-3.675923,2.602688,-2.046225,-0.2989612,-0.0002308413,-0.02200874,1.150115,-3.508641,-3.552548,1.679796,-0.8746113,3.143638,-2.577292,-2.466188,0.4400569,-3.303912],
[2.77844,0.6601688,-3.788049,1.871935,-2.562317,0.7802441,-1.116736,-2.74652,-0.06892475,2.995286,-2.490736,-1.801564,-3.868736,2.940972,0.9344267,-1.491841,1.041373,2.382765,-1.157677,-2.190536,-3.723973,-0.469375,-1.161112,3.821279,-2.596217,1.056073,0.8582513,-2.202919,-1.708285,1.017736,2.949096,1.480994,-2.249818],
[-3.260695,-2.602998,2.965062,3.951972,2.455065,-2.447513,1.346217,0.07790276,-1.290135,1.15271,2.788233,0.193739,-0.7144642,-1.836537,1.083229,-2.262042,1.377778,0.9890758,-0.5040489,0.04911733,1.442771,-3.546338,0.4878468,-3.381942,0.02871561,-2.434205,3.724321,1.664534,1.107358,-0.2873482,0.9368269,-1.041398,0.8405746],
[1.467294,-2.846641,0.2276939,-0.8015559,3.87628,1.378861,0.7386933,-2.903854,-2.161513,3.443926,-0.2079456,-1.136052,-2.997878,-0.6662896,0.1215758,1.1959,-2.833214,-0.4045588,-3.175002,3.335201,0.57218,1.993666,2.0142,2.433465,-1.143528,-2.486828,-3.329126,-0.7200544,-2.424382,0.7185254,2.857998,-2.490386,-3.164005],
[0.1955435,-3.495661,1.103561,-0.9186804,-2.461198,-3.538476,0.9009253,-1.633295,2.157879,0.324512,0.391823,-0.6151302,-3.392471,-2.107601,1.386783,0.1820833,1.247192,-1.960649,3.351393,-3.48039,3.235673,3.882364,2.149933,-2.303162,2.160928,2.463889,-0.4858505,0.05514752,-0.5918755,1.625472,1.956203,0.5978801,1.561322],
[-3.396574,-3.175922,-2.983119,0.3909792,-2.428352,-3.644507,1.228675,-0.1334257,-0.1707306,-3.692358,-2.292648,3.817006,-3.502642,0.9091187,2.438027,2.707845,-1.609487,1.847964,-0.1656105,3.11595,-2.3229,2.677767,-3.723552,3.489927,-0.458081,3.641533,1.215388,1.775746,3.416211,-3.286712,-2.949446,2.820448,1.149114],
[-0.5837704,0.7864141,-3.220008,1.65572,2.180929,3.807092,-0.9104026,1.191998,-0.5343518,2.362057,0.117254,1.452523,2.820143,3.854486,3.847125,2.531453,1.840136,-3.419882,-0.1580791,3.975844,1.359707,-1.207416,3.150966,-2.084472,2.115056,3.438517,-2.688109,-0.8670118,-3.890424,3.774434,3.749458,-0.8402326,-0.6559406],
[-2.715537,0.9455974,3.40678,-0.8943145,2.519591,-3.057628,2.595726,3.899356,-3.400233,1.640597,2.480157,-0.1633935,2.97631,-3.019161,3.012642,-3.610535,1.039095,2.545513,3.083545,2.812546,2.547439,2.101273,-3.473808,-0.1945343,-0.5585532,-1.267793,-2.030649,1.125611,-1.594178,3.942911,3.458873,3.692427,-1.815295],
[1.833785,3.950902,-0.8427548,-2.224071,3.60761,-1.20319,-3.215655,-2.564301,0.2907399,-1.740137,-3.523372,3.269041,2.516948,2.920285,-0.383163,-2.138611,1.088999,-0.5320051,-2.522175,0.9174163,-2.554076,2.188171,0.3077541,-0.01213467,-2.964165,-3.258338,-1.522098,-0.160268,-2.652779,3.13727,3.352597,0.1362514,3.232611],
[-0.1982386,1.578033,2.441548,-3.89596,1.360414,-0.7920567,1.015126,-3.104937,2.814003,3.209631,1.768552,2.90203,-1.209529,2.443837,-0.01428501,3.645162,-2.901397,1.941537,0.495411,1.92452,2.555177,0.01373805,3.426096,3.581292,2.486253,2.400541,-2.210166,3.467987,3.555665,3.10042,1.202736,-0.3294359,2.150223],
[2.128334,-1.71762,1.151523,-0.8175362,-2.478269,1.458168,3.426129,-2.344264,-1.069589,-3.507267,-3.645477,0.6267371,1.052196,0.6952952,3.584893,3.25973,2.226668,2.669353,-3.647027,-0.3560334,-3.241328,0.6477136,-3.441447,3.551152,-1.893922,1.547306,1.080173,0.4664154,-1.607526,2.979188,-3.900899,-3.32374,-1.037339],
[0.2333986,3.246008,0.7528586,2.440599,-2.500858,1.205282,-1.170974,-0.7819031,2.735547,0.08204987,-2.910125,2.085888,-3.032337,-2.116389,-3.229093,-2.54793,1.450318,1.619245,-2.471957,0.1238784,3.229325,2.891747,3.563039,3.170071,-2.771034,-1.783451,-3.905447,2.425134,0.7463043,-1.097442,0.9070603,2.386272,-3.02403],
[1.340874,1.674865,1.420501,-2.089448,2.392934,-2.632255,-0.9446059,-3.42522,-0.992601,3.309132,1.892794,0.7914936,2.718922,-0.2644947,-3.749361,-2.170852,1.921358,-0.967815,-2.519277,-0.07021579,-3.096661,1.091205,-0.4654896,-3.676919,-0.5447422,-2.962504,-2.082228,-1.457712,2.293634,-1.214262,-2.944868,-1.008121,-3.780257],
[-0.2869196,-0.5171245,-0.1319409,-2.518761,0.5496193,1.174576,3.891807,-0.5918767,-2.14286,3.151529,1.364553,-0.452011,-3.680576,-2.001518,2.010462,-3.032741,2.379367,0.5482134,0.9144621,-1.307648,3.321916,-1.989242,2.002915,0.7531808,2.543221,3.387537,1.127091,-1.864386,-2.514341,2.399415,2.072833,-0.3548939,-3.208608],
[0.8148406,-2.21928,3.02643,0.7278299,-2.425838,-2.526921,-1.856069,0.9451794,-2.706834,1.377116,0.9980928,-1.949089,-3.104297,1.077349,-3.209079,0.3704836,-0.3222351,-2.051983,-3.886723,2.569742,2.853809,0.2308666,2.729088,-1.710074,0.9812388,-3.500488,-0.677014,2.809906,0.6693478,3.162914,0.7900926,-1.633847,-0.3599238],
[-0.5580732,3.026165,2.539221,-2.754896,-0.6696556,-1.449662,-1.249182,2.513321,1.154316,0.5551119,-2.764985,3.210569,-2.112433,3.737541,0.3377762,0.9087722,-2.18497,-2.080179,3.363773,2.693774,3.486591,3.150954,-0.003073284,1.786761,-2.096313,-0.7501157,1.628988,-1.461284,2.355781,1.026971,1.374145,-2.740108,-3.58311],
[-3.592026,-1.471456,2.857191,-0.2297567,1.273753,1.19871,-0.2932355,-0.6516361,0.3502556,1.046209,-1.282062,-2.005073,-1.504106,3.785956,2.711589,-3.43378,-0.5553218,-2.05265,0.8702724,3.087349,1.959165,-2.242888,1.827742,2.156416,2.629543,3.605362,0.1937982,-0.1843139,1.4253,-0.5538968,1.675951,1.594002,1.202308],
[1.545481,0.8544708,2.122927,3.080954,2.172338,2.797693,3.397498,2.982813,0.7309293,-0.7318193,2.345031,1.554089,-0.3936306,0.9988587,-1.51215,0.1412398,-1.886347,-1.369963,3.36982,1.45734,-3.527089,-0.6286736,0.4654822,-1.869935,-1.13615,0.7912821,2.256231,1.007771,-3.68585,-0.7567662,3.806038,2.375762,-0.9433751],
[-2.23238,-2.084249,-1.39545,-3.323701,0.5766455,-3.995912,0.1848452,1.918133,2.899609,-0.01288534,-3.301854,-2.327346,-3.507726,2.64602,-1.267762,3.578304,2.674366,3.889217,-1.249858,-1.356806,1.584171,-2.091668,2.432159,-0.8116483,-1.622905,-2.113525,-1.039062,1.015197,0.7659686,-2.756639,-1.481715,1.365492,-0.5877678],
[1.067294,3.713007,2.944538,1.553446,2.840853,0.9256052,-0.2477035,-3.787589,-3.234619,-1.753849,-1.015987,0.6093593,-3.980106,-1.896301,-0.7219777,2.306827,3.63112,-1.516402,-2.714643,-1.015357,-1.137304,1.65865,-2.130845,-1.602424,-2.871923,1.468329,0.3774872,3.531103,-0.9779537,-3.187538,3.944084,3.476154,3.333004],
[0.005814862,3.902136,3.689546,-2.286352,3.311197,0.7941046,-0.5772502,-0.7835661,3.378793,-0.9364859,-1.015497,-1.925538,0.9233119,-3.354628,0.6793239,-3.326041,-0.3367128,1.159453,3.218852,-3.736908,-3.261335,1.340392,-2.601711,3.520584,-1.037403,3.070775,1.35005,-3.564207,-2.935779,2.049957,1.330414,-2.906514,-3.192807],
[-3.233459,0.9101059,-1.794028,-1.318988,-2.192284,3.353645,0.325256,-3.960471,3.597744,1.673147,2.302014,1.166513,0.4091497,2.831794,2.523134,3.58602,0.2026504,-3.759451,2.58028,-2.551828,-0.5523003,1.185627,-1.520726,1.879159,3.933021,0.187326,-0.8474771,3.178636,-3.667444,-1.382642,-3.750316,-0.582364,2.541266]
],
[
[3.70402,3.901727,2.61995,-3.661564,-2.383082,0.4708095,-1.550847,-2.937818,2.652466,-0.1642065,2.436407,-2.136288,3.026705,-0.3143518,3.434245,1.238998,0.9063368,1.231972,-2.512,0.696212,2.420559,-0.6539354,2.466664,0.958671,3.100484,1.901729,1.794651,2.89059,2.708172,-3.641018,1.769231,2.901094,0.7615607],
[0.4127717,2.483387,-3.558351,-0.4485762,2.514801,-0.6809655,-0.9228576,-0.4595246,1.525358,1.38646,0.5149629,-0.1962779,-2.538264,-1.934096,1.776881,-0.03314639,2.92387,3.808675,-0.1095893,-1.494678,3.294344,0.3146784,-2.288608,-1.898218,-0.7262689,3.071017,-0.9077039,1.656053,-0.1222432,-1.44934,-2.450001,2.322953,-2.474452]
]
],
"biases":[
[
3.449096,2.77628,2.343588,3.207308,0.47827,2.082852,-3.528321,2.192523,-0.07972568,-1.514827,1.399913,-3.754495,3.791612,0.3386024,-3.264188,0.8454868,-1.072384,-3.879599,2.783392,1.139472,2.835451,-2.393504,-1.691802,2.156846,1.057215,3.240428,-0.2820766,2.95227,-3.325386,2.046154,-2.679933,-2.87946,1.659952
],
[
-1.896495,-3.631166
]
]},
{
"fitness":8.189803,
"weights":[
[
[-1.49598,-2.626686,-0.5526496,-1.080046,1.304273,0.9890149,0.7595341,-0.5351325,-0.6514432,1.547327,3.608979,-0.8805329,-1.420961,-3.55287,-1.259272,-1.803697,1.833803,-1.665804,2.986316,-3.410816,-1.633437,-2.681192,-1.882414,0.3773375,-3.829311,2.972982,-0.01280875,2.123167,-1.906713,-1.171944,2.558099,3.274437,-0.8516453],
[2.188386,1.516584,-0.8247308,-3.113049,-3.253524,-0.8393911,3.722452,-1.109428,3.537421,1.453408,-1.547883,-1.845244,2.3392,3.851536,-0.5169822,3.809283,0.3310599,-2.256826,3.281819,-0.9446827,3.311482,-0.6575758,-0.2638773,-0.7381272,3.657289,-1.786912,-3.035667,1.202936,-1.801927,1.602441,0.1607817,0.01667918,0.5657087],
[-0.7513856,-0.7246286,3.76253,-1.150597,-1.384982,1.043995,-0.3487595,3.188101,1.458563,-0.5307159,0.5254685,1.652761,0.996366,-2.222569,-3.878083,-3.157925,-2.391136,0.9129422,-3.235108,0.7588578,-1.896509,2.192987,-1.159556,1.455356,3.206129,-3.68541,2.593588,0.3942239,-1.977505,-1.586543,1.247459,-0.9189177,-2.931548],
[3.617959,2.182896,-2.112387,3.158541,-2.681625,2.78514,-3.579634,2.239941,-3.117889,3.21242,-0.6179323,-3.655602,1.04572,-1.722905,-0.6098871,1.960937,-1.656441,-2.408287,-2.044706,-3.09241,-1.91014,-3.571603,1.118584,2.537271,-2.541385,-2.260261,2.896971,1.140441,3.617335,-2.697615,1.06489,-3.818139,1.795451],
[-0.8526725,-1.103686,-0.2715503,0.6991579,-2.842883,-2.050339,-0.4300588,-2.099015,-3.3733,0.7554263,-3.07119,2.849196,3.568349,2.732877,2.391854,2.199437,1.745159,0.4337374,1.684232,0.1683575,-0.2763508,-1.493354,0.3733792,-0.1982738,0.3281594,2.471075,-0.3827794,-1.639557,-2.869939,3.086383,-0.4776498,-3.872133,0.04206773],
[-2.809925,-0.9731641,-3.567595,2.165849,2.494684,-2.973864,-2.405554,-3.68219,1.777817,1.646308,2.635089,-2.825066,-0.6121358,-1.885972,1.558101,-1.568865,2.878729,-0.9827498,-3.496195,-0.4117463,-1.74807,-3.937726,1.249864,0.5814614,3.561648,2.507648,0.8138544,-0.1893765,1.307531,0.06329431,-0.2139913,2.281063,2.633012],
[-2.062397,1.731344,-2.853305,-1.49823,0.1433786,-3.31119,-2.56429,-2.564015,1.404384,0.3195046,3.717521,-0.4323357,3.68333,-1.2124,-1.507361,3.255908,-0.3300289,1.004717,1.370009,1.083292,0.8304381,0.02822555,-2.817805,2.440103,2.488835,-3.534826,2.963277,-3.328381,2.317871,-0.123147,-3.111852,-1.813312,-2.272787],
[3.372318,-0.4894141,1.528149,1.248474,-3.958967,-0.1717489,1.962279,-0.01371933,-3.623412,0.2330521,-1.293777,0.5006746,-3.120079,-3.628147,1.542161,-3.257232,3.284758,-2.486105,2.807396,0.4863601,-0.8959702,3.174372,1.639216,-0.3724381,-1.309398,-3.395586,0.285294,-0.2593897,-0.1568944,-1.054332,1.61407,-2.254001,0.71741],
[-3.875394,-0.7616317,3.72976,1.55894,-1.605205,-0.5581958,-3.928509,-3.598039,-2.992037,0.1798546,2.148626,1.514164,-2.97755,2.905465,2.735177,3.642567,0.9049178,-1.408945,-2.443415,3.709531,1.772324,3.978102,-0.8938369,3.734226,-1.961649,1.45408,-3.415773,2.044089,-3.004357,-3.195606,2.378998,2.155338,-2.2098],
[2.236739,1.871194,-3.79302,-1.600002,-2.804569,-3.124256,3.145376,-0.1039052,0.2281819,2.426433,-3.389699,2.780719,2.428702,0.7537179,1.515543,1.917768,0.3648947,-2.482744,3.645811,-0.08436706,-0.2209032,-3.674663,3.946136,-0.07841282,1.578094,-3.412906,-2.284975,0.8974723,1.561895,-0.6283594,-1.674806,-2.03035,-0.8338102],
[2.97743,3.675688,-0.672302,3.375693,-3.303621,-3.376134,-0.04408234,-0.4323252,3.086487,-3.439342,-3.037019,1.262383,3.487594,-2.359059,3.725251,1.814496,3.374468,-3.28457,2.517447,-2.384789,-0.5547745,1.780564,3.45504,-1.487626,-1.950197,-2.162147,-0.05356053,3.172338,-3.169601,3.279815,0.8664161,3.223676,-2.393378],
[-2.776731,-2.802037,-2.495692,3.541609,-3.73618,-3.300455,-0.7015331,-0.4106134,-3.41375,0.2624593,1.584688,3.148449,2.344112,-1.161483,-1.893474,-0.1589238,0.7631107,-3.675923,-3.180815,2.878459,-0.2989612,-0.0002308413,-0.02200874,1.150115,3.685712,-3.552548,1.679796,1.55792,3.143638,-2.577292,-2.466188,2.950667,-3.303912],
[2.77844,0.6601688,2.190719,1.871935,2.022322,0.7802441,-1.116736,-2.74652,-0.06892475,2.995286,-3.786158,0.3117844,0.2704707,2.940972,0.9344267,-1.491841,-3.405474,2.382765,0.3059163,-2.190536,-3.723973,-0.469375,-1.161112,0.3151836,2.899963,1.612956,0.8582513,-2.202919,-1.708285,1.017736,2.949096,1.480994,-2.249818],
[-3.260695,-2.602998,2.965062,-3.565179,-3.277758,-2.447513,1.346217,0.07790276,-1.290135,-0.988192,2.788233,0.193739,-0.7144642,-1.836537,1.083229,-2.262042,0.3760283,-1.618367,-0.5040489,0.5574009,1.442771,-3.546338,0.4878468,-3.381942,-0.2167392,-2.434205,-3.226272,1.664534,1.107358,-0.2873482,2.839745,-1.041398,2.807606],
[-2.386063,-2.846641,0.2276939,-0.8015559,3.87628,-3.920666,0.696715,-2.903854,-2.161513,-3.688777,-0.2079456,-3.50979,-2.997878,-0.6662896,0.1215758,1.1959,0.1117102,-0.4045588,-3.175002,3.335201,0.57218,3.822883,2.0142,2.433465,-1.143528,-2.486828,-3.329126,3.445543,-2.424382,0.7185254,2.857998,-2.490386,-3.164005],
[0.1955435,-3.495661,1.103561,-0.9186804,-2.461198,-3.538476,0.9009253,-0.8521536,2.157879,0.324512,0.391823,-0.6151302,-3.392471,-2.107601,-2.092562,0.1820833,-0.3407208,-1.960649,3.351393,2.171444,3.235673,3.882364,2.149933,-2.303162,2.160928,2.463889,-0.4858505,3.548878,-1.43226,1.625472,1.956203,-0.03960265,1.561322],
[-3.396574,-3.175922,-3.367014,0.3909792,-2.428352,-3.644507,1.228675,-0.1334257,-0.1707306,-3.692358,-0.5237718,2.708735,-3.502642,0.9091187,2.438027,2.707845,-1.609487,1.944365,-0.1656105,3.11595,-2.3229,2.677767,-3.723552,3.489927,-0.458081,3.641533,1.215388,1.775746,-1.855667,-3.286712,-2.949446,2.820448,1.149114],
[-0.5837704,0.7864141,3.101064,1.65572,2.180929,-0.2175381,-0.9104026,-1.915158,3.23822,2.362057,0.117254,1.452523,2.820143,3.854486,3.847125,2.531453,1.840136,-3.419882,-0.1580791,3.975844,1.359707,-1.262088,3.150966,-2.084472,2.115056,3.438517,-2.688109,2.612119,-3.890424,-2.188837,3.749458,-0.8402326,-0.6559406],
[-0.7728041,0.9455974,3.40678,-0.8943145,2.519591,-3.057628,2.595726,3.899356,-3.400233,1.640597,-1.482216,-0.1633935,2.97631,-3.019161,3.012642,-3.610535,1.039095,-3.419817,3.083545,2.812546,2.547439,-1.671952,-3.473808,-0.1945343,-0.5585532,-1.267793,0.09984691,1.125611,2.789757,-2.706673,3.458873,3.692427,-1.815295],
[1.833785,3.421192,-0.8427548,-2.224071,3.60761,-1.065162,3.158483,-2.564301,0.2907399,-1.740137,-3.523372,3.269041,2.516948,2.920285,-0.383163,-2.138611,1.088999,-0.5320051,-0.3971972,0.9174163,-2.554076,2.188171,0.3077541,-0.3928215,-3.206909,2.681509,-1.522098,-0.160268,-1.844295,3.13727,3.352597,0.1362514,3.232611],
[-0.1982386,1.578033,2.441548,-3.89596,1.360414,-0.7920567,-2.435433,-3.104937,2.814003,3.209631,1.768552,-2.620779,-2.182292,2.443837,-0.01428501,3.645162,-2.901397,1.941537,-3.27493,1.92452,-1.682874,0.01373805,3.426096,3.581292,-0.4859369,2.400541,-2.210166,3.467987,3.555665,3.10042,-2.052666,-0.3294359,2.150223],
[2.128334,-1.71762,1.151523,-0.8175362,2.430696,1.458168,3.426129,-2.344264,-1.069589,-3.507267,-3.645477,-2.976311,1.052196,3.703818,3.584893,-2.978875,1.647166,2.669353,-3.647027,-0.3560334,-2.576947,0.6477136,-3.441447,3.551152,1.272233,1.547306,0.6973597,0.4664154,-1.607526,0.3482807,-3.900899,-3.32374,-0.7855958],
[0.2333986,3.246008,0.7528586,2.440599,-2.500858,1.205282,-1.170974,1.418316,-0.819294,0.08204987,-2.910125,2.085888,-3.032337,-2.116389,-3.229093,-2.54793,1.450318,1.619245,-2.471957,0.1238784,3.229325,1.221375,0.7571388,3.170071,-2.771034,-1.783451,2.863342,2.425134,0.7463043,1.626958,0.9070603,2.386272,-3.02403],
[1.340874,1.674865,1.420501,3.738206,2.392934,-2.632255,-0.9446059,-3.42522,-0.992601,3.309132,1.892794,0.7914936,2.718922,-0.2644947,-3.749361,3.493242,-0.1857982,-0.967815,-2.519277,-0.07021579,0.9405531,1.091205,-0.4654896,-3.676919,3.598589,-2.962504,-2.082228,-1.457712,2.293634,-1.214262,-1.262626,-1.008121,-3.780257],
[-3.271488,-0.5171245,-0.1319409,-2.518761,-1.797291,1.174576,3.891807,-0.5918767,-2.14286,-0.1584023,1.364553,-0.452011,-3.680576,-0.6561996,3.583692,-3.032741,2.379367,0.5482134,0.9144621,-1.307648,3.321916,-2.677851,2.002915,0.7531808,2.543221,3.387537,1.127091,-1.864386,-2.514341,2.399415,2.072833,3.28023,-3.208608],
[0.8148406,-2.21928,3.02643,0.7278299,-1.330311,1.551754,-1.856069,0.9451794,-0.06320988,1.377116,0.9980928,-2.712065,-3.104297,1.077349,1.32134,0.3704836,-0.3222351,-2.051983,-3.886723,2.569742,2.603691,0.2308666,2.729088,-2.468504,0.9812388,-3.500488,-0.677014,2.809906,0.6693478,-2.772892,0.7900926,-1.633847,-0.3599238],
[0.1742329,3.026165,2.539221,-2.754896,3.575639,2.60797,-1.249182,2.154096,1.154316,0.5551119,-2.764985,3.210569,-2.112433,3.737541,0.3377762,0.8698084,-0.03352814,-2.080179,3.050479,2.693774,3.486591,3.150954,-0.003073284,1.786761,-2.096313,0.3078892,1.571154,-1.461284,2.106571,1.026971,1.374145,-3.829179,-3.58311],
[-3.592026,-1.471456,2.857191,-0.2297567,-0.4298382,1.19871,-0.2932355,-1.423081,0.3502556,1.046209,-1.282062,-2.582272,-0.6116304,3.785956,2.711589,-3.43378,-0.5553218,-2.05265,-1.088405,3.087349,1.959165,-2.242888,1.827742,2.156416,0.4853023,3.605362,0.1937982,2.563515,1.4253,0.05726978,1.675951,1.594002,1.202308],
[3.756544,0.8544708,2.122927,3.080954,-1.915808,2.797693,3.397498,2.982813,0.7309293,-0.7318193,2.345031,1.554089,-0.3936306,0.9988587,-1.51215,0.1412398,-1.886347,-3.232139,3.36982,1.45734,-3.205849,-2.961992,0.4654822,-1.869935,-1.13615,-2.881679,2.256231,1.007771,-3.68585,-0.7567662,3.806038,2.375762,-0.9433751],
[-2.23238,-2.084249,-1.39545,3.535733,0.5766455,-2.78409,0.1848452,0.01647469,2.899609,3.954449,-3.301854,-2.327346,-3.507726,2.64602,-3.962031,3.578304,2.674366,3.889217,-1.249858,-1.356806,1.584171,-2.091668,2.432159,-0.8116483,-1.622905,3.634192,-1.039062,1.015197,0.7659686,-2.756639,-0.2134428,1.365492,1.436059],
[1.067294,3.713007,2.944538,1.553446,2.840853,0.9256052,-0.2477035,-3.787589,-2.439753,-0.9773419,-1.270019,0.6093593,-3.980106,-0.5936698,-0.7219777,2.306827,3.63112,-1.516402,-2.714643,-1.015357,-1.137304,1.65865,-2.130845,-1.602424,-2.871923,1.468329,0.3774872,1.419558,-0.9779537,-3.187538,0.6598316,3.680227,3.333004],
[0.005814862,3.902136,3.689546,-2.286352,3.311197,0.7941046,-3.963828,-0.7835661,2.067523,-0.9364859,-1.015497,-1.925538,0.9233119,-3.354628,0.6793239,-3.326041,-0.3367128,1.159453,-3.761881,-3.736908,-3.261335,1.340392,-2.601711,3.520584,-1.037403,3.070775,2.004238,-3.564207,2.003317,2.049957,1.330414,-2.906514,-3.192807],
[-3.233459,0.9101059,-1.794028,-1.318988,-2.192284,3.353645,0.325256,-3.960471,3.597744,1.673147,2.302014,1.166513,0.4091497,-3.148727,-0.3435519,3.58602,0.2026504,-3.759451,2.58028,-2.551828,-0.5523003,1.185627,-1.520726,1.879159,3.933021,0.187326,-1.087666,3.178636,-3.667444,1.17893,-3.750316,-0.582364,2.803206]
],
[
[3.70402,3.901727,3.696456,-3.661564,-2.383082,0.4708095,-1.550847,-3.104394,-0.9085529,-0.1642065,2.436407,-2.136288,3.026705,-0.3143518,3.434245,1.238998,-0.8321239,1.231972,-2.512,0.696212,2.420559,-0.6539354,2.466664,0.958671,3.100484,1.901729,1.794651,-2.639826,2.708172,1.241674,1.769231,2.901094,0.7615607],
[0.4127717,2.483387,-3.558351,-0.4485762,2.514801,-0.8608306,-1.969101,-0.4595246,1.525358,1.38646,-2.200648,-0.1962779,-2.538264,-1.934096,1.776881,-0.03314639,2.92387,2.939175,-0.1095893,0.7700627,3.294344,1.537413,-2.288608,-1.898218,-0.7262689,3.071017,-0.9077039,2.824469,-0.1222432,-1.44934,-2.450001,2.322953,-2.474452]
]
],
"biases":[
[
3.449096,2.77628,2.343588,3.671146,0.47827,3.6804,-3.528321,2.192523,1.690548,-1.514827,1.399913,-3.754495,3.791612,1.884732,-3.264188,0.8454868,-1.072384,-2.887985,2.783392,1.139472,2.835451,-2.393504,-1.691802,2.156846,2.61242,3.240428,-0.2820766,2.95227,-0.9437858,2.046154,-2.679933,-2.87946,1.659952
],
[
-1.896495,-3.458302
]
]},
{
"fitness":8.122626,
"weights":[
[
[-1.49598,-2.626686,-0.5526496,3.363545,1.304273,0.9890149,1.474379,-0.5351325,-0.6514432,2.228416,3.608979,-0.8805329,-1.420961,-2.475916,-1.259272,-1.803697,1.833803,-1.665804,2.986316,-3.410816,-1.633437,-2.963323,-1.882414,0.3773375,-3.829311,2.972982,-0.01280875,2.123167,-1.906713,-1.171944,2.558099,-2.408003,-0.8516453],
[2.188386,1.516584,-0.8247308,-3.113049,-3.699897,-0.8393911,-3.228036,-1.109428,0.7055132,1.453408,-1.547883,-0.6179453,2.3392,3.851536,-0.5169822,3.809283,-1.141992,-2.256826,3.281819,-0.9446827,3.311482,-0.6575758,-0.2638773,-2.718851,3.657289,-1.786912,-3.035667,1.202936,-1.801927,1.602441,0.1607817,0.01667918,-2.34683],
[-0.7513856,-0.7246286,3.76253,-1.150597,-1.384982,1.043995,-0.3487595,3.188101,1.458563,-2.554256,-0.4630049,1.652761,0.996366,-2.222569,-3.878083,-3.157925,1.690207,1.776921,-3.235108,0.7588578,-1.896509,2.192987,-1.159556,1.455356,3.206129,-3.68541,2.593588,0.3942239,-1.977505,-1.586543,1.247459,-0.9189177,-3.755671],
[3.617959,2.182896,-2.112387,3.158541,-2.681625,-1.806482,-3.579634,2.095337,-3.117889,3.21242,-0.6179323,-3.655602,0.2429094,-1.722905,-0.6098871,1.101251,-1.656441,-2.408287,-2.044706,-3.09241,-2.457341,-3.571603,1.118584,3.710526,-2.541385,-2.260261,2.896971,1.140441,3.617335,-0.1533863,1.06489,-3.818139,1.795451],
[-1.347977,-1.05169,-0.2715503,0.6991579,0.7437768,-2.050339,-0.4300588,-2.099015,-3.3733,0.7554263,-3.07119,2.849196,3.568349,2.732877,2.391854,2.199437,0.3177047,0.4337374,1.467392,1.596206,-0.2763508,0.07061452,-0.2469538,-0.1982738,0.3281594,2.471075,-0.3827794,-1.639557,-2.869939,3.086383,-0.4776498,0.4304264,0.04206773],
[-2.809925,-2.277782,-3.567595,2.165849,2.494684,-2.973864,-2.405554,-3.68219,1.777817,1.646308,2.635089,-2.825066,-2.393557,-1.885972,-3.090127,-1.568865,2.878729,-0.9827498,-3.496195,-2.008418,-1.74807,-3.937726,1.249864,0.5814614,-1.28779,2.507648,1.84962,-0.1893765,1.307531,0.06329431,-0.2139913,-2.521848,2.931707],
[-2.062397,3.137009,-2.853305,-2.851264,0.1433786,-3.31119,-2.56429,-2.564015,1.404384,0.3195046,3.717521,-0.4323357,3.68333,-2.636563,-1.507361,3.255908,-0.3300289,1.004717,1.370009,1.083292,0.8304381,0.02822555,-2.298638,2.440103,0.5291695,-3.534826,-3.08487,-3.328381,2.317871,-0.123147,2.637197,-1.813312,-2.272787],
[2.972921,-0.4894141,1.528149,-0.528406,-3.958967,-0.1717489,1.962279,-0.01371933,-3.623412,0.2330521,-1.293777,0.5006746,-3.120079,-2.671561,1.542161,-3.257232,-3.401272,-2.486105,0.07289194,0.4863601,-0.8959702,3.174372,1.639216,2.847285,-1.309398,1.914168,0.285294,-0.2593897,-0.1568944,-1.054332,-3.642112,2.659684,-0.9989906],
[-3.875394,-0.7616317,-0.06635816,1.55894,-1.605205,-0.5581958,-0.6839197,-3.598039,-2.992037,0.1798546,2.148626,1.514164,-2.97755,2.905465,2.735177,3.251709,0.9049178,-1.408945,-2.443415,2.337176,2.339582,3.978102,-2.187521,-1.992471,-1.961649,1.45408,-3.415773,2.044089,-3.004357,-3.195606,2.378998,2.155338,-2.2098],
[1.017484,-0.08607174,-3.79302,-1.988829,-2.804569,-3.124256,3.145376,-0.1039052,-1.042535,2.426433,-3.389699,0.4623968,2.428702,0.7537179,-0.184286,1.917768,0.3648947,-2.482744,3.645811,-3.46885,-0.2209032,1.758208,3.946136,-0.07841282,3.767783,-3.412906,3.371239,0.8974723,1.561895,-0.6283594,3.722164,-2.03035,-0.8338102],
[2.97743,3.918305,-0.672302,3.375693,3.186223,-3.376134,-0.04408234,-0.4323252,3.086487,-3.439342,-3.841992,1.262383,3.487594,-2.359059,-0.3425042,1.814496,3.374468,-0.894464,-0.5399653,-2.384789,3.939859,1.780564,3.45504,3.16898,-1.51303,-2.162147,-0.05356053,3.172338,-3.169601,3.279815,3.513927,-1.554056,-2.393378],
[-2.197977,-2.802037,-3.882295,3.541609,-3.73618,-3.300455,-0.7015331,-0.4106134,-3.41375,0.2624593,0.2469407,3.148449,2.344112,-1.161483,-1.893474,-0.1589238,0.7631107,-3.675923,2.602688,-2.046225,-0.2989612,-0.0002308413,-0.02200874,1.150115,-3.508641,-3.552548,1.679796,-0.8746113,3.143638,-2.577292,-2.466188,2.950667,-3.303912],
[2.77844,0.6601688,-3.788049,1.871935,-2.562317,0.7802441,-1.116736,-2.74652,-0.06892475,2.995286,-2.490736,-1.801564,-3.868736,2.940972,0.9344267,-1.491841,1.041373,2.382765,-1.157677,-2.190536,-3.723973,-0.469375,-1.161112,3.821279,-2.596217,1.612956,0.8582513,-2.202919,-1.708285,1.017736,2.949096,1.480994,-2.249818],
[-3.260695,-2.602998,2.965062,3.951972,2.455065,-2.447513,1.346217,0.07790276,-1.290135,1.15271,2.788233,0.193739,-0.7144642,-1.836537,1.083229,-2.262042,1.377778,0.9890758,-0.5040489,0.04911733,1.442771,-3.546338,0.4878468,-3.381942,0.02871561,-2.434205,3.724321,1.664534,1.107358,-0.2873482,0.9368269,-1.041398,0.8405746],
[1.467294,-2.846641,0.2276939,-0.8015559,3.87628,1.378861,0.7386933,-2.903854,-2.161513,3.443926,-0.2079456,-1.136052,-2.997878,-0.6662896,0.1215758,1.1959,-2.833214,-0.4045588,-3.175002,3.335201,0.57218,1.993666,2.0142,2.433465,-1.143528,-2.486828,-3.329126,-0.7200544,-2.424382,0.7185254,2.857998,-2.490386,-3.164005],
[0.1955435,-3.495661,1.103561,-0.9186804,-2.461198,-3.538476,0.9009253,-1.633295,2.157879,0.324512,0.391823,-0.6151302,-3.392471,-2.107601,1.386783,0.1820833,1.247192,-1.960649,3.351393,-3.48039,3.235673,3.882364,2.149933,-2.303162,2.160928,2.463889,-0.4858505,0.05514752,-0.5918755,1.625472,1.956203,0.5978801,1.561322],
[-3.396574,-3.175922,-2.983119,0.3909792,-2.428352,-3.644507,1.228675,-0.1334257,-0.1707306,-3.692358,-2.292648,3.817006,-3.502642,0.9091187,2.438027,2.707845,-1.609487,1.847964,-0.1656105,3.11595,-2.3229,2.677767,-3.723552,3.489927,-0.458081,3.641533,1.215388,1.775746,3.416211,-3.286712,-2.949446,2.820448,1.149114],
[-0.5837704,0.7864141,-3.220008,1.65572,2.180929,3.807092,-0.9104026,1.191998,-0.5343518,2.362057,0.117254,1.452523,2.820143,3.854486,3.847125,2.531453,1.840136,-3.419882,-0.1580791,3.975844,1.359707,-1.262088,3.150966,-2.084472,2.115056,3.438517,-2.688109,-0.8670118,-3.890424,3.774434,3.749458,-0.8402326,-0.6559406],
[-2.715537,0.9455974,3.40678,-0.8943145,2.519591,-3.057628,2.595726,3.899356,-3.400233,1.640597,2.480157,-0.1633935,2.97631,-3.019161,3.012642,-3.610535,1.039095,2.545513,3.083545,2.812546,2.547439,2.101273,-3.473808,-0.1945343,-0.5585532,-1.267793,-2.030649,1.125611,-1.594178,3.942911,3.458873,3.692427,-1.815295],
[1.833785,3.950902,-0.8427548,-2.224071,3.60761,-1.20319,-3.215655,-2.564301,0.2907399,-1.740137,-3.523372,3.269041,2.516948,2.920285,-0.383163,-2.138611,1.088999,-0.5320051,-0.3971972,0.9174163,-2.554076,2.188171,0.3077541,-0.01213467,-2.964165,-3.258338,-1.522098,-0.160268,-2.652779,3.13727,3.352597,0.1362514,3.232611],
[-0.1982386,1.578033,2.441548,-3.89596,1.360414,-0.7920567,1.015126,-3.104937,2.814003,3.209631,1.768552,2.90203,-1.209529,2.443837,-0.01428501,3.645162,-2.901397,1.941537,3.678553,1.92452,2.555177,0.01373805,3.426096,3.581292,2.486253,2.400541,-2.210166,3.467987,3.555665,3.10042,1.202736,-0.3294359,2.150223],
[2.128334,-1.71762,1.151523,-0.8175362,-2.478269,1.458168,3.426129,-2.344264,-1.069589,-3.507267,-3.645477,0.6267371,1.052196,0.6952952,3.584893,3.25973,2.226668,2.669353,-3.647027,-0.3560334,-3.241328,0.6477136,-3.441447,3.551152,-1.893922,1.547306,1.080173,0.4664154,-1.607526,2.979188,-3.900899,-3.32374,-1.037339],
[0.2333986,3.246008,0.7528586,2.440599,-2.500858,1.205282,-1.170974,-0.7819031,2.735547,0.08204987,-2.910125,2.085888,-3.032337,-2.116389,-3.229093,-2.54793,1.450318,1.619245,-2.471957,0.1238784,3.229325,1.221375,3.563039,3.170071,-2.771034,-1.783451,-3.905447,2.425134,0.7463043,-1.097442,0.9070603,2.386272,-3.02403],
[1.340874,1.674865,1.420501,-2.089448,2.392934,-2.632255,-0.9446059,-3.42522,-0.992601,3.309132,1.892794,0.7914936,2.718922,-0.2644947,-3.749361,-2.170852,1.921358,-0.967815,-2.519277,-0.07021579,-3.096661,1.091205,-0.4654896,-3.676919,-0.5447422,-2.962504,-2.082228,-1.457712,2.293634,-1.214262,-2.944868,-1.008121,-3.780257],
[-0.2869196,-0.5171245,-0.1319409,-2.518761,0.5496193,1.174576,3.891807,-0.5918767,-2.14286,3.151529,1.364553,-0.452011,-3.680576,-2.001518,2.010462,-3.032741,2.379367,0.5482134,0.9144621,-1.307648,3.321916,-1.989242,2.002915,0.7531808,2.543221,3.387537,1.127091,-1.864386,-2.514341,2.399415,2.072833,-0.3548939,-3.208608],
[0.8148406,-2.21928,3.02643,0.7278299,-2.425838,-2.526921,-1.856069,0.9451794,-2.706834,1.377116,0.9980928,-1.949089,-3.104297,1.077349,-3.209079,0.3704836,-0.3222351,-2.051983,-3.886723,2.569742,2.853809,0.2308666,2.729088,-1.710074,0.9812388,-3.500488,-0.677014,2.809906,0.6693478,3.162914,0.7900926,-1.633847,-0.3599238],
[-0.5580732,3.026165,2.539221,-2.754896,-0.6696556,2.60797,-1.249182,2.513321,1.154316,0.5551119,-2.764985,3.210569,-2.112433,3.737541,0.3377762,0.9087722,-2.18497,-2.080179,3.363773,2.693774,3.486591,3.150954,-0.003073284,1.786761,-2.096313,-0.7501157,1.628988,-1.461284,2.355781,1.026971,1.374145,-2.740108,-3.58311],
[-3.592026,-1.471456,2.857191,-0.2297567,1.273753,1.19871,-0.2932355,-0.6516361,0.3502556,1.046209,-1.282062,-2.005073,-1.504106,3.785956,2.711589,-3.43378,-0.5553218,-2.05265,0.8702724,3.087349,1.959165,-2.242888,1.827742,2.156416,2.629543,3.605362,0.1937982,-0.1843139,1.4253,-0.5538968,1.675951,1.594002,1.202308],
[1.545481,0.8544708,2.122927,3.080954,2.172338,2.797693,3.397498,2.982813,0.7309293,-0.7318193,2.345031,1.554089,-0.3936306,0.9988587,-1.51215,0.1412398,-1.886347,-1.369963,3.36982,1.45734,-3.527089,-0.6286736,0.4654822,-1.869935,-1.13615,0.7912821,2.256231,1.007771,-3.68585,-0.7567662,3.806038,2.375762,-0.9433751],
[-2.23238,-2.084249,-1.39545,-3.323701,0.5766455,-2.78409,0.1848452,1.918133,2.899609,-0.01288534,-3.301854,-2.327346,-3.507726,2.64602,-1.267762,3.578304,2.674366,3.889217,-1.249858,-1.356806,1.584171,-2.091668,2.432159,-0.8116483,-1.622905,-2.113525,-1.039062,1.015197,0.7659686,-2.756639,-1.481715,1.365492,-0.5877678],
[1.067294,3.713007,2.944538,1.553446,2.840853,0.9256052,-0.2477035,-3.787589,-3.234619,-1.753849,-1.015987,0.6093593,-3.980106,-1.896301,-0.7219777,2.306827,3.63112,-1.516402,-2.714643,-1.015357,-1.137304,1.65865,-2.130845,-1.602424,-2.871923,1.468329,0.3774872,3.531103,-0.9779537,-3.187538,3.944084,3.476154,3.333004],
[0.005814862,3.902136,3.689546,-2.286352,3.311197,0.7941046,-0.5772502,-0.7835661,3.378793,-0.9364859,-1.015497,-1.925538,0.9233119,-3.354628,0.6793239,-3.326041,-0.3367128,1.159453,3.218852,-3.736908,-3.261335,1.340392,-2.601711,3.520584,-1.037403,3.070775,1.35005,-3.564207,-2.935779,2.049957,1.330414,-2.906514,-3.192807],
[-3.233459,0.9101059,-1.794028,-1.318988,-2.192284,3.353645,0.325256,-3.960471,3.597744,1.673147,2.302014,1.166513,0.4091497,2.831794,2.523134,3.58602,0.2026504,-3.759451,2.58028,-2.551828,-0.5523003,1.185627,-1.520726,1.879159,3.933021,0.187326,-0.8474771,3.178636,-3.667444,-1.382642,-3.750316,-0.582364,2.209853]
],
[
[3.70402,3.901727,2.61995,-3.661564,-2.383082,0.4708095,-1.550847,-2.937818,2.652466,-0.1642065,2.436407,-2.136288,3.026705,-0.3143518,3.434245,1.238998,0.9063368,1.231972,-2.512,0.696212,2.420559,-0.6539354,2.466664,0.958671,3.100484,1.901729,1.794651,2.89059,2.708172,-3.641018,1.769231,2.901094,0.7615607],
[0.4127717,2.483387,-3.558351,-0.4485762,2.514801,-0.6809655,-1.969101,-0.4595246,1.525358,1.38646,0.5149629,-0.1962779,-2.538264,-1.934096,1.776881,-0.03314639,2.92387,3.808675,-0.1095893,-1.494678,3.294344,0.3146784,-2.288608,-1.898218,-0.7262689,3.071017,-0.9077039,1.656053,-0.1222432,-1.44934,-2.450001,2.322953,-2.474452]
]
],
"biases":[
[
3.449096,2.77628,2.343588,3.207308,0.47827,2.082852,-3.528321,2.192523,-0.07972568,-1.514827,1.399913,-3.754495,3.791612,0.3386024,-3.264188,0.8454868,-1.072384,-3.879599,2.783392,1.139472,2.835451,-2.393504,-1.691802,2.156846,1.057215,3.240428,-0.2820766,2.95227,-3.325386,2.046154,-2.679933,-2.87946,1.659952
],
[
-1.896495,-3.458302
]
]},
{
"fitness":8.058579,
"weights":[
[
[-1.49598,-2.626686,-0.5526496,-1.080046,1.304273,3.763746,0.7595341,-0.5351325,-0.6514432,2.228416,3.608979,-0.8805329,-1.420961,-3.55287,-1.259272,-1.803697,1.833803,-1.665804,2.986316,-3.410816,-1.633437,-2.681192,-1.882414,0.3773375,-3.829311,2.972982,-0.01280875,2.123167,-1.906713,-1.171944,2.558099,3.274437,-0.8516453],
[2.188386,1.516584,-0.8247308,-3.113049,-3.253524,-0.8393911,3.722452,-1.109428,3.537421,1.453408,-1.547883,-1.845244,2.3392,3.851536,-0.5169822,3.809283,0.3310599,-2.256826,3.281819,-0.9446827,3.311482,-0.6575758,-0.2638773,-0.7381272,3.657289,-1.786912,-3.035667,1.202936,-1.801927,1.602441,0.1607817,0.01667918,-2.069539],
[-0.7513856,-0.7246286,3.76253,-1.150597,-1.384982,1.043995,-0.3487595,3.188101,1.458563,-0.5307159,0.5254685,1.652761,0.996366,-2.222569,-3.878083,-3.157925,-2.391136,0.9129422,-3.235108,0.7588578,-1.896509,2.192987,-1.159556,1.455356,3.206129,-3.68541,2.593588,0.3942239,-1.977505,-1.586543,1.247459,-0.9189177,-2.931548],
[3.617959,2.182896,-2.112387,3.158541,-2.681625,2.78514,-3.579634,-2.516208,-0.3129437,3.21242,-0.6179323,-3.655602,1.04572,-1.722905,-0.6098871,1.960937,-1.656441,-2.408287,-2.044706,-3.09241,-1.91014,-3.571603,1.118584,2.537271,-2.541385,2.348185,2.896971,1.140441,3.617335,-2.697615,1.06489,3.185753,1.795451],
[-0.8526725,-3.738571,-0.2715503,0.6991579,-2.842883,-2.050339,-0.4300588,-2.099015,-3.3733,0.7554263,-3.07119,2.849196,3.568349,2.732877,2.391854,2.199437,1.745159,0.4337374,1.684232,1.596206,-0.2763508,-1.493354,0.3733792,-0.1982738,0.3281594,2.471075,-0.3827794,-1.639557,-2.869939,3.086383,-0.4776498,-3.872133,0.04206773],
[-2.809925,-2.277782,-3.567595,2.165849,2.494684,-2.973864,-2.405554,-3.68219,1.777817,1.646308,2.635089,-2.825066,-0.6121358,-1.885972,1.558101,-1.568865,2.878729,-0.9827498,-3.496195,-3.838252,-1.74807,-3.937726,1.249864,0.5814614,3.561648,2.507648,0.8138544,-0.1893765,1.307531,0.06329431,-0.3545519,2.281063,2.931707],
[-2.062397,1.731344,-2.853305,-1.49823,0.1433786,-3.31119,-2.56429,-2.564015,1.404384,0.3195046,3.717521,-0.4323357,3.68333,-1.2124,-1.507361,3.255908,-0.3300289,1.004717,1.370009,1.083292,0.8304381,0.02822555,-3.675522,2.440103,2.488835,-3.534826,2.963277,-3.328381,2.317871,-0.123147,-3.111852,-1.813312,-2.272787],
[3.372318,-0.4894141,1.528149,1.248474,-3.958967,-0.1717489,1.962279,-0.01371933,-3.623412,0.2330521,-1.293777,0.5006746,-3.120079,-3.628147,1.542161,-3.257232,3.284758,-2.486105,2.807396,0.4863601,-0.8959702,3.174372,1.639216,-0.3724381,-1.309398,-3.395586,0.285294,-0.2593897,-0.1568944,-1.054332,1.61407,-2.254001,0.71741],
[-3.875394,-0.7616317,3.72976,1.55894,-1.605205,-0.5581958,-3.928509,-3.598039,-2.992037,0.1798546,2.148626,1.514164,-2.97755,2.905465,2.735177,3.642567,0.9049178,-1.408945,-2.443415,3.709531,1.772324,3.978102,-0.8938369,3.734226,-1.961649,1.45408,-3.415773,2.044089,-3.004357,-3.195606,2.378998,2.155338,-2.2098],
[2.236739,-0.08607174,-3.79302,-1.600002,-2.804569,-3.124256,3.145376,-0.1039052,0.2281819,2.426433,-3.389699,2.780719,2.428702,0.7537179,1.515543,1.917768,0.3648947,-2.482744,3.645811,-3.46885,-0.2209032,-3.674663,3.946136,-0.07841282,1.578094,-3.412906,-2.284975,0.8974723,1.561895,-0.6283594,-1.674806,-2.03035,-0.8338102],
[2.97743,3.675688,-0.672302,3.375693,-3.303621,-3.376134,-0.04408234,-0.4323252,3.086487,-3.439342,-3.037019,1.262383,3.487594,-2.359059,3.725251,1.814496,3.374468,-3.28457,2.517447,-2.384789,-0.5547745,1.780564,3.45504,-1.487626,-1.950197,-2.162147,-0.05356053,3.172338,-3.169601,3.279815,0.8664161,3.223676,-2.393378],
[-2.776731,-2.802037,-2.495692,3.541609,-3.73618,-3.300455,-0.7015331,-0.4106134,-3.41375,0.2624593,1.584688,3.148449,2.344112,-1.161483,-1.893474,-0.1589238,0.7631107,-3.675923,-3.180815,2.878459,-0.2989612,-0.0002308413,-0.02200874,1.150115,3.685712,-3.552548,1.679796,1.55792,3.143638,-2.577292,-2.466188,2.950667,-3.303912],
[2.77844,0.6601688,2.190719,1.871935,2.022322,0.7802441,-1.116736,-2.74652,-0.06892475,2.995286,-3.786158,-1.801564,0.2704707,2.857544,0.9344267,-1.491841,-3.405474,2.382765,0.3059163,-2.190536,-3.723973,-0.469375,-1.161112,0.3151836,-2.596217,1.612956,0.8582513,-2.202919,-1.708285,1.017736,2.949096,1.480994,-2.249818],
[-3.260695,-2.602998,2.965062,-3.565179,-3.277758,-2.447513,1.346217,0.07790276,-1.290135,-0.988192,-2.765216,0.193739,-0.7144642,-1.836537,1.083229,-2.262042,1.377778,-1.618367,-0.5040489,0.5574009,1.442771,1.274611,0.4878468,-3.381942,-0.2167392,-2.434205,-3.226272,1.664534,1.107358,-0.2873482,2.839745,-1.041398,2.807606],
[-2.386063,-2.846641,0.2276939,-0.8015559,-2.356733,-3.920666,0.696715,-2.903854,-2.161513,-3.688777,-0.2079456,-3.50979,-0.9982516,-0.6662896,0.1215758,1.1959,0.1117102,-0.4045588,-3.175002,3.335201,0.57218,3.822883,2.0142,2.433465,-1.143528,-2.486828,-3.329126,3.445543,-2.424382,0.7185254,2.857998,-2.490386,-3.164005],
[0.1955435,-3.495661,1.103561,-0.9186804,-2.461198,-3.538476,0.9009253,-0.8521536,2.157879,0.324512,0.391823,-0.6151302,-3.392471,-2.107601,-2.092562,0.1820833,-0.3407208,-1.960649,3.351393,2.171444,3.235673,3.882364,2.149933,-2.303162,2.160928,2.463889,-0.4858505,3.548878,-1.43226,1.625472,1.956203,-0.03960265,1.561322],
[-3.396574,-3.175922,-3.367014,0.3909792,-2.428352,-3.644507,1.228675,-0.1334257,-0.1707306,-3.692358,-2.292648,3.817006,-3.502642,0.9091187,2.438027,2.707845,-1.609487,2.612289,0.9149037,3.11595,-2.3229,2.677767,-3.723552,3.489927,-0.458081,3.641533,1.215388,1.775746,-1.855667,-3.286712,-2.949446,2.820448,1.149114],
[-0.5837704,0.7864141,3.101064,1.65572,2.180929,-0.2175381,-0.9104026,-1.915158,3.23822,2.362057,0.117254,1.452523,2.820143,3.854486,3.847125,2.531453,1.840136,-3.419882,-0.1580791,3.975844,1.359707,-1.262088,3.150966,-2.084472,2.115056,3.438517,-2.688109,2.612119,-3.890424,-2.188837,3.749458,-0.8402326,-0.09043333],
[-0.7728041,0.9455974,3.40678,-0.8943145,2.519591,-3.057628,2.595726,3.899356,-3.400233,1.640597,-1.482216,-0.1633935,2.97631,-3.019161,2.598302,-3.610535,1.039095,3.194967,3.083545,2.812546,2.547439,-1.671952,-3.473808,-0.1945343,-0.5585532,-1.267793,0.09984691,1.125611,2.789757,-2.706673,3.458873,3.698817,-1.815295],
[1.833785,3.421192,-0.8427548,-2.224071,3.60761,-1.065162,3.158483,-2.564301,0.2907399,-1.740137,-3.523372,3.269041,2.516948,2.920285,-0.383163,-2.138611,1.088999,-0.5320051,-0.3971972,0.9174163,-2.554076,2.188171,0.3077541,-0.3928215,-3.206909,-3.258338,-1.522098,-0.160268,-1.844295,3.13727,3.352597,0.1362514,3.232611],
[-0.1982386,1.578033,2.441548,-3.89596,1.360414,-0.7920567,-2.435433,-3.104937,2.814003,3.209631,1.768552,-2.620779,-2.182292,2.443837,-0.01428501,3.645162,-2.901397,1.941537,-3.27493,1.92452,-1.682874,0.01373805,3.426096,3.581292,-0.4859369,2.400541,-2.210166,3.467987,3.555665,3.10042,-2.052666,-0.3294359,2.150223],
[2.128334,-1.71762,1.151523,-0.8175362,-2.478269,1.458168,3.426129,-2.344264,-1.069589,-3.507267,-3.645477,-2.976311,1.052196,3.703818,3.584893,-2.978875,1.647166,2.669353,-3.647027,-0.3560334,-2.576947,0.6477136,-3.441447,3.551152,-1.893922,1.547306,0.6973597,0.4664154,-1.607526,0.3482807,-3.900899,-3.32374,-1.037339],
[0.2333986,3.246008,0.7528586,2.440599,-2.500858,1.205282,-1.170974,1.418316,-0.819294,0.08204987,-2.910125,2.085888,-3.032337,-2.116389,-3.229093,-2.54793,1.450318,1.619245,-2.471957,0.1238784,3.229325,1.221375,0.7571388,3.170071,-2.771034,-1.783451,2.863342,2.425134,0.7463043,1.626958,0.9070603,2.386272,-3.02403],
[1.340874,1.674865,1.420501,3.738206,2.392934,-2.632255,-0.9446059,-3.42522,-0.992601,3.309132,1.892794,0.7914936,2.718922,-0.2644947,-3.749361,3.493242,-0.1857982,-0.967815,-2.519277,-0.07021579,0.9405531,1.091205,-0.4654896,-3.676919,3.598589,-2.962504,-2.082228,-1.457712,2.293634,-1.214262,-1.262626,-1.008121,-3.780257],
[-0.2869196,-0.5171245,-0.1319409,-2.518761,-1.797291,1.174576,3.891807,-0.5918767,-3.390663,-0.1584023,1.364553,-0.452011,-3.680576,-0.6561996,3.583692,-3.032741,2.379367,0.5482134,0.9144621,-1.307648,3.321916,-2.677851,2.002915,0.7531808,2.543221,3.387537,1.127091,-1.864386,-2.514341,2.399415,2.072833,3.28023,-3.208608],
[0.8148406,-2.21928,3.02643,0.7278299,-1.330311,1.551754,-1.856069,0.9451794,-0.06320988,1.377116,0.9980928,-1.949089,-3.104297,1.077349,1.32134,0.3704836,-0.3222351,-2.051983,-3.886723,2.569742,2.853809,0.2308666,2.729088,-2.468504,0.9812388,-3.500488,-0.677014,2.809906,0.6693478,-2.772892,0.7900926,-1.633847,-0.3599238],
[-0.5580732,3.026165,2.539221,-2.754896,3.575639,2.60797,-1.249182,2.154096,1.154316,0.5551119,-2.764985,3.210569,-2.112433,3.737541,0.3377762,0.8698084,-0.03352814,-2.080179,3.050479,2.693774,3.486591,3.150954,-0.003073284,2.275069,-2.096313,-0.7501157,-0.08927333,-1.461284,2.106571,1.026971,1.374145,-3.063627,-3.58311],
[-3.592026,-1.471456,2.857191,-0.2297567,-0.4298382,1.19871,-0.2932355,-1.423081,0.3502556,1.046209,-1.282062,-2.582272,-1.504106,3.785956,2.711589,-3.43378,-0.5553218,-2.05265,0.8702724,3.087349,1.959165,-2.242888,1.827742,2.156416,0.4853023,3.605362,0.5590004,2.563515,1.4253,0.05726978,1.675951,1.594002,1.202308],
[3.756544,0.8544708,2.122927,3.080954,-1.915808,2.797693,3.397498,2.982813,0.7309293,-0.7318193,2.345031,1.554089,-0.3936306,0.9988587,-1.51215,0.1412398,-1.886347,-3.232139,3.36982,1.45734,-1.026491,-2.961992,0.4654822,-1.869935,-1.13615,-2.881679,2.256231,1.007771,-3.68585,-0.7567662,3.806038,2.375762,-0.9433751],
[-2.23238,-2.084249,-1.39545,3.535733,0.5766455,-2.78409,0.1848452,0.01647469,2.899609,3.954449,-3.301854,-2.327346,-3.507726,2.64602,-3.962031,3.578304,2.674366,3.889217,-1.249858,-1.356806,1.584171,-2.091668,2.432159,-0.8116483,-1.622905,-2.113525,-1.039062,1.015197,0.7659686,-2.756639,0.6506897,1.365492,1.436059],
[1.067294,3.713007,2.944538,1.553446,2.840853,0.9256052,-0.2477035,-3.787589,-2.439753,-1.753849,-1.270019,0.6093593,-3.980106,-0.5936698,-0.7219777,2.306827,3.63112,-1.516402,-2.714643,-1.015357,-1.137304,1.65865,-2.130845,-1.602424,-2.871923,1.468329,0.3774872,1.419558,-0.9779537,-3.187538,0.6598316,3.680227,3.333004],
[0.005814862,3.902136,3.689546,-2.286352,3.311197,0.7941046,-3.963828,-0.7835661,2.067523,-0.9364859,-1.015497,-1.925538,0.9233119,-3.354628,0.6793239,-3.326041,-0.3367128,1.159453,-3.761881,-3.736908,-3.261335,1.340392,-2.601711,3.520584,-1.037403,3.070775,2.004238,2.55084,-2.935779,2.049957,1.330414,-2.906514,-3.192807],
[-3.233459,0.9101059,-1.794028,-1.318988,-2.192284,3.353645,0.325256,-3.960471,3.597744,1.673147,2.302014,1.166513,0.4091497,-3.148727,-0.3435519,3.58602,0.2026504,-3.759451,2.58028,-2.551828,-0.5523003,1.185627,-1.520726,1.879159,3.933021,0.187326,-1.087666,3.178636,-3.667444,1.17893,-3.750316,-0.582364,2.803206]
],
[
[3.70402,3.901727,3.696456,-3.661564,-2.383082,0.4708095,-1.550847,-3.104394,-3.883564,-0.1642065,2.436407,-2.136288,3.026705,-0.3143518,3.434245,1.238998,-0.8321239,1.231972,-2.512,0.696212,2.420559,-0.6539354,2.466664,0.958671,3.100484,1.901729,1.794651,-3.888282,2.708172,1.241674,1.769231,2.901094,0.7615607],
[-1.188202,2.483387,-3.558351,-0.4485762,2.514801,-0.8608306,-1.969101,-0.4595246,1.525358,1.38646,0.5149629,-0.1962779,-2.538264,-1.934096,1.776881,-0.03314639,2.92387,2.939175,-0.1095893,0.7700627,0.6661146,1.537413,-2.288608,-1.898218,-0.7262689,3.071017,-0.9077039,2.824469,-0.1222432,-1.44934,-2.450001,2.322953,-0.7297939]
]
],
"biases":[
[
3.449096,2.77628,2.343588,3.671146,0.47827,2.082852,-3.528321,2.192523,1.690548,-1.514827,1.399913,-3.754495,3.791612,0.3386024,-3.264188,0.8454868,-1.072384,-3.879599,2.783392,1.139472,2.835451,-2.393504,-1.691802,2.156846,2.61242,3.240428,-0.2820766,2.95227,-0.9437858,2.046154,-2.679933,-2.87946,1.659952
],
[
-1.896495,-3.458302
]
]},
{
"fitness":7.891863,
"weights":[
[
[-1.49598,-2.626686,-0.5526496,-1.080046,1.304273,0.9890149,0.7595341,-0.5351325,-0.6514432,2.228416,3.608979,-0.03988644,-1.420961,-2.475916,-1.259272,-1.803697,1.833803,-1.665804,1.18734,-3.410816,-1.633437,-2.963323,-1.882414,0.3773375,-3.829311,2.972982,-0.01280875,2.123167,-1.906713,-1.171944,2.558099,-2.408003,-0.8516453],
[2.188386,1.516584,-0.8247308,-1.671317,-3.253524,-0.8393911,2.038985,-1.109428,0.7055132,1.453408,-1.547883,-0.6179453,2.3392,3.851536,-0.5169822,3.809283,-0.4754096,-2.256826,3.281819,-0.9446827,3.311482,-0.6575758,-0.2638773,-0.7381272,-3.314089,-1.786912,-3.035667,1.202936,-1.801927,1.602441,0.1607817,-2.652411,-2.34683],
[-0.7513856,2.7647,3.76253,-1.150597,-1.384982,1.043995,-0.3487595,3.188101,1.458563,-0.5307159,0.5254685,1.652761,0.996366,-2.222569,-3.878083,-3.157925,-2.391136,0.9129422,-3.235108,0.7588578,-1.896509,3.890121,3.695669,1.455356,3.206129,-3.68541,-0.4005934,0.3942239,-1.977505,-1.586543,1.247459,-0.9189177,-2.931548],
[3.617959,2.182896,-2.112387,3.158541,-2.681625,2.78514,-3.579634,2.239941,-3.117889,3.21242,-0.6179323,-3.655602,1.04572,-1.722905,-0.6098871,1.960937,-2.893324,-2.408287,-2.044706,-3.09241,3.45785,-3.571603,1.118584,2.537271,-2.541385,-2.260261,2.896971,1.140441,3.617335,-2.697615,1.06489,-3.818139,1.795451],
[-1.347977,-3.738571,-0.2715503,0.6991579,-2.842883,-2.050339,-0.4300588,-2.099015,-3.3733,0.7554263,-3.07119,2.849196,3.568349,2.732877,2.391854,2.199437,1.745159,0.4337374,1.684232,-2.94865,-0.2763508,0.07061452,0.3733792,-0.1982738,0.3281594,2.471075,-0.3827794,-1.639557,-2.869939,3.086383,-0.4776498,-3.872133,0.04206773],
[-2.809925,-2.277782,-3.567595,2.165849,2.494684,-2.973864,-2.405554,-3.68219,1.777817,1.646308,2.635089,-2.825066,-0.6121358,-1.885972,-3.090127,-1.568865,2.878729,-0.9827498,-3.496195,-0.4117463,-1.74807,-3.937726,1.249864,0.5814614,3.561648,2.507648,0.8138544,-0.1893765,1.307531,0.06329431,-0.2139913,-2.521848,2.931707],
[-2.062397,1.731344,-2.853305,-1.49823,0.1433786,-3.31119,-2.56429,-2.564015,1.404384,0.3195046,3.717521,-0.4323357,0.5636461,-1.425484,-1.507361,3.255908,-0.3300289,1.004717,1.370009,1.083292,0.8304381,0.02822555,-2.817805,2.440103,2.488835,-3.534826,2.963277,-3.328381,2.317871,-0.123147,-3.111852,-1.813312,-2.272787],
[3.372318,-0.4894141,1.528149,1.248474,-3.958967,-0.1717489,-0.8137738,-0.01371933,-3.623412,0.2330521,-1.293777,0.5006746,-3.120079,-2.671561,1.542161,-3.257232,3.284758,-2.486105,2.807396,-3.86167,-0.8959702,3.174372,1.639216,-0.3724381,-1.309398,1.914168,0.285294,-0.2593897,-0.1568944,-1.054332,-3.642112,2.659684,0.71741],
[-3.875394,-0.7616317,-0.06635816,1.064237,-1.605205,-0.5581958,-3.928509,-3.598039,-2.992037,0.1798546,2.148626,1.514164,-2.97755,2.905465,-1.011132,3.251709,0.9049178,-1.408945,-2.443415,0.8338274,1.772324,3.978102,-0.8938369,-1.992471,-2.030251,1.45408,-3.415773,2.044089,-3.004357,-3.195606,2.378998,2.155338,-2.2098],
[1.017484,-0.08607174,-3.79302,-1.600002,-2.804569,-3.124256,3.145376,-0.1039052,-1.042535,2.426433,-3.389699,2.780719,2.428702,0.7537179,-0.184286,1.917768,0.3648947,-0.926045,3.645811,-3.46885,-0.2209032,-2.385836,3.946136,-0.07841282,1.578094,-3.412906,-2.284975,0.8974723,1.561895,-0.6283594,3.722164,-2.03035,-0.8338102],
[2.97743,0.9050403,-0.672302,3.375693,-3.303621,-3.376134,-0.04408234,-0.4323252,3.086487,-3.439342,-3.037019,1.262383,3.487594,-2.359059,3.228414,1.814496,3.374468,-3.28457,-0.5399653,-2.384789,-0.5547745,1.780564,3.45504,3.16898,-1.950197,-2.162147,-0.05356053,3.172338,-3.169601,3.279815,0.8664161,3.223676,-2.393378],
[-2.776731,-2.802037,-2.495692,3.541609,-3.73618,-3.300455,-0.7015331,-0.4106134,-3.41375,0.2624593,-0.07468468,3.148449,2.344112,-1.161483,-1.893474,-0.1589238,3.123691,-3.675923,-2.182533,2.878459,-0.2989612,-0.0002308413,-0.02200874,2.929815,3.685712,-3.552548,1.679796,-2.969986,3.143638,-2.577292,-2.466188,2.950667,-3.303912],
[2.77844,0.6601688,2.190719,1.871935,2.022322,0.7802441,2.800401,-2.74652,-0.06892475,2.995286,-3.786158,-1.801564,-3.868736,2.940972,0.9344267,-1.491841,-3.405474,2.382765,0.3059163,-2.190536,-3.723973,-0.469375,-1.161112,3.821279,-2.596217,1.612956,0.8582513,-2.202919,-1.708285,-1.567658,2.949096,1.480994,-2.249818],
[-3.260695,-2.602998,2.965062,-3.565179,-3.277758,-2.447513,1.346217,0.07790276,-1.290135,-2.776138,2.788233,0.193739,-0.7144642,-1.836537,1.083229,-2.262042,1.377778,0.9890758,-0.5040489,0.5574009,1.442771,-3.546338,0.4878468,-3.381942,-0.2167392,-2.434205,-3.226272,1.664534,1.107358,-1.472661,0.9368269,-1.041398,2.807606],
[1.467294,-2.846641,0.2276939,-0.8015559,3.87628,-3.920666,0.696715,-2.903854,-2.161513,3.443926,-0.2079456,-3.50979,-0.6023535,-0.6662896,0.1215758,1.1959,0.1117102,-0.4045588,-3.175002,3.335201,0.57218,3.822883,2.0142,2.433465,0.05092366,-2.486828,-3.329126,3.445543,-2.424382,0.7185254,2.857998,-2.490386,-3.164005],
[0.1955435,-3.495661,1.103561,-0.9186804,-2.461198,-3.538476,0.9009253,-1.633295,2.157879,0.324512,0.391823,-0.6151302,-3.392471,-2.107601,-2.491789,0.1820833,-0.3407208,-1.960649,3.351393,2.171444,3.235673,3.882364,2.149933,-2.303162,2.160928,2.463889,-0.4858505,0.05514752,-1.43226,1.625472,1.956203,0.7726421,1.561322],
[-1.663459,-3.175922,-3.367014,0.3909792,-2.428352,-3.644507,1.228675,-0.1334257,-0.1707306,-3.692358,-2.292648,3.817006,-3.502642,0.9091187,2.438027,2.707845,-1.609487,1.847964,-0.1656105,3.11595,-2.3229,2.677767,-3.723552,3.489927,-3.117217,3.641533,1.215388,1.775746,2.738401,-3.286712,-2.949446,2.820448,1.149114],
[-0.5837704,0.7864141,3.101064,1.65572,2.180929,-0.2175381,-0.9104026,-1.915158,3.23822,2.362057,0.117254,1.452523,2.820143,3.854486,3.847125,2.531453,1.840136,-3.419882,-0.1580791,3.975844,1.359707,-1.262088,3.150966,-2.084472,2.115056,3.438517,-2.688109,2.612119,-3.890424,-2.188837,3.749458,-0.8402326,-0.6559406],
[-0.7728041,0.9455974,3.40678,-0.8943145,2.519591,-3.057628,2.595726,3.899356,-3.400233,1.640597,-1.482216,-0.1633935,2.97631,-3.019161,3.012642,-3.610535,1.039095,2.545513,3.083545,2.812546,-1.680209,-1.671952,0.4299229,-0.1945343,-0.5585532,-1.267793,0.09984691,1.125611,-1.594178,-2.706673,3.458873,3.692427,-1.815295],
[1.833785,3.421192,-0.8427548,-2.224071,3.60761,-1.065162,3.158483,-2.564301,0.2907399,-1.740137,-3.523372,3.269041,2.516948,2.920285,-0.383163,-2.138611,1.088999,-0.5320051,-0.3971972,0.9174163,-2.554076,1.26304,0.3077541,-0.01213467,-3.206909,-3.258338,-1.522098,-0.160268,-1.844295,3.13727,3.352597,0.1362514,3.232611],
[-0.1982386,1.578033,2.441548,-3.89596,1.360414,-0.7920567,-2.374577,-3.104937,2.814003,3.209631,1.768552,-2.620779,-1.209529,2.443837,-0.01428501,-1.975257,-2.901397,1.941537,-3.27493,1.92452,2.555177,0.01373805,3.426096,3.581292,-0.4859369,2.400541,-2.210166,3.467987,3.555665,3.10042,3.825763,-0.3294359,2.150223],
[2.128334,-1.71762,1.151523,-0.8175362,-2.478269,1.458168,3.426129,-2.344264,-1.069589,-3.507267,-3.645477,0.6267371,1.052196,3.703818,3.584893,3.25973,1.647166,2.669353,-3.647027,-0.3560334,-2.576947,0.6477136,-3.441447,3.551152,-1.893922,1.547306,1.080173,0.4664154,-1.607526,0.3482807,-3.900899,-3.32374,-1.037339],
[0.2333986,3.246008,0.7528586,2.440599,-2.500858,1.205282,-1.170974,1.418316,-1.604727,0.08204987,-2.910125,2.085888,-3.032337,-2.116389,-3.229093,-2.54793,1.450318,1.619245,-2.471957,0.1238784,3.229325,-0.4063906,0.7571388,3.170071,-2.771034,-1.783451,-2.145165,2.425134,0.7463043,-1.097442,0.9070603,2.386272,-3.02403],
[1.340874,1.674865,1.420501,3.738206,2.392934,-2.632255,-0.9446059,-3.42522,-0.992601,3.309132,-3.952988,-1.693318,2.718922,1.425559,-3.749361,3.493242,-0.1857982,-0.967815,-2.519277,-0.07021579,0.9405531,1.091205,-0.4654896,-3.676919,3.598589,-2.962504,-2.082228,-1.457712,2.293634,-1.214262,-1.262626,-1.008121,-3.780257],
[-0.2869196,-0.5171245,-0.1319409,-2.518761,-1.797291,1.174576,3.891807,-0.5918767,-2.14286,3.151529,1.364553,-0.452011,-3.680576,-0.6561996,2.010462,-3.032741,2.379367,0.5482134,0.9144621,-1.307648,3.321916,-1.989242,2.002915,0.7531808,2.543221,3.387537,1.127091,-1.864386,-2.514341,2.399415,2.072833,3.28023,-3.208608],
[0.8148406,-2.21928,3.02643,0.7278299,-2.425838,-2.526921,-1.856069,1.988588,-2.706834,1.377116,0.9980928,-1.949089,-2.107205,1.077349,1.32134,0.3704836,-0.3222351,-1.270808,-0.05621365,2.569742,2.853809,0.2308666,2.729088,-2.468504,0.9812388,-3.500488,-0.677014,2.809906,0.6693478,3.162914,0.7900926,-1.633847,2.409398],
[-0.5580732,3.026165,2.539221,-2.754896,-0.6696556,2.60797,-1.249182,-0.4694393,1.154316,0.5551119,-2.764985,3.210569,-2.112433,3.737541,0.3377762,0.8698084,-0.03352814,-2.080179,-2.091828,2.693774,3.486591,3.150954,-0.003073284,1.786761,-2.096313,-0.7501157,1.571154,-1.461284,2.106571,1.026971,1.374145,-3.829179,-3.58311],
[-3.592026,-1.471456,-0.8614293,-0.2297567,-0.4298382,1.19871,-0.2932355,-1.423081,0.3502556,1.046209,-1.282062,-2.582272,-1.504106,3.785956,2.711589,-3.43378,-0.5553218,-2.05265,0.8702724,3.087349,1.959165,-2.242888,1.827742,2.156416,2.629543,3.605362,0.1937982,-0.1843139,1.4253,0.05726978,1.675951,1.594002,1.202308],
[3.756544,0.8544708,2.122927,3.080954,-1.915808,2.797693,3.397498,2.982813,0.7309293,-3.676442,2.345031,1.554089,-0.3936306,1.635153,-1.51215,0.1412398,-1.886347,-1.369963,3.36982,1.45734,-3.205849,-2.961992,0.4654822,-1.869935,-1.13615,-2.881679,3.975907,2.452549,-3.68585,-0.7567662,3.806038,2.375762,-0.9433751],
[-2.23238,-2.084249,-1.39545,3.535733,0.5766455,-2.78409,0.1848452,1.918133,2.899609,-0.01288534,-3.301854,-2.327346,-2.896566,2.64602,-1.267762,3.578304,2.674366,3.889217,-1.249858,-1.356806,1.584171,-2.091668,2.432159,-0.8116483,-1.622905,-2.113525,-1.039062,1.015197,0.7659686,-0.02491914,0.05043628,1.365492,1.436059],
[1.067294,3.713007,2.944538,1.553446,2.840853,0.9256052,-0.2477035,0.6489843,-3.234619,-1.753849,-1.015987,0.6093593,-3.980106,-0.5936698,-0.7219777,0.04918659,3.63112,-1.516402,-2.714643,-1.015357,-1.137304,1.65865,-2.130845,-1.602424,-2.871923,1.468329,0.3774872,3.531103,-0.9779537,-3.187538,0.6598316,3.680227,3.333004],
[0.005814862,3.902136,3.689546,3.907406,3.311197,0.7941046,-1.769387,-0.7835661,3.378793,-0.9364859,-1.015497,-1.925538,0.9233119,-3.354628,0.6793239,0.09200235,-0.3367128,1.159453,-3.761881,-3.736908,1.975611,1.340392,-2.601711,3.520584,-1.037403,3.070775,2.746768,-3.564207,3.324939,2.049957,1.330414,-2.906514,-3.192807],
[-3.233459,0.9101059,-1.794028,-1.318988,-2.192284,3.353645,0.325256,-3.960471,3.597744,1.673147,2.302014,1.166513,-1.337704,-3.148727,2.523134,3.58602,0.2026504,-3.759451,2.58028,-2.551828,-0.5523003,2.915501,-1.520726,1.879159,3.933021,0.187326,-0.8474771,3.178636,-3.667444,1.17893,-3.750316,-0.582364,2.209853]
],
[
[3.70402,3.901727,2.61995,-3.661564,-2.383082,0.4708095,-1.550847,-3.104394,-3.883564,-0.1642065,2.436407,-2.136288,3.026705,-0.3143518,3.434245,1.238998,0.9063368,1.231972,-2.512,0.696212,2.420559,-0.6539354,2.466664,2.56441,3.100484,1.901729,1.794651,2.89059,2.708172,1.241674,1.769231,2.901094,0.7615607],
[0.4127717,2.483387,-3.558351,-0.4485762,2.514801,-0.8608306,-1.969101,-0.4595246,1.525358,1.38646,0.5149629,-0.1962779,-2.538264,-1.934096,1.776881,-0.03314639,2.92387,2.939175,-2.503803,0.7700627,3.294344,1.537413,-2.288608,-1.898218,0.5407786,2.80059,-0.9077039,2.824469,-0.1222432,-1.44934,-2.450001,2.322953,-2.474452]
]
],
"biases":[
[
3.449096,2.77628,2.343588,3.671146,0.47827,2.082852,-3.528321,2.192523,1.690548,-1.514827,1.399913,-3.754495,3.791612,0.3386024,-3.264188,0.8454868,1.82437,-3.879599,2.783392,1.139472,2.835451,-2.393504,-1.691802,2.156846,2.61242,3.240428,-0.2820766,2.95227,1.841395,2.046154,-2.679933,-2.87946,1.659952
],
[
-1.896495,-3.458302
]
]},
{
"fitness":7.790311,
"weights":[
[
[-1.49598,-2.626686,-0.5526496,-1.080046,1.304273,0.9890149,0.7595341,-0.5351325,-0.6514432,-2.158173,3.608979,-0.8805329,-1.420961,-2.475916,-1.259272,-1.803697,1.833803,-1.665804,1.18734,-3.410816,-1.633437,-2.963323,-1.882414,0.3773375,-3.829311,2.972982,-0.01280875,2.123167,-1.906713,-2.867917,2.558099,-2.408003,-0.8516453],
[2.188386,-2.933699,-0.8247308,-1.671317,-3.253524,-0.8393911,2.038985,-1.109428,0.7055132,1.453408,-1.547883,-0.6179453,2.3392,3.851536,-0.5169822,3.809283,-0.4754096,-2.256826,3.281819,-0.9446827,3.00299,-0.6575758,-0.2638773,-0.7381272,3.657289,-1.786912,-3.035667,1.202936,-1.801927,1.602441,0.1607817,0.01667918,-2.34683],
[-0.7513856,2.7647,3.76253,-1.150597,2.330083,1.043995,-0.3487595,3.188101,1.458563,-0.5307159,0.5254685,1.652761,0.996366,-2.222569,-3.878083,0.5256878,-2.391136,0.9129422,-3.235108,0.7588578,-1.896509,2.192987,3.695669,1.455356,3.206129,-3.68541,-0.4005934,0.3942239,-1.977505,-1.586543,1.247459,-0.9189177,-2.931548],
[3.617959,2.182896,-2.112387,3.158541,-2.681625,2.78514,-3.579634,2.239941,-3.117889,-3.550767,-0.6179323,-3.651042,1.04572,-1.722905,-0.6098871,1.960937,-2.893324,-2.408287,-2.044706,-3.09241,3.45785,-3.571603,1.118584,2.537271,-2.541385,-2.260261,2.896971,1.140441,3.617335,-2.697615,1.06489,1.550044,0.5489415],
[-1.347977,-3.738571,-0.2715503,0.6991579,-2.842883,-2.050339,-0.4300588,-2.099015,1.397106,0.7554263,-3.07119,2.849196,3.568349,2.732877,2.391854,2.199437,1.745159,0.4337374,1.684232,1.596206,-0.2763508,0.07061452,0.3733792,-0.1982738,0.3281594,2.471075,-0.3827794,-1.639557,-2.869939,3.086383,-0.4776498,-3.872133,0.04206773],
[-2.809925,-2.277782,-3.567595,1.269675,2.494684,-2.973864,-2.405554,-3.68219,1.777817,1.646308,2.635089,-2.825066,-0.6121358,-1.885972,-3.090127,-1.568865,2.878729,-0.9827498,-3.496195,-0.4117463,-1.74807,-3.937726,1.249864,0.5814614,3.561648,2.507648,0.8138544,-0.1893765,1.307531,0.06329431,-0.2139913,-2.521848,2.931707],
[-2.062397,1.731344,-2.853305,-1.49823,0.1433786,-3.31119,-2.56429,-2.564015,1.404384,0.3195046,3.717521,-0.4323357,0.5636461,-1.425484,-1.507361,3.255908,-0.3300289,1.004717,1.370009,1.083292,0.8304381,0.02822555,-2.817805,2.440103,2.488835,-3.534826,2.963277,-3.328381,2.317871,-0.123147,-3.111852,-1.813312,-2.272787],
[3.372318,-0.4894141,1.528149,1.248474,-3.958967,-0.1717489,-0.8137738,-0.01371933,-3.623412,0.2330521,-1.293777,0.5006746,-3.120079,-2.671561,1.542161,-3.257232,3.284758,-2.486105,2.807396,0.4863601,-0.8959702,3.174372,1.639216,-0.3724381,-1.309398,1.914168,0.285294,-0.4306589,-0.1568944,-1.054332,-3.642112,2.659684,0.71741],
[-3.875394,2.831594,-0.06635816,1.064237,-1.605205,-0.5581958,-3.928509,-3.598039,-2.992037,0.1798546,3.829012,1.514164,-2.97755,2.905465,-1.011132,3.251709,0.9049178,-1.408945,-2.443415,2.337176,1.772324,3.978102,-0.8938369,-1.992471,-1.961649,1.45408,-3.415773,2.044089,-3.004357,-3.195606,2.378998,2.155338,-2.2098],
[1.017484,-3.554288,-3.79302,-1.600002,-2.804569,-0.778797,3.145376,-0.1039052,-1.042535,2.426433,-3.389699,2.780719,2.428702,0.7537179,-0.184286,1.917768,0.3648947,-0.926045,3.645811,-3.46885,-0.2209032,-3.674663,3.946136,-0.07841282,1.578094,-0.6057304,-2.284975,0.1656683,1.561895,-0.6283594,3.722164,-2.03035,-0.8338102],
[-0.6106842,0.9050403,-0.672302,3.375693,-3.303621,-3.376134,-0.04408234,-0.4323252,3.086487,-3.439342,-2.909752,1.262383,3.487594,-2.359059,3.228414,1.814496,3.374468,-3.28457,-0.5399653,-2.384789,-0.5547745,1.643748,3.233871,3.16898,-1.950197,-2.162147,-0.05356053,3.172338,-3.169601,3.279815,0.8664161,3.223676,-2.393378],
[-0.5894266,-2.802037,-2.495692,3.541609,1.793241,-3.300455,-0.7015331,-0.4106134,-3.41375,0.2624593,-0.07468468,3.148449,2.344112,-1.161483,-1.893474,-0.1589238,0.7631107,-3.675923,1.451298,2.878459,-0.2989612,-0.0002308413,-0.02200874,2.929815,3.685712,-3.552548,1.679796,1.55792,3.143638,-0.5519254,-2.466188,2.950667,-3.303912],
[2.77844,0.6601688,2.190719,1.871935,2.022322,0.7802441,-1.116736,-1.53509,-0.06892475,2.995286,-3.786158,-1.801564,-3.868736,2.940972,0.9344267,-1.491841,-2.658549,2.382765,0.3059163,-2.190536,-3.723973,-0.469375,-1.161112,3.821279,-2.596217,1.612956,0.8582513,-2.202919,-1.708285,-1.567658,2.949096,1.480994,-2.249818],
[-3.260695,-2.602998,2.965062,-3.565179,-3.277758,-2.447513,1.346217,0.07790276,-1.290135,-2.776138,2.788233,0.193739,-0.7144642,-1.836537,1.083229,-2.262042,2.147824,0.9890758,-0.5040489,0.5574009,1.442771,-3.546338,0.4878468,-3.381942,-0.2167392,-2.434205,-2.530396,1.664534,1.107358,-1.472661,0.9368269,-1.041398,2.807606],
[1.467294,-2.846641,0.2276939,-0.8015559,3.87628,-3.920666,0.696715,-2.582498,-2.161513,3.443926,-0.2079456,-3.50979,-2.997878,-0.6662896,0.1215758,1.1959,0.1117102,-0.4045588,-3.175002,3.335201,0.57218,3.822883,2.0142,2.433465,0.05092366,-2.486828,-3.329126,3.426715,-2.424382,0.7185254,2.857998,-2.490386,-3.164005],
[0.1955435,-3.495661,-0.5653839,-0.9186804,-2.461198,-3.538476,-2.197649,-1.633295,2.157879,0.324512,-2.699698,3.343029,-3.392471,-2.107601,-2.491789,0.1820833,-0.3407208,-1.960649,3.351393,0.505642,3.235673,3.882364,2.149933,-2.303162,2.160928,2.463889,-0.4858505,0.05514752,-1.43226,1.625472,1.956203,0.7726421,1.561322],
[-1.883491,-3.175922,-3.367014,0.3909792,-2.428352,-3.644507,1.228675,-0.1334257,-0.1707306,-3.692358,3.831336,3.817006,-3.502642,0.9091187,2.438027,2.707845,-1.609487,1.847964,-0.1656105,3.11595,-2.3229,2.677767,-3.723552,3.489927,-3.117217,3.641533,1.215388,1.775746,2.738401,-3.286712,-2.949446,2.820448,1.149114],
[-0.5837704,0.7864141,3.101064,1.65572,2.180929,-0.2175381,-0.9104026,-1.915158,3.23822,0.4796978,0.117254,1.452523,2.820143,3.854486,3.847125,2.531453,1.840136,-3.419882,-0.1580791,3.975844,1.359707,-1.262088,3.150966,-2.084472,2.115056,3.438517,-2.688109,2.612119,-3.890424,-2.188837,3.749458,-0.8402326,-0.6559406],
[-0.7728041,0.9455974,3.40678,-0.8943145,2.519591,-3.057628,2.595726,3.899356,-3.400233,1.640597,-1.482216,-0.1633935,2.97631,-3.019161,3.012642,-3.610535,1.039095,2.545513,3.083545,2.812546,-0.6753777,-1.671952,0.4299229,-0.1945343,-0.5585532,-1.267793,0.09984691,1.125611,-1.594178,-2.706673,3.458873,3.692427,-1.815295],
[1.833785,3.421192,-0.8427548,-2.224071,3.60761,-1.065162,3.158483,-2.564301,0.2907399,-1.740137,-3.523372,3.269041,2.516948,2.920285,-0.383163,-2.138611,1.088999,-0.5320051,-0.3971972,0.9174163,-2.554076,2.188171,0.3077541,-0.01213467,-3.206909,-3.258338,-1.522098,-0.160268,-1.844295,3.13727,3.352597,1.2055,3.232611],
[-0.1982386,1.578033,2.441548,-3.89596,1.360414,-0.7920567,-2.374577,-3.104937,2.814003,3.209631,1.768552,-2.620779,-1.209529,2.443837,-0.01428501,3.645162,-2.901397,1.941537,-3.27493,1.92452,2.555177,0.01373805,3.426096,3.581292,-0.4859369,2.400541,-2.210166,3.467987,3.555665,3.10042,3.825763,-0.3294359,2.150223],
[2.128334,-1.71762,1.151523,-0.8175362,-2.478269,1.458168,3.426129,-2.344264,-1.069589,-3.507267,-3.645477,0.6267371,1.052196,3.703818,3.584893,3.25973,1.647166,2.669353,-3.647027,-0.3560334,-2.576947,0.6477136,-3.441447,3.551152,-1.893922,1.547306,1.080173,-0.7038924,-1.607526,0.3482807,-3.900899,3.959414,-1.037339],
[0.2333986,3.246008,0.7528586,2.440599,-2.500858,1.205282,-1.170974,1.418316,-1.604727,0.08204987,-2.910125,2.085888,-3.032337,-2.116389,-3.229093,-2.54793,1.450318,1.619245,-2.471957,0.1238784,3.229325,-0.4063906,0.7571388,3.170071,-1.542206,-1.783451,-2.145165,2.425134,-2.393898,-1.097442,0.9070603,2.386272,-3.02403],
[1.340874,1.674865,1.420501,3.738206,2.392934,-2.632255,-0.9446059,-3.42522,-0.992601,3.309132,1.892794,1.076498,2.718922,1.798913,-3.749361,3.493242,-0.1857982,-0.967815,-2.519277,-0.07021579,0.9405531,1.091205,-0.4654896,-3.676919,3.598589,-2.962504,-2.082228,-1.457712,2.293634,-1.214262,-1.262626,-1.008121,-3.780257],
[-0.2869196,-0.5171245,-0.1319409,-2.518761,-1.797291,1.174576,3.891807,-0.5918767,-2.14286,3.151529,1.364553,-0.452011,-3.680576,-0.6561996,2.010462,-3.032741,2.379367,0.5482134,0.9144621,-1.307648,3.321916,-1.989242,2.002915,0.7531808,2.543221,3.387537,1.127091,-1.864386,-2.514341,2.399415,2.072833,3.28023,2.630685],
[0.8148406,-2.21928,3.02643,0.7278299,-2.425838,-2.526921,-1.856069,1.988588,-2.706834,1.377116,0.9980928,-1.949089,-2.107205,1.077349,1.32134,0.3704836,-0.3222351,-1.270808,-0.05621365,2.569742,2.853809,0.2308666,2.729088,-2.468504,0.9812388,-3.500488,-2.559306,2.809906,0.6693478,3.162914,0.7900926,-1.633847,2.409398],
[-0.5580732,3.026165,2.539221,-2.754896,-0.6696556,2.60797,0.225373,-0.4694393,1.154316,0.5551119,-2.764985,3.210569,-2.112433,3.737541,0.3377762,0.8698084,-0.03352814,-2.080179,3.050479,2.693774,3.486591,3.150954,-0.003073284,1.786761,-2.096313,-0.7501157,1.571154,-1.461284,2.106571,1.026971,1.374145,-3.829179,-3.58311],
[-3.592026,-1.471456,2.857191,-0.2297567,-0.4298382,1.19871,-0.2932355,-1.423081,0.3502556,-3.738909,-1.282062,-2.582272,-1.504106,3.785956,2.711589,-3.43378,-0.5553218,-2.05265,0.8702724,3.087349,1.959165,-2.242888,1.827742,2.156416,2.629543,3.605362,0.1937982,-0.1843139,1.4253,0.05726978,1.011644,1.594002,1.202308],
[3.756544,0.8544708,2.122927,3.080954,-1.915808,2.797693,3.397498,2.982813,0.7309293,-0.7318193,2.345031,1.554089,-0.3936306,1.635153,-1.51215,0.1412398,-1.886347,-1.369963,3.36982,1.45734,-3.205849,-2.961992,0.4654822,-1.869935,-1.13615,-2.881679,3.975907,1.007771,-3.68585,-0.7567662,3.806038,2.375762,-0.9433751],
[-2.23238,-2.084249,-1.39545,3.535733,0.5766455,-2.78409,0.1848452,1.918133,2.899609,-0.01288534,-3.301854,-2.327346,-2.896566,3.752299,-1.267762,3.578304,2.674366,3.889217,-1.249858,-1.356806,1.584171,-2.091668,2.432159,-0.8116483,-1.622905,-2.113525,-1.039062,1.015197,0.7659686,-2.756639,0.05043628,1.365492,1.436059],
[1.067294,3.713007,2.944538,2.670864,2.840853,0.9256052,-0.2477035,-3.787589,-3.234619,-1.753849,-1.015987,0.6093593,-3.980106,-0.5936698,-0.7219777,0.04918659,3.63112,-1.516402,-2.714643,-0.4326847,-1.137304,1.65865,-2.130845,-1.602424,-2.871923,1.468329,0.3774872,3.531103,-0.9779537,-3.187538,0.6598316,3.680227,3.333004],
[0.005814862,3.902136,3.689546,3.907406,3.311197,0.7941046,-1.769387,2.179841,3.378793,-0.9364859,-1.015497,-1.925538,0.9233119,-3.354628,0.6793239,-3.326041,-0.3367128,1.159453,-3.761881,-3.736908,1.975611,1.340392,-2.601711,3.520584,-1.037403,3.070775,2.746768,-3.564207,3.324939,2.049957,1.330414,-2.906514,-3.192807],
[-3.233459,0.9101059,-1.794028,0.05890599,-2.192284,3.353645,0.325256,1.900254,3.597744,1.673147,2.302014,1.166513,0.4091497,-3.148727,2.523134,3.665671,0.2026504,-3.759451,2.58028,-2.551828,-0.5523003,1.185627,-1.520726,1.879159,3.933021,0.187326,-0.8474771,-2.118291,-3.667444,1.17893,-3.750316,-0.582364,2.209853]
],
[
[3.70402,3.901727,2.61995,-3.661564,-2.383082,0.4708095,-1.550847,-3.104394,-3.883564,-0.1642065,2.436407,-2.136288,3.026705,-0.3143518,3.434245,1.238998,0.9063368,1.231972,-2.512,0.696212,2.420559,-0.6539354,2.466664,2.56441,3.100484,0.01347731,1.794651,2.89059,2.708172,1.241674,1.769231,2.901094,0.7615607],
[0.4127717,2.483387,-3.558351,-0.4485762,2.514801,-0.8608306,-1.969101,-0.4595246,1.525358,1.38646,0.5149629,-0.1962779,-2.538264,-1.934096,1.776881,-0.03314639,2.92387,2.939175,-0.1095893,0.7700627,3.294344,1.537413,-2.288608,-1.898218,0.5407786,2.80059,-0.9077039,2.824469,-0.1222432,-1.44934,-2.450001,2.322953,-2.474452]
]
],
"biases":[
[
3.449096,2.77628,2.343588,3.671146,0.47827,2.082852,2.436413,2.192523,1.332415,-1.514827,1.399913,-3.754495,-1.177354,0.3386024,-3.264188,0.8454868,-1.072384,-3.879599,2.783392,1.139472,2.835451,-2.393504,-1.691802,2.156846,2.61242,3.240428,-0.2820766,2.95227,1.841395,2.046154,-2.932452,-2.87946,1.659952
],
[
-1.896495,-3.458302
]
]},
{
"fitness":7.790155,
"weights":[
[
[-1.49598,-2.626686,-2.461348,3.363545,1.304273,0.9890149,1.474379,-0.5351325,-0.6514432,2.228416,3.608979,-0.8805329,-0.789148,-2.475916,-1.259272,-1.803697,1.833803,-1.665804,2.986316,-3.410816,-1.633437,-2.963323,-1.882414,0.3773375,-3.829311,2.972982,-0.01280875,2.123167,-1.906713,-1.171944,2.558099,-2.408003,-0.8516453],
[2.188386,1.516584,-1.904657,-3.113049,-3.699897,-0.8393911,-3.228036,-1.109428,0.7055132,1.453408,-1.547883,-0.6179453,2.3392,3.851536,-0.5169822,-2.998602,-1.141992,-2.256826,3.281819,-0.9446827,3.311482,-0.6575758,-0.2638773,-0.7381272,3.657289,-1.786912,-3.035667,1.202936,-1.801927,1.602441,0.1607817,0.01667918,-2.34683],
[-0.7513856,-0.7246286,3.76253,-1.150597,-1.384982,1.043995,-0.3487595,3.188101,1.458563,-2.554256,-0.4630049,1.652761,0.996366,-2.222569,-3.878083,-3.157925,-0.7413307,0.9129422,-3.235108,0.7588578,-1.896509,2.192987,-1.159556,1.455356,3.206129,2.626026,2.593588,0.3942239,-1.977505,-1.586543,1.247459,-0.9189177,-3.755671],
[3.617959,2.182896,-2.112387,3.158541,-2.681625,2.78514,-3.579634,2.239941,2.639325,3.21242,-0.6179323,-3.655602,-1.691144,-1.722905,-0.6098871,1.960937,-1.656441,3.101507,-2.044706,-3.09241,-2.457341,-3.571603,1.118584,2.537271,-2.541385,-2.260261,2.896971,1.140441,3.617335,-2.697615,1.06489,-3.818139,1.795451],
[-1.347977,-1.05169,-0.2715503,3.379325,0.7437768,-2.050339,-0.4300588,-2.099015,-3.3733,0.7554263,-3.07119,2.849196,3.568349,2.732877,2.391854,2.199437,1.745159,0.4337374,1.467392,1.596206,-0.2763508,0.07061452,-0.2469538,-0.1982738,0.3281594,2.471075,-0.3827794,-1.639557,-2.869939,3.086383,-0.4776498,-3.872133,0.04206773],
[-2.809925,-2.277782,-3.567595,2.165849,-1.469461,-2.973864,-2.405554,-3.68219,1.777817,1.646308,2.635089,-2.825066,-0.6121358,-1.885972,-3.090127,-1.568865,2.878729,-0.9827498,-3.496195,-2.008418,-1.74807,-3.937726,1.249864,0.5814614,-1.28779,2.507648,1.84962,-0.1893765,1.307531,0.06329431,-0.2139913,-2.521848,0.9392037],
[-2.062397,1.453231,-2.853305,-1.49823,0.1433786,-3.31119,-2.56429,-2.564015,1.404384,0.3195046,3.717521,-0.4323357,3.68333,-0.07713234,-1.507361,3.255908,-0.3300289,1.004717,0.4244945,1.083292,0.8304381,0.02822555,-2.298638,3.524782,2.488835,-3.534826,2.963277,-3.328381,2.317871,-0.123147,2.637197,-1.813312,-2.272787],
[3.831536,-0.4894141,1.528149,1.248474,-3.958967,-0.1717489,1.962279,-0.01371933,-3.623412,0.2330521,-1.293777,0.5006746,-3.120079,-2.671561,1.542161,-3.257232,-3.401272,-2.486105,0.07289194,0.4863601,-3.478554,3.174372,1.639216,2.847285,-1.309398,1.914168,0.285294,-0.2593897,-0.1568944,-1.054332,-3.642112,2.659684,0.71741],
[-3.875394,-0.7616317,-0.06635816,1.55894,-1.605205,1.056855,-1.548324,-3.598039,-2.992037,0.1798546,2.148626,1.514164,-0.3196891,2.905465,2.735177,3.251709,0.9049178,-1.408945,-2.443415,2.337176,2.339582,3.978102,-3.854627,-1.992471,-1.961649,1.45408,-3.415773,2.044089,-3.004357,-3.195606,2.378998,2.155338,-2.2098],
[1.017484,-0.08607174,-3.79302,2.594143,-2.804569,-3.124256,3.145376,-0.1039052,-1.042535,2.426433,-3.389699,0.4623968,2.428702,0.7537179,-0.184286,1.917768,0.3648947,-2.482744,3.645811,-3.46885,-0.2209032,1.758208,3.946136,-0.07841282,3.767783,-3.412906,-3.164505,2.4717,1.561895,-0.6283594,3.722164,-2.03035,-0.8338102],
[2.97743,3.918305,-0.672302,3.375693,3.186223,-3.376134,-0.04408234,-0.4323252,3.086487,-3.439342,-3.134567,1.262383,3.487594,-2.359059,3.725251,1.814496,3.374468,-0.894464,-0.5399653,-2.384789,3.939859,1.780564,3.45504,3.16898,-1.51303,-2.162147,-0.05356053,3.604438,-3.169601,3.279815,3.513927,3.223676,-2.393378],
[-2.197977,-2.802037,-3.882295,3.541609,-3.73618,-3.300455,-0.7015331,-0.4106134,-3.41375,0.2624593,0.2469407,3.148449,-2.196365,-1.161483,-1.893474,-0.1589238,-1.254822,-3.675923,-2.182533,-2.046225,-0.2989612,-0.0002308413,-0.02200874,1.150115,3.685712,-3.552548,1.679796,1.55792,2.632145,-2.577292,-2.466188,2.950667,-3.303912],
[2.77844,0.6601688,2.961466,1.871935,2.022322,0.7802441,-1.116736,-2.74652,-0.06892475,2.995286,-3.786158,-1.801564,-3.868736,2.940972,0.9344267,-1.491841,1.90978,2.382765,-1.157677,-2.190536,-3.723973,-0.469375,-1.161112,3.821279,-2.596217,1.612956,0.8582513,-2.202919,-1.708285,1.017736,2.949096,1.480994,-2.249818],
[-3.260695,-0.5386261,2.965062,-3.565179,-3.277758,-0.6173604,1.346217,0.07790276,-1.290135,-2.776138,2.788233,0.193739,-0.7144642,-1.836537,1.083229,-2.262042,1.377778,0.9890758,-0.5040489,0.5574009,-3.064899,-3.546338,-0.5079991,-3.381942,-3.57185,-2.434205,-3.226272,1.664534,1.107358,-0.2873482,0.9368269,-1.041398,0.8405746],
[1.467294,-2.846641,0.2276939,-0.8015559,3.87628,1.378861,0.7386933,-2.903854,-2.161513,3.443926,-0.2079456,-1.136052,-2.997878,-1.602651,0.1215758,1.1959,-2.833214,-0.4045588,-3.175002,3.335201,-0.1461399,3.822883,2.0142,2.433465,-1.143528,-2.486828,-3.329126,-0.7200544,-2.424382,0.7185254,2.857998,-2.490386,-3.164005],
[0.1955435,-3.495661,1.103561,-0.9186804,-2.461198,-3.538476,0.9009253,-1.633295,2.157879,0.324512,-0.5375198,-0.6151302,-3.392471,-2.107601,1.386783,0.1820833,-0.3407208,-1.960649,3.351393,-3.48039,3.235673,3.882364,-1.82371,-2.303162,2.160928,-1.247583,-0.4858505,0.05514752,-1.43226,1.625472,1.956203,0.5978801,-3.738978],
[-3.396574,-3.175922,-3.367014,0.3909792,1.734084,-3.644507,1.228675,-0.1334257,-2.172203,-3.692358,-2.292648,3.817006,-3.502642,0.9091187,2.438027,-2.516165,-1.609487,1.847964,-0.1656105,3.11595,-2.3229,2.677767,-3.723552,3.489927,-0.458081,3.641533,1.215388,1.775746,3.416211,-3.286712,-2.949446,2.820448,1.149114],
[-0.5837704,0.7864141,3.101064,-3.359404,2.180929,3.807092,-0.9104026,-1.915158,-0.5343518,2.362057,0.117254,1.452523,2.820143,3.854486,3.847125,2.531453,1.840136,-3.419882,-2.86777,1.899817,1.359707,-1.262088,3.150966,-2.084472,2.115056,3.438517,-2.688109,3.807976,-3.890424,-2.554772,3.749458,-0.8402326,-0.6559406],
[-0.7728041,0.9455974,3.40678,-0.8943145,2.519591,-3.057628,2.595726,3.899356,-3.400233,1.640597,-0.327125,-0.1633935,2.97631,-3.019161,-2.484772,-3.610535,1.039095,2.545513,3.083545,2.812546,2.547439,-1.671952,-3.473808,-0.1945343,-0.5585532,-1.267793,0.09984691,1.125611,-1.594178,3.942911,3.458873,3.692427,-1.815295],
[1.833785,3.421192,-0.8427548,-2.224071,3.60761,-2.727706,-3.215655,-2.564301,-2.168683,-1.740137,-3.523372,3.269041,2.516948,2.920285,-0.383163,-2.138611,1.088999,-0.5320051,-0.3971972,0.9174163,-2.554076,2.188171,1.577147,-0.01213467,-2.964165,-3.258338,-1.522098,0.5106841,-2.652779,3.13727,3.352597,0.1362514,3.232611],
